node,0,1,2,3,4,5,6,7,8,9,10,11,12,13,14,15,16,17,18,19,20,21,22,23,24,25,26,27,28,29,30,31,32,33,34,35,36,37,38,39,40,41,42,43,44,45,46,47,48,49,50,51,52,53,54,55,56,57,58,59,60,61,62,63
và,-0.21861449,0.41411725,0.37934545,0.22568119,-0.35352468,0.4035998,-0.20133778,0.088281065,-0.19479527,0.068263866,0.14425567,-0.16191451,0.03582318,-0.08313299,-0.3563358,-0.13409075,0.054507874,0.5066657,-0.19653893,-0.18159905,0.095578015,-0.39670083,-0.14447957,-0.052325014,0.21775192,0.01793588,0.00035750953,-0.1670244,-0.21983531,0.15405731,-0.26379052,-0.26131633,-0.3134404,-0.18858849,0.19068968,-0.17169619,0.2619748,-0.01095835,-0.21056974,0.15834881,-0.4312508,0.36233297,-0.06925642,-0.18807487,0.25541916,0.33398402,-0.031992488,-0.13071746,-0.2727698,-0.28197232,0.31961873,0.13940631,-0.2818876,-0.12364792,-0.17857204,-0.043721993,0.0832165,0.05340825,0.027557788,-0.06155563,-0.38838586,0.10906677,-0.013637132,0.21657859
là,0.19750136,-0.2645951,-0.05219673,0.028883245,0.2648041,0.015959721,-0.06749395,-0.38585535,0.07398003,0.20661502,-0.14561774,-0.050441176,0.020009018,-0.50701165,0.11075674,0.07055748,-0.06391355,0.5439278,-0.38728023,0.06153812,0.3837707,-0.0914106,-0.011114098,-0.15946692,0.28042763,-0.2827997,-0.20605277,0.06738666,-0.3969181,0.12579145,0.3944029,0.029549628,0.004798006,0.18653774,0.050347336,-0.069793254,0.29741085,-0.12137722,-0.28201157,-0.15599729,0.13158639,-0.04917406,-0.0018602905,0.17055385,0.046183083,0.24754125,-0.2771312,-0.10152904,0.021611404,-0.43749914,0.12440375,-0.17192718,-0.30702358,-0.20680523,-0.4985116,-0.07549193,0.08629798,-0.23245357,0.042352963,-0.17806523,-0.0333524,0.17649113,0.3162061,0.26774913
núi,-0.14738822,0.033805236,0.2758223,0.08365177,-0.3440909,0.10963153,-0.021600606,-0.26919517,-0.43859735,0.13612257,-0.08070758,-0.08798642,0.086292624,0.006457892,-0.4219498,0.065837994,0.17167409,0.5354475,-0.52512956,0.10793011,0.15035975,-0.007979232,-0.33131817,-0.05734159,0.19945288,-0.1625903,0.13559519,0.07140836,-0.4725536,0.096790366,-0.14680888,-0.048947908,-0.40241277,-0.0022771,-0.06866584,-0.18165706,0.018009098,-0.10804416,-0.04309159,0.18676206,-0.22724791,-0.24448618,0.04798359,0.14438966,0.18635464,0.39999074,-0.23720327,-0.13641816,-0.14850807,-0.30005446,0.31717005,0.20062412,0.111831285,-0.30160666,-0.05361754,0.2497322,-0.20475253,0.10270406,-0.112538494,-0.033675093,-0.18783666,0.11168817,-0.09989294,0.25045776
của,-0.051857896,-0.39413232,0.29260597,0.0021370228,0.31809774,0.032698434,7.2657e-05,-0.06892692,0.08545012,0.30550694,-0.21599683,0.016328536,-0.14328358,-0.6782405,-0.020013817,0.0025626624,-0.24541076,0.5285042,0.030444095,-0.30705395,0.52025783,0.038113296,0.026237745,-0.29624426,0.28598326,-0.43746066,-0.3198975,0.2813403,-0.35070717,0.23760861,0.22448936,0.18946971,-0.22052155,-0.057992827,0.116146795,-0.060951903,0.029280404,0.07896921,-0.041192107,-0.087867945,-0.086062685,0.17508776,-0.0121063255,0.120820366,0.3764973,0.3410552,0.18613707,-0.27149454,0.1454155,-0.42526475,0.39203647,-0.09533473,-0.16948035,-0.18472177,-0.5502798,-0.12420771,-0.029717864,-0.5049724,-0.23047651,-0.07626692,-0.09472512,0.13922219,0.1241772,-0.030144358
đỉnh,0.083954625,-0.19976313,-0.020355657,-0.0076792785,-0.080820955,-0.058345936,0.14292818,0.05394255,0.0929849,-0.065968424,-0.04241236,0.14075242,0.0710524,-0.22887751,-0.12510169,0.06758342,-0.19640723,0.5114962,-0.12647617,-0.100853406,0.42287722,0.0646322,-0.4389295,-0.12086137,0.15486386,-0.117960095,0.06903853,-0.043361217,-0.5334345,0.28228998,0.13747661,0.00020789666,-0.10445356,0.057119224,0.03019139,-0.13525912,0.04980424,0.015206748,-0.055787574,-0.15454665,0.10946927,-0.34213015,0.24965487,0.2397382,0.13250339,0.30528355,-0.14135286,-0.15225706,-0.1013614,-0.22554159,0.354396,-0.077469364,-0.017735658,-0.051324166,-0.32242835,0.38860497,0.080529794,-0.17578965,-0.059428573,-0.04842308,-0.090113096,0.13755341,0.06866566,0.38374928
fansipan,0.1702502,-0.4622604,0.07046686,0.0625191,0.4452898,0.0029899562,-0.23459662,0.028723713,0.14456049,0.35200825,-0.32253742,-0.058324747,-0.09656427,-0.30706248,0.18033537,-0.176423,-0.0980966,0.4174932,-0.09632738,0.2987536,0.36408144,-0.3113701,-0.11166441,-0.23067512,0.2148013,-0.10159177,0.109362364,0.15452196,0.0048539047,0.18921822,0.020294478,-0.098213226,-0.07411969,0.26345408,0.10913247,0.028191127,0.16467677,0.2006678,-0.11052401,-0.0533329,-0.020891935,-0.21950184,-0.03455089,0.14646882,-0.03249183,0.22505741,-0.1084,-0.15521082,-0.16520761,-0.352297,-0.10747831,-0.04157782,-0.047292367,-0.2207815,-0.41298535,-0.010918806,0.08702723,-0.303725,-0.16094258,-0.20386265,-0.16614498,0.026625149,0.3010962,0.53258485
cao,-0.17679153,-0.12638056,0.12564941,-0.12649828,-0.14262052,0.06127799,0.12865938,-0.1718572,-0.07805265,0.012493258,0.101417884,0.005637864,-0.054536987,-0.060203627,-0.40088823,0.0808173,0.02338883,0.5927032,-0.26407945,0.17014477,0.2416883,0.056341212,-0.3018082,-0.2044313,-0.009091791,-0.360548,0.08776188,-0.07607839,-0.5476248,0.061916713,0.098619014,-0.18928967,-0.0029760075,-0.19138038,-0.4171616,-0.17454664,0.2814773,-0.028892038,-0.09319792,0.10982093,0.14174439,-0.3428038,0.031762246,0.08301902,-0.009329259,0.2648789,-0.16861439,0.1409136,-0.2495732,-0.37201405,-0.10608829,-0.011720805,-0.43474483,-0.05618624,-0.4136458,0.12839308,0.18144163,0.00574087,0.26442105,-0.26349732,0.01184237,-0.14360197,-0.08941524,0.55304116
những,-0.32420647,0.07802906,0.718384,0.32181075,-0.6344229,0.59551126,-0.45069078,0.17313641,-0.4251299,0.15318877,-0.03370256,-0.11861338,-0.0015492983,0.032997653,-0.7904041,-0.26238528,0.3233221,0.77364594,-0.47826302,0.36150464,-0.13978031,-0.27704796,-0.22688965,0.0007686565,0.1277317,0.25916645,0.19699873,0.02211309,-0.22723825,0.19381782,-0.5097241,-0.3674137,-0.49811295,0.060518607,0.04390017,0.10122085,0.14228244,-0.09822503,-0.16639858,0.59023106,-0.57823193,0.031183295,-0.35022143,0.078150496,0.3400521,0.23747076,-0.052148677,-0.17317528,-0.42890796,-0.42559105,0.1626093,0.26387328,-0.15615183,-0.15318376,0.07463205,-0.11106252,-0.052768607,0.3281511,-0.22295071,-0.20728458,-0.37767652,0.03356425,0.09369792,0.57085663
với,0.117527485,0.20720775,0.2624381,0.07616171,-0.3721155,0.09977701,-0.0881654,0.20163992,0.16852705,-0.03508474,-0.08395232,-0.04038605,-0.0066106245,-0.26340765,0.15428482,-0.25488257,0.0046583693,0.5695387,-0.22209102,-0.06698854,0.070477724,-0.3476758,-0.11343603,-0.21308103,0.19652393,-0.10458994,0.16693209,-0.38257506,-0.30825067,-0.091396704,-0.2209242,-0.31786665,0.194626,0.012295715,-0.22448303,-0.008067891,0.80261797,0.14798251,-0.3034535,0.004164408,0.004895856,-0.059920583,0.17685127,0.18807264,0.03663812,0.0076048914,-0.21229842,-0.2790063,-0.57003415,-0.28965992,-0.14489782,0.08305215,-0.6307108,-0.13879411,-0.7615713,-0.2613636,0.27702907,-0.035445116,0.35463232,-0.067404136,-0.089564435,-0.09760443,0.24377896,0.6188756
mang,0.18136741,-0.043744396,0.4196305,0.19100468,0.24875619,0.42184582,-0.4149294,-0.079841055,0.049587827,0.6716975,-0.23698457,-0.41656965,0.087870896,-0.12248899,-0.055752058,-0.24083178,0.09987526,0.5544968,-0.2910501,0.44937956,0.21960002,-0.5962013,-0.11778436,0.09490226,0.27029637,0.36564988,0.1789166,-0.010241812,0.19336475,0.24048644,-0.12399922,-0.28166574,-0.24250546,0.276521,0.24267288,-0.016493237,0.14506526,-0.119807094,-0.26249516,-0.047889393,-0.3403435,0.08731343,-0.48157364,-0.1536063,0.088086255,0.5474394,-0.09092505,-0.10462953,-0.01835944,-0.5744359,0.05899991,-0.20520452,-0.1572084,-0.39909554,-0.1620853,0.0003530117,0.062301878,-0.1125395,-0.23576844,-0.2869499,-0.49921244,0.11995694,0.20700721,0.5013631
để,-0.0030719189,0.03746797,0.5215118,0.0030884137,-0.005721772,-0.013027096,0.25612533,0.14200518,-0.2194207,0.32647052,-0.306973,-0.041806158,-0.0097319065,-0.0021656444,-0.28953683,0.117973834,-0.2695494,0.4917975,0.055669546,0.013603493,0.27538717,0.23797917,-0.56147075,0.05123476,0.22971924,-0.017115572,-0.01105284,0.16913477,-0.20234898,0.01693937,0.29881388,0.026386788,-0.24231358,-0.10756969,-0.04068979,-0.28279066,0.0137528265,-0.2579268,-0.055089295,-0.27911592,-0.12558399,-0.16301888,-0.15462147,0.1500464,0.18963501,0.6167697,0.22829208,-0.19427553,0.23121838,-0.56004,0.5616718,0.10877226,-0.044241056,-0.22897296,-0.36511114,0.14651398,0.055147365,-0.34253308,-0.301632,-0.047547493,0.09521863,0.31068203,-0.48038876,0.0631299
việt nam,-0.24900146,-0.03074026,0.119224615,-0.031095644,0.24599244,0.087790824,0.13460574,0.051413316,-0.2997107,0.11779435,-0.067167185,-0.17501056,-0.159963,-0.13613898,-0.37452304,-0.09220176,-0.2304063,0.5671226,-0.09034894,-0.097318575,0.24624181,-0.0985145,-0.26918545,-0.3025486,0.07205246,-0.31306708,-0.13941541,0.1311522,-0.15212792,0.20503958,0.23007591,-0.008836898,-0.21237548,-0.3550767,0.2526703,-0.37221014,-0.033817448,-0.15517119,-0.17721131,-0.08326548,0.0013397494,0.0013917659,-0.12676065,-0.11494769,0.15468006,0.37440744,0.25293577,-0.051032867,0.06549203,-0.5126616,0.3112384,0.24525197,-0.03430408,-0.03110355,-0.33758938,0.34848624,0.102369994,-0.19211179,-0.22494385,-0.14928025,-0.12447189,0.21772777,-0.2792231,0.092982195
hệ thống,-0.042638782,0.18703173,0.42889145,0.3222062,-0.6263848,0.39120477,-0.3071147,0.6576399,-0.10240991,-0.09891512,-0.25774017,0.018838517,-0.0554683,-0.22841497,-0.06127949,-0.39713666,0.103766054,0.7371062,-0.13068146,0.16187975,-0.20439465,-0.28442314,-0.16387145,-0.13054019,0.26895243,0.26086798,0.12047208,-0.3788003,-0.108048186,-0.082378514,-0.40026662,-0.22650363,0.15369684,0.13460802,-0.06373873,0.18639918,0.7849131,0.058610644,-0.24922466,0.26073137,-0.50320053,0.12625106,-0.08584846,0.23708597,0.20541568,-0.02402138,0.15359451,-0.44212204,-0.71843624,-0.33332834,-0.04346512,0.22240356,-0.6641433,-0.061374594,-0.71119577,-0.67554075,0.28828493,0.05924313,0.03711916,0.03700966,-0.019855933,-0.0010753658,0.22744747,0.6100955
hành trình,0.10886843,-0.48251712,-0.06197927,0.13126521,0.36429217,0.041181616,-0.107367024,0.39427984,-0.022576518,0.11519436,-0.47762024,0.01609253,-0.16074018,-0.5679892,0.19006394,-0.18725178,-0.049399186,0.64296585,0.13232489,0.23273842,0.1761595,0.055060588,-0.20746313,-0.13578403,0.235749,0.00442764,-0.16240378,0.038909193,0.011479264,0.16963752,0.20667903,0.26494893,0.1732725,0.22073461,0.22180793,0.1277192,0.10473336,-0.1474901,-0.027556662,-0.10193185,-0.22229683,-0.04373312,-0.05570313,0.19914597,0.13585615,0.27790534,0.4359159,-0.2578564,-0.048466757,-0.3841868,0.133419,-0.21185592,-0.16747558,-0.07326439,-0.64633495,-0.38232338,0.12932868,-0.29469427,-0.3636775,-0.04350943,0.08114127,0.24217127,0.19553049,0.21025702
từ,-0.1660448,-0.6443531,0.2982617,-0.050399378,-0.127403,-0.03707976,-0.02488665,-0.26471168,-0.056576196,0.31549415,-0.12865533,-0.002015927,-0.05260262,-0.41900223,-0.07580917,-0.022831103,0.12440906,0.52840644,-0.35598686,0.115402095,0.5205237,0.12191522,-0.2005172,-0.24796155,0.14805289,-0.40670717,0.14759906,0.19778608,-0.55800754,0.3572997,-0.21041034,0.12144047,-0.5174813,0.17970724,-0.3265637,0.060936123,-0.18376258,0.21534921,0.19445501,0.20823976,-0.12660725,-0.3702011,0.19409327,0.3275306,0.2894709,0.2636353,-0.23278426,-0.1888413,-0.18541965,-0.17138335,0.21175592,-0.05206825,-0.0445872,-0.24499823,-0.30510372,0.12142371,-0.35244736,-0.20999262,0.0529481,-0.013574245,-0.2361212,-0.038755264,0.20322478,0.3947491
trên,-0.15658319,-0.438858,0.020996185,-0.10741748,0.011718513,0.15504277,0.0290232,-0.013473034,0.051126305,-0.19783829,0.11002633,0.15366118,-0.03353646,-0.19588256,-0.44341597,-0.022792581,-0.15342517,0.655725,-0.15909804,0.060449164,0.60925764,-0.019431526,-0.5732671,-0.30090806,0.007270758,-0.21814987,0.17657799,-0.031852074,-0.6891538,0.52733165,0.016535694,-0.06474485,-0.2757185,-0.040237237,-0.010108829,-0.11513543,-0.1575689,0.1411103,0.10941587,0.09596994,0.052280463,-0.47749126,0.2595927,0.14059542,0.231086,0.3848166,-0.1372347,0.016627468,-0.2707099,-0.18847613,0.24730119,-0.05687181,-0.053877227,0.020915104,-0.20048745,0.61180544,0.09699947,-0.09471978,-0.02654067,-0.33712226,-0.31255496,-0.14225356,0.117340006,0.6597646
chinh phục,0.095842235,-0.30744672,-0.05212586,0.12521467,0.26882365,0.18037851,-0.15331139,-0.03748294,0.15576181,0.3210666,-0.19645661,-0.14684284,0.119973496,-0.32866803,-0.21766075,-0.0030941328,0.025208075,0.64519805,-0.22994524,0.32664102,0.3095139,-0.22820471,-0.20377328,0.10650993,0.22485498,0.10739007,-0.07370152,0.04534861,-0.099818684,0.37133846,0.045469936,0.021474507,-0.22485186,0.15507028,0.33261192,-0.026521686,-0.19176762,-0.23652177,-0.08500527,-0.031014161,0.058005463,-0.15691218,-0.11236346,-0.054833494,0.035060246,0.49094573,0.091468655,-0.14165007,0.19267312,-0.42574424,0.2623769,-0.37294412,0.1982262,-0.1366601,-0.28387454,0.37726957,0.10738126,-0.07845974,-0.35090184,-0.116984956,-0.31064734,0.2900052,0.21771555,0.42400157
đến,0.058329705,-0.8319652,0.25756362,0.0061583975,0.22935233,-0.2293036,-0.13855182,-0.34862536,-0.30099416,0.6110463,-0.60764414,-0.11887886,-0.1033181,-0.3430199,0.30126494,-0.15175602,0.18424027,0.4965952,-0.55920637,0.5163677,0.465331,0.048250545,-0.3438045,-0.3431523,0.2634257,-0.33058122,0.26998782,0.30902907,-0.22779168,0.18988276,-0.1490262,0.23202613,-0.50180066,0.46859354,-0.39666173,-0.017866436,0.011137737,0.15739308,0.15386885,0.098674074,-0.27310064,-0.5594493,0.18617965,0.58491826,0.08706359,0.38591704,-0.39834547,-0.24365039,-0.21672492,-0.28694388,0.052285995,0.09821394,0.06029483,-0.5233643,-0.4020606,-0.058201328,-0.4686463,-0.27601746,-0.079477325,0.026132748,-0.11427956,0.029446945,0.15793803,0.52557683
đông dương,0.014680982,0.2547147,-0.33497217,0.00919757,0.024170808,0.08393269,0.02593972,-0.26243302,-0.35347468,-0.157322,0.08160626,-0.20894831,0.053809267,-0.16510776,-0.1512165,-0.050713275,-0.1536363,0.6594183,-0.66447675,0.020610053,0.17069869,-0.33878103,-0.34632125,-0.28483522,0.13305554,-0.2947471,-0.10181311,-0.22678459,-0.5323495,0.14999285,0.41414726,-0.16185734,-0.014049201,-0.15791802,0.30034608,-0.46093237,0.29485935,-0.37882468,-0.5489868,-0.14136127,0.07663921,-0.14456105,0.105317175,0.06541993,-0.04022707,0.27143782,-0.331802,0.009407414,-0.17309073,-0.5129916,0.32729825,0.32056013,-0.1971815,0.07096081,-0.29310763,0.5254453,0.27257386,-0.0004743016,0.11783181,-0.1528801,-0.21611783,0.34459066,-0.015786236,0.34732318
còn,0.27400997,-0.36796615,0.30779865,0.095377766,0.36525482,0.05541735,-0.13709599,0.1779767,-0.08220961,0.6575658,-0.62256145,-0.24644214,-0.0024207095,-0.11795996,0.36335316,-0.24522534,0.095143914,0.4954099,-0.06168475,0.65304667,0.20893317,-0.22505882,-0.42760718,0.009442751,0.2073281,0.33410382,0.36402288,-0.015657414,0.24424699,0.09577568,0.03559118,-0.00702902,-0.07516318,0.5010852,-0.10992835,0.06025803,0.1772097,-0.07705737,-0.058750965,-0.22440289,-0.3726913,-0.2652078,-0.26064405,0.18881829,-0.025797632,0.5305235,0.044712238,-0.16087359,-0.13948038,-0.4727658,-0.08151436,-0.18330261,-0.25566834,-0.47427514,-0.4409586,-0.24609694,0.0048900275,-0.2782897,-0.14323632,-0.15502237,-0.08602513,0.112931944,-0.0025535678,0.5467536
vẻ,0.31353667,-0.066782475,0.62953734,-0.005633341,0.1484729,-0.1584539,0.19961773,-0.23288518,-0.13940485,0.3694512,-0.46135315,0.19278175,-0.06280318,-0.41962764,-0.111134924,0.23148459,-0.5766213,0.5694573,-0.081566215,-0.3563028,0.55326563,0.1303264,-0.2793944,-0.13103074,0.46071875,-0.42870915,-0.25134215,0.46966025,-0.599774,0.06288785,0.62154937,-0.114055246,-0.2383232,0.14746843,0.04220587,-0.39503974,0.44139493,0.013546956,-0.42233878,-0.5394437,0.071370505,-0.18523939,-0.061975088,0.5336565,0.25073838,0.34920347,-0.22497039,-0.40045798,0.3129889,-0.8832094,0.56549454,0.32146576,-0.0586907,-0.37319404,-0.4901798,0.042192757,-0.0028956358,-0.6709735,-0.26514778,-0.09137955,0.22571357,0.42376205,-0.18026124,0.10309734
không chỉ,0.1459078,-0.5917619,0.14385867,-0.03648724,0.58844846,-0.10039597,-0.2017231,-0.40044507,-0.0062256735,0.37615213,-0.39664257,-0.01476644,-0.206894,-0.54051113,0.11558421,-0.1287903,-0.22232334,0.40797266,-0.3830407,0.026117483,0.5413422,-0.15836501,-0.06809229,-0.5089204,0.2965005,-0.521702,-0.08280224,0.4101478,-0.29667273,0.21378776,0.295333,0.0227404,-0.13448553,0.22274086,-0.07366962,-0.1839401,0.31414515,0.17733018,-0.2531536,-0.08848718,0.11375119,-0.29612106,0.02008573,0.3867034,0.09055392,0.21318619,-0.38169965,-0.06914467,-0.0068150302,-0.53418654,-0.10747663,0.14005299,-0.049844127,-0.30649608,-0.5412861,-0.054885194,-0.05280345,-0.39669266,-0.0760058,-0.31938845,-0.041014895,-0.05589118,0.30852473,0.3938682
độ,0.1336728,-0.2449757,-0.14130735,-0.082874924,-0.0909546,0.06839852,0.06783713,0.01742982,0.20147288,0.025631938,-0.005191064,0.074803405,0.08575325,-0.2501701,-0.06204411,0.1829149,-0.23372678,0.72262794,-0.02421604,0.25692376,0.4183117,0.052206114,-0.31611648,-0.17802767,0.22297877,-0.3878756,0.005331731,-0.31201294,-0.49904585,-0.022446565,0.15945385,-0.055719666,0.2607988,0.026393473,-0.36556646,-0.03265282,0.5100111,0.082528695,0.05643355,-0.0058354796,0.10364692,-0.49048573,0.34417358,0.016232342,-0.009229171,0.14492181,-0.25385964,-0.13701856,-0.3727008,-0.3079611,0.023790758,-0.17443253,-0.5457999,-0.048316117,-0.9118744,-0.10292367,0.38023287,-0.24751477,0.34045255,-0.14189221,0.19103901,-0.16602613,0.21331048,0.7838071
biểu tượng,0.2511079,-0.56867194,0.3034397,-0.06684781,0.4347983,-0.07387867,-0.09939826,-0.3492419,0.083584264,0.3012664,-0.36198288,0.13851008,-0.13482675,-0.44727045,-0.06257474,0.08920529,-0.34497315,0.44825122,-0.17726415,0.026120527,0.5699809,0.009521861,-0.1770233,-0.31807053,0.30688924,-0.38382015,-0.111442715,0.4703305,-0.45931473,0.22477964,0.4382674,-0.07523459,-0.13907085,0.25839826,-0.12982315,-0.16594253,0.32190365,0.1730198,-0.23674025,-0.24043746,0.14231914,-0.35104692,-0.051401615,0.46269536,0.119546376,0.25584248,-0.33160186,-0.08870605,0.09165184,-0.5831205,0.029823724,0.007022576,-0.06974022,-0.34695682,-0.43037087,-0.07256484,-0.042372517,-0.4233798,-0.12964757,-0.31788358,0.11891541,0.013629607,0.21460605,0.34496978
đẹp,0.31791067,-0.19837992,0.6446499,0.0052047838,0.18906476,-0.12222031,0.06772195,-0.3352846,-0.030161992,0.35122633,-0.3951762,0.26851562,-0.08092112,-0.4920296,-0.19473836,0.28447002,-0.52667505,0.5419794,-0.07236978,-0.36281958,0.63052535,0.13407204,-0.17574221,-0.16898036,0.48750314,-0.48085484,-0.27773613,0.5591042,-0.67533034,0.10913819,0.60761327,-0.13362607,-0.25578144,0.21464165,-0.043850932,-0.3130913,0.4765333,0.1505995,-0.3851043,-0.4790324,0.0720138,-0.13385448,-0.03211146,0.53554475,0.26880297,0.31757522,-0.355883,-0.33630604,0.26597053,-0.8244971,0.4804481,0.20457403,-0.06736282,-0.46098712,-0.43889862,-0.08078002,-0.05821886,-0.64394283,-0.2320793,-0.16264185,0.19184603,0.32803273,0.020697098,0.13046446
du khách,-0.29228655,-0.6557775,0.31485412,-0.20601329,-0.19953193,0.03099284,0.06218139,-0.23375928,-0.3106448,0.11864969,-0.12970304,0.01724655,-0.02696534,-0.15877518,-0.41028586,0.028461078,0.22439048,0.69667464,-0.5159807,0.45111057,0.36889076,0.23294935,-0.42007327,-0.24582842,-0.10840151,-0.3250092,0.263051,0.18339173,-0.712206,0.27019927,-0.017309874,0.05624604,-0.45515692,0.14270777,-0.461521,-0.017376559,-0.21828243,-0.033741944,0.0789708,0.2770187,-0.034662656,-0.65679324,-0.0049139755,0.38746265,0.16043915,0.32076403,-0.15569995,0.03640589,-0.20429423,-0.30044693,0.012537331,-0.02815231,-0.22201751,-0.13828434,-0.18314259,0.24415788,-0.21338572,-0.04698234,0.12573813,-0.23560998,-0.06982577,-0.049229294,-0.07595202,0.6028582
ngày,-0.2606677,-0.4846176,0.5945961,0.0797051,-0.35414657,0.053953473,-0.13579549,-0.41246897,-0.60515606,0.50988936,-0.34135744,-0.08876804,-0.07106252,-0.24880883,-0.16068977,-0.11215449,0.37984306,0.6505246,-0.79408574,0.28856918,0.25783065,0.05974403,-0.31029496,-0.29131252,0.2616071,-0.41301385,0.31511235,0.3253481,-0.49356014,0.18049796,-0.45589748,0.12230903,-0.790249,0.20965269,-0.3225405,0.0021373737,-0.108826384,0.06913718,0.14018455,0.4235034,-0.46762067,-0.34917706,0.13415577,0.49010935,0.30521223,0.3635546,-0.35815156,-0.33381578,-0.28908697,-0.29417592,0.3074915,0.36546168,0.106268294,-0.50095534,-0.12798731,0.032728482,-0.6403931,-0.057323232,-0.12738204,0.0634778,-0.29495552,0.09785166,0.04732137,0.38864964
niềm,-0.024643091,-0.10122519,0.31334957,0.20325033,0.1174019,0.1460628,-0.0245683,0.028969456,-0.15599053,0.06321458,-0.31025526,0.08803114,-0.18959025,-0.639931,-0.10604398,-0.09424466,-0.12213349,0.6144618,0.010101738,-0.37522998,0.17951633,0.09010543,0.11742967,-0.18385994,0.36567113,-0.32120362,-0.48476028,0.25406137,-0.32465482,0.12746724,0.23392706,0.13926691,-0.15931232,-0.036928922,0.2620525,-0.04697754,0.2477149,-0.04784735,-0.2047331,-0.09641444,-0.253678,0.4212914,-0.09434304,0.18086913,0.34319016,0.18600167,0.24894959,-0.34789705,0.124709144,-0.519093,0.38550803,0.14991929,-0.22318847,-0.1721016,-0.47090912,-0.4423076,-0.033976898,-0.2935345,-0.35126522,-0.016394595,-0.012021702,0.36389455,0.1421279,-0.23947574
hùng vĩ,-0.05951828,-0.36269328,-0.2068132,-0.12871629,0.9055936,0.0022471563,-0.008142113,0.039958894,-0.42627773,0.13421859,-0.40430903,-0.34726238,-0.33121166,-0.5288849,0.19592337,-0.51704705,-0.42913294,0.7973823,-0.41402006,-0.032930724,0.38060254,-0.46852753,-0.1875412,-0.8229925,0.108872674,-0.720708,-0.24622059,0.14912586,-0.11174118,0.24594343,0.42988232,0.032623306,-0.07960442,-0.23813944,0.65456414,-0.49709636,0.15156472,-0.086591475,-0.5146842,-0.15996237,0.13106298,-0.15687636,-0.036596578,0.0012156401,0.05672746,0.14169286,0.059420224,-0.184419,-0.0512581,-0.88048404,0.16272385,0.6145421,-0.108276084,0.04258111,-0.6922447,0.45702332,0.25724873,-0.57674444,-0.300497,-0.38553503,-0.22415484,0.3181829,0.04069003,0.39735284
con người,-0.18544638,-0.15298054,0.26000297,0.012905089,0.358561,0.11496281,0.14295812,0.009157082,-0.16231088,0.19465569,-0.18484116,-0.10904972,-0.21460205,-0.5200504,-0.25449413,-0.060055695,-0.32248825,0.6764259,0.04346256,-0.3348015,0.38703814,0.022819906,-0.110265434,-0.34087533,0.23651604,-0.46541688,-0.3881897,0.23260655,-0.28783274,0.20956804,0.3700265,0.15839744,-0.26427704,-0.31212148,0.29986933,-0.2857668,0.013979221,-0.1162611,-0.180463,-0.13738903,-0.06494851,0.2544625,-0.108141296,-0.07796423,0.3900162,0.4373497,0.38952962,-0.24562158,0.23016343,-0.62005264,0.5066911,0.09542031,-0.18498439,-0.07670204,-0.55732304,0.08742519,0.021486115,-0.4492289,-0.32628584,-0.12611702,-0.08819816,0.29624927,-0.13797525,-0.12322814
dễ dàng,0.41675565,-0.041954424,0.7569607,0.0006980651,0.09536552,-0.14889798,0.20649512,-0.020740902,-0.09132349,0.44423914,-0.5764774,0.22355208,0.030544844,-0.12155071,-0.20611891,0.24777138,-0.629424,0.5374524,0.08598931,-0.12807208,0.52421796,0.17466207,-0.54306936,-0.0082057,0.47484082,-0.14029957,-0.054160073,0.43562022,-0.5188982,0.0036855077,0.61497086,-0.20030604,-0.23070352,0.24097006,-0.06098876,-0.3870975,0.43987054,-0.000998276,-0.3543208,-0.6632935,0.05003085,-0.36488625,-0.12322947,0.570435,0.18687369,0.48740935,-0.2154613,-0.36869955,0.27563813,-0.91777664,0.59102345,0.25881857,-0.018521626,-0.47342694,-0.46554217,0.07359615,0.11267559,-0.6731518,-0.36592096,-0.08364251,0.28964275,0.44252238,-0.30721852,0.31878877
con,-0.30143514,0.35890204,0.7050091,0.40133095,-0.6393396,0.54039925,-0.4296885,0.44241825,-0.6701459,0.050312605,-0.20612913,-0.15310839,-0.13526508,0.019716622,-0.6463757,-0.39305705,0.10486362,0.70160705,-0.2950835,0.084982306,-0.18969257,-0.2690054,-0.2596421,-0.24813266,0.3819269,0.115889795,-0.084088,-0.06548099,-0.084035866,0.108299226,-0.57157606,-0.1821437,-0.421047,-0.057702787,0.289643,-0.061294768,0.3883159,-0.0935078,-0.117361546,0.4491344,-0.83016837,0.28708142,-0.1297135,0.100781366,0.4534471,0.14990588,0.04268708,-0.42971206,-0.48213547,-0.42429835,0.42629486,0.67904437,-0.107052654,-0.122649305,-0.3005331,-0.44721055,0.02480681,0.19681421,-0.32804054,0.123126686,-0.27240843,0.251823,-0.020918375,0.3009508
sáng,-0.009698637,-0.45963824,0.0033425884,-0.19704756,-0.3711266,0.42993253,0.09778613,0.25095958,0.03939318,-0.14475541,0.15600324,0.30345413,0.13233927,-0.16547407,-0.8013323,0.40407646,-0.4315835,1.2018882,0.28718278,0.6213462,0.69598645,0.19350176,-0.8080948,-0.12854257,0.19185962,-0.4616435,0.13880615,-0.34367633,-0.82130927,0.21263579,0.15471984,-0.121855274,0.028024785,-0.06114239,-0.36261478,0.058193117,0.19522814,0.1730344,0.44019952,0.17868353,-0.2645246,-0.8730018,0.57230794,-0.16912688,0.3380792,0.28239557,-0.11687526,-0.10613961,-0.5235827,-0.37917188,0.44725254,-0.18331431,-0.4940677,0.14462249,-0.79584056,0.1431322,0.4371475,-0.33173627,0.20468815,-0.24867283,0.16840313,-0.18316533,-0.008061387,1.2444063
thiên nhiên,0.08476151,-0.21367145,0.29093874,-0.061031934,0.44476318,-0.08776204,0.15075131,-0.20329303,-0.24737623,0.26757818,-0.3638965,-0.0005921944,-0.18308513,-0.5413307,-0.042411003,-0.005334372,-0.45302817,0.61101335,-0.14684048,-0.28991836,0.45283738,0.0025301732,-0.13136017,-0.39777136,0.32147422,-0.6856005,-0.35751018,0.42104837,-0.4428291,0.14805232,0.5456253,0.05507287,-0.27998954,-0.091239415,0.26132092,-0.3793347,0.20432426,-0.009987974,-0.3499691,-0.35735625,0.07563895,-0.020398172,0.0040685725,0.2649806,0.2216015,0.2591932,-0.049820937,-0.31382552,0.2641396,-0.793902,0.46011627,0.41811648,-0.048912723,-0.1990844,-0.5082149,0.120995544,-0.025562396,-0.588689,-0.31942058,-0.10638537,0.060119346,0.4305877,-0.08910806,-0.008078399
dốc,-0.2973965,0.187845,0.57422984,0.41078794,-0.5601575,0.50771683,-0.39508218,0.6527361,-0.34212148,-0.061838303,-0.218065,-0.021129223,-0.16208766,-0.1607543,-0.49087736,-0.3796388,0.115629,0.68011236,-0.0909119,0.062667325,-0.19889207,-0.13145748,-0.1487222,-0.19911706,0.29341987,0.19019102,-0.13755819,-0.10570367,-0.086203106,0.1713997,-0.465148,-0.09005552,-0.2108695,-0.0040851086,0.19526921,0.09221549,0.37790632,-0.07572889,-0.16913116,0.4061972,-0.7373909,0.346492,-0.2345829,0.123783484,0.43086004,0.025892721,0.22428325,-0.39340565,-0.45198318,-0.37653106,0.3019085,0.420591,-0.31675935,0.030363401,-0.40680557,-0.6293425,0.18096414,0.12525333,-0.29010755,0.07100823,-0.20678371,0.17577748,0.12233897,0.37404948
nhìn,-0.49545923,-0.52205354,0.63506347,-0.24906753,-0.42439118,0.37484452,0.024182614,-0.15514731,-0.4543246,-0.029057385,-0.011694007,0.1349197,-0.12353506,-0.045884337,-0.9348215,0.044899385,0.2763197,0.9664531,-0.5261165,0.4512236,0.24440755,0.25825146,-0.524982,-0.2267461,-0.28980976,-0.32193,0.33469653,0.24081567,-0.9347233,0.3344172,0.046568006,-0.25019675,-0.4306803,-0.05848189,-0.518027,-0.030729767,-0.104893364,-0.098637044,-0.10170042,0.5311411,-0.11000001,-0.6189335,-0.38803077,0.34508026,0.30686435,0.3260239,0.052317437,0.14998151,-0.33753797,-0.59260327,-0.0748278,0.12139669,-0.4769449,-0.08489878,0.019522695,0.21298614,-0.1033677,0.09083481,0.07913358,-0.5360514,-0.05463105,-0.15240715,-0.2101914,0.7790384
điểm,0.20350266,-0.4997664,0.089373976,-0.071261264,0.2530611,-0.013407079,-0.14633948,-0.55143803,0.078148164,0.24148238,-0.17871669,0.031473435,-0.07692573,-0.3332215,-0.0966755,0.15411286,-0.08841595,0.5103877,-0.450193,0.26194936,0.52389365,-0.04845336,-0.15501611,-0.2810317,0.19725671,-0.4006046,-0.0069314027,0.25758886,-0.56691515,0.18752737,0.35900077,-0.15239525,-0.065433994,0.2888617,-0.39666033,-0.14835499,0.43777817,0.084703505,-0.26020256,-0.043654364,0.12147628,-0.39277816,-0.017032422,0.35111222,-0.028887814,0.2693849,-0.55467707,0.11900564,-0.17454039,-0.48581648,-0.23269312,-0.10786829,-0.34223303,-0.35494933,-0.42217577,-0.122753,0.012807826,-0.13339476,0.24414222,-0.40241694,0.060322393,-0.1591022,0.31778684,0.5428803
inox,0.04239708,-0.35165817,-0.047124434,-0.0973083,-0.43284306,0.39515644,0.036338132,0.36409268,0.093080334,-0.16317104,0.18960416,0.27180716,0.12864673,-0.12202644,-0.6287721,0.31935766,-0.4492985,1.0875412,0.34964192,0.5691882,0.6648587,0.090842776,-0.7545052,-0.11967236,0.27519515,-0.3330186,0.17407057,-0.43739843,-0.64987797,0.17448966,0.0021818043,-0.10197893,0.031213257,0.002433854,-0.25781396,0.09027835,0.2930867,0.23551394,0.44885668,0.15262513,-0.34051964,-0.7762013,0.6508832,-0.21237057,0.334228,0.2702778,-0.1508254,-0.1958445,-0.6241089,-0.26319647,0.42202726,-0.16232184,-0.46696532,0.13545255,-0.8157945,0.11179926,0.41330937,-0.2665168,0.18061045,-0.13390592,0.13641007,-0.19992825,0.05938089,1.1897304
khoảng,0.17162353,-0.29812965,0.46322587,0.19147986,0.13709341,0.13325433,-0.004873366,0.7364411,-0.32361817,0.39187887,-0.87650836,-0.12222951,-0.046965037,-0.10663053,0.17745607,-0.27336404,-0.09305227,0.7286806,0.26081634,0.57502204,0.10680716,0.14921397,-0.7511512,0.10454028,0.32670423,0.55045974,0.21015906,-0.1477639,0.15550853,-0.014786424,0.13571148,0.17722864,0.090654016,0.36769608,-0.04490292,0.04271538,0.23982033,-0.26762688,0.01268938,-0.2935212,-0.6157372,-0.25435656,-0.3442927,0.2972623,0.22547553,0.61093616,0.5334336,-0.42563796,-0.09685614,-0.5721271,0.31289527,-0.080262065,-0.40573516,-0.37505248,-0.7491299,-0.47750732,0.21283872,-0.37855688,-0.42675927,-0.06951808,0.18806975,0.27858323,-0.27999118,0.41402522
băng,-0.29249442,0.023353515,0.6217838,0.23041146,-0.60759664,0.21525516,-0.24086486,-0.3760625,-0.8597846,0.3041613,-0.23676169,-0.1551013,-0.023310438,-0.11797968,-0.4583696,-0.13023077,0.34908277,0.74784875,-0.78934574,0.17223068,0.05796213,-0.06771888,-0.35790247,-0.24244428,0.35862604,-0.34792948,0.17187065,0.10287438,-0.48612252,0.0025892858,-0.6607011,0.01943628,-0.78711164,0.03698456,-0.041553304,-0.05087543,0.1739312,-0.019072646,0.16188598,0.5682663,-0.65049803,-0.12658164,0.23171222,0.27433708,0.42690003,0.4608158,-0.37085578,-0.41951483,-0.39067772,-0.23800242,0.44243133,0.5651387,0.14713456,-0.49032754,-0.14879327,-0.045143757,-0.5383116,0.11314523,-0.1673373,0.10146153,-0.3048923,0.09372861,-0.056237783,0.22405748
ra,0.19281526,-0.10988,0.8422839,0.050815478,0.058622938,0.023029152,0.27477252,0.49068213,-0.3341625,0.57835346,-0.77015567,-0.046677504,0.02538185,0.069003,-0.051843174,-0.06358993,-0.4147658,0.575136,0.2701564,0.24232742,0.33736458,0.3185438,-0.8716817,0.15700644,0.35242808,0.3267702,0.16584906,0.09143291,-0.0198006,-0.09256913,0.331214,0.06734958,-0.17960441,0.17439082,-0.17373273,-0.2765,0.19964084,-0.24739885,-0.06288998,-0.5227117,-0.38962817,-0.34282032,-0.3737366,0.3483561,0.3225791,0.74578416,0.36516055,-0.4091076,0.21413185,-0.7592423,0.67593795,0.15558872,-0.29679772,-0.44818896,-0.63015157,-0.100111656,0.15620084,-0.6234299,-0.4159429,-0.06102686,0.27888936,0.34441915,-0.6172376,0.27847293
mọi,0.38556015,-0.062999465,0.9101452,0.013545299,0.07010906,-0.09264855,0.29123113,0.29639548,-0.13439168,0.5600443,-0.73550797,0.09449973,0.029158523,-0.0032657923,-0.15174724,0.15694134,-0.5976035,0.5861654,0.19899912,0.05729049,0.4873677,0.256177,-0.77011746,0.13175072,0.48615435,0.13467944,0.10339994,0.319102,-0.23623726,-0.041628957,0.5150543,-0.08276982,-0.23970228,0.24063723,-0.13707517,-0.35786498,0.34196487,-0.105202906,-0.2427587,-0.6395697,-0.18620355,-0.41090333,-0.26554605,0.51254594,0.23455541,0.69891554,0.10434798,-0.4210416,0.3020752,-0.91176736,0.70932704,0.18069655,-0.091774605,-0.48669502,-0.5727017,0.0063865804,0.10673479,-0.73148525,-0.4408034,-0.062224377,0.29703456,0.43647298,-0.49583215,0.33772215
người,0.37169287,-0.119207785,0.75832856,0.021602578,0.20050985,-0.13264714,0.22338067,0.13318151,-0.1317532,0.47435838,-0.6726225,0.13295592,-0.01161261,-0.14493175,-0.11356387,0.17814139,-0.5997616,0.51880395,0.16960241,-0.04812531,0.50003535,0.23367406,-0.6018216,-0.023604598,0.48501232,-0.057761554,-0.0247708,0.3968049,-0.31793845,0.0039397236,0.5453387,-0.093127996,-0.17426425,0.2420801,-0.096835114,-0.3350244,0.3764551,-0.023284765,-0.27849904,-0.6244935,-0.07196581,-0.33808535,-0.15784755,0.51830167,0.23278967,0.53323984,0.0024795348,-0.40361953,0.2805062,-0.8767905,0.5735948,0.19601512,-0.06540727,-0.47766787,-0.5414145,-0.023867622,0.0678998,-0.700449,-0.4225279,-0.059222147,0.29661873,0.42806348,-0.35223478,0.22784342
tinh thần,-0.2855912,0.058440663,0.58505976,0.13648869,0.19091794,0.42887574,-0.013758521,-0.04994496,-0.04268233,0.39639652,-0.05545396,-0.290883,-0.12931344,-0.8343787,-0.31476688,-0.047074847,-0.2913128,0.85494184,0.040292315,-0.6523337,0.46253747,-0.18814574,0.06408982,-0.28118688,0.4262247,-0.4313996,-0.49231687,0.0674125,-0.41807485,0.27384937,0.21023159,0.13639928,-0.34808624,-0.46010408,0.2836339,-0.27200517,0.0637601,-0.09060041,-0.17427497,-0.117700495,-0.26867017,0.6456519,-0.2586367,-0.2300638,0.6885979,0.63473713,0.5119247,-0.41676152,0.26754323,-0.73627716,0.82046187,-0.07698124,-0.4894762,-0.14510787,-0.765697,-0.11385654,0.09715587,-0.5711696,-0.26054743,-0.12399391,-0.29790667,0.32800144,-0.10806628,-0.22206752
cơ hội,0.27682382,-0.07119242,0.76595086,0.05992796,0.07992424,-0.053945977,0.22771166,0.4266992,-0.2595492,0.5271666,-0.77228546,0.064857095,-0.008515141,-0.01288278,-0.0374502,0.05614576,-0.50005203,0.59179455,0.21599449,0.15500124,0.39585194,0.31651598,-0.822379,0.12581995,0.38723457,0.2030463,0.1183855,0.22013608,-0.13763954,-0.07756454,0.44383,0.00030255393,-0.17874846,0.20259704,-0.13403185,-0.30993766,0.2469172,-0.219165,-0.13682488,-0.5964891,-0.2619611,-0.35260007,-0.2751072,0.4246054,0.20946203,0.69974816,0.26831257,-0.41831505,0.20125824,-0.85827935,0.61557573,0.17677918,-0.13156636,-0.47538266,-0.6102924,-0.025756381,0.15654653,-0.65240127,-0.44510657,-0.05261291,0.31331468,0.44831488,-0.52446955,0.29420614
dấu,-0.0070980936,-0.43816537,-0.100995645,-0.21695618,-0.110256076,0.21629423,0.08746963,-0.06976776,0.03322493,-0.060561996,0.117982864,0.17949025,0.056389485,-0.12636688,-0.6390809,0.3946203,-0.31967816,0.96037906,0.068193585,0.53337115,0.5949569,0.1562417,-0.52336663,-0.13904002,0.1606731,-0.4805377,0.024521885,-0.14840877,-0.71705866,0.11589363,0.30635118,-0.15904921,0.07711457,-0.06663841,-0.40402102,-0.08844869,0.28972676,0.08388747,0.21128352,0.07517393,-0.037441686,-0.68615526,0.3223697,-0.1289156,0.09895001,0.2703024,-0.21700932,0.06633656,-0.38392013,-0.42677593,0.12206721,-0.18013449,-0.51167154,0.039549388,-0.6726439,0.10143195,0.3823825,-0.21205738,0.2917241,-0.31992176,0.22367026,-0.1667463,0.05493998,0.97970563
dưới,-0.09655341,-0.22219479,0.09886055,0.08874832,-0.32477814,0.31935257,-0.12367807,0.19064005,0.098837845,-0.35009113,0.24450451,0.3129589,-0.0074259783,-0.24236326,-0.64825666,0.06375441,-0.2600613,0.7239682,0.071571976,-0.18752311,0.68792325,-0.114520654,-0.6711808,-0.27432892,0.2590829,-0.0808667,0.11005756,-0.16330096,-0.7897388,0.63574195,-0.17455769,-0.1379111,-0.30636224,-0.027090544,0.14435583,-0.1103566,-0.0009352261,0.26987845,0.20270222,0.12373892,-0.24795552,-0.29105115,0.5074127,0.0931043,0.47813293,0.40888628,-0.19907333,-0.15654685,-0.44379446,-0.072569,0.5733096,-0.02449956,0.042197667,0.023500422,-0.22866428,0.5180534,0.1931727,0.0031548578,-0.09615321,-0.18476906,-0.39165568,-0.13893719,0.19031884,0.64520824
vươn,-0.26881745,0.24875091,0.70716494,0.23830639,-0.21783853,0.5405169,-0.10107314,0.08145667,-0.023058748,0.2876558,-0.016286565,-0.12814234,-0.07044609,-0.78765416,-0.4125823,-0.079944775,-0.13951677,0.83647895,0.052144565,-0.6587062,0.34923956,-0.119998574,0.082383804,-0.1330614,0.47345078,-0.30593035,-0.49529725,0.008820975,-0.41373935,0.17887872,-0.07754628,0.04006699,-0.38799807,-0.37931588,0.20467271,-0.09971565,0.18565091,-0.033095207,-0.06311151,0.04380889,-0.5557438,0.7761641,-0.1696917,-0.22693008,0.7522958,0.55336916,0.47259754,-0.4598269,0.11138779,-0.6160469,0.83475685,-0.06074031,-0.5446463,-0.20791478,-0.68563604,-0.4238496,0.0789372,-0.40349165,-0.1962401,-0.016653955,-0.33416718,0.24446648,-0.016211385,-0.19250664
đá,-0.35419428,0.30779073,0.5840252,0.34139645,-0.6062671,0.49876463,-0.39727584,0.10227447,-0.80937016,0.096216656,-0.16336198,-0.17115715,-0.10136251,-0.053178653,-0.6590591,-0.27801743,0.124672875,0.7432127,-0.44459394,0.060927205,-0.1014622,-0.2209729,-0.2623405,-0.251633,0.35017723,-0.14536433,-0.08170593,-0.048881214,-0.24566172,0.04156292,-0.6313665,-0.08824645,-0.5373905,-0.12442175,0.29988718,-0.10086697,0.29295355,-0.1223398,0.027187627,0.52798814,-0.81325245,0.23978393,0.05018143,0.022256633,0.49618897,0.28779063,-0.11898832,-0.36201748,-0.4154149,-0.30758986,0.47204143,0.65332776,0.01943449,-0.1725254,-0.2121284,-0.23797032,-0.14245656,0.17115608,-0.30396196,0.11059372,-0.28959188,0.15523238,-0.029621108,0.15635659
mệnh danh,0.24550106,0.15603395,-0.119304426,0.09137909,-0.19156009,0.2053234,-0.036130447,-0.29233912,0.116188645,0.03781253,-0.053761292,-0.11324782,0.24159312,-0.58062947,0.2787618,-0.05598727,-0.059114467,0.78572845,-0.6946973,-0.09981037,0.22605266,-0.141859,0.039508246,-0.10613463,0.3338339,-0.23586127,-0.20236182,-0.45360553,-0.70939314,-0.15771669,0.34470314,0.004893675,0.34381378,0.08199875,-0.060401518,0.014630732,0.7347006,-0.3196055,-0.5776596,-0.045493253,0.2030126,-0.038811773,-0.013496925,0.20441686,0.097114116,0.08419067,-0.34470075,-0.354659,-0.27230027,-0.4621118,0.257335,-0.1481431,-0.83463174,0.0022845888,-0.90889585,-0.18679543,0.3698924,-0.188703,0.38320738,-0.13084346,-0.0068539176,0.24085675,0.48149365,0.38993582
mốc,0.07903382,-0.40705097,0.013107744,-0.11959576,-0.17124577,0.2300558,0.14142409,0.2536061,0.13888639,-0.08955448,0.11386096,0.25788194,0.10661842,-0.21794426,-0.51686275,0.28770164,-0.46589497,0.8531678,0.33467495,0.30991617,0.72957414,0.1402713,-0.6788409,-0.08011814,0.2553554,-0.24920225,0.06324276,-0.19692452,-0.6081398,0.35992733,0.12587677,0.025667552,-0.10876437,0.009343969,-0.067271836,0.028674288,-0.035585366,0.16890232,0.41920412,-0.07705557,-0.18403827,-0.62989295,0.56333345,-0.066094786,0.34027258,0.40770152,-0.022142282,-0.20766273,-0.262022,-0.24102321,0.56738037,-0.21325581,-0.14734976,0.08332743,-0.59871095,0.31549647,0.22028995,-0.37777388,-0.032152392,-0.06996177,0.010279985,-0.010480385,0.029817607,0.82726353
chiêm ngưỡng,0.37627813,-0.12962961,0.8080683,-0.0002291442,0.12984748,-0.12822527,0.16947179,-0.03274715,-0.13158958,0.43034577,-0.62559587,0.2613857,-0.05993163,-0.22922422,-0.09908706,0.23433298,-0.60990745,0.48854446,0.10847144,-0.20269078,0.5270004,0.2268332,-0.5236547,-0.07828412,0.45065308,-0.20626356,-0.078155495,0.50757635,-0.4910568,0.017732216,0.5606856,-0.11857622,-0.27932984,0.26310578,-0.06558821,-0.33651486,0.39292368,0.027523153,-0.3005874,-0.60985875,-0.04836813,-0.3267627,-0.14003862,0.59704936,0.21835768,0.47284576,-0.15654816,-0.39856207,0.31202435,-0.87651616,0.5643109,0.31501913,-0.0028772925,-0.49123448,-0.4330854,-0.034722425,-0.018124687,-0.71927303,-0.3740221,-0.09033351,0.28679642,0.4248108,-0.30484083,0.16824678
cột,-0.0072352467,-0.3991651,0.067359656,-0.033562634,-0.30452508,0.3013639,-0.006771634,0.22404732,0.103820436,-0.17205997,0.16522184,0.3050392,0.09578601,-0.21903753,-0.61086655,0.23477641,-0.3522195,0.87498575,0.21927004,0.23865269,0.7228596,0.05972403,-0.76555204,-0.14125168,0.2479587,-0.20891155,0.1947036,-0.19599988,-0.7290339,0.4703911,-0.09635907,-0.043406975,-0.22539978,0.07119941,-0.08995435,0.035639994,-0.032903273,0.2872991,0.43290055,0.064086236,-0.29732302,-0.62398523,0.65061176,-0.0123553015,0.38822362,0.40086782,-0.16097511,-0.19480903,-0.41697484,-0.1355928,0.5690284,-0.15509738,-0.061451264,0.063483,-0.45655742,0.3937957,0.17403848,-0.23738065,-0.0060382714,-0.09873034,-0.1649721,-0.10132827,0.10435309,0.901072
đậm,0.034425825,-0.1135783,0.15765348,0.22461127,0.18523319,0.53486377,-0.5033866,-0.115851834,0.10310576,0.48343304,-0.12647851,-0.32990167,0.08363533,-0.30198154,-0.38991746,-0.20560765,0.16404846,0.79257774,-0.57124496,0.4647908,0.1442913,-0.6821579,0.027486974,0.08898658,0.2167817,0.227561,-0.007597418,0.036163766,-0.07785904,0.39090875,-0.06169365,-0.36371294,-0.30081984,0.15258634,0.46745497,-0.012768014,0.003670893,-0.25999054,-0.43536672,0.18540901,-0.07030719,0.008790151,-0.5015418,-0.16929327,0.027178213,0.4316233,-0.030689068,-0.080137074,0.05204806,-0.7324592,0.10877737,-0.21380652,0.03220323,-0.18365821,-0.12733106,0.3353556,0.17502414,0.003262951,-0.33438975,-0.3540478,-0.552266,0.26602322,0.3755393,0.674574
ba,-0.2327927,-0.6746616,0.5175091,-0.009652024,-0.15942271,-0.089989305,-0.04716732,-0.55858386,-0.46417862,0.57288814,-0.3765062,-0.11119702,-0.10392012,-0.4143852,-0.03736532,-0.054748796,0.28871396,0.6556501,-0.77481705,0.16040823,0.42614877,0.15154308,-0.22268392,-0.35675764,0.2680728,-0.6158944,0.18526368,0.3871892,-0.5743062,0.17655389,-0.28805122,0.24255215,-0.7726278,0.2189278,-0.4148106,-0.0459418,-0.12565483,0.124733545,0.15316762,0.32163516,-0.29920933,-0.37833995,0.1598237,0.528729,0.27235776,0.38149685,-0.3919106,-0.32862785,-0.18838787,-0.3069606,0.3094825,0.2631917,0.024552992,-0.50033635,-0.28289714,0.03854763,-0.650149,-0.23718227,-0.07500947,0.07852022,-0.24813458,0.099488996,0.08284355,0.32851276
15,0.24083254,-0.20803331,0.5494151,0.11058069,0.088005014,0.0518323,0.025948802,0.6268754,-0.30121112,0.44040996,-0.83949316,-0.15613553,-0.030106444,0.04026102,0.17657922,-0.24231309,-0.1813782,0.6014148,0.17680208,0.5699434,0.13956633,0.16052206,-0.7808832,0.16332784,0.24182972,0.549503,0.2922519,-0.089343935,0.10066658,-0.067493506,0.23319484,0.07107064,0.11329305,0.38781112,-0.16373871,-0.055496905,0.3013799,-0.28185847,-0.12765628,-0.38311118,-0.4976252,-0.355355,-0.40237954,0.35600615,0.16792578,0.57305557,0.38885757,-0.3757201,-0.060590178,-0.64601725,0.2870946,-0.018877415,-0.41690153,-0.40361056,-0.6392142,-0.3207981,0.23741607,-0.3759736,-0.2980819,-0.12541436,0.24072105,0.27448806,-0.36495534,0.4473267
bóng,0.14279427,-0.3984289,-0.113181174,-0.12534107,-0.26359102,0.3736341,0.034321744,0.24073626,0.14674798,-0.054234955,0.10106173,0.24681203,0.14109284,-0.1942832,-0.59050894,0.4183585,-0.51232773,1.1289934,0.34043124,0.60912085,0.70186746,0.10697249,-0.7022383,-0.11252258,0.33971772,-0.46928942,0.06154626,-0.41285393,-0.6537958,0.06670652,0.16792601,-0.08850221,0.1289161,-0.013980563,-0.34407914,0.04110572,0.41453317,0.19527088,0.43792048,0.077824995,-0.24733317,-0.780388,0.6854039,-0.23984309,0.2631504,0.25815082,-0.20437337,-0.18083839,-0.5774181,-0.34540087,0.43079376,-0.20683128,-0.5199403,0.1147613,-0.99355996,0.011591694,0.49547282,-0.3574169,0.25546363,-0.1319552,0.26773137,-0.18119639,0.10081985,1.2217038
mực,0.20012316,0.1688078,0.05272822,0.08875078,-0.3906595,0.23748729,-0.021164022,-0.089006275,0.26945278,0.07127379,-0.034612328,-0.053162094,0.18323666,-0.5710962,0.2622875,-0.038653437,0.008999029,0.8259319,-0.44864878,-0.21431364,0.24137165,-0.1277729,-0.038709555,-0.11331969,0.35452688,-0.24082242,-0.046497125,-0.5756843,-0.7116606,-0.15870687,0.08610594,-0.051676843,0.39249048,0.009447662,-0.34708259,0.10659686,0.90894765,-0.104627475,-0.41458443,0.054215517,0.14785644,-0.06581465,0.089513205,0.19765487,0.15909654,0.13252224,-0.26112354,-0.38841572,-0.4894443,-0.3665347,0.11927444,-0.24384284,-1.0326244,-0.10756213,-1.1400055,-0.35676408,0.4331852,-0.15448108,0.483773,-0.11071308,0.027885705,0.0025293417,0.45873752,0.57592034
ngắm,-0.44140917,-0.4241232,0.48812085,-0.25317636,-0.4500452,0.39154187,0.026333299,-0.1601544,-0.35422024,-0.063387275,0.114403814,0.1342597,-0.08844838,0.01753073,-0.981355,0.12544785,0.19973126,1.0013477,-0.43199602,0.5057461,0.24988073,0.20937134,-0.4822961,-0.19070846,-0.25766435,-0.35377535,0.29322404,0.11118251,-0.9090235,0.22525653,0.12260498,-0.31029728,-0.30031815,-0.11341298,-0.5380232,-0.018228885,0.027244559,-0.06719316,-0.068861745,0.5197871,-0.06604349,-0.6158523,-0.32421523,0.14203206,0.22638676,0.28193444,-0.021827932,0.21651179,-0.42068014,-0.57027036,-0.106127046,0.07088973,-0.57526076,-0.041734204,-0.0731289,0.17578216,0.059177704,0.09526893,0.20256631,-0.5576846,-0.00071916665,-0.20513335,-0.19298421,0.83687514
phật,-0.2260459,0.23930065,0.72495264,0.19350787,-0.78035617,0.5217054,-0.3665289,0.32958367,-0.14502965,0.018457562,-0.10123674,-0.1301149,-0.029145652,-0.15017642,-0.33202985,-0.41572446,0.29564354,0.7696697,-0.3908186,0.16559924,-0.19024797,-0.45387328,-0.114253566,-0.08888824,0.08265966,0.20782936,0.36913544,-0.26196876,-0.3207357,0.020270886,-0.51877314,-0.46639508,-0.10405494,0.04309214,-0.1659317,0.12694575,0.618307,0.059577655,-0.3627733,0.44812796,-0.44407484,0.12469228,-0.29823706,0.1689772,0.23226446,0.03699477,0.07461069,-0.33788878,-0.6916568,-0.36862883,-0.17327583,0.21198215,-0.6367295,-0.19174808,-0.27948922,-0.40436703,0.08885103,0.23975107,0.09959431,-0.17176864,-0.26809138,-0.07815407,0.15887271,0.68271303
kỳ vĩ,0.28464517,-0.32730114,0.5134501,-0.057880584,0.39342988,-0.13156529,0.097881176,-0.13421881,-0.005100618,0.3947811,-0.4792542,0.1040176,-0.12386143,-0.41848916,0.017722059,0.064408734,-0.4691431,0.45420763,-0.019467391,-0.17788793,0.5433331,0.033824198,-0.25990796,-0.25821817,0.37234083,-0.3781078,-0.13478766,0.4936947,-0.37959236,0.17612705,0.41739848,-0.07660494,-0.23767595,0.17979977,0.077174105,-0.26547754,0.25511283,0.11741157,-0.26947063,-0.45813015,0.10111313,-0.24401785,-0.044452205,0.44842055,0.16151191,0.3157659,-0.16160461,-0.33219415,0.2213708,-0.71678424,0.3525448,0.23344691,0.024610197,-0.37605214,-0.45421496,0.06089688,-0.048674572,-0.6710547,-0.32997033,-0.10753482,0.08527191,0.33789954,-0.03218538,0.17723109
dựng đứng,-0.27342704,0.23992486,0.76148385,0.4823028,-0.69074696,0.6036863,-0.48143202,0.6707329,-0.5063408,0.032697417,-0.25693935,-0.08041929,-0.16407952,-0.061847754,-0.5696866,-0.44752914,0.17304043,0.777935,-0.19222027,0.15862611,-0.21435064,-0.2586556,-0.2353999,-0.21227951,0.35361862,0.27231136,0.007989411,-0.117324024,-0.042349618,0.13943893,-0.62049925,-0.18838368,-0.32892883,0.061179403,0.1866709,0.07553542,0.46817988,-0.029810982,-0.14467932,0.49347815,-0.90242237,0.286862,-0.24630266,0.16119011,0.46648756,0.06734342,0.13988662,-0.4570116,-0.5682038,-0.4342029,0.28902635,0.55531996,-0.29977995,-0.08123292,-0.4020396,-0.6360724,0.10121766,0.18441893,-0.30086872,0.053822797,-0.256146,0.18265313,0.112803675,0.47061956
"3.147,3 mét",0.010284226,0.06874142,0.1774518,0.056479186,-0.47197893,0.1504133,-0.036375053,-0.0699931,0.1701049,0.033576675,0.03758561,-0.036020506,0.07624918,-0.34845355,0.015629277,-0.011460385,0.09197617,0.6929599,-0.39442918,-0.11060374,0.20637105,-0.042327218,-0.06633757,-0.09413635,0.12698033,-0.30843127,0.08588747,-0.40953478,-0.68918854,-0.08921064,-0.03716232,-0.15857475,0.19721985,0.008499411,-0.52273947,0.035028674,0.74030244,0.084244676,-0.24007377,0.16469641,0.0794996,-0.22322582,0.09003825,0.19731377,0.11450645,0.09773263,-0.30423644,-0.2492732,-0.5547967,-0.27231792,-0.09245417,-0.112125255,-0.8638773,-0.12531824,-0.8430008,-0.2709979,0.24422655,-0.037428748,0.47303912,-0.15336707,0.0458354,-0.18855251,0.3167112,0.6131556
khó,-0.30537933,-0.1121327,0.38933277,0.005671361,0.27930656,0.293484,0.056789346,-0.04398206,-0.03930478,0.27563047,-0.0023549804,-0.23111135,-0.15378875,-0.7257965,-0.28253493,-0.05243765,-0.33990303,0.69824713,0.04904451,-0.47336408,0.5050668,-0.05777487,-0.0391886,-0.33236358,0.30113932,-0.4756446,-0.4321585,0.12208415,-0.41007245,0.2574696,0.3061865,0.17678371,-0.26377076,-0.43291867,0.23272888,-0.24784198,-0.0063504446,-0.123069204,-0.17152108,-0.0777555,-0.09235121,0.43468294,-0.20178622,-0.20299986,0.57333314,0.5665853,0.46807572,-0.2742954,0.25826314,-0.62644213,0.64595145,-0.028526071,-0.3849746,-0.053674586,-0.70377624,0.05433943,0.13161603,-0.48667067,-0.20171441,-0.14924435,-0.17390287,0.22041911,-0.11191276,-0.14463653
rừng già,-0.25542843,0.22700956,0.4571426,0.27453384,-0.4957835,0.34540904,-0.3543303,-0.14963496,-0.7823767,0.19820835,-0.14189787,-0.20023794,-0.026869569,-0.04084459,-0.48513964,-0.20870785,0.14898805,0.69942266,-0.56349975,0.078873016,-0.02994439,-0.29349896,-0.35213882,-0.28929377,0.40964302,-0.1652497,0.072152704,-0.05432,-0.21330678,0.063755244,-0.6600284,-0.08147707,-0.6026263,-0.09805114,0.22752617,-0.11881385,0.21096104,-0.048034266,0.14317638,0.4473711,-0.6536897,0.077021405,0.27578324,0.026498444,0.3884718,0.44195542,-0.2841162,-0.3750524,-0.42316192,-0.23284638,0.47075373,0.5781874,0.2220964,-0.3232439,-0.21288122,-0.008223954,-0.2511767,0.18074504,-0.253776,0.12991455,-0.37525287,0.12504819,-0.042066652,0.1478212
có thể,-0.41170976,-0.44245964,0.3870592,-0.24461934,-0.33606943,0.3507558,0.06079649,-0.18328443,-0.2319007,-0.06958893,0.1615873,0.12946817,-0.037865616,-0.069070056,-0.9162131,0.16941646,0.11317221,0.9128031,-0.3029125,0.36423206,0.38163093,0.2373685,-0.4876038,-0.15538728,-0.18679173,-0.3705187,0.18172397,0.07507711,-0.9156769,0.31209493,0.070177175,-0.19546813,-0.29641625,-0.17407976,-0.44457436,-0.020129245,-0.11106189,-0.05191786,0.10101923,0.4042293,-0.030981863,-0.5325815,-0.15539104,0.057009067,0.26625758,0.3683471,0.01891754,0.18647467,-0.2985784,-0.42726675,0.021735275,-0.04541409,-0.43566132,-0.007858752,-0.120576076,0.2843545,0.047916535,0.015560504,0.15714814,-0.48323703,-0.07226239,-0.19008072,-0.10930568,0.7205162
liên sơn,0.00028263204,-0.28117472,-0.3922203,-0.12386538,0.70143,0.05868131,-0.074846625,0.08186197,-0.41129097,0.05172941,-0.36104113,-0.4374378,-0.16191135,-0.40431303,0.28692362,-0.5546855,-0.317076,0.87088865,-0.60338885,0.18642692,0.2859734,-0.59802896,-0.29987884,-0.737275,0.07366791,-0.6190622,-0.077028036,-0.11727343,-0.13244973,0.15269607,0.3518762,-0.08712742,-0.003928189,-0.2077281,0.608028,-0.5131687,0.22496329,-0.2249849,-0.5606373,-0.074468054,0.12932162,-0.30612105,0.0023207148,-0.0109067755,-0.08608568,0.105868615,-0.072043195,-0.15721795,-0.24535619,-0.8371433,0.03870056,0.5667166,-0.28641188,0.11519638,-0.7292453,0.5705678,0.3822199,-0.42699236,-0.07872672,-0.40196276,-0.2718058,0.3058009,0.14708413,0.7030665
rút,0.0660992,-0.45903108,0.17906491,0.28949758,0.12185685,0.10519525,-0.2670129,0.959946,-0.21486127,0.013468177,-0.8478881,0.15244038,-0.3421404,-0.5813704,0.16946793,-0.38519278,-0.09358531,0.9002785,0.2650793,0.34980327,-0.09265505,0.022103118,-0.3504046,-0.24367514,0.3383491,0.24637662,-0.062273033,0.05297403,0.11335532,0.118198134,0.0908908,0.1364436,0.24897504,0.33705387,0.25639746,0.12314424,0.42298016,-0.039509818,-0.07989406,0.018412618,-0.5803941,0.012192724,-0.15840727,0.44906524,0.19230826,0.2573079,0.774463,-0.5397373,-0.30302668,-0.592025,0.081401125,0.084657416,-0.25202855,-0.17624114,-0.8037065,-0.76337755,0.25477841,-0.29215786,-0.6364733,0.017745338,0.2288345,0.26900402,0.06551114,0.44815624
ngày nay,-0.29362237,0.15716581,0.6198996,0.48306292,-0.72693956,0.50075203,-0.45443812,0.8080962,-0.6011576,-0.10700158,-0.36191237,0.066171,-0.21470404,-0.13405797,-0.48480654,-0.470754,0.12991081,0.83078766,-0.1575372,0.13589452,-0.28753427,-0.071038395,-0.29779845,-0.3051779,0.39429644,0.18419005,-0.099974826,-0.13552977,-0.08341189,0.053592846,-0.6148978,-0.045226686,-0.21362105,0.0985716,0.15128097,0.091341294,0.5333194,-0.030640168,-0.07721226,0.5366278,-0.9404206,0.19349407,-0.059586745,0.29999864,0.45595905,-0.005138461,0.17902188,-0.53233665,-0.6808192,-0.38680738,0.32198638,0.64746773,-0.31251353,-0.0018576384,-0.6016567,-0.7915629,0.13703576,0.14493863,-0.34287027,0.17329413,-0.10152167,0.1967657,0.118513234,0.4682724
thuộc,-0.01437611,-0.45368266,-0.19842981,-0.12321332,0.7795809,0.063609235,-0.12947567,0.016134372,-0.3427781,0.24359803,-0.433246,-0.36952642,-0.22446604,-0.3736386,0.30358276,-0.5946313,-0.21256042,0.70685077,-0.54662067,0.20628552,0.33545196,-0.5435093,-0.21434496,-0.72102726,0.047467936,-0.57091385,-0.01218098,0.082644135,0.0010876247,0.22215068,0.15697825,-0.065308474,-0.12969218,-0.07620893,0.5601765,-0.3886437,0.10229192,-0.035909094,-0.3991617,-0.044618964,0.10819216,-0.34680188,-0.047371194,0.059496477,-0.0600472,0.11033062,-0.081927605,-0.16326219,-0.19550064,-0.74996656,-0.006866995,0.52244246,-0.0373461,-0.005436419,-0.60870486,0.49839717,0.19841579,-0.44646654,-0.18484318,-0.39648607,-0.28782064,0.19142215,0.19456553,0.61043596
này,-0.1209439,-0.5938996,0.07313165,-0.08922175,-0.06558689,-0.010708584,-0.0030383854,-0.22980072,-0.20433831,0.18029322,-0.160258,-0.0587896,0.06595011,-0.27304956,-0.27413484,0.028360108,0.06833801,0.66041356,-0.4671122,0.36366546,0.48383534,0.0880796,-0.41045126,-0.16823527,0.07317105,-0.3141711,0.09642592,0.10691194,-0.50832254,0.3938746,-0.1764836,0.14588551,-0.5299883,0.19755174,-0.027752545,-0.030110722,-0.3078565,-0.08113136,0.24082991,0.16357258,-0.041565485,-0.5598462,0.30090806,0.25576532,0.20861384,0.42270368,-0.26785988,-0.14633158,-0.086654186,-0.19893976,0.26376814,-0.08120177,0.18946849,-0.10793076,-0.30793884,0.4566701,-0.2608816,-0.08786921,-0.06126984,-0.017003134,-0.22331415,0.0771939,0.11288892,0.50845647
trùng điệp,-0.26742095,0.17135051,0.3527177,0.24099608,-0.6066789,0.41062567,-0.2617193,0.0054607675,-0.45991972,-0.082801454,0.093867265,-0.046884555,0.033721052,0.01641255,-0.5698039,-0.1214051,0.18833774,0.6877559,-0.558972,-0.048248395,0.17134562,-0.31363642,-0.44856673,-0.1416135,0.17143689,0.015670309,0.28203118,-0.09828992,-0.53049326,0.3471689,-0.36343062,-0.2603252,-0.50930554,-0.06725683,0.13872105,-0.17386949,0.06334939,0.06611741,-0.16509059,0.42747658,-0.48724794,-0.106530905,0.04829042,0.13172802,0.35487047,0.31708625,-0.24940234,-0.22061956,-0.52019435,-0.24051663,0.41473475,0.32001323,0.07730573,-0.21491717,0.117937796,0.34560624,-0.060031492,0.32423407,-0.13678484,-0.13725781,-0.49905998,0.042231712,0.0024041068,0.5031568
tỉnh,0.022977663,-0.5772593,-0.24828887,-0.09113321,0.8872614,-0.02110994,-0.16246647,0.023369303,-0.40269044,0.2313614,-0.5400305,-0.31738368,-0.31228215,-0.44848862,0.40477,-0.60247326,-0.23840149,0.68307084,-0.5084836,0.23053508,0.34618285,-0.47007936,-0.23135561,-0.79187137,0.09619209,-0.5886982,-0.07553915,0.16040139,0.05740488,0.1971248,0.24145386,0.0748017,-0.04411665,-0.03872102,0.49594897,-0.35760233,0.14214608,-0.025069201,-0.34450567,-0.060109064,-0.00037131377,-0.30650195,-0.022181349,0.17172864,-0.022622589,0.12587345,-0.039900433,-0.18338549,-0.2249832,-0.68532544,-0.06832715,0.5028855,-0.08413115,-0.07224629,-0.69323194,0.25193107,0.15860145,-0.45053685,-0.22566251,-0.38157308,-0.19160122,0.16271861,0.16971438,0.51886237
nước biển,0.13935474,0.19230974,0.022855753,0.15606937,-0.34804422,0.2695411,-0.11784545,-0.057917163,0.13493958,0.01304225,-0.08651581,-0.13057177,0.16190046,-0.50028557,0.29127678,-0.19140218,0.031776417,0.7834337,-0.6209272,-0.1218294,0.12930179,-0.17935793,0.039335296,-0.09618669,0.28626975,-0.14707786,-0.07461841,-0.53341544,-0.56785685,-0.1753045,0.059130453,-0.031585723,0.3456991,0.067750484,-0.15026972,0.09023635,0.8189025,-0.18457094,-0.5230992,0.12019183,0.09227835,-0.022437517,-0.05040427,0.22850569,0.13058333,0.063610576,-0.25513104,-0.4204895,-0.47109666,-0.37936455,0.12207418,-0.13264143,-0.8799165,-0.030131508,-0.975295,-0.32351565,0.36248103,-0.08313188,0.38747206,-0.09946323,-0.018278025,0.08848867,0.5100998,0.50978714
bản sắc,0.09468033,-0.234141,0.1070487,0.25607625,0.37513974,0.40145868,-0.5444054,-0.16217649,0.12629567,0.64372677,-0.2546177,-0.4287862,0.079518676,-0.35689154,-0.13915552,-0.3187375,0.18532737,0.74010956,-0.59720117,0.53215694,0.21704331,-0.7374342,0.032713212,0.038594592,0.3309478,0.22444394,0.017814565,0.07677157,0.082409635,0.35532272,-0.13026609,-0.26044917,-0.345451,0.25133476,0.44766793,0.0066331066,-0.015672753,-0.18241327,-0.378041,0.087015085,-0.11078849,0.013304346,-0.4410375,-0.12621064,-0.00663937,0.47074977,-0.13656256,-0.12420638,0.03538104,-0.67771107,0.07538075,-0.2412895,0.08041065,-0.2882623,-0.2493103,0.25461322,0.10909156,-0.09155265,-0.36952245,-0.27024305,-0.58897066,0.2606168,0.45188352,0.6632504
kiến trúc,0.030640136,0.038586747,0.31611338,0.3455549,0.025039468,0.55474025,-0.5336196,0.02584221,-0.008357743,0.48506367,-0.17846893,-0.34471905,0.093610406,-0.118913814,-0.35583234,-0.28650048,0.21721525,0.64314157,-0.47093704,0.4673659,0.06388439,-0.61073315,-0.030024145,0.13649407,0.2808331,0.3880137,0.05112127,-0.012977698,0.04747267,0.3061357,-0.22868466,-0.33218324,-0.3131558,0.20086752,0.36414567,0.01996257,0.0845215,-0.22563758,-0.35474986,0.21292323,-0.31479117,0.09646027,-0.5264062,-0.11643948,0.10945067,0.38688454,-0.08497501,-0.13931501,-0.10013193,-0.57871556,0.15569715,-0.076877214,-0.052763116,-0.24611558,-0.08754837,0.06363741,0.14476264,0.09851111,-0.32034883,-0.22910668,-0.554705,0.23689988,0.34316218,0.6007075
ngắn,0.17711258,-0.43840155,0.2324647,0.22375095,0.23112094,0.16938815,-0.28283796,0.85127485,-0.13505395,0.23893286,-0.8439418,0.009760951,-0.20900153,-0.44928852,0.29879892,-0.35344985,-0.050970823,0.8546963,0.2238917,0.522708,-0.057638455,-0.10716254,-0.3934565,-0.08299015,0.29522097,0.42534077,0.12699814,-0.03289653,0.18083887,0.067411706,0.058079235,0.07021996,0.25486532,0.42640954,0.18180178,0.16531132,0.35915884,-0.07930536,-0.09468657,-0.061132777,-0.53942585,-0.09854569,-0.28389776,0.35630363,0.11276182,0.38867542,0.68955195,-0.45966688,-0.29104173,-0.58799076,0.015559934,-0.11911068,-0.3298234,-0.28689626,-0.75207746,-0.6287508,0.28999895,-0.30860907,-0.5131172,-0.053838618,0.13349569,0.21720763,0.04151948,0.55847055
nhà,0.080289595,0.08905676,-0.21786377,0.06445798,-0.09748978,0.1002933,0.0014322738,-0.30382475,-0.11904578,-0.1332642,-0.057813797,-0.088829964,0.12919188,-0.37679163,0.10495912,0.0061836964,-0.047446325,0.6039578,-0.7271775,-0.08653809,0.11923435,-0.0899403,-0.053354226,-0.18229131,0.21742168,-0.23491853,-0.18863717,-0.22032788,-0.7044323,-0.016209492,0.42862406,0.030209253,0.13245419,0.058691576,0.07683785,-0.1860709,0.4518672,-0.38327482,-0.6219149,-0.06441956,0.15937194,-0.04430899,-0.0162373,0.3066146,0.04967251,0.10587023,-0.3022189,-0.12854634,-0.17807545,-0.45276463,0.2201924,0.029625066,-0.46718162,0.043683533,-0.47535437,0.020498345,0.20652726,-0.057487138,0.25666824,-0.09208444,0.0036794906,0.30554152,0.27285457,0.23964845
mây,-0.38234556,-0.2664095,0.6817139,-0.10122357,-0.54745424,0.4757584,-0.083277725,-0.029778587,-0.43160024,-0.07379272,0.027459735,0.12882663,-0.043988887,0.062162094,-0.9117079,0.011840505,0.3014529,0.8642013,-0.47281083,0.3193489,0.16540277,0.054136287,-0.50483906,-0.096583195,-0.21668987,-0.047620654,0.44578004,0.16444537,-0.7772747,0.3012464,0.012199064,-0.3973555,-0.35201034,-0.042537134,-0.40386093,-0.054173097,0.037864618,-0.04395177,-0.24298637,0.52309775,-0.29490778,-0.4845678,-0.4733552,0.28644323,0.30345356,0.28719875,0.034810256,0.09400217,-0.45912603,-0.59207034,-0.044204157,0.17243895,-0.41107744,-0.16222094,0.19372857,0.15711929,-0.057153467,0.24002393,0.034020606,-0.5715106,-0.115829855,-0.100953996,-0.22125101,0.7723433
dãy,-0.0076048686,-0.0010855697,-0.41268286,-0.076312535,0.5524997,0.12024904,-0.042782087,0.065143116,-0.4752255,-0.016537085,-0.2491173,-0.46098676,-0.17237778,-0.28175932,0.20151305,-0.4944465,-0.32499403,0.8833319,-0.68276477,0.15333097,0.17730714,-0.6648795,-0.2714866,-0.64474165,0.05881054,-0.50870764,-0.09704278,-0.19506921,-0.21299854,0.12364417,0.4143217,-0.18033305,0.029184308,-0.24948223,0.6422738,-0.56892896,0.30510077,-0.2727727,-0.68682504,-0.13104732,0.10321796,-0.23704249,0.007656926,-0.066262096,-0.09158432,0.11409105,-0.11798015,-0.11776245,-0.3102151,-0.82693124,0.12477805,0.61147505,-0.3189851,0.086270325,-0.6480204,0.5742642,0.45943817,-0.35612908,-0.035197686,-0.35393345,-0.2948088,0.35924116,0.06287788,0.62250084
treo,-0.13197488,-0.10562267,0.4713782,0.43880084,-0.4853956,0.42923278,-0.5047006,1.0722028,-0.3393907,-0.10676315,-0.64857924,0.116980456,-0.30303058,-0.41305557,-0.064021975,-0.561321,0.08838112,0.95185703,0.012822708,0.34586897,-0.3447952,-0.17429674,-0.2512175,-0.28544572,0.37889203,0.39128888,0.0069170524,-0.1474439,0.06821291,0.06614382,-0.43794838,-0.034206938,0.10241112,0.28095153,0.18244486,0.22756562,0.6482731,0.007853972,-0.15921804,0.4069674,-0.8461212,0.12817614,-0.1684571,0.43243322,0.2862759,0.0107808225,0.5790761,-0.625986,-0.7071251,-0.5153551,0.04467574,0.368447,-0.40166372,-0.09541799,-0.8102948,-0.9730221,0.2764725,-0.0015156125,-0.45238912,0.100823306,0.061150014,0.1980029,0.18010214,0.66127145
ghi,0.103126414,-0.35175753,-0.055063374,-0.15047115,-0.2798776,0.2903214,0.07021641,0.24112542,0.13223751,-0.08919467,0.07273904,0.21587849,0.14896074,-0.1663431,-0.4474339,0.3421863,-0.37069404,1.0062727,0.2352521,0.540189,0.56454486,0.13997906,-0.59106165,-0.07790864,0.21754934,-0.3828172,0.090294264,-0.41346934,-0.6458707,0.062010136,0.16324213,-0.0937297,0.20627496,0.027913505,-0.41437608,0.07255957,0.38066843,0.15452011,0.3252135,0.10564351,-0.1607822,-0.72552544,0.48040164,-0.10966757,0.1706348,0.20119417,-0.15077649,-0.15349427,-0.5425538,-0.33128992,0.2521801,-0.21789652,-0.5890236,0.10100785,-0.8690231,-0.017443486,0.44042963,-0.28437665,0.2981962,-0.14826155,0.23399775,-0.18886715,0.10281364,1.1166505
chỉ,0.19270389,-0.51308256,0.22643825,0.19251278,0.28750294,0.09939253,-0.16511203,0.7855367,-0.26575974,0.3040257,-0.88216764,-0.07701084,-0.13623369,-0.3364983,0.31248096,-0.3555715,-0.015574381,0.8120122,0.23048009,0.6518081,0.059115153,0.03625235,-0.6163742,-0.07919759,0.28554377,0.44170412,0.18350336,-0.10058177,0.19281127,0.09643606,0.09605779,0.19139558,0.19935228,0.47760025,0.07955747,0.15139155,0.29267946,-0.1518012,-0.019410754,-0.13876195,-0.57838523,-0.2629714,-0.2393471,0.3663755,0.1290764,0.47670606,0.5983108,-0.39915088,-0.24421111,-0.5295937,0.06860841,-0.08491543,-0.36141822,-0.28904432,-0.799234,-0.57691634,0.19958581,-0.32864287,-0.47730455,-0.053257693,0.14450869,0.21308959,-0.047287047,0.5473023
leo,-0.23781617,-0.33171764,0.61780757,0.09997608,-0.37672767,0.02755116,-0.082447626,-0.277713,-0.63433504,0.5052569,-0.37175107,-0.14065193,0.003666503,-0.05937768,-0.21948718,-0.08192904,0.3197069,0.56905395,-0.64053106,0.34975347,0.16655356,0.12656352,-0.40824476,-0.167842,0.25149852,-0.19042209,0.32512203,0.24867623,-0.36600402,0.112291105,-0.40293148,0.08784071,-0.7377312,0.21455815,-0.3234574,-0.048003215,-0.10877009,-0.0052442257,0.13140887,0.3376014,-0.5320594,-0.36094305,0.049062975,0.43403232,0.29213676,0.43354982,-0.28390738,-0.2902641,-0.22325954,-0.27614146,0.33242452,0.34846964,0.10064779,-0.51195115,-0.11041226,0.018967533,-0.52304655,-0.04135076,-0.14593872,0.08398427,-0.22744419,0.10320919,-0.115157455,0.3569314
được,0.2449562,0.03206648,-0.043033164,0.0554569,-0.098402955,0.16489947,-0.0640141,-0.23981307,0.20141603,0.11576676,-0.12053535,-0.10417802,0.15125467,-0.5620555,0.35304564,-0.14302312,-0.06190772,0.7394009,-0.58600235,-0.14306217,0.30045375,-0.24799971,0.05990655,-0.16730481,0.3220168,-0.27846748,-0.07341346,-0.38262334,-0.6214887,-0.1346727,0.24009626,-0.044432636,0.31327823,0.10697142,-0.13718818,0.006949847,0.7828525,-0.09864811,-0.5438451,-0.082173206,0.22565676,-0.10067128,0.045307238,0.23329864,0.088044845,0.10431109,-0.3793948,-0.36610723,-0.36293066,-0.43972164,0.093018934,-0.14955597,-0.8278914,-0.069010064,-0.93359715,-0.19545074,0.30970702,-0.23021758,0.39191374,-0.15506189,-0.031212194,0.07013937,0.5055073,0.4885381
biển,-0.438024,-0.33542746,0.5948461,-0.11776985,-0.5950825,0.47755387,-0.08675609,0.037181627,-0.34825042,-0.13324781,0.045604263,0.13475893,-0.04317155,0.058094274,-0.9200246,-0.039996188,0.30638745,0.9201614,-0.4427076,0.5036412,0.120131455,0.09548597,-0.42402562,-0.12810764,-0.25938097,-0.07647501,0.32423115,0.020652574,-0.77581507,0.23186228,-0.07696021,-0.32751003,-0.25138676,-0.043118045,-0.4890228,0.0823352,0.035039004,-0.05429745,-0.13368243,0.58903706,-0.17072016,-0.539185,-0.4154946,0.24116649,0.25151375,0.17959,0.04579523,0.1330044,-0.4664323,-0.49923673,-0.15202862,0.082552336,-0.56284773,-0.037574995,0.0045557655,0.028883042,0.06714458,0.21842735,0.16064139,-0.5291044,-0.04346865,-0.18810458,-0.12638655,0.8745466
giá trị,0.119575836,0.042571444,0.41592556,0.1510191,0.063038334,0.37784266,-0.34184322,0.066557795,0.08837713,0.5550543,-0.15550184,-0.25731876,0.033678543,-0.041381687,-0.07828998,-0.19502664,0.15372807,0.5268142,-0.10248725,0.46955684,0.15294017,-0.544665,-0.15558898,0.045166332,0.19110633,0.247774,0.29398233,-0.04204204,0.14001748,0.1316037,-0.2832292,-0.3184933,-0.20988604,0.25426343,0.038781945,0.0874552,0.30419928,0.02617664,-0.12557897,0.05062177,-0.42220038,0.07802983,-0.28547075,-0.16760038,0.030386453,0.48371375,-0.07225237,-0.08962093,-0.24938141,-0.39401937,-0.09841123,-0.15720433,-0.29483795,-0.38495559,-0.22511041,-0.22238527,0.017586835,-0.084160484,-0.04021062,-0.2501278,-0.40802178,-0.018027036,0.12764941,0.5360991
mở,0.18529509,-0.17292954,0.65010834,0.07675962,0.06408294,-0.0031820994,0.22901969,0.5260414,-0.4030761,0.5402872,-0.8218822,-0.14593828,0.035222374,0.123811565,0.0781762,-0.16343309,-0.2484338,0.6329616,0.124717325,0.4609696,0.2590267,0.27941108,-0.9455931,0.15571885,0.3017188,0.42794365,0.29846618,-0.034748387,0.022282371,-0.07129039,0.2833839,0.12792385,-0.10546622,0.2889111,-0.17649834,-0.21527113,0.18168202,-0.33860326,-0.05881575,-0.47484258,-0.43990797,-0.43673602,-0.34169856,0.33811575,0.21018368,0.72628474,0.34279928,-0.35588053,0.09246704,-0.69484276,0.5423344,0.06931197,-0.3215421,-0.4686882,-0.62886703,-0.08050039,0.11067781,-0.47303286,-0.37378523,-0.08254835,0.20497668,0.31590104,-0.5434412,0.36206618
giúp,-0.0019261956,-0.47844127,0.13943627,0.28845596,0.12479986,0.18255639,-0.41417506,0.9762329,-0.19397236,-0.029493937,-0.7948649,0.13010943,-0.36648017,-0.65475124,0.23777042,-0.4593704,-0.035735507,0.9408037,0.18006489,0.3814869,-0.17928952,-0.12208206,-0.25575647,-0.36844465,0.3404451,0.24132979,-0.071446955,0.03776101,0.13187337,0.12966464,-0.012944933,0.110413164,0.25737268,0.3165793,0.30446336,0.1626988,0.4492558,0.013782195,-0.15303738,0.14256583,-0.5370452,0.036173303,-0.16458175,0.4149376,0.13951239,0.15500717,0.76100916,-0.5563568,-0.43206,-0.5818522,-0.055152062,0.14743996,-0.25457206,-0.12699696,-0.83281493,-0.77902454,0.30213478,-0.27238634,-0.6057121,0.009357381,0.1570366,0.22721869,0.16915968,0.5233033
suối,-0.3084234,0.1911571,0.5848461,0.19144692,-0.42177817,0.37609893,-0.30106553,-0.1923292,-0.6934359,0.24329104,-0.11267498,-0.20085251,-0.038556315,-0.027636489,-0.5914074,-0.13330057,0.19742607,0.67378366,-0.48204857,0.120336585,-0.019085472,-0.20913298,-0.2592215,-0.18634303,0.2835957,-0.20193431,0.050648317,0.069809504,-0.31887865,0.047936603,-0.48791397,-0.14723402,-0.59085083,-0.09707153,0.17555813,-0.10666048,0.16936089,-0.09954645,0.04441769,0.4355027,-0.59170395,0.14525358,-0.01623576,-0.031949677,0.40569648,0.40539995,-0.15628265,-0.25852686,-0.30603948,-0.33990413,0.34082228,0.44626585,0.052722294,-0.32024562,-0.046535987,-0.087123215,-0.2809784,0.11747074,-0.2276781,-0.023834731,-0.33248973,0.10443636,-0.06033406,0.1033256
rặng,-0.40379077,0.10632751,0.43234083,0.059430663,-0.5160506,0.37456954,-0.18106769,-0.044559494,-0.56349367,-0.046886384,0.07015294,-0.115535595,-0.07310704,0.04824568,-0.6829042,-0.14158764,0.28503248,0.7011117,-0.65049285,0.09822772,-0.043000504,-0.30154428,-0.37366533,-0.17990929,-0.06256113,-0.03536354,0.36612064,0.06830886,-0.52906865,0.27012652,-0.12203534,-0.44783542,-0.39373404,-0.1251953,-0.039810322,-0.26835006,0.1501133,-0.09037342,-0.40236288,0.43317506,-0.38117582,-0.17148407,-0.2985625,0.20851855,0.16857804,0.25100675,-0.12660548,0.044492416,-0.5037662,-0.52738494,0.06648768,0.43444178,-0.20109726,-0.13133916,0.21145526,0.25658846,-0.054843318,0.36716336,-0.040692974,-0.3444577,-0.3528648,0.051907904,-0.17588879,0.51200813
tin,-0.1752741,0.13060749,0.496839,0.26023164,-0.27375764,0.3797072,-0.10931844,0.014330264,-0.055041794,0.052885767,-0.011962865,0.08561209,-0.03978487,-0.56816554,-0.44951892,0.003142532,-0.05326494,0.6520223,0.028800406,-0.57660806,0.30665684,-0.0044499296,-0.03678514,-0.10155781,0.4072044,-0.2513157,-0.4248873,0.07605913,-0.44847947,0.21207269,-0.08140892,0.055693056,-0.34346914,-0.21548449,0.18707487,-0.023937171,0.14463362,0.0036492744,0.010310889,0.062458258,-0.4332623,0.54485327,-0.014304595,-0.01915866,0.6079362,0.3416374,0.18759213,-0.32669473,0.028159093,-0.37498343,0.6992629,0.021809947,-0.2547015,-0.12973145,-0.36327946,-0.3760184,-0.028555524,-0.16424802,-0.21391758,-0.020801466,-0.2680324,0.23646866,0.13610725,-0.1983109
bằng,0.04789394,-0.37272936,-0.052318607,-0.12857398,-0.38557383,0.35696733,0.09284985,0.32799152,0.043836217,-0.17106958,0.16536394,0.29360923,0.16719715,-0.18600126,-0.62856567,0.32683483,-0.4649026,1.0574785,0.29881024,0.49139825,0.69285727,0.12771559,-0.7933036,-0.12892105,0.25878364,-0.36492857,0.13911417,-0.43731853,-0.7243953,0.2227749,0.05816673,-0.020287782,-0.0032890264,-0.008373509,-0.196852,0.08362927,0.1936828,0.1621518,0.46104577,0.10619718,-0.2961834,-0.776032,0.6939724,-0.15357414,0.34278452,0.2865678,-0.095165,-0.21725483,-0.5426323,-0.25024098,0.5455156,-0.17804562,-0.39809367,0.15028803,-0.78812236,0.22107762,0.3693842,-0.32496014,0.1454814,-0.09992178,0.11382099,-0.12115862,0.043519393,1.1230428
vượt,-0.2947978,-0.09387753,0.40491882,0.11178502,0.30704004,0.41821435,-0.002240652,-0.0044606496,0.024601957,0.35342607,-0.020613572,-0.30891678,-0.13046487,-0.88858074,-0.29718977,-0.074953124,-0.3248783,0.8778496,0.04731833,-0.47574553,0.5172056,-0.18957068,0.052737,-0.28729567,0.4036804,-0.41922623,-0.5018716,0.064416625,-0.40276912,0.35580394,0.3297707,0.20575763,-0.27870768,-0.42789033,0.35860732,-0.19581221,0.042532187,-0.16987394,-0.24772713,-0.07303644,-0.13781635,0.55350095,-0.29263464,-0.27818197,0.6450238,0.6791358,0.5879763,-0.3824672,0.27534008,-0.7062324,0.7201453,-0.16511045,-0.45473987,-0.083358526,-0.8320566,-0.006356854,0.13388291,-0.54092544,-0.29529032,-0.14009732,-0.25257432,0.2982131,-0.015211701,-0.14989947
phải,-0.33448407,-0.71943384,0.2680762,-0.09355042,-0.22145443,-0.08188693,-0.02915938,-0.34012654,-0.37753597,0.2632088,-0.1965907,-0.055119276,-0.059291985,-0.35037413,-0.17534147,-0.045447968,0.2602684,0.7146853,-0.713323,0.23649743,0.4736297,0.09538592,-0.3732227,-0.3878303,0.047256898,-0.5475321,0.22189797,0.2377421,-0.68135905,0.37219054,-0.32376406,0.16237438,-0.74113464,0.13514021,-0.30574375,-0.1020515,-0.27859056,0.07669283,0.221383,0.3733485,-0.19871664,-0.538563,0.30632526,0.42562616,0.24855341,0.36771134,-0.34420326,-0.20080882,-0.29487422,-0.20648845,0.21541822,0.12485582,0.04999696,-0.22423044,-0.25817594,0.3675269,-0.45127302,-0.07535466,0.05355265,-0.021998106,-0.3033075,-0.0072499244,0.071523964,0.5266644
3.143 mét,0.24194197,-0.27041823,-0.06465386,-0.026578484,0.08279102,0.09847843,-0.06398754,-0.3249077,0.20699649,0.10577796,0.0027668537,0.114425674,0.010595848,-0.26217166,-0.26350212,0.28360564,-0.24051681,0.656493,-0.14902635,0.23690006,0.49677268,-0.010180202,-0.24743022,-0.16556919,0.30634037,-0.3575153,-0.07299436,-0.04539052,-0.5929387,0.08537456,0.38336676,-0.19227086,0.1268366,0.12450096,-0.40934816,-0.15589043,0.58996207,0.079092555,-0.123589665,-0.107273936,0.111731544,-0.4090557,0.2432857,0.09580576,-0.017688276,0.23965403,-0.52065265,0.09654835,-0.27316463,-0.41104668,-0.08587489,-0.19587553,-0.44041705,-0.16920495,-0.6500572,-0.11151469,0.25092584,-0.13210045,0.28335005,-0.29261205,0.12457246,-0.21130706,0.28142688,0.7301268
đã,-0.011040053,-0.24837981,0.37309518,0.328895,-0.2479996,0.27202016,-0.35718986,1.0578257,-0.27628282,-0.07226882,-0.7881839,0.17848222,-0.2903758,-0.44281185,0.096527986,-0.423781,-0.032601904,0.9110749,0.19290143,0.3581778,-0.23746718,-0.016024426,-0.4005709,-0.17906949,0.35762882,0.41294804,0.037443966,-0.108895175,0.06930673,0.030747639,-0.12980579,0.036646433,0.2358033,0.34505922,0.16080065,0.19485568,0.5515378,-0.012284945,-0.13436666,0.16292028,-0.70728076,0.01901347,-0.17325024,0.48277012,0.21389747,0.17231868,0.71069425,-0.60544753,-0.51228076,-0.56050235,0.063417554,0.1840812,-0.37583855,-0.17213728,-0.8028516,-0.8655911,0.31236342,-0.15834238,-0.5157791,0.058379944,0.19060199,0.24386589,0.050702598,0.5787618
hoàng,-0.0902669,-0.11146235,-0.419661,-0.053004578,0.7480638,0.17011568,-0.13823678,0.11533452,-0.5786012,0.059925575,-0.38795814,-0.5444506,-0.2502195,-0.39070565,0.19651267,-0.6607233,-0.3045211,1.0380679,-0.7382516,0.23578814,0.16266996,-0.80077296,-0.29003653,-0.77244574,0.053291265,-0.6007557,-0.106738634,-0.112577096,-0.10194644,0.19025724,0.3923698,-0.19660324,-0.053081088,-0.3031497,0.82067007,-0.6372744,0.26773745,-0.32139438,-0.71068585,-0.06499678,0.005095142,-0.21052775,-0.09189949,-0.11819027,-0.08983599,0.16777647,-0.04119707,-0.15359062,-0.28872,-0.99707896,0.10205718,0.72978884,-0.2894933,0.07375854,-0.7112555,0.63274825,0.46087077,-0.41519445,-0.15321265,-0.4551367,-0.4092473,0.4193129,0.07151327,0.7274898
qua,-0.2651313,0.13789693,0.6747952,0.19970992,-0.44399217,0.25543576,-0.20788717,-0.20529872,-0.7798994,0.3750392,-0.263039,-0.21376108,-0.03354945,-0.047360457,-0.47701177,-0.14929491,0.1745024,0.6502652,-0.51974964,0.09275486,-0.013814785,-0.042899925,-0.30222255,-0.15542424,0.3392622,-0.20893219,0.010301299,0.1249504,-0.23344229,-0.026627079,-0.5094799,0.024259804,-0.68859184,-0.05583846,0.1006984,-0.121749826,0.09956262,-0.14085247,0.103949174,0.33993703,-0.61164826,0.055733237,0.056867033,0.107248336,0.42955434,0.48732242,-0.14623618,-0.38702884,-0.1399824,-0.32573572,0.47692278,0.5141855,0.15857716,-0.41297567,-0.20920649,-0.089957654,-0.4055643,0.023756864,-0.31446874,0.13302448,-0.24497141,0.18419334,-0.18129064,0.0064831595
chùa tháp,0.01889336,0.36460897,0.564665,0.25019673,-0.63934606,0.47554898,-0.29290953,0.22873776,0.037657242,0.17312245,-0.07804335,-0.24191025,0.09098404,-0.26028386,0.036932338,-0.44811967,0.17568271,0.80039215,-0.47687343,0.0646345,-0.07807659,-0.6542958,-0.03802183,-0.0032949832,0.23049915,0.23780562,0.32236183,-0.47938514,-0.26214853,-0.10812341,-0.37190726,-0.48001456,0.05038803,0.06912013,-0.08690706,0.054948937,0.90447587,0.024904372,-0.564989,0.2018875,-0.30515867,0.16428176,-0.20564671,0.080384865,0.13428745,0.1103386,-0.108681954,-0.45635343,-0.70169765,-0.41802117,-0.11660826,0.05853932,-0.87276685,-0.20810409,-0.6195105,-0.3695325,0.18998964,0.088399366,0.2845933,-0.14195734,-0.2974002,-0.018612387,0.3269118,0.7132073
việt,0.18123923,-0.023715544,0.060858805,0.21068273,0.2749596,0.4104953,-0.3652426,-0.19234756,0.21991427,0.45314017,-0.06293114,-0.27715802,0.117549635,-0.28698483,-0.20326857,-0.13258986,0.072356924,0.6508077,-0.43209615,0.36042482,0.22297193,-0.6058447,-0.010700649,0.11392518,0.25613028,0.23306152,0.034534153,-0.0065397723,-0.12203505,0.28345507,0.120799065,-0.30650833,-0.1374043,0.19680738,0.33263353,-0.041865516,0.16136181,-0.23525351,-0.48212242,-0.022174552,0.02019175,0.011051976,-0.4095474,-0.09741483,-0.0576675,0.4488391,-0.17112017,-0.023726162,-0.0053957673,-0.6522251,0.06125279,-0.29997063,-0.09114784,-0.19400957,-0.16541718,0.19655092,0.19437726,-0.03393386,-0.18139581,-0.32809392,-0.45531818,0.22899464,0.36753908,0.54574853
hai,-0.28634834,-0.6889798,0.26909426,-0.07563055,-0.12464066,-0.13696541,-0.05630924,-0.46697876,-0.4503226,0.3804176,-0.29860985,-0.11213541,-0.11865487,-0.41534722,-0.012844091,-0.12863053,0.27639908,0.68216324,-0.76032156,0.20458065,0.46744695,0.07543536,-0.2824312,-0.46749914,0.12521507,-0.6574659,0.24755925,0.28988445,-0.6234633,0.28881314,-0.29277986,0.20197867,-0.7057788,0.1882787,-0.3163347,-0.10107912,-0.18158817,0.16474879,0.12948634,0.34988168,-0.22804683,-0.5101726,0.3115215,0.49521586,0.23503703,0.28140703,-0.41173524,-0.2344729,-0.32406908,-0.27409545,0.24134673,0.2777681,0.045295812,-0.35849488,-0.28880185,0.2317767,-0.56464267,-0.18069483,-0.019013837,0.02909561,-0.30503637,0.027395917,0.07868312,0.478509
khu vực,-0.30665228,0.37026712,-0.08723084,0.02061194,0.00023405674,0.10740151,0.11201246,-0.042626884,-0.7519221,-0.045226857,0.018649504,-0.389578,-0.09469949,0.027105661,-0.41612852,-0.10451579,-0.16356139,0.67274475,-0.49342293,-0.03134443,0.0736527,-0.2870814,-0.45080045,-0.29341978,0.082641356,-0.27391613,-0.086561434,-0.082480654,-0.40449235,0.18504688,0.31682765,-0.17158635,-0.25893354,-0.41198152,0.37697375,-0.6902372,0.036393516,-0.42389402,-0.45652962,-0.10000345,-0.2539909,0.060448345,-0.012834535,-0.08897008,0.07213015,0.4735937,-0.0043356763,0.059662323,-0.15900722,-0.63109136,0.45094126,0.5315017,-0.10038233,-0.040587377,-0.12819475,0.53432953,0.19064152,0.007952078,-0.09701307,-0.06994525,-0.31904852,0.40154204,-0.4793347,0.14891875
lên,-0.31233275,0.2949324,0.71167594,0.18950701,-0.124876745,0.5188443,-0.17974229,-0.10751999,-0.10725483,0.3374041,0.06946848,-0.23740047,-0.08256358,-0.635392,-0.39229771,-0.073596485,-0.100749396,0.6655582,-0.058774523,-0.6159963,0.24214758,-0.30983403,0.18132418,-0.18524122,0.3491191,-0.29066816,-0.3733476,0.033290815,-0.3589799,0.18222477,-0.06661451,-0.035581164,-0.40456408,-0.38414434,0.25364983,-0.120080635,0.1866917,-0.0423107,-0.20208494,0.090350196,-0.4300462,0.75619686,-0.25268546,-0.25341293,0.6245799,0.44618183,0.35176274,-0.37486315,0.08656213,-0.56896275,0.63372386,0.04649926,-0.4191959,-0.17781056,-0.45090905,-0.25304192,-0.01063639,-0.27388692,-0.1758066,-0.06334122,-0.31511667,0.19862233,-0.05586664,-0.21621144
a di đà,-0.09802845,0.4496999,0.57305086,0.23477043,-0.64765656,0.5689459,-0.32941017,0.054206163,-0.0120727355,0.11825122,0.030675856,-0.29761553,0.0986619,-0.2574276,-0.24521257,-0.34199074,0.2361995,0.72799635,-0.51942545,-0.025176536,-0.06668305,-0.6242928,0.058523905,0.027239613,0.17934231,0.1550514,0.21674362,-0.33913845,-0.35828793,-0.030185081,-0.41056332,-0.4703126,-0.09998801,-0.055857904,0.019982092,0.049556553,0.6450647,-0.030127265,-0.51068217,0.29436925,-0.28569928,0.33501047,-0.29361725,-0.040854875,0.28869304,0.16493963,-0.07212725,-0.3648135,-0.49646044,-0.43103185,0.036772225,0.05525962,-0.6640004,-0.18573403,-0.35387242,-0.18980415,0.13850275,0.17099807,0.18013002,-0.16613725,-0.4192572,0.03390682,0.23202397,0.4904535
thơ mộng,-0.13536076,0.010032332,0.15880185,0.12554286,-0.43359232,0.4137229,-0.09595705,0.11957533,0.054769497,-0.3843884,0.34184113,0.2267567,0.04420317,-0.17516708,-0.7195315,0.046046115,-0.12885329,0.66368634,-0.08061926,-0.28814372,0.5003975,-0.15621586,-0.52417344,-0.16742522,0.18310969,0.03984468,0.089111164,-0.15353474,-0.815665,0.5585667,-0.08711683,-0.26957035,-0.27627957,-0.13124722,0.1338174,-0.11482523,0.04482317,0.18982968,-0.032042015,0.16426003,-0.26155895,-0.121261925,0.21861643,0.06584866,0.44583943,0.39021072,-0.17595376,-0.06429455,-0.40890774,-0.17526656,0.49322337,-0.018375698,-0.074553415,0.040343586,-0.016619597,0.4609173,0.18893531,0.13937071,-0.049025342,-0.30298224,-0.434459,-0.108340465,0.16649663,0.53085285
sâu sắc,-0.04405797,0.41704872,0.40638646,0.13857436,-0.45233437,0.38228238,-0.18527563,0.32871082,0.09631901,0.057376403,0.0019086513,-0.29645666,-0.00068660197,-0.23531741,0.06692712,-0.4077948,0.10897834,0.6632291,-0.31416768,-0.015193402,-0.030807888,-0.6576543,-0.060132377,-0.0778086,0.11489358,0.15501176,0.30363587,-0.40807533,-0.20873107,-0.005387727,-0.30343458,-0.46929005,0.081381336,-0.03903254,0.019121038,-0.075295046,0.7213824,0.06089253,-0.48365238,0.063988775,-0.2248565,0.21231739,-0.16166069,-0.042485185,0.1050814,0.13851415,0.009124826,-0.34025466,-0.6061079,-0.40495446,-0.12281091,0.09691357,-0.74475414,-0.16289912,-0.57720524,-0.16363594,0.23994844,0.035469063,0.24047244,-0.16824691,-0.38850218,0.016013274,0.16235322,0.59269744
khát vọng,-0.19300964,0.11565924,0.56565833,0.17049626,-0.15981333,0.38262236,0.03130697,-0.0042426107,0.038325932,0.14700718,0.0074410317,0.06901323,-0.039083,-0.6589569,-0.42692155,0.050176624,-0.08104068,0.72994125,0.07232715,-0.634374,0.35006553,0.023272796,0.058532164,-0.04714396,0.35856897,-0.31593442,-0.46519807,0.07887319,-0.5226422,0.15401676,0.12282789,0.03141328,-0.28674188,-0.28912175,0.1510929,-0.06655118,0.13926408,-0.06342638,-0.08326313,-0.01860939,-0.33349597,0.6095569,-0.19581315,-0.10030571,0.5729833,0.39036873,0.34907857,-0.29779375,0.13572279,-0.5186508,0.6854691,-0.07877084,-0.5057883,-0.1337166,-0.43446833,-0.35075888,0.047303792,-0.34049898,-0.18541536,-0.13516231,-0.21197107,0.2647448,0.06749975,-0.20111886
nhất,-0.22681472,0.10303545,-0.10046975,-0.034351118,-0.04936206,0.047119904,0.08286674,-0.0842249,-0.4130624,-0.18607359,0.10663793,-0.060031768,-0.10231711,-0.028727697,-0.50138414,0.04323936,-0.13807699,0.61894214,-0.32451952,0.03231758,0.20026956,-0.08869756,-0.43587506,-0.28927064,0.04561971,-0.3742284,-0.03600593,0.023507152,-0.48077726,0.19820063,0.27412263,-0.17425711,-0.11839599,-0.31016254,0.12136291,-0.45481881,0.09316428,-0.17730747,-0.21651635,-0.011824414,-0.022433791,-0.149641,0.086679004,-0.0019092826,0.021423822,0.33691025,-0.11357642,0.12542044,-0.19708082,-0.45288268,0.21185212,0.31679648,-0.124113634,0.026085332,-0.16330688,0.40164837,0.18293859,0.05227253,0.00319026,-0.19116984,-0.14264452,0.14622259,-0.23800309,0.30560997
tượng,-0.083721906,0.3189669,0.4425853,0.2444457,-0.6992689,0.3974782,-0.2503571,0.42653513,-0.17385587,-0.09690227,-0.17805314,-0.08376252,-0.03610323,-0.21562715,-0.06349648,-0.37613901,0.13339294,0.7328715,-0.3620268,0.032858416,-0.2564291,-0.33184615,-0.107855104,-0.09744156,0.1945946,0.18459281,0.19368716,-0.38585526,-0.29263407,-0.13806449,-0.29595062,-0.3112847,0.18036191,0.05337143,-0.093004845,0.05860053,0.81232023,-0.040924657,-0.46061042,0.30476207,-0.35319602,0.12146214,-0.18307704,0.23695974,0.17389815,-0.02173207,0.07207913,-0.4113621,-0.70707524,-0.35890657,-0.08187219,0.29929453,-0.72143763,-0.048408564,-0.5715368,-0.49387684,0.2797217,0.15189108,0.14207482,-0.059341308,-0.07960178,0.046092153,0.19045304,0.5668385
văn hóa,0.12671107,0.13738392,0.4756348,0.20884095,-0.00242096,0.3606636,-0.3407449,0.2071691,0.112200394,0.48803052,-0.17640139,-0.37979093,0.043247495,-0.17422174,0.13902469,-0.38689026,0.17153126,0.599926,-0.14624591,0.39719382,0.03563216,-0.7392437,-0.07728438,0.030872826,0.15547809,0.38795963,0.34493172,-0.25255623,0.184115,0.074239485,-0.25561813,-0.38498548,-0.04587026,0.20257914,0.054034192,0.0728965,0.51052654,-0.0025496786,-0.3529367,-0.023749962,-0.40699852,0.19439045,-0.34492072,-0.11884113,0.03052784,0.43453106,0.05779614,-0.20980144,-0.40011314,-0.46369419,-0.19033268,-0.17671008,-0.53969747,-0.3586384,-0.34607425,-0.24932393,0.0882481,-0.06360724,0.030190432,-0.20471096,-0.40000698,0.019173007,0.14913744,0.58622575
cáp,-0.13071012,0.010991997,0.41445836,0.41135138,-0.58200175,0.38004357,-0.4712931,0.9069928,-0.31178337,-0.087043464,-0.51222044,0.073779576,-0.1958814,-0.29085377,-0.069643036,-0.48796257,0.11921241,0.8693503,-0.09026369,0.28415117,-0.34233996,-0.15147614,-0.2197317,-0.2353026,0.34152433,0.36358827,0.03691491,-0.23702718,-0.008381856,0.013288531,-0.46482325,-0.07680554,0.09597859,0.24956262,0.07498007,0.18362066,0.6515496,0.0056837746,-0.14934692,0.36491683,-0.7506169,0.100362174,-0.08567536,0.3692062,0.24500683,-0.0024137085,0.36557764,-0.5870517,-0.73627204,-0.38377416,0.050495528,0.34359318,-0.44892472,-0.061926465,-0.76308334,-0.8590268,0.24523032,0.0635838,-0.27280375,0.14189409,0.029953126,0.13992682,0.2012145,0.6237934
công trình,-0.061132666,0.23684844,0.48151347,0.34243774,-0.020263473,0.62160254,-0.56886345,-0.069374464,-0.044753194,0.54469323,-0.07736684,-0.4800557,0.06904803,-0.22444707,-0.33077854,-0.3843175,0.21612273,0.7222779,-0.5218305,0.26817447,0.0059800646,-0.85235816,0.09662334,0.06933849,0.28706312,0.27909228,0.0898872,-0.048880268,0.048745237,0.24904816,-0.3536034,-0.40861183,-0.3762598,0.047609806,0.4206348,-0.02444521,0.19442171,-0.16300322,-0.4236498,0.23048453,-0.37975585,0.37144148,-0.48378882,-0.2694131,0.17266376,0.39582404,-0.053342517,-0.23112686,-0.152571,-0.6272969,0.12362695,-0.020928409,-0.16514094,-0.27158192,-0.117242396,0.020377027,0.06091884,0.07437205,-0.26325202,-0.21506497,-0.6322745,0.22393073,0.30457076,0.4913584
phút,0.25465804,-0.290839,0.5935211,0.09722502,0.18093254,0.04954232,0.066064306,0.6290458,-0.34619492,0.57146734,-0.9183751,-0.15954036,0.01899979,0.06549548,0.121827245,-0.1909752,-0.20392294,0.6916059,0.16466376,0.6523368,0.23779197,0.2023795,-0.9302025,0.17882189,0.31753117,0.566199,0.3288176,-0.062139854,0.101294674,-0.06001188,0.28814277,0.102296144,0.009769984,0.4156253,-0.16847289,-0.1075639,0.2426338,-0.29874015,-0.083163604,-0.44780996,-0.5162227,-0.44850367,-0.43579,0.3505364,0.15992758,0.7375238,0.37424234,-0.34817445,-0.0054097027,-0.7332125,0.3762395,-0.043279327,-0.38465843,-0.47026208,-0.65204066,-0.25064522,0.19504824,-0.47001415,-0.37876555,-0.14034548,0.21738952,0.27623934,-0.43874264,0.5071552
lào cai,0.032276157,-0.47051328,-0.19443545,-0.055490356,0.6496546,-0.04215652,-0.07172913,-0.041381877,-0.117688105,0.13010338,-0.34376743,-0.19201745,-0.1992715,-0.4421877,0.28787097,-0.42073372,-0.2221375,0.55872506,-0.34197953,0.07126293,0.36512998,-0.29674736,-0.17187896,-0.6347619,0.11158809,-0.53717124,-0.032510646,0.10638711,-0.11657887,0.16805631,0.19568454,0.022222355,0.02075946,-0.0664225,0.25966603,-0.24627307,0.22314018,0.03002016,-0.291473,-0.055814918,0.17118526,-0.28881213,0.03117573,0.15610366,0.011827407,0.10913489,-0.09648032,-0.1297028,-0.18821718,-0.5444207,-0.08859442,0.29761332,-0.13801478,-0.022579677,-0.6386391,0.23978592,0.18500564,-0.36611003,-0.07329685,-0.34240115,-0.14119469,0.03689449,0.26932776,0.4412078
nằm,-0.24726298,0.16440023,-0.37099212,-0.10572,0.34192225,0.091794595,0.004584155,0.020211741,-0.74184394,-0.14746894,-0.09804435,-0.47427407,-0.18984745,-0.18047358,-0.14384392,-0.33925024,-0.2601504,0.938619,-0.73326105,0.1222032,0.13381962,-0.6284046,-0.4223637,-0.6190605,0.03646413,-0.56930774,-0.07359564,-0.15879382,-0.3966711,0.22913644,0.44433123,-0.26849735,-0.121769145,-0.40193763,0.5647051,-0.783773,0.23948956,-0.39405498,-0.7096407,-0.081806004,-0.017856909,-0.14785515,-0.011890464,-0.0778621,-0.09996738,0.24207388,-0.0648349,0.037567325,-0.32073522,-0.90130633,0.18189152,0.7109768,-0.25701454,0.079909205,-0.45553523,0.69157815,0.4014154,-0.1747367,0.00791954,-0.2507413,-0.31190574,0.43724313,-0.22637549,0.608193
du lịch,0.24184343,-0.42612532,0.12908898,0.03203033,0.42358857,0.05937927,-0.17591517,-0.16815005,-0.06988143,0.59391063,-0.4398087,-0.2740892,0.024300734,-0.0972703,0.29331747,-0.22608453,0.09527452,0.43951756,-0.37289703,0.6732125,0.32650584,-0.27639627,-0.31990132,-0.1329013,0.18842268,0.080639705,0.35338736,0.05495247,0.06269086,0.13175893,0.04289853,-0.060924094,-0.11468745,0.43558624,-0.22405536,0.006225307,0.20667832,-0.022245709,-0.166494,-0.06677596,-0.19914752,-0.36513114,-0.15789895,0.1992409,-0.06087545,0.3959671,-0.27830502,0.021347633,-0.21963796,-0.40948018,-0.20843664,-0.10344685,-0.23901708,-0.38804865,-0.3623962,-0.10209224,-0.05377249,-0.21162836,0.07409901,-0.27404264,-0.20214613,-0.0024100053,0.19515811,0.6153661
mất,-0.31442413,-0.8656824,0.1990531,-0.13231458,-0.06274175,-0.09536288,0.0048146127,-0.24234584,-0.30778152,0.2536516,-0.27575004,-0.07951439,-0.074344054,-0.38722992,-0.14494583,-0.08765304,0.2382564,0.7287432,-0.6335848,0.3898106,0.5102933,0.1357695,-0.40061754,-0.36876708,-0.0028690551,-0.47186413,0.22199324,0.24743497,-0.64784473,0.44953558,-0.19263583,0.15963085,-0.6422412,0.23057051,-0.30475873,-0.061284326,-0.33107743,0.040836204,0.16308077,0.29006144,-0.11013369,-0.6361937,0.16862886,0.46504122,0.22253002,0.37999967,-0.21864806,-0.12569481,-0.24617957,-0.26561818,0.11496866,0.036674615,0.011948042,-0.20927945,-0.30081692,0.3459208,-0.3881585,-0.13747212,0.008744314,-0.0710804,-0.2497302,0.019136975,0.06657157,0.59299934
tây bắc,0.24433248,-0.11824307,0.4768465,0.036465675,0.18104185,-0.06820446,0.039395332,-0.28588668,-0.12954736,0.2304332,-0.41686833,0.21693344,-0.13569798,-0.5492731,-0.07234878,0.14468884,-0.37538123,0.5581126,-0.1350292,-0.35156423,0.35740772,0.12729314,-0.011025415,-0.24621363,0.4716274,-0.5350891,-0.37972865,0.4879389,-0.5969308,0.018154431,0.5195621,-0.0343048,-0.22334638,0.11713562,0.1190199,-0.24180378,0.4605743,0.030784462,-0.40301526,-0.3486804,0.022679098,0.061770435,-0.016229728,0.48517036,0.2454203,0.18477285,-0.23738196,-0.3712297,0.2141913,-0.76731783,0.3821163,0.26306465,-0.1312324,-0.35983512,-0.44919246,-0.2830626,-0.11979469,-0.5386843,-0.27222884,-0.071107425,0.17631502,0.40336904,0.101738535,-0.064505465
so,0.057555348,0.14206788,0.06820082,0.06447203,-0.42015,0.21116567,-0.017803216,0.056743264,0.14811942,-0.0409029,-0.02466365,-0.052954566,0.11077197,-0.2865738,0.041392528,-0.10020363,0.08283005,0.7781254,-0.40721777,-0.031206494,0.12285345,-0.11102297,-0.19077246,-0.110626794,0.18329416,-0.123171784,0.12933035,-0.52238816,-0.6333762,-0.111670755,-0.0087392405,-0.20671225,0.33108616,-0.0073362086,-0.40107623,0.0363381,0.7815354,-0.05025901,-0.33274925,0.1223455,0.10036924,-0.21118292,0.06328342,0.17891817,0.058319315,0.12537734,-0.21671537,-0.21924958,-0.58377236,-0.3193158,-0.066590525,-0.110343486,-0.91497254,-0.08635678,-0.9307509,-0.23238339,0.4364678,0.005419122,0.48978972,-0.21065563,0.04566081,-0.11968272,0.29334098,0.710592
tâm linh,0.06853362,0.26080045,0.37078682,0.18084972,-0.28676328,0.3666524,-0.33103997,0.18804608,0.074273124,0.22678007,-0.0050991355,-0.21522069,0.023469524,-0.1003963,0.0016547467,-0.29832932,0.09118387,0.5551883,-0.24537662,0.17277825,0.03762345,-0.6126563,-0.070847094,-0.09929154,0.22945169,0.1320442,0.27422816,-0.33237487,-0.076187186,0.0097111175,-0.3545018,-0.44052818,0.02247536,0.12316069,-0.07501025,0.012184353,0.70802766,0.13562518,-0.31414503,0.0826143,-0.32939383,0.09098127,-0.060601715,-0.0716241,0.05573242,0.15330712,-0.23799267,-0.21226181,-0.6057602,-0.29677603,-0.19628853,0.05112961,-0.60432214,-0.19523525,-0.5229457,-0.31397918,0.1967144,0.04253171,0.23902567,-0.16074583,-0.33130112,-0.10010907,0.2901106,0.66041
hiện đại,-0.10540512,-0.28894752,0.37109974,0.37328267,-0.2951429,0.3966946,-0.48688474,1.1472235,-0.30187833,-0.14619455,-0.7477013,0.1855594,-0.35822168,-0.56646055,0.014164196,-0.51789796,-0.0037654834,1.0858945,0.14535357,0.39191923,-0.270293,-0.1501228,-0.32032773,-0.30604202,0.37152696,0.3806437,-0.0003106693,-0.13283904,0.03711163,0.12980896,-0.27982372,-0.0027119713,0.21104372,0.31694198,0.24277674,0.20065391,0.5978972,0.018523186,-0.13277586,0.32484064,-0.7978899,0.07899132,-0.13811663,0.44478172,0.27704322,0.1464005,0.7622501,-0.6323277,-0.6647728,-0.5892096,0.019694487,0.25223824,-0.3818695,-0.12364858,-0.86298627,-0.9190149,0.3488127,-0.12788635,-0.54467744,0.0675278,0.11212713,0.21439779,0.14969207,0.70839393
trắng xóa,-0.43358755,-0.17293154,0.60501504,-0.045151208,-0.5624855,0.50561386,-0.15237765,-0.07877751,-0.473524,-0.04285981,0.06736247,0.052473992,-0.043172725,0.06522201,-0.95799404,-0.025330137,0.33008265,0.92741996,-0.63878775,0.32787648,0.11488938,-0.09817077,-0.4945207,-0.11486053,-0.18524475,-0.040684465,0.44765985,0.15134202,-0.768827,0.32401767,0.0069730296,-0.45814714,-0.41193792,-0.08206661,-0.23953708,-0.091477536,0.00040532093,-0.09133602,-0.34573582,0.5666392,-0.28087676,-0.44988823,-0.48172712,0.2365642,0.22594748,0.30550694,-0.035124075,0.12237441,-0.46621618,-0.646464,-0.030736772,0.23747839,-0.3111511,-0.170986,0.25685856,0.3090365,-0.036365166,0.293098,0.0024119557,-0.589075,-0.22811833,-0.053142074,-0.21131717,0.7631593
nóc,0.12386136,0.055344876,-0.34241852,0.08219295,-0.065086156,0.18676193,-0.021118136,-0.31128454,-0.007832224,-0.025183726,-0.016287478,-0.25027528,0.21791044,-0.55815107,0.28004003,-0.114581406,0.051375043,0.7586215,-0.8056388,0.027880598,0.17331111,-0.23565635,-0.0016066895,-0.15390436,0.25323048,-0.18435042,-0.13340935,-0.44091216,-0.61989313,-0.03078286,0.3108316,0.1057325,0.24241829,0.050588585,0.11800463,-0.046930224,0.41353726,-0.43725297,-0.59437627,0.0074280626,0.18118921,-0.014944837,-0.042107034,0.1561926,0.05829814,0.1518267,-0.23639466,-0.23856305,-0.22494721,-0.44555447,0.2688258,-0.18764254,-0.6352728,0.051230714,-0.6782043,0.062091466,0.31450373,-0.10451717,0.26990867,-0.13182117,-0.14899465,0.29381177,0.41558337,0.3473428
thể hiện,-0.3368708,0.22063076,0.5931208,0.14370598,-0.02675216,0.528684,-0.046877556,-0.03553962,0.0022790516,0.3136135,0.065599486,-0.2892418,-0.092742115,-0.83150166,-0.3550544,-0.09233386,-0.19111605,0.83415943,0.0048992387,-0.6827299,0.3909912,-0.25349495,0.12689982,-0.20947707,0.39516455,-0.3941963,-0.4523001,-0.023656974,-0.46950465,0.24055526,0.079256,0.03261539,-0.3595531,-0.4813205,0.25643632,-0.22234698,0.17431383,-0.11484609,-0.2394798,-0.021644913,-0.3686723,0.76713836,-0.24167515,-0.2699417,0.71492696,0.6224046,0.5046328,-0.4185237,0.15334754,-0.68764603,0.7791058,-0.07335668,-0.59827554,-0.1545799,-0.7365508,-0.20962578,0.10557918,-0.441312,-0.14632829,-0.08803169,-0.3278952,0.26147908,-0.07806399,-0.2130778
trong,-0.1349001,0.085133426,-0.36128032,-0.06196882,0.40342435,0.14416495,-0.07978212,0.026984174,-0.66250765,-0.033375718,-0.20451103,-0.5104981,-0.19758359,-0.19873686,0.07228834,-0.50373244,-0.20722134,0.8615725,-0.76166326,0.20812032,0.06763802,-0.6631923,-0.28191954,-0.6672454,0.029219834,-0.4919307,-0.058792684,-0.2225376,-0.22082795,0.13556206,0.24336097,-0.19787821,-0.07367267,-0.28460833,0.5976486,-0.6101433,0.31377724,-0.32779232,-0.6324804,-0.0032579657,-0.03218189,-0.1967914,0.05406541,-0.083461255,-0.09627933,0.13783324,-0.15372147,-0.05276291,-0.36728886,-0.7746801,0.094113044,0.72681487,-0.26304933,0.0805524,-0.538264,0.5428284,0.3601877,-0.20750828,-0.0020189162,-0.25105572,-0.33706903,0.3455295,-0.05952957,0.60122937
check-in,0.2307048,-0.5292759,0.08403714,-0.075683974,0.29285783,-0.14450504,-0.07317333,-0.6183414,0.10751918,0.26839224,-0.17425393,0.11544552,-0.050803296,-0.48409745,-0.13162419,0.2849081,-0.2293163,0.5529126,-0.38279954,0.11949229,0.6605828,0.05035596,-0.10692158,-0.29325533,0.3740074,-0.5802618,-0.15615378,0.30117676,-0.70427763,0.14251468,0.45817706,-0.067798525,-0.11362765,0.24003352,-0.42277858,-0.19916902,0.47110847,0.14917132,-0.22513583,-0.16184238,0.16214,-0.39443278,0.17177807,0.39546227,0.06734464,0.2993381,-0.6275504,0.023953078,-0.0780997,-0.53364384,-0.03665902,-0.063790716,-0.3104144,-0.3512422,-0.60881305,-0.08928632,-0.008616246,-0.29642552,0.2219282,-0.25274605,0.1621281,-0.09185166,0.31003237,0.47440383
thung lũng,-0.22860219,0.010913878,0.42094237,0.22169127,-0.53273594,0.3572183,-0.13924794,0.07184378,-0.14461333,-0.122568704,0.187612,0.15934193,0.042413346,-0.12802988,-0.7336858,0.036647804,0.036104925,0.6315292,-0.17424321,-0.26463506,0.3628828,-0.14692353,-0.48032987,-0.0986712,0.20582804,0.03393375,0.1627256,0.031453192,-0.70159644,0.44929194,-0.24818043,-0.23286417,-0.5281391,-0.082322955,0.080885805,-0.1379123,-0.031238025,0.17703232,0.0043790364,0.2570923,-0.427925,-0.06277045,0.1476489,0.15937294,0.4695966,0.41233867,-0.1962019,-0.18752383,-0.37409335,-0.21970329,0.56981283,0.09275307,0.07888635,-0.15577133,0.11502037,0.35508168,-0.05378368,0.19714443,-0.22045937,-0.18940699,-0.45610377,-0.018726308,0.034920268,0.37598452
phía,-0.083739445,-0.1131323,0.24475299,0.14538035,-0.441872,0.28777733,-0.041859653,0.225282,0.05211467,-0.34174594,0.1810199,0.37653342,0.033104025,-0.13550757,-0.65924203,0.10791987,-0.20609076,0.65772563,0.047116667,-0.29224157,0.6067136,0.031500865,-0.7073051,-0.1203106,0.25409207,0.08776826,0.15984619,-0.054733522,-0.8201834,0.5477874,-0.08867302,-0.14674199,-0.29347008,0.025243359,0.058274638,-0.08991329,0.0016328676,0.29894772,0.08901881,0.07384928,-0.21998048,-0.30409205,0.32198834,0.2507938,0.49143413,0.41524726,-0.18133695,-0.17654091,-0.33457348,-0.07955347,0.589987,-0.0037510307,0.10186171,-0.03580265,-0.0839348,0.44888338,0.12329839,0.06399958,-0.17228858,-0.2274098,-0.34613267,-0.08086444,0.13028853,0.54842937
trước đây,0.047651943,-0.044045404,0.15001722,0.10456066,0.17721017,0.08904016,0.08767538,0.07159424,-0.02437049,0.18188514,-0.15398291,-0.05147508,0.013397462,-0.2419336,-0.25591514,0.041665513,-0.28850457,0.53160787,-0.03223914,-0.03836509,0.34515306,-0.040845197,-0.3191741,0.0007571397,0.27401677,-0.052121483,-0.17110935,0.11914637,-0.22401991,0.22298369,0.23518972,-0.00015409195,-0.21177623,-0.06054269,0.31813043,-0.2251004,-0.09630518,-0.1948107,-0.16414186,-0.22333886,0.03960852,-0.031057205,-0.068234734,0.0026900521,0.18016055,0.4629875,0.15729892,-0.18946017,0.21768127,-0.48397186,0.5131055,-0.044115134,0.1315425,-0.11146692,-0.31401852,0.32184142,0.11538952,-0.26644084,-0.38868558,-0.058281314,-0.13659908,0.3552158,-0.09004357,0.121796586
ý chí,0.046036154,-0.15831023,-0.02375151,0.14354885,0.14951244,0.24485505,-0.15600853,-0.035278447,0.14374706,0.048153188,-0.07869631,0.0043900344,-0.046809573,-0.6373004,-0.016581958,-0.089877896,-0.07168435,0.5657883,-0.08478683,-0.19339937,0.29966867,-0.100648284,0.1405266,-0.18766698,0.29984903,-0.28483796,-0.3827539,-0.032864947,-0.2546937,0.1654243,0.0867863,0.08204374,0.010931109,-0.030147886,0.19091745,0.08280704,0.27947095,0.017980551,-0.11674274,0.074190035,-0.106419854,0.2696167,0.038568575,-0.048730306,0.26059642,0.10246274,0.035153348,-0.20237531,-0.05882638,-0.30045158,0.22413068,-0.11716246,-0.31719476,-0.035795055,-0.5440952,-0.32923156,0.13935865,-0.21527198,-0.03976261,-0.11764645,-0.14517179,0.089103095,0.43453035,0.12451576
mường hoa,-0.11193294,0.14141518,0.3245677,0.24928269,-0.58681196,0.41628444,-0.1788369,0.30557704,0.0025049688,-0.3414253,0.21498433,0.2306632,0.059215292,-0.09809003,-0.66256285,-0.03962538,-0.07181451,0.6191487,-0.06041513,-0.21808332,0.34080827,-0.2563405,-0.5551609,-0.08201996,0.1988165,0.21548095,0.22193317,-0.16393769,-0.6506518,0.4553894,-0.27034515,-0.33244038,-0.296123,-0.03876752,0.16500016,-0.105121724,0.16524409,0.21351191,-0.05045027,0.19696386,-0.4274834,-0.07503251,0.20878878,0.10492726,0.43331632,0.32684085,-0.17029722,-0.22439899,-0.52926517,-0.12931503,0.48200864,0.06605415,-0.020499486,-0.00023823895,-0.0029181011,0.32143223,0.14216542,0.21032949,-0.15013467,-0.18782075,-0.40745142,-0.062151745,0.12132806,0.52552974
giữa,-0.11775506,-0.2430298,0.013681041,0.014726884,0.6500726,0.10612328,0.015264322,-0.042233888,-0.19763151,0.17815134,-0.23346886,-0.27790058,-0.2517459,-0.6204945,0.020545486,-0.28472343,-0.32882679,0.67575103,-0.14612268,-0.22119884,0.35442472,-0.26566425,-0.002776554,-0.5357918,0.2125261,-0.5767733,-0.39253306,0.2123628,-0.16358799,0.23055567,0.42835262,0.1352059,-0.094375335,-0.2886689,0.512699,-0.32310545,0.08465697,-0.14617357,-0.36151645,-0.14198904,0.039541706,0.25597623,-0.15637681,-0.088301614,0.25427723,0.31810787,0.28895107,-0.22493856,0.17394231,-0.7126448,0.2889145,0.2477774,-0.21024114,-0.028697303,-0.64170986,0.09053079,0.12605955,-0.4535394,-0.28770658,-0.22096989,-0.1547043,0.30334702,0.033994954,-0.053325396
mà còn,0.24951304,-0.18783452,0.21738817,0.001325672,0.32369152,-0.06189166,0.13322875,-0.29012454,-0.08592619,0.18277591,-0.34252983,0.15429977,-0.14903139,-0.60658365,-0.016880203,0.09132061,-0.36176744,0.6731025,-0.16824754,-0.3029123,0.40278995,0.025860367,-0.029770883,-0.29387596,0.3722994,-0.6136277,-0.41964594,0.388024,-0.5726221,0.09830745,0.61803675,-0.031128267,-0.11280495,0.061981335,0.20404941,-0.26877838,0.44089723,-0.050121304,-0.44944957,-0.3969703,0.15673938,-0.00030244875,0.02395374,0.37342665,0.16249685,0.13269222,-0.19908306,-0.2696977,0.1987373,-0.8164124,0.32383752,0.24225187,-0.23242934,-0.23288415,-0.5341825,-0.13841891,-0.0026169003,-0.49796525,-0.16500448,-0.17519571,0.14229126,0.4197507,0.16971901,0.03606486
