node,0,1,2,3,4,5,6,7,8,9,10,11,12,13,14,15,16,17,18,19,20,21,22,23,24,25,26,27,28,29,30,31,32,33,34,35,36,37,38,39,40,41,42,43,44,45,46,47,48,49,50,51,52,53,54,55,56,57,58,59,60,61,62,63
và,0.08113227,0.07902933,0.08985429,-0.09734362,0.07027317,0.36676353,-0.010242072,-0.13926688,-0.29879937,-0.090313666,0.13985237,0.08305589,0.12201478,-0.14620233,-0.10619679,0.29810596,-0.18591046,0.14886098,0.13283844,0.26555365,0.31059602,0.048681486,-0.44249785,0.15264657,0.1747876,0.050891448,-0.11276578,0.016504249,0.11683222,0.13723503,0.30557427,0.029249653,-0.30593312,-0.12667474,-0.068437204,-0.43853942,0.35555723,-0.048890613,-0.22721827,0.054699995,-0.055981454,-0.018370762,-0.3144137,-0.29014012,0.09074561,0.29605013,-0.012852019,-0.038240768,-0.018491006,-0.23426452,0.121590614,0.033054978,-0.13642411,0.05521867,-0.2834435,0.1993936,0.25749326,-0.4027716,0.26454252,-0.15358235,0.15861768,0.034635317,-0.13333675,0.21351908
đại tây,0.060056634,-0.060296163,0.28747475,-0.42742777,-0.44285148,0.026800651,-0.06221558,-0.22746676,-0.27350444,-0.27482584,0.13507931,-0.19877963,-0.16031346,0.3267925,-0.27021307,-0.27236196,-0.018337328,0.43225273,-0.18519169,0.5208694,0.16095424,0.23973317,-0.5850757,-0.25713104,0.30181563,0.06685086,0.033160016,0.30789557,-0.20142284,-0.080334,0.3117514,-0.056398794,-0.16481839,-0.20293947,0.31523293,-0.5620503,0.3286458,-0.08721252,0.19622186,-0.011768644,0.014948966,-0.025205608,0.035327937,-0.13908228,0.36817858,0.5460568,-0.21467406,0.013174895,-0.21355917,-0.2696764,0.13481876,0.29296407,-0.03405679,-0.2959202,-0.4010223,0.0019730465,-0.031899128,-0.10700682,0.10453472,-0.38724425,0.41161466,-0.096385606,-0.2918535,-0.15281464
với,-0.121167354,-0.19339858,0.33511916,-0.01774478,0.04957485,0.35945848,0.21720149,-0.25491738,-0.017234484,-0.08610045,-0.30224362,-0.62431717,0.5507278,0.1730249,-0.057083316,-0.068279296,-0.4341863,0.72231454,-0.13170093,0.079986975,0.07533102,0.011896611,-0.08597203,-0.13146272,0.33956632,-0.20733243,-0.20059553,-0.20026784,-0.32394847,0.50845855,0.059298597,0.27857772,-0.10416835,0.050317544,-0.15361856,0.0032727132,0.56981003,0.06804354,-0.43050802,0.22835256,-0.15775867,0.25813088,-0.36605,0.023899715,0.12727642,-0.3633857,0.2838867,-0.34754074,0.2620052,-0.3701384,0.18922842,-0.07048612,-0.059963997,-0.20499451,-0.27112854,0.21861443,0.23058298,-0.1473298,-0.0689381,-0.31356972,-0.3372998,-0.0022575918,0.13446635,0.29974088
là,-0.19061624,-0.16608427,0.36446464,-0.2973428,-0.1148918,0.26873484,0.05261166,0.040309902,-0.43877557,-0.06368173,-0.03918434,-0.24332048,-0.09889509,-0.7134292,0.0023332143,-0.024072964,-0.3075386,0.5252701,0.24352343,0.050051276,0.20706761,-0.08164156,-0.21369383,0.05994638,0.13047531,-0.09809949,0.14404564,-0.07094772,-0.19871639,0.00021935621,-0.18879828,-0.03690784,-0.13743947,0.19488792,0.16572882,0.10393472,0.1767075,-0.24789871,-0.27277938,-0.27942866,0.15923257,-0.107272446,-0.13781032,0.11490695,0.30257288,0.09529606,0.05646278,-0.48520038,-0.3566687,-0.5414194,0.067911215,0.04835131,0.08725101,-0.4965532,-0.33735302,-0.21303958,0.0037936107,-0.10046058,0.34648576,-0.077012986,0.028294394,0.09696579,-0.3444613,-0.093769185
dương,-0.15204534,-0.08063957,0.08669016,-0.10807314,-0.19469316,0.038461354,0.0105356835,0.11012722,0.12178178,-0.10503338,0.037201323,-0.092822395,-0.06441362,0.010938326,-0.36184725,-0.45632207,-0.20607653,0.6044429,-0.25573376,0.62194306,0.17880175,-0.013960043,-0.4556056,-0.22819586,0.11787014,-0.09438527,0.21227029,0.22205943,-0.24884278,-0.17826739,0.08898877,-0.29541746,-0.049812235,-0.017811049,0.3910731,-0.17388505,0.45100215,-0.018413454,-0.080323264,0.021901844,0.14414331,0.016377484,-0.056165323,-0.1178755,0.24356455,0.37852016,-0.14252946,0.123653114,-0.23652987,-0.28477052,0.22010818,0.12387615,-0.33812785,-0.016229615,-0.46388978,-0.023143355,0.031843532,-0.2445993,0.16847278,-0.19307008,0.26317307,-0.21365614,0.03814349,-0.09784976
của,-0.51185185,-0.31347665,0.26893845,0.005104886,0.05374594,-0.4397224,0.10576229,-0.1951236,-0.3302028,0.12995899,-0.013727712,-0.1459202,-0.02450849,-0.14042895,-0.33150655,-0.6964195,-0.016413009,0.13534833,-0.039681416,0.20718676,0.015725525,0.19733596,-0.09201769,-0.09004914,0.19142888,0.034347594,0.2513595,-0.06763555,-0.029253565,-0.2566198,-0.26856357,0.08400683,0.38416043,-0.16136415,0.4306389,-0.08689151,0.19926734,-0.33750984,-0.5306713,-0.20652899,-0.06836713,0.06005852,0.3081753,-0.026257599,0.08980431,0.28810772,0.1494953,-0.45096576,-0.35930017,-0.20447981,0.4847838,0.21060757,-0.15140264,-0.56456554,-0.2778677,0.028191626,0.4619149,0.014105337,0.4208336,-0.2702481,-0.108069524,0.089990556,0.009812543,0.10788083
một,-0.21902356,-0.19684136,0.2681431,0.055544157,-0.45499602,0.5308657,-0.016090803,-0.33190176,-0.16432194,0.08686207,0.0045618345,-0.13226898,0.012993962,-0.29461324,0.14277287,-0.124900416,-0.16573729,0.735976,-0.40730205,0.250356,-0.11122064,0.08729578,-0.103875294,-0.37297863,0.2819284,-0.087626755,0.16346796,-0.2257687,0.20303659,-0.0060197767,0.22265267,0.014484415,0.5405864,-0.0015193481,0.050763585,0.015757747,0.6423184,-0.38499513,-0.09413648,0.24343921,-0.339761,-0.4450718,-0.26258722,-0.13515562,-0.03950456,0.26527414,0.037586942,-0.3489322,0.1001444,-0.24854195,-0.033365477,-0.01131219,-0.34854442,-0.60859126,-0.14824812,-0.58556736,0.43632486,-0.15238848,0.13315976,-0.40971062,0.08633053,-0.2516397,0.03945932,-0.0008074012
giữa,0.20767722,-0.14439067,-0.095656596,-0.048207086,-0.11369754,-0.0463908,-0.045896713,0.17258018,-0.47728792,-0.0072618676,0.06989517,-0.15712681,0.124215156,-0.5227469,-0.16314211,-0.0136475125,0.009729713,0.08865301,0.08531291,0.16798992,0.32029584,0.3156742,-0.2651727,0.20265052,0.37404206,0.16019186,0.12609097,-0.56394535,0.5093258,-0.25106674,-0.04052024,-0.36777824,0.36774963,-0.33220443,-0.079696536,-0.34270504,0.20188968,-0.22442497,-0.45804852,-0.05285814,-0.36316392,-0.24417716,0.13583422,0.12030725,0.24979727,-0.057576366,-0.14721806,-0.122271806,-0.29914042,-0.5021092,0.27747723,0.19507523,-0.42905787,-0.0841689,-0.33549324,-0.14594299,0.44152066,0.23784184,0.3945274,-0.44028315,-0.13661705,0.1542012,0.13827178,0.5484421
đại dương,0.04359792,-0.043246232,0.13595194,-0.053243276,-0.23074682,0.11209131,-0.042617816,0.120942295,-0.308679,-0.05142058,-0.023991726,-0.039214488,-0.0596226,-0.40522885,-0.011714198,0.0035925182,-0.29895663,0.7396377,0.15035063,0.2284789,0.16163257,0.16841325,-0.18415056,0.11839212,0.41721606,-0.23214062,0.16388461,-0.4861867,0.046297416,-0.19794376,-0.2510597,-0.37561312,0.2133893,0.14374167,0.013781883,0.009559283,0.34417513,-0.27540657,0.0334342,0.23656784,-0.09351746,-0.5606117,0.1116933,0.2191632,0.37602043,0.30079952,0.13924618,-0.15574513,-0.41971427,-0.42846316,0.38386747,0.13160546,-0.22159488,-0.48111293,-0.3148572,-0.32871237,0.19101942,0.15993261,0.2913747,-0.16473638,0.17615144,-0.1842811,-0.12384965,0.3280793
núi,0.31137452,-0.085286856,0.34073064,-0.083149806,-0.082215615,0.5036742,-0.40435335,-0.23236245,-0.18387173,0.20261797,0.008729641,-0.4083781,0.028726757,-0.19517334,0.12875955,-0.2000935,-0.2659748,0.53179,-0.32978758,0.015926331,0.23181018,-0.123277776,-0.3681277,0.039184824,0.2416828,0.11846209,0.08351589,-0.42190108,0.4761164,0.15434065,0.047465824,-0.21133214,0.24664249,-0.09679875,0.18263862,-0.047348924,0.74130523,-0.2611598,-0.10385566,-0.017100662,-0.4008224,-0.12204371,-0.03871806,0.18396664,0.0020445534,0.033595685,0.3422922,-0.093477696,-0.124275714,-0.4654981,0.10259603,-0.0032604234,-0.29466805,-0.48088506,-0.28609967,-0.7075487,-0.101203166,0.09360887,-0.041874312,-0.44631332,-0.1716621,0.046533965,0.18587722,0.10895872
bắc,0.36547595,-0.44845724,0.19083066,-0.34908482,-0.18454796,-0.25142854,-0.50815207,-0.15964587,0.058145292,-0.11972642,-0.21632877,-0.319624,-0.1478199,-0.1410304,-0.14966163,-0.40173584,0.40478784,0.17229237,-0.35598287,0.07086831,0.19107763,0.24772118,-0.83357656,-0.29160073,0.2330362,0.1123977,-0.19612858,0.15262564,0.007073248,0.34068236,0.080129735,-0.25668356,-0.07636174,-0.5108371,0.010296328,-0.24911368,0.48879,-0.24460737,0.045102816,0.07178822,-0.040608246,0.07422381,0.37598017,0.5210301,0.09465959,0.7923124,0.23614398,0.050294578,-0.5973399,-0.16755538,0.45136738,0.17459926,0.0057787327,-0.04100213,-0.29273185,0.14339852,0.14668195,0.004917893,0.20459257,-0.5509059,0.14422277,0.3365073,0.10019949,0.028853519
hai,0.003545792,0.178608,0.27071598,-0.21451233,0.16424382,-0.20661667,-0.109745726,-0.087188125,-0.3269714,0.15947556,0.019329937,-0.068581015,-0.0937399,-0.26014018,-0.36454126,-0.18900879,-0.45072913,0.44723776,0.31738412,0.2722459,0.5316778,0.14487219,-0.34471828,0.21275254,0.2779972,0.01929763,-0.04501703,-0.10545158,0.1294103,0.24816915,-0.39273793,-0.41167688,0.45594802,-0.023599435,0.035152394,0.028550055,0.43786728,-0.20169418,-0.48537892,0.24695277,-0.07673449,-0.39876306,0.004638016,-0.028848376,0.6189703,-0.13005486,0.059340052,-0.47950837,-0.6878959,-0.55744874,0.48225793,0.30148816,0.076644965,-0.49470222,-0.07198402,0.14717285,0.067456186,0.41319546,0.4481225,-0.17851798,-0.16083129,0.14483863,0.14836855,0.2608454
đến,-0.38056388,-0.21697989,0.29518294,0.34749916,0.25600082,0.017660657,0.53830564,-0.10660472,0.020022735,0.119973905,-0.049048476,-0.39056444,0.36409667,0.34561512,-0.16975997,-0.48189366,-0.68540585,0.61979073,-0.4737089,0.35866302,-0.043549024,-0.019778386,-0.34194666,-0.21342847,0.36977676,0.082803704,0.03486871,-0.25689355,-0.23506276,-0.046742562,0.12101035,0.2566704,-0.012096566,0.011731304,0.477254,-0.3121431,0.7077938,-0.12522556,-0.33408132,-0.21477245,0.11391048,0.44856134,0.00758746,-0.05908073,0.07088158,0.05189057,0.5360833,0.05259924,-0.0064354828,-0.17774631,0.629933,0.19739227,-0.1637463,-0.2576346,-0.85670644,0.27468246,0.17773192,-0.43434387,0.13718048,-0.1503852,0.17560554,-0.14659166,0.034151055,-0.11303068
từ,0.1452115,-0.847791,0.08879163,-0.38080567,-0.20834921,-0.25353152,-0.49932954,-0.16888268,-0.21132976,-0.03334607,-0.4431839,-0.3607646,-0.13749266,-0.4178032,-0.29965815,-0.5357845,0.57396513,0.03413979,-0.15580805,-0.09617415,0.05386697,0.04929732,-0.3600672,-0.5482186,-0.12918362,0.122908354,-0.100925796,0.021360314,-0.012888788,0.2793814,0.04391879,0.042200487,-0.15575807,-0.37557602,0.059874095,0.153349,0.39022607,-0.3121783,-0.31800395,-0.102939494,-0.1494782,0.35546568,0.38617116,0.22787884,-0.0356274,0.43523827,0.1169016,-0.24049653,-0.014668247,0.053033587,0.28477252,0.08042804,-0.38654387,0.045026742,-0.40983155,0.39782697,0.73009706,-0.10589384,0.2828721,-0.37719488,-0.15947622,0.08536331,0.22906731,0.29180336
ra,0.09541547,-0.29496637,0.17100646,-0.41195711,-0.24479783,0.28817853,-0.2969244,0.035561863,-0.40151495,0.34046432,0.08475574,0.18890552,-0.21174599,-0.6212022,-0.5235353,0.21849874,-0.06389746,0.69991416,0.19363971,0.625983,0.09656028,0.05541155,-0.6411347,0.107724436,0.42933938,0.14729759,0.14150375,-0.027972028,-0.3022162,-0.04928496,-0.27411285,-0.65235764,-0.47291806,0.11817647,-0.05640112,0.18443535,0.34556946,-0.25160664,0.27664807,0.519049,0.16293396,-0.4976755,-0.12032976,-0.16207817,0.7297757,0.41056693,0.11141119,-0.2822803,-0.62125874,-0.25810254,0.57852626,0.007091736,0.030077077,-0.47293133,-0.442169,0.24974903,0.37761372,0.16690253,0.3194099,0.12136655,0.35738438,-0.18108141,0.14975649,-0.033876847
có,-0.13185503,0.06453545,0.51340884,-0.017850617,0.2830753,0.5501289,0.037614804,-0.10552422,-0.18195798,-0.11746719,0.007487001,-0.3796973,0.194981,-0.1721732,0.17928217,-0.022365531,-0.6632047,0.8126815,-0.05255851,0.20621946,0.59002113,0.013988952,-0.38193023,0.08267775,0.23841166,0.057095863,0.23929702,-0.7159897,0.041913584,-0.1413902,0.041750815,0.0786068,-0.024619995,-0.0881079,0.38427332,-0.25238174,0.72158915,-0.08530431,0.20456603,-0.40068182,-0.1124244,0.13456774,0.06931334,-0.03382803,0.24415323,0.05760275,0.5271901,-0.13049604,-0.1334794,-0.57175064,0.08120477,-0.024626544,-0.36514002,-0.13488337,-0.7146945,-0.39637125,-0.27499023,-0.18802203,-0.21247558,-0.36296546,0.2290996,-0.13181403,-0.32268953,0.32399178
diện tích,0.4733905,-0.3901171,0.100963846,-0.10551344,0.08254435,0.16515072,-0.036147937,-0.19326167,-0.10350626,-0.05497602,-0.5490813,-0.48183373,0.6407053,-0.3381515,0.070121735,0.10722527,-0.13974835,0.39275953,0.1917178,0.016566817,0.33557022,-0.0018017652,-0.520364,-0.2216102,0.4570999,-0.14810146,-0.27249753,-0.55268866,0.24559274,0.8236475,-0.019941295,0.21658996,-0.09287113,-0.23576194,-0.33036315,-0.21744128,0.47505105,-0.07038332,-0.52185255,0.28375238,-0.21470398,0.06722309,-0.3778287,0.36263794,0.25357264,-0.41309285,0.041415364,-0.18650696,0.35435528,-0.5274201,0.12002574,0.39465433,-0.19190435,0.4535762,-0.30216473,0.5242972,0.6570225,0.0017393583,0.27027193,-0.3347189,-0.6465813,0.25352597,0.4455294,0.6249674
gần,0.55942136,-0.93202275,-0.08282706,-0.21409793,-0.024086805,0.035121262,-0.5059757,-0.14546558,-0.021906782,0.28690627,-0.797373,-0.5120909,0.18503119,-0.5854613,-0.041937433,-0.4280665,0.3649155,0.08893806,0.0280915,0.10764278,0.3712128,-0.28783783,-0.6124854,-0.41522434,0.039875973,-0.113934875,-0.17792149,-0.45479625,0.5088777,0.8737782,0.02931945,0.11333697,-0.18158835,-0.7743151,-0.1712302,-0.2215865,0.49523672,-0.29178777,-0.09276139,0.23290493,-0.303422,0.06542292,-0.13571551,0.3408967,0.19456805,0.07825824,0.25053588,-0.16125432,-0.011177127,-0.40803704,0.38031656,0.40547502,-0.3001303,0.4106996,-0.1513438,0.6208544,0.80264103,0.119332306,0.122678384,-0.3306575,-0.5296318,0.3190917,0.53749335,0.45511445
vai trò,-0.26175347,-0.1413509,-0.0671479,-0.12166487,-0.34128705,0.14768265,0.22929287,0.11134378,-0.28313223,0.12802416,-0.19744824,-0.08551757,-0.228839,0.44650126,-0.4870946,-0.47974104,-0.039748047,0.6443142,-0.049947433,0.32673532,-0.026434425,0.07433386,-0.3375769,-0.4990948,0.02117153,-0.43696988,0.17703453,0.29151222,-0.025959883,0.07215247,0.61440873,-0.05280021,0.27659234,-0.41351315,0.009051916,-0.4529879,0.3415937,-0.143748,-0.16385604,0.50132585,-0.683758,-0.15912089,-0.28733706,-0.44041532,0.107647896,0.60790974,0.008812007,-0.17881045,0.21558487,-0.29350227,0.42636195,0.45704433,-0.4013648,-0.31940028,0.03167212,0.18501468,0.25351343,-0.26661044,0.06482624,-0.6046536,0.13247424,-0.44886076,-0.2568722,0.22467954
các,-0.06174648,-0.20192277,0.23782445,-0.15053312,-0.10169202,-0.25090888,-0.2885593,0.124037854,-0.2912615,0.14108615,-0.45007947,0.01433033,-0.13834234,-0.7089781,-0.28981742,-0.37063143,0.23831542,-0.21108624,-0.48956126,0.29306522,0.29448372,-0.38399178,-0.45061734,-0.41277558,-0.11297622,0.33437103,0.25867146,-0.084018044,0.37342364,-0.098279,0.3465552,-0.1818511,0.19703938,-0.18444966,-0.06824392,-0.08457632,0.2523878,-0.08477266,-0.76867175,-0.15541595,-0.3345511,-0.03401233,-0.062383242,-0.3295356,0.14099264,0.23276179,-0.38162214,-0.17904446,-0.21921192,-0.26836854,0.16308993,0.14091901,-0.6415646,0.024996037,-0.24377792,0.07825585,0.8682328,-0.06950128,0.56191623,-0.44948462,-0.08574157,0.081209816,0.032229062,0.08136608
trên,0.14733075,0.1778052,0.27786702,0.005595139,0.0662701,-0.29973876,0.21234892,-0.015130148,-0.26557577,-0.04701935,-0.34593278,-0.017965391,0.21015202,-0.12792048,-0.14706807,-0.15406759,-0.55458444,0.4689509,0.2834065,0.29930374,0.6346122,0.016489727,-0.22843838,0.0038278424,0.22000152,-0.29795554,-0.18153971,-0.43483728,0.19673958,0.31099087,-0.20264237,-0.14908895,0.53164166,0.16586491,-0.07361731,-0.11660864,0.32914016,-0.14188604,-0.57847494,0.23404539,-0.10205416,-0.5525641,-0.21464138,0.10938442,0.43922353,-0.28277403,-0.26079664,-0.15246226,-0.09796831,-0.6060187,0.35290852,0.6745607,-0.28796068,0.08163193,-0.04274797,0.27267462,0.44394293,0.01571301,0.552219,-0.10631877,-0.1689402,-0.19164088,0.036105312,0.45620432
như,-0.06820333,0.14611405,0.4257799,0.006637977,-0.050730746,0.28712958,0.016526295,-0.13990645,0.06526533,0.13856183,-0.114414476,-0.10613073,-0.012620186,-0.20968805,-0.06331568,-0.44391757,0.14818934,0.19574462,-0.51258755,0.22679016,0.124299794,-0.34890682,-0.51921105,-0.3431479,0.18727547,0.043548625,0.47476068,0.14508623,0.3816044,0.026612114,0.43973142,-0.15271372,0.551381,-0.32640004,0.25165808,-0.47613305,0.46865597,-0.22419262,-0.38628253,0.21268219,-0.48279035,-0.23189397,-0.315455,-0.24554956,0.13930176,0.5459367,-0.050308846,-0.31167993,-0.08289154,-0.37972417,-0.08778334,0.30735785,-0.36276525,-0.18689613,0.022886446,-0.31626853,0.21760307,-0.23073606,0.057925764,-0.69655234,-0.19742975,-0.046022393,0.015307834,-0.098163456
trong,-0.7079971,-0.54848707,-0.018218275,0.049349226,-0.13413656,0.28584954,0.107051976,-0.067179315,-0.027930606,0.19929208,-0.25603086,-0.068442754,0.12317801,0.04493168,-0.047593433,-0.33872446,-0.18476093,0.9148915,-0.11568414,0.2656906,-0.18212502,0.4703122,-0.19407508,-0.5120323,0.049430568,-0.2933689,0.117411636,0.19070385,-0.34515744,0.14187318,0.3026284,0.17490849,0.13656817,-0.09066383,0.24610709,0.09630584,0.5656519,-0.49446154,0.0015109628,0.34444216,-0.34295264,-0.068642616,-0.09624963,-0.41702116,-0.18890712,0.4004318,0.30918217,-0.56244975,0.32169133,0.10976324,0.38216162,-0.042239252,-0.45123804,-0.3470015,-0.5327705,0.077400975,0.6204798,-0.59558487,0.25932726,-0.48993516,0.102176204,-0.5045069,0.17335641,0.37496442
nhiều,0.0501327,-0.25651684,0.34308293,0.08501753,0.039714012,0.36551973,0.05616847,-0.1781667,-0.34790424,0.050983243,-0.31427556,-0.629145,0.41916028,0.3358379,-0.013313659,-0.43860278,-0.58992684,0.6433283,-0.420846,0.24783996,0.02314725,-0.15501896,-0.4629266,-0.25284687,0.45813286,0.053721286,-0.15963633,-0.41812116,0.18629815,0.20354408,0.23924913,0.2897947,-0.05497786,-0.25974104,0.103306875,-0.3497014,0.58154666,0.045750003,-0.20418818,-0.16663562,-0.14783455,0.17647536,-0.34018484,-0.09303258,0.3130108,-0.4039999,0.31278595,-0.0037742527,0.284072,-0.30450302,0.0017917154,-0.09347067,-0.14972435,-0.211636,-0.55974615,-0.12915291,0.06829739,0.010169041,-0.23241432,-0.46191278,-0.30265194,-0.24530514,-0.079601355,-0.22172914
nam,0.36664528,-0.26147172,0.30023015,-0.37738246,-0.03588112,-0.018081546,-0.7236112,-0.061043132,-0.015926475,-0.23395611,-0.13241485,-0.45582855,-0.15926425,-0.19099332,-0.14964189,-0.2840831,0.18282741,0.4014112,-0.45769018,-0.15528333,0.21425731,0.18571584,-0.66965896,-0.07385957,0.20876434,0.10164145,-0.1152306,0.098105334,-0.038496815,0.26173648,0.10176437,-0.4250718,-0.14151205,-0.15915,0.011237086,-0.116545506,0.80194026,-0.18905532,-0.15656759,0.11716976,-0.3005839,0.21313193,0.42687854,0.6352467,-0.05784566,0.5964648,0.33862165,-0.0808651,-0.48108205,-0.25667968,0.37784,-0.077065594,-0.17861077,-0.29470524,-0.4885373,-0.3303879,-0.18639974,-0.059041776,0.08162636,-0.7471438,-0.018313367,0.36805394,0.2425628,0.34160534
kết nối,-0.24529251,-0.024390344,0.42486757,-0.13181011,-0.4414646,-0.07110624,-0.24239321,0.15127987,-0.3599898,-0.11929472,-0.15560554,-0.14664498,0.04828995,-0.71778977,-0.15741798,-0.4507611,0.020722616,0.07321195,-0.5582041,0.30180418,0.18323317,-0.33650756,-0.24914053,-0.33846223,0.08157992,0.20325176,0.32044458,-0.26480728,0.37573656,-0.26156315,0.17976174,0.121634655,0.255444,0.074767664,0.05402339,-0.083873466,0.2465136,-0.27745834,-0.7635508,-0.27154833,-0.27159455,-0.30830133,0.013387256,-0.10852057,0.046555523,0.20641966,-0.43688506,-0.23068364,-0.16419359,-0.3298369,0.07806719,0.21336395,-0.6823126,-0.18885453,-0.50356966,-0.43030432,0.8362484,-0.20835808,0.72638476,-0.41411453,0.030940086,0.12543587,-0.028341174,0.10933159
đặc biệt,-0.39482236,-0.25028116,0.39448327,-0.45659044,-0.29265442,-0.037651546,0.29628035,-0.22616212,-0.45401075,-0.015424826,0.19901867,-0.091018334,0.02040472,-0.3298767,-0.20459442,-0.54516387,0.08200384,0.26797193,0.2977674,0.3354505,0.20437776,0.23082353,-0.48908523,-0.2728802,0.2471891,-0.10421509,0.14087175,0.09798816,-0.211376,-0.23580466,-0.1735744,0.41378504,-0.14517227,-0.19799565,0.61774695,-0.34709457,0.023304109,-0.4537572,-0.025790691,-0.5879332,0.34969893,0.023712106,0.038112264,0.20421438,0.15753575,0.42151862,-0.07443307,-0.13702026,0.061223086,-0.3519274,0.18503156,0.5805247,0.14793767,0.053085607,-0.66280234,0.08022038,0.36062813,-0.450314,0.5966644,-0.03932373,0.2053099,-0.16362104,-0.26228356,-0.16233277
lịch sử,-0.4653979,-0.38985458,0.07445282,-0.1959192,0.09160468,0.06742995,0.13595867,0.028151847,-0.21326001,0.11992789,-0.38619667,-0.28769502,-0.07967061,0.2618864,-0.36157605,-0.5123128,-0.19396272,0.5943466,0.25104052,0.042155825,0.05833423,0.25860968,-0.17204295,-0.21715456,-0.16654228,-0.4347188,0.04253567,0.28541595,-0.30076748,0.24105552,0.26951936,0.17003624,0.040585864,-0.27408552,0.042688504,-0.101634055,0.29754764,-0.21373944,-0.19717687,0.265096,-0.5861807,0.09505903,-0.0108440155,-0.39353678,-0.10560972,0.41810817,0.18906057,-0.53147817,0.21747273,-0.22657016,0.40061635,0.19442399,-0.38097778,-0.32859764,-0.16572095,0.38591927,0.2468806,-0.38507873,0.08260966,-0.58062357,-0.050299216,-0.23353742,-0.15541556,0.6281604
thương mại,-0.05402496,-0.047485664,-0.028128693,-0.19920374,-0.07811878,-0.057633456,-0.13033608,0.23353353,-0.3059575,0.19684151,0.08039783,0.10934627,-0.36100382,-0.32455933,-0.61681396,0.01908488,-0.05976631,0.062257096,-0.28759736,0.776746,0.26766694,-0.08700064,-0.37009993,-0.17590089,0.071810335,0.22887209,0.14397399,0.1451754,-0.033353478,-0.08684736,0.38733906,-0.23594867,-0.0853173,-0.29899505,-0.19976757,-0.30082318,0.42124918,0.18845831,-0.34207124,0.437049,-0.097757965,-0.121593736,-0.3082357,-0.6691867,0.6105188,0.22155938,-0.09683172,-0.09714343,-0.60453105,-0.42551017,0.578372,0.00028315844,-0.12365633,-0.24488746,-0.16130662,0.4510277,0.37792358,-0.057961345,0.23668496,-0.23371331,0.4142419,0.06316626,-0.069393545,-0.1715834
nhất,0.047802214,-0.4142902,0.33813176,-0.29232898,-0.23017228,0.5025629,0.028291358,-0.512182,-0.05639434,-0.2731203,-0.23863706,-0.24907123,0.23911366,-0.25314727,-0.45185772,0.2113466,0.13451615,0.6920641,-0.005122685,0.43153885,-0.074400045,0.019142814,-0.16609192,-0.5170378,0.17154086,0.10936306,-0.12148456,0.0151372645,-0.3816327,0.18752383,0.17835432,0.052148815,-0.67495054,-0.19031739,-0.261532,0.19613308,0.539997,0.122916095,-0.37824017,0.33575723,0.23489206,0.52150834,-0.4354438,-0.20823869,0.40634838,-0.013880485,0.12818627,-0.501124,0.21712498,-0.21442479,-0.05960362,-0.30910832,-0.4270243,0.14595117,-0.39601922,0.73379886,0.82618666,-0.30365297,-0.021272825,-0.14551418,-0.04051926,-0.25228882,0.0030189473,0.16720402
vùng,0.1463942,-0.5949373,0.4374027,-0.7824805,-0.43500367,-0.26922414,-0.31799915,-0.64363253,-0.22748145,-0.025257884,-0.09452227,-0.337135,-0.13048261,-0.095832564,-0.5861537,-0.7408311,0.52828956,0.21640606,0.17665361,0.35303164,0.093400486,0.19750957,-0.56612366,-0.5508324,0.009653052,0.13525108,-0.21710603,0.35241964,-0.3527217,0.1815851,-0.104473345,0.12069798,-0.46909925,-0.5618628,0.4685863,-0.1344398,0.31350386,-0.43595496,0.08515743,-0.12803185,0.3598437,0.32571554,0.27662218,0.32645813,0.4120931,0.61666536,0.056215573,-0.20232227,-0.16215199,-0.2173036,0.31927544,0.5133461,0.09432995,-0.051361762,-0.44063005,0.56575066,0.6576296,-0.13418762,0.3218972,-0.18593088,0.15442812,-0.096697755,0.04584189,-0.13847312
lửa,0.3107244,-0.11362842,0.46828043,-0.08063394,-0.2940374,0.7188065,-0.17506146,-0.31547472,-0.107695825,0.34913555,-0.0312823,-0.310634,0.22771293,-0.07562759,0.11462201,-0.3951918,-0.10399036,0.5756991,-0.29939058,0.37410894,0.20588185,-0.4381153,-0.4926411,-0.25571173,0.34200212,-0.13011464,0.11957391,-0.23690064,0.47525948,0.35778692,0.14937405,0.069824494,0.14463426,-0.38461187,0.15966418,-0.32468525,0.5385736,-0.19427069,0.2499875,0.2211294,-0.24810117,-0.3728473,-0.5219657,-0.07817289,0.21328752,0.005171497,0.22539459,-0.21307386,0.037753142,-0.34959525,-0.18789302,0.16936044,-0.11452576,-0.3430483,0.038749468,-0.43022937,0.12759238,0.016718622,-0.29969424,-0.33460572,-0.3510794,-0.23126374,0.12793331,-0.3096349
nằm,0.2819207,-0.24806963,-0.12710914,0.013939784,0.14821094,0.25137696,-0.09066534,0.28378475,-0.19618122,0.013157966,-0.31723478,-0.20442416,0.47054368,-0.6015449,0.073336646,0.08956543,0.06500725,0.15564878,0.22314484,0.1723241,0.4210998,0.2062303,-0.7527495,0.14742778,0.43403822,0.03212289,0.14813979,-0.5769322,0.47090417,0.2240332,0.07601912,-0.011956583,0.0029977944,-0.46382993,-0.23732577,-0.44771594,0.00427248,-0.057126693,-0.24838923,-0.14737937,-0.43420607,-0.16553836,-0.15289778,0.019121462,0.30000192,0.05847165,-0.12572517,-0.06675103,-0.01737425,-0.5459555,0.03636258,0.14017001,-0.24123001,0.64501166,-0.5595163,0.2877883,0.3749946,-0.053664047,0.15627314,-0.4828472,-0.45494795,0.3799146,0.12653632,0.6366184
tàu,-0.021881504,-0.38228065,0.5852238,-0.2381137,-0.14519621,0.5624072,0.20570263,-0.40067673,-0.24143194,-0.26439196,-0.012124619,-0.14827527,0.4700697,-0.47032624,-0.33492112,0.51553714,-0.21118645,0.6330334,-0.16103458,0.0072236187,-0.09199808,0.13030906,-0.3647547,0.15816954,0.26751482,0.1759159,-0.07457296,-0.4167869,-0.3281276,0.16719428,0.23553959,0.38575077,-0.37634155,0.24952476,-0.44896808,0.020817664,0.3059002,0.16744247,-0.24385707,-0.115990184,-0.059950307,0.24571726,-0.06394291,-0.06592356,0.081903614,0.5369321,-0.0013630348,-0.30197182,0.039687652,-0.27892697,-0.029604057,-0.12963106,0.036927972,0.08189366,-0.55142117,0.6589979,0.37223324,-0.4094911,0.18191239,-0.027225615,0.029330017,0.2738127,-0.2681943,0.45602995
hành tinh,0.27353147,-0.13575383,0.075778015,-0.0056697456,0.14892131,0.05373179,0.15955639,0.024071846,-0.16337878,0.090497985,-0.37031037,-0.079038374,0.44446427,-0.3184741,-0.17862059,0.16634119,-0.12601878,0.263902,0.3703634,0.15070085,0.45307165,0.044637855,-0.49422035,-0.031772256,0.3630163,-0.16243194,-0.11013925,-0.55253464,0.3725349,0.38885722,0.06967208,-0.07289198,0.2081287,-0.14588122,-0.19042374,-0.39202863,0.15167181,-0.23279797,-0.5318437,0.2693825,-0.36561802,-0.29096866,-0.4673002,0.04664359,0.29063553,-0.060433835,-0.33292225,-0.068208665,0.22678131,-0.5503759,0.22085297,0.7641431,-0.39414027,0.5825861,-0.19729361,0.36203685,0.6324465,-0.15228347,0.46582872,-0.24657372,-0.45192295,-0.009045631,0.29468924,0.66530216
thế giới,-0.016940672,-0.4950644,0.21483387,-0.49158853,-0.3119213,0.34987512,-0.35233134,-0.22499612,-0.073988065,0.17541376,0.042958762,0.03868922,-0.29910725,-0.44175038,-0.5044939,-0.019022023,0.131754,0.57497406,0.11541636,0.64867777,-0.109810054,-0.059685454,-0.52374834,-0.35508153,-0.06911853,-0.080516174,0.09228125,0.35096687,-0.39372578,0.15065284,-0.037577383,-0.22071378,-0.7651032,-0.2738659,0.10059743,0.14404075,0.3383033,-0.27679533,0.2863544,0.44796106,0.2865884,0.014415399,-0.17979513,-0.18366535,0.48176134,0.6793511,0.19240344,-0.31061527,-0.13657808,-0.06798612,0.34288204,-0.031213587,-0.15040976,-0.08193527,-0.31937626,0.6144754,0.4227446,-0.2724498,0.0058539715,0.011928018,0.27030724,-0.2891306,0.17568168,-0.13679546
theo,0.015764527,-0.4446469,0.0623692,-0.1045581,-0.01802067,-0.1408754,-0.4075836,0.12906109,-0.03771728,-0.22206631,-0.35907644,-0.53429145,-0.0545941,-0.55524254,0.019248357,-0.42058462,-0.04478198,0.46560502,-0.09448263,0.13383783,0.07646647,0.35669443,-0.69121224,0.06198085,0.33355907,0.00011902077,0.052145157,-0.25904304,-0.31615764,0.02192179,-0.35962793,-0.40611124,-0.021983061,-0.04507761,0.14588065,-0.025485195,0.18162705,-0.3458132,0.0061077666,-0.11972722,0.10850119,-0.19784585,0.5166464,0.573838,0.37856424,0.69736636,0.2979315,-0.12022081,-0.888903,-0.3856226,0.34962174,-0.12190483,-0.0125001855,-0.33870694,-0.59415567,-0.09994856,0.01173861,0.28980768,0.16894218,-0.47281057,0.090920344,0.43468574,-0.07072565,0.120783634
cũng,-0.10397856,-0.17724425,0.056123585,0.033239067,-0.24296527,0.1684433,-0.18574211,0.3858669,-0.14522484,-0.40729713,-0.14596152,-0.2743854,0.0109188445,-0.62332076,0.27054337,-0.213944,-0.34395158,0.58276826,0.09061133,0.51193434,0.30250692,0.3056189,-0.67249495,-0.0019758851,0.30832386,-0.23296735,0.16179028,-0.3129664,0.07460863,-0.08869308,-0.086261556,0.097702906,-0.08748294,-0.17753519,0.064077936,-0.19648007,-0.047015764,-0.0001310884,0.042884827,-0.39280304,0.12500322,-0.4033277,0.075407326,0.023656953,0.45225266,0.57010406,-0.107737236,-0.11272094,-0.5940632,-0.6304942,-0.0862094,-0.20571595,-0.13005038,0.15118837,-0.6456646,0.033350017,-0.037263304,-0.07449107,-0.039636515,-0.40667167,0.18298544,0.34088373,-0.45505592,0.10252754
khu vực,-0.120449,-0.33608806,-0.09367651,0.01650807,0.32221034,0.57686305,0.11395876,0.4540711,-0.60925466,-0.006854849,-0.42140552,-0.61161315,0.44031557,-0.41439825,0.17696123,-0.053718127,-0.51022816,0.7234235,0.39470634,0.21220523,0.37508214,0.20564613,-0.893061,0.51849276,0.70451546,-0.0967051,0.029196553,-0.6328533,-0.018312283,0.052316833,-0.012829039,0.028965686,-0.36712593,-0.040736914,-0.028059965,-0.31243974,-0.106238365,-0.084015064,-0.09303716,-0.50938785,-0.09672478,-0.25729942,-0.36730024,0.031069325,0.5092746,-0.08411738,-0.011088611,-0.15749529,-0.26351407,-0.7549653,0.01858235,-0.14808074,0.043374937,0.09741721,-1.022651,-0.10873237,-0.117497936,0.073632896,0.07087576,-0.46174455,-0.25641927,0.2719541,-0.3736918,0.23125066
được,0.08848885,-0.02464874,0.24428019,-0.08295132,0.11931877,-0.18494715,-0.10884191,-0.14682417,0.302171,-0.38122955,0.0014243245,-0.42903137,0.20465183,0.38964605,-0.25046057,-0.30592215,0.034766775,0.44820195,-0.61667913,0.17032327,0.03936825,0.2062494,-0.7082175,-0.15200497,0.36677656,-0.050879456,-0.17812097,0.39121902,-0.4581437,0.35948363,0.19762129,-0.101642564,-0.2391713,-0.07743392,0.17744634,-0.35430652,0.75722396,0.031396408,-0.2134706,0.19598314,-0.056331545,0.47362557,0.21466379,0.42648962,-0.08967586,0.58667994,0.31976277,0.11957858,-0.25863358,-0.08190822,0.42234072,0.121382214,-0.06738908,0.07601094,-0.51907116,0.0853823,-0.18843488,-0.46743903,0.14631419,-0.59244925,0.079134405,0.27785736,0.20444737,0.13083886
khí hậu,-0.39905345,-0.041152596,0.41845042,0.11120819,0.25731564,-0.12469869,0.45231873,-0.08834525,-0.22983575,0.1193817,0.27382988,-0.07900036,0.16618016,-0.044158436,-0.13737658,-0.472244,-0.34775916,0.17148846,-0.12151196,0.34323037,0.18979695,0.1363156,-0.55824095,-0.004481885,0.23307294,0.16052829,0.19085173,-0.32504633,0.05454589,-0.3128448,-0.010994191,0.33792147,0.14180271,-0.23148702,0.5930852,-0.7005082,0.264656,-0.23925987,-0.1672165,-0.5023299,0.1793985,0.09128863,0.19348674,-0.124408014,0.11417091,0.568714,0.2557022,-0.035815116,-0.29596052,-0.2737856,0.42427894,0.36923918,-0.016685545,0.03425699,-0.763025,0.26051193,0.1392806,-0.52265006,0.2263093,-0.10360627,0.26538146,0.06332335,-0.24857216,-0.0045601893
còn,-0.49958217,-0.13929228,0.13074794,0.043411832,-0.052834667,-0.16213605,0.38790318,0.10065711,0.10846996,-0.094109096,0.067768246,-0.06172664,0.10739838,0.38098547,-0.28707612,-0.6033757,-0.0544075,0.7559339,-0.24874222,0.38119534,-0.09505133,0.37781966,-0.58862865,-0.33551368,0.51152205,-0.31497788,0.2094856,0.3118571,-0.32572594,-0.11178079,0.3233411,0.10907204,0.016044308,-0.2496428,0.36226925,-0.6145928,0.3825265,-0.20801091,0.01775725,0.07991842,-0.0973459,-0.034827627,0.031024411,0.04140325,-0.0135812275,0.9499132,0.3272867,0.002578777,-0.12827253,-0.06699352,0.5111689,0.24821487,-0.07226659,0.06618478,-0.6013482,0.24681689,0.039605573,-0.68945813,0.24257326,-0.35858184,0.18582489,-0.30267683,-0.11294376,0.109619424
châu âu,0.3147384,-0.24625246,0.05288187,0.02894,0.17614783,0.31753328,0.24533615,-0.15719703,-0.11475036,0.049160223,-0.29833034,0.046348397,0.2869824,-0.45879516,-0.112902634,0.27624986,0.49386567,-0.06650443,-0.15934546,0.08775058,0.18688077,-0.025003279,-0.7421296,-0.26245108,0.32635018,0.33555767,0.3815822,-0.15088882,0.51827043,0.20113662,0.59764624,-0.29332006,0.36328766,-0.38538596,-0.17123468,-0.6109513,0.14815715,-0.16372883,-0.5144741,0.25470892,-0.51535064,-0.17941885,-0.5083863,-0.39659518,0.27734053,0.51241213,-0.267874,-0.4170088,0.027174436,-0.31436145,-0.10143508,0.4427118,-0.47403938,0.4353691,-0.09295313,0.6018193,0.7680682,-0.28311577,0.26542562,-0.64451146,-0.3113209,0.19463027,0.2339024,0.2114445
không chỉ,-0.111155994,-0.1549454,0.24165109,0.21007839,0.046584588,0.4100996,0.22114556,-0.14718565,-0.19621445,0.14054753,-0.06485844,-0.348711,-0.08200755,-0.07006386,0.03892392,-0.03178959,-0.7009083,0.6987425,-0.085199334,0.22331065,0.07978721,-0.05869099,-0.28124413,-0.1843172,0.10059085,0.08203051,0.10048126,-0.664301,-0.09539845,-0.14675213,0.16949831,0.15132245,-0.10883483,0.17726547,0.41788474,-0.19878292,0.4402123,-0.3266667,0.25787547,-0.27570134,0.04086999,-0.011900675,0.02464284,-0.07715688,0.28565198,0.30441105,0.4312458,0.16280912,0.06493196,-0.34892055,0.4561213,0.20864497,-0.18669428,-0.19746998,-0.74480504,-0.005955713,0.012156112,-0.27769715,0.0554453,-0.015656143,0.45354715,-0.19078016,-0.2232281,-0.16950187
bermuda,-0.105328955,-0.17188215,-0.1595893,-0.0045740907,0.23544337,0.12028479,-0.02626958,0.533325,-0.4932725,-0.15900762,-0.31054205,-0.25904465,0.29765636,-0.57809657,0.08408186,-0.0348546,-0.21277738,0.2542297,0.35273817,0.25469813,0.5845224,0.43566984,-0.8864704,0.359,0.42326152,-0.026335333,0.09881799,-0.51037425,0.18277633,0.016642202,0.08067496,0.1302433,-0.072124116,-0.27893764,-0.20129898,-0.4879609,-0.21690947,-0.079662904,-0.31412408,-0.46186456,-0.20063128,-0.30010918,-0.10111555,-0.080943525,0.4128352,0.2554959,-0.23319718,-0.08804669,-0.413207,-0.7564048,0.08682502,0.03668046,-0.11311794,0.4424462,-0.77827555,0.29659748,0.22400701,-0.041929074,0.29996014,-0.4167896,-0.060789313,0.5249876,-0.29750594,0.55815154
tuyến,-0.20543006,-0.056056388,0.36471495,-0.32730097,-0.31859687,0.1730436,0.049015604,-0.086405575,-0.081193216,-0.34465745,-0.1129228,-0.28783005,-0.16495858,-0.42000893,-0.5632005,-0.07500557,0.041549627,0.31122312,-0.35256368,0.52331424,0.21145774,-0.337274,0.022082727,-0.27067733,-0.0059430227,0.15810908,0.3188638,0.14563878,-0.36444315,-0.13758603,0.16388844,-0.28659895,-0.15662134,-0.10202261,-0.14623837,0.009734885,0.42666838,0.3595204,-0.64364266,0.13713966,0.044787604,0.30946437,-0.32508853,-0.17755842,0.459544,0.0026456881,-0.105521984,-0.44437295,-0.5693944,-0.58552504,0.1540996,-0.2366013,-0.36730912,-0.2651101,-0.065546945,0.08330038,0.4204575,-0.03471771,0.3945953,-0.34072796,0.24324465,0.14690685,-0.17969787,-0.16208337
km,0.5221448,-0.8252688,-0.022298144,-0.3142937,0.06061858,0.0049007037,-0.7173609,-0.19862501,0.039781254,0.23370533,-0.61825913,-0.4419807,-0.1885943,-0.41086513,-0.12905198,-0.66121155,0.5516112,0.077887125,-0.0588993,-0.014456392,0.46374267,-0.058997117,-0.7868847,-0.30310327,-0.15709998,-0.017245525,-0.1967597,-0.16094553,0.38115796,0.7969266,0.09891938,-0.05666118,-0.09584322,-0.81136,-0.03537433,-0.15396549,0.59210956,-0.46552554,0.058203947,0.17440525,-0.23538527,0.08766974,0.14312068,0.32589638,0.11862969,0.54608214,0.43343207,-0.11223734,-0.40634376,-0.25834042,0.47322038,0.24464616,-0.24147227,0.16989961,-0.15940885,0.47734976,0.4995763,0.027127216,0.1161098,-0.45143625,-0.26484048,0.29307285,0.44238555,0.29059246
nổi tiếng,0.32889366,-0.043141015,0.2622647,0.0007335066,-0.43018177,0.34158733,-0.2100761,0.06754254,-0.18157099,0.16842243,-0.058265716,-0.45104736,0.042394996,0.11963759,-0.27432382,-0.53892213,-0.4260058,0.63129586,-0.7503336,0.58504295,-0.16980253,-0.3465798,-0.6568684,-0.17272861,0.5727938,-0.042646978,0.08521389,-0.091889784,0.30041212,-0.093780935,0.22178318,-0.36874634,0.038566876,-0.13463621,0.15484796,-0.438108,0.45252717,0.1504557,-0.041107006,0.104277,-0.27404165,-0.16963327,-0.2061284,-0.030112324,0.41999117,0.0732399,-0.033098422,0.22571439,-0.13792223,-0.34381816,0.026744789,-0.031383812,-0.17957942,-0.36903647,-0.44521856,-0.3836859,-0.09125363,0.18144937,-0.21512516,-0.52520037,-0.30348888,-0.17681946,0.14566615,-0.5661682
khám phá tân,0.044131465,-0.30871513,0.38078207,-0.46149465,-0.45109794,0.34485346,-0.1906041,-0.22844435,-0.17476937,0.15194307,0.09461957,-0.027479637,-0.18922009,-0.16726822,-0.57267255,-0.20786442,-0.0007639576,0.6279999,-0.12948786,0.6879878,-0.04493056,-0.1652757,-0.59242177,-0.19224903,0.2520185,0.03719401,0.15433946,0.21745518,-0.38668233,-0.18988357,-0.08757241,-0.4283364,-0.47147042,0.020612597,0.34445783,-0.051552873,0.33383712,-0.221975,0.43449223,0.25604537,0.23910712,-0.14796178,-0.11272437,-0.061440684,0.5879988,0.6560161,-0.1187785,-0.05727674,-0.25722548,-0.04114406,0.3434948,0.25803518,-0.06879792,-0.1543331,-0.49002975,0.28944805,0.31542763,-0.07259531,0.1652952,0.013032431,0.36175254,-0.36862987,0.17603132,-0.480915
dòng,-0.32352588,-0.3223806,0.16243611,0.20143346,-0.04376963,0.1281522,0.12091363,-0.32805014,0.26588368,0.18646309,-0.10179433,0.05677461,0.48049864,-0.07534518,-0.02358759,0.016931701,-0.28382283,0.8503541,-0.41251922,0.46998864,-0.13041997,0.44997853,-0.19744894,-0.36245725,0.41335472,-0.0045055444,-0.086005755,-0.08690861,-0.33526132,0.27582586,0.013909807,-0.04148346,0.16191643,0.15726882,0.034817457,0.30323115,0.847441,-0.32129726,-0.10732652,0.53880256,-0.032702636,-0.042398315,-0.102626845,-0.1218302,-0.0033249578,0.063100666,0.37875086,-0.28820857,0.15953268,0.26202857,0.48992896,-0.025600033,-0.31586245,-0.12473534,-0.5431784,0.32513168,0.7299411,-0.3529858,0.34639385,-0.16417792,0.012253644,-0.2990063,0.5786472,0.29211932
dãy,0.31232643,-0.08114298,0.27654788,-0.3534645,-0.008977066,0.31710097,-0.3380434,-0.052395597,-0.21865976,-0.03965899,0.118809454,-0.41134283,-0.10940067,-0.44231793,-0.10236633,-0.1725072,-0.054055423,0.387099,-0.1089778,-0.15215947,0.521231,-0.04647511,-0.42094266,0.21070203,0.097554125,0.19892439,0.15879062,-0.45377338,0.25865373,-0.08926528,0.0040725525,-0.42063934,0.058783974,-0.107801035,0.31327066,-0.022672448,0.6862649,-0.20961092,-0.13452707,-0.4305409,-0.3427778,0.18118548,0.4064541,0.46435216,-0.10631844,0.33419314,0.35263,0.07575363,-0.27236742,-0.48255208,0.2611917,0.13171521,-0.47992814,-0.13930252,-0.6166213,-0.677951,-0.18694101,-0.08263888,0.22609909,-0.41528457,0.109494336,0.08365402,0.07039385,0.47061676
vùng biển,-0.18182647,-0.28884587,0.70699656,-0.33084548,-0.24949129,0.7110753,-0.047060642,-0.04854147,-0.37206435,0.088528015,-0.040257633,-0.35091075,0.14772563,-0.9480325,-0.07372708,0.33796507,-0.7642148,0.73018706,0.40906808,0.0117168445,0.09740453,-0.29964995,-0.43968055,0.15198256,0.11947533,-0.2909485,-0.10713975,-0.2382921,-0.341086,0.49493805,0.021546464,0.42374107,-0.619675,0.3877487,-0.17720456,0.11828163,0.2134722,-0.24477613,-0.24556372,-0.045406528,0.004314908,-0.21905139,-0.4899105,-0.10517806,0.28986198,0.38075307,-0.089953326,-0.5243566,0.03373655,-0.76065546,0.15240066,0.24081182,0.18347885,-0.4029745,-0.34711105,0.018862749,-0.16190287,-0.5670219,0.4347978,0.0041329702,-0.074358694,0.338686,-0.22383863,0.008044859
du lịch,-0.18685894,-0.41517663,0.75093013,-0.19860642,-0.25405273,0.64280593,0.27259597,-0.28011703,-0.26368967,-0.17216958,0.057167985,-0.07215531,0.5523104,-0.80916333,-0.3868702,0.47901255,-0.41080976,0.73344266,0.054416917,0.14159322,0.0519608,-0.025329681,-0.5634051,0.2568978,0.23585163,-0.03563719,-0.01511535,-0.5126819,-0.31947458,0.29334828,0.14423199,0.62567145,-0.4319231,0.3458289,-0.42434302,-0.107341245,0.09715039,0.007444223,-0.24439396,-0.21885116,0.033183057,-0.06801336,-0.2650238,-0.1009914,0.11025602,0.7148479,-0.20949641,-0.2638969,0.025859917,-0.47080758,0.06327639,0.19536762,0.08506574,0.33886814,-0.6007282,0.76770264,0.38850316,-0.7566113,0.5035993,0.19100551,-0.071055144,0.33788237,-0.20552917,0.4104839
106,0.40061325,-0.617823,0.13453905,-0.08255063,-0.045376033,0.14257765,-0.088483594,-0.1842898,0.018304037,0.16960561,-0.59790605,-0.5514009,0.6984367,-0.062772565,-0.10892522,0.034248695,-0.15903036,0.4797796,-0.028618911,0.13736941,0.11613057,-0.13809687,-0.4312125,-0.45274773,0.4600942,-0.17355429,-0.46839255,-0.48665237,0.037534915,1.0943294,0.09363019,0.41763568,-0.29491115,-0.25881454,-0.2937424,-0.26696205,0.6887441,-0.11453575,-0.3776497,0.5209328,-0.36499366,0.24117048,-0.4166476,0.24038316,0.10823926,-0.31187868,0.17774282,-0.04296696,0.534262,-0.3917453,0.33071324,0.5503459,-0.22153693,0.3433068,-0.3614708,0.59460783,0.7214134,-0.21721995,0.14784732,-0.30492133,-0.6127887,0.18946728,0.5460068,0.6273796
qua lại,0.016698567,-0.44559103,0.7531263,-0.46237513,-0.31168547,0.7691002,0.1683056,-0.29974696,-0.47397077,-0.34466484,0.12194292,-0.17072868,0.21505943,-0.835448,-0.4022731,0.674032,-0.24242823,0.72432345,0.09381213,0.042452965,0.0828505,0.0030288624,-0.57594085,0.42545733,0.2933065,0.106696226,0.056108836,-0.36759284,-0.35819495,0.13572954,0.2042884,0.29868367,-0.4945346,0.45712635,-0.37081233,-0.13420767,0.06193782,-0.017287245,-0.13444331,-0.16019207,-0.001501725,-0.12144359,-0.28122595,-0.09408762,0.289401,0.9682967,-0.30517504,-0.47555962,-0.37380412,-0.53612494,0.03872444,0.14867564,0.1397762,-0.08536448,-0.5237174,0.55136436,0.12717259,-0.5706055,0.50163966,0.028838478,0.13345467,0.51101995,-0.36449897,0.26352987
trái đất,0.17374188,-0.04665903,0.44053805,-0.30629686,0.07848069,-0.32873365,0.11995605,-0.43242514,-0.27130106,-0.0900835,-0.37919578,-0.44692534,0.34470692,0.12873222,-0.24487928,-0.34460947,-0.53839326,0.52038145,0.33397496,0.11460413,0.49219954,0.21676886,-0.1975968,-7.816004e-05,0.24929558,-0.31268564,-0.42985728,-0.29276958,-0.056309436,0.7391234,-0.37133658,0.11021158,0.44767356,0.072905794,-0.23718593,0.03948678,0.62567824,-0.1488211,-0.6886472,0.47077268,-0.054866858,-0.27608573,-0.1414274,0.4832516,0.4414568,-0.5040821,0.041840494,-0.38484386,-0.11654162,-0.6201226,0.5568066,0.59061074,0.13919735,-0.21772005,0.091094546,0.52927405,0.4486913,0.2689062,0.57517713,-0.10926752,-0.36714184,0.04502134,0.22704421,0.53500926
hàng hải,0.06469025,-0.16057844,0.26133388,-0.27714399,-0.3753414,0.19521591,-0.297559,0.16798481,-0.29099935,0.2780815,0.049286813,0.30464926,-0.18114276,-0.57227063,-0.5969803,0.3585857,-0.40779966,0.47755653,-0.19922982,0.7692162,0.10243261,-0.21793155,-0.505914,-0.036379144,0.25185126,0.039080363,0.11960838,0.05676972,-0.18020058,-0.026674299,0.11092126,-0.34123573,-0.456175,0.181947,-0.39866498,-0.016856126,0.49004126,0.04988027,-0.012287242,0.60941267,0.018016046,-0.42026985,-0.19880158,-0.5019829,0.6117199,0.4493692,-0.20729776,-0.09074002,-0.47318265,-0.16164795,0.5607023,0.013273921,-0.12016598,-0.3854046,-0.30118108,0.43559995,0.36822033,-0.08616404,0.37261882,0.099933505,0.3905134,-0.10130714,0.04707501,-0.012611997
khoảng,0.3138646,-0.4549766,0.34341386,-0.20804237,0.07178791,0.04596316,0.089363046,-0.34059662,-0.06938203,0.030242419,-0.5520987,-0.63557047,0.7256812,-0.09543716,-0.11729742,-0.03942997,-0.296951,0.48295677,0.110393174,0.07617097,0.17475654,-0.11331398,-0.33331478,-0.30531877,0.4413175,-0.17567217,-0.4116746,-0.45927772,-0.1135525,0.9650055,-0.15034764,0.39979172,-0.20899698,-0.12318482,-0.2889547,-0.06915264,0.6347768,-0.035118207,-0.58534354,0.41405383,-0.06291101,0.2765086,-0.3562228,0.33407718,0.3092128,-0.5653127,0.112540685,-0.28288203,0.32149214,-0.45785514,0.31596875,0.45839256,-0.03733845,0.16518946,-0.31773728,0.7626459,0.65010077,-0.02481068,0.2527558,-0.16159552,-0.7067111,0.23740588,0.4634257,0.4940026
mở,0.04936428,-0.44103196,0.37098032,-0.32149103,-0.19899666,0.41105518,-0.16119184,-0.12072217,-0.1472236,0.399647,0.08527725,0.083052605,-0.2937594,-0.55053777,-0.7051706,0.13065624,-0.28779992,0.5872062,-0.012870888,0.7349445,-0.03226057,-0.35606042,-0.5992757,-0.050731532,0.015329537,0.077948526,0.16278961,0.058930997,-0.35475683,-0.003434392,-0.007987431,-0.34733182,-0.6944103,0.18545005,0.09589346,0.09170773,0.44620696,-0.13326867,0.23231931,0.4803993,0.29000378,-0.17175335,-0.27224284,-0.33874664,0.6296161,0.70044,0.0449133,-0.14983755,-0.45248145,-0.21487492,0.55344284,0.13973993,-0.030445922,-0.24469748,-0.40267026,0.68746936,0.3395068,-0.22710623,0.15021472,0.23140152,0.35105324,-0.12041808,0.20244512,-0.31896046
dần,0.1486014,-0.29009932,0.14752752,-0.054792568,-0.21016023,-0.0012034279,-0.3188186,0.21548635,-0.31965843,0.35211846,-0.32134727,-0.08081724,-0.0247477,-0.6453815,-0.4208853,-0.069517255,-0.51228327,0.9905731,0.1952362,0.44244567,0.13847391,-0.016141457,-0.56786627,0.16211195,0.6220537,-0.045588266,0.10580342,-0.5743161,-0.078601554,0.032407057,-0.593374,-0.84124005,0.034731343,0.3443048,-0.10376282,0.36813802,0.45253024,-0.3749866,0.093473956,0.40221384,-0.009498846,-0.6897321,0.22894505,0.15181154,0.6819028,0.3187595,0.2825122,-0.21187407,-0.7291213,-0.32679453,0.81614673,0.263066,-0.20287664,-0.8416021,-0.45157617,-0.044895846,0.3631409,0.5461631,0.36340716,0.023407422,0.1566211,-0.08401179,0.21098965,0.30111927
biểu tượng,-0.24728885,-0.26229942,0.5962711,-0.35895804,-0.39341828,-0.032611344,-0.1769949,-0.14806679,-0.43378454,-0.2193659,-0.070540205,-0.24566993,-0.056895494,-0.8094612,0.053909827,-0.478418,-0.1404885,0.28247795,-0.35012132,0.07889635,0.13478081,-0.029123183,-0.1837302,-0.26661515,0.037439596,0.093979254,0.25111336,-0.19628578,0.22323719,-0.2013119,-0.17505302,0.082389496,0.5210119,0.18494846,0.4367886,0.19528565,0.3458745,-0.5972841,-0.5538574,-0.38476393,-0.05133545,-0.435558,0.23570342,0.01899403,0.026350435,0.30121017,-0.26978704,-0.71532017,-0.35450962,-0.29274473,0.040701736,0.24394244,-0.41014796,-0.70863754,-0.43993413,-0.57727873,0.59798855,-0.18702519,0.5732153,-0.39083502,0.063849606,0.101422735,-0.10752559,-0.02522169
chiếm,0.45083982,-0.67179906,-0.07083609,-0.11874288,-0.10399117,0.059111893,-0.116554044,-0.070649326,-0.08927724,0.06607768,-0.64032173,-0.51657933,0.5674036,-0.4236074,-0.048854135,0.033871267,0.11289702,0.40360248,0.27191955,0.06626173,0.22347164,0.024656948,-0.4749952,-0.38745072,0.46019244,-0.14866269,-0.28583658,-0.63831896,0.14303762,0.8231908,-0.12774724,0.16081715,-0.20992093,-0.33941665,-0.22682273,-0.17944098,0.40548918,-0.27575716,-0.32227498,0.35626292,-0.26023552,0.11835528,-0.2926205,0.427629,0.2511095,-0.2916954,0.064700335,-0.08487639,0.3586274,-0.4544868,0.28832677,0.59080046,-0.33131638,0.48521006,-0.4418969,0.5564462,0.92372936,0.065071136,0.32194543,-0.29192004,-0.5663803,0.2376016,0.54723084,0.7137647
cây,-0.091032326,0.043012463,0.36461207,-0.0907265,-0.7160419,0.30986103,-0.15653066,0.016960666,-0.23188569,0.012227836,-0.103045195,-0.23653431,-0.007004759,-0.38535646,-0.098517016,-0.31059146,0.012822021,0.42304432,-0.638779,0.3053439,0.012744775,-0.26408163,-0.11518724,-0.5304667,0.05242251,0.002093338,0.27748945,-0.14637542,0.32725078,0.00064150424,0.544705,0.06595896,0.39287257,-0.16442636,-0.127473,-0.18620017,0.54704523,-0.14132282,-0.58630764,0.2785366,-0.58723396,-0.3774536,-0.33290592,-0.22648811,0.06179099,0.24794081,-0.2971938,-0.25810534,-0.0140729435,-0.4872907,-0.091579415,0.19411194,-0.6824039,-0.44023907,-0.0504401,-0.53428066,0.6339518,-0.29260156,0.28756797,-0.5956488,0.049318448,-0.13637857,-0.03798029,0.062407553
thế kỷ,-0.4609856,-0.62340575,0.07287931,-0.10832707,0.25476125,-0.42425355,-0.19782645,-0.028637087,-0.10674733,0.20690326,-0.55290586,-0.13722762,-0.06709336,-0.5715562,-0.14240439,-0.8661987,0.26118058,-0.10147401,-0.2925184,0.03838128,0.22490178,0.123989806,-0.44064263,-0.43951198,-0.26721102,0.060331043,0.2011715,0.14351161,0.14337595,0.11816168,0.098330475,0.07175701,0.5610355,-0.3803778,0.2872145,0.035804003,0.35689557,-0.5110053,-0.7638895,-0.118682496,-0.3030065,0.09119963,0.24319918,-0.2714522,-0.09998985,0.42025453,-0.009241897,-0.60198337,-0.21221231,-0.07707974,0.38930622,0.21788754,-0.55172426,-0.019255793,-0.28119317,0.40959302,0.86584467,-0.21354103,0.55944014,-0.6580755,-0.34743404,0.14816456,0.29989353,0.33374053
khiến,0.08251366,-0.4326852,0.1005156,-0.077788934,-0.24496806,0.06459284,-0.28912196,0.08247098,-0.1256097,0.20217355,-0.28719777,-0.00037579422,-0.09977242,-0.58771986,-0.31067243,-0.065764956,-0.3051838,0.9309279,-0.03242015,0.42996562,-0.04906372,0.0058768117,-0.50247484,0.029172316,0.5281649,-0.022363028,0.20478052,-0.32130328,-0.19202001,-0.06305859,-0.4754991,-0.8268001,-0.0144501515,0.32919443,-0.008274509,0.3700859,0.47203478,-0.33872223,0.23895629,0.5031127,0.094937496,-0.59753716,0.23033972,0.22114728,0.59417856,0.4874357,0.22431931,-0.20606495,-0.7332958,-0.17114525,0.7072926,0.14944257,-0.15616883,-0.6595734,-0.46995246,0.0034576196,0.36528262,0.4242664,0.35499695,-0.08474306,0.24959587,-0.07629831,0.272636,0.078575164
16.000,0.50698394,-0.8389787,-0.014351265,-0.34925383,-0.0837317,0.14350276,-0.7122009,-0.2430779,0.046159703,0.36681882,-0.56479716,-0.34025434,-0.24499717,-0.6602752,-0.22189924,-0.56311095,0.5362415,0.021245161,-0.021185603,0.2681779,0.4420461,-0.2588853,-0.734075,-0.26553154,-0.27619642,-0.031117966,-0.15717441,-0.09312805,0.36203748,0.7669325,0.032704476,-0.09049293,-0.24238424,-0.9219152,-0.09425992,-0.10268298,0.5002556,-0.4193777,0.12074366,0.26768044,-0.06457079,0.007508572,-0.11526975,0.10794718,0.22253816,0.47465834,0.39590508,-0.16950323,-0.53394794,-0.3463418,0.3646616,0.12803729,-0.1875397,0.19894823,0.067662425,0.6258728,0.6043257,0.049406487,0.09595077,-0.3101881,-0.25744805,0.25958174,0.45353428,0.0466639
20,0.6015222,-0.57466,-0.099187516,-0.10895416,-0.049039755,0.017355382,-0.095815964,0.05933915,-0.13679942,0.13733114,-0.65359753,-0.44685912,0.63931876,-0.388907,-0.15330225,0.11939387,0.07559199,0.28080803,0.30606502,0.073405154,0.31850654,-0.06177691,-0.6334855,-0.3281907,0.56291,-0.14028017,-0.24342641,-0.73341197,0.35304955,0.7042465,0.058934707,-0.006137203,-0.12613443,-0.4284179,-0.28307506,-0.4976535,0.31078652,-0.24290484,-0.42095724,0.4166782,-0.48776317,-0.0041997386,-0.36745998,0.34202868,0.2657361,-0.17590839,-0.07613032,0.049089365,0.44129497,-0.5928256,0.2983597,0.80739176,-0.48356247,0.6295578,-0.38712335,0.5818869,0.8817962,0.027332824,0.29017574,-0.41463208,-0.59953284,0.22803351,0.53639984,0.82402253
mất tích,-0.18756919,-0.29705283,0.08094971,0.4580911,0.27268016,0.20009306,0.34525248,-0.0017828953,-0.13150086,0.07523759,-0.31940272,-0.6004181,0.049688023,-0.0061954977,-0.14988303,-0.18563934,-0.78977615,0.8122896,-0.20025255,0.26578188,0.21249598,-0.06454544,-0.19974369,-0.14662509,0.15916628,0.11545286,0.086607076,-0.9621923,-0.15994701,-0.17924102,0.22776419,0.14834866,-0.18050368,0.046043035,0.22687127,-0.101692796,0.7408784,-0.1238322,-0.18105045,-0.33249912,-0.057436682,0.43651685,0.1941944,-0.09044084,0.2859844,0.13222693,0.78546315,0.21155576,-0.10070447,-0.51780826,0.7622525,-0.03599491,-0.44046962,-0.1869064,-0.8761219,0.25287133,0.098260544,-0.20684153,-0.04099677,-0.11256109,0.43454674,-0.10993001,-0.27216226,0.23903206
cạnh,-0.40216354,-0.36853608,-0.24046347,-0.17932975,0.356099,0.4647446,0.2916241,0.44491848,-0.7567693,0.24036688,-0.13150425,-0.022443077,0.3458566,-0.54176986,-0.16308288,0.15193592,0.07784788,0.37650132,0.5806659,0.11583636,0.38818657,0.4770404,-0.8480164,0.40949953,0.5302373,0.06611196,0.16286862,-0.25215477,-0.06686059,-0.1673106,0.14040709,-0.019428574,-0.28070572,-0.052570287,-0.020206667,-0.3976359,-0.20341793,-0.31005555,-0.24173187,-0.25429976,-0.22284184,-0.3106397,-0.51005507,-0.2507338,0.2984591,0.09204087,-0.19478045,-0.28391212,-0.0041868263,-0.49354938,0.15786818,0.14551747,-0.049547564,0.32680064,-0.91832215,0.097332686,0.43906614,-0.25429755,0.55190295,-0.3269439,-0.076871626,0.031305484,-0.1740634,0.43398687
anh,-0.41994122,-0.12244925,0.2437365,-0.47920972,0.31232032,0.23387246,0.31211734,0.10381661,-0.55974114,0.29598483,0.09250657,-0.020809557,0.12116318,-0.4354458,-0.09739721,-0.30154684,0.15351948,0.13993506,0.418065,0.22214107,0.43973872,0.04163692,-0.7118931,-0.026119212,0.2939829,0.061992604,0.22864196,0.28263372,-0.14608963,-0.02674322,0.015205089,0.13439311,-0.3893122,-0.0077818683,0.59136343,-0.40128478,0.07741712,-0.4652306,-0.22753595,-0.4159859,0.21152025,-0.07898705,-0.5391485,-0.0700963,0.21791832,-0.04886107,-0.10517507,-0.36416557,0.07482466,-0.38330203,0.17852317,0.50567967,0.19912657,0.22063275,-0.80021304,0.01051461,0.24463171,-0.5808278,0.74128383,-0.17458944,-0.047361314,-0.1488917,0.0064257407,-0.23437536
ngày,-0.19910431,-0.51523274,0.7862812,-0.41930908,-0.3091598,0.7343981,0.10309142,-0.18380925,-0.42339587,-0.15414,-0.0022770024,-0.31825307,0.2507714,-1.0959009,-0.32365242,0.44102854,-0.5429567,0.82341397,0.33698636,-0.04565841,0.09064543,-0.09949439,-0.4861982,0.46369135,0.15072949,-0.1595025,0.04092607,-0.49674731,-0.3697187,0.31734306,-0.0019672536,0.39714593,-0.51427853,0.5034559,-0.26657104,0.046786573,0.012539831,-0.25417954,-0.14373194,-0.2495673,-0.018696006,-0.2410595,-0.153371,0.064320445,0.23967749,0.90875834,-0.21840037,-0.5637022,-0.26969463,-0.7219141,0.11244198,0.22944787,0.19813198,-0.17637914,-0.5642041,0.38523024,0.019656781,-0.5283164,0.58861816,0.08268862,-0.0030745664,0.5057162,-0.29901335,0.37730116
bậc,0.01924499,-0.41344067,0.4082643,-0.015908154,-0.24772666,0.47586083,0.043578077,-0.28940377,-0.06152093,-0.3238924,-0.30791906,-0.55834407,0.22744687,-0.60799855,-0.2560927,0.23022096,-0.24044082,0.5646324,-0.20601588,0.40900898,0.03928101,-0.4212761,0.026827293,-0.5202823,0.11940517,0.13626738,-0.027462646,-0.4088065,-0.31125143,0.33636746,0.19157489,0.31515047,-0.731629,-0.08711896,-0.39873812,0.19645996,0.5623597,0.30042848,-0.73350066,0.07264318,0.30147293,0.65756947,-0.4658846,-0.14630295,0.46541768,-0.30312,0.26959464,-0.45422876,-0.07249541,-0.561267,0.13162313,-0.44647846,-0.3125996,-0.05810551,-0.30335268,0.5764014,0.67238915,-0.26596975,0.09492501,-0.056951117,-0.05054443,0.14602894,-0.13728112,-0.03910873
mạnh mẽ,0.14900456,-0.12014123,0.80165637,-0.12862173,0.21486568,0.48921308,0.015870303,-0.36242816,-0.19536957,-0.02219296,-0.15677263,-0.76444733,0.5791686,0.3436291,-0.04254095,-0.41885313,-0.85688746,0.83574754,-0.4906111,0.24413851,0.29834762,-0.36795014,-0.57722646,-0.09248503,0.42644307,-0.019552037,-0.19978134,-0.4316758,-0.03916828,0.4128902,0.04740166,0.37836948,-0.16412278,-0.16995646,0.27886853,-0.4040928,0.8448218,0.23574765,-0.05302058,-0.23484421,-0.069895215,0.3309797,-0.22651078,0.026353844,0.35803506,-0.33685485,0.38971195,-0.21165678,0.025354836,-0.53960335,-0.025134273,-0.000908838,0.044271775,-0.2821086,-0.6189075,-0.15897457,-0.34745502,-0.082933605,-0.43177092,-0.42617273,-0.3357818,0.017521875,-0.15291658,-0.12894769
chỉ,-0.04674667,0.09319175,0.33150554,-0.11945582,0.2767425,-0.1062614,0.29580665,-0.2957683,-0.24323384,-0.0021037643,-0.34554484,-0.47658637,0.5493626,0.47132757,-0.10063444,-0.37124357,-0.61809784,0.71154505,0.22635107,0.11207573,0.45044276,0.3947303,-0.30515632,0.06478892,0.41732994,-0.36419424,-0.38328397,-0.28513807,-0.04681341,0.5938283,-0.16329142,0.16471809,0.46467364,0.0023141594,-0.17844895,-0.11940641,0.5817535,-0.110006675,-0.61623627,0.4106757,-0.23385523,-0.18928503,-0.26423588,0.2548025,0.3326484,-0.5311379,0.06104842,-0.2857625,0.15223482,-0.5362823,0.41877225,0.44306287,0.024234476,-0.054218728,-0.17170994,0.3725105,0.29577172,0.13817912,0.3863342,-0.30501434,-0.4534066,-0.15449248,0.2322335,0.6282176
hàng,-0.05890438,-0.40736333,0.526978,-0.20531765,-0.026106557,0.66095215,0.38185138,-0.5889821,-0.183534,-0.35116738,-0.14492522,-0.23590237,0.4010652,-0.4698336,-0.32523304,0.58362556,-0.049657676,0.5363957,-0.044512093,0.03577871,-0.02155131,-0.08803984,-0.19418679,-0.119134225,0.13792218,0.2511702,-0.06734447,-0.24207488,-0.30619106,0.2814778,0.39499012,0.32818815,-0.44136772,0.13373958,-0.4038523,0.05194128,0.33985007,0.14372757,-0.5830162,0.054141518,0.059043974,0.4776613,-0.52586734,-0.27546006,0.262266,0.2593546,-0.0007865077,-0.56621695,0.18608883,-0.39137954,-0.03589464,-0.10551233,-0.114437856,0.08978195,-0.3075518,0.8708696,0.6183191,-0.4959714,0.25680128,-0.11486947,0.030794097,0.14445694,-0.20151165,0.2545429
tách,0.16216676,-0.30790845,0.28093547,-0.16085611,-0.10050175,-0.046848077,-0.22105142,0.003934546,-0.3785693,0.505101,-0.22135572,-0.036500983,-0.05425967,-0.8165777,-0.5332204,0.07618478,-0.36782917,0.5909406,0.34944683,0.4863366,0.058690175,-0.060379453,-0.45189354,0.27548563,0.47255862,0.059450597,-0.040620063,-0.35351846,-0.1351355,0.26916897,-0.63033384,-0.6813508,-0.04393059,0.27696085,-0.14482196,0.36806542,0.28917405,-0.4214477,-0.16672331,0.63453823,0.16935556,-0.63849443,-0.020940373,0.0258083,0.88875026,0.24733514,0.15207954,-0.44196168,-0.796336,-0.43914387,0.8911451,0.4182179,0.092910685,-0.85724556,-0.21403675,0.4387712,0.48903728,0.55024815,0.48522928,0.21306828,0.016098471,0.18977927,0.35013735,0.09306699
mở rộng,0.26324442,-0.47783178,0.050699566,-0.3568383,-0.25504255,0.19277704,-0.4764685,0.17733209,-0.2965186,-0.046712786,-0.2568042,-0.18192683,-0.12592472,-0.71550244,-0.14788282,-0.011193936,-0.08907186,0.8779418,0.19803052,0.3903055,0.11157177,0.23813686,-0.8455749,0.16493309,0.58227926,-0.00072969863,0.1318769,-0.32161796,-0.32862395,-0.13627818,-0.46737435,-0.77787757,-0.31797433,0.17026559,0.077650875,0.17482738,0.20218189,-0.34084636,0.4735009,0.18563336,0.18940888,-0.5906258,0.24915765,0.47625506,0.75071746,0.71445143,0.13375705,-0.08086583,-0.8550344,-0.33730438,0.45064592,0.010040602,-0.027362451,-0.34538478,-0.709743,-0.021408888,0.20554148,0.45247203,0.2669774,-0.16846567,0.30496618,0.064074196,0.01305386,0.08156636
tàu thuyền,-0.14795306,-0.37108257,0.1328639,0.43698823,0.13601258,0.12074069,0.35767373,-0.035385665,-0.27590367,0.0358932,-0.38155615,-0.71010464,0.039828915,0.2772828,-0.21396676,-0.35170195,-1.0387548,0.8088189,-0.4899069,0.36968672,-0.029122887,-0.1441916,-0.3166844,-0.38368422,0.27701557,0.117627904,-0.024964625,-0.8792983,-0.069249034,-0.17881176,0.3815592,0.2800221,-0.12173102,-0.010754043,0.31122956,-0.3357831,0.82227,-0.086898685,-0.3328478,-0.32109392,-0.10247233,0.45346147,0.19431613,-0.22261071,0.38034928,0.1237145,0.651842,0.29410315,-0.05364196,-0.470222,0.8108753,0.04898241,-0.360177,-0.36612475,-0.9802095,0.34512773,0.047151398,-0.18291761,-0.057042085,-0.19272354,0.41134262,-0.13415904,-0.33502045,-0.058773056
phía,0.3625874,-0.33872893,-0.027657446,-0.3310161,-0.37841225,0.19655605,0.2083842,-0.3114296,-0.5916642,-0.30672598,-0.013667276,-0.010721245,-0.06504252,0.14650734,-0.18154633,0.4029646,0.37901697,0.16018869,-0.067426875,-0.041794576,-0.023100598,0.5763727,-0.54141325,-0.3242876,0.39761418,0.29390183,-0.011847924,-0.07688077,0.27100727,-0.052452806,0.751507,-0.05268069,0.313637,-0.4605242,-0.060149454,-0.83065206,0.29721823,-0.21954392,-0.08443365,0.29079825,-0.41711658,-0.06609462,-0.24207069,-0.23514143,0.33054608,0.78421426,-0.14179623,-0.16312641,0.0101411,-0.22161537,0.13985747,0.53025514,-0.17305966,-0.21386959,-0.2121978,0.3915573,0.56509805,-0.10611614,0.23609059,-0.6821514,0.486655,0.045471963,-0.2859569,0.19681108
kỳ bí,0.075311325,-0.32857925,0.29025808,0.3684454,-0.083530165,0.2606387,0.2977133,0.022039434,-0.2700899,0.080011964,-0.28849256,-0.8205259,0.2821667,0.42480654,-0.17142826,-0.5125543,-1.0232626,0.86879337,-0.7315597,0.5259819,-0.13135414,-0.29956943,-0.5929068,-0.3818601,0.5989536,0.027379338,-0.0690454,-0.5769773,0.056446824,-0.004902013,0.4695603,0.24180788,-0.23492922,-0.06971992,0.26240778,-0.5669604,0.73044264,0.17293334,-0.31436127,-0.310838,-0.088941984,0.4169627,-0.14537986,-0.24222142,0.37037715,-0.03760823,0.37168676,0.29603887,0.10587731,-0.37980247,0.46929783,0.0009854542,-0.25032923,-0.32200897,-0.9895488,0.19148822,-0.022320263,-0.2744388,-0.2010372,-0.47090054,-0.11755262,-0.15892571,-0.11876102,-0.47651228
đứt gãy,0.45959535,-0.24400437,0.13921049,-0.12599705,-0.022346325,0.91125697,-0.4049809,-0.1364983,-0.07658713,0.50695485,-0.1527779,-0.3891792,-0.07807108,-0.47689605,0.21369429,-0.18504211,-0.08407719,0.49744645,0.16870716,0.27163285,0.5764247,-0.45729417,-0.5421543,0.051371146,-0.093960166,-0.2199498,-0.04428867,-0.40046886,0.6705756,0.60687816,0.18320926,0.11251017,-0.24330387,-0.5959738,0.16452044,-0.25037757,0.5830471,-0.48980033,0.31454995,0.14754134,-0.24941197,-0.28574783,-0.5915708,-0.028827474,0.106556095,0.06036167,0.44972268,-0.07984343,-0.04182836,-0.7116364,0.021425592,0.21857624,-0.15391882,0.088124156,-0.12325532,-0.26636016,0.031449366,-0.1215479,-0.22976637,-0.22855377,-0.15390384,0.009393679,0.21673672,0.07290563
sau,0.3340132,0.0041798707,0.4866567,-0.21778886,0.09685157,-0.17597014,0.13185242,-0.31172502,-0.2273067,-0.10885336,-0.45722404,-0.5462791,0.6402,0.27770713,-0.13659164,-0.29072052,-0.5995842,0.63796556,0.1276791,0.19679238,0.4311204,0.07350211,-0.30378827,-0.123565435,0.51588005,-0.33645087,-0.4774969,-0.39840448,0.0850373,0.7880378,-0.25679854,0.12247344,0.36541325,0.02865454,-0.25055766,-0.1128182,0.661338,-0.018896094,-0.65510166,0.4577651,-0.14037608,-0.14280239,-0.30337122,0.38809913,0.42960668,-0.73480934,-0.081347734,-0.27893043,0.138455,-0.59224665,0.3356628,0.56669515,-0.024534922,-0.04201137,-0.10328766,0.41591272,0.4491556,0.2675527,0.39326358,-0.2543559,-0.6382242,-0.045269135,0.3736806,0.5287569
chính,0.5658518,-0.4426787,0.14048846,-0.47333613,-0.083291076,0.12395526,-0.59142447,-0.18291855,-0.30994803,-0.24183056,-0.22246103,-0.5228962,-0.13578874,-0.2553694,-0.029100042,-0.15599887,0.19835381,0.44624242,-0.15662551,-0.45542037,0.27943033,0.32037464,-0.7270493,0.029097995,0.2579706,0.13319252,-0.1802925,-0.28123376,0.06615965,0.23002456,0.022027692,-0.49701184,-0.010588088,-0.06631344,0.16536227,-0.04648986,0.75322914,-0.4083138,0.01681082,-0.14847028,-0.35284236,0.14173815,0.57588136,0.80318516,-0.17321533,0.71634614,0.4490707,0.07867821,-0.3538087,-0.23559482,0.36575967,0.22163005,-0.28990224,-0.34339184,-0.59233755,-0.47148404,-0.14262365,0.07440512,0.20495549,-0.60361785,0.11584032,0.24652433,0.08810191,0.5521819
km²,0.51631033,-0.7233874,0.04854514,-0.10262099,-0.032204207,0.13663007,-0.11910182,-0.24438176,0.041105215,0.1802148,-0.59978807,-0.605325,0.71478844,-0.22367519,-0.12151688,0.0063516023,0.026277568,0.44271177,0.038011517,0.13679208,0.15522267,-0.11932003,-0.49476233,-0.43532538,0.50850564,-0.14329416,-0.4199885,-0.53814656,0.13941994,1.1048939,0.031545915,0.24027066,-0.3041595,-0.4171604,-0.28599808,-0.32801285,0.6366835,-0.17936772,-0.35570624,0.5541528,-0.38669074,0.20211808,-0.38688868,0.38686553,0.19491099,-0.29382855,0.19333568,-0.100058325,0.3935417,-0.43688706,0.34769472,0.5949809,-0.28508312,0.38613436,-0.3500431,0.62528807,0.8184157,-0.07814946,0.15625268,-0.33982158,-0.6749947,0.26909822,0.67906797,0.65038794
to lớn,-0.60271573,-0.64501345,-0.13058086,-0.17245616,-0.22142263,0.03614676,-0.009901215,0.09134128,-0.25856385,0.036988113,-0.38283005,-0.11409614,-0.13869521,0.31487107,-0.3666669,-0.69464064,0.22219333,0.7444354,-0.12109964,0.124225885,-0.06309266,0.41729456,-0.36261758,-0.64126265,-0.024333213,-0.3093335,0.13192235,0.37089106,-0.29732955,0.014865269,0.65511507,0.22663112,-0.060986035,-0.48196763,0.11209521,-0.22233388,0.44963053,-0.30959147,-0.13704324,0.23932715,-0.5253173,0.08994085,0.03148646,-0.34576076,-0.14255527,0.8621158,0.18067229,-0.4061598,0.19317915,-0.014144661,0.5342818,0.08873874,-0.62207925,-0.11414584,-0.44211707,0.31134656,0.5939439,-0.6747949,0.19561885,-0.6590902,0.16412954,-0.50711274,-0.11907871,0.5273035
con người,0.2195016,0.13241327,0.23051949,0.07256428,0.106574185,-0.20461366,0.09939159,0.05171595,-0.41872495,0.15659052,-0.33141038,0.02900772,0.16957285,-0.22618511,-0.2453443,0.10364372,-0.5984096,0.090920895,0.14918613,0.32549056,0.73060024,-0.19487911,-0.34272024,-0.030944081,0.0006667304,-0.0566117,-0.36005902,-0.54903436,0.4249483,0.31552014,0.19796754,0.04822811,0.35350984,-0.0053511,-0.28378993,-0.32590717,0.27913466,-0.13850348,-0.688144,0.16577315,-0.11734807,-0.47461858,-0.4412499,-0.26136714,0.3546394,-0.26776314,-0.3198504,0.09698933,0.0021552606,-0.6188522,0.38839197,0.74451655,-0.41516545,0.12858774,-0.02658344,0.36351925,0.5696422,-0.104749605,0.57844,-0.070832916,0.04491818,-0.076408796,-0.02653478,0.34698194
đẹp,-0.43424782,-0.11208052,0.16618177,-0.21513799,0.1927302,0.53876513,0.3687842,-0.081709854,-0.11466839,-0.0056448006,-0.29912117,-0.5712656,0.17597255,0.46181777,-0.22471774,-0.30772635,-0.4988955,0.88265765,0.3000736,0.13844979,0.23505199,-0.008520326,-0.07299937,-0.12690039,-0.1142299,-0.5343091,-0.006261905,0.23105524,-0.36284694,0.47076854,0.35089663,0.33969,-0.2615798,-0.13924675,0.028290162,-0.13174379,0.5097156,-0.08216975,-0.47496316,0.38257086,-0.46327564,0.28307527,-0.52281576,-0.31963047,0.01618727,-0.09097192,0.29947504,-0.5807275,0.29695767,-0.54529124,0.27689794,0.099274084,-0.2695426,-0.32415724,-0.13575031,0.14264564,0.0800702,-0.45803264,0.118992984,-0.6085051,-0.14291267,-0.24281256,-0.2531952,0.50913584
liên quan,-0.14938864,-0.2511814,0.23736824,0.4770176,0.17577167,0.049173802,0.42132905,-0.03708172,-0.2967273,0.23488984,-0.31854734,-0.7226968,0.2688846,0.3645904,-0.08132867,-0.53715134,-1.0282052,0.69733214,-0.51834315,0.44710156,0.063153185,-0.11387916,-0.36778852,-0.24333541,0.41892993,0.12742625,-0.037946638,-0.81301653,0.09251394,-0.033342738,0.22019058,0.31784725,0.09079548,0.027375989,0.3196896,-0.3543436,0.7329254,-0.087294884,-0.39545903,-0.34333655,-0.062096156,0.28300735,-0.0057687643,-0.22648866,0.32790175,-0.26497123,0.5346989,0.24477449,0.05133141,-0.41085634,0.65531236,0.08013561,-0.27179277,-0.3990137,-0.91481245,0.19720797,0.12209324,-0.10592096,-0.026660133,-0.26827672,0.012704721,-0.19002983,-0.12693843,-0.18780266
nhộn nhịp,-0.19979133,-0.389798,0.24052422,-0.13628012,-0.29141492,0.49474704,-0.009305828,-0.19479917,-0.11498907,-0.3739513,-0.31415033,-0.5037543,0.09876417,-0.47844803,-0.32883352,0.13098803,-0.087872855,0.8409552,-0.039032687,0.5615362,-0.019494511,-0.11943698,0.15418863,-0.5527713,0.14286669,-0.0014856103,0.047519967,-0.060126774,-0.49719146,0.19486208,0.16147055,0.046258725,-0.5532195,-0.18899071,-0.36537856,0.3661695,0.66112345,0.20873924,-0.7591135,0.3876026,0.16313899,0.551275,-0.50220823,-0.28461543,0.5251544,-0.36130053,0.26121393,-0.8124636,-0.17278706,-0.58636296,0.1395509,-0.6375806,-0.4960809,-0.35121393,-0.21044157,0.37648398,0.77462417,-0.14335458,0.06241164,-0.33897743,0.06419344,-0.09099947,-0.1620248,0.1500596
đảo,0.25264633,-0.08215157,0.6433669,-0.17237347,-0.13537551,0.43540105,-0.21661924,-0.38966042,-0.2921677,0.2634782,-0.21804732,-0.635871,0.27567482,0.3126039,-0.063788414,-0.5334944,-0.50207776,0.71862185,-0.48005405,0.23846154,0.099171646,-0.37547687,-0.46414277,-0.21961997,0.36611125,-0.08288406,-0.1370726,-0.2100112,0.26847667,0.4285081,0.1085673,0.07292164,0.11318917,-0.18401939,0.1335665,-0.13923495,0.82256687,0.05555099,-0.1144745,0.12204361,-0.31035724,0.06962454,-0.31948882,-0.104848534,0.2317719,-0.36756706,0.24742237,-0.23368819,0.16682774,-0.3515771,-0.09283385,0.026559731,-0.07707718,-0.54987377,-0.13665238,-0.31082278,-0.06959032,0.11892995,-0.39235422,-0.48748872,-0.606735,-0.2231517,0.10402632,-0.2571325
triệu,0.5434711,-0.7215519,0.17344417,-0.3068787,-0.17981721,0.03250528,-0.15900576,-0.3436083,-0.08338295,0.015421578,-0.6615418,-0.6510726,0.5967399,-0.35251305,-0.19430208,-0.011999061,0.056382563,0.3795003,0.1413136,0.09553236,0.1722375,-0.122916,-0.38146544,-0.3912986,0.44486016,-0.110179156,-0.4184232,-0.53359276,0.075616084,1.0766948,-0.104400024,0.2398929,-0.2755381,-0.35736766,-0.37649357,-0.1702049,0.5902393,-0.09628457,-0.44671172,0.48389557,-0.18641196,0.21338758,-0.3353583,0.50024444,0.35770237,-0.3789643,0.10887669,-0.18965752,0.23319113,-0.5403124,0.34889457,0.5490833,-0.14361165,0.36201134,-0.22875914,0.79841596,0.9000804,0.13297138,0.22839901,-0.21574919,-0.63625675,0.32274145,0.5854446,0.55288893
ridge,0.15950511,-0.014433553,0.09534353,0.02873449,-0.3303729,0.45749617,-0.21679078,-0.107730314,-0.11648518,-0.12882727,0.005259012,-0.12384619,0.14039378,-0.32030544,0.07509003,0.102310725,-0.16774675,0.7531948,-0.13889892,0.12647517,0.17988388,0.15496989,-0.3117036,0.04480598,0.49211514,-0.092105396,0.21841095,-0.5773398,0.3618266,-0.18729034,0.00836761,-0.43894055,0.45751402,0.049408402,-0.017965551,-0.12140843,0.509042,-0.349757,-0.023733864,0.32952297,-0.38544664,-0.5083422,-0.078135654,0.24289992,0.25339878,0.25251022,0.066752136,-0.14045465,-0.1228314,-0.37440717,0.15778615,0.09207289,-0.48826638,-0.4039827,-0.33046097,-0.7138316,0.3208789,0.2446262,0.22038762,-0.5155095,0.09930113,-0.11907991,0.2590505,0.3386575
thời kỳ,0.22280037,-0.3394613,0.1836212,-0.30045542,-0.41415375,0.19782512,-0.28850245,-0.06596612,-0.40569073,0.33914816,0.03586985,0.14143905,-0.23595732,-0.38448796,-0.6561578,0.32910675,-0.27585796,0.35867056,-0.04858073,0.6606611,-0.052996047,-0.108637124,-0.41668996,-0.18125871,0.1769923,0.10528254,-0.093558066,-0.086910725,-0.14228672,0.034789674,0.15275715,-0.17162856,-0.5654971,-0.19466302,-0.35391042,-0.003683355,0.4908522,0.04194046,0.13581719,0.542409,0.01767019,-0.07685443,-0.11073456,-0.43342647,0.63197726,0.42029598,0.15861556,-0.0692763,-0.34782645,-0.16173184,0.58553463,-0.11313108,-0.078436635,-0.44278902,-0.20477472,0.7335297,0.3780966,0.02017433,0.0032568413,0.1334869,0.42138004,-0.07978152,-0.03651824,-0.07295613
giàu,-0.1812379,-0.09026183,0.5847184,-0.26325879,-0.022530358,0.6932467,0.01456858,0.07438993,-0.35164556,0.25183237,-0.085423075,-0.43576953,0.045388725,-0.84533113,0.0116936285,0.22699954,-0.8514505,0.5499648,0.5773947,0.108319595,0.27301434,-0.54132736,-0.37268418,0.064419,0.07443975,-0.30878717,-0.055110533,-0.16293044,-0.20320162,0.53672093,0.035585597,0.34362614,-0.73613,0.24191378,0.090938374,0.03116473,0.29123393,-0.33202702,-0.27364448,0.004847002,0.122280166,-0.1312086,-0.6582763,-0.18898496,0.44040418,0.12548533,0.060185824,-0.47969398,0.106756456,-0.8064218,0.21648061,0.3859953,0.11974397,-0.36888325,-0.34998998,-0.0015715552,-0.22028959,-0.496476,0.29491037,0.03026147,0.025341682,0.21392885,-0.13688987,-0.13757119
nhân loại,-0.29823783,-0.815571,-0.007811878,-0.13684279,0.23500668,-0.14981416,-0.20732082,-0.050716806,-0.09605123,0.35726827,-0.65418994,-0.18294077,-0.3412458,-0.3393368,-0.21353547,-0.794523,0.37786946,0.15130602,-0.14202408,-0.11701845,0.15424751,-0.036229745,-0.43471828,-0.41352046,-0.4555158,-0.122174464,0.2220372,0.27917352,0.22574702,0.35143074,0.24716978,-0.07738512,0.3465097,-0.61426115,0.17814592,-0.05517149,0.4075539,-0.5000872,-0.39693683,0.2076765,-0.5680592,0.0859676,0.13363738,-0.31334987,-0.13011983,0.7086946,0.28006768,-0.7256078,-0.31050417,-0.1397007,0.49765864,0.13066599,-0.5181985,-0.16104354,-0.00835617,0.5687671,0.61698294,-0.21391147,0.27607942,-0.7374965,-0.307157,0.0072396942,0.2023468,0.40666616
thứ,0.1276061,0.09421308,0.46328083,-0.24399535,-0.037294157,-0.2527225,0.09462869,-0.21414968,-0.2666773,0.023034077,-0.15563916,0.022017306,-0.0044519887,-0.36941347,-0.20327821,-0.28230768,-0.32495484,0.4255927,0.41640323,0.15951554,0.52082896,0.0091661,-0.20368208,0.013378869,0.1907466,-0.28813562,-0.112759374,-0.15304887,0.15905079,0.3280142,-0.39879224,-0.16105889,0.53303206,0.13168253,0.007121784,-0.03610005,0.34200048,-0.29673997,-0.4617293,0.19390574,0.033107538,-0.57153505,-0.10864825,0.2571187,0.4254203,-0.067370445,-0.19251364,-0.40124655,-0.40246603,-0.6169285,0.30231455,0.6051797,0.08970157,-0.2725169,0.16550732,0.1256447,0.21938288,0.094824746,0.6022258,-0.022642752,-0.19598036,-0.08389093,0.03311397,0.23816065
kéo dài,-0.1356533,-0.53986424,-0.021548314,-0.0006953168,0.17719656,-0.32723656,-0.32802626,-0.10240977,0.0852135,-0.00597797,-0.23345566,-0.61947465,-0.047134284,-0.3552189,-0.18134843,-0.73905915,0.16537257,0.24411903,-0.14881523,0.1849497,0.13004747,0.6268677,-0.78580326,0.16745698,0.300889,0.1069341,-0.12362227,-0.14233387,-0.21238188,0.1950042,-0.32860824,-0.3800065,0.35268283,-0.4248783,0.35036078,-0.112476915,0.35804346,-0.47605127,-0.32696337,-0.043583207,0.05081926,0.027103854,0.56622416,0.5866844,0.25137547,0.74991965,0.47527015,-0.20843758,-1.0717376,-0.46935648,0.6591854,0.012247806,0.16233669,-0.35627517,-0.4969283,0.18393,0.14379664,0.33880004,0.21035187,-0.598743,-0.019443594,0.6746209,0.21176545,0.17482865
phát triển,-0.39573163,-0.7571048,-0.22459085,-0.27621812,-0.092151195,-0.09269968,-0.14598867,0.07708195,-0.24871577,0.15929067,-0.52744216,-0.1276916,-0.22824489,-0.008873708,-0.31856918,-0.71717507,0.27233094,0.5207352,0.14649878,0.022602301,-0.05362635,0.28080633,-0.26469886,-0.43624023,-0.18096201,-0.3524811,0.09960322,0.26718864,-0.11464317,0.12958443,0.29536775,0.051051356,-0.023616819,-0.5265412,0.07841912,0.022867927,0.31621608,-0.38524824,-0.07219496,0.23007564,-0.45806605,0.07294574,0.14210936,-0.20133424,-0.093437,0.51996654,0.2513678,-0.5172424,0.08696812,0.045336675,0.5187177,0.09673419,-0.45306668,-0.1873814,-0.28813434,0.41979283,0.5747676,-0.29964563,0.22894517,-0.5660299,-0.1493503,-0.3236099,0.060038093,0.52587813
nhau,0.112153135,-0.25472975,0.679147,-0.8675552,-0.40442055,-0.38431427,-0.28758657,-0.59893817,-0.46440724,-0.034263346,0.14871514,-0.26046902,-0.033682175,0.25450662,-0.55786073,-0.78768647,0.18028001,0.38670915,0.1574597,0.46794444,0.13322309,0.3005617,-0.5995724,-0.49584717,0.24935372,0.08713638,-0.3115429,0.34512764,-0.3296835,0.27560672,-0.23055655,0.41743577,-0.44959638,-0.5036139,0.40797943,-0.37431276,0.4066511,-0.37467828,0.10605627,-0.04969154,0.20951203,0.12641561,0.26894885,0.13143453,0.49446198,0.32965913,0.04045034,-0.31143907,-0.028354065,-0.16118985,0.2773764,0.5628912,0.31544504,-0.2539648,-0.47292882,0.5293154,0.3891167,-0.25356925,0.29326785,-0.16383845,-0.05888845,-0.22811179,-0.07925385,-0.17856906
hệ thống,0.11583921,-0.07361417,0.15035956,0.024220804,-0.18188812,0.57909405,-0.04928773,-0.15966783,0.0048521697,0.042216595,0.1728318,-0.098601766,0.12705708,-0.11008272,0.1430738,-0.09069554,-0.0631723,0.76464075,-0.21263522,0.18582805,0.14282191,0.09782057,-0.4293156,0.047652476,0.46428385,-0.065175295,0.26296902,-0.25070032,0.31998086,-0.12243346,0.09703648,-0.41192564,0.27132234,-0.1734326,0.24262379,-0.34197947,0.64749175,-0.2945644,0.09259259,0.31182232,-0.27988434,-0.34182227,-0.2327622,0.2231453,0.0041425168,0.24670681,0.2257348,-0.10735212,-0.110328175,-0.28114328,-0.0268549,0.06690603,-0.34770307,-0.18701117,-0.30299672,-0.6833424,0.11670765,-0.057935506,0.075400956,-0.5657098,-0.0033564907,-0.27509928,0.22967957,0.17122269
vương quốc,-0.29376566,-0.16242605,0.3275225,-0.3824988,0.2148699,0.45392695,0.47063592,-0.18043435,-0.53046685,0.030709632,0.115692586,-0.16781262,-0.02154909,-0.5637223,-0.17099948,-0.22904764,0.13930877,0.2210213,0.44958818,0.12650467,0.46251228,-0.15231268,-0.3995009,0.109672725,0.13773423,0.15514421,0.26230392,0.15446466,-0.11301816,-0.008286658,0.05631191,0.28399703,-0.36301023,-0.0070964256,0.45837793,-0.26096126,0.11964718,-0.29910943,-0.4638738,-0.4714263,0.45550045,0.09673245,-0.5757685,0.0138493525,0.30818424,-0.038817357,-0.064915076,-0.5228782,-0.1857861,-0.5964298,0.059898008,0.3467811,0.3183895,0.10032664,-0.52817565,0.13980383,0.25629878,-0.35765997,0.6032367,-0.009019006,-0.029871741,0.016004173,-0.23828338,-0.33525246
lớn,-0.10178383,0.15967232,0.27180102,-0.054200016,0.06801771,-0.34711963,0.20407678,0.0021118973,-0.11713212,0.06995505,-0.29587,0.10305226,-0.033442512,-0.050645854,-0.20084108,-0.36349902,-0.6025681,0.62060505,0.23623855,0.4252461,0.539904,0.010224454,-0.3663023,-0.035758514,0.19016176,-0.37554675,0.11708885,-0.16648038,0.039217222,0.0050240275,-0.31134486,-0.3711976,0.63263685,0.3385451,0.16825283,-0.03869574,0.2393032,-0.15536323,-0.2728872,0.16643786,-0.014992741,-0.70697165,-0.020311555,-0.016960442,0.46845838,0.115574464,-0.23647796,-0.10070366,-0.32086962,-0.44331887,0.49858394,0.6603093,-0.22185136,-0.07087361,-0.13835117,0.105471425,0.15235467,-0.022304753,0.5387355,-0.067561075,0.00031539024,-0.35549554,-0.07028127,0.13464448
huy hoàng,-0.16429758,-0.105172545,0.044555914,-0.3228784,-0.06186243,0.23873527,0.3279058,-0.062853284,-0.08483321,0.04701299,-0.16526058,-0.35611022,0.13795465,0.6145104,-0.50071627,-0.09252277,-0.2533868,0.65904504,0.1596127,0.24357457,0.05570946,0.1520347,-0.1920828,-0.21856278,-0.050923876,-0.39348367,-0.045876037,0.38885117,-0.40263867,0.38965762,0.4772832,0.02725762,-0.043568246,-0.20222984,-0.024637049,-0.38916546,0.4427031,-0.056466173,-0.37478292,0.6098834,-0.61793,0.16819395,-0.3466518,-0.30823123,-0.059417896,0.25446707,-0.026094954,-0.3048428,0.311086,-0.43150565,0.3157577,0.4212259,-0.38895518,-0.21667908,-0.006533718,0.34861317,0.28748038,-0.417797,0.10275186,-0.6124238,0.07201993,-0.24113405,-0.09608616,0.6329612
ý nghĩa,-0.05015129,0.012032174,0.27625957,0.32183814,0.27054903,0.42355484,0.1748672,-0.14108421,-0.33014992,0.27415606,-0.07451923,-0.2016839,0.050900977,-0.08030622,0.08473645,0.38507414,-1.0077044,0.6775725,0.017228127,0.18720067,0.42724243,-0.01902645,-0.318281,-0.11023784,0.13635594,0.09148464,-0.08623632,-1.0328243,0.11335711,-0.0142436335,0.305301,0.25365216,0.0008416465,-0.0109520005,0.13722362,-0.3058594,0.6548536,-0.24520105,0.15228255,-0.08402706,-0.23843482,-0.041323546,-0.03322385,-0.37292495,0.27064854,0.08705768,0.522463,0.18658477,0.11990101,-0.562609,0.5837165,0.30756962,-0.31173667,-0.09326325,-0.63338846,0.17694598,0.050116993,-0.21724463,-0.09819832,0.05779832,0.605429,-0.1865919,-0.2558932,0.3902734
giao thương,-0.08100913,-0.3616028,0.34066153,-0.37285802,-0.29770473,0.5933946,0.042145394,-0.23693608,-0.11413923,-0.35210383,-0.2572353,-0.44569388,0.034255143,-0.74875355,-0.32254666,0.04161427,0.055575673,0.61464936,0.13935204,0.49455094,0.21797726,-0.34082654,0.03991504,-0.386697,0.079178534,-0.054093674,0.103553645,0.12530148,-0.43700725,0.24609482,-0.049042303,-0.027647316,-0.647275,-0.15235457,-0.17077799,0.23383187,0.50199556,0.19328555,-0.6521083,0.13659868,0.3866041,0.5007414,-0.65594786,-0.003846774,0.5298179,-0.36912796,0.19323428,-0.7382167,-0.22663975,-0.7697729,-0.07693853,-0.431937,-0.22165652,-0.16300721,-0.15622258,0.19570568,0.4785104,-0.20286246,0.28899786,-0.19023097,-0.06251549,0.059160378,-0.19347258,-0.10507093
dương đóng,0.03360771,-0.25000256,0.033728257,-0.23134364,-0.5956145,0.17668527,0.10579884,-0.1955135,-0.46059242,0.07103265,0.115067996,-0.09202581,-0.27293712,0.098175734,-0.24514085,-0.18475056,0.31898448,0.29482856,-0.24702278,0.097765595,-0.20057191,0.41992593,-0.45008257,-0.48805612,0.2618108,0.057496093,0.12413978,0.073542535,0.20051259,-0.07572795,0.6393607,-0.1033254,0.51639414,-0.518395,0.16237302,-0.57274246,0.34250692,-0.39781502,-0.08718238,0.41135076,-0.62922066,-0.31944925,-0.1446693,-0.16619416,0.053504378,1.0152853,0.006729218,-0.20871276,-0.08355015,-0.2749483,0.22834136,0.5091401,-0.250045,-0.5327772,0.042694427,-0.010524822,0.41687483,-0.21482764,0.15756135,-0.71006733,0.3650389,-0.19468741,-0.17116559,0.090654224
giao lưu,0.072848745,0.2235795,0.11656449,-0.25295147,-0.069438316,-0.11751915,0.0257267,0.022773053,-0.35146356,-0.08261937,0.16486213,-0.059022136,-0.30441454,-0.09083091,-0.6069242,0.17123958,-0.1362246,0.10970229,-0.0037873774,0.6270961,0.35332873,0.20440716,-0.19097637,0.09517062,0.21876307,0.12600894,0.057276107,0.09551333,0.04048211,-0.004189077,0.2036306,-0.48549286,0.4237895,-0.26336634,-0.19458336,-0.40004954,0.4499201,0.1623359,-0.6704184,0.57225066,-0.2568349,-0.1867907,-0.30494753,-0.48136023,0.6919811,0.01356424,-0.20819242,-0.42254964,-0.73386514,-0.7055203,0.47535694,0.13311295,-0.11965159,-0.57281315,0.14780465,0.3802705,0.21912585,0.29382408,0.2962382,-0.4556464,0.20427112,0.23849812,-0.10508994,0.08626933
bề mặt,0.3975849,-0.4999263,-0.10593736,0.059480224,0.14823978,0.10628904,-0.061029624,-0.0042083138,-0.23604378,0.12371359,-0.55316514,-0.34571072,0.4659475,-0.42233852,-0.0008958429,0.015057726,0.07151909,0.15631774,0.1928746,-0.03582338,0.41812593,0.030162659,-0.5120425,-0.04545693,0.3667206,0.006136783,-0.10564973,-0.8552462,0.56915253,0.45961276,0.0857611,0.09568307,0.16797918,-0.47152686,-0.29349262,-0.3774943,0.21322192,-0.19037491,-0.35305312,0.10731903,-0.48803172,-0.08050743,-0.26620737,0.13418241,0.23293778,-0.19253476,0.007762911,-0.09584176,0.09480343,-0.5274498,0.2212672,0.39457867,-0.3665665,0.45623317,-0.28052104,0.40696776,0.7156074,0.1263946,0.20278075,-0.4069716,-0.53903645,0.29901093,0.34631598,0.69280505
puerto rico,-0.081373684,-0.13233262,-0.10035045,0.030222692,-0.49314585,0.17913973,-0.15602969,0.49240747,-0.3166755,-0.39013487,-0.09873753,-0.060160737,0.14039758,-0.55753535,0.024330152,0.10281903,-0.27649617,0.685408,0.08902585,0.61286837,0.27791777,0.52097243,-0.77710235,-0.07918467,0.4202631,-0.2593584,0.086479716,-0.39678973,0.12822768,-0.069800906,0.21445978,0.3206118,-0.1768329,-0.38113528,-0.35403764,-0.44438648,-0.08688238,0.12720342,0.055258945,-0.33222717,-0.10540318,-0.22963974,-0.0019812395,-0.15513834,0.27908698,0.7282591,-0.25887278,0.1942393,-0.24547888,-0.6118458,-0.06641924,-0.09986157,-0.3171314,0.5794033,-0.70190126,0.39273843,0.23021065,-0.28639266,0.03884842,-0.2995196,0.24095039,0.23947822,-0.5120933,0.6092088
gulf,-0.33896342,-0.287917,0.43447506,0.20687436,-0.11181473,0.43132782,0.07073093,-0.57145834,0.19138801,0.15252034,-0.1852168,-0.18907039,0.53941685,-0.23319894,0.25371867,0.004038147,-0.3126949,0.78994215,-0.57114506,0.07643709,-0.16400309,0.21783039,-0.13722165,-0.34698406,0.3429313,0.032448675,0.001407743,-0.3141122,-0.086939745,0.37208316,0.16097865,0.23151547,0.46614695,0.21605478,-0.083535835,0.29229757,0.86431485,-0.3934725,-0.28180265,0.37341887,-0.28022632,-0.10912835,-0.1445854,-0.06624252,-0.1562345,0.07318855,0.3100084,-0.3759621,0.2895964,0.12240117,0.120238416,0.0120375715,-0.35006458,-0.302638,-0.3786339,-0.059332654,0.7290184,-0.31058818,0.3113786,-0.3402814,-0.19985753,-0.16122505,0.46346238,0.3406119
nó,-0.11455328,-0.16794305,0.2985841,-0.013293752,0.3175808,-0.48725754,-0.21373227,-0.18980959,-0.024307255,0.019279694,0.017378844,-0.58016706,0.03561426,-0.4757784,-0.2573242,-0.69554776,0.061565187,0.030996244,-0.07287962,0.20361537,0.23755027,0.42018268,-0.5795961,0.17349377,0.26706883,0.1881979,-0.06419151,-0.1476339,-0.047394883,0.218184,-0.36732265,-0.22176886,0.5544251,-0.39725488,0.3731758,-0.24852173,0.38842148,-0.4201709,-0.774117,0.010139356,0.030457783,-0.01630463,0.40831366,0.47476736,0.42000678,0.49245247,0.2752165,-0.43950865,-1.1344768,-0.6987991,0.60939676,0.21257547,0.2432282,-0.46979195,-0.23534887,0.19127445,0.105793744,0.30637702,0.2802441,-0.5464885,-0.16413216,0.8688991,0.26320603,0.10380966
hải lưu,-0.573822,-0.30787018,0.15419075,0.34936586,0.099203445,0.4399644,0.23328057,-0.30059594,0.18209216,0.20322613,-0.13555901,-0.22784148,0.45948616,-0.07033772,0.08506282,-0.15041448,-0.376218,0.9930816,-0.33431798,0.27126333,-0.16554,0.2863893,-0.04018575,-0.18767944,0.40494806,-0.09577256,0.17274271,-0.24062203,-0.14413565,0.16613273,-0.003547906,0.01836409,0.40000907,0.0729497,0.14710365,0.10364016,0.7941806,-0.32285574,-0.22212106,0.33221525,-0.31118676,0.020388922,-0.15143116,-0.1292035,-0.076351345,-0.06948164,0.5355699,-0.47615874,0.0888255,-0.06715478,0.27931494,-0.18072115,-0.34268928,-0.4263544,-0.49094674,-0.2250934,0.455556,-0.17246097,0.17945597,-0.4205,-0.15362212,-0.24451959,0.31444302,0.39836648
khoáng sản,-0.16752297,-0.1594696,0.39443782,-0.365936,0.11639012,0.4901695,-0.088775195,-0.13201822,-0.15440476,0.2673205,-0.2884984,-0.4398769,0.13591072,0.028509542,-0.1636098,-0.09449378,-0.47497827,0.5099506,0.37770835,0.11820393,0.27634752,-0.28781092,-0.32782516,-0.10048582,-0.1622207,-0.39371696,-0.21938165,0.40527448,-0.22341125,0.9207629,0.3126153,0.45585492,-0.5144122,-0.22478087,-0.12429223,-0.1867142,0.38018608,-0.19498742,-0.2311898,0.4358915,-0.2906103,0.060409747,-0.72064686,-0.40662408,0.14810689,-0.124543004,0.02381575,-0.5597942,0.38765502,-0.5883567,0.13066828,0.28604776,0.011440161,-0.19109164,0.035675246,0.2832707,0.11652382,-0.4832976,0.0878619,-0.31089365,-0.1591998,-0.041815348,0.026604403,0.1946416
châu lục,0.05944324,0.16922693,0.3106653,-0.06990591,-0.21416374,-0.13564047,-0.11796164,0.07307751,-0.3765234,-0.04718782,-0.19210538,-0.056072377,0.12018701,-0.30558282,-0.25789058,-0.03749111,-0.36623532,0.07359787,-0.1447825,0.29987276,0.4965715,-0.12405758,-0.2590811,-0.08279997,0.022645418,-0.008349388,-0.17594866,-0.55724937,0.45882025,0.05756077,0.2801494,0.2443194,0.4189397,0.064941764,-0.28729725,-0.21417142,0.176461,-0.11706153,-0.71391463,-0.008029821,-0.22090599,-0.4708493,-0.30941856,-0.251123,0.25521716,0.016171774,-0.56023335,0.061174862,-0.035678744,-0.54659164,0.13808611,0.48741338,-0.50810146,0.13906643,-0.09663651,-0.03405511,0.6352669,-0.156465,0.54165477,-0.09087389,0.020175476,0.0022079335,-0.05163988,0.20966443
xích đạo,-0.21651763,-0.26723972,0.6566937,-0.743414,-0.30761838,-0.4580595,-0.043823615,-0.52218807,-0.4014654,-0.015404599,0.12586157,-0.1733969,0.0006164472,-0.025907282,-0.42846864,-0.956993,0.2200886,0.23308498,0.28765914,0.447066,0.24054636,0.26341715,-0.461876,-0.56582177,0.14630762,-0.03633896,-0.043739602,0.43721896,-0.22077814,0.123254605,-0.265717,0.47249722,-0.18136479,-0.4367655,0.5628855,-0.30110827,0.23773731,-0.5359966,-0.13873371,-0.22418094,0.32427365,0.017174823,0.13834792,0.13713938,0.42561856,0.25516123,-0.090277426,-0.46602964,0.008711322,-0.2349575,0.19287369,0.62425965,0.21016964,-0.11930865,-0.446994,0.41017297,0.6264022,-0.33527407,0.57078415,-0.16447987,-0.089439414,-0.26713198,-0.005731677,-0.22177437
na uy,-0.5299715,-0.17787251,-0.07110478,-0.34383902,0.43102086,0.24260567,0.41483855,0.4093825,-0.8749608,0.25903946,-0.03218734,-0.17298979,0.32620692,-0.4927527,-0.187897,-0.21905605,-0.018077936,0.27896097,0.61684614,0.15664284,0.562167,0.27942425,-0.85806763,0.35233128,0.53033626,-0.0172994,0.1113135,-0.041462097,-0.06526927,-0.023246733,0.086679965,0.18602316,-0.26947594,-0.10768285,0.2708045,-0.49994025,-0.06526951,-0.36895373,-0.5504893,-0.49587992,0.03158831,-0.13438444,-0.63714296,-0.13302128,0.2896686,-0.18446767,-0.13308081,-0.33127904,-0.024429118,-0.6693261,0.17219405,0.31946006,0.15323992,0.23010045,-0.9400548,0.017490478,0.31381845,-0.37023348,0.78712684,-0.2872637,-0.19419387,0.029142607,-0.231648,0.18969059
thái bình dương,0.28669435,-0.18585652,0.44665158,-0.15576836,0.29531124,-0.08187937,0.24135485,-0.34081197,-0.23465662,0.08959739,-0.5711295,-0.6371035,0.661421,0.24711663,-0.11132632,-0.33710352,-0.7439781,0.67576945,0.23172964,0.057743188,0.47441682,0.049178015,-0.42869586,-0.079524904,0.42963848,-0.30255133,-0.49355468,-0.51328206,0.014913257,1.0442792,-0.27296782,0.3764195,0.16895434,-0.017636433,-0.27305132,-0.06562448,0.7635447,-0.0095071085,-0.601124,0.3991975,-0.11867138,0.009288828,-0.29387847,0.42529657,0.44650176,-0.67218703,0.25273323,-0.21256599,0.14347723,-0.60353637,0.5542854,0.61728835,0.21345146,0.054554846,-0.18582386,0.7318403,0.37654763,0.10219401,0.36750886,-0.15169165,-0.68072885,0.090886176,0.37564704,0.5450155
đây,-0.08574503,-0.49862212,-0.08681691,-0.005491259,0.09170474,0.16261904,-0.05914208,0.37614417,-0.25539264,-0.3887915,-0.53384554,-0.5662885,0.27976322,-0.51027584,0.098912716,-0.12740095,-0.36605966,0.9643232,0.1593678,0.24244593,0.22930159,0.38845876,-0.76776695,0.34456456,0.6663838,-0.076821685,-0.012237911,-0.51636815,-0.5129503,-0.03991142,-0.3826719,-0.4993769,-0.24821036,0.314475,-0.039819807,0.1596569,-0.011616926,-0.07841974,0.0347125,-0.322362,0.26086628,-0.34495905,0.1811615,0.47701126,0.67732286,0.2610367,0.06310908,-0.17328034,-0.77421683,-0.49216068,0.19775634,-0.32408798,0.036664773,-0.06514709,-0.95618474,-0.00583741,-0.036720768,0.38463673,0.19687687,-0.35170078,0.020791546,0.24587397,-0.359487,0.20888151
chia,0.34065354,-0.11640385,0.450972,-0.4964732,-0.13596953,-0.3376257,-0.57695603,-0.06596326,0.027567726,-0.4167657,0.085255966,-0.3429893,0.11976466,0.21897805,-0.22240925,-0.44841957,0.08377393,0.38552943,-0.46549305,0.20698135,0.21307926,0.33636612,-0.8728221,-0.29635015,0.5671817,0.017431699,-0.32207406,0.3108061,-0.3274969,0.39477372,-0.019769771,-0.0827408,-0.43084505,-0.2884081,0.14412233,-0.4748039,0.7291925,-0.032914612,-0.04661232,0.0074170516,0.0028920337,0.30403617,0.42114612,0.6251559,0.070881985,0.5451248,0.15785156,0.09566783,-0.43512467,-0.18347098,0.37570038,0.1623689,-0.00051131996,-0.016612802,-0.6600112,-0.06216108,-0.1754119,-0.35910547,0.15748084,-0.551504,-0.034821425,0.309463,0.20878355,0.114303686
hướng,0.11066347,-0.28402203,0.2055087,-0.15726869,0.15487064,-0.40148103,-0.5218439,-0.16084407,0.14869694,-0.06811401,-0.09021314,-0.51987576,-0.17680116,-0.25528285,-0.33216664,-0.6538018,0.22081612,0.14443669,-0.4837892,0.2878642,0.14091843,0.35125774,-0.8063255,-0.012299399,0.22853413,0.2016081,-0.0859213,0.18266574,-0.24344066,0.23515843,-0.17901851,-0.5065905,0.15511742,-0.38114753,0.26818523,-0.25483453,0.6008593,-0.2920552,-0.39840963,0.16860078,0.08928206,0.12178193,0.47227907,0.49246973,0.3066155,0.79556066,0.39385027,-0.13385253,-1.1066751,-0.3652385,0.60907626,-0.03806271,0.052467432,-0.38107193,-0.39583346,0.14406185,0.04099024,0.1633322,0.18295905,-0.6699746,0.050457377,0.6264041,0.30032384,-0.08133845
thành,0.35223928,0.08185677,0.31763464,-0.442085,-0.08918829,-0.15516174,-0.4680329,0.15141553,-0.26778647,-0.35037357,0.2274377,-0.2430804,0.08239847,0.24347548,-0.24017973,-0.08690916,0.13623269,0.23585065,-0.4131305,0.053603515,0.23357587,0.3297745,-0.93579715,-0.16238582,0.66873,0.08340627,-0.18042819,0.3476362,-0.08215203,0.2783237,0.28423896,-0.030614935,-0.54300964,-0.26795882,-0.101475224,-0.67787766,0.61694616,0.09958738,-0.18583262,-0.039447837,-0.26880848,0.31112966,0.22713104,0.2980291,0.0017409265,0.5153185,0.015804684,0.1101273,-0.29143992,-0.15642546,0.26793724,0.09089245,-0.044301778,0.09440955,-0.71315753,-0.13123088,-0.24242537,-0.47311804,0.23295292,-0.6565131,-0.038809214,0.36364245,0.06519943,0.20451647
mỗi,-0.13172565,-0.38280618,0.98184484,-0.40771475,-0.45430917,0.6832068,0.070402384,-0.37116843,-0.4353241,-0.22980167,0.006531376,-0.31258687,0.2146144,-0.98839146,-0.3162793,0.33133742,-0.6075675,0.7544187,0.05738098,-0.0097380765,0.070931785,-0.24379165,-0.2699322,0.2592355,0.059682697,0.01644873,-0.029623117,-0.6190206,-0.26605088,0.25811437,-0.00072852545,0.53217673,-0.36854258,0.56277364,-0.3178461,0.13046902,0.2068147,-0.14493725,-0.2779712,-0.31011987,-0.05156463,-0.13470575,-0.055354085,0.023764553,0.21031196,0.6931204,-0.18161981,-0.43563887,-0.15435694,-0.6762457,0.056432515,0.1750426,0.10432361,-0.33007976,-0.44965807,0.24977966,0.07787062,-0.54624295,0.54635775,0.15479647,0.027076028,0.42728913,-0.37091544,0.2427877
vasco,0.14199203,0.35979065,0.65276265,-0.19675705,0.0016967664,0.41650948,0.015266702,-0.084316455,0.11285285,-0.037542563,0.27046865,0.16323434,-0.057014372,-0.36036366,-0.19005175,0.013965479,-0.13096836,0.37359864,-0.30437905,0.6722313,0.64759576,-0.5504253,-0.69577736,-0.055220142,0.052596517,0.10265204,0.41594392,0.18582834,0.3475578,0.13056293,0.44484025,-0.18663901,0.08819959,0.034918193,0.29543248,-0.5452479,0.3113609,-0.14516816,-0.287018,0.21682177,-0.02607751,-0.5118048,-0.65241677,-0.4029298,0.4789868,0.43648386,-0.5235863,-0.25426772,-0.39616233,-0.62221044,-0.060621716,0.64869064,-0.19966093,0.35180256,-0.26888624,0.050205216,0.108724475,-0.49348587,0.4113795,-0.34044385,0.06847259,0.057243273,0.2200448,-0.3895725
quốc tế,0.10279404,-0.3606164,0.32008353,-0.4101826,-0.36503625,0.49933204,-0.13943915,-0.2967868,-0.14606842,-0.5691459,-0.21617715,-0.46268782,0.026906619,-0.78448427,-0.23707089,0.2226434,0.15623711,0.585963,0.12452507,0.4095388,0.14197041,-0.20676954,0.050082527,-0.3959605,0.13416705,0.013803453,0.0654942,0.032522097,-0.35687622,0.22347386,-0.02266964,-0.07867945,-0.5732547,-0.10843933,-0.26075047,0.34221306,0.41313887,0.12335666,-0.67588055,0.20057617,0.29422116,0.4226742,-0.509567,0.07474838,0.54377043,-0.24381885,0.03936183,-0.84310347,-0.32832262,-0.68889016,-0.08102334,-0.5097338,-0.34481117,-0.2299791,-0.07129914,0.19517651,0.61184186,-0.0797808,0.1700151,-0.3374336,-0.0056424136,0.12024349,-0.1735597,0.019983616
mid-atlantic,0.04027957,-0.07601165,-0.06142302,0.109585434,-0.36206532,0.3297781,-0.06771111,-0.05993287,-0.33558232,0.01152823,0.02097029,-0.158677,0.29503343,-0.13688508,0.09606874,-0.029843738,-0.09321262,0.69609165,-0.17402898,0.18761037,0.07105352,0.5302016,-0.28912252,0.092983976,0.7319073,-0.034213174,0.14396039,-0.64579046,0.39344093,-0.27145866,0.043974716,-0.4092326,0.7064177,-0.10108399,-0.100698605,-0.31650552,0.42291215,-0.36533713,-0.1261366,0.28574798,-0.59277874,-0.55051166,-0.068608835,0.1618757,0.23246542,0.14190583,0.03237109,-0.061315645,-0.01946386,-0.32072994,0.13689005,0.063141905,-0.5664721,-0.5161595,-0.39365056,-0.7249845,0.5119157,0.32524273,0.2467448,-0.6508443,-0.014129579,-0.25502956,0.1403292,0.44149372
máy bay,-0.020723147,-0.29767472,0.12527938,0.3311593,0.21445869,0.20678462,0.23814245,-0.1020895,-0.3086935,0.04033572,-0.26052195,-0.6783656,0.0900247,0.13635999,0.01763174,-0.25635487,-0.92073095,0.7459819,-0.29767898,0.25642413,0.1758244,0.053838097,-0.37745756,-0.2556386,0.2707399,0.19685337,-0.07677868,-1.031082,0.012397456,-0.085401304,0.22512403,0.3230418,-0.09176954,-0.07244268,0.35698158,-0.3152048,0.7892384,-0.21710318,-0.0888827,-0.4428437,-0.025223691,0.31027153,0.2954676,-0.041244622,0.30827203,0.065545,0.6553595,0.34534857,-0.013051547,-0.45789552,0.65348953,0.11747442,-0.2639771,-0.1456557,-1.054352,0.24603328,0.047735408,-0.14117739,-0.056195915,-0.120751664,0.3702425,-0.05370564,-0.2976777,0.12618509
kiến tạo,0.2560947,-0.1614944,0.3633381,-0.18090022,-0.16839083,0.20792669,-0.29370588,-0.24229333,-0.20421903,0.49428025,0.027580697,-0.0071637034,-0.06632508,-0.48889965,-0.5399379,0.07568971,-0.41482276,0.8786265,0.091168135,0.5788144,0.057569,-0.12748536,-0.4676741,0.23236382,0.50963825,0.05069701,0.0071187112,-0.2720375,-0.032615233,0.1872826,-0.51434267,-0.8210204,0.092498414,0.33163485,0.0064644897,0.37720394,0.5864909,-0.41607738,-0.006763335,0.7208256,0.039491788,-0.6458158,-0.05609178,0.021939462,0.76253235,0.26469404,0.15354092,-0.3027675,-0.63392675,-0.34617513,0.7195579,0.4319789,-0.05383905,-0.8296109,-0.22046736,0.1268267,0.32718855,0.5257356,0.3393771,0.108513474,0.058528706,-0.105488144,0.51896,-0.027563168
đồng thời,-0.03704078,-0.3162907,0.84229016,-0.40144077,-0.3069581,0.7337569,-0.026492449,-0.20466028,-0.33998993,-0.122859605,0.09590891,-0.33764577,0.19656226,-1.1489077,-0.23103143,0.4506023,-0.571784,0.69946146,0.31864688,0.12566927,0.12973845,-0.37773782,-0.48144233,0.3050527,0.2026499,-0.039234493,0.04495018,-0.39114583,-0.28230816,0.31720948,-0.036918715,0.28498873,-0.6583055,0.49500373,-0.18030886,0.07559868,0.066757396,-0.19547765,-0.25828335,-0.22615686,0.15958075,-0.22672379,-0.33233228,0.03298593,0.4423895,0.5466128,-0.30207863,-0.53572285,-0.2378927,-0.8082688,0.020501684,0.21086669,0.17164247,-0.21524718,-0.4883244,0.207825,-0.0016010003,-0.44412258,0.5103229,0.079010285,-0.067516245,0.4454619,-0.2032754,-0.035759125
bên,-0.50594574,-0.30375832,-0.12238386,-0.20454264,0.41109246,0.47576374,0.35721728,0.5335091,-0.72467405,0.24843802,-0.08960321,-0.3707335,0.4048451,-0.28044364,-0.11008022,-0.31205013,-0.18586352,0.50197524,0.49692425,0.13899545,0.4501916,0.27442324,-1.0383703,0.396758,0.6175776,-0.08596453,0.13616519,-0.08586265,-0.17785305,-0.010363637,0.2163352,0.26619366,-0.48017684,-0.10504558,0.26760685,-0.56556684,-0.09644142,-0.24478456,-0.28835404,-0.57141745,-0.099709556,-0.057842977,-0.5802848,-0.09553047,0.25334215,0.0015178171,-0.09701256,-0.1840553,0.10138275,-0.57363373,0.16401865,0.20127112,0.14421542,0.37991354,-1.1150249,-0.058591038,0.029840373,-0.4551098,0.5153466,-0.45335057,-0.30610487,0.028365055,-0.20773926,0.1255057
nơi,0.2771446,0.061496016,0.64035904,-0.20433582,-0.19614446,0.41102192,-0.3855462,-0.35426617,-0.18394959,0.35503668,0.1433005,-0.3484602,-0.056599654,-0.4807303,-0.23031826,-0.24565318,-0.39738935,0.7329456,-0.17559305,0.26527497,0.20893964,-0.16121496,-0.39219695,0.30708402,0.3362214,-0.02662384,-0.11602068,-0.21339989,0.21826921,0.32792982,-0.4240768,-0.52347034,0.32263294,0.15366635,0.1547438,0.24814677,0.69002116,-0.40205124,-0.16407412,0.30406636,-0.08190268,-0.38310364,-0.038567137,0.28690016,0.37033337,0.07687464,0.30605888,-0.35568327,-0.5260533,-0.4966633,0.2679292,0.15915197,0.063826315,-0.8285533,-0.12401786,-0.48728165,-0.17125826,0.41556975,0.042467676,-0.15837303,-0.29111573,0.12242548,0.38784745,-0.0628397
địa chất,-0.27757224,-0.17637753,0.5658068,-0.105040655,0.3659409,0.6566327,0.06132334,-0.02051043,-0.3032001,-0.024420874,-0.27403516,-0.69867605,0.789458,0.1283618,0.23451579,-0.26793292,-0.7138338,0.9963247,-0.18729304,0.15612808,0.32935038,0.1372783,-0.750484,0.22392721,0.61300695,-0.05101245,-0.043906454,-0.3994444,-0.27680984,0.28605217,-0.023330595,0.31386358,-0.22625226,0.060105674,0.21848018,-0.17888708,0.5855425,0.106262214,0.052022498,-0.29250294,-0.19010568,0.12411619,-0.225654,-0.13263044,0.2615244,-0.19772889,0.2445896,-0.3782482,0.060168322,-0.37405583,-0.12524016,-0.18303454,-0.017246606,-0.24641909,-0.8546674,-0.41150406,-0.3402522,-0.22565468,-0.2489292,-0.601811,-0.43421644,-0.00754032,-0.25310197,0.20555729
christopher columbus,0.13122284,0.07263219,0.4906155,-0.030633615,0.2989658,0.38080072,0.2621882,-0.20143963,0.2077386,-0.047261402,-0.045542486,0.19193284,0.19350651,-0.407609,-0.010489272,0.10237754,0.15732361,0.21791217,-0.34791246,0.32621947,0.38533437,-0.3394636,-0.8206693,-0.13018408,0.17715766,0.2224681,0.512924,0.23044744,0.2866963,0.18449417,0.5810093,-0.30151758,0.24438386,0.08125769,0.23550548,-0.6024411,0.3076555,-0.22180422,-0.41489416,0.2347663,-0.28678042,-0.34273344,-0.6275106,-0.3655756,0.2585668,0.6355451,-0.4875162,-0.43115333,-0.10903438,-0.31158537,-0.06453737,0.62591076,-0.31790167,0.5088747,-0.33136103,0.35007915,0.38633516,-0.6408674,0.46461987,-0.6068018,-0.18641898,0.079816796,0.40014553,-0.16828418
da,0.028837198,0.113582835,0.5145944,-0.28856492,-0.019684084,0.3835315,0.30495545,-0.30308902,0.02941689,-0.12101162,0.27438566,0.15022457,-0.10048862,-0.12839635,-0.3741897,0.05261983,0.1425106,0.290707,-0.33716452,0.60960156,0.33921108,-0.31105036,-0.68818635,-0.18167484,0.049872406,0.27569205,0.4556533,0.39906737,0.14583264,-0.05275615,0.7111794,-0.17791104,0.10205078,0.008906361,0.44996387,-0.710748,0.2557337,-0.24710253,-0.30346105,0.27479228,-0.048634335,-0.24981457,-0.62337464,-0.54291016,0.47435853,0.7984908,-0.6004925,-0.36343437,-0.21566598,-0.38904887,0.1070575,0.7886128,-0.22517365,0.28512466,-0.48445457,0.40143687,0.42342353,-0.65393746,0.576584,-0.46555772,0.26626912,0.008969635,0.26348764,-0.44090748
mảng,0.27134877,-0.21957903,0.34189427,-0.041450568,-0.09373511,0.058957666,-0.20622252,-0.12289402,-0.2711483,0.47135913,-0.144364,-0.2807776,-0.029807877,-0.42711198,-0.32357657,-0.106734246,-0.5494845,0.71581435,0.14614235,0.29134217,0.00048171764,-0.11324309,-0.44893423,0.23359108,0.49199826,0.028869225,-0.23618491,-0.393041,0.014455724,0.4081673,-0.4868817,-0.5399125,0.088345714,0.20688084,0.04188803,0.27919304,0.4295823,-0.37641224,-0.077099375,0.3408577,0.053952545,-0.4441097,0.11759483,0.17957765,0.66514623,0.15338163,0.35236588,-0.21767172,-0.5898614,-0.5302573,0.7041,0.361051,0.11087185,-0.9294703,-0.15013431,0.052457392,-0.02153743,0.57291526,0.2011201,0.0015090778,-0.060064975,0.19088292,0.2562523,-0.06860052
văn hóa,-0.04759977,0.048345424,-0.010119333,-0.10376048,0.15138067,-0.18249089,0.10740127,0.06624174,-0.6793627,0.2311487,-0.009215383,0.010161486,-0.10393624,-0.16766028,-0.5836036,0.033419486,-0.20633715,0.10266653,0.12804468,0.5792002,0.42490157,0.24223416,-0.33840823,0.22631061,0.4566886,0.29958534,0.097855486,-0.23592007,0.08543711,-0.16954514,-0.05552937,-0.3795609,0.2548981,-0.33062854,-0.21443455,-0.33275124,0.23345132,0.1244086,-0.49197456,0.09745824,-0.14694811,-0.069853134,-0.2105121,-0.47742993,0.7095454,-0.21336213,0.031315107,-0.23203474,-0.6173137,-0.5617305,0.56354,-0.014654565,-0.05394296,-0.4322126,-0.20140567,0.47861996,0.35804477,0.4801413,0.3448805,-0.14987782,0.05782016,0.09330227,-0.17523956,0.16544852
