node,0,1,2,3,4,5,6,7,8,9,10,11,12,13,14,15,16,17,18,19,20,21,22,23,24,25,26,27,28,29,30,31,32,33,34,35,36,37,38,39,40,41,42,43,44,45,46,47,48,49,50,51,52,53,54,55,56,57,58,59,60,61,62,63
và,0.19005251,-0.09254969,0.10088305,0.18091102,0.030131783,0.021513987,-0.14003104,0.24212523,-0.117710814,0.3352663,-0.046258926,-0.07910751,0.24349569,-0.30784827,0.09116271,0.10979872,-0.10365447,0.35618728,-0.039222877,0.19594537,0.12763157,-0.40696767,-0.044823892,0.31888092,0.1260173,-0.03782219,-0.17324285,-0.02527317,0.05858178,-0.06448707,-0.22520767,-0.23070931,0.007073682,0.09577701,0.2064393,-0.08349988,0.3405857,-0.21410535,0.30086473,0.16625144,-0.14538771,-0.006939571,-0.5272546,-0.12504058,-0.0057042455,0.46122587,-0.066484585,-0.1468453,-0.05261143,-0.3468132,0.42314738,0.18056114,-0.3858155,-0.006430121,-0.40204707,0.08880954,0.43717608,-0.29280528,-0.061721858,-0.15589891,-0.08864954,-0.098645926,0.17008369,0.55012566
pusilung,0.051460467,-0.22046277,-0.11787322,-0.1266531,-0.13648553,0.31162572,0.14164284,-0.022684954,0.21430862,-0.09116303,-0.23428907,0.053951852,-0.011694655,-0.26554182,-0.30563074,-0.27063575,0.3457198,0.63532066,-0.47264227,0.015362626,0.32036817,-0.4409723,-0.023637744,-0.45498547,0.2322616,-0.12898694,0.0072596455,0.013130885,-0.10160138,0.23415256,0.18903701,0.113197885,-0.33766288,-0.04342463,0.14468132,-0.1373292,0.13030952,-0.0036906,-0.4444835,0.16639373,-0.27316037,-0.22718784,0.046307802,0.44217077,-0.013440708,0.30895698,-0.08771959,-0.122165956,-0.74395305,-0.31214648,0.02457976,0.23611021,-0.03177788,-0.13216288,-0.25846246,-0.26092964,0.010503534,0.29118136,0.1295084,-0.1704139,-0.09613322,0.21496204,-0.13605909,0.47868156
của,0.42978686,0.13391684,0.11940967,-0.079184674,-0.038371,0.19942272,0.05058581,-0.10687597,-0.14254497,0.09109104,0.19514568,-0.045516282,0.084380016,-0.1910157,-0.24795707,-0.05087927,0.2404863,0.46581113,-0.39958146,0.08722561,0.40003225,-0.54492515,-0.097817406,-0.24704082,0.36679143,-0.3951136,-0.054261833,0.3702866,-0.15625048,-0.028992422,-0.016420113,0.1285728,0.35236964,-0.12094061,0.26358145,-0.27683493,0.11265653,-0.30055588,-0.3502987,0.15477303,0.21662122,0.14002655,-0.52840567,-0.171863,0.4071314,0.3331434,-0.26492572,0.08338323,-0.19210236,-0.5869912,0.23046494,0.46855873,0.23229632,0.041044828,-0.12597482,0.0072621065,0.34599355,0.18948796,-0.15744333,-0.21086666,-0.26323074,0.24145776,0.17614503,0.25390634
người,0.027549187,-0.08555671,0.06146217,0.16666193,-0.29724154,-0.10216651,0.019031087,-0.17807318,0.06908188,0.29160464,-0.24323651,0.2396736,-0.0976997,-0.7519271,-0.28699484,-0.026534773,0.0748969,0.7619146,-0.49739745,0.111860454,-0.09628247,-0.2295298,-0.11830286,0.012187216,-0.037390415,-0.23724844,-0.09736719,0.14251556,-0.25162774,-0.13350153,-0.036948428,-0.14979607,-0.39273527,0.09268115,0.14869492,0.19643973,0.42080185,-0.23162484,-0.09508722,0.21155939,-0.3088459,0.064029686,0.05533277,0.07159015,-0.12802498,0.40190065,0.07445653,-0.09934072,-0.520377,-0.0724883,0.2981009,0.08306561,-0.28519633,0.12941821,-0.037411757,0.06239859,0.09891961,-0.32756677,-0.055409268,0.1672183,-0.17629996,-0.24636517,0.11810838,0.37994197
núi,0.09111777,-0.12069283,0.23065566,-0.10506302,0.014236623,0.0128854085,-0.32922098,0.21814921,-0.13560028,0.2758464,-0.27612504,-0.07309728,-0.414121,-0.028252205,-0.08720748,-0.32414988,-0.056962207,0.70629525,-0.6086956,-0.08261654,0.27073994,-0.34881607,-0.22438656,-0.21413231,0.37283975,-0.2842969,0.025500303,0.2507948,0.013643702,-0.22286743,-0.14931874,0.1398974,0.19399717,-0.045910846,0.4045005,-0.1833151,0.2925094,-0.07451181,-0.16756728,-0.10010378,-0.24227114,0.21637182,-0.13063909,0.22755337,0.17101637,0.64346105,0.052318934,-0.031123536,-0.65617657,-0.45503363,0.32297653,0.2017964,0.28928182,-0.26218668,-0.12342896,-0.25580058,-0.54360545,-0.23117194,-0.35997453,0.06407501,-0.4003841,0.17430508,0.34603712,0.07975188
đỉnh,0.17104582,-0.1705965,-0.06185984,0.06694849,-0.16688076,0.06570013,-0.0809298,0.039431028,0.16205604,0.17876591,-0.19146636,0.16087388,-0.0850973,-0.36044964,-0.19130963,-0.32073447,0.31984445,0.6632774,-0.53884804,-0.009259714,0.3461898,-0.63129044,-0.1269394,-0.24149424,0.3511911,-0.26397708,0.03591871,0.18058266,0.05071537,-0.085705414,0.1355483,0.017492292,-0.0868509,-0.07447561,0.2767464,-0.02406555,0.1881624,-0.017562632,-0.32414508,0.16808783,-0.15395515,-0.013228579,-0.029029714,0.36379138,0.0272253,0.55160886,-0.10680564,0.0039470736,-0.8754556,-0.17726262,0.2865709,0.27291682,0.1350649,-0.14246102,-0.07564486,-0.24673417,-0.044012003,0.040928997,-0.1492911,-0.09837373,-0.2862842,0.16999675,0.26171923,0.30554518
những,0.17479393,0.18574758,0.2859309,-0.05135634,-0.09642639,-0.25100213,0.052538957,-0.30507344,-0.3647074,0.21644917,0.20799863,-0.019799033,-0.11332042,-0.7435798,-0.13754122,0.04476723,-0.091927364,0.63007754,-0.31521884,0.113220856,-0.037072614,-0.10130499,-0.051118385,-0.12174825,-0.10484234,-0.6209668,-0.3032796,0.17919478,-0.46995458,-0.24136418,0.065745346,-0.14304781,0.13406661,-0.09629717,0.27782148,-0.01881824,0.42261815,-0.30437234,-0.24397255,0.18613565,0.25087985,0.3131985,-0.29325354,-0.19581635,0.03670548,0.38159624,-0.14761199,-0.089542665,-0.012146428,-0.73424256,0.115866214,0.27817047,-0.10167262,0.3277742,-0.14864738,0.38373375,0.62388813,-0.34155232,-0.03871598,0.08321826,-0.18276042,-0.23496015,0.17763855,0.44804823
rừng,0.096048556,-0.024245102,0.69886386,0.402848,0.059954785,-0.23060134,-0.06963408,-0.15009218,-0.7611073,0.50234944,0.08359357,-0.34453103,-0.09228473,-0.62594545,0.03513373,0.22789645,-0.7618543,0.6583451,-0.039918896,0.114579536,-0.22836591,0.17015116,-0.46599865,0.072205596,-0.1496641,-0.20931503,-0.13139766,0.033732112,-0.46578476,-0.24348588,-0.03021547,-0.22801027,0.0255787,0.1621791,0.12562315,-0.105099395,0.5106474,-0.5558082,0.19359435,-0.2630936,0.07097425,0.024460753,-0.16885567,0.037550177,-0.19152258,0.52142626,-0.1097291,-0.58068615,0.25664476,-0.91534615,0.42627683,0.16711769,-0.3930966,-0.014475714,-0.5183024,0.29480153,0.34162268,-0.6762494,0.11665528,-0.19447908,-0.022419307,-0.19150496,0.12273337,0.3099088
chinh phục,0.12926188,-0.05355269,0.27815282,-0.23953825,0.15458849,-0.13679786,-0.49850833,0.25397116,-0.18779704,0.19026498,-0.46473774,-0.16854903,-0.1820162,-0.29432303,0.4382714,-0.05559521,0.028804975,0.55514777,-0.3233999,0.03354479,0.02420945,-0.42818323,0.043617588,-0.11816131,0.09977623,-0.3603331,-0.1579263,-0.18378672,0.0020561418,-0.03418379,-0.43232656,-0.22088125,0.3826599,0.14509249,0.2875058,0.118727505,0.500199,0.07539438,0.13027489,0.15226145,-0.18420754,0.2579265,-0.39084765,0.121761315,0.15069777,0.61202836,0.2566835,-0.009807073,-0.40182424,-0.5026331,0.3394059,0.15222244,-0.0022831918,-0.38880366,-0.223065,0.014996341,-0.11532654,-0.37497932,-0.15585743,0.33893892,-0.38344052,-0.15653473,0.3010122,0.26598427
hùng vĩ,0.28135127,-0.061412845,-0.048271656,-0.2595125,0.12891127,0.22783777,-0.3229115,0.37882483,0.15877707,0.12508945,-0.4731116,-0.4915459,0.18581133,-0.23272778,0.3452268,0.060320023,0.0675585,0.37876496,-0.11100895,0.2040478,0.14317681,-0.55793715,0.32283124,0.033805937,-0.039116982,-0.040918157,-0.21131034,-0.24181408,0.055131532,0.4399994,-0.30931705,-0.3302696,0.22341524,0.26269293,0.22582175,-0.24874222,0.45362377,-0.055403918,0.17072475,0.23128012,-0.3479221,-0.22671139,-0.7365099,0.12422653,-0.050091844,0.47781652,-0.039156374,-0.40124485,-0.35689998,-0.46926293,0.16618243,0.3761496,-0.507039,-0.568384,-0.49961317,0.021985441,0.40683538,-0.063703015,-0.004269696,-0.106305085,-0.28414893,0.08951484,0.09075288,0.7677693
cao,0.231775,-0.0490587,0.08015974,0.017467467,0.05228992,0.13347699,-0.102125876,0.15790337,0.07699138,0.14789271,-0.03332371,0.014809336,-0.23830205,-0.09135672,-0.075376764,-0.3933434,0.15045457,0.55205745,-0.5691071,-0.01541886,0.4247243,-0.5145771,-0.23333663,-0.36253244,0.4790004,-0.31818107,-0.046348024,0.44321057,0.14338288,0.020661242,0.22518396,0.11680014,0.24112065,-0.20045169,0.35185993,-0.2512225,-0.013649956,-0.10790389,-0.36446625,-0.10596007,-0.09219989,0.009495264,-0.13629662,0.48751768,0.13052472,0.55661416,-0.18722333,-0.13962965,-0.7975176,-0.5390709,0.2566006,0.350395,0.30592027,-0.24313328,-0.24384184,-0.39813927,-0.12915777,0.037938796,-0.218382,-0.3827582,-0.40772238,0.4178103,0.33850875,0.30598333
nằm,0.16375339,-0.3287666,0.21879305,0.18302076,-0.36088789,0.32356665,-0.029102087,-0.16263038,-0.05777617,0.45110065,-0.32439816,0.36090603,0.22034709,-0.2912134,-0.60818636,-0.14754523,-0.13247736,0.75716996,-0.36347502,0.10828118,0.2831967,-0.63577396,-0.61479855,-0.27736735,0.436336,0.004205721,0.23068064,-0.20808156,-0.056825485,-0.24379744,-0.21632601,0.07405662,-0.2773981,-0.045020085,0.036793817,0.21009435,0.55077785,-0.22837344,-0.01240428,0.23128529,-0.2548234,-0.09630286,0.15161154,0.032825403,0.21602899,0.47521937,-0.0041950205,0.07834353,-0.32632,0.061565533,0.7380668,0.2896674,0.07291941,0.06615028,-0.20363186,0.023880813,-0.2939232,-0.048133843,0.14432617,0.18028313,0.10069091,-0.15877756,-0.03566027,-0.08278002
hành trình,0.068875186,0.012886485,0.25163874,-0.049426105,0.1427858,-0.279303,-0.3992917,0.17809209,-0.2595409,0.23850934,-0.26389277,-0.23543747,-0.19483867,-0.47654557,0.49578115,0.026361356,-0.0285795,0.53301847,-0.32001096,0.044413295,-0.045244183,-0.3248815,0.048921302,-0.063132994,0.05827112,-0.3970619,-0.26396456,-0.126854,-0.12472924,-0.03293079,-0.2561036,-0.22151269,0.32312375,0.16814251,0.37979797,0.1749886,0.44118112,-0.01796477,0.068290405,0.037385505,-0.1165039,0.33412054,-0.33215687,0.21724413,-0.023724947,0.6347807,0.19246668,-0.052133307,-0.46756223,-0.6098883,0.31552517,0.1720999,-0.0554549,-0.35376862,-0.20583233,0.09709265,0.030161582,-0.53851783,-0.14148548,0.3653866,-0.32538202,-0.13125455,0.37612325,0.35694516
là,0.28199565,-0.037162483,0.014678804,0.07037052,0.10037977,0.119559996,-0.10572594,0.28548136,0.07574829,0.07990341,-0.026156126,-0.033139292,-0.14532655,-0.12630858,-0.007001907,-0.38135982,0.30480528,0.44580778,-0.4476863,-0.0011208844,0.39985386,-0.52852076,-0.12131241,-0.23273674,0.34121615,-0.26812825,-0.108394235,0.44754225,0.2087206,0.1412904,0.054000344,0.024652995,0.32622817,-0.100515485,0.33687517,-0.34056675,0.0074917837,-0.17993475,-0.3317912,-0.047461852,-0.14770786,-0.019698057,-0.40682256,0.3268178,0.18545187,0.41051605,-0.16754961,-0.1250232,-0.67172045,-0.5888859,0.13813856,0.29251063,0.13582343,-0.20639476,-0.29098842,-0.383329,0.0026748334,0.091313675,-0.29423323,-0.4443195,-0.4361524,0.43536705,0.37322918,0.37898058
trên,0.02146023,-0.21333614,0.011798946,-0.051607076,-0.07604317,-0.24545065,-0.30992028,0.2675633,-0.100405365,0.30877727,-0.16454968,-0.017352046,-0.17456226,-0.52297753,0.1798925,-0.11732504,0.057512883,0.7441366,-0.4783745,-0.06408763,0.11494304,-0.37572175,0.017380534,0.0003016946,0.16068873,-0.27061734,-0.16798279,-0.094074965,-0.042012226,-0.2829079,-0.05983996,-0.031772166,-0.012359736,0.074355796,0.45158395,0.057759866,0.39136052,0.008923021,-0.04849381,0.20811522,-0.28538394,0.124446765,-0.13702804,0.26178026,-0.20307714,0.727157,0.13701993,-0.01451559,-0.73973095,-0.44952473,0.36439526,0.06038698,0.03353065,-0.12545495,-0.20628259,-0.036460113,-0.0599304,-0.4176327,-0.1256339,0.23572959,-0.27714866,-0.17491165,0.27039638,0.4815965
biên giới,0.3794826,0.10943922,0.390664,-0.35696495,0.024089381,0.54011685,0.04208143,-0.22762552,-0.089674845,0.025563113,-0.27620694,-0.40454674,0.36305264,0.0980417,-0.3931106,-0.042894527,-0.22868218,0.3017373,0.118613325,0.30717465,0.45712078,-0.57900727,0.14172514,-0.3588512,0.12309536,-0.40802726,-0.021758411,-0.4810827,-0.41671777,0.40988964,-0.033670895,0.003183089,-0.06628232,-0.26045594,-0.030911112,0.0560682,0.17626156,-0.08017753,-0.04915359,0.3477302,0.12774353,-0.14803977,-0.42914823,0.14272608,0.34830254,0.20663415,-0.22796452,-0.24929877,0.12193371,-0.27122605,0.24543294,0.6006901,-0.12649803,-0.3104941,-0.44064724,0.2707384,0.77747893,0.21569872,0.16441885,-0.040842213,0.12940007,0.08992615,-0.27891785,0.54999775
được,-0.010558503,-0.47217366,0.010307959,-0.18315312,-0.030964343,0.45351693,0.07441837,0.039224774,0.15958431,-0.18284148,-0.4601788,-0.13554011,0.3453032,-0.31609333,-0.103081524,-0.083399884,0.20057617,0.65866977,-0.20416577,0.25078174,0.37223747,-0.6469826,0.095982336,-0.14916754,0.092384204,0.17557292,0.048346937,-0.29030514,-0.04298968,0.526153,-0.23024628,-0.082229845,-0.42854002,0.27579418,-0.06918451,-0.20835534,0.289116,0.16270307,-0.022507614,0.1010515,-0.26863328,-0.527895,-0.29105166,0.2283573,-0.06713374,0.16322117,-0.14183584,-0.537184,-0.37195888,-0.40019947,-0.035502814,0.06878326,-0.525284,-0.23379593,-0.746619,-0.059695587,0.31584302,0.44063455,0.3428614,-0.35250333,-0.0070819263,0.10983455,-0.21383035,0.63263863
ngọn,0.115562804,-0.12152489,0.17099601,-0.09020106,0.26742187,0.047317863,-0.383817,0.3525263,-0.106348716,0.18500902,-0.2219155,-0.15389256,-0.23097503,0.036029175,0.36047977,-0.31352538,-0.036781553,0.35016438,-0.34686804,0.023514122,0.2967618,-0.3881082,-0.13716422,-0.25895727,0.36441344,-0.25969863,-0.19641532,0.070684455,0.21090057,0.095551044,-0.104111984,-0.07265213,0.48540074,-0.06858437,0.3085292,-0.14252777,0.13227123,0.065714605,-0.02207705,-0.11094906,-0.20744507,0.16669849,-0.29555687,0.40247557,0.25631726,0.58835596,0.063951015,-0.087248005,-0.48048085,-0.6497053,0.3466281,0.25498462,0.21324795,-0.38062063,-0.25859618,-0.25598115,-0.29482076,-0.24472359,-0.15507904,-0.10422034,-0.43788555,0.1964108,0.39468163,0.21060835
fansipan,0.2833938,-0.16252743,0.13644475,-0.03696632,-0.27219787,0.5997275,0.09879425,-0.24976155,-0.0050921794,0.2573399,-0.236181,0.22342695,0.3202456,-0.060460024,-0.7279911,-0.3302595,-0.06562331,0.5777599,-0.22221926,0.11610402,0.46738347,-0.6809646,-0.544874,-0.6948618,0.5139247,-0.25997,0.08830119,-0.4174196,-0.1847844,0.08812928,0.17493547,0.110963345,-0.11380955,-0.40303373,-0.05193195,0.16476652,0.2310415,-0.15376018,-0.3246637,0.35478216,-0.14879116,-0.124592066,0.20738901,0.32360515,0.48366693,0.45470732,-0.16740645,0.2044945,-0.25206336,-0.08703225,0.68676114,0.65330535,0.26388663,0.059088506,-0.14031298,0.01298642,0.066763304,0.18374124,0.35032928,0.031260036,0.116152346,-0.003837845,-0.23206557,0.026489181
có thể,0.13571079,0.18796785,0.05933728,0.12826458,-0.10787214,-0.27722576,-0.10247919,-0.18078297,0.085567206,0.23943675,-0.41094175,-0.22559543,-0.22086775,-0.88022184,0.19191474,-0.0033547396,0.14364241,0.58955276,-0.30933058,-0.09328777,-0.20990792,-0.34018552,0.1452298,-0.2848278,-0.20105611,-0.48245713,-0.13543218,0.016624315,-0.41221952,0.22937652,0.25054994,-0.22967523,-0.100872666,0.19146127,0.17162953,0.06762194,0.40629405,-0.14110132,-0.32151285,0.04500239,-0.11685441,0.047842693,0.05052051,0.41317338,-0.33290425,0.54958767,-0.03621122,-0.2864816,-0.67822075,-0.31253228,0.0399345,0.24987847,-0.16688956,-0.49849257,0.00046452528,0.054432154,0.32213917,-0.31331974,-0.0708001,0.23748226,-0.17553286,0.10673143,0.22180125,0.5018466
ấy,-0.50089735,0.044050816,0.30445442,0.051448304,-0.13761626,0.062067464,0.12149922,-0.32045192,-0.33981737,0.17553465,-0.54155797,0.08960248,-0.30318886,-0.9037924,-0.5409708,-0.4305802,-0.2955623,1.1098354,-0.4764897,0.18131213,-0.28550202,0.22228253,-0.26394597,0.027692908,-0.16505204,-0.4339047,-0.59538376,-0.06203283,-0.5955114,0.51371306,-0.12219967,-0.67023796,-0.10489277,-0.19901057,-0.12686127,0.079168566,0.43325183,-0.20688273,-0.025483835,-0.07509875,-0.52550274,0.36480838,-0.32472023,-0.008552005,0.57056946,0.3420932,0.40916544,-0.3582493,0.20532572,-0.6561928,0.23004383,0.30716932,-0.9992777,0.88281,-0.4097739,0.3688964,0.4195672,-0.55010235,0.12305797,-0.16338043,-0.7483445,-0.7096356,0.09182065,0.56122327
khí hậu,-0.38529724,-0.16422808,0.26185542,0.30437118,0.088990256,-0.043492436,-0.12734275,0.2749825,-0.2999028,0.39187342,-0.18778087,-0.11170673,-0.061874036,-0.45697954,-0.091857746,-0.2821234,-0.45321146,0.5738654,-0.16171186,0.11758875,-0.08498972,0.0436546,-0.33559972,0.31305975,0.079044,0.081220046,-0.35422722,-0.05198383,0.013656376,0.14333454,-0.22967885,-0.47634313,0.16469958,-0.040299483,0.04752067,-0.23543358,0.31980398,-0.26493344,0.41968924,-0.26757342,-0.4453863,0.1239121,-0.4816547,-0.083406635,0.2920986,0.48567998,0.1687179,-0.39571208,0.35627452,-0.6362003,0.3326666,0.0916015,-0.7242786,0.51564795,-0.69319326,0.073164225,0.20121679,-0.59232444,0.0015095632,-0.4820212,-0.5043029,-0.44625407,0.24965118,0.3870588
suối,-0.09650446,-0.067894906,0.80717313,0.38085267,0.0373294,0.024316015,-0.114529364,-0.08162172,-0.7580196,0.400397,-0.12611397,-0.28385842,-0.114041984,-0.3212319,-0.18278694,-0.06389852,-0.8994767,0.645045,0.015484488,0.1179196,-0.16350906,0.2081289,-0.72529083,-0.034834206,-0.031348247,-0.09162645,-0.12657782,0.030834775,-0.3648054,-0.0021385208,-0.1780609,-0.27627477,0.20654869,-0.08976909,-0.028572373,-0.24424282,0.34822443,-0.56726134,0.2731708,-0.50466806,-0.015262906,0.022506861,-0.25612676,0.071256846,0.1226465,0.39709347,-0.00087745156,-0.6618951,0.5360469,-0.9028194,0.39069614,0.1904887,-0.3863571,0.10753251,-0.6718906,0.15655544,0.19937666,-0.572622,0.08131103,-0.41669762,-0.12998809,-0.17923714,0.17198701,0.055433773
vượt,-0.0013046324,-0.12268942,1.3002632,0.25165895,0.15488714,0.248811,-0.24674019,-0.32951045,-1.0163835,0.28557912,-0.4605153,-0.4688317,-0.37919256,0.005161355,-0.24918677,-0.1655201,-0.96008795,0.812432,-0.17316687,0.1090728,-0.028832695,0.079403736,-0.99900323,-0.5184892,0.25919303,-0.23858632,0.15220131,0.19314681,-0.597599,0.13467598,-0.28790182,-0.13887474,0.3104089,-0.044007048,-0.100561306,-0.2954035,0.3881132,-0.52704906,0.037717618,-0.87169385,-0.027082847,0.025407994,-0.020994645,0.479807,0.33413848,0.41856965,-0.075383976,-0.863157,0.32426488,-1.0842015,0.46000794,0.25462133,-0.13806036,-0.48003373,-0.7337407,-0.1366885,-0.37483087,-0.32245716,0.08376245,-0.37420005,-0.15239516,0.26153874,0.16115928,-0.30888274
với,0.118083,-0.12596513,0.034899898,-0.019105481,0.055119846,0.1949309,0.041328803,0.21398176,0.18816498,0.009516693,0.04827452,0.12636575,-0.1912113,-0.12902558,-0.15013471,-0.5667103,0.023379194,0.47463128,-0.46533063,-0.0027444926,0.49111658,-0.3499439,-0.10830701,-0.29538104,0.30196866,-0.34485498,-0.20042853,0.48223463,0.18684672,0.15501398,0.5022805,0.012011962,0.038478926,-0.363364,0.311362,-0.28349295,-0.13720122,0.02566295,-0.448626,-0.12622327,-0.1723087,-0.1415525,-0.20420903,0.68119174,-0.009966229,0.38375565,-0.16369277,-0.4297666,-0.8053559,-0.7141643,0.09846993,0.20493543,0.052536473,-0.09113718,-0.4224648,-0.41320848,0.1106348,-0.00860978,-0.09249743,-0.7134141,-0.34966528,0.35987124,0.30051655,0.6820118
nóc,-0.15098129,-0.2740022,0.4021973,-0.18125553,-0.16205108,0.5253167,0.1829102,-0.33833277,0.050131418,-0.26632923,-0.5049715,-0.2535555,0.12354979,-0.26511848,-0.49364907,-0.32839316,0.030974256,0.82425654,-0.2760748,0.35678604,0.5243615,-0.6851773,0.22020358,-0.25496465,0.15083039,-0.16190664,0.14574668,-0.15286179,-0.32266387,0.5664474,0.026503978,0.043564677,-0.77209234,-0.033331197,-0.17793614,-0.011657309,0.0030929705,0.26481926,-0.17388979,-0.13200659,-0.048810467,-0.44980943,-0.15656662,0.4507607,0.05181646,0.1126656,-0.21880376,-0.77675,-0.44321203,-0.25508922,-0.20099345,0.021387914,-0.42205837,-0.19648732,-0.7945584,-0.1007931,0.522973,0.5217454,0.12485329,-0.400769,0.01438162,0.25084203,-0.23036091,0.703009
đến,-0.021510176,-0.14632022,1.271828,0.15530258,0.21584828,0.3614183,-0.30416423,-0.25991127,-0.906608,0.24225017,-0.55763,-0.42947605,-0.48487002,0.17771743,-0.19616655,-0.30213368,-0.76586163,0.78659564,-0.3130953,0.11210923,0.15431121,-0.05634308,-0.9702103,-0.64675665,0.4739162,-0.29975697,0.23282638,0.2847433,-0.50018,0.22117196,-0.35586447,-0.054126654,0.41944626,-0.064652964,-0.09023665,-0.3374145,0.2789181,-0.44286302,-0.027324071,-0.94047403,-0.07579311,0.114651196,0.009689062,0.56401706,0.5176662,0.45282963,-0.08744757,-0.8187586,0.16396542,-1.0537716,0.45495817,0.31037015,0.017812563,-0.6230435,-0.71732813,-0.31708476,-0.64192426,-0.18586084,0.0195796,-0.35107946,-0.3095722,0.47187838,0.25055277,-0.4018677
đường,0.17361107,0.026896505,0.62526923,-0.263926,0.01920102,0.7748884,0.13848011,-0.42726558,-0.13321933,-0.021404767,-0.58403087,-0.51265484,0.34073794,0.09323489,-0.6099213,-0.19183242,-0.38901973,0.50607806,0.19009657,0.43088618,0.5086371,-0.5966828,0.07892571,-0.47479314,0.21044004,-0.4636698,0.018680837,-0.66085553,-0.6374426,0.7895216,0.0064860163,-0.07556961,-0.323609,-0.35710198,-0.32246864,0.16976528,0.049530856,0.046801407,-0.025511917,0.09372758,-0.03095938,-0.288383,-0.21371308,0.42601132,0.49317524,0.16805588,-0.20877019,-0.5510262,0.13467444,-0.26475748,0.26802465,0.5834899,-0.3197245,-0.3507417,-0.6897901,0.25086093,0.83856946,0.26851317,0.2887778,-0.101764835,0.17349419,0.1311825,-0.43208048,0.6155576
đầy,0.09373732,-0.12656622,0.12285353,-0.18120457,0.19734377,-0.019394547,-0.5069628,0.40200803,-0.08096779,0.243387,-0.554439,-0.40089542,-0.016562888,-0.34204105,0.4781776,0.06525906,-0.07879616,0.47813386,-0.18463326,0.14121096,-0.018181,-0.4225216,0.17059314,0.042391945,-0.03210616,-0.109471455,-0.27853528,-0.3430053,0.008382173,0.25656775,-0.48533434,-0.35945362,0.32969788,0.33004084,0.22048959,0.011502001,0.57040244,0.013179213,0.31093013,0.1542642,-0.39155054,0.02180785,-0.57446826,0.11206858,0.024144122,0.60863787,0.20466419,-0.2295504,-0.30876637,-0.50511247,0.37071887,0.23813331,-0.35582006,-0.4918414,-0.40676478,0.08132415,0.06181231,-0.41147912,-0.0687435,0.18847996,-0.34232113,-0.16106752,0.2234033,0.5161341
làm nên,-0.38014314,0.12926675,0.23729873,-0.053212985,-0.17548262,0.06317562,0.120366015,-0.40012503,-0.22933099,0.07864129,-0.48751682,0.17374569,-0.35500726,-0.9292212,-0.57295966,-0.36726394,-0.080772646,1.1438315,-0.5762362,0.19625662,-0.3335172,0.2125864,-0.14584747,-0.109905064,-0.1916384,-0.607999,-0.5888615,0.09683141,-0.642049,0.43902022,-0.086960025,-0.59748393,-0.14351143,-0.20844139,-0.12211867,0.14127854,0.38825577,-0.18171524,-0.20195447,0.10670017,-0.40439966,0.4429826,-0.28122094,-0.026654793,0.5148414,0.3337341,0.37348628,-0.22565103,-0.00519899,-0.6260074,0.1716903,0.3156042,-0.87591887,0.8333345,-0.2319192,0.35915628,0.47969273,-0.43716735,0.06520584,0.010273699,-0.762186,-0.66177547,0.09714661,0.6208011
nơi,0.54109466,0.26615512,0.48623216,-0.47544026,-0.15592726,0.34189364,0.13451736,-0.39935926,-0.31933752,0.029029462,-0.08448354,-0.28268293,0.22965719,-0.19018252,-0.56298494,-0.10947837,-0.111297525,0.54991555,-0.15572228,0.17136636,0.50075066,-0.6304588,0.11665599,-0.35199353,-0.046820935,-0.6991856,-0.035043117,-0.006734302,-0.49187312,0.040431146,0.07170743,0.07686548,0.048361644,-0.31057823,0.13976811,-0.20574999,0.42077392,-0.22489005,-0.39680606,0.44223362,0.5098487,0.09777157,-0.7650863,-0.35367763,0.48309642,0.14558846,-0.3686943,-0.22994171,0.19475114,-0.623564,-0.012342819,0.6258678,0.030417884,0.10086631,-0.37137616,0.4257365,0.99383545,0.3484675,-0.114156306,-0.15361333,0.025282752,0.10662237,-0.135593,0.50097436
giống,0.2286633,-0.046410255,0.4708099,-0.1977206,-0.058250185,0.8695812,0.046274345,-0.29886356,-0.1405389,0.2614498,-0.45505464,-0.25111866,0.3590471,0.2971178,-0.8064498,-0.3042776,-0.39461303,0.4500944,0.06756284,0.3345538,0.49680135,-0.57463825,-0.37687224,-0.7922728,0.5768463,-0.36507586,-0.03057439,-0.8066243,-0.54085624,0.5846411,0.083004735,-0.011177322,-0.08431241,-0.5283557,-0.21039662,0.26059365,0.016515432,-0.088487215,-0.07833884,0.21697323,-0.32271862,-0.18494143,0.17023376,0.64475936,0.68018246,0.41460443,-0.138059,-0.056463376,0.025124583,-0.1332902,0.8324375,0.850051,0.03296632,-0.23972736,-0.3686493,0.09790213,0.3495111,0.062088057,0.488022,0.10979201,0.13796361,0.004293014,-0.44463965,0.29329503
việt,0.18391047,0.050242383,0.5844005,-0.20787692,-0.015018168,0.79436517,0.0640504,-0.3925749,-0.14903747,0.16474277,-0.5574768,-0.40515515,0.34258118,0.23336221,-0.70673007,-0.21687214,-0.4708988,0.4605617,0.19295825,0.42923,0.46318215,-0.5629009,-0.1056777,-0.5510957,0.3624076,-0.47894865,-0.0011917693,-0.7538876,-0.59930986,0.6508129,0.010761092,-0.06614813,-0.20942563,-0.50299984,-0.29270518,0.29264316,-0.034631494,0.006007224,0.037688132,0.13447937,-0.15121657,-0.22425762,0.006385075,0.53362966,0.60967755,0.30026683,-0.1835943,-0.28640616,0.15160125,-0.09193785,0.5822665,0.67206657,-0.11245014,-0.32117352,-0.54015064,0.15840606,0.642745,0.06921413,0.33335996,0.04932001,0.15613082,0.015943805,-0.43281752,0.4641964
lạc sát,0.08101533,-0.031024482,0.70679784,-0.3204054,0.011737696,0.73535514,0.14878267,-0.4391213,-0.13927524,-0.113437854,-0.57866436,-0.50281394,0.26328444,0.057352014,-0.6112286,-0.23043825,-0.36768457,0.6091792,0.08551824,0.48326853,0.57938546,-0.6315111,0.15280536,-0.36927056,0.16252851,-0.41704026,0.09142945,-0.5287192,-0.55585694,0.77735144,-0.023997618,-0.016790021,-0.49673778,-0.27294132,-0.32358336,0.1206684,0.012118941,0.16654852,-0.017274654,-0.05070559,0.04273277,-0.34176642,-0.22552803,0.421382,0.40954685,0.105504066,-0.22791618,-0.73482585,0.04212946,-0.29171726,0.073430195,0.40214768,-0.33322558,-0.30550706,-0.8247009,0.16770548,0.7916696,0.4293867,0.18995489,-0.20562024,0.16773443,0.2003483,-0.42511284,0.6632119
lại,-0.4617841,0.12140593,0.25651455,-0.043950442,-0.14899686,0.10644226,0.13134405,-0.39203012,-0.23680457,0.07738322,-0.5641009,0.09056389,-0.31680974,-0.9530333,-0.60052353,-0.43620503,-0.15076494,1.1347601,-0.54665375,0.23370439,-0.31477132,0.21437123,-0.17222267,-0.08022277,-0.21247597,-0.57911414,-0.64522964,0.015424509,-0.67997485,0.6189308,-0.11667071,-0.6737516,-0.11276216,-0.2432703,-0.13879941,0.115181096,0.39891353,-0.22768807,-0.17540279,0.009993296,-0.4764438,0.42234513,-0.36177483,-0.020135544,0.6084992,0.31633088,0.35878453,-0.30948976,0.08951073,-0.6437058,0.19133878,0.3868514,-1.0108008,0.87307966,-0.31142926,0.35583743,0.54329014,-0.4737366,0.09942607,-0.088859886,-0.8209958,-0.6692142,0.112401165,0.6621161
sức,-0.38034284,0.062049817,0.2502463,-0.089618,-0.15370214,0.008603377,0.04249813,-0.33284366,-0.30191493,0.15956326,-0.44864985,0.14980079,-0.32833105,-0.9776728,-0.464758,-0.29896232,-0.10395367,1.1774026,-0.6344108,0.2274447,-0.31992742,0.17639336,-0.16047624,-0.006784876,-0.19995512,-0.57715714,-0.57240546,0.039764035,-0.6275687,0.3493854,-0.15500411,-0.5975442,-0.13055794,-0.13171668,-0.030832827,0.18097843,0.4504839,-0.1920284,-0.119009644,0.1281243,-0.43757173,0.4269949,-0.32967275,-0.039103683,0.43745917,0.4372803,0.40480196,-0.18904673,-0.042322893,-0.6601208,0.24173415,0.2627992,-0.8601343,0.8011178,-0.2540096,0.39167517,0.42127338,-0.54684746,0.03767452,0.08148757,-0.75406027,-0.7371435,0.14162052,0.67922956
nhìn,0.3425431,0.19086246,0.054955862,0.12546566,0.036578547,0.0054601254,-0.2743485,0.0467513,0.28606594,0.25457034,-0.73322326,-0.6737335,0.026761685,-0.6447152,0.36596042,-0.0076787537,-0.05406569,0.3254359,0.0049429885,0.108424686,-0.09716624,-0.54283166,0.21599557,-0.13606706,-0.24622256,-0.29435134,-0.21129946,-0.15374279,-0.25901937,0.7014261,-0.026132133,-0.5622458,0.15616934,0.26982486,0.050474264,-0.18246979,0.5231624,-0.26110744,0.055412788,0.0027534694,-0.27464893,-0.22797896,-0.44796383,0.41062963,-0.21305384,0.5530019,-0.10323611,-0.67377347,-0.41069153,-0.28679127,0.17508528,0.52116036,-0.6255473,-0.94344115,-0.3296707,0.059074715,0.56771463,-0.28411552,-0.012638452,-0.10029554,-0.25011137,0.26011023,0.2623807,0.6600707
biên cương,-0.1615354,-0.283168,0.5981525,-0.27087435,-0.08522935,0.6710914,0.19862802,-0.34052074,-0.0343427,-0.29675692,-0.5101679,-0.30488288,0.056068894,0.023778029,-0.5713662,-0.41031802,-0.22429092,0.8079684,-0.17746188,0.4167685,0.7054764,-0.5911164,0.14511774,-0.30670506,0.257599,-0.27509776,0.16445805,-0.17622183,-0.33643365,0.63659155,0.019569485,0.10433193,-0.7506188,-0.23837093,-0.18998365,0.018018402,-0.13773511,0.32019576,-0.11834435,-0.22016236,-0.014567756,-0.44225085,-0.15206635,0.54515827,0.26521742,0.090905055,-0.23170345,-0.87331104,-0.34928045,-0.3450714,-0.1610379,0.084254764,-0.31730044,-0.20540749,-0.9295721,-0.100051194,0.46311754,0.52747303,0.08821033,-0.45588312,0.03791015,0.29602575,-0.288127,0.69296765
vì,-0.079169616,-0.187304,0.6194556,-0.33999225,-0.04659701,0.70865047,0.1801147,-0.42581788,-0.108696416,-0.23425914,-0.615349,-0.48813215,0.23942252,-0.059810236,-0.5544079,-0.22967446,-0.23386964,0.74613726,-0.03856722,0.49028212,0.5688815,-0.66834575,0.24720986,-0.28691366,0.15216969,-0.27687413,0.09701779,-0.43838826,-0.5178082,0.73149234,-0.09036604,-0.02449583,-0.6236698,-0.16895571,-0.27746668,0.016464654,0.033987753,0.21017039,-0.0016250798,-0.1064276,-0.003798558,-0.40660745,-0.32463092,0.36457148,0.30703115,0.09294521,-0.26386207,-0.85096693,-0.06793702,-0.35413525,-0.08933429,0.23559174,-0.47467268,-0.26259556,-0.94902647,0.077197604,0.74915624,0.47398838,0.21900566,-0.3304324,0.10350504,0.17838822,-0.38920408,0.7343305
thảm thực vật,0.18435274,-0.116224214,0.55844027,0.34010056,-0.0903483,-0.23819736,0.04082221,-0.2958576,-0.65627795,0.5619783,0.12172574,-0.045834843,-0.18661603,-0.65094507,-0.1975367,0.2999155,-0.6270349,0.85494304,-0.30849046,0.22562456,-0.11559615,0.14012824,-0.5345832,0.16654788,-0.06401359,-0.30847678,-0.06447919,0.12488374,-0.5283987,-0.57820714,-0.03409176,-0.03709535,-0.3218031,0.24105808,0.29569125,0.13348584,0.6796054,-0.5219843,0.15584078,0.020883022,-0.0576236,0.023628594,-0.009486555,-0.05989623,-0.31936568,0.6059802,-0.057857223,-0.47039738,-0.09974338,-0.6842387,0.59118193,0.13792433,-0.30190617,0.011457073,-0.36628282,0.23604032,0.0940975,-0.7879234,0.14321138,0.0012553339,0.026836557,-0.250919,0.011048661,0.35521808
dốc,-0.1658991,-0.19119102,0.3785234,0.3647872,0.02128137,-0.07295009,-0.06890052,0.20592444,-0.42769724,0.5012764,-0.04215098,-0.12926881,0.005260961,-0.4255326,-0.08785041,-0.124746874,-0.5823281,0.5856423,-0.02479577,0.15112193,-0.09596692,0.07101275,-0.45741302,0.27753296,0.034509663,0.065370955,-0.22737406,-0.030951124,-0.062119566,-0.08978339,-0.22654743,-0.38027257,0.07477758,-0.027795725,0.07145567,-0.2576906,0.3349406,-0.37582687,0.43887067,-0.2940962,-0.26974532,0.01655178,-0.34948874,-0.07916657,0.103513114,0.5090398,0.038302287,-0.47353318,0.31639147,-0.6439455,0.4537276,0.14549173,-0.5715627,0.3153157,-0.6651902,0.11183641,0.25670782,-0.643272,0.03521896,-0.40103412,-0.25072765,-0.33225927,0.15534413,0.31273603
mình,0.09424829,-0.33098418,0.39441848,0.034776926,-0.30614284,0.11311985,-0.257954,0.037431125,-0.13920446,0.49165097,-0.48499233,0.122220844,-0.23368818,-0.2308654,-0.46144903,-0.1925858,-0.25348285,0.9801742,-0.67014635,0.039322186,0.27324942,-0.58036035,-0.4347279,-0.0007417978,0.40753734,-0.09310998,0.25510958,0.04385913,-0.03114969,-0.4963809,-0.30187097,0.17942357,-0.34622687,0.056035776,0.30235898,0.043648366,0.5967856,-0.1493683,0.04250153,0.03577157,-0.4189196,0.01928936,0.06779833,0.14515123,0.0019820724,0.73417634,0.09409574,-0.106414974,-0.6481646,-0.07128773,0.65931296,0.13278455,0.14335999,-0.11347899,-0.22815141,-0.117824346,-0.6322155,-0.32847297,-0.26257402,0.26116836,-0.11899773,-0.11311733,0.12515728,0.03226313
năm,-0.0952926,-0.13464312,1.1225656,0.21792586,0.16596915,0.23610213,-0.22573088,-0.24260685,-0.8601116,0.28845978,-0.5014297,-0.35420588,-0.35792267,0.053274114,-0.23693861,-0.20868717,-0.8136161,0.7584714,-0.2014241,0.12225585,0.035792775,0.08248192,-0.94155174,-0.4426182,0.34285614,-0.1955299,0.13727959,0.19689469,-0.46543753,0.13477221,-0.36009914,-0.17604108,0.30510265,-0.013424564,-0.111483686,-0.2763568,0.36459592,-0.44186416,0.089544214,-0.8112086,-0.124455795,0.104140505,-0.012809268,0.3507211,0.44835147,0.41107118,-0.008129137,-0.75616646,0.26636568,-0.93950576,0.44763908,0.21732011,-0.16309744,-0.39829966,-0.664228,-0.16738991,-0.4868789,-0.33101857,0.024472075,-0.30792093,-0.27054253,0.23382013,0.1916349,-0.33491626
qua,-0.1180049,-0.15883301,1.0732428,0.40468952,0.11732977,0.17286229,-0.23058794,-0.120000064,-0.86597013,0.3850465,-0.3870349,-0.35565966,-0.26861912,-0.14368369,-0.2155458,-0.13338414,-0.96506774,0.7294786,-0.054968275,0.07849723,-0.12811537,0.16535126,-0.91048056,-0.21944188,0.14172645,-0.023018805,0.035325136,0.033145934,-0.38741463,0.10445899,-0.29085168,-0.23019812,0.24009706,-0.071605615,-0.14906478,-0.2806736,0.34346136,-0.5132147,0.2945751,-0.7665833,-0.13329175,0.0017733054,-0.11251777,0.3269413,0.26897722,0.43909302,0.037279118,-0.7586948,0.4848008,-0.9118768,0.5194104,0.1548245,-0.35004386,-0.118399635,-0.75785905,-0.030059718,-0.18107495,-0.4959794,0.10732671,-0.4255552,-0.17187998,0.024225162,0.13494566,-0.19926922
nhiều,-0.08686392,-0.063199975,1.1232213,0.3637408,0.14733724,0.084936,-0.21145158,-0.20337506,-0.9910842,0.40368354,-0.3275877,-0.3930299,-0.3331648,-0.23187956,-0.11152771,-0.05949565,-1.0390037,0.76362866,-0.04639743,0.09427303,-0.14713934,0.28469452,-0.9104497,-0.26079518,0.056082528,-0.21180812,0.00078003155,0.08125201,-0.56794673,0.064428486,-0.2128926,-0.25037298,0.24962908,-0.038697835,-0.10859742,-0.24090852,0.36765635,-0.5743115,0.19841136,-0.790815,-0.040422246,0.072570555,-0.058651406,0.32312164,0.17008781,0.47918168,0.013545013,-0.8184046,0.434944,-1.101504,0.4360465,0.20223035,-0.29459816,-0.21658835,-0.7363585,0.070545696,-0.09234398,-0.5935771,0.10983001,-0.3382178,-0.16529673,0.058829088,0.16627565,-0.102319725
ví như,-0.08597405,-0.40803623,0.29093155,-0.25814986,-0.1287109,0.6067134,0.18192904,-0.18739288,0.037473004,-0.25169215,-0.5315732,-0.16961509,0.16463473,-0.110726826,-0.5141358,-0.26544195,0.11444525,0.8673402,-0.34333998,0.27867654,0.5821415,-0.7135114,0.1343436,-0.28140604,0.24140993,-0.011835972,0.20433764,-0.17447579,-0.23327036,0.46262306,-0.11998379,0.14245306,-0.6883554,0.016355135,-0.105648145,-0.13561031,0.10555028,0.22842978,-0.17069483,-0.01568653,-0.18155451,-0.4767352,-0.20744222,0.35251877,0.09607557,0.13528907,-0.18646958,-0.60612106,-0.4947602,-0.31219533,-0.11823267,0.07421595,-0.31140804,-0.17253833,-0.7698093,-0.16540124,0.2991916,0.59178275,0.16810687,-0.37651664,0.047602586,0.27004328,-0.30340454,0.59448665
không,0.35094738,-0.040602148,0.41214663,-0.22915548,-0.10917936,0.6690715,0.033398695,-0.294195,-0.07837531,0.2126024,-0.36535293,-0.047967404,0.4013483,0.1471172,-0.673336,-0.26245686,-0.2395757,0.41985562,0.08150352,0.24612412,0.51552004,-0.65067226,-0.28834957,-0.645206,0.40371242,-0.41105887,0.010799496,-0.661287,-0.38366154,0.36376673,0.019466143,-0.0019049369,-0.052724835,-0.42795843,-0.15079054,0.23336014,0.17490737,-0.081214584,-0.12729672,0.40346768,-0.0715675,-0.12285662,-0.0032654228,0.3577502,0.60409874,0.308266,-0.1773372,0.03490277,0.022152396,-0.116218835,0.6762136,0.7106986,0.07004764,-0.14307809,-0.31180993,0.19598421,0.47242188,0.14345865,0.3621743,0.12603115,0.18192255,-0.06315549,-0.31848612,0.2809287
hấp dẫn,-0.1982067,0.22124796,0.11673219,-0.049127422,-0.20677686,-0.04118106,0.0806639,-0.40503353,-0.12459991,0.049473815,-0.3440637,0.13177341,-0.34723085,-0.9774611,-0.39477775,-0.2475705,0.07790752,0.98267645,-0.5777154,0.14990638,-0.32844254,0.11687905,-0.008185119,-0.13295141,-0.20720786,-0.6556907,-0.52659523,0.2151032,-0.6059629,0.3465617,-0.0097349025,-0.495115,-0.09773129,-0.11517516,-0.009147087,0.14112853,0.32324862,-0.1812784,-0.30362326,0.15000717,-0.29033154,0.40019852,-0.1846509,0.014545081,0.31711465,0.33451396,0.25284314,-0.15554018,-0.21414694,-0.53481674,0.10245303,0.30830273,-0.66431475,0.53936267,-0.032079473,0.28133965,0.49107704,-0.37479115,0.012924776,0.12245307,-0.6784091,-0.4947353,0.1521255,0.6136074
dưới,0.082735516,-0.27558118,0.3381464,0.0025907396,-0.33392796,0.18235268,-0.32264477,0.032594327,-0.13647315,0.505179,-0.4666865,0.07106222,-0.19193164,-0.16521282,-0.53664964,-0.2915933,-0.19521517,0.9194756,-0.62190855,-0.034855776,0.3436509,-0.64054257,-0.38281983,-0.16828886,0.46436632,-0.16971147,0.19641685,-0.1120756,-0.15226959,-0.45904157,-0.23812637,0.22865556,-0.23363627,-0.08299154,0.33617368,0.025721962,0.51919013,-0.179646,-0.07012142,0.083582915,-0.4473956,0.074492745,0.17225333,0.26811296,0.10174696,0.7787815,0.014122346,0.052463498,-0.6795774,-0.0050691986,0.6917624,0.24424765,0.26931006,-0.15062279,-0.13718824,-0.1135864,-0.5806137,-0.24858278,-0.2446751,0.35435858,-0.0665983,-0.09737935,0.10865819,-0.022527805
chính,-0.5355718,-0.122031815,0.28158084,0.16255176,-0.012306663,0.13446505,0.068238325,-0.006883081,-0.31748253,0.28262895,-0.4626168,-0.06918313,-0.078664176,-0.6224045,-0.44982982,-0.47379565,-0.45371386,0.8776673,-0.26869726,0.21385732,-0.12931386,0.16568185,-0.34134313,0.1849705,-0.06339653,-0.08788027,-0.5116776,-0.193041,-0.32174554,0.4967274,-0.17447817,-0.68091524,0.0042361277,-0.1874943,-0.15642036,-0.121455535,0.35685828,-0.22565652,0.27048936,-0.2325696,-0.5538919,0.18026033,-0.5061185,-0.077181205,0.5588034,0.35257253,0.30906737,-0.47063288,0.45270988,-0.63444215,0.30057177,0.2625171,-1.0498114,0.8225392,-0.7083411,0.25782847,0.39370787,-0.52770174,0.12160716,-0.49525043,-0.6552375,-0.58152086,0.12725648,0.47374502
so,0.045936607,-0.16913502,0.18104324,-0.16421346,0.03991225,0.21243785,-0.025898209,0.2609042,0.14225976,0.00031929614,-0.02638014,0.123623505,-0.39471316,-0.018212428,-0.15132217,-0.7856122,-0.12946327,0.6068585,-0.59339774,0.014123794,0.59661114,-0.37276363,-0.17028807,-0.326943,0.398993,-0.41884872,-0.15915142,0.504691,0.2545163,0.08186817,0.51834154,0.025727233,0.027111767,-0.4916698,0.41409552,-0.24915542,-0.16378957,0.1927158,-0.42740312,-0.2585331,-0.2587214,-0.12255386,-0.08635689,0.8562178,0.018187495,0.53178394,-0.09279589,-0.5568281,-1.0204606,-0.7839597,0.08755045,0.18762815,0.13467343,-0.10742935,-0.53723353,-0.510218,-0.15202694,-0.10354413,-0.15430413,-0.7001044,-0.47339687,0.3306573,0.3798022,0.68366426
con,-0.011854446,-0.09458472,1.0481542,0.46495944,0.054747835,0.05718856,-0.15799502,-0.20335568,-0.9123573,0.46619922,-0.2414912,-0.36592513,-0.24129008,-0.32330945,-0.14357133,0.03941892,-1.0651343,0.7562792,0.03291109,0.094932586,-0.186164,0.24239098,-0.8853374,-0.18054429,-0.026409246,-0.15576498,0.0070653562,0.045248754,-0.55060184,-0.045331404,-0.17904153,-0.20878349,0.086457826,0.029192533,-0.07349277,-0.20960657,0.43110073,-0.6362413,0.24999106,-0.65932286,-0.06322373,-0.080895,-0.048088647,0.2621139,-0.018831424,0.5126152,-0.05475599,-0.8450023,0.43443343,-0.9957496,0.48494104,0.21851029,-0.35543174,-0.201848,-0.7303597,0.08426228,0.02052049,-0.6415593,0.1675636,-0.35550487,-0.04053405,0.006374229,0.07040157,-0.012614659
đặc biệt,-0.18072663,0.1283791,0.22940698,-0.05636818,-0.21646412,-0.12475099,0.0020555004,-0.38927898,-0.28056505,0.1293363,-0.26412824,0.22877847,-0.33947623,-0.9832357,-0.34844354,-0.14213008,-0.0025676973,1.0758194,-0.5993486,0.11231842,-0.32326728,0.12561348,-0.114199616,-0.06434584,-0.20654203,-0.63047373,-0.41430795,0.14390749,-0.61460656,0.07817447,-0.09100752,-0.3863489,-0.13145018,-0.054657165,0.061693996,0.25562567,0.4281806,-0.15852112,-0.24491104,0.20467629,-0.23550808,0.41173613,-0.109140836,-0.035254836,0.19093464,0.41352654,0.29874137,-0.081194185,-0.26969266,-0.5554226,0.2218287,0.20583111,-0.4997581,0.5955964,-0.01695859,0.3546369,0.38253328,-0.49726072,0.013404965,0.27675393,-0.57554597,-0.58601344,0.12876032,0.5741204
thử thách,0.15234503,-0.08554332,0.084816106,-0.21206462,0.27267635,0.011320614,-0.51254755,0.47132015,-0.06987484,0.19164185,-0.43711022,-0.30500197,-0.08404472,-0.18451653,0.56513906,-0.047729403,0.03780407,0.3764085,-0.273383,0.08844084,0.081849165,-0.46352914,0.12451524,-0.07845182,0.12198157,-0.17656922,-0.30688095,-0.22601062,0.13223998,0.2283356,-0.3731126,-0.2803676,0.53266984,0.20606358,0.33241665,-0.03308178,0.43567532,0.04739931,0.15514119,0.12033447,-0.3042874,0.15045671,-0.62593406,0.18353997,0.13613291,0.60284907,0.22229257,-0.07464176,-0.36656362,-0.64775395,0.30981803,0.25521904,-0.087710194,-0.44392186,-0.35648602,-0.014780352,-0.025739098,-0.32815605,-0.10040321,0.11087298,-0.4242896,-0.03215094,0.34577134,0.42767316
bản làng,0.23921828,-0.24630828,0.35154122,0.31243986,-0.2562908,-0.12770624,0.10067968,-0.19693598,-0.32113662,0.5855019,0.14291285,0.23860303,-0.054793797,-0.6223802,-0.3641757,0.09205865,-0.36281678,0.8510488,-0.4516283,0.19243236,0.10356404,-0.19988394,-0.45625278,0.24016026,0.12133091,-0.23523685,0.019437458,0.20133469,-0.18604207,-0.68702966,-0.01031565,0.035177007,-0.41558006,0.12138896,0.30609024,0.18629338,0.6144128,-0.37730652,0.08090125,0.18525107,-0.10030905,0.026770007,-0.081345156,-0.119015485,-0.24676572,0.56269765,-0.074269354,-0.2538371,-0.40072432,-0.38066664,0.6316441,0.12140933,-0.19098914,0.22859812,-0.2661097,0.16199896,0.04098349,-0.59360206,-0.030342748,0.0058096335,-0.006515887,-0.23949848,0.15520442,0.39504236
ngày,-0.015999695,-0.14022586,1.2532445,0.22397768,0.14806028,0.2747192,-0.2629948,-0.30197373,-0.95007646,0.24904436,-0.48999035,-0.4491339,-0.38902026,0.066302635,-0.25083408,-0.2060802,-0.9278207,0.7718758,-0.1607751,0.12762599,0.0158569,0.07189186,-0.97902316,-0.5062041,0.25317174,-0.2227572,0.14547439,0.195457,-0.5565741,0.18980746,-0.31110442,-0.13534972,0.32657516,-0.032012857,-0.12959257,-0.29544726,0.3472898,-0.502258,0.042754713,-0.8537894,-0.08569523,0.009411838,-0.035337787,0.4784353,0.37843388,0.40366822,-0.05990624,-0.8675625,0.32400155,-1.0533439,0.4636569,0.27525428,-0.14564623,-0.47187555,-0.70879006,-0.15867874,-0.37663978,-0.28892457,0.11452396,-0.39579165,-0.18277602,0.29145256,0.14727896,-0.30018348
mông,0.24116269,-0.32792374,0.25771144,0.25929663,-0.32941353,0.018649755,-0.13110602,-0.083413064,-0.13413684,0.55469185,-0.2385686,0.28966418,-0.059433408,-0.55836934,-0.37882483,-0.018015191,-0.187173,0.93691623,-0.59436935,0.11591983,0.20506679,-0.5280369,-0.4694061,0.13869083,0.22153476,-0.0820803,0.15896095,0.106858276,-0.06593454,-0.6264746,-0.1872553,0.084947035,-0.45760912,0.18330118,0.3193265,0.15392192,0.75825363,-0.3016299,0.04729353,0.23878321,-0.2515069,-0.025315171,0.037802614,-0.058687404,-0.14084023,0.6667195,0.0077573005,-0.103433415,-0.63954467,-0.11270837,0.70779157,0.1038911,-0.022813119,0.026390541,-0.23209888,0.036676094,-0.28240278,-0.36229172,-0.102075286,0.16198152,0.0367911,-0.18726256,0.15018737,0.19341566
42,0.7106427,0.33811846,0.31576073,-0.38071838,0.08908979,0.45333263,-0.074819624,0.007899749,-0.14669652,0.14112705,-0.31453416,-0.41746604,0.28485835,0.120126985,-0.14374009,0.011341906,-0.11926014,0.27155086,0.09265702,0.1607317,0.41909865,-0.6522061,0.15107587,-0.26908535,0.018580945,-0.57873863,-0.07269436,-0.25383148,-0.23792396,0.32150272,-0.109065436,-0.052643765,0.30446288,-0.27823007,0.06538076,-0.099520124,0.341774,-0.22372943,-0.1392008,0.53508353,0.19158138,-0.037304785,-0.8449273,-0.03869598,0.3887126,0.25827822,-0.16491489,-0.15906276,0.014702791,-0.45739833,0.22993106,0.7114182,-0.10211523,-0.39890987,-0.33944657,0.29378298,0.9106578,0.15966311,-0.15352835,-0.06518503,-0.057210222,0.22391847,-0.13263497,0.6630301
phong phú,0.1889241,-0.17009677,0.5010806,0.32924372,-0.06029875,-0.21838143,0.040169902,-0.16878411,-0.58374816,0.575615,0.20712873,0.03402431,-0.16404575,-0.4980269,-0.1880072,0.22054316,-0.5321063,0.82687193,-0.28571564,0.20585746,-0.05752553,0.09083384,-0.48012182,0.19531006,0.0448914,-0.26042113,-0.040110536,0.1765131,-0.38144538,-0.61506253,-0.050245598,-0.016572809,-0.26895142,0.19809891,0.2833526,0.11300133,0.5288702,-0.43335205,0.16605918,0.028942928,-0.053149525,0.048075788,-0.09223525,-0.047102384,-0.24613142,0.61329484,-0.08298477,-0.33076966,-0.1890972,-0.65714276,0.60271037,0.12222653,-0.23662764,0.08911611,-0.33100343,0.18323039,0.111497305,-0.72800046,0.03601259,-0.024557963,-0.057681013,-0.25737467,0.06236952,0.3656614
ra,0.33603126,0.25652587,-0.006435421,0.29040557,-0.139546,-0.09530293,-0.11034022,-0.15141696,0.41516382,0.2537127,-0.6808852,-0.5184413,-0.04820455,-0.89886117,0.14497273,-0.13229437,0.11049247,0.5001898,-0.14942472,-0.025206754,-0.09151724,-0.614756,0.12566434,-0.3191527,-0.22452062,-0.39837137,-0.09164344,0.044612072,-0.37103754,0.64407253,0.2402971,-0.45466048,-0.06107963,0.24322526,0.048855398,-0.1643551,0.503938,-0.30746552,-0.2875141,-0.054363485,-0.19603834,-0.24024533,-0.13918033,0.5463667,-0.34850243,0.52114075,-0.20218785,-0.6976762,-0.71710604,-0.18975452,0.050121468,0.5260212,-0.47639042,-0.92848146,-0.1488567,-0.057379253,0.52374196,-0.17160614,-0.08476425,-0.14264269,-0.23896728,0.4291943,0.3231928,0.6451411
liên sơn,0.3240883,0.15248297,0.034855034,0.17448772,0.08378071,0.05701271,-0.15278633,0.12623724,0.20446342,0.2901049,-0.38890654,-0.58700544,0.17487298,-0.46870816,0.2333919,0.086064026,-0.12295318,0.19191478,0.09900138,0.20087762,0.011043843,-0.4629491,0.19189481,0.15149418,-0.1192481,-0.112600625,-0.22158718,-0.1380736,-0.12202033,0.54197115,-0.11365316,-0.48535424,0.14768806,0.18548904,0.07083805,-0.16999298,0.38502386,-0.30432156,0.22085196,0.00624767,-0.187857,-0.21822953,-0.56471753,0.14269404,-0.113221526,0.44426364,-0.17169927,-0.55581546,-0.16948903,-0.2380591,0.25149038,0.47106874,-0.6249594,-0.5989366,-0.3957862,0.14456174,0.64967334,-0.2797943,-0.051608626,-0.17493626,-0.18493423,0.17485237,0.20940724,0.6477136
chủ quyền,0.7642928,0.2867205,0.15373339,-0.28217483,-0.02985478,0.52006954,0.08101241,0.03784525,-0.090348005,-0.0011009872,-0.2220377,-0.3213077,0.17102592,0.049051218,-0.4151406,-0.13538949,0.2640204,0.48616797,-0.23784572,-0.0010034441,0.5542081,-0.7740184,0.087470576,-0.45403868,0.0823739,-0.4584657,0.064309634,0.06532027,-0.15262745,0.24134912,-0.02228332,0.17275824,0.20762897,-0.18462102,0.15462148,-0.44449198,0.34833768,-0.32932124,-0.49581215,0.5542408,0.17922223,-0.097571336,-0.8901663,-0.1757451,0.4613172,0.19287968,-0.30265003,-0.11757921,-0.21206942,-0.5659789,0.017525867,0.7479854,0.099890016,-0.28132468,-0.312502,0.059971306,0.739378,0.5697846,-0.2552312,-0.35228473,-0.1360553,0.5244686,-0.10928767,0.48022673
xa,0.33686966,0.4027475,0.09190486,0.31233546,-0.08187759,-0.04854895,-0.11829873,-0.19813319,0.32611874,0.29642102,-0.7774565,-0.6237926,-0.086130574,-0.8554372,0.14153454,-0.12599446,0.028274799,0.43451637,-0.060211614,0.0008237884,-0.18260355,-0.5054898,0.16696103,-0.2865496,-0.3265346,-0.515433,-0.17790405,-0.016067212,-0.47610697,0.8177164,0.23279831,-0.5612153,0.039639086,0.17109558,-0.052957673,-0.13649695,0.49414495,-0.34749645,-0.22359633,-0.04960499,-0.1961863,-0.18378529,-0.2916728,0.49145624,-0.14558285,0.5100027,-0.16232495,-0.7296537,-0.4853256,-0.23398556,0.0668304,0.63554066,-0.6184083,-0.9343586,-0.17602043,0.04620551,0.6807234,-0.27515298,-0.11956407,-0.14002703,-0.28577662,0.39129138,0.3034113,0.63325846
kiên cường,0.44546553,0.17012478,0.49046567,-0.3453455,-0.19541407,-0.007843767,0.083134264,-0.43026388,-0.39136234,0.24713844,0.34463695,-0.24328493,0.09483595,-0.5075192,-0.46676853,-0.103012115,-0.26247588,0.5288846,-0.31670368,0.16714886,0.4652975,-0.48475578,-0.09252111,-0.29271036,0.08522992,-0.7179467,-0.17203216,0.13547331,-0.5089958,-0.35375297,0.25408074,0.06545436,0.20307298,-0.29267728,0.42357925,-0.21654886,0.50299615,-0.3792667,-0.43109298,0.27849907,0.5916583,0.2819511,-0.5315058,-0.38650572,0.31794664,0.3579627,-0.504795,-0.17213827,0.17091909,-0.79689974,0.1656622,0.5862621,0.2077311,0.2644251,-0.30740744,0.50855255,0.7789974,-0.017941233,-0.006817269,-0.107161164,0.032763258,-0.01690583,0.20596321,0.34955224
pa vệ sử,0.25489292,-0.4285,0.16969594,0.16769674,-0.3820889,0.4832431,0.18380044,-0.23798524,0.04574509,0.15406808,-0.39089835,0.5635017,0.32961598,-0.3896217,-0.6039983,-0.40601996,0.15476982,0.90754896,-0.44373396,0.07514869,0.5246024,-0.881687,-0.60979265,-0.3735566,0.34922606,0.0058893785,0.3293426,-0.029989624,0.14430636,-0.03870754,-0.026482847,0.04594009,-0.44772783,-0.06076405,-0.1071105,0.066224836,0.45813254,-0.04163043,-0.26777965,0.35728216,-0.040477023,-0.3434561,0.029064983,0.071346804,0.25404966,0.31468543,-0.19910231,-0.09750626,-0.5695977,-0.14182198,0.40080106,0.25529754,0.013554714,0.100595586,-0.37469253,-0.09921423,0.016426636,0.45330864,0.09671118,-0.35155523,0.033593882,0.025330884,-0.046085864,0.08352915
hiểm trở,-0.55762285,0.022103775,0.2315398,0.030373804,-0.097204044,0.19079484,0.15670598,-0.25661445,-0.2531635,0.16770901,-0.5519644,0.04958456,-0.21678476,-0.833676,-0.64939255,-0.545493,-0.25595894,1.0858612,-0.47445548,0.24356891,-0.1880629,0.15185867,-0.26286823,0.10182631,-0.11575438,-0.37528792,-0.65444875,-0.07681098,-0.53146803,0.6690727,-0.14210866,-0.7453539,-0.059547342,-0.30566737,-0.17356925,-0.0013146877,0.35650286,-0.22856393,0.03736207,-0.10413148,-0.55621094,0.37727597,-0.50505376,-0.09513195,0.7315205,0.3474427,0.40063167,-0.320565,0.2928747,-0.6401372,0.22795045,0.37398767,-1.1223872,1.0123914,-0.49402648,0.36388808,0.5086258,-0.475444,0.09359515,-0.34218708,-0.85871196,-0.693606,0.14662184,0.6186812
khám phá,0.14017151,-0.1188718,0.058592193,-0.0322704,-0.09782315,-0.14523162,-0.24391195,0.12796389,-0.07231325,0.26144356,-0.2268083,0.08438299,0.10007483,-0.6686146,0.1489695,0.0018384621,0.13937362,0.6781636,-0.35665616,0.08500022,0.023918925,-0.50240695,0.004292632,0.037116647,0.10310071,-0.2537642,-0.17699957,-0.13336784,-0.0032684992,-0.14792936,-0.29799625,-0.22233123,0.03334525,0.09991962,0.2692533,0.16233991,0.50435716,-0.061450236,0.058842648,0.38045496,-0.13348761,0.22941753,-0.36866528,-0.06033214,0.012863955,0.5471662,0.16841908,0.103914686,-0.37811053,-0.35309198,0.34512585,0.16039011,-0.18629795,0.111879565,-0.1842154,0.20744152,0.25797012,-0.27096233,-0.09099261,0.267967,-0.2684881,-0.32354602,0.24259451,0.481588
khắc nghiệt,-0.420998,-0.14184515,0.19959451,0.28507864,0.03250242,-0.021527031,-0.023460565,0.21605696,-0.27915198,0.43828166,-0.4019328,-0.14119938,-0.06360461,-0.6113825,-0.23313498,-0.39892045,-0.43606848,0.7553575,-0.15070087,0.17221229,-0.11616341,0.045771524,-0.29418883,0.32282504,-0.027591601,-0.04118916,-0.44572946,-0.22417784,-0.0974458,0.30547008,-0.20047583,-0.6730643,0.0695781,-0.112694696,-0.035025917,-0.16569966,0.4335985,-0.23111455,0.41865304,-0.20004311,-0.54888517,0.18944775,-0.53408766,-0.10159017,0.4239507,0.51820576,0.28353047,-0.4162497,0.36575168,-0.60222197,0.38765922,0.22970152,-0.9458427,0.62576115,-0.6864415,0.20520256,0.36357653,-0.64805925,0.014015666,-0.4407469,-0.56477576,-0.569584,0.19828641,0.50056857
tỉnh,0.09251705,-0.5556584,0.11653061,0.17428221,-0.27007496,0.50537944,0.29394853,-0.17200938,0.12638849,-0.039671026,-0.5455091,0.48560622,0.38299835,-0.470942,-0.4964795,-0.4712856,0.3115332,0.9921569,-0.42320383,0.08377071,0.5036376,-0.86343545,-0.49302995,-0.41202807,0.18480852,0.11335435,0.27697518,-0.042465717,0.10741884,0.27803585,-0.043076616,-0.024507271,-0.6081943,0.12321324,-0.17898959,-0.12772568,0.45016396,0.06741068,-0.3522295,0.21146257,-0.19462931,-0.6027082,-0.056992613,0.17257738,0.0978635,0.1511021,-0.20310949,-0.39333633,-0.5985865,-0.3374479,0.11860598,0.11887267,-0.32519358,0.043383755,-0.6482336,-0.18131225,0.04424707,0.6100536,0.23660097,-0.5559718,0.0053674406,0.13423882,-0.111826055,0.27396175
đam mê,-0.030089397,-0.08206384,0.1173848,-0.063942865,-0.047676947,-0.106509894,-0.26452994,0.12108335,-0.08275521,0.26186857,-0.3455986,0.16931987,-0.07749507,-0.5330051,0.12421241,-0.16428192,0.09769107,0.6518521,-0.38568568,0.09211913,-0.041852713,-0.2580274,-0.049294844,0.038471673,0.029464006,-0.31635407,-0.24985826,-0.071339644,-0.0077423095,-0.067752495,-0.3164653,-0.3196399,0.10350064,0.03188347,0.21795459,0.20768501,0.44561654,0.013431233,0.08508023,0.26010463,-0.26023892,0.26886192,-0.34898645,0.0007224042,0.12587713,0.49400446,0.29613727,0.06668436,-0.35235927,-0.3429893,0.37148076,0.11439465,-0.21665597,0.17424498,-0.16449554,0.15573205,0.108390436,-0.42283145,-0.124723874,0.24579576,-0.38623542,-0.415081,0.3009872,0.40759715
nhà,-0.13271683,-0.2824166,0.5678836,-0.2270578,-0.14426401,0.6133796,0.18715945,-0.42485073,0.0033127533,-0.21005778,-0.675547,-0.31467062,0.18597639,-0.19172947,-0.5672438,-0.27731442,-0.16054915,0.84015745,-0.14299278,0.39756852,0.55241233,-0.6622747,0.17730848,-0.2677643,0.11082194,-0.21134588,0.16810489,-0.34115732,-0.44533655,0.7002618,-0.07229433,0.0014284889,-0.8158614,-0.06236774,-0.25675508,0.09453523,0.0659207,0.23376311,-0.040210117,-0.11597937,-0.055954736,-0.45563814,-0.11931967,0.46215582,0.19061169,0.11058492,-0.21784411,-0.84239316,-0.2975702,-0.20730044,-0.10793852,0.10489769,-0.45363697,-0.25416982,-0.8675166,0.009571022,0.52038985,0.49278894,0.18147197,-0.272531,0.113125764,0.19511269,-0.3236738,0.6784011
tọa,-0.069125935,-0.15812482,0.6506487,-0.28201783,-0.10947534,0.7066013,0.21832776,-0.5352269,-0.15365736,-0.18421829,-0.54018503,-0.37979117,0.21780495,-0.050329756,-0.69756585,-0.2867752,-0.26636988,0.7451906,-0.07705494,0.43003017,0.59733945,-0.63460594,0.118147016,-0.3790312,0.17173074,-0.3469766,0.14002568,-0.44887275,-0.56121063,0.6695359,0.017081058,0.042435184,-0.67082995,-0.2562439,-0.3078229,0.0773366,0.022937072,0.21015005,-0.11712712,-0.06058163,0.05402908,-0.35699353,-0.17040233,0.35607728,0.3632575,0.06024597,-0.24733172,-0.74918616,-0.04084613,-0.27999908,-0.030299032,0.2483058,-0.34052962,-0.1598087,-0.814317,0.13086702,0.7066093,0.49526757,0.22612631,-0.26869506,0.14138943,0.14417529,-0.41839355,0.6034288
nước biển,0.0785247,-0.13138922,0.10024176,-0.04690197,0.14923385,0.08673266,-0.15482485,0.39677608,0.0579731,0.14751737,0.03125829,0.12756197,-0.3889334,-0.03309003,0.07471182,-0.6478758,-0.12972791,0.5215175,-0.5927796,0.005718637,0.4459868,-0.2721308,-0.25110337,-0.18765187,0.39577836,-0.39116222,-0.26479858,0.53026843,0.3419983,-0.033662435,0.32994717,-0.026433017,0.2660332,-0.39561743,0.48900434,-0.24655224,-0.116357304,0.050827634,-0.24526124,-0.21724187,-0.27548313,0.03454489,-0.24761643,0.6960322,0.05038552,0.59533775,-0.01822306,-0.3872496,-0.87959504,-0.8105473,0.23223488,0.20907816,0.13720512,-0.05524977,-0.46910194,-0.44977248,-0.17608118,-0.28265762,-0.22706033,-0.6158027,-0.56719977,0.23466669,0.45574358,0.61123204
thiên nhiên,0.08129342,-0.12974781,0.18450671,-0.12881802,0.047318026,-0.23068123,-0.34435582,0.1569646,-0.2131019,0.24739273,-0.16389756,-0.06494498,-0.009739419,-0.5836403,0.39982843,0.03663692,0.07186608,0.6715776,-0.41943753,0.06651013,0.100958355,-0.44999945,0.09344021,0.019330245,0.06476954,-0.33452177,-0.23627481,-0.20497957,-0.038063087,-0.20412269,-0.31032324,-0.138103,0.16925313,0.16699636,0.41228136,0.18914673,0.54346055,0.005059773,0.065394275,0.2897993,-0.08695087,0.22997455,-0.41785637,0.04205141,-0.035129163,0.6718283,0.14999011,0.01653458,-0.47168744,-0.55306315,0.38551363,0.057279278,-0.07662287,-0.12574515,-0.3119351,0.16904743,0.116847955,-0.39692098,-0.05524957,0.3547904,-0.21562065,-0.28281796,0.32296094,0.472767
tuy nhiên,-0.43204236,-0.10476006,0.23353101,0.1792025,0.07445966,0.0031597782,-0.068340264,0.15482257,-0.26408368,0.3471218,-0.42560795,-0.2028814,-0.059704117,-0.59579176,-0.13102426,-0.33565688,-0.43058494,0.7249297,-0.1537778,0.21485901,-0.16850239,0.08049567,-0.21851116,0.2859348,-0.07875742,-0.055864375,-0.5216711,-0.255432,-0.17525224,0.40699455,-0.24676186,-0.712129,0.08368263,-0.07299257,-0.06215075,-0.090282075,0.39594808,-0.16089672,0.40709698,-0.20232905,-0.5470936,0.16202669,-0.57863665,-0.07118074,0.3959804,0.46168202,0.2907751,-0.46785194,0.36347374,-0.64564323,0.3321046,0.21239987,-0.98832947,0.5117277,-0.69766766,0.26238805,0.41975018,-0.6669198,0.06823788,-0.40500394,-0.6068708,-0.5760129,0.16885534,0.5562237
dãy hoàng,0.31596428,0.17950226,0.021210503,0.24970067,0.046404626,-0.0049301498,-0.22412984,0.08910534,0.22919536,0.32720605,-0.5572103,-0.6335946,0.12389551,-0.6574027,0.32789007,0.034634072,-0.015687251,0.31698707,0.0056939595,0.18415728,-0.07700166,-0.53324103,0.20916274,0.050329845,-0.15816036,-0.20630635,-0.267091,-0.10678631,-0.19332206,0.6337769,-0.07637026,-0.57302153,0.16057459,0.25594524,0.115150444,-0.18568775,0.46263906,-0.3481352,0.14861654,-0.0035150817,-0.23308629,-0.20702398,-0.5594847,0.23057574,-0.1326907,0.5454204,-0.14990972,-0.6330634,-0.30781683,-0.29750118,0.26158956,0.5184505,-0.68886226,-0.7645514,-0.3873626,0.114889696,0.6386536,-0.30349416,-0.060618117,-0.13820463,-0.2743487,0.24978934,0.34397918,0.6766225
cột,0.5022088,0.16164175,0.1171845,-0.33727938,0.16878667,0.42777315,-0.19964616,0.22611858,0.035901338,0.051464245,-0.39430413,-0.5352801,0.33813214,0.011783815,0.07074061,0.09369014,-0.012766545,0.23601781,0.105021976,0.23737495,0.27305704,-0.6509598,0.38403124,-0.06609499,-0.0071667405,-0.25446615,-0.16541034,-0.28452358,-0.15962756,0.49569583,-0.24274908,-0.2296288,0.26427102,-0.011103394,0.11397851,-0.20515503,0.2765222,-0.13290077,0.100486726,0.37360248,-0.09464006,-0.14688256,-0.90079534,0.05874517,0.22618994,0.3147592,-0.12126168,-0.31597254,-0.06701626,-0.4119024,0.18886308,0.5436875,-0.41792285,-0.51572984,-0.46081302,0.16781692,0.8599987,0.15912597,-0.013649586,-0.13806893,-0.12980151,0.15062828,-0.087966055,0.7887468
đã,0.041034803,-0.4416941,-0.031026768,-0.10142763,-0.071095765,0.8791219,0.14419207,-0.067370586,0.054888528,0.16838965,-0.4406269,0.025044074,0.4345392,-0.018454563,-0.73094416,-0.27723607,-0.11805695,0.6599294,-0.26510575,0.19508843,0.32007745,-0.52647555,-0.55203044,-1.0077889,0.61272615,-0.007294686,-0.11249822,-0.7792878,-0.40508115,0.5204844,0.15082662,0.05237282,-0.18862636,-0.32565522,-0.035840664,0.02082203,0.25612292,-0.22658664,-0.3498075,0.2909265,-0.70010096,-0.3765449,0.2616455,0.67057264,0.43871933,0.50334656,-0.04700696,0.059529886,-0.21697707,-0.42854834,0.76885325,0.7347376,-0.092049934,0.028805014,-0.46093553,-0.11010645,-0.03997651,0.092314474,0.8215174,-0.034608252,0.17331518,-0.03936063,-0.51319706,0.2814963
khẳng định,0.7660447,0.31532902,0.234024,-0.36760712,0.021473335,0.51248693,0.004301505,-0.012557392,-0.16110858,0.06548176,-0.20909075,-0.23345554,0.22246383,0.06325202,-0.34460798,-0.08124436,0.12282011,0.48769122,-0.1582921,0.08248195,0.55991846,-0.7620871,0.098746695,-0.31783947,0.13574833,-0.58693314,-0.01263841,0.00579118,-0.1490334,0.18533866,-0.09250948,0.08030539,0.31564134,-0.29232076,0.12038481,-0.23969445,0.32805744,-0.2548379,-0.35200608,0.58797944,0.23822485,0.051344376,-0.9085443,-0.19880284,0.58066595,0.31707984,-0.19535844,0.0059120636,-0.16102144,-0.5360694,0.1936003,0.76374984,0.10246708,-0.20378235,-0.23721059,0.18689953,0.7985225,0.40417448,-0.24727337,-0.18938753,-0.16061336,0.3258594,-0.09224501,0.5664841
hai,0.381863,-0.0001935123,0.06653129,-0.124344856,-0.060549974,0.3630019,-0.024978086,0.013610797,-0.07645605,0.13682504,-0.04219542,0.058562495,-0.17367488,-0.018993929,-0.31311145,-0.39295954,0.11560603,0.69558436,-0.6029416,-0.029756622,0.58973855,-0.70127225,-0.32864287,-0.47551504,0.55839294,-0.37740952,0.07046258,0.35382807,0.12055767,-0.102161154,0.16661987,0.23702806,0.245196,-0.26943988,0.25838226,-0.30593726,0.06465972,-0.06445324,-0.47351027,0.051814124,0.11529478,0.11521123,-0.14022362,0.17604475,0.4604732,0.5641886,-0.25137535,0.106583685,-0.6689847,-0.47798195,0.27812096,0.5920674,0.48896784,-0.07275604,-0.10144626,-0.25174886,-0.056129366,0.24691354,-0.1596601,-0.33524826,-0.3974232,0.38870582,0.21806824,0.10267443
hà nhì,0.28047532,-0.2679409,0.26443374,0.2866676,-0.35405052,0.055699896,-0.105074115,-0.06856134,-0.09675457,0.5653475,-0.167008,0.20520706,0.12220576,-0.54294884,-0.36265653,0.027251363,-0.23471415,0.72286314,-0.41502488,0.17264672,0.15391392,-0.55086565,-0.4289383,0.12112305,0.23369358,-0.0044053174,0.1263423,0.018591125,-0.054706525,-0.5038197,-0.2256439,0.029730156,-0.33777726,0.13731164,0.25916275,0.16044499,0.7054428,-0.3917818,0.12342816,0.23329233,-0.19343124,-0.049030304,-0.06794442,-0.09503926,-0.100088544,0.549394,-0.04041735,-0.10143148,-0.360748,-0.093559116,0.70792603,0.16404626,-0.056176346,0.054988176,-0.23945263,0.095338725,-0.12437301,-0.3481314,-0.057436217,0.14050002,0.13921139,-0.18847392,0.1453106,0.16926302
hoang sơ,-0.020059476,-0.26733604,-0.06156146,-0.22834064,0.17869109,0.23851785,-0.23295675,0.44511512,0.062756374,0.06418847,-0.45721382,-0.38992146,0.24693105,-0.25598705,0.28865972,0.10431657,-0.010261851,0.39379162,-0.05800863,0.22233444,0.003863013,-0.34982038,0.17400883,0.051030483,-0.033237487,0.19257334,-0.28235528,-0.4568608,-0.0056143296,0.4671859,-0.39230895,-0.3877744,0.12958847,0.33288243,0.07582558,-0.24437034,0.43135083,-0.0039911764,0.32338718,0.118215255,-0.52328235,-0.24212149,-0.5390052,0.13434888,-0.08576797,0.39957714,0.08997629,-0.36137122,-0.12326678,-0.5566883,0.16853741,0.24068142,-0.6376522,-0.24839935,-0.62053984,0.068575695,0.24441631,-0.111553125,0.31808665,-0.09107848,-0.22695532,-0.17743883,-0.09281202,0.66941816
du khách,0.24667098,0.081708446,0.30472982,-0.09586317,-0.015739854,-0.39912927,-0.29367614,-0.082339205,-0.33759904,0.2892975,-0.07732349,-0.28958786,-0.08486643,-0.72235227,0.3121825,0.08810533,-0.06930027,0.57683253,-0.27902463,-0.031050025,0.028672418,-0.40319,0.08483244,-0.15684626,-0.08012586,-0.57460994,-0.18563,-0.17590785,-0.3598973,-0.22407593,0.01675278,-0.12061689,0.20445491,0.11962553,0.41679966,0.15532866,0.5668113,-0.09625083,-0.1598723,0.19532412,0.13673638,0.25217715,-0.1942031,0.15220745,-0.20174935,0.64090717,-0.0029908004,-0.070371225,-0.42984286,-0.5792881,0.23104434,0.24506462,0.073900126,-0.25045064,-0.12436138,0.28107938,0.29306483,-0.45380688,-0.11005665,0.41223723,-0.1244432,-0.13043304,0.33160666,0.41216993
như,0.09780785,-0.30009896,0.20835307,-0.12573566,-0.0800565,0.8398737,0.10827681,-0.1753339,-0.030969433,0.22249252,-0.45024,-0.036753975,0.45747828,0.14059071,-0.7689876,-0.3315855,-0.26423794,0.54256606,-0.06910585,0.26122603,0.40104577,-0.52368665,-0.5213704,-0.9376785,0.593459,-0.1432127,-0.06820075,-0.81469077,-0.43893486,0.5458804,0.11948194,-0.0077234674,-0.13455386,-0.43572876,-0.1507336,0.16156068,0.1348671,-0.13559891,-0.2254932,0.25757346,-0.53803194,-0.33104575,0.244074,0.69035023,0.539057,0.45103428,-0.10260324,0.0009992169,-0.07987125,-0.26382384,0.81548995,0.7696501,-0.059011914,-0.11427522,-0.44129345,-0.01612473,0.11314903,0.06773988,0.7067638,0.018644301,0.16769649,-0.0721174,-0.475886,0.2523425
khi,0.078006126,-0.20466729,0.19847076,-0.12878214,-0.191493,0.02962026,-0.37975293,0.19879118,-0.13805996,0.42983326,-0.33497038,-0.018702304,-0.28717843,-0.099754475,-0.30440924,-0.33036277,-0.05611449,0.8567801,-0.6129203,-0.1274233,0.3629926,-0.5648286,-0.1325205,-0.1439471,0.46384123,-0.31282485,0.05083947,-0.0833629,-0.12839209,-0.41632414,-0.078184605,0.23614848,-0.049440067,-0.15882252,0.45527792,-0.018237656,0.32185367,-0.038153525,-0.14736119,0.097338624,-0.4034855,0.1297917,0.05276963,0.41295594,0.05352556,0.87606543,0.035389137,0.08356069,-0.8319527,-0.19622062,0.5979563,0.22911745,0.3054192,-0.20829506,-0.07076043,-0.18144509,-0.44581488,-0.33022854,-0.32555413,0.37042812,-0.23854916,-0.054628596,0.18490364,0.21185766
trung,0.30584946,-0.005968426,0.29658824,-0.21548167,-0.005979541,0.74556905,0.024805661,-0.16302492,-0.024707813,0.18186921,-0.42867723,-0.24975848,0.4457623,0.26244318,-0.5828877,-0.2221522,-0.27514264,0.29997492,0.123327546,0.30920738,0.42837378,-0.59275657,-0.19846372,-0.71164083,0.41060412,-0.3335857,-0.11800492,-0.72796327,-0.41633874,0.56891656,0.07044819,-0.06420097,0.051608842,-0.4585431,-0.16115083,0.15431541,0.057098012,-0.09868154,-0.13285474,0.29958725,-0.2621267,-0.23576647,-0.053999484,0.5361933,0.5457917,0.34322447,-0.16966349,-0.028693927,0.04714692,-0.20499162,0.6765573,0.8051609,-0.057357393,-0.32054022,-0.3419862,0.074327715,0.4618657,0.08569476,0.46048838,0.037420556,0.16558188,0.022680948,-0.4180874,0.38479346
mốc,0.49048972,0.21338554,0.25324813,-0.42209142,0.028132768,0.30466455,-0.12484932,-0.010859309,-0.006923695,0.10362093,-0.24939127,-0.43172374,0.2925634,-0.097114615,-0.0831594,0.062198482,-0.10180004,0.26018688,0.060937412,0.27398467,0.34100473,-0.6301636,0.34117833,-0.09334713,-0.067109734,-0.45639852,-0.14882696,-0.2621544,-0.2585029,0.26278052,-0.17508474,-0.14303589,0.14324392,-0.09693243,0.15675785,-0.041454706,0.3704685,-0.13884158,-0.010322945,0.43662468,0.1099584,-0.0070818947,-0.7762271,-0.1093053,0.20976582,0.27658165,-0.17244335,-0.25831845,0.030762939,-0.36624512,0.16799362,0.52477735,-0.25598243,-0.32670453,-0.37804627,0.31425896,0.83847106,0.058231264,-0.034005295,0.01481388,-0.020696001,0.047417648,-0.07204721,0.677751
mường tè,0.13840194,-0.50085694,0.10722296,0.14386936,-0.32714245,0.53155214,0.27797586,-0.21223326,0.1370151,0.04512035,-0.4660288,0.47304392,0.32045203,-0.36684754,-0.56823164,-0.44809642,0.23446417,0.92564654,-0.44452193,0.07668692,0.52333343,-0.7930022,-0.55236626,-0.4775153,0.27079195,0.056609526,0.30711642,-0.062224198,0.05959856,0.18805031,0.05539851,0.064052016,-0.569568,0.027127957,-0.15904559,-0.043587133,0.42171374,1.6200094e-05,-0.38408938,0.25818744,-0.17107739,-0.5088612,0.048756555,0.20435873,0.14704934,0.19303995,-0.1735488,-0.24830757,-0.59193015,-0.24222527,0.25370255,0.178919,-0.16078398,0.0007593733,-0.4870588,-0.17185745,-0.039591864,0.5408648,0.23226984,-0.45928377,0.03563688,0.09892368,-0.14797576,0.19475955
cho,-0.1492575,0.048980903,0.1848352,-0.06394051,-0.18966673,-0.14262779,-0.07369546,-0.20138663,-0.18219513,0.17499563,-0.25360426,0.22336407,-0.3081821,-0.8140437,-0.2620154,-0.13779368,0.041788273,0.97288764,-0.5568741,0.12520301,-0.2479519,0.026409136,-0.07595244,-0.021040844,-0.08827522,-0.5146782,-0.36586472,0.16476387,-0.4363536,-0.062246032,-0.12617728,-0.31778353,-0.11018864,-0.06523123,0.13573176,0.20079666,0.43997002,-0.12951025,-0.15416758,0.22821185,-0.23202874,0.4098639,-0.20365934,-0.07727038,0.18273658,0.42257956,0.28682083,-0.059253544,-0.29586166,-0.45242077,0.22288577,0.13861744,-0.42159042,0.49306807,-0.066127084,0.24023789,0.2604862,-0.4642721,-0.093634404,0.25175127,-0.4942743,-0.5457268,0.1685259,0.49028227
kéo dài,-0.013018628,-0.105897635,1.0008085,-0.007927281,0.2773879,0.27952397,-0.3750887,-0.13038123,-0.6898146,0.1915982,-0.5190943,-0.40134433,-0.47132513,0.2578119,-0.045965984,-0.3547429,-0.40529767,0.7670478,-0.40414515,0.06595485,0.2799502,-0.2564697,-0.74677944,-0.6621577,0.59617686,-0.36323935,0.17701246,0.3474188,-0.34603402,0.22194745,-0.38564885,-0.039454795,0.557206,0.004287819,0.10951917,-0.38054895,0.25678796,-0.2590693,-0.12284916,-0.75342077,-0.11642576,0.25432462,-0.14887856,0.4103235,0.65801567,0.5091654,-0.062940866,-0.56756085,-0.15562664,-1.0142884,0.36143053,0.30593324,0.20213489,-0.6990391,-0.5518775,-0.45775107,-0.73995143,-0.095279485,-0.16421425,-0.2684297,-0.49992937,0.5163913,0.3802041,-0.37840742
sự,-0.5257899,-0.02414515,0.3120668,0.13218771,-0.074154265,0.08166477,0.08579553,-0.18232068,-0.35920015,0.2660668,-0.50043404,-0.020123126,-0.2063198,-0.78921044,-0.51463366,-0.4403437,-0.39092335,0.97779346,-0.35578522,0.18032388,-0.22764869,0.16472422,-0.31787446,0.1312797,-0.095907204,-0.29615003,-0.54827976,-0.08822745,-0.4645663,0.51439875,-0.124152064,-0.7121768,-0.026235597,-0.20830737,-0.15858655,-0.044396043,0.40899718,-0.2530298,0.12879658,-0.177984,-0.5166147,0.31865945,-0.45375982,-0.057108566,0.59492904,0.36110172,0.34233165,-0.3770606,0.3672529,-0.66783565,0.2859817,0.30388787,-1.0338942,0.890344,-0.5483928,0.30833918,0.43658218,-0.53804344,0.064739645,-0.34093064,-0.7118066,-0.6298018,0.17208433,0.4949401
xã,0.23132972,-0.48618132,0.1056325,0.26371357,-0.29871505,0.5270571,0.22635116,-0.1397512,0.08070528,0.16629776,-0.27555114,0.6595705,0.35268915,-0.29180628,-0.6080507,-0.5356736,0.12522899,0.82723767,-0.42749858,0.03177741,0.60463244,-0.80277884,-0.8291581,-0.5324523,0.48353162,-0.0060750134,0.20542969,0.02155912,0.21635652,0.025844917,0.12746465,0.046610996,-0.28894934,-0.19941413,-0.06946504,0.0063456832,0.34526587,-0.085705414,-0.37140888,0.23674142,-0.12389633,-0.36574978,0.10374746,0.26644316,0.3486957,0.31960312,-0.1908173,-0.06707886,-0.550016,-0.32023746,0.52165955,0.29700655,0.10416542,0.16481867,-0.40441707,-0.23653118,-0.16690429,0.40894842,0.24621806,-0.5164057,-0.023833688,0.103310056,0.036945708,0.018830247
nép,0.2042673,-0.26454616,0.2722086,0.093020715,-0.41201898,0.1970524,-0.1550778,-0.03753942,-0.11219224,0.5849488,-0.3082088,0.15877748,-0.030311458,-0.33405778,-0.67704046,-0.09457434,-0.24772936,0.88622284,-0.58288485,0.109368175,0.30010405,-0.62123513,-0.4134289,-0.03687101,0.42051393,-0.11933236,0.18300089,-0.09959677,-0.15218362,-0.5118394,-0.19038978,0.22858791,-0.4034115,-0.035431627,0.28458506,0.12838717,0.5977551,-0.31008616,0.013161968,0.20687166,-0.38270932,-0.0068570604,0.12555715,0.07515397,0.026849845,0.6999528,0.01388906,0.036637034,-0.5646117,0.06664531,0.7720423,0.27428687,0.13316262,0.033451248,-0.1707826,0.015929962,-0.3338228,-0.29715857,-0.15555626,0.32055703,0.06561911,-0.14676891,0.014656534,0.14267202
bắt gặp,0.15595007,0.1981682,0.57072765,-0.0030123843,0.004092234,-0.3652226,-0.17954214,-0.2587059,-0.60581857,0.28476956,-0.036690798,-0.38273466,-0.19047147,-0.68045163,0.22893274,0.16721067,-0.4154862,0.535888,-0.110485956,-0.047551475,-0.14112428,-0.07488199,-0.054429166,-0.22332491,-0.22233382,-0.63692015,-0.18084131,-0.12146823,-0.5988007,-0.15953007,0.0868322,-0.09363295,0.14851801,0.06538238,0.26611036,0.12007272,0.5040104,-0.23917994,-0.17585987,-0.018376278,0.28243193,0.24481578,-0.11737757,0.10296935,-0.17940976,0.5130205,-0.025241556,-0.30735925,-0.06440351,-0.7335301,0.15692317,0.20790452,0.025981292,-0.26816905,-0.19120653,0.37357655,0.3636831,-0.54518086,-0.024366325,0.32652777,-0.010679576,-0.11836472,0.17686783,0.265513
đá,-0.264583,-0.22200353,0.37311608,0.43245983,0.044182606,0.005965013,-0.09318044,0.26656422,-0.3987851,0.54467803,-0.18976553,-0.25086296,0.08783031,-0.4241789,-0.11905912,-0.14814928,-0.6174697,0.6023322,-0.0031153897,0.17445478,-0.06339979,-0.012774105,-0.44441,0.31645593,0.06775413,0.15454574,-0.26209036,-0.15678008,-0.07340296,0.09637625,-0.27086824,-0.48786935,0.06531742,0.004831507,-0.008231941,-0.3030426,0.3875639,-0.39714095,0.5566045,-0.29946956,-0.43064967,-0.028157631,-0.4786076,-0.12601735,0.21222481,0.5415204,0.03623754,-0.5688616,0.48582748,-0.6603834,0.46375,0.18226181,-0.7753779,0.33986437,-0.81747895,0.14443398,0.31825936,-0.6262294,0.098529495,-0.5643602,-0.31832156,-0.38833377,0.15142667,0.3599326
mà còn,0.3196962,0.001270128,0.06351797,0.14726318,-0.0036055127,0.097907566,-0.062246405,0.060126804,0.0033842747,0.20774387,0.14627162,0.030911794,-0.13230051,-0.18261993,-0.25610617,-0.24818544,0.2734457,0.52841866,-0.5544996,0.03442752,0.3979716,-0.5546803,-0.1871604,-0.26728135,0.56103826,-0.29542807,-0.12408625,0.55226403,0.021317476,-0.044033945,0.088438205,0.13197832,0.29128757,-0.15003957,0.36530295,-0.3339049,0.031481612,-0.35382497,-0.37441242,-0.07775946,-0.033165097,0.18800953,-0.3088186,0.17663191,0.28290728,0.46484205,-0.3074102,0.06363409,-0.57944876,-0.55130035,0.3008292,0.36442327,0.2892015,-0.06650078,-0.11419725,-0.31621915,-0.017667321,0.08220847,-0.32483932,-0.30199665,-0.3718443,0.35646486,0.4193831,0.24998248
mực,0.061768584,-0.09045064,0.17525713,-0.051374353,0.08767009,0.14455278,-0.13184112,0.32741663,0.08662722,0.096528985,-0.06829182,0.07832608,-0.45729652,-0.03742134,-0.028260015,-0.755041,-0.11253612,0.5824712,-0.6302379,-0.056098185,0.5264356,-0.35096022,-0.26311433,-0.29995826,0.43405664,-0.44915923,-0.18450078,0.5614525,0.29167196,0.039145228,0.4120863,0.0138217285,0.24070925,-0.42507407,0.44496903,-0.28706452,-0.12274097,0.0832311,-0.41501278,-0.25861743,-0.23666443,0.037834287,-0.19164827,0.78940964,0.08513831,0.5935605,-0.051081877,-0.45563838,-0.9686083,-0.8367867,0.15750585,0.24733405,0.2191601,-0.14661135,-0.46686423,-0.51049566,-0.16725041,-0.14592075,-0.26833445,-0.67260545,-0.60551834,0.38713586,0.48326868,0.57697344
ngắm,0.35167903,0.318165,0.15835091,0.35497382,-0.028868407,-0.088584535,-0.1834841,-0.16425988,0.20654234,0.35949063,-0.72771,-0.67783713,-0.03184791,-0.82391757,0.26263762,-0.0092546,-0.13637051,0.40126267,0.018598309,0.07929151,-0.21396044,-0.5057247,0.10377423,-0.19018078,-0.2759517,-0.42301014,-0.14043088,-0.08328793,-0.4416312,0.6710015,0.15220146,-0.56271315,0.0687165,0.22346652,0.053320818,-0.121299624,0.5516704,-0.41995725,-0.025625706,-0.11048682,-0.19985732,-0.22476657,-0.2492509,0.45696345,-0.2632114,0.58773255,-0.20368618,-0.78480923,-0.40226972,-0.22979636,0.23585255,0.59871584,-0.6243992,-1.0084506,-0.27064273,0.11698806,0.6155546,-0.3968364,-0.041543506,-0.079301566,-0.19911373,0.37015215,0.3218505,0.59290206
chân,0.08887388,-0.252468,0.27635235,-0.1511929,-0.33365032,0.08949596,-0.4047232,0.15019844,-0.10943866,0.43327576,-0.47912723,0.023701767,-0.34964433,-0.17926002,-0.45342174,-0.39378622,-0.08878761,1.0714326,-0.786638,-0.07950556,0.38934597,-0.6850132,-0.22412421,-0.07047084,0.41192773,-0.26501974,0.15676983,0.015993435,-0.08674004,-0.5091313,-0.20490316,0.25852415,-0.23673442,-0.08506358,0.48270494,-0.06756425,0.48180825,-0.071743466,-0.14428139,0.09044007,-0.447965,0.061261956,0.021046154,0.27155462,0.026300322,0.87802035,0.055433515,-0.038887028,-0.93010324,-0.089732066,0.529734,0.21125917,0.29734832,-0.22147699,-0.18871282,-0.15609571,-0.57190627,-0.25029057,-0.46190065,0.33034366,-0.26456678,-0.049897913,0.20080423,0.17831498
lai châu,0.026336288,-0.5327849,0.2705055,-0.04552656,-0.22693923,0.6606404,0.25926107,-0.16496879,0.027359966,-0.13215788,-0.48153886,0.27079716,0.2673732,-0.16921009,-0.6003103,-0.45114276,0.09806506,0.9333593,-0.37953138,0.1538198,0.6398409,-0.7843141,-0.3483537,-0.37316266,0.2682639,0.09375295,0.30902264,-0.103617944,0.00796971,0.29190725,-0.028877644,0.11532556,-0.66922367,-0.026821332,-0.12809554,-0.16313133,0.2895669,0.14528795,-0.2987673,0.11305127,-0.16923782,-0.5716204,-0.09042584,0.22503573,0.16032024,0.09475382,-0.1903489,-0.5163214,-0.5042911,-0.3488934,0.04936261,0.08896842,-0.23470898,0.0055528698,-0.73209906,-0.19054335,0.055320494,0.6443416,0.20619899,-0.5663617,0.06365805,0.17455049,-0.24243492,0.36031547
rậm,-0.072225,-0.18129766,0.5362379,0.49077943,0.013001061,0.0349303,-0.07296559,0.06471194,-0.5139972,0.5619574,-0.14934146,-0.2117261,0.002985509,-0.41809914,-0.1666326,-0.0035295684,-0.7774501,0.57873785,0.059353627,0.13418652,-0.15540461,0.077515535,-0.6209342,0.13863625,0.02817785,0.09673126,-0.06952309,-0.14835323,-0.21231025,-0.08623203,-0.16543896,-0.2880194,-0.06378323,0.042901687,-0.02607176,-0.15083091,0.4309577,-0.49235812,0.40878993,-0.32732785,-0.24870715,-0.12383357,-0.12820092,0.11638395,-0.059414838,0.52577674,0.0062293904,-0.54629993,0.3055094,-0.6103115,0.56726706,0.1765838,-0.49519572,0.07179322,-0.6420419,0.12010515,0.15111321,-0.63736033,0.15543506,-0.30944556,-0.052049793,-0.26448438,0.027027695,0.19135647
vô cùng,0.03289396,-0.054963112,0.5873998,-0.10936615,0.23012702,0.13094977,-0.40494543,0.07559856,-0.4299832,0.21052083,-0.37465873,-0.28233412,-0.4654916,0.19321401,0.10209261,-0.34467766,-0.17402977,0.5919011,-0.43132433,-0.000509012,0.27995226,-0.27071518,-0.40732747,-0.42125496,0.4732714,-0.3403255,0.08472084,0.3163848,-0.091742575,0.054892078,-0.3064954,0.017156007,0.54932284,0.0071341395,0.213622,-0.30357733,0.17148583,-0.09257822,-0.09864686,-0.45954454,-0.1412178,0.2851399,-0.18555649,0.28883457,0.5234901,0.5051325,-0.017529149,-0.2611178,-0.3153798,-0.7407951,0.317032,0.26104134,0.24687678,-0.505924,-0.3375325,-0.39495295,-0.64395344,-0.16186574,-0.27739704,-0.12220676,-0.5357226,0.35564315,0.38299102,-0.20364173
nguyên sinh,0.17574482,0.015265304,0.44602373,0.19565073,-0.05470835,-0.2609191,0.045206312,-0.22494131,-0.5350897,0.4741895,0.15267204,-0.22043115,-0.093704626,-0.6387941,-0.08378321,0.22893544,-0.53661263,0.6300711,-0.15645473,0.13639252,-0.15405168,0.10804843,-0.30457982,0.052022148,-0.1736952,-0.32100213,-0.14809571,0.09993417,-0.52353334,-0.33612907,0.08914979,-0.14950381,-0.06678646,0.16491334,0.23747899,-0.07520565,0.5089946,-0.4772269,0.0011374515,-0.06671218,0.044960037,0.044475593,-0.114574514,-0.06606496,-0.28227684,0.4739806,-0.1761481,-0.4459102,0.01615028,-0.7589134,0.29695234,0.21217707,-0.2711569,0.022688773,-0.32540333,0.31372356,0.35463056,-0.6076776,0.091792114,-0.03704894,-0.03318426,-0.2024415,0.055389453,0.394519
cánh,0.21538891,0.188126,0.54309016,0.116696596,-0.10403642,-0.3562395,-0.056325197,-0.4187267,-0.54451805,0.3888022,0.0063678236,-0.33660227,-0.20996039,-0.8251494,-0.009246219,0.2426077,-0.44984996,0.6692282,-0.21549648,-0.013719446,-0.20233957,0.0077402988,-0.20841186,-0.17089665,-0.29928935,-0.5129432,-0.11391192,0.0452479,-0.7159808,-0.24239257,0.16024616,-0.108961545,-0.039679054,0.16711788,0.25383,-0.00019432345,0.61711144,-0.44873127,-0.20322852,-0.05000995,0.17067203,0.12272461,0.0054875156,0.025209183,-0.34906182,0.44636875,-0.13731353,-0.44784287,-0.108494416,-0.7151119,0.19276634,0.24115388,-0.14384557,-0.18700033,-0.18988104,0.37982115,0.3728644,-0.52962714,0.0133286035,0.19640796,0.03732823,-0.1260354,0.08340722,0.32786563
con người,0.34730446,0.17180417,0.37572792,-0.2992975,-0.13716945,-0.0080880895,0.097236834,-0.33841074,-0.30779925,0.11105072,0.30553886,-0.15934686,0.028583495,-0.46447152,-0.3457301,-0.09221017,-0.12918364,0.54370475,-0.31987828,0.19641405,0.40660524,-0.41371685,0.07615061,-0.15375616,0.049456935,-0.66252315,-0.19098562,0.22156641,-0.39592183,-0.25255075,0.17181025,0.029077604,0.11145106,-0.25579816,0.35217407,-0.14801182,0.31343472,-0.20357057,-0.36606547,0.2148661,0.49300054,0.27716702,-0.49392045,-0.289713,0.26407915,0.28447154,-0.3742728,-0.17046191,0.03204873,-0.7633688,0.024972498,0.3947888,0.085408114,0.30893084,-0.29996067,0.36982882,0.73568285,-0.016524795,-0.060008503,-0.11183694,-0.06685363,-0.03988241,0.14436783,0.48037905
trở thành,0.06521196,-0.40931097,-0.17726563,-0.11059212,-0.020534053,0.759089,0.120230965,0.08280056,0.09575891,0.13751523,-0.31248075,-0.002846291,0.32522836,-0.020495174,-0.56565243,-0.30642655,-0.018767627,0.5359375,-0.33814678,0.10143992,0.26042524,-0.41621768,-0.53716725,-1.0693871,0.6377297,0.017308578,-0.2043124,-0.6285401,-0.30967146,0.5304494,0.2755018,0.028675854,0.0059904275,-0.3390928,0.078912154,-0.06639045,0.16745748,-0.23310031,-0.45968527,0.23886557,-0.7455066,-0.3605356,0.20649523,0.8029398,0.32826838,0.5798944,-0.030623328,0.063776076,-0.3847278,-0.56090134,0.6864037,0.74208426,-0.028416408,-0.05128163,-0.3415979,-0.20483704,-0.1386087,0.041131817,0.7696666,-0.14353912,0.05171082,0.039483644,-0.40597734,0.29501095
nét,0.0060756095,-0.30463696,-0.24125214,-0.15057242,0.12109747,0.322948,-0.03140122,0.4082172,0.14390948,0.0641267,-0.12558094,-0.31472686,0.3154568,-0.23085028,0.08449811,0.091716446,0.048680395,0.31471097,-0.10705561,0.20482418,0.0945748,-0.29501897,0.06427472,-0.08451967,0.07713012,0.29680386,-0.25018382,-0.35743544,-0.019377362,0.39184,-0.16557959,-0.21022493,0.065523624,0.22160937,0.17113052,-0.34799948,0.3096308,-0.14248219,0.13770716,0.13099553,-0.50431925,-0.36484754,-0.3976043,0.16772875,-0.13926038,0.36427125,-0.05350976,-0.2919515,-0.15214154,-0.585475,0.18755265,0.31815782,-0.5182221,-0.12481937,-0.62095207,-0.0064366995,0.26717588,-0.016749246,0.45177332,-0.28581288,-0.10291772,-0.059219647,-0.21594875,0.6626427
đứng,0.013103477,-0.29661438,0.048455108,-0.16391401,-0.17452987,0.052834585,-0.25784907,0.22369134,-0.02143434,0.26846182,-0.37375,0.037987888,-0.2579352,-0.1973031,-0.30526748,-0.2659622,0.17154607,0.92134386,-0.6816468,-0.12776905,0.3135306,-0.5452685,-0.07499662,-0.19697502,0.41004056,-0.23464602,0.05598841,-0.07425911,-0.11267462,-0.30357963,-0.10148588,0.25601494,-0.17385772,-0.03377425,0.40182906,-0.06774653,0.2882851,-0.0045193383,-0.20470223,0.15407974,-0.4909072,0.057918612,0.040082328,0.39366677,-0.057459336,0.7205502,0.10673868,0.07505275,-0.91728795,-0.2088667,0.4397376,0.16849227,0.1967731,-0.17076786,-0.09332647,-0.23963965,-0.41444248,-0.18227012,-0.22987083,0.255059,-0.2715759,0.025141535,0.09192421,0.30140355
việt nam,0.4261956,-0.03240166,-0.04201797,-0.0659847,-0.20831564,0.34651142,0.054488823,-0.112162896,-0.011314174,0.1721516,-0.044652924,0.18818082,0.08075225,-0.2729627,-0.4026717,-0.2630112,0.21375135,0.7223981,-0.51715815,0.039459515,0.5302245,-0.8240499,-0.31534642,-0.452715,0.48901817,-0.32784817,0.1450849,0.16564181,0.08160825,-0.11317645,0.13011084,0.21267569,0.104788765,-0.18484655,0.15639807,-0.14049742,0.2240888,-0.089618154,-0.42144525,0.28102317,0.18272357,0.048150886,-0.13722846,0.041690804,0.37251946,0.56044024,-0.2770908,0.19926752,-0.5923747,-0.3015396,0.31658983,0.60428476,0.35570753,0.056652978,-0.058499306,-0.062813126,0.15557203,0.34586927,-0.005801059,-0.18164147,-0.22465488,0.25213063,0.06926106,0.16307427
chỉ,0.38011247,0.043350086,0.15916733,-0.13336939,-0.18143465,0.37806374,0.09251773,-0.23425683,-0.115413055,0.19588032,0.05930693,0.18160154,-0.042516112,-0.11393802,-0.5062051,-0.31680512,-0.021211095,0.6148199,-0.4538158,0.06757163,0.54937905,-0.6102364,-0.41865256,-0.44068247,0.56401414,-0.47325447,0.10855507,0.23425014,-0.013960757,-0.18434158,0.19814177,0.20597847,0.23885363,-0.37919927,0.11968534,-0.08996314,0.11800901,-0.11238562,-0.4254002,0.18873066,0.2420802,0.2081853,-0.10018145,0.030823186,0.55775553,0.51499224,-0.22814177,0.19558126,-0.4026837,-0.32026494,0.35082167,0.64422053,0.4749025,0.18624397,-0.019415211,-0.023268005,0.1339837,0.21552157,-0.0018675224,-0.20853375,-0.29300934,0.1902288,0.13154078,0.06653823
tầm mắt,0.22518167,0.27112728,0.13412888,0.40558285,-0.09222508,-0.28955245,-0.104026206,-0.2692461,0.19353633,0.3565032,-0.65780973,-0.515662,-0.16505745,-1.1282736,0.2378411,-0.06472815,-0.049360428,0.6274239,-0.14902309,-0.04500398,-0.30871326,-0.402844,0.057544004,-0.31343812,-0.38223705,-0.48974386,-0.20384057,-0.0068144766,-0.53387105,0.58156395,0.23466176,-0.5258427,-0.063836254,0.28340247,0.068705484,-0.052105043,0.6334563,-0.41456026,-0.24746662,-0.11357473,-0.20917849,-0.1123922,-0.034734234,0.5342449,-0.39999837,0.6360877,-0.11106293,-0.721808,-0.6218195,-0.34340328,0.12951897,0.46248353,-0.58026946,-0.8369066,-0.13291575,0.10392148,0.49485925,-0.46934253,-0.048523195,0.0070234104,-0.24683614,0.26404977,0.3386543,0.60663944
giữ,-0.18672048,-0.5261612,-0.24744865,-0.1994824,-0.011523741,0.45220184,-0.04693371,0.36054933,0.2463404,-0.038012467,-0.39586806,-0.1547382,0.2600307,-0.26148957,-0.1432093,-0.11549517,0.15366651,0.6429988,-0.28787926,0.16104202,0.19633621,-0.42195866,0.051340457,-0.24250385,0.17562489,0.3809641,-0.117533706,-0.39479703,0.019530607,0.48171037,-0.21367663,-0.101284906,-0.2428044,0.2447959,0.049096487,-0.32794422,0.27428135,0.056570426,0.039991923,0.06993062,-0.6638395,-0.47947672,-0.16601042,0.35791165,-0.11891663,0.38326913,-0.0032474338,-0.3588011,-0.42812,-0.4522307,0.10998879,0.18218783,-0.49951282,-0.077499025,-0.7123227,-0.20211524,0.026215557,0.20656617,0.4798909,-0.28635785,-0.104381986,-0.037662227,-0.29111144,0.65094864
sức mạnh,0.29104766,-0.021414934,-0.020333331,0.2410195,0.09268601,0.006522007,-0.053501718,0.16225384,-0.03930425,0.27362877,0.31527212,-0.045303863,0.17855929,-0.4050376,-0.028860956,0.018436242,0.27620307,0.5014829,-0.42270195,0.20035492,0.31297264,-0.62658024,-0.03698611,0.19609474,0.45435762,-0.10815332,-0.27972853,0.40425876,0.045480624,0.013200821,-0.18366516,-0.07358004,0.27911872,0.024369815,0.3875228,-0.2822709,0.07755684,-0.3921001,-0.000830306,0.032348644,0.007351639,0.2024864,-0.66513175,-0.20546497,0.27259088,0.4722641,-0.29970476,0.06831021,-0.26797342,-0.6652658,0.38786808,0.2751343,-0.12390905,0.17874803,-0.30923027,-0.037135344,0.3970759,-0.050554987,-0.23866932,-0.27371725,-0.31567043,0.12404299,0.43873996,0.49750474
điểm,0.007166247,-0.47555074,-0.19479032,-0.16647393,-0.06584425,0.71422374,0.1699166,0.07293795,0.20541468,0.009310991,-0.34541407,0.06690584,0.36258584,-0.12510996,-0.58612967,-0.330241,0.10796179,0.6123946,-0.36584473,0.109332584,0.34444633,-0.4691232,-0.4179812,-0.92931616,0.50548863,0.072559476,-0.1273902,-0.52654535,-0.24664688,0.5164174,0.26145336,0.05784448,-0.18397969,-0.22260727,0.03745677,-0.13436481,0.17860645,-0.103750214,-0.4813275,0.21934424,-0.6533437,-0.45819303,0.15203613,0.70855105,0.17338638,0.4322074,-0.08229057,-0.09136843,-0.46184465,-0.51761246,0.4564923,0.5437819,-0.16398497,-0.009943301,-0.4477426,-0.24230312,-0.050518677,0.22054213,0.74654293,-0.25241655,0.053970423,0.064423315,-0.42534626,0.39009857
độ,0.07803429,-0.23166814,-0.018921997,-0.022831883,-0.022372887,0.24179947,0.059375376,0.17787348,0.27938652,0.015967578,-0.11142979,0.15702793,-0.19150718,-0.1633214,-0.19957595,-0.6340538,0.056482274,0.5976993,-0.52473104,-0.015807297,0.49653542,-0.41856483,-0.18308933,-0.4051862,0.3526354,-0.30214432,-0.064594194,0.40349185,0.17324723,0.1426081,0.44358265,0.05881948,-0.111574404,-0.3332541,0.28692874,-0.22484691,-0.087505415,0.07284823,-0.481246,-0.104460604,-0.25834817,-0.23720966,-0.020363515,0.7834424,-0.06091709,0.4624843,-0.12186608,-0.39541078,-0.9939663,-0.5901112,0.09779092,0.21538441,0.09433759,-0.12618162,-0.38535646,-0.43844223,-0.061639342,0.040341362,-0.02161847,-0.58850354,-0.3458704,0.31974098,0.24220516,0.59897
thứ,0.31428006,0.011185369,0.06729264,-0.08328419,0.07045858,0.3246426,-0.05185634,0.07108324,-0.0982793,0.103278756,-0.0015045712,-0.012300579,-0.104476735,0.04180301,-0.15890388,-0.2972637,0.10456584,0.5200319,-0.45983636,-0.028621623,0.5225801,-0.6059437,-0.32135436,-0.41401362,0.56023484,-0.33287245,0.054285478,0.3226938,0.0913084,0.02347675,0.13509506,0.17215222,0.3353257,-0.23466176,0.236421,-0.29924887,-0.00024973007,-0.10795511,-0.40209922,-0.012339964,0.060477488,0.12257768,-0.23286071,0.21844493,0.42060238,0.51204103,-0.18552524,0.0612618,-0.55088615,-0.55913335,0.26136798,0.4958397,0.40624383,-0.1822967,-0.16075754,-0.2773859,-0.060964882,0.19879322,-0.08779958,-0.32615268,-0.3626949,0.41203994,0.20990649,0.13789761
tổ quốc,0.49269697,0.05616623,-0.12729524,-0.15789045,0.012906058,0.38151452,0.1423867,0.15514879,0.06956024,-0.057640325,-0.12856968,-0.092603944,0.110239156,-0.13947545,-0.2544329,-0.17226858,0.46639377,0.5699487,-0.44891283,-0.02521431,0.43041202,-0.61196756,0.025216674,-0.41538846,0.19092615,-0.23604317,-0.033332773,0.19136171,-0.011538108,0.25637853,0.028280394,0.13533176,0.12140169,-0.019033922,0.20448981,-0.42306918,0.22107166,-0.21090843,-0.55476123,0.40588,-0.056063164,-0.1345697,-0.5856143,0.03691036,0.26557136,0.2401331,-0.18594857,0.019824376,-0.5256494,-0.6134126,-0.0038482468,0.512361,0.08182076,-0.112748,-0.24032718,-0.13079955,0.38913628,0.46335787,-0.10767926,-0.36032605,-0.25139147,0.45224917,-0.019217988,0.50240517
biểu tượng,0.27670103,0.014413383,0.015514843,0.16576539,0.06801102,0.016294105,-0.049402438,0.21556568,0.04778282,0.18077067,0.30908096,-0.044807162,-0.004614405,-0.31817222,-0.057312984,-0.24918647,0.3312376,0.47381246,-0.540806,0.18889906,0.46749768,-0.63491786,-0.051597796,0.042865057,0.5109146,-0.32836595,-0.32172477,0.6397396,0.110423826,0.07552588,-0.019615728,-0.07129975,0.39886108,-0.13205643,0.4485166,-0.39430052,-0.05677154,-0.3696181,-0.20793346,-0.11115026,0.06746582,0.20895201,-0.6889669,0.026406514,0.38576412,0.48869333,-0.35953268,-0.04040563,-0.46689868,-0.71194714,0.2809822,0.35588637,0.046686813,0.1337,-0.31307712,-0.18345806,0.3322868,0.018130489,-0.3789748,-0.46924326,-0.5154943,0.33401588,0.592929,0.5066742
3.083 mét,0.06795225,-0.19408731,0.15167503,-0.050414894,0.026056495,0.28579503,-0.011327819,0.19468985,0.17284423,0.030932065,-0.08673291,0.17778823,-0.34117752,-0.008673087,-0.24344951,-0.7830153,-0.0739486,0.6367295,-0.5982107,0.014260614,0.5873188,-0.40942386,-0.28771198,-0.4227125,0.49114865,-0.39202273,-0.08360407,0.53560144,0.19287223,0.0910997,0.51145864,0.05715485,-0.045083195,-0.47957438,0.35690358,-0.28285745,-0.19311021,0.0960357,-0.49680427,-0.2528683,-0.24916336,-0.15171696,-0.0066179717,0.8805466,0.06923967,0.52135026,-0.1815241,-0.4935512,-1.0326334,-0.7041649,0.1597717,0.2319579,0.14826703,-0.14643613,-0.4584046,-0.5485468,-0.19901215,-0.03286967,-0.1627967,-0.71632576,-0.436293,0.4010424,0.3508709,0.56280804
phóng,0.06358331,0.17937519,-0.008949998,0.37512606,-0.21068077,-0.12505114,0.045814022,-0.33496994,0.3677525,0.1951345,-0.7492109,-0.23668304,-0.11418187,-1.0607464,-0.045548625,-0.17008393,0.16010879,0.66178894,-0.25041145,0.0067824093,-0.30411667,-0.34939206,0.06090022,-0.20725664,-0.33865163,-0.3360076,-0.12944734,0.050887484,-0.4502179,0.62557936,0.19222225,-0.53301096,-0.33332625,0.24723208,-0.11430643,0.020824382,0.49248382,-0.26101673,-0.24874224,-0.035638362,-0.2841394,-0.14686328,0.01355298,0.42341775,-0.27211896,0.38567933,-0.017192436,-0.61188185,-0.5595136,-0.07421592,0.017570494,0.30423006,-0.6933032,-0.5007334,-0.13651423,0.032761,0.468699,-0.21998471,0.015945502,-0.09480809,-0.24906124,0.13532308,0.21005523,0.5474967
từ,-0.040892266,-0.12494079,1.0745139,0.048375223,0.1621295,0.29676884,-0.37738034,-0.19974732,-0.7485151,0.26949003,-0.53376114,-0.36607993,-0.469179,0.21875036,-0.1759717,-0.33422148,-0.5373513,0.7746788,-0.41047475,0.06079698,0.2165275,-0.21262741,-0.798471,-0.5900836,0.535757,-0.30709797,0.24246223,0.26866096,-0.40104,0.13862836,-0.40627468,-0.029126335,0.41855347,0.0048367465,0.020910755,-0.30264667,0.31559634,-0.28602618,-0.056791652,-0.7637187,-0.17678086,0.19692749,-0.025585547,0.36668152,0.6139741,0.50023454,-0.07140206,-0.5905531,-0.028830336,-0.8140062,0.44566232,0.26938874,0.11561802,-0.57943135,-0.5700401,-0.37596717,-0.762928,-0.15375474,-0.10871893,-0.20150404,-0.4105593,0.37946156,0.30222568,-0.44186854
gian nan,0.06670493,-0.11723115,0.80035967,-0.02309096,0.14782828,0.22037156,-0.40170762,-0.0828576,-0.5394492,0.28772804,-0.48778006,-0.26288423,-0.4119422,0.12983313,-0.0630328,-0.2548565,-0.29917145,0.7256945,-0.466571,0.0777224,0.26814154,-0.35998806,-0.58302957,-0.47413647,0.5607407,-0.2978375,0.17718393,0.2286671,-0.25931337,0.023790788,-0.4511028,0.04868709,0.45723388,0.06400785,0.1705028,-0.2352403,0.33861688,-0.2748293,-0.034049362,-0.49403,-0.14514326,0.28141516,-0.08979742,0.2573887,0.5727983,0.5908022,-0.028558344,-0.30222243,-0.21964389,-0.6676099,0.4767616,0.30509737,0.2625409,-0.6066771,-0.35646883,-0.33098513,-0.74221385,-0.19251156,-0.23081274,0.033578977,-0.40209654,0.36905536,0.3593576,-0.3603158
du lịch,-0.029404107,-0.51205444,-0.25191188,-0.22155252,-0.006082322,0.75329256,0.11791532,0.23595275,0.17036101,-0.051936958,-0.3328011,-0.02844029,0.28143921,-0.015555692,-0.47379756,-0.23671049,0.17397301,0.61955047,-0.44174448,0.098475836,0.31072754,-0.44764692,-0.32091388,-0.8820571,0.49143776,0.19611312,-0.10579393,-0.4918709,-0.19686975,0.51234114,0.10613311,0.12559418,-0.14475419,-0.10725426,0.1466579,-0.2400561,0.19408709,-0.13032483,-0.43366972,0.23211412,-0.75657815,-0.47792777,0.01768716,0.6216421,0.14722428,0.40845242,-0.009784472,-0.057971902,-0.48057163,-0.6260327,0.34762344,0.5255824,-0.13830069,-0.04583136,-0.5114228,-0.27690184,-0.19182144,0.26448795,0.70262265,-0.25067562,0.03863054,0.13513632,-0.4741547,0.3962826
dũng cảm,0.36227483,0.024950765,0.031876065,0.11886971,0.13181533,0.042089805,-0.09383766,0.22160919,-0.045318652,0.20305175,0.29678863,-0.19572248,0.20727962,-0.32652324,0.057775043,0.030210841,0.19337204,0.35567784,-0.2960681,0.27597144,0.3538447,-0.6303473,0.1313821,0.20691928,0.36498547,-0.1596145,-0.3147512,0.3005017,0.081083715,0.0825088,-0.20763059,-0.09633435,0.3806632,0.011539794,0.39706382,-0.2736953,0.07975218,-0.35879275,0.037793357,0.07438603,0.03446739,0.16077904,-0.8850815,-0.12894182,0.2603444,0.4502841,-0.29630262,-0.049493864,-0.19958165,-0.7068016,0.34203273,0.3130089,-0.18301843,0.03989045,-0.38154,0.0055691036,0.5854992,-0.08457757,-0.2625784,-0.35366294,-0.32984713,0.13024192,0.42298514,0.6134638
vẫn,-0.03411289,-0.504662,-0.3016601,-0.42854398,-0.0034052543,0.6025762,-0.0035460764,0.26831606,0.20267594,-0.11413702,-0.28834462,-0.17003761,0.29731745,-0.18671831,-0.20253786,-0.06963844,0.28740183,0.62520933,-0.39684737,0.14105374,0.3405332,-0.5555131,0.091060676,-0.40842652,0.30235794,0.22117636,-0.092057675,-0.45427546,-0.07881978,0.37756518,-0.19605732,0.06908807,-0.19666967,0.14904809,0.13116139,-0.3397005,0.29476675,0.03128571,-0.18972732,0.2732126,-0.58969486,-0.38006645,-0.19219644,0.35313186,0.0008642808,0.42321068,-0.041865706,-0.13472857,-0.4776005,-0.54224586,0.16879338,0.31302896,-0.29968554,-0.09059151,-0.58926785,-0.18121476,0.041225195,0.31729072,0.557464,-0.14890641,-0.042759974,0.0069435704,-0.4006929,0.6033218
nổi tiếng,-0.043771226,-0.45190698,-0.3841774,-0.18528739,0.024113804,0.6285725,0.08669112,0.23050205,0.23482762,-4.8841568e-05,-0.32168567,-0.117532514,0.25036448,-0.19932747,-0.34591785,-0.1849322,0.2106696,0.57677025,-0.40017623,0.06116304,0.15630713,-0.39732614,-0.17653225,-0.81692755,0.36554375,0.19980368,-0.19862197,-0.54662794,-0.23507887,0.5348823,0.11168135,0.035498146,-0.124759816,-0.034597676,0.1384576,-0.27508622,0.252163,-0.18509,-0.3881626,0.23839024,-0.7756871,-0.4497351,0.113055706,0.65759015,0.0006578065,0.4654391,-0.0029993022,-0.039072417,-0.475982,-0.5620594,0.33970913,0.5324784,-0.2437722,-0.08872583,-0.4468291,-0.25007918,-0.065827414,0.14003131,0.7290587,-0.16038765,-0.010357211,0.07297563,-0.45095593,0.50856537
quê hương,0.2704037,0.099673346,-0.045235816,0.13088784,-0.037168067,-0.095238864,-0.018052958,0.024989087,0.037182257,0.23469102,0.30230802,-0.085907795,0.064124696,-0.5418983,-0.13251626,-0.06286056,0.1618635,0.39438504,-0.35752016,0.17041476,0.22104827,-0.44468436,0.039440684,0.15272374,0.21289122,-0.23128068,-0.30717158,0.41875553,-0.036772683,-0.043234393,0.037792757,-0.19030838,0.25893664,-0.061610658,0.3416892,-0.3403857,0.17674755,-0.35765895,-0.14464264,0.02761503,0.07341339,0.18358612,-0.58015865,-0.21979135,0.18630569,0.41610795,-0.334247,-0.07079455,-0.16608495,-0.5815022,0.19821885,0.36145487,-0.19699907,0.21094081,-0.22300398,0.09369915,0.51187927,-0.11569425,-0.17262766,-0.32724974,-0.3149951,0.02685425,0.42944506,0.4639237
không chỉ,0.14868577,-0.20964856,-0.059961688,-0.16879855,0.011945163,0.3010847,-0.04172142,0.21525793,0.030149475,-0.060254417,-0.17825657,-0.023965906,-0.0041909027,-0.082574725,-0.18861619,-0.2098852,0.46052945,0.66148317,-0.52114683,0.0062090317,0.41739056,-0.64858353,0.029476458,-0.24793811,0.33228806,-0.057949983,0.010132396,0.16312276,0.05299491,0.109046966,-0.18892798,0.15920363,0.019641254,0.051057152,0.21147464,-0.37078643,0.14379089,-0.016690226,-0.31841534,0.14649288,-0.19555224,-0.069227345,-0.41845965,0.07465275,0.24433291,0.297372,-0.11684515,-0.00695886,-0.567388,-0.5190562,0.05577427,0.19079241,0.05952031,-0.09325856,-0.3212996,-0.25598863,-0.024183538,0.41648883,-0.1454116,-0.24947906,-0.31658638,0.2660449,0.023664825,0.30101195
này,-0.07400251,-0.104891665,0.46511555,-0.08346479,0.24414675,-0.012086936,-0.54155296,0.2436693,-0.36356127,0.19466515,-0.5883335,-0.3142432,-0.43148646,-0.008295171,0.37892255,-0.22869347,-0.13537125,0.60443074,-0.37524137,-0.03594447,0.056475986,-0.24470364,-0.29212996,-0.25164688,0.28861552,-0.22209494,-0.027951641,0.05986428,-0.058542926,0.13675927,-0.4698252,-0.17496076,0.5542009,0.20100358,0.20832568,-0.15753764,0.35106963,-0.0057249237,0.09798005,-0.3658143,-0.29117647,0.2806668,-0.26806256,0.29168078,0.35280716,0.58224785,0.2214673,-0.25115812,-0.30465102,-0.6268738,0.30616456,0.18059127,0.049543425,-0.56715137,-0.31718874,-0.2707284,-0.60363215,-0.3257513,-0.22176193,0.07710704,-0.58729124,0.1625575,0.43313634,-0.10497546
thiêng liêng,0.5778037,0.17573363,0.069353394,-0.27647415,-0.032010917,0.409313,0.12419612,0.0132194795,-0.13955373,-0.03052815,-0.16366799,-0.1982279,0.06475984,-0.025621776,-0.39928865,-0.114714734,0.25139582,0.5195306,-0.35566938,-0.06976795,0.4186986,-0.53366226,-0.01825506,-0.51964086,0.0916128,-0.39712954,0.040250596,0.05642104,-0.22272643,0.086482644,0.036811236,0.23666416,0.14639914,-0.13446087,0.18146783,-0.4230972,0.3169954,-0.31683126,-0.60804147,0.47590703,0.07607537,-0.10438596,-0.57861185,-0.059150122,0.3024379,0.20439644,-0.19979556,-0.017772062,-0.3051579,-0.5818806,-0.0055447957,0.5809461,0.20206633,-0.17854689,-0.21367404,-0.010279208,0.4230176,0.46491694,-0.12890746,-0.22050034,-0.07540939,0.40765926,-0.20094362,0.3583316
sau,0.30279443,-0.002145744,0.093497515,-0.10796665,-0.27707118,0.48124894,0.15923019,-0.34212592,-0.066332616,0.1551993,-0.06688383,0.18468821,0.115393646,-0.2518056,-0.64006436,-0.2640389,0.012162818,0.66684884,-0.40900853,0.115350485,0.5082386,-0.62631714,-0.34941941,-0.4300409,0.43585977,-0.32824177,0.06983907,0.0026486116,-0.10218392,-0.027706776,0.1666534,0.17300384,-0.09779879,-0.32665464,-0.003940625,0.04723106,0.1820342,-0.088859275,-0.36646944,0.29108167,0.1562753,0.09252033,0.056036074,-0.011405053,0.52040845,0.4005866,-0.25089929,0.18319577,-0.33221248,-0.12468792,0.37503165,0.60279596,0.30860698,0.24151312,-0.043279476,0.04229503,0.23142141,0.28181848,0.14710784,-0.10329055,-0.10545433,0.044190966,-0.06400266,0.123639844
huyện,0.15363142,-0.62722325,0.2574025,0.17508386,-0.36421993,0.58252674,0.2167516,-0.18208793,0.031189715,0.11939585,-0.5601823,0.5138516,0.3588982,-0.33379146,-0.67710054,-0.4204205,0.104034886,1.0197572,-0.5070858,0.13478294,0.5810157,-0.90401477,-0.6809269,-0.37350023,0.3359548,0.18565221,0.40255442,-0.12603058,0.059031434,-0.008553587,-0.15190515,0.10335733,-0.66671395,0.06601614,-0.09633051,-0.023457168,0.568736,-0.035499476,-0.23460847,0.24404608,-0.2801003,-0.5192167,0.05082746,0.10014339,0.1821434,0.27343363,-0.1758272,-0.27562958,-0.56154054,-0.17892452,0.40448436,0.12271431,-0.13327043,0.084573045,-0.5939905,-0.14306805,-0.22406827,0.4660759,0.18683079,-0.37196127,0.15059264,0.028828748,-0.17180318,0.054173727
ba,-0.003006816,-0.1295725,1.0109137,0.1028774,0.19116294,0.21960117,-0.30890083,-0.20219713,-0.7185814,0.2881299,-0.44276896,-0.33936754,-0.43079376,0.16964668,-0.116065495,-0.2820938,-0.5075261,0.7653512,-0.3813453,0.08419276,0.20978646,-0.19429322,-0.7731257,-0.5219102,0.508665,-0.30613717,0.21810819,0.32251582,-0.38093203,0.05981818,-0.38738284,-0.0027441764,0.4431133,0.05349424,0.08777578,-0.28688225,0.30516207,-0.33420664,-0.02509135,-0.70799375,-0.10119261,0.24544626,-0.07297496,0.27562624,0.5698449,0.5145219,-0.07912428,-0.554746,0.01747292,-0.8642298,0.44814423,0.27616915,0.12262981,-0.53387314,-0.5220816,-0.34814596,-0.7126259,-0.21495563,-0.12657477,-0.19174495,-0.4206648,0.3817813,0.32072353,-0.43022114
tình yêu,0.34916413,0.013131682,-0.04426984,0.22204438,0.03763676,0.034360588,-0.03265318,0.16875568,-0.058092058,0.33515045,0.259988,-0.07450288,0.13877764,-0.39785126,-0.071563564,0.021657418,0.25095126,0.49521244,-0.3990267,0.20783824,0.29624265,-0.60154366,-0.03140123,0.26103103,0.39368662,-0.11512809,-0.28781083,0.38799977,0.061939877,-0.029455563,-0.23664479,-0.09697446,0.28956366,0.05366473,0.39351803,-0.2904732,0.18398009,-0.44664922,0.039526355,0.0682449,0.004492059,0.21501535,-0.7532584,-0.3004219,0.36307132,0.51096594,-0.24871981,0.10663401,-0.15941697,-0.5877306,0.44250867,0.36828035,-0.17735142,0.18844219,-0.24657159,0.011172272,0.37786856,-0.088118,-0.2660048,-0.2938606,-0.35110858,0.12984183,0.450884,0.4182035
lòng,0.378528,0.042742606,0.059746362,0.1001487,0.1147801,0.035031963,-0.109562375,0.22317982,-0.045408342,0.18330227,0.2691207,-0.07929892,0.15021816,-0.24287674,0.04217937,-0.059002653,0.22488426,0.39678252,-0.37554562,0.19986063,0.4120463,-0.63220584,0.044171322,0.15001951,0.41138366,-0.21134126,-0.2867369,0.4028278,0.121320054,0.035832305,-0.17734271,-0.06636692,0.3860553,-0.06666782,0.40758032,-0.29924795,0.089232974,-0.316655,-0.05649554,0.07616125,0.036481667,0.18969423,-0.8244301,-0.0693142,0.2400066,0.4704502,-0.22727053,0.012354544,-0.32264832,-0.7005614,0.347498,0.31586903,-0.09156932,0.011635351,-0.349918,-0.06669637,0.4259019,-0.010342627,-0.28991503,-0.33315215,-0.373734,0.19790831,0.4586713,0.56319207
