node,0,1,2,3,4,5,6,7,8,9,10,11,12,13,14,15,16,17,18,19,20,21,22,23,24,25,26,27,28,29,30,31,32,33,34,35,36,37,38,39,40,41,42,43,44,45,46,47,48,49,50,51,52,53,54,55,56,57,58,59,60,61,62,63
là,-0.22706194,-0.2427074,-0.085286796,-0.009205327,-0.01892698,0.03831176,0.016738212,-0.008168713,-0.048459474,-0.015479529,-0.12680441,0.043922797,0.23575215,-0.16563004,-0.17460725,-0.16846259,-0.31481174,0.56873494,0.08668409,0.080788635,0.33876976,-0.45202285,-0.15880595,0.08329008,0.025886374,-0.136297,-0.121428855,-0.12674241,-0.055954505,0.044656303,0.052198403,-0.05990511,-0.0048050205,-0.20294353,0.23798126,-0.1965148,0.4497592,-0.10441975,-0.22619951,-0.033948157,-0.2906275,-0.124757335,-0.28345084,-0.08581058,-0.18183321,0.09985574,-0.120529786,-0.1681433,-0.22114766,-0.30736995,0.20171344,-0.033842206,-0.17402129,0.027483886,-0.06278996,-0.095479205,0.33180994,-0.17592561,-0.2520397,-0.277448,0.1458444,0.16432121,-0.0058317548,0.45574272
những,0.117963545,-0.15565372,0.45502666,-0.13581537,0.14678577,-0.04000252,0.22051023,0.091787264,-0.1639359,0.18465881,-0.30694962,-0.26899,-0.050965294,-0.017466022,-0.19761021,-0.061935656,-0.06489426,0.35147086,0.1030661,0.33010042,0.2777682,0.017156592,-0.22636066,0.041656405,0.0629827,-0.030177297,0.077142425,0.19208649,0.28567636,0.22399,-0.020510565,-0.04487774,0.09418709,0.17161119,-0.10130214,-0.013170452,0.4875845,0.054459415,0.0725992,-0.0711006,-0.12434455,-0.19963406,-0.007315892,-0.01541553,0.06464133,0.230184,-0.08948688,-0.20318279,-0.36089852,-0.03614207,0.26153943,0.43061885,-0.21041025,-0.04106631,-0.23639765,-0.044045445,0.27226683,-0.09586207,-0.079668336,0.19054544,0.0017958783,0.29933485,-0.023525126,0.39689636
và,0.11913472,0.13038597,0.6384114,0.05035467,-0.10953949,-0.112381436,0.17319705,0.07393429,-0.17751312,0.040256836,-0.4080454,-0.46662265,0.14414689,-0.3161354,-0.34975922,-0.38112646,-0.04227955,0.62924325,0.10496211,0.5069617,0.17337155,-0.16483057,0.03906067,-0.26140153,0.0659776,-0.24342708,0.017071044,0.15604015,0.11395385,0.2470632,-0.24071565,-0.26721787,0.26817453,0.13763574,-0.011256842,0.10211912,0.36560097,0.16931857,-0.22139609,-0.16545264,-0.24210742,-0.1501657,-0.059070516,0.21026261,0.3351958,0.16560234,-0.19398586,-0.12533557,0.087024175,-0.18747701,0.23270345,0.31228304,0.076022744,0.009208161,-0.11508793,-0.25463548,0.36497182,-0.21189374,-0.31872916,0.059649695,-0.16052613,0.14023417,-0.08956634,0.5028645
của,0.06201446,0.08157385,-0.038546707,0.088157624,-0.10195833,-0.18267684,0.03848367,0.23281072,0.03322418,-0.024523197,-0.53753465,-0.1036485,0.25048852,-0.31721827,-0.50433475,-0.36306018,-0.04353806,0.7025532,-0.1596632,0.15557449,-0.006339175,-0.3141305,0.004292749,-0.43994808,0.056754496,-0.3647842,-0.19399971,0.050905105,-0.35636765,-0.18277164,-0.05732246,-0.15691093,-0.09225289,-0.2504427,0.411634,0.000978288,0.17569143,-0.0972839,-0.43768278,0.13093106,-0.17027448,-0.041003752,-0.043656603,0.5092586,0.25450897,-0.11656589,-0.20116843,-0.10706678,0.18083425,-0.6269462,0.115763426,0.23618864,0.0198298,-0.30372518,-0.26650706,-0.2859531,0.34317034,-0.40755877,0.052467223,-0.14570305,-0.2875721,0.30859894,-0.35282475,0.070593886
núi,0.012905166,-0.21438488,-0.17959714,0.060470965,0.39295632,0.028775329,0.21084438,0.09187647,0.20561188,0.122392595,-0.3674889,0.10295525,-0.1483624,0.112185575,-0.15820538,0.039028805,-0.22850163,0.5806835,-0.027955152,-0.16927002,0.12436463,-0.24053045,-0.40402007,0.010460924,0.2535576,-0.24320613,-0.21464735,-0.05340801,0.02796959,-0.25827447,-1.0672833e-05,0.2388155,-0.15401147,-0.25097734,0.34500483,-0.38157827,0.6079576,-0.14450455,0.004164502,0.30399588,0.12675223,-0.12909487,-0.23324496,-0.12469488,-0.3116632,0.09310692,-0.22544715,-0.3237121,-0.36165765,-0.26889887,0.4045641,0.41242713,-0.19118734,-0.21549554,-0.34340435,-0.04517286,0.20127057,-0.35104778,-0.17106512,-0.024808606,-0.17646909,0.64381766,0.19463226,0.13088575
ta,-0.2920735,-0.36040306,0.22236368,0.29686302,0.45794472,0.008315865,-0.086420015,-0.024231095,-0.16727255,0.08334766,-0.0641409,-0.23598897,-0.06453961,-0.24505329,-0.025581885,-0.14269516,-0.07805191,0.5439177,0.07905091,0.09397666,0.19807534,-0.031441085,-0.13387126,-0.1408308,0.16425501,-0.36121252,-0.0961241,-0.04945996,-0.07741206,0.09128258,-0.061805293,0.16285211,-0.2330054,-0.011747522,0.06856864,0.060423333,0.2874566,0.08736404,-0.14418632,-0.17845435,0.03390449,-4.0559753e-06,-0.024055472,0.21545625,-0.10350821,0.49873295,0.20424223,-0.3431691,-0.16930987,-0.09376041,0.40856633,0.26601738,-0.20483518,0.020517167,-0.20220344,0.10951386,-0.27031747,-0.5017338,-0.010030161,0.24306436,-0.28834662,0.35670012,0.29682583,0.24528456
nước,-0.18933608,-0.50283664,0.32608795,0.060079604,0.31003922,0.12764664,-0.08973355,-0.16738407,0.020477433,0.21251279,-0.20806798,-0.12859826,-0.3543181,-0.060430363,-0.11787198,0.1331439,-0.40031725,0.7509478,-0.015103783,0.01298154,0.2633499,-0.17804307,-0.038139362,0.1824323,0.104702726,-0.21572267,-0.12351377,0.10831869,0.03743114,0.0024090777,-0.18700068,0.21920736,0.12412932,0.12447818,0.020262439,-0.2229314,0.5798833,0.2615153,0.03951138,0.14551544,-0.08556285,-0.22068217,-0.16742574,-0.18577896,-0.36323228,0.2662599,-0.36598128,-0.43368727,-0.25816646,-0.07057451,0.33807817,0.22904249,-0.042328145,0.05100891,-0.25831485,-0.20605047,0.07193565,-0.15347964,-0.12847173,0.093771026,-0.17278373,0.2439526,0.36104202,0.5037832
pu,-0.10030929,-0.078533426,0.2609429,0.3012052,0.18389076,-0.022565084,-0.21518093,-0.063209556,-0.34327602,0.080217995,-0.12717557,-0.33723098,0.14755002,-0.38185593,0.0421691,-0.39287582,0.06355165,0.5746218,0.10699202,0.30463013,0.15394647,-0.04860437,-0.33619344,-0.2860478,0.07373747,-0.24424066,0.109214984,-0.2257341,-0.027139414,0.37304914,0.013579118,-0.07635355,-0.39425638,0.06787785,-0.11388084,-0.0024750168,0.14713496,-0.20161295,-0.08823493,-0.26333007,-0.052430265,0.03499217,0.059831247,0.26476955,0.32987484,0.58215135,0.4504672,-0.35634673,-0.08477916,-0.12521328,0.37227952,0.037449796,-0.3758532,-0.10746721,-0.18380256,0.17197166,-0.08116919,-0.41624495,0.06310695,0.115820445,-0.16009274,0.25173888,0.15507187,0.24166012
con người,0.41059303,0.39038044,0.4942818,0.08122562,0.0141741065,0.30306515,-0.09825258,0.34834486,0.20245561,0.29830888,-0.47615132,0.1815359,-0.2900679,-0.30916902,0.033119757,-0.49916318,0.132703,0.541364,-0.24295285,-0.0058229556,-0.21805343,-0.2627731,-0.14459798,-0.3748351,0.18384789,-0.020936245,0.05164489,0.21569154,-0.10537081,-0.18566787,0.15573879,-0.47054595,-0.22513351,-0.10482081,0.20712465,0.08883612,0.04604421,0.19187745,-0.35250914,-0.1729495,-0.3750164,0.07515175,0.34194425,0.23666742,0.5570309,0.3317842,-0.25675607,-0.067994826,-0.18712,-1.1158682,0.033428796,-0.1298908,0.043334328,-0.15022698,-0.7321335,-0.3299917,0.326471,0.015546912,-0.022028912,-0.4742439,-0.02955599,-0.009778546,-0.23721918,0.23342443
rừng,0.16430391,-0.3944783,0.6195737,-0.34101126,-0.104659244,0.3304563,-0.35171738,-0.20742778,-0.085962944,0.39301613,-0.317055,-0.26831216,-0.4627019,0.010252144,-0.19704945,0.15875766,-0.56954473,0.7079334,-0.23608367,-0.025727063,0.4466875,-0.24941655,-0.203804,0.21438645,-0.14980742,0.05437819,0.097267605,0.2172027,0.026057163,0.13178898,-0.1432934,0.038800545,0.052647438,0.3639769,-0.16252786,-0.29663834,0.5678465,0.17604332,0.093825564,0.35642293,-0.28725627,-0.30057815,-0.23159048,-0.19168635,-0.19679661,0.25666592,-0.4681141,-0.3853451,-0.4131775,-0.3082372,0.14603204,0.22619529,-0.08062197,0.035645735,-0.30412278,-0.17340825,0.16620854,0.2863347,-0.07860339,-0.19822942,-0.06997109,-0.10180705,0.076926656,0.55962616
đường,0.12756048,-0.13486138,0.49450144,-0.20105384,0.29376602,0.08418355,0.26981467,0.06310178,0.11462111,-0.0002241482,-0.47019735,-0.19843191,-0.23321362,0.3956632,-0.4123141,-0.0149551025,0.038080066,0.6732432,-0.104336336,-0.07446921,0.12293154,-0.05298955,-0.13609952,0.29313642,0.054166235,0.030404551,-0.15363882,0.16348816,0.119397655,-0.19453476,-0.216271,-0.14895467,-0.03359315,-0.23715357,0.32861716,-0.3202261,0.5425299,0.13577092,0.39527413,0.36968115,-0.042269565,-0.19957763,-0.06930903,0.18257372,-0.2197721,0.033982534,-0.2822638,-0.6365531,-0.6544006,-0.081216566,0.27968752,0.6407903,-0.32888654,0.06824809,-0.51892054,-0.028906683,0.11981977,0.060569275,-0.09342569,0.18938051,-0.31997398,0.6431129,0.09690072,0.39683184
leng,-0.3349514,-0.340672,-0.15531169,0.1807806,0.29515868,-0.0041679298,-0.06873965,-0.03749367,-0.28193867,0.041667227,-0.16071045,-0.12034687,0.38175756,-0.5575706,-0.012733198,-0.23129173,-0.103562415,0.679752,0.09273734,0.28018716,0.33872724,-0.15211625,-0.25497714,-0.26258963,-0.00027134802,-0.37294888,0.023682918,-0.22690873,-0.24905163,0.3847809,0.14687157,0.09875387,-0.32735497,0.007878955,0.1186887,0.22224906,0.19892801,-0.2798973,-0.20773444,-0.3641696,-0.030336685,-0.16157332,-0.10163039,0.19646415,0.05312278,0.42698374,0.49498785,-0.3268039,-0.0614211,-0.3486856,0.32262373,0.04765502,-0.22880207,-0.18907718,-0.32997227,0.110827774,-0.049706962,-0.63265693,0.3049034,-0.04591358,-0.11143366,0.31171268,0.19842339,0.22278562
trong,0.13611656,0.004737905,0.23977382,-0.053811267,0.15023051,-0.0012688738,0.02674276,-0.076179706,-0.17288278,-0.11374401,-0.5712104,-0.05487317,-0.054970555,0.05895838,-0.5257583,-0.30568096,0.004315986,0.37311542,-0.2750659,-0.25775483,0.074081026,-0.12829992,-0.111981586,-0.1950632,-0.012881587,-0.13563943,-0.4141812,-0.06650057,-0.07818097,-0.087427616,-0.1846356,0.1121133,-0.27926055,-0.31689095,0.3026582,-0.1462021,0.28541887,-0.030689549,0.18865463,0.2833772,-0.1711579,0.048354916,0.06217548,0.54392636,0.24453682,-0.07494384,0.093437426,-0.26455224,-0.17325525,-0.42989466,0.33453923,0.4355193,-0.2982836,-0.036654823,-0.3711724,-0.014299504,-0.044765558,-0.11349179,0.13578711,0.25886747,-0.15954213,0.3675688,-0.4729553,0.05265849
người,-0.030752877,-0.09946096,0.5441114,0.024232063,0.2840162,-0.0021263459,0.08641249,-0.062447622,-0.4786328,0.19305417,-0.20215304,-0.43311313,0.24763246,-0.46373975,-0.08399373,-0.39516374,-0.061342217,0.41661903,0.1822851,0.4906039,0.32063812,-0.05285384,-0.24129526,-0.2701593,-0.02230657,-0.2014316,0.13225693,-0.024176603,0.1570637,0.69880664,-0.03289683,-0.03163259,-0.025893005,0.15835792,0.005848989,0.2861305,0.37064892,-0.20899156,-0.10859432,-0.41730642,-0.21408121,-0.20007645,0.1106484,0.23163137,0.33907095,0.4053695,0.3192997,-0.17564209,-0.20051579,-0.16807081,0.31546596,0.22631842,-0.08348027,0.11417725,-0.26524153,0.028235015,0.09549901,-0.37213188,-0.1535166,0.19366114,0.048775595,0.1900932,0.05755962,0.46472642
thiên nhiên,0.35401163,0.08280048,0.51303774,0.08200568,0.10891356,0.29442066,-0.116895005,0.35495883,0.0023379556,0.5653813,-0.28423128,-0.22021356,-0.35039774,-0.20536667,0.29556102,-0.17070255,0.08067403,0.46616787,-0.033215847,0.46208033,0.097066686,0.052373238,-0.50167054,-0.06347681,0.1672004,-0.014753669,0.5095081,0.29562277,0.10122052,0.24848522,0.22348973,-0.3774595,-0.27719125,0.42083576,-0.3461443,0.0042986586,0.22039577,0.12463267,-0.16552891,-0.22675078,-0.11283748,-0.16200505,0.15533979,-0.08240295,0.30906782,0.6896134,0.005175024,-0.30300763,-0.50389415,-0.4404485,0.18599142,0.11189695,-0.21229774,-0.25516814,-0.59850574,-0.10133218,0.22304288,-0.18148465,0.056225598,-0.08408655,-0.057571266,0.13774624,0.31784862,0.32359993
được,-0.19186583,-0.32653898,0.22633092,-0.084531166,0.2099487,0.068315655,0.007941121,-0.10637618,-0.52707833,0.15638916,-0.119653,-0.36287615,0.44641975,-0.49002817,-0.23712832,-0.3640649,-0.22676025,0.40959188,-0.03619322,0.26507902,0.38281396,-0.15259473,-0.15062854,-0.32234636,-0.12265159,-0.31188267,-0.014561694,-0.1403501,-0.32628024,0.581809,0.04076058,0.028948966,-0.20430838,-0.08349149,0.21949744,0.27651542,0.24850164,-0.29390717,-0.23035657,-0.39550152,-0.2949771,-0.26079482,-0.032047253,0.5486755,0.08770131,0.31670636,0.46624038,-0.14487936,-0.20791346,-0.4317197,0.27987164,0.2504036,-0.120373175,0.1454215,-0.18098174,0.19199209,-0.10363603,-0.49730256,-0.058430504,0.095140666,0.02584189,0.060597192,-0.07148715,0.44485188
ngọn,-0.09629473,-0.17749223,-0.59531224,0.15283842,0.31260005,0.013478653,0.28374422,0.030302363,0.206017,0.13427179,-0.46818653,0.20599411,0.16732746,-0.15959947,-0.06426417,-0.0082953125,-0.24571468,0.87099296,-0.033752322,0.020084627,0.19439034,-0.50190115,-0.5942924,-0.07982316,0.3205928,-0.4368505,-0.12329886,-0.23547275,-0.14156185,-0.23553772,0.107334465,0.20362666,-0.27731973,-0.31777948,0.45782477,-0.42639747,0.63293993,-0.47157994,-0.16716924,0.29997984,0.2390295,-0.17409007,-0.40478846,-0.18343754,-0.27903527,0.052891836,-0.087736145,-0.40896472,-0.26385006,-0.408656,0.48413837,0.27238837,-0.23278168,-0.4512752,-0.36148566,-0.1344398,0.5367614,-0.6089712,-0.09365192,-0.3130223,-0.20384724,0.7844889,0.3194953,0.11047876
dãy,0.2230921,0.0529458,-0.122214034,-0.031495415,0.18301465,-0.0028503013,-0.06254754,-0.16180265,-0.2524331,0.037378278,-0.60197634,0.118700154,-0.032666713,0.01983597,-0.4535132,-0.35235512,-0.1170686,0.39347652,-0.20765823,-0.47918004,0.2077646,-0.37558433,-0.4863804,-0.3658609,0.1216265,-0.30228588,-0.5469982,-0.38245362,-0.15054709,-0.15728006,0.048211984,0.26839843,-0.50296134,-0.60841703,0.326316,-0.54042435,0.34478372,-0.34938827,0.13962696,0.34956905,-0.24942061,0.068297476,-0.1255408,0.44411644,0.24296935,0.051155258,0.26450133,-0.23321052,-0.23099321,-0.6267563,0.5240334,0.25749,-0.34674555,-0.16951418,-0.23500684,0.10092537,0.0027458044,-0.18043573,-0.14783216,0.0026239788,-0.04071167,0.4557326,-0.607728,-0.015172397
hành trình,-0.07251607,0.15094769,0.29746652,0.39813647,-0.080571465,-0.13013041,-0.09157941,0.2608022,-0.026489075,-0.056999523,-0.098766536,-0.20710999,0.12750944,-0.35194936,-0.14772364,-0.58159924,0.05870205,0.7198733,0.327025,0.3871276,0.15230744,-0.26901478,-0.24557498,-0.28885728,0.19333597,-0.20016982,-0.004819408,-0.16921528,0.14759207,0.07288117,0.02847844,-0.3338551,-0.10461064,-0.1402899,-0.085300595,-0.05564408,0.21810727,0.059771463,-0.41369757,-0.32656902,-0.2921321,0.13708574,-0.013922858,0.10795399,0.2808669,0.48551255,0.06935862,-0.13739993,0.0048727295,-0.3112779,0.18057217,-0.07011173,-0.21715702,-0.04982341,-0.082537055,0.03778272,0.22693248,-0.22415175,-0.34984905,-0.18256879,-0.081549905,0.18421803,-0.08942746,0.41156876
vào,0.43291837,0.14311236,0.67571414,-0.118558854,-0.17066339,0.4301164,-0.2569766,0.23551247,0.02518721,0.61119795,-0.33588096,-0.15577519,-0.3249533,-0.25815865,0.15960966,-0.24913165,-0.100486964,0.5038831,-0.18779431,0.36141527,0.1306528,-0.20802934,-0.43290272,-0.15065613,-0.0032986328,0.22274648,0.56650627,0.34501594,0.08512551,0.32821202,0.20385318,-0.4719475,-0.22366203,0.4378237,-0.28759575,0.018326992,0.2279669,0.058891945,-0.21097937,-0.15172362,-0.33332697,-0.14290479,0.19522038,-0.07992114,0.41101858,0.5509841,-0.19593133,-0.22208157,-0.4646526,-0.7046565,-0.041322637,-0.06684652,-0.106788926,-0.20835134,-0.6535808,-0.1728822,0.43043,0.21100263,0.0521031,-0.39835092,0.11715329,-0.12664884,0.0072118896,0.46267465
hùng vĩ,0.1727661,0.15111645,0.4550413,0.11318988,-0.009855262,0.046593502,0.07012046,0.21738945,-0.17506766,0.23492195,-0.22218531,-0.24133575,0.15975311,-0.33414313,-0.0018104006,-0.4162551,0.053229284,0.42783096,0.05741538,0.4723354,0.09825822,-0.07943337,-0.2529108,-0.21833822,0.05187431,-0.014357436,0.2895002,0.13636261,0.09757972,0.39217755,0.1068623,-0.40840757,-0.042647652,0.13571072,-0.028661313,0.20849608,0.21500883,-0.028870948,-0.25847805,-0.36819592,-0.25954342,-0.1246205,0.160686,0.22265361,0.3833319,0.34138218,0.103512496,-0.17014974,-0.22118683,-0.37311834,0.08891692,0.105692714,-0.08952357,0.025580985,-0.3251541,0.0005223194,0.25815767,-0.17971034,-0.10123102,-0.08549326,0.035093904,0.09527613,0.012757268,0.39712495
việt nam,0.20129623,0.25330746,0.1860242,0.08201568,0.14598002,0.19336116,0.029935401,0.05835432,0.113943204,0.02650147,-0.6263496,0.20973867,-0.13315341,-0.29017532,-0.3315411,-0.389481,0.060659386,0.46527168,-0.36589321,-0.3324793,-0.2187817,-0.32446972,0.022962682,-0.3905946,0.16595456,-0.21712907,-0.4044232,0.08379654,-0.3102699,-0.3316275,-0.042316012,-0.056371473,-0.22188254,-0.31617665,0.52095467,0.031086447,0.14621139,0.0133384075,-0.20583753,0.11687033,-0.21757211,0.09509747,0.21424583,0.53524244,0.43320805,-0.033822745,-0.20494033,-0.09331673,0.12176489,-0.9729626,0.25990146,0.15035121,0.011420967,-0.12897693,-0.5839487,-0.34819305,0.12433869,-0.18650138,0.10597178,-0.21098971,-0.16994116,0.30044147,-0.4194439,0.026714105
cao,-0.33298415,-0.32048637,-0.33173567,0.15974082,0.27467114,-0.005817391,0.1384363,-0.06297777,-0.08179244,-0.05226259,-0.23751476,-0.019567123,0.3521032,-0.3849053,-0.07826781,-0.10993834,-0.18277217,0.78137225,0.06369186,0.1740851,0.21094573,-0.2656424,-0.22602564,-0.19023284,0.08279451,-0.41336235,-0.13103904,-0.23408823,-0.27526784,0.07295263,0.072676755,0.19362174,-0.16321234,-0.16731575,0.36232504,0.03727679,0.32421824,-0.34497482,-0.15052499,-0.05624785,0.07728609,-0.19793923,-0.28123057,0.08330443,-0.14227307,0.18307067,0.169856,-0.37484178,0.013180993,-0.33265457,0.34248194,0.18216908,-0.12748052,-0.21981366,-0.3262113,-0.06593208,0.17081596,-0.640138,0.1449531,-0.17171729,-0.15668556,0.45984554,0.2712118,0.18649922
vẻ,0.1860569,0.088405594,0.3295519,-0.0106823025,-0.39514014,-0.18850286,-0.03804118,0.29676443,-0.097896196,0.0868469,-0.6123373,-0.45487496,0.2988621,-0.37445024,-0.73565197,-0.44441155,-0.2255622,0.8455463,-0.1871874,0.45533273,0.08152061,-0.32998532,0.0551585,-0.4399139,-0.05433425,-0.31039432,0.031800684,0.2919161,-0.32857987,-0.00867662,-0.19620958,-0.38832852,0.14215854,0.010091651,0.24837445,0.10449024,0.28809083,0.083441444,-0.6071388,0.10294162,-0.29227546,-0.20285445,-0.09131601,0.63240063,0.30344334,-0.16558471,-0.4171882,-0.08714211,0.23747472,-0.6084436,0.0011763567,0.36160216,0.15107094,-0.1948763,-0.20042475,-0.41798687,0.42520666,-0.2537878,-0.04261938,-0.17395541,-0.28761524,0.12194308,-0.41999543,0.3384978
đến,-0.13893858,-0.5491595,0.14940335,0.02238649,-0.07698864,-0.07492883,-0.4150318,0.22284041,-0.022095963,0.16646211,-0.30248457,-0.19081737,-0.25478083,-0.41761503,-0.48614708,0.10064726,-0.54119354,0.8998633,-0.028245755,-0.054521102,0.43302515,-0.2172002,0.05873285,-0.14208479,-0.016677082,-0.503802,-0.26278564,0.21880467,-0.3984435,-0.30971012,0.0028284441,0.23757501,0.03938124,0.24974413,-0.1640316,-0.024697928,0.31684434,0.4421672,-0.5882068,0.11318769,-0.2661378,-0.15953924,-0.31525868,0.18594429,-0.28920037,0.30333167,-0.42675254,-0.13117346,0.18418871,-0.61843765,0.17991456,0.24631222,0.09259005,-0.30438146,-0.1261357,-0.20510249,-0.11433787,-0.31432602,0.1532266,-0.24193643,-0.36844048,0.008950607,-0.19443059,0.31239498
chinh phục,-0.10767174,-0.083863266,0.355616,0.09895238,0.2216632,0.070057586,-0.028427878,-0.04945014,-0.4861071,0.04190654,-0.057845704,-0.25010055,0.30300894,-0.41808647,-0.11279184,-0.48610267,-0.010302791,0.45780748,0.11502229,0.19518007,0.2677142,-0.15019464,-0.24318433,-0.3974571,0.017068801,-0.22653575,-0.0770106,-0.24555504,-0.12243315,0.42426774,0.11763342,-0.021102712,-0.25684366,-0.18725315,0.13244486,0.2052099,0.16393787,-0.18249086,-0.1462652,-0.48284382,-0.33551362,-0.08864308,0.024885144,0.4102169,0.23011766,0.49353006,0.5107386,-0.19694944,-0.21115199,-0.4013181,0.30711973,0.060573343,-0.22310509,0.16408512,-0.24919143,0.2640653,-0.10734966,-0.3505263,-0.16124047,0.007923945,0.04011136,0.12218529,-0.08700871,0.43688422
ba,-0.109055124,-0.22958358,0.14085564,0.28823,0.32475182,0.11368076,-0.21381685,0.030275147,0.13069479,0.06760622,-0.37423167,0.08244748,-0.46442643,-0.40692315,-0.13433442,-0.03334488,-0.24407193,0.6923001,-0.16568355,-0.3226321,0.018509954,-0.17148727,0.011654627,-0.3333651,0.22391705,-0.5229835,-0.46943748,0.11448894,-0.25030923,-0.417376,-0.1260129,0.42421252,-0.19071153,0.028839037,0.10696614,0.016204976,0.27624372,0.30217224,-0.32075745,0.10677369,0.02319516,0.104028784,0.014993407,0.243843,-0.05352071,0.29145876,-0.2627697,-0.19252896,0.28415063,-0.63530385,0.42439705,0.25135702,0.09427048,-0.22839355,-0.38224873,-0.21777491,-0.2719275,-0.41371462,0.13898024,-0.03392355,-0.42514956,0.31641465,-0.025045728,0.034004286
một,-0.034799434,-0.39699075,0.20577489,-0.11982756,0.14341909,-0.1318188,-0.032640807,0.1984747,-0.23699299,0.054613885,-0.24879268,-0.3217066,0.05459423,-0.03804394,-0.45662144,-0.042495776,-0.11585807,0.4201296,0.11993572,0.07598784,0.36623654,0.07138006,-0.061832152,0.015893063,-0.06809331,-0.2159184,-0.09908911,0.06609903,-0.17035392,0.058193307,0.028476916,0.07472563,-0.08690637,-0.0073591913,-0.101570465,0.034955584,0.18060935,0.15166885,-0.077408135,-0.04912762,-0.22745374,-0.21158487,-0.08660322,0.31506267,-0.10263813,0.22309747,0.12048858,-0.22546364,-0.2374849,-0.2079808,0.15639065,0.4168711,-0.26222834,-0.14419538,-0.17335191,0.1673938,-0.14115547,-0.24504836,0.19623269,0.18702744,-0.21147591,0.21654288,-0.23036894,0.25212786
vượt,0.112661265,-0.46396577,0.5534408,-0.18077902,-0.07297482,0.18155353,-0.4811606,-0.18179312,-0.1047505,0.30684632,-0.5540075,-0.2605759,-0.74660903,-0.3846794,-0.40546012,0.19737136,-0.84597,0.9385788,-0.2751146,-0.21532075,0.509198,-0.33415467,-0.037847675,-0.154537,-0.09207974,-0.44067946,-0.35926455,0.27187064,-0.18942857,-0.1657744,-0.26728785,0.44218343,0.12130198,0.5011359,-0.27588785,-0.18494563,0.6438448,0.48080987,-0.26663783,0.4685482,-0.31232253,-0.26975793,-0.3623936,-0.060097717,-0.15749048,0.31543055,-0.71112525,-0.167752,0.13750964,-0.5989342,0.4004807,0.40563145,0.19611329,-0.13180692,-0.24124117,-0.4003156,0.01319652,-0.050754245,-0.04581714,-0.26124358,-0.28172857,-0.1327534,-0.20068912,0.41630867
hoàng,0.27003008,0.06589481,0.3222221,0.089032866,0.11092852,-0.050468173,-0.3346775,-0.1744698,-0.22537772,-0.0755965,-0.7056723,-0.20408839,-0.35433382,0.024641769,-0.5574533,-0.3611983,0.026593253,0.6433372,-0.24494205,-0.39166132,0.052158892,-0.1255156,-0.31410453,-0.4293633,0.042934,-0.2669302,-0.47256437,-0.2089035,-0.13489962,-0.16229005,-0.238209,0.22708929,-0.55117935,-0.25406682,0.051166605,-0.48559833,0.24197422,-0.06854798,0.22870271,0.5218188,-0.107357815,0.17518272,0.07004408,0.5804436,0.41942608,0.18550457,0.19558722,-0.45659333,-0.017830225,-0.39595315,0.46182257,0.36622334,-0.4626975,-0.24738514,-0.38383257,0.05399846,-0.18232042,-0.06873688,0.18741661,0.26444253,-0.4069077,0.43489608,-0.57302356,-0.054464296
bất khuất,0.28641054,0.29589593,0.50058943,0.014771859,-0.13547447,0.009549807,0.03796175,0.29505762,0.042599037,0.17982495,-0.5927235,-0.12747617,0.026398424,-0.22974762,-0.4318515,-0.48358887,0.011767024,0.58350724,-0.15606984,0.17097755,-0.1499181,-0.2361378,0.10664975,-0.4735005,0.09481809,-0.17055207,-0.06759421,0.30258685,-0.179218,-0.16977388,-0.026808068,-0.35555288,-0.002166616,-0.10270216,0.33109555,0.12712392,0.14287394,0.20180787,-0.40738064,-0.023723567,-0.33400032,0.03761563,0.1275874,0.48018765,0.4725949,0.028207997,-0.3947568,-0.050522637,0.113503754,-0.8412599,0.047775045,0.22265512,0.14906277,-0.16939244,-0.4765379,-0.44278806,0.3950914,-0.12002563,-0.07235772,-0.19429809,-0.17078057,0.09479316,-0.39725104,0.28762057
liên sơn,0.21527758,0.01376912,0.23414436,0.1990324,0.21596485,-0.1208464,-0.33912122,-0.18592386,-0.27119702,-0.13950956,-0.7422298,-0.26053655,-0.30096874,0.005156891,-0.60735095,-0.3965836,0.050858628,0.75269914,-0.17118974,-0.4237474,0.10542939,-0.20238556,-0.41737127,-0.48306125,0.13918008,-0.38134232,-0.5744567,-0.36350438,-0.16861196,-0.1711501,-0.2517849,0.33234,-0.6379002,-0.33950204,0.13120188,-0.55919886,0.3129737,-0.14173467,0.24566835,0.5279211,-0.08119914,0.18304138,0.024273396,0.6569792,0.39618978,0.26125312,0.2878245,-0.5448175,6.188493e-05,-0.35708672,0.6490947,0.47533226,-0.5445417,-0.3680045,-0.36599788,0.10104406,-0.21335426,-0.24122092,0.21461211,0.33269167,-0.48646605,0.66463155,-0.5698018,-0.08414816
đẹp,0.27528057,0.20381926,0.34592742,-0.044633005,-0.35583302,-0.10137696,0.099669956,0.29690802,-0.046635356,0.12317688,-0.6376173,-0.3556715,0.34775406,-0.27323028,-0.70066667,-0.46490464,-0.062339514,0.7792767,-0.20148335,0.43037447,-0.024608532,-0.31160024,0.052414257,-0.38990176,-0.020202553,-0.22422802,0.066832185,0.2986049,-0.30841225,-0.029315969,-0.14994091,-0.50121504,0.14276616,-0.11895401,0.33137912,0.11932662,0.20688349,0.06556822,-0.4584574,0.07621851,-0.32871294,-0.19118051,0.010891405,0.63369435,0.3924487,-0.1975612,-0.3893828,-0.12951143,0.12383989,-0.65278256,0.019956466,0.3506644,0.122616656,-0.15539217,-0.31929004,-0.41561922,0.51593,-0.20549683,0.00046266743,-0.17928073,-0.26534644,0.18150832,-0.41869965,0.38153878
đối với,0.2544991,0.10711024,0.7046305,-0.07822694,0.10888112,0.14735532,0.055461083,0.2184772,-0.1767006,0.4447116,-0.25106952,-0.34401923,-0.024751388,-0.27723488,0.037116632,-0.3164636,-0.044557866,0.34420583,0.105171576,0.58621436,0.24880414,-0.0226485,-0.31829226,-0.13249893,0.02297846,0.01903353,0.38369554,0.22332777,0.27634048,0.5250749,0.11971556,-0.3068748,-0.058159582,0.33048877,-0.22989456,0.20473053,0.3688192,0.030516455,-0.16257016,-0.3602447,-0.2307147,-0.15230876,0.16880308,-0.0035320038,0.37272015,0.48805892,0.041333064,-0.1816653,-0.39789617,-0.31360424,0.11962982,0.20060639,-0.11760434,0.003959968,-0.42296183,-0.036255993,0.35614192,-0.053720146,-0.16414613,0.005332116,0.10486449,0.077601485,0.05054965,0.534524
thích,-0.017103508,-0.0070248707,0.7143431,-0.030484995,0.27268928,-0.05504213,0.2724326,-0.02287396,-0.38366988,0.18029158,-0.3410752,-0.45673215,0.19926675,-0.32637993,-0.17388225,-0.36891055,-0.08545411,0.41633502,0.17856258,0.5586669,0.23510733,-0.01093728,-0.1040996,-0.23946957,0.014807546,-0.2044088,0.06386516,0.10494844,0.2521946,0.59905535,-0.14232244,-0.084374994,0.12390898,0.14510742,0.0629171,0.27192006,0.47900143,-0.046125013,-0.090331,-0.35896906,-0.19808657,-0.14405815,0.073300816,0.1892305,0.34962648,0.25408784,0.026565382,-0.20953627,-0.2212513,-0.106881484,0.33921382,0.405861,-0.06733683,0.18840021,-0.21941812,-0.11502639,0.28571174,-0.32209247,-0.27415887,0.2830331,-0.028562356,0.23529811,0.060523942,0.5738436
huyền ảo,0.22237223,-0.07548224,0.40999112,0.102254204,0.19517297,0.65414345,-0.40166977,0.20378654,-0.17577413,0.71063507,-0.14825885,-0.24993359,-0.20488238,-0.3443808,0.4842154,-0.2599408,0.13623896,0.6781741,-0.2439332,0.53559107,0.14596641,-0.0094971685,-0.8016509,-0.11394871,0.08784455,-0.09945673,0.7561505,0.16843237,-0.27861765,0.4599522,0.37923336,-0.4780263,-0.758024,0.37318096,-0.34018043,-0.092201374,0.09912034,-0.20781307,-0.16038455,-0.3807299,-0.060922965,-0.19802263,0.10354431,0.0687358,0.33599284,1.1061298,0.45704243,-0.5616764,-0.66711706,-0.6609612,0.2637191,-0.052985985,-0.5216054,-0.29048315,-0.7880095,0.11469139,-0.036598425,-0.40623698,0.23343724,-0.16032201,-0.061116822,0.109153464,0.5867845,0.41276485
qua,0.22225861,-0.40424395,0.7306428,-0.2526363,-0.091885425,0.20993134,-0.40183017,-0.19906206,-0.21449022,0.35961187,-0.49899915,-0.41573942,-0.6756619,-0.300806,-0.3144981,0.1442333,-0.7588948,0.7613992,-0.19425796,-0.037253678,0.5427417,-0.23587708,-0.111038424,-0.11054086,-0.13096824,-0.34290656,-0.20932865,0.28660288,-0.073147595,0.08235131,-0.23671655,0.27127632,0.14630882,0.5154472,-0.3618355,-0.20469554,0.6234534,0.4269805,-0.15827505,0.3102925,-0.39185134,-0.32317007,-0.31260043,-0.028903363,-0.12506907,0.3944938,-0.5601082,-0.16606732,-0.03847537,-0.44261414,0.3407441,0.402127,0.13342893,-0.0072640325,-0.1974079,-0.33116978,0.042811736,0.039807037,-0.15303877,-0.1473436,-0.1656999,-0.20604083,-0.15245393,0.5291883
về,-0.0756381,0.17991228,0.3239993,0.42921185,0.075624235,0.0532987,-0.16905998,0.35676885,0.17988953,-0.112284444,-0.12373231,0.1477935,-0.16973722,-0.35445014,0.08816697,-0.657185,0.044810906,0.7629525,0.29370114,0.10696604,0.07435536,-0.29239082,-0.18765682,-0.33654323,0.27871284,-0.13510743,-0.14808257,-0.19366713,0.15974808,-0.1733617,0.11889405,-0.30030578,-0.27008414,-0.2957993,0.101376526,-0.079747766,0.17388645,0.24921288,-0.43804452,-0.34869003,-0.4312234,0.23865516,0.09256316,-0.008023325,0.33500478,0.5954321,-0.022988023,-0.17891717,-0.16722098,-0.7386218,0.09240021,-0.31071442,-0.20488,-0.015450021,-0.39368388,-0.001610206,0.16586082,-0.14896402,-0.4302295,-0.40909693,-0.000101731996,0.09656996,-0.1494781,0.42037922
nước biển,-0.30948254,-0.44489032,-0.44908407,0.16601728,0.33377036,0.05644032,0.11762501,-0.1196987,0.101824015,-0.0035046379,-0.37446788,0.1070977,0.15565556,-0.21953261,0.03197299,0.12960722,-0.2735424,0.96793586,0.057201613,0.13474143,0.25015035,-0.33336347,-0.41571316,0.096104495,0.16624276,-0.31515664,-0.07159382,-0.21722415,-0.15379657,-0.052762356,0.15115112,0.24628997,-0.19988431,-0.09862626,0.26684883,-0.20425741,0.52222854,-0.3522751,0.041384205,0.13034849,0.1885797,-0.2564362,-0.42296323,-0.30269957,-0.3004534,0.21490283,-0.013335785,-0.60573536,-0.13711204,-0.20432834,0.42697987,0.17234968,-0.25928095,-0.40027168,-0.46503747,-0.13743238,0.33652964,-0.56605977,0.25336698,-0.29493377,-0.15722369,0.6629161,0.50219285,0.16639183
thuộc,0.23259969,0.05821384,0.2577926,0.27624968,0.24022688,-0.1086215,-0.43959227,-0.22951944,-0.4576531,-0.105431415,-0.65573204,-0.28561428,-0.20441914,-0.12935019,-0.4965751,-0.5108363,0.12197298,0.76401573,-0.09116961,-0.32774073,0.18192923,-0.18186338,-0.61284477,-0.5263021,0.12061138,-0.3743698,-0.4756788,-0.52276963,-0.1631591,0.035776548,-0.14350711,0.2930325,-0.7981234,-0.347891,0.03277401,-0.5467739,0.2538378,-0.28830612,0.25644833,0.3324096,-0.16265665,0.22495602,0.03256822,0.66491485,0.5192813,0.5217657,0.6100459,-0.5375502,-0.042070463,-0.39858902,0.6745745,0.31395042,-0.65808046,-0.33048454,-0.35000798,0.23893765,-0.2729836,-0.30371067,0.1816999,0.2694364,-0.3594106,0.5731057,-0.58429205,-0.026665976
con,0.20526922,-0.06178588,0.7148623,-0.28971484,0.032842424,0.06318471,0.4706274,0.2044919,-0.025722982,0.106929526,-0.4321428,-0.39002463,-0.074087456,0.20884734,-0.36295354,-0.08549498,0.10952051,0.58870894,0.09425355,0.35379994,0.14850064,-0.009520326,0.023992494,0.26173437,0.047638014,-0.052623447,0.03402233,0.31286398,0.0983886,-0.1390208,-0.24916826,-0.4096199,0.21536599,-0.049026337,0.05704865,-0.10150858,0.42821723,0.33959302,0.3031027,0.053769566,-0.17839625,-0.27290118,-0.15162276,0.16976349,0.012375381,0.1820566,-0.35106522,-0.52011937,-0.4985357,-0.035482142,0.2796824,0.6871048,-0.31677192,-0.046726037,-0.39928663,-0.1231499,0.37471735,-0.042127594,-0.06432285,0.17006125,-0.24952568,0.4445473,0.0640778,0.64024025
rậm,0.15508842,-0.3524175,0.5587647,-0.18199168,-0.021658892,0.11058099,-0.24458547,-0.14632604,-0.079991415,0.28440827,-0.48013678,-0.34015387,-0.58112615,-0.11938862,-0.30995297,0.2007146,-0.60621494,0.7517853,-0.12361223,-0.045507476,0.43703717,-0.237666,-0.14228858,0.006769971,-0.01294688,-0.28245592,-0.15650049,0.21736333,0.03240163,-0.068973444,-0.24494387,0.27791587,0.109601,0.38557836,-0.23447105,-0.28097975,0.61240643,0.33199596,-0.04467889,0.38452765,-0.21674323,-0.24070649,-0.35949355,-0.123326205,-0.19853549,0.32032517,-0.53413653,-0.22772475,-0.03613752,-0.23707467,0.3849827,0.45252794,0.055354826,-0.06513088,-0.17281793,-0.2933899,0.09231974,-0.028531449,-0.11565788,-0.067172155,-0.22414948,0.028117776,-0.020977281,0.40235296
yêu,0.15402982,0.09535977,0.8380227,-0.0070797727,0.18320154,-0.06802173,0.2190193,0.114777,-0.34260386,0.28082466,-0.38721633,-0.5191864,0.09507829,-0.28744125,-0.17932332,-0.36627975,-0.084533125,0.42387033,0.23724674,0.6129924,0.27477965,0.008870012,-0.21476412,-0.2354506,0.060185045,-0.08727703,0.2127274,0.20511845,0.3788306,0.60236055,-0.093465984,-0.21630014,0.12036658,0.30878606,-0.14456633,0.21814853,0.51018953,0.05545757,-0.15728828,-0.35350883,-0.23937562,-0.15395702,0.18114667,0.13746446,0.4347186,0.32589284,-0.02731866,-0.19856928,-0.27085558,-0.1367275,0.2579429,0.37362355,-0.08751292,0.052713346,-0.2633756,-0.100308225,0.32244354,-0.20687565,-0.28552997,0.263303,-0.006589491,0.23039256,-0.0279419,0.5581641
huyện,0.1778252,0.021228528,0.27751076,0.29080415,0.2678696,-0.15711656,-0.3699456,-0.18265107,-0.39742315,-0.13532554,-0.6466571,-0.3374439,-0.14858714,-0.11674287,-0.4947468,-0.47749764,0.12596653,0.79615176,0.0031220233,-0.24927615,0.11620786,-0.12348219,-0.5269277,-0.522874,0.11811762,-0.32595143,-0.44219828,-0.4918746,-0.11767713,0.07982196,-0.154959,0.272754,-0.68167484,-0.32485023,0.028569903,-0.50197285,0.23621148,-0.27102336,0.2409728,0.2700029,-0.07384789,0.18948466,0.044454228,0.64486545,0.51841235,0.4425538,0.5339299,-0.5502619,0.008480681,-0.2875946,0.64333755,0.3371742,-0.6313373,-0.32133788,-0.3665689,0.20721695,-0.18660672,-0.34484985,0.1888288,0.3119776,-0.40141705,0.63726145,-0.49971578,-0.049739826
tranh,0.33099213,0.013318815,0.39950484,0.09750625,0.14887665,0.696046,-0.36552492,0.3264723,-0.018888986,0.7693557,-0.19458315,-0.1398965,-0.2908457,-0.26495132,0.503076,-0.22387558,0.107958466,0.61273426,-0.2592254,0.43969536,0.15884294,-0.04645629,-0.76930386,-0.047023196,0.13550685,0.015484022,0.7455957,0.22555675,-0.2342861,0.30965102,0.44630006,-0.52722126,-0.72270375,0.33346385,-0.31884798,-0.115211606,0.10368856,-0.11046368,-0.15804997,-0.3634457,-0.12209998,-0.15722288,0.13617799,-0.01952681,0.3190855,1.0307419,0.30463612,-0.5373762,-0.7931036,-0.7733587,0.2079484,-0.08350143,-0.47015083,-0.34264183,-0.87857294,0.070654154,0.077830866,-0.30152947,0.20102656,-0.26969787,-0.00016468359,0.11771811,0.5388725,0.40696222
tuy nhiên,0.2277938,-0.07697214,0.852724,-0.41664428,0.10244244,0.10920812,0.5916494,0.18206386,-0.038581062,0.010742949,-0.5696016,-0.49870217,-0.07206919,0.41129366,-0.54621184,-0.11097043,0.27714124,0.7754152,0.021644635,0.26975176,0.1753339,0.015403152,0.04361025,0.39639378,0.040020417,0.018198194,0.021572446,0.34572554,0.033940706,-0.19437398,-0.3283072,-0.56393826,0.13278237,-0.22099525,0.2476736,-0.16406876,0.50426894,0.3443665,0.5162628,0.1660179,-0.1903612,-0.29700598,-0.1998941,0.3370092,-0.05010486,0.13716902,-0.33139536,-0.77668136,-0.82221514,-0.049150508,0.27780238,0.86927533,-0.4971787,0.0012822429,-0.55795175,-0.0630266,0.3208871,0.07326082,-0.030464869,0.22346394,-0.40351263,0.7057327,0.12603764,0.7277609
tam đường,0.079177395,-0.074286245,0.31428435,0.34190154,0.27185103,-0.13249753,-0.47893885,-0.18072659,-0.40460533,-0.13990515,-0.52321494,-0.33294448,-0.123289995,-0.25950488,-0.3637684,-0.5307594,0.14487158,0.8241333,0.0915874,-0.14162111,0.18165238,-0.112008475,-0.49804172,-0.5314203,0.113792345,-0.34508118,-0.35626996,-0.5164872,-0.11386101,0.18989423,-0.15064095,0.22425868,-0.6978942,-0.19126019,-0.060657505,-0.37601322,0.20242362,-0.24779794,0.15206973,0.117997706,-0.10414869,0.19673893,0.08027433,0.5905636,0.5228931,0.61291,0.60844386,-0.5361293,0.036603093,-0.26008442,0.60488254,0.22753178,-0.6181429,-0.3038394,-0.33352762,0.25973397,-0.26531368,-0.3734732,0.21780191,0.29027665,-0.3574506,0.509458,-0.3590028,0.039801296
nằm,0.17179564,0.10505997,0.104479805,0.10759282,0.14993651,0.026909446,-0.107849315,-0.09064839,-0.09720285,-0.07619322,-0.6580296,0.038503464,-0.23107342,-0.08622976,-0.5100509,-0.32382062,-0.042897467,0.5452826,-0.34909752,-0.44352496,-0.03855965,-0.22274742,-0.15423565,-0.43346688,0.12411941,-0.38261983,-0.58064127,-0.08141644,-0.23464459,-0.3586731,-0.18874562,0.23754145,-0.39878494,-0.38775706,0.32263812,-0.28660452,0.24570383,0.003931154,0.034989122,0.4177461,-0.10734245,0.14109576,0.04905565,0.57757807,0.2933765,-0.017605383,0.016642615,-0.26747602,0.05523375,-0.65515536,0.45511445,0.36453557,-0.22088814,-0.21831046,-0.39741805,-0.12961297,-0.095941894,-0.23047629,0.12727642,0.15012002,-0.35323116,0.43129593,-0.53258467,-0.07841704
thác,0.11011664,-0.23721315,0.72345245,-0.15048645,0.009314153,0.13169105,-0.0965857,-0.05802586,-0.23365545,0.3597571,-0.3549651,-0.39898255,-0.38441387,-0.22297806,-0.21686459,0.026587488,-0.5150981,0.597344,-0.0071492745,0.1888028,0.4355016,-0.14299384,-0.04871638,-0.0065624146,-0.046712734,-0.24330994,-0.046067633,0.24160478,0.10123653,0.17437345,-0.17575388,0.08017362,0.25021005,0.371266,-0.21708378,-0.043479927,0.57584524,0.35786638,-0.1078875,0.036309317,-0.36999547,-0.25755364,-0.25061247,-0.08280595,-0.064063124,0.3643149,-0.43423358,-0.14441653,-0.17436485,-0.18648933,0.29378745,0.38194296,0.10693665,0.13151878,-0.12503037,-0.23349129,0.1326415,-0.054917246,-0.31522793,-0.008692556,-0.07016919,-0.10336141,0.04858971,0.56968504
với,-0.30671433,-0.3119016,-0.52160615,0.16225614,0.30691347,0.043806612,0.21973631,-0.06423689,0.055903304,-0.004345424,-0.33068383,0.18765815,0.42157823,-0.39742756,0.092905,-0.069991864,-0.20691536,0.9751696,0.06950873,0.27606055,0.28251722,-0.36281928,-0.48368892,0.020173483,0.11592195,-0.31430876,0.0011618399,-0.29448646,-0.17557731,0.09323036,0.2549222,0.07246331,-0.21643972,-0.18851663,0.37295067,-0.063560374,0.49683493,-0.51990366,-0.012583511,-0.040213075,0.12602232,-0.25804505,-0.39418265,-0.25577635,-0.18603198,0.20824404,0.18606026,-0.5603395,-0.19656837,-0.32829875,0.39725906,0.0669557,-0.29898867,-0.3413896,-0.49421725,-0.0602281,0.44529703,-0.63111633,0.1956845,-0.43640327,-0.08180862,0.66660035,0.5101448,0.22300678
bức,0.52081996,0.03200976,0.66406405,-0.13394926,0.036673974,0.7114186,-0.26983112,0.33417454,0.018760338,0.84884655,-0.27857473,-0.26668632,-0.45688877,-0.07724836,0.3662519,-0.13689874,0.020833187,0.59114015,-0.2435126,0.44058573,0.23671238,-0.0790015,-0.73966444,0.09464174,0.07960789,0.1792952,0.7959299,0.37133837,-0.05322121,0.34105217,0.37928706,-0.5837746,-0.5671217,0.45114318,-0.41987184,-0.15320435,0.26768082,0.019200793,-0.004148545,-0.21604393,-0.18820576,-0.26475796,0.15050434,-0.13205391,0.32836303,0.9399202,0.06941187,-0.59548694,-0.93437475,-0.66370565,0.1593806,0.09364024,-0.50703347,-0.36024874,-0.9550682,-0.002617355,0.22845885,-0.007772432,0.21602401,-0.2919894,0.011135043,0.09687353,0.4435892,0.5262362
ngày,0.0486615,-0.45469862,0.45196238,-0.12510435,-0.08572897,0.19279133,-0.4416047,-0.063472494,0.017130563,0.2530217,-0.48695916,-0.16806558,-0.64575046,-0.3365372,-0.4256229,0.18700925,-0.7686332,0.9370583,-0.21257798,-0.29257756,0.43856677,-0.35743496,-0.008560205,-0.09727311,-0.06662133,-0.42263368,-0.35362896,0.2794042,-0.2845602,-0.30072507,-0.23200408,0.3632258,0.0887676,0.3598498,-0.13240413,-0.1663773,0.5657677,0.4780539,-0.33952948,0.38436353,-0.31617904,-0.22991088,-0.33126062,0.024220146,-0.2910951,0.2579369,-0.7081249,-0.17835616,0.108919054,-0.64562833,0.2948458,0.3723292,0.17973045,-0.122966684,-0.24764735,-0.38136107,-0.046623394,-0.05838593,-0.020266356,-0.26745635,-0.33430105,-0.04332002,-0.20673072,0.37423342
tây bắc,0.2458548,0.30071983,0.19035107,0.09111774,-0.22976194,0.09665137,0.081485026,0.18961452,0.1278286,0.062856,-0.6848398,-0.097745225,0.24855533,-0.48699346,-0.55167085,-0.5305084,0.039690297,0.7985727,-0.36797234,0.188792,-0.19439891,-0.447458,0.030008808,-0.3996609,0.04953839,-0.2018116,-0.061250832,0.2385296,-0.44227043,-0.1042271,-0.1684946,-0.46631834,-0.08335834,-0.13210055,0.5064808,0.14063042,0.18412893,-0.12034009,-0.5175813,0.05686725,-0.2269735,-0.06975683,0.15875243,0.68799865,0.4862653,-0.21012162,-0.34790817,-0.10767683,0.20893553,-0.98264045,0.1493308,0.21305001,0.058126464,-0.20732345,-0.4524181,-0.47784638,0.5153499,-0.27106905,0.12967457,-0.33914188,-0.20227934,0.3664194,-0.40701163,0.20470548
khó,-0.083982326,-0.33062366,0.15852098,0.19395186,0.5950637,0.104150385,0.15864362,0.023725687,0.24734667,0.093896985,-0.36608934,-0.011797434,-0.3408715,0.17374519,-0.12869154,0.07649215,-0.102119915,0.68820703,-0.023640294,-0.11636205,0.034992278,-0.11243137,-0.20794755,0.15374915,0.2847289,-0.16997476,-0.2732427,0.04698931,0.14724228,-0.21960416,-0.1621561,0.22725908,-0.13176799,-0.11148458,0.2992654,-0.2975293,0.6268175,0.08023478,0.1350238,0.24180956,0.17211752,-0.095698945,-0.06861827,-0.08080218,-0.337093,0.21736084,-0.21599913,-0.5248269,-0.35094076,-0.095957726,0.4859452,0.49945998,-0.20994857,-0.08875238,-0.48291153,-0.05450469,0.0033741521,-0.36496395,-0.07209517,0.2439385,-0.3051682,0.74012303,0.39385837,0.23597565
dốc,0.23587963,-0.14166875,0.84182787,-0.41166237,0.0020773774,0.10788945,0.49569672,0.16344258,-0.1461818,0.10873961,-0.44913146,-0.53376853,-0.086588204,0.23229489,-0.49025035,-0.046513252,0.12694362,0.64489055,0.05733845,0.32585454,0.28781775,0.024298742,0.023954656,0.3086931,0.0022946529,-0.078043915,0.044903878,0.3258739,0.04272265,-0.12774673,-0.26440048,-0.39949962,0.23024549,-0.013775235,0.013019475,-0.036734458,0.4612951,0.37691224,0.34833753,0.049609687,-0.2798516,-0.33614537,-0.25475165,0.25837493,-0.053070027,0.23988988,-0.34697294,-0.5495181,-0.6399827,-0.034916855,0.29691213,0.80431163,-0.37160844,0.017926082,-0.37063518,-0.04564104,0.26348153,0.008518046,-0.101464584,0.17170455,-0.314412,0.46695882,0.037633743,0.7305258
cánh,0.17774594,-0.37297994,0.51868975,-0.31935772,-0.07547111,0.25320578,-0.11534201,0.00478227,-0.041043967,0.34320644,-0.19455361,-0.1597387,-0.31228438,0.11103902,-0.11010105,0.031095073,-0.31478143,0.5402745,-0.037410323,0.14097482,0.39968264,-0.19530648,-0.35479715,0.34035128,-0.06260455,0.18756503,0.23641866,0.24074207,0.14668438,0.09225088,0.022556756,-0.1789458,0.04491974,0.23230988,-0.21538202,-0.24483718,0.5007975,0.09127345,0.120989315,0.13005458,-0.30239916,-0.28593335,-0.15009166,-0.25433192,-0.12877147,0.35135677,-0.3106052,-0.4136492,-0.6072111,-0.24837479,0.15649538,0.2066766,-0.30314046,-0.015177483,-0.31547803,0.025929425,0.35254648,0.3066936,-0.006794542,-0.27792558,0.08338122,0.058246367,0.09979385,0.56383103
tạo,0.5838976,0.099741474,0.6230474,-0.09869521,-0.07827675,0.73646057,-0.4013768,0.33767587,0.1061406,0.90095043,-0.35000005,-0.24270818,-0.45586866,-0.171986,0.34344134,-0.22777882,-0.01825977,0.64087313,-0.31684038,0.49334234,0.27717838,-0.20818225,-0.8347482,0.021400739,0.051805604,0.24470781,0.8586872,0.37408093,-0.048315167,0.348501,0.4295381,-0.6307775,-0.6361406,0.49135914,-0.44020638,-0.1745084,0.29705974,-0.10644636,-0.13146117,-0.17329203,-0.2174994,-0.20255698,0.18300255,-0.20905653,0.4667593,0.9422934,0.02207366,-0.52459544,-0.8832216,-0.7794338,0.12503493,-0.046073243,-0.4809665,-0.42832837,-1.0263036,-0.034288354,0.40909556,0.10958334,0.2453931,-0.48127437,0.105130225,0.019926423,0.34510294,0.518693
nối tiếp,0.20201477,0.059695892,-0.4182961,0.11827083,0.32237282,-0.032225396,0.1311197,0.041588683,0.0889597,0.24223678,-0.62541145,0.116944395,-0.17552428,0.088101126,-0.22217922,-0.051958293,-0.12219656,0.68166184,-0.05216592,-0.33028358,0.18334979,-0.4164107,-0.8218874,-0.23541597,0.40472862,-0.4780174,-0.27732942,-0.33551323,-0.048308235,-0.40626678,0.033382256,0.32138726,-0.53306144,-0.47366762,0.2466222,-0.75665945,0.5725648,-0.45605364,0.020542504,0.58021605,0.23715547,0.03806793,-0.34900093,-0.008782652,-0.10317521,0.14950264,0.069980934,-0.36292765,-0.3695646,-0.42999426,0.6133848,0.42199883,-0.4428454,-0.5455,-0.28758708,0.0327347,0.29915932,-0.4433307,-0.21864119,-0.08906218,-0.34366795,0.82596,-0.10472228,-0.084271684
không chỉ,-0.05304723,-0.11291511,-0.49460453,0.0112974625,0.06746707,-0.047710516,0.40334523,0.06674173,0.11007984,0.08231656,-0.3970331,0.15006849,0.39690354,-0.12043037,-0.27629745,-0.120142795,-0.29932463,0.6998943,-0.055972822,0.17102695,0.17638779,-0.5056875,-0.3641997,-0.10645303,0.17780864,-0.30263916,-0.09134071,-0.12179306,-0.22636968,-0.14390682,0.1505611,0.006006249,-0.059639603,-0.31931803,0.5879506,-0.23061459,0.58257616,-0.43763253,-0.27280548,0.17681788,0.04833462,-0.28538227,-0.42363697,-0.03261643,-0.18151438,-0.17935361,-0.25255582,-0.22667578,-0.21960275,-0.45583102,0.33096966,0.26368716,-0.093787156,-0.2794743,-0.23509943,-0.22496893,0.674793,-0.52863723,-0.2118633,-0.36553094,-0.005791269,0.5397648,0.104422815,0.16694254
ý chí,-0.10340411,0.080282606,0.16813047,0.29642552,-0.2671135,-0.23931967,-0.017240219,0.28995267,0.11058947,-0.04971996,-0.25929138,-0.23819968,0.19898508,-0.28163666,-0.43440545,-0.4629683,-0.20317176,0.83600795,0.26163918,0.33944008,0.24796599,-0.4898182,-0.12538901,-0.20663556,0.21550389,-0.29080367,-0.09703482,-0.09334718,0.009590559,-0.15265515,-0.1181195,-0.30558693,0.08246559,-0.12442871,0.03415019,-0.221062,0.39925632,0.115484014,-0.5666089,-0.08871429,-0.29312754,0.09713435,-0.251491,0.08295854,0.05340025,0.13617387,-0.33841097,-0.08406749,0.10997739,-0.32787526,0.18308228,0.04960273,-0.14001678,-0.1470985,0.10056649,-0.2277429,0.49259585,-0.23497498,-0.4672098,-0.25925356,-0.10170032,0.21018285,-0.16894343,0.48763824
leo,0.10844236,-0.12470866,0.22439738,0.15235183,0.44244176,0.0598365,0.2679083,0.21119705,0.34290427,0.099238366,-0.37046626,-0.040517718,-0.41474077,0.23605503,-0.1402524,0.01439605,-0.012718693,0.56932443,-0.002362159,-0.047550943,0.01883992,-0.079772145,-0.28024223,0.15190645,0.3341872,-0.10615151,-0.16070598,0.18525726,0.21523881,-0.3484069,-0.1292702,0.021591641,-0.06283755,-0.10209008,0.18406503,-0.3046811,0.5895004,0.15120198,0.050468247,0.21049845,0.15538594,-0.088594116,-0.04993886,-0.1146876,-0.23500246,0.20692366,-0.38525653,-0.4405559,-0.4234716,-0.12254441,0.41247028,0.5376127,-0.24496211,-0.1696271,-0.47166982,-0.057069805,0.17300957,-0.26719984,-0.15759641,0.14414516,-0.27393404,0.7272713,0.27657825,0.17015277
sức mạnh,0.32621723,0.33371538,0.45099768,-0.021879029,-0.17282249,0.064677,0.16681832,0.3206345,0.06350008,0.2068166,-0.5384555,-0.17546766,0.05379901,-0.20481172,-0.32948822,-0.39833885,0.053756356,0.5473326,-0.1517494,0.3479897,-0.109744124,-0.20777392,0.031572435,-0.3638277,0.10837714,-0.09931215,0.11409944,0.2852544,-0.08430045,-0.074142136,-0.04727903,-0.42424887,0.08989497,-0.013039231,0.28857088,0.13754752,0.18897015,0.1263488,-0.3423544,-0.00996494,-0.28274435,-0.05318164,0.050552104,0.32786104,0.4377671,-0.016036723,-0.41968712,-0.06828763,0.002458004,-0.701389,0.024547236,0.25340852,0.12920992,-0.1496032,-0.46217215,-0.4551691,0.5543794,-0.1094149,-0.09503707,-0.22535436,-0.1399683,0.13783512,-0.21266298,0.30427462
nên,0.45761195,0.05836588,0.5478965,-0.026358549,0.0067082914,0.64967245,-0.37136918,0.30296835,0.09340809,0.8332009,-0.27590403,-0.17396413,-0.44373274,-0.14947698,0.3955998,-0.17659809,0.011440156,0.59853375,-0.26039508,0.37629578,0.20832764,-0.14610499,-0.7514593,0.06047805,0.0800893,0.16130993,0.7439721,0.28846014,-0.05051286,0.3087541,0.37606698,-0.52810174,-0.5950873,0.4415541,-0.4068701,-0.19596593,0.26829144,-0.030696215,-0.09286503,-0.1639215,-0.18723701,-0.1827594,0.14116414,-0.18322363,0.34713334,0.8886407,0.040422287,-0.5343233,-0.8293604,-0.71394986,0.13845554,-0.043367106,-0.489011,-0.3788855,-0.8882939,-0.028777676,0.29195654,0.0017738655,0.16519701,-0.38117558,0.054947965,0.06643317,0.4023587,0.46316513
quyên nở rộ,0.4586225,-0.17800194,0.5788382,-0.3471531,-0.19474764,0.5877443,-0.45615393,0.03665074,0.074611254,0.76865417,-0.36409023,-0.20611286,-0.5679329,-0.048694532,0.08282007,0.070238195,-0.36759123,0.62768275,-0.38265386,0.15928563,0.37401196,-0.26774982,-0.62903446,0.1489656,-0.07348241,0.2532502,0.5565046,0.3882526,-0.00547806,0.19517075,0.16027446,-0.26977518,-0.30395398,0.5402684,-0.3751038,-0.2796784,0.43319044,-0.044484895,0.021723818,0.2754878,-0.19798487,-0.26198983,-0.039181393,-0.3652146,0.13058144,0.5526875,-0.34593815,-0.4274134,-0.60108346,-0.5864206,0.09481768,0.07580339,-0.25085858,-0.2831746,-0.7302981,-0.12613139,0.41074693,0.39612255,0.22947374,-0.5218575,0.041874953,-0.11359363,0.19290882,0.4396658
đỗ,0.42710775,-0.20535225,0.5957218,-0.33392832,-0.1746042,0.5799467,-0.45842403,0.009657605,0.08253199,0.6717214,-0.37316495,-0.08338786,-0.57330006,-0.012417628,0.07902576,0.050247908,-0.36844093,0.6429639,-0.3295846,0.06674564,0.32193673,-0.31073475,-0.58726674,0.14763208,-0.07219147,0.32203242,0.49715725,0.31836924,0.077885866,0.16419019,0.13456352,-0.25252143,-0.2800028,0.44926363,-0.3359131,-0.27158,0.4296758,-0.010060135,0.09349221,0.27128163,-0.2600941,-0.23809698,0.0008097325,-0.3684506,0.09969454,0.5446899,-0.36088672,-0.4318514,-0.66098297,-0.61800843,0.071821496,0.023527108,-0.25202203,-0.24110866,-0.71594954,-0.11962794,0.4076361,0.44393894,0.17868158,-0.54275304,0.096898004,-0.11373506,0.107676215,0.4233685
mây,0.07181724,-0.36899784,0.29128087,-0.41051847,0.24235083,0.2892901,0.033363704,-0.3662457,-0.81675583,0.25852707,-0.27832082,-0.17758833,0.33709627,-0.23813365,-0.4267288,-0.29883394,-0.4160332,0.38549888,-0.18886763,-0.28122166,0.59315884,-0.3400869,-0.43052053,-0.18052807,-0.21712154,-0.2286094,-0.33488783,-0.33144125,-0.39486215,0.59785795,0.20436902,0.17674622,-0.22590238,-0.48086727,0.379082,-0.04982296,0.4813365,-0.4187275,0.17476305,-0.2482546,-0.6503052,-0.39341474,-0.1987891,0.5678164,0.0427456,0.293439,0.5488625,-0.2575551,-0.68581676,-0.66830146,0.48501757,0.3221944,-0.25669047,0.3755552,-0.29404935,0.3670882,-0.16939592,-0.18335837,-0.26340848,-0.03787948,0.2680744,0.08335943,-0.3544143,0.61900485
lai châu,0.04747456,-0.103941195,0.27552825,0.3430361,0.23173434,-0.11635392,-0.42663538,-0.08850727,-0.36389777,-0.055147387,-0.3834272,-0.39174268,-0.055447873,-0.2643558,-0.23039934,-0.4202706,0.12517503,0.6935756,0.092301294,-0.004194352,0.1480699,-0.057528056,-0.44881475,-0.434254,0.12572108,-0.33454257,-0.18024158,-0.36062217,-0.09722129,0.19520374,-0.08193568,0.14125712,-0.60693973,-0.0696297,-0.11990609,-0.29712906,0.1379237,-0.1862317,0.05963172,0.026659407,-0.030398374,0.16071843,0.052102573,0.4991034,0.38044712,0.6058376,0.5492137,-0.48116168,0.065140925,-0.17179137,0.4915888,0.2174724,-0.5361487,-0.26827523,-0.25683057,0.228178,-0.28084055,-0.37923208,0.20257103,0.25792766,-0.35663828,0.45903006,-0.15212473,0.055378485
mà còn,-0.071367845,0.11703044,0.10172444,0.43479434,-0.1743746,-0.2702827,-0.03967763,0.28897196,0.06898586,-0.08603253,-0.2512498,-0.2035777,0.15379177,-0.30070797,-0.3436033,-0.56284714,-0.09592576,0.8217891,0.28442147,0.34579852,0.22368388,-0.42496163,-0.19602565,-0.2628812,0.21998695,-0.31906506,-0.09587503,-0.17986445,0.121104635,-0.12535585,-0.044900224,-0.3002197,-0.019227276,-0.18741453,0.009705153,-0.23058213,0.37331647,0.0448496,-0.5034782,-0.11476747,-0.2854629,0.18947835,-0.19073927,0.061455484,0.19653688,0.27935335,-0.13765767,-0.086068355,0.13445708,-0.34140572,0.21100305,-0.039386135,-0.22041786,-0.12506156,0.04424909,-0.12897782,0.38147426,-0.24878505,-0.46412808,-0.27541405,-0.08180603,0.22044988,-0.17817889,0.39862537
cung,0.07908258,-0.12548926,0.10316777,0.015930185,0.3632331,-0.058661766,0.2733777,0.19868901,0.09311595,0.0104063535,-0.41268036,-0.0053797816,-0.112183385,0.26224002,-0.35200468,-0.06333781,0.03790906,0.47788993,-0.02692862,-0.07030956,0.06061136,-0.022508204,-0.21727079,0.113252066,0.15698358,-0.113272645,-0.24478346,0.09797221,0.12012695,-0.25641006,-0.052962337,0.0297284,-0.10901654,-0.23219068,0.26909107,-0.24963276,0.4409962,0.050266497,0.10710253,0.23402959,0.012274024,-0.12763116,-0.03494666,0.13289917,-0.14576371,0.010947611,-0.16262643,-0.3840027,-0.40703505,-0.19176257,0.3205236,0.5366007,-0.29540107,-0.0837099,-0.4041896,-0.014437288,0.09909781,-0.2195812,-0.038579997,0.2004546,-0.22845165,0.6576059,1.6630067e-05,0.1539761
lên,0.007254818,-0.16618203,0.236429,0.23573795,0.3353324,0.4561341,-0.29915103,0.08093486,-0.2531428,0.50207466,-0.08989352,-0.23928729,-0.0017491695,-0.38948843,0.45717216,-0.29018793,0.17997594,0.6102601,-0.0961017,0.4165147,0.12109225,0.026884243,-0.6454448,-0.23754081,0.14064133,-0.24909955,0.5099681,-0.04139404,-0.25724018,0.4232115,0.25996253,-0.25607774,-0.6946842,0.24052605,-0.17103972,-0.034191113,0.07869451,-0.24276958,-0.108856715,-0.42349067,0.067750774,-0.1400578,0.07599442,0.18364634,0.2480353,0.943378,0.5965408,-0.52504915,-0.44000202,-0.46041965,0.3862797,0.019133357,-0.4318014,-0.23637347,-0.6042863,0.18355171,-0.17886591,-0.61122656,0.2621216,-0.0014287551,-0.13186643,0.23254469,0.60036373,0.24536735
vô cùng,0.20191978,-0.35809276,0.80457795,-0.5039581,0.030535527,0.37840617,-0.16056299,-0.22061859,-0.035717797,0.19655249,-0.51581514,-0.29691535,-0.43412122,0.35809124,-0.48335302,0.09053897,-0.33013627,0.8759924,-0.37261516,-0.24535905,0.35865986,-0.23311397,-0.088591285,0.4405367,-0.24479337,0.17829764,-0.036766414,0.22653215,-0.07588996,0.05079322,-0.27662125,-0.1795487,-0.10132095,-0.0023460833,0.20701908,-0.45510018,0.59125483,0.20051758,0.5113708,0.5460663,-0.28420845,-0.3177992,-0.16886252,0.12700613,-0.24978152,0.0679815,-0.46597257,-0.82677066,-0.8301511,-0.27929553,0.11300827,0.43067333,-0.3081558,0.16143985,-0.6211491,-0.10600396,0.058698487,0.4714993,-0.002831431,-0.0037151615,-0.2327377,0.23184593,0.08067825,0.6731169
rêu phong,0.0186831,-0.49667072,0.6979641,-0.21613151,0.14438084,0.32717595,-0.3220331,-0.2989119,-0.06875059,0.3044181,-0.3915268,-0.29790914,-0.51276,0.17191938,-0.27549306,0.14318606,-0.5388364,0.92851824,-0.24766262,-0.09588372,0.40871164,-0.25259513,-0.0838068,0.36014253,-0.12736525,0.008047309,-0.006996292,0.15539289,0.04669579,0.18047021,-0.26171035,0.05783519,-0.0036886684,0.16767867,0.01768069,-0.45177662,0.66579074,0.29875666,0.2618392,0.41701528,-0.27483076,-0.3095141,-0.22471116,-0.16708265,-0.33296773,0.20593134,-0.43980917,-0.7000019,-0.6201136,-0.13633636,0.24004978,0.26179427,-0.15081006,0.12577432,-0.38623846,-0.2130964,0.10994653,0.2266647,-0.143203,0.08732404,-0.17128654,0.10965849,0.24939527,0.70177597
trôi,0.0953837,-0.28981808,0.0012769842,-0.31492627,0.28547713,0.36870626,0.10341622,-0.30764633,-0.62548316,0.2669686,-0.27576724,0.18467224,0.31733862,-0.16915172,-0.26836625,-0.3320226,-0.43610883,0.38370574,-0.23455971,-0.41144612,0.5192501,-0.5231326,-0.54691494,-0.16163725,-0.05712884,-0.2131088,-0.39999393,-0.38180232,-0.31104195,0.39213052,0.36023813,0.19921969,-0.27085224,-0.65318847,0.5635127,-0.2190213,0.5408253,-0.49543193,0.1109096,-0.21260533,-0.6645856,-0.35463646,-0.23891829,0.4002442,0.0077120652,0.21395265,0.39618245,-0.2682444,-0.76229286,-0.8326389,0.532739,0.13789459,-0.23207158,0.31380057,-0.38031706,0.25403014,-0.0020467015,-0.16792403,-0.4171584,-0.27691075,0.43793646,0.16776794,-0.30568737,0.573646
thứ,-0.05250445,0.0059144087,-0.20594837,0.27463913,0.2881657,0.05351457,0.09022449,0.05049235,0.21394366,0.02274593,-0.4262595,0.18835112,-0.093983114,-0.22350827,-0.028190956,-0.122413754,-0.088112,0.6539309,-0.15816031,-0.14551057,-0.082074,-0.25758815,-0.21494572,-0.25990194,0.26727128,-0.38058144,-0.2607186,-0.057152,-0.14201216,-0.37092328,0.021409886,0.18913761,-0.22669837,-0.20610738,0.3743927,-0.11099613,0.3126928,-0.119096085,-0.19637734,0.17743975,0.1620063,0.042179868,-0.086547665,0.0870005,0.04654874,0.1178252,-0.14721598,-0.2813544,0.091932006,-0.5139159,0.39265686,0.17355755,-0.039198406,-0.33624005,-0.45567212,-0.21978569,0.14959744,-0.46921733,0.12097778,-0.16078217,-0.26001728,0.53225005,0.12066202,-0.077055626
tìm,-0.114423186,0.1255612,0.24209797,0.40700823,-0.015244364,-0.021658078,-0.17269515,0.29254663,0.15010248,-0.13253239,-0.124167174,0.076168135,-0.07986604,-0.36373812,-0.11455211,-0.5821226,-0.031021195,0.7794941,0.23009291,0.02621677,0.12062795,-0.38174066,-0.14007597,-0.27139223,0.26706064,-0.19152819,-0.2796784,-0.195394,0.06461549,-0.25641704,0.07523051,-0.24941474,-0.1682428,-0.32899433,0.06637314,-0.075987,0.21143244,0.25859094,-0.5046364,-0.2834789,-0.42347825,0.25258565,-0.027766826,0.037426688,0.2197334,0.47196797,-0.10759361,-0.11427012,-0.031962954,-0.66724414,0.1523064,-0.24136172,-0.17198092,-0.033830818,-0.21757889,0.011309535,0.1767281,-0.16737832,-0.4323589,-0.42297468,-0.07360957,0.11579193,-0.20036547,0.40444538
dựng đứng,0.30227748,-0.09531208,0.9387622,-0.42784455,0.09394332,0.1788972,0.47115734,0.19174726,-0.08945786,0.13420255,-0.52323043,-0.5167088,-0.18135083,0.35083306,-0.4220265,-0.078741595,0.23838165,0.671989,0.036796343,0.32549727,0.251195,0.052400336,-0.040268824,0.42695597,0.0010850152,0.062357336,0.08516444,0.36264944,0.14918809,-0.07156195,-0.2617262,-0.5173893,0.12161984,-0.049202558,0.04370105,-0.14285362,0.4882822,0.33575323,0.5318896,0.1217638,-0.22579393,-0.33749902,-0.15026891,0.20788252,0.015117013,0.29564047,-0.2699308,-0.73575985,-0.8528686,-0.022219177,0.30540383,0.79882896,-0.521458,-0.011086811,-0.57279235,0.0015107933,0.31050867,0.15671761,-0.024632175,0.21892755,-0.3280456,0.5761521,0.10157373,0.7674455
đặc biệt,-0.00925412,-0.39601907,0.38948047,-0.14563309,0.06363425,0.22827171,-0.102785,-0.052060936,-0.124772966,0.30787557,-0.14868304,-0.090694055,-0.20347115,0.0016179655,-0.08529147,0.053934965,-0.40929735,0.5915277,0.014108952,0.060195222,0.34018716,-0.27529925,-0.17269994,0.25436705,0.01103233,-0.016393026,0.07851207,0.11077258,0.06387424,0.101321794,0.0012703225,-0.020186543,0.12417215,0.09841268,-0.07342434,-0.25159308,0.5276342,0.1801069,0.016612206,0.020912647,-0.3525458,-0.23929848,-0.21796547,-0.208047,-0.21496257,0.31200185,-0.2596393,-0.3245071,-0.5189157,-0.1818277,0.24836919,0.09360988,-0.19071685,0.08318393,-0.148131,-0.08723868,0.25548297,0.07161098,-0.24781543,-0.067797944,0.10107415,0.019174343,0.15199478,0.64369357
nhất,-0.15423343,-0.32885495,0.14260909,0.27617154,0.54585296,0.09137851,0.16595623,0.13840914,0.31531802,0.09487484,-0.29255435,-0.019630251,-0.32208398,0.08071755,-0.0697186,0.08622794,-0.08181005,0.7133656,0.016671782,-0.06228701,-0.021221723,-0.08614835,-0.10017885,0.099803,0.34617132,-0.26824185,-0.2283076,0.13276768,0.057139732,-0.37215132,-0.1115302,0.18742132,-0.057601254,-0.084322535,0.25729316,-0.2012202,0.5451279,0.23522232,-0.01957633,0.13197227,0.14028135,-0.04188721,-0.04815895,-0.058287326,-0.3091905,0.30263263,-0.3028013,-0.4582165,-0.24179286,-0.15142332,0.46690226,0.4710901,-0.12527211,-0.10074899,-0.4654533,-0.1282882,-0.020028029,-0.41368994,-0.010142224,0.21058334,-0.3332047,0.68737394,0.42336318,0.24543063
chân,0.039764762,-0.2605521,-0.1698048,-0.2212629,0.18479823,0.26881284,0.03034185,-0.28075102,-0.50590056,0.124287434,-0.25455797,0.2000187,0.30153275,-0.13231288,-0.269148,-0.19970821,-0.35017502,0.40578654,-0.15324451,-0.40801245,0.44593,-0.45582542,-0.5168362,-0.0923798,-0.054790463,-0.21101709,-0.3518162,-0.4122872,-0.3113349,0.24334721,0.3235507,0.20070112,-0.30143565,-0.5735105,0.40092498,-0.2751899,0.44709703,-0.48758802,0.089684494,-0.0509061,-0.48114824,-0.25820312,-0.29323658,0.25861123,-0.00086716714,0.18318048,0.42394006,-0.2534041,-0.5479169,-0.70435756,0.46509477,0.08577499,-0.298832,0.1307418,-0.26850447,0.24449694,0.010313894,-0.15875252,-0.22481085,-0.27981028,0.32665753,0.21926413,-0.2877837,0.38744333
này,-0.0059226598,-0.082793236,-0.46409336,0.102016844,0.1852009,-0.057980422,0.3948003,0.18169819,0.22908255,0.13891606,-0.4724683,0.07421924,0.17664443,-0.031311445,-0.24868713,-0.032484118,-0.25191218,0.7420161,-0.0850902,0.09492552,0.11959818,-0.45641714,-0.37290102,-0.10173515,0.28882217,-0.36140236,-0.14513338,-0.052994747,-0.14648515,-0.31849933,0.07524097,0.07162587,-0.109075256,-0.27261823,0.53327966,-0.29592,0.55494934,-0.3095435,-0.28640628,0.2672522,0.16937374,-0.20147793,-0.34133756,-0.054126967,-0.23640868,-0.12475049,-0.329909,-0.24771528,-0.22261548,-0.42155114,0.3969871,0.42011356,-0.122628406,-0.36784777,-0.27567884,-0.23631877,0.60853374,-0.5954551,-0.1910172,-0.2626208,-0.19536231,0.69167805,0.16691208,0.06389874
núi rừng,0.1585475,0.054198317,0.04773103,-0.025984837,-0.3602105,-0.10316601,-0.036601715,0.25382328,-0.041256245,0.055987604,-0.67784303,-0.3359792,0.38734186,-0.4908612,-0.70582896,-0.46073204,-0.18307719,0.8456516,-0.32798293,0.34580904,0.049451195,-0.4046654,0.07638988,-0.4855788,-0.08806033,-0.36941257,-0.05752713,0.20783968,-0.5584533,-0.067897044,-0.17984532,-0.304188,-0.042052783,-0.08763469,0.4170909,0.11730342,0.23586054,-0.13236906,-0.6443796,0.19735873,-0.26222643,-0.22387111,-0.09175473,0.79033554,0.30112624,-0.24251595,-0.2874307,-0.13484153,0.25348157,-0.84137183,0.04531058,0.35685784,0.12658098,-0.29181224,-0.31090245,-0.41500896,0.39456174,-0.40006602,0.16548046,-0.20449893,-0.29055557,0.26455948,-0.5014379,0.2295675
khung cảnh,0.27559644,-0.14063847,0.918579,-0.5034602,0.15507641,0.201677,0.5101553,0.14344448,-0.059249014,0.058534913,-0.55769724,-0.5071529,-0.15633726,0.44543797,-0.5037081,-0.017183857,0.1662367,0.77427524,-0.024085475,0.19819102,0.2664454,-0.0041476544,-0.06380267,0.46595743,-0.021132141,0.03777786,0.002556517,0.31190506,0.05395277,-0.122794494,-0.2847147,-0.4867089,0.09311055,-0.1606331,0.19023678,-0.24091749,0.56335264,0.31327173,0.61455303,0.245535,-0.19158359,-0.360395,-0.20550378,0.29007393,-0.13232441,0.1935199,-0.32779613,-0.84709597,-0.9255809,-0.07783977,0.31219697,0.903447,-0.51110965,0.05125457,-0.62119263,0.03320671,0.24048266,0.16042164,-0.01002617,0.21781279,-0.39328015,0.653574,0.14078641,0.7736832
đi lại,0.17188491,-0.26839885,0.6845406,-0.37149274,0.121262126,0.2698767,0.062115684,-0.060274817,0.061681062,0.10946987,-0.47008964,-0.28166506,-0.3455818,0.3774066,-0.41462696,0.07955777,-0.16339634,0.86548835,-0.20313519,-0.08567948,0.27552024,-0.16776104,-0.122018434,0.44455922,-0.10362866,0.13316609,-0.009182056,0.24238732,0.04359936,-0.08391257,-0.278779,-0.2431914,0.012409154,-0.05597226,0.23869601,-0.4013309,0.63984275,0.2416529,0.44278845,0.48454896,-0.18543312,-0.29436243,-0.16812031,0.044130962,-0.2999593,0.06881393,-0.44445702,-0.75950867,-0.80303127,-0.14832403,0.14545429,0.552046,-0.33498785,0.116269365,-0.5820721,-0.11150485,0.14862996,0.3168614,-0.07515685,0.042513054,-0.31496575,0.41495746,0.1904114,0.63011056
nguyên sơ,0.3299283,0.23760697,0.59281063,-0.1125793,-0.3479463,-0.13508871,0.0067378078,0.27858415,-0.05703805,0.14702629,-0.66298985,-0.43801922,0.1174512,-0.14312802,-0.6674293,-0.4365943,-0.024670273,0.6862546,-0.18745142,0.37376273,-0.04934734,-0.18625864,0.11805658,-0.4035231,-0.021204159,-0.16505851,0.04279353,0.31880304,-0.20281483,-0.07209576,-0.2261014,-0.45757696,0.105860986,-0.0136719635,0.20422506,0.028318586,0.1834764,0.19255854,-0.32014805,0.19013964,-0.35835725,-0.092973694,0.046496242,0.5859595,0.4683124,-0.083398215,-0.4699785,-0.16931093,0.12637402,-0.5429074,0.0043309648,0.433612,0.063470565,-0.21898487,-0.373306,-0.42108676,0.47039646,-0.06274345,0.03788234,-0.014974325,-0.31417552,0.111806825,-0.445837,0.35263947
xa xa,-0.03510967,-0.20732869,-0.20231694,-0.096489474,0.22458154,0.17583105,0.10921061,-0.24772875,-0.4065971,0.035892725,-0.31427598,0.24844965,0.28202233,-0.095423564,-0.2864306,-0.27288345,-0.27770296,0.45770055,-0.10354725,-0.37848294,0.37072003,-0.45465255,-0.42685035,-0.09905467,0.052549344,-0.22737618,-0.4445908,-0.42229617,-0.22878571,0.13907585,0.25036627,0.23782468,-0.25925258,-0.5891644,0.46337935,-0.2815462,0.488352,-0.40240845,0.08216081,-0.0386343,-0.40777794,-0.1979784,-0.23633422,0.241552,0.011277953,0.12293582,0.2857576,-0.28568524,-0.48037815,-0.5977903,0.5098295,0.100619,-0.31036055,0.13646261,-0.25214222,0.154855,0.06597527,-0.23333341,-0.2761912,-0.16361313,0.24005727,0.32248548,-0.23957852,0.32825017
thể lực,-0.0981934,0.101980455,0.15065768,0.21249714,-0.12945917,-0.16620715,0.2828735,0.21269295,0.0228867,-0.074514136,-0.27634314,-0.19368368,0.38799903,-0.28827795,-0.36947823,-0.45481503,-0.097835615,0.6856234,0.20513777,0.44745275,0.20525326,-0.4432607,-0.055767164,-0.1671723,0.16897203,-0.28256983,-0.112531416,-0.035145078,0.013037041,-0.03792585,-0.08290138,-0.33184168,0.16701783,-0.19077295,0.19507535,-0.030285185,0.40725118,-0.0054167807,-0.4744991,-0.20509985,-0.19738065,-0.054916747,-0.20573848,0.14004286,0.124936655,0.049277958,-0.28406647,-0.050660573,0.07190891,-0.3209613,0.24711196,0.18111944,-0.11376563,-0.076391846,-0.01774408,-0.25436035,0.5425812,-0.34934518,-0.37682182,-0.22032212,-0.008727961,0.30933046,-0.09206707,0.47904724
xuân,0.4837615,0.020641688,0.5377998,-0.1822828,-0.101325855,0.64292437,-0.36889416,0.21470347,0.073305786,0.8227926,-0.32114485,-0.16689125,-0.38020906,-0.16127823,0.2862345,-0.15193683,-0.12866431,0.60167855,-0.27902982,0.3968698,0.27790552,-0.24477038,-0.725624,0.02488881,-0.0126102315,0.2273833,0.7326128,0.33833483,-0.009714683,0.34587285,0.32278544,-0.47136205,-0.49609545,0.48082823,-0.35027134,-0.12881202,0.31682366,-0.14860615,-0.0738791,-0.056381546,-0.22272098,-0.20729077,0.108407795,-0.26142466,0.3387621,0.75372064,-0.05247375,-0.46957192,-0.7248599,-0.68219054,0.102610916,-0.043649092,-0.39163536,-0.35460725,-0.8681203,-0.06998055,0.4227882,0.15941587,0.23247755,-0.4992491,0.099436864,-0.016540373,0.26667485,0.4646458
mùa,0.5455118,0.0071853776,0.6495395,-0.2572262,-0.17774773,0.6772019,-0.39507875,0.16870138,0.14570928,0.8176425,-0.4162454,-0.15407938,-0.55762124,-0.05273907,0.18946706,-0.100633524,-0.1953138,0.6365288,-0.39109555,0.25249097,0.28350794,-0.25789455,-0.6711326,0.101487495,-0.030745188,0.3099416,0.65014595,0.37658986,0.0018707584,0.23216271,0.26216996,-0.436692,-0.4451429,0.4987468,-0.36475292,-0.22982597,0.35525405,-0.053887933,0.0059653036,0.121850595,-0.25321782,-0.22752315,0.09288914,-0.28723586,0.32038882,0.65399575,-0.24822927,-0.46724936,-0.7205684,-0.76111144,0.084722295,-0.023236586,-0.36526102,-0.3676639,-0.92830896,-0.12690595,0.4354971,0.35995704,0.22325468,-0.5532729,0.081203766,-0.072647125,0.16789478,0.4822664
đặt chân,0.05892239,-0.1527338,0.32925057,0.23032112,0.2786747,0.47651726,-0.31660327,0.20119025,-0.17469755,0.5362395,-0.074786834,-0.207742,-0.11146128,-0.38741192,0.51360285,-0.1953371,0.13471188,0.6656698,-0.06824267,0.5050067,0.11796107,0.020276628,-0.66945875,-0.14883094,0.17644852,-0.1746007,0.6063554,0.0986045,-0.22666438,0.3877305,0.3393472,-0.34733194,-0.61860144,0.31903827,-0.27246892,-0.02832015,0.12334703,-0.11894947,-0.18188043,-0.43981537,0.02135858,-0.14158438,0.060964175,0.03690834,0.22326541,1.0016849,0.44784105,-0.54384613,-0.5515489,-0.46256354,0.29803205,-0.03480524,-0.42254773,-0.23806858,-0.59289086,0.08743609,-0.095835656,-0.55510646,0.15549858,-0.045912024,-0.082496285,0.16519502,0.64131874,0.3146985
như,0.055475324,-0.09497065,-0.49845588,0.12875976,0.3733513,0.065883875,0.13642867,0.053444896,0.2179166,0.30863053,-0.53196716,0.15891485,-0.1678456,0.03567606,-0.06233285,0.07561799,-0.23538621,0.7699838,-0.07136289,-0.1881948,0.20055448,-0.4181058,-0.82284594,-0.099178135,0.40913227,-0.40518135,-0.120337486,-0.24352674,-0.084647216,-0.3913088,0.11836589,0.27533937,-0.47857752,-0.32283896,0.3067175,-0.68013835,0.6141036,-0.48561117,-0.007641328,0.49967444,0.2713868,-0.054645512,-0.4180262,-0.2403973,-0.25935194,0.20507564,-0.021155152,-0.41644186,-0.41231033,-0.4449634,0.5584556,0.3456995,-0.31499308,-0.5493808,-0.37385914,-0.07166568,0.35342202,-0.5202426,-0.14102131,-0.26997244,-0.28910813,0.79317075,0.20111167,-0.08334675
dưới,0.08874116,-0.33745226,0.14251482,-0.37423354,0.19971468,0.3201025,-0.04904195,-0.3788219,-0.616462,0.1918313,-0.31015253,0.029278528,0.15761523,-0.068075724,-0.33976728,-0.18933533,-0.37224007,0.34126624,-0.22436552,-0.4218757,0.46750373,-0.39166364,-0.41639295,-0.012086454,-0.13641128,-0.099250875,-0.3396114,-0.3181822,-0.25611266,0.4066245,0.21118413,0.16935712,-0.274912,-0.44746247,0.3588917,-0.2909359,0.50851625,-0.3721969,0.27077156,-0.008606257,-0.5902117,-0.31331903,-0.18902995,0.3961149,0.012906453,0.16785803,0.37564233,-0.323876,-0.6758833,-0.6052418,0.48081905,0.19725461,-0.3227611,0.2886279,-0.3173928,0.22652054,-0.08800716,0.0058280816,-0.23714882,-0.074669324,0.32902172,0.15471573,-0.30839333,0.48394284
so,-0.39531222,-0.46905613,-0.5301751,0.20165335,0.35327,-0.009136927,0.06913744,-0.18863723,-0.10831933,-0.08871284,-0.35222927,0.076144844,0.45632225,-0.5266166,-0.0020762538,-0.037915178,-0.19132106,1.052003,0.08631009,0.17338488,0.37064758,-0.3341125,-0.47528788,-0.06587257,0.06703249,-0.46025747,-0.103598736,-0.356495,-0.3033239,0.20497932,0.19451796,0.25128254,-0.31574014,-0.14633358,0.3073956,0.009712986,0.4295875,-0.5287396,-0.024781309,-0.0829467,0.15404822,-0.265648,-0.35722956,-0.038717415,-0.12629008,0.32536367,0.37541735,-0.5983678,-0.032420177,-0.33332196,0.48560598,0.11074042,-0.29919878,-0.3957504,-0.4697895,-0.0051163523,0.19894126,-0.715412,0.42299935,-0.3171116,-0.18300594,0.67356396,0.44934052,0.15821216
bồng bềnh,0.035656873,-0.38608813,0.14639954,-0.35799864,0.25464115,0.35543057,0.014678061,-0.34225824,-0.73874784,0.27926943,-0.23401417,0.0092562465,0.33881885,-0.2585191,-0.32209906,-0.25625134,-0.44173273,0.42056605,-0.22281778,-0.31743735,0.5892444,-0.40477583,-0.512412,-0.16379908,-0.14351062,-0.23858355,-0.31136024,-0.3810378,-0.41806403,0.48961174,0.30711448,0.2100022,-0.3191401,-0.5037075,0.43194056,-0.07275934,0.48425308,-0.47772437,0.16345924,-0.23449557,-0.64129627,-0.40298292,-0.20829372,0.45697704,-0.029777192,0.30232257,0.5392093,-0.33059874,-0.730054,-0.7645833,0.5143294,0.17840582,-0.27815482,0.31136772,-0.39387918,0.3434042,-0.15143947,-0.20248303,-0.25522485,-0.16798756,0.3309006,0.106486455,-0.2510559,0.6005105
kéo dài,-0.22937809,-0.4737036,0.26017672,0.24642487,0.3173874,0.085204355,-0.2816821,0.1364924,0.020551555,0.16450493,-0.14009894,-0.14326581,-0.36722648,-0.27321443,-0.18963344,0.06130221,-0.3104242,0.66507894,-0.004626017,-0.21683016,0.17132038,-0.10318738,0.04975012,-0.105293795,0.18147726,-0.4332347,-0.31031883,0.15785734,-0.24826378,-0.25435856,-0.055766016,0.34054622,-0.12412788,0.089687295,0.0012712078,-0.02083594,0.3193213,0.41468763,-0.34258634,-0.0068076323,-0.03707261,-0.017532963,-0.067291975,0.17709878,-0.23602423,0.45448777,-0.20955412,-0.30507433,0.032753684,-0.34751767,0.3529117,0.28314185,-0.005056635,-0.13558306,-0.2815608,-0.04001328,-0.3839012,-0.40009168,0.09134745,0.13520868,-0.39510092,0.23765637,0.11327251,0.21052328
hoa,0.30598432,-0.28015172,0.64754766,-0.29261792,-0.2113043,0.31436688,-0.29432338,0.11175204,0.027251383,0.5141011,-0.29479215,-0.18277638,-0.42445287,-0.04011672,-0.048612446,0.034187123,-0.34030128,0.6517789,-0.14048158,0.17416003,0.37475553,-0.24447021,-0.42043602,0.17769946,-0.06816346,0.23343202,0.36910307,0.36883697,0.1662628,0.13335478,0.04621867,-0.24360257,-0.027723392,0.4266661,-0.35327324,-0.18527092,0.4650587,0.12146361,8.0161364e-05,0.17355864,-0.33715397,-0.2573996,-0.057119045,-0.31636822,0.011210672,0.44749236,-0.4228295,-0.35867795,-0.52342486,-0.43271297,0.05679425,0.11239097,-0.217241,-0.109921895,-0.4822647,-0.08857105,0.43551502,0.3909462,0.08155156,-0.44443974,0.043645255,-0.09075727,0.04467501,0.53947973
mình,0.38757804,0.34477937,0.579289,0.17481358,0.059346676,0.34523207,-0.13507852,0.35752428,0.09492323,0.4130329,-0.3030684,0.01814508,-0.2710963,-0.29063308,0.2316224,-0.4944451,0.17911725,0.4990139,-0.05545499,0.30730897,-0.092270665,-0.120426394,-0.35740796,-0.31622174,0.20354256,0.084843524,0.32829094,0.23842114,0.11756575,0.12734798,0.25584882,-0.52333426,-0.3052352,0.112056896,-0.081967674,0.060833506,0.13034698,0.09449059,-0.29288056,-0.35556757,-0.32313016,0.06252393,0.3185017,0.04177084,0.52281624,0.58880484,-0.06499234,-0.17692386,-0.38223025,-0.7975221,0.024904804,-0.14363798,-0.13368978,-0.12414998,-0.66513014,-0.154136,0.28468028,-0.017517764,-0.14221741,-0.35643882,0.032201648,0.010042791,0.036465257,0.36319965
nơi,0.20409799,0.38060763,0.37051612,0.29468203,0.034444187,0.30710632,-0.19044212,0.35043153,0.21663897,0.1734097,-0.3313921,0.24973413,-0.24723688,-0.3667116,0.18082961,-0.6267811,0.12066903,0.63693994,-0.05733815,0.009755157,-0.13396631,-0.30760017,-0.2836005,-0.38220456,0.2737016,0.0047041457,0.03166374,-0.018950503,0.0014640753,-0.16055383,0.24621022,-0.42659575,-0.34089354,-0.22909205,0.18511869,0.01818205,0.07033378,0.15036355,-0.41447344,-0.28339085,-0.44549945,0.22612329,0.23066977,0.11732982,0.48914734,0.5235401,-0.03711142,-0.17728752,-0.27518988,-1.0855085,0.04914316,-0.32604936,-0.10487348,-0.12981063,-0.66504204,-0.15948775,0.3051521,-0.04812174,-0.24391453,-0.56575096,0.0075681163,0.069327965,-0.13360266,0.32206166
mực,-0.25949198,-0.27575338,-0.644395,0.19006273,0.2800795,0.11303513,0.16103978,-0.033261497,0.092507154,0.07897511,-0.37391138,0.22490562,0.31892592,-0.3982184,0.17595337,0.0016548096,-0.20456555,0.96365577,-0.007928584,0.2334765,0.21832235,-0.3950586,-0.59920156,-0.012414108,0.15401606,-0.40103117,0.090729,-0.2555746,-0.2634813,0.0081386715,0.31515467,0.07965329,-0.32800996,-0.15455303,0.34275398,-0.1626736,0.467943,-0.5628012,-0.06874908,0.023591314,0.18930693,-0.26462978,-0.4046127,-0.2663878,-0.18810306,0.26947322,0.15804012,-0.5606248,-0.18716948,-0.40696082,0.41391003,0.070680104,-0.3012986,-0.46654963,-0.5232673,-0.09650932,0.42454728,-0.6896583,0.26113686,-0.49441582,-0.12241533,0.6625581,0.5470839,0.13485977
tỉnh,0.05770786,-0.15062894,0.4058684,0.26792577,0.18868865,-0.15558176,-0.5365026,-0.21167074,-0.46157932,-0.14400963,-0.5053883,-0.4861802,-0.16468877,-0.22562803,-0.49753612,-0.47321436,0.022348106,0.8529896,0.06638275,-0.15375087,0.21149634,-0.08723287,-0.3944225,-0.48598096,0.03252454,-0.36218604,-0.41392067,-0.44457415,-0.16140783,0.14570454,-0.23735924,0.28544787,-0.6240082,-0.12538,-0.10813645,-0.38394737,0.2138023,-0.13165528,0.13299018,0.16098258,-0.15637061,0.12811168,0.053190336,0.61386406,0.43667778,0.5872023,0.49945706,-0.5396842,0.13584393,-0.18351954,0.5723711,0.33651415,-0.53872436,-0.29853636,-0.29370958,0.25139785,-0.3600503,-0.32796612,0.22350284,0.3469116,-0.4356224,0.44100466,-0.4253808,0.072661795
quyến rũ,0.0590156,-0.4022586,0.6554528,-0.29545802,0.09102736,0.26239672,-0.13186206,-0.17970307,0.0025188713,0.21385652,-0.43134087,-0.22551274,-0.35880354,0.31471977,-0.45056546,0.057296533,-0.45284832,0.92556494,-0.22497807,-0.1210636,0.32661304,-0.2846474,-0.07953806,0.4091421,-0.12508227,0.11425152,-0.028631859,0.16807798,0.034334205,0.05938119,-0.26878104,-0.11890565,0.029779986,-0.032579504,0.24365881,-0.5108802,0.67449176,0.24535394,0.30184904,0.4902964,-0.29069984,-0.30750516,-0.19191639,-0.02484959,-0.37519735,-0.011127349,-0.5018952,-0.71467704,-0.7136336,-0.17200072,0.12893529,0.36470872,-0.21070828,0.19743803,-0.3986117,-0.22031334,0.16557582,0.2897273,-0.19637857,0.04154314,-0.19189413,0.20059916,0.17038473,0.7178966
bất tận,0.058312003,0.0013986869,-0.4830385,0.16958113,0.34158656,-0.009390821,0.2262606,0.052214805,0.10576776,0.20494418,-0.5353133,0.13636708,-0.003392291,-0.017886607,-0.25049457,-0.13331728,-0.22166799,0.7166346,-0.03328605,-0.2200144,0.18673484,-0.47538286,-0.7421592,-0.24460481,0.41388088,-0.43547225,-0.2419691,-0.32605487,-0.124582835,-0.3721135,0.09805734,0.28422594,-0.45248482,-0.5041533,0.44778913,-0.64645934,0.59566957,-0.5083437,-0.10601435,0.4126654,0.18268184,-0.029781386,-0.37859002,-0.0026872102,-0.17479832,0.08769688,0.012166826,-0.31929266,-0.34566426,-0.5138059,0.5902815,0.36730877,-0.29743016,-0.4415212,-0.28570774,-0.06514463,0.36611935,-0.5562274,-0.27628502,-0.20020467,-0.26610434,0.7672545,-0.027005574,-0.05522384
xem,-0.16734648,-0.16900274,0.24449876,0.06721002,0.29542837,-0.04109706,-0.035282135,-0.14717835,-0.3317142,-0.02520491,-0.27601534,-0.20617984,0.08828469,-0.29044157,-0.3014308,-0.36849028,-0.054777995,0.4432625,0.03907592,-0.049482398,0.22825027,-0.093909726,-0.048169397,-0.3038329,0.021374611,-0.3236917,-0.3154061,-0.18215157,-0.10998123,0.17695357,-0.1358607,0.1989127,-0.22738837,-0.18818744,0.17673257,0.04970288,0.22175531,-0.037562266,-0.05631946,-0.12027853,-0.21144286,0.009726394,0.06675404,0.4682041,0.17709763,0.20829023,0.28547454,-0.16957453,-0.09047118,-0.38094506,0.40218922,0.2445168,-0.2312715,0.07224725,-0.19522074,0.07255752,-0.18944468,-0.3729236,-0.06952847,0.24020158,-0.14287019,0.23737809,-0.25052953,0.23911263
bỏ qua,-0.0032840911,-0.2788789,0.05927685,-0.057278734,-0.23738217,-0.26551265,-0.15569825,0.31890196,-0.093840264,0.05845106,-0.52334034,-0.2972925,0.18077265,-0.32825708,-0.84083587,-0.19569279,-0.43133095,0.90083295,-0.07140241,0.111217834,0.337563,-0.31045604,0.10679817,-0.30443466,-0.07541487,-0.4788202,-0.28914282,0.15257525,-0.49343285,-0.26005042,-0.04073741,-0.025649024,0.09661323,-0.07016952,0.16945592,0.001701495,0.24877663,0.23014387,-0.6656198,0.11952568,-0.4198746,-0.20631756,-0.2634319,0.52517056,-0.084010355,-0.039940327,-0.39842525,-0.04865586,0.18935183,-0.75459504,0.068300664,0.35229746,0.09684136,-0.25531664,-0.09258049,-0.2639856,0.16042115,-0.33613664,0.05357331,-0.1867052,-0.33596545,0.09224761,-0.56299376,0.3416604
biển,-0.10768928,-0.38730407,0.25176975,-0.23677705,0.3670819,0.2698804,0.032803178,-0.33263612,-0.7693949,0.28071672,-0.15609466,-0.20060119,0.4093799,-0.43207893,-0.25021428,-0.28379667,-0.42554596,0.45133978,-0.1002213,-0.16498439,0.5682317,-0.35130152,-0.39632425,-0.2994509,-0.11342099,-0.292793,-0.2630565,-0.35594466,-0.38799718,0.6573456,0.24031354,0.23960161,-0.24092376,-0.38272464,0.40225962,0.13409716,0.4474254,-0.43265978,-0.016281739,-0.4317369,-0.5672198,-0.34918696,-0.13200988,0.49495482,0.002764745,0.34924063,0.6006615,-0.26568598,-0.5712021,-0.6826714,0.5321294,0.24349055,-0.15448847,0.32132113,-0.34538814,0.36024913,-0.17424399,-0.37147406,-0.26445192,-0.029980646,0.25920075,0.122256294,-0.17434922,0.6357323
bởi,0.24351288,0.154538,0.24469909,0.00029775873,-0.43341774,-0.10060784,-0.020067101,0.25008827,-0.032266397,0.037441406,-0.68380535,-0.4266955,0.37222812,-0.3645776,-0.7646307,-0.5101451,-0.10744743,0.871443,-0.2889168,0.43577877,0.014539476,-0.38438097,0.06501095,-0.41412917,-0.08415566,-0.26150936,0.05489264,0.26292834,-0.4177158,-0.012041257,-0.24668638,-0.48595768,0.042404436,-0.05622033,0.3422248,0.06345366,0.25379092,-0.043233354,-0.5523781,0.19244696,-0.25283238,-0.17302544,-0.028660702,0.7374352,0.40112466,-0.25564316,-0.35021502,-0.19226602,0.22462027,-0.6956648,0.0066267974,0.36370438,0.048745614,-0.21293685,-0.2828155,-0.41415128,0.48177892,-0.2529951,0.11011319,-0.15179536,-0.30080777,0.26547492,-0.4621717,0.31226993
chiêm ngưỡng,0.031219313,-0.30705413,0.23848772,-0.26478612,0.23952444,0.3140405,0.029094195,-0.2283935,-0.75169826,0.3087754,-0.102814704,-0.21351698,0.36791247,-0.38832614,-0.19462395,-0.31437102,-0.3044688,0.30304995,-0.16651836,-0.08267432,0.4697425,-0.22272311,-0.38298035,-0.30704823,-0.12906511,-0.24052154,-0.13318516,-0.2486279,-0.40699536,0.6133377,0.27653864,0.076222725,-0.2492847,-0.33889478,0.30047825,0.18502614,0.308101,-0.3832193,-0.03481478,-0.41258377,-0.5639662,-0.36752933,-0.13776815,0.56317335,0.10776225,0.4328034,0.6067695,-0.19687688,-0.5603062,-0.6806793,0.4075674,0.21137655,-0.12177893,0.31262174,-0.30099988,0.37067172,-0.21197307,-0.32255727,-0.20916498,-0.08838605,0.25267318,-0.021827897,-0.15629244,0.5505126
trên,0.22873046,-0.19057608,0.89323777,-0.47049013,0.18341756,0.25958917,0.34481665,0.0448895,-0.0035016485,0.024416488,-0.5887489,-0.4550801,-0.299448,0.47944394,-0.5409203,-0.012143159,0.09708222,0.8991728,-0.12023118,0.03405228,0.27356923,-0.06261215,-0.10392232,0.50083065,-0.074392416,0.08273012,-0.05117679,0.2647028,0.024485739,-0.15259524,-0.34042785,-0.3960861,-0.009046692,-0.193993,0.25721025,-0.3926293,0.63490605,0.29624882,0.6738832,0.36931756,-0.18768254,-0.33201414,-0.19211516,0.24839705,-0.18427368,0.1754508,-0.33845314,-0.96345973,-0.94766325,-0.10137738,0.3023544,0.83849025,-0.5466142,0.038361564,-0.7148294,0.014648293,0.14687155,0.21308655,-0.0050080162,0.19803183,-0.4358693,0.6826278,0.12707613,0.732032
nhau,0.11066282,-0.04425684,-0.42876217,0.117202654,0.38946941,0.020996017,0.16499703,0.04711945,0.14705625,0.29685932,-0.57509613,0.17014945,-0.16328605,0.08800232,-0.17593084,-0.036966,-0.21663196,0.74344593,-0.06466777,-0.3032729,0.24521743,-0.47713634,-0.846587,-0.14427164,0.43013713,-0.42410007,-0.23285417,-0.32340932,-0.025149666,-0.40249345,0.08344484,0.3013395,-0.5110779,-0.46747988,0.34175202,-0.7658729,0.6156749,-0.49175122,0.036900256,0.51651394,0.17773074,0.0056302147,-0.4030311,-0.13873665,-0.23694916,0.18264826,0.04477737,-0.37183788,-0.46197176,-0.46860296,0.61536443,0.3910791,-0.38220084,-0.46458068,-0.31280825,-0.0033518185,0.32399973,-0.4749034,-0.2925366,-0.21673189,-0.28549513,0.804706,0.040479843,-0.0152901495
hoang sơ,0.19489051,0.3004616,0.37372413,0.13401437,-0.35105455,-0.15980673,0.1009939,0.29493627,-0.16900557,0.15660366,-0.44184932,-0.41331604,0.4199381,-0.4283883,-0.4506835,-0.5857901,-0.059584077,0.69931406,-0.073352076,0.6730561,0.038953908,-0.2919521,-0.15278956,-0.44871852,0.02019626,-0.19480853,0.25185657,0.23576938,-0.041713625,0.29279426,-0.09953828,-0.5177317,0.14531802,0.029491996,0.15919298,0.16383757,0.3187756,-0.09863007,-0.521155,-0.15142934,-0.2673404,-0.14113648,0.026141489,0.49004495,0.4275765,-0.003859352,-0.21476111,-0.09781778,0.03412562,-0.4377487,0.054192346,0.2798397,0.04581769,-0.026862219,-0.1581877,-0.25796652,0.55521446,-0.2558619,-0.24863824,-0.0923442,-0.120276935,0.20238318,-0.23053688,0.4632108
trong veo,-0.08832725,-0.36035976,0.3439449,-0.06551965,0.14884298,0.20227234,-0.01151208,-0.20048183,-0.11663996,0.2064413,-0.13069151,-0.07654346,-0.12029434,-0.05893042,-0.054194197,-0.005853327,-0.36763075,0.59473914,0.019587366,0.078510515,0.31468472,-0.2537441,-0.13264865,0.23975001,0.028989458,-0.06319673,0.012661062,0.0010538276,0.077624574,0.19073834,-0.03546692,0.021586027,0.10643953,0.016381519,0.031277306,-0.21964875,0.53321683,0.091481484,0.07241615,0.0038953181,-0.2699024,-0.2126371,-0.18198249,-0.19211446,-0.1975732,0.25378934,-0.15008575,-0.37189686,-0.4771377,-0.09964552,0.23989925,0.09845506,-0.1480425,0.18871412,-0.14851171,-0.075619966,0.19789931,-0.015435629,-0.26156121,-0.029911226,0.0626942,0.10404002,0.25625783,0.62545216
sự,0.07139103,0.35789287,0.30132934,0.43832484,0.10470047,0.12881511,-0.12903716,0.41528097,0.18733707,0.014094948,-0.19945252,0.1944886,-0.08103177,-0.4137118,0.17637631,-0.777927,0.16532339,0.7243809,0.18116793,0.15847057,-0.051534027,-0.32571816,-0.28495568,-0.47476313,0.29812628,-0.10788324,-0.058143776,-0.1685368,0.082737476,-0.1343345,0.2475038,-0.42137522,-0.34533763,-0.379388,0.17007096,-0.015450644,0.13478239,0.11759109,-0.50739163,-0.43002075,-0.45540884,0.27161762,0.1782504,0.098463915,0.46998444,0.6391856,0.06916472,-0.17990996,-0.26719213,-0.9520773,0.087474056,-0.33827808,-0.19096757,-0.08951038,-0.52723134,0.0040085553,0.24804713,-0.23464835,-0.41942778,-0.4644286,0.020480672,0.1539231,-0.13894579,0.3874214
suối,0.03866322,-0.4932561,0.60285765,-0.23997071,0.07269321,0.32966924,-0.31553698,-0.28124312,-0.06946326,0.321229,-0.3034524,-0.1870631,-0.41936734,0.19528802,-0.26061076,0.08158906,-0.5006627,0.8256898,-0.2054088,-0.114729166,0.3818424,-0.291383,-0.16715668,0.3580937,-0.11780751,0.11778985,0.0025931222,0.11691058,0.066821724,0.19985743,-0.20906332,0.00679157,-0.018027179,0.10427686,-0.010852456,-0.49832994,0.62337637,0.19044152,0.31153178,0.3327142,-0.34972292,-0.29869443,-0.15883014,-0.17492862,-0.30024052,0.22663896,-0.34307343,-0.63521695,-0.6733694,-0.14735238,0.22815014,0.17648052,-0.24446331,0.16811804,-0.36494568,-0.14213891,0.12329529,0.2990279,-0.14394866,0.01994018,-0.020093413,0.071717426,0.17369153,0.7332887
cổ thụ,0.10720029,-0.46012756,0.7180045,-0.28972885,0.09233822,0.4162376,-0.39164186,-0.31047854,-0.020629581,0.39683187,-0.4256588,-0.24518578,-0.5473395,0.2183826,-0.29714283,0.15321764,-0.5577007,0.95480424,-0.3337399,-0.16612329,0.37903962,-0.33033425,-0.18348692,0.4252602,-0.1480882,0.13692333,0.07013854,0.20345874,-0.013404596,0.15997837,-0.23136586,-0.006462841,-0.048562024,0.17144024,0.026981175,-0.5374074,0.64761007,0.20614678,0.37323806,0.48290753,-0.30076665,-0.28756866,-0.18131538,-0.19837692,-0.30038315,0.1963785,-0.473382,-0.7487344,-0.68079907,-0.24335028,0.19070284,0.22399105,-0.22701907,0.11421995,-0.5094378,-0.2288707,0.13965797,0.36225986,-0.069796056,-0.028394043,-0.12146753,0.08312111,0.24334227,0.7102469
không thể,-0.030311871,-0.43403563,0.17208615,-0.14514089,-0.13444395,-0.23061691,-0.25265753,0.3890659,-0.17658533,0.15344445,-0.45864588,-0.38324457,0.15653329,-0.3710548,-0.86330867,-0.10157505,-0.39524943,0.8340961,-0.06428728,0.12138072,0.39844984,-0.16130267,0.14034311,-0.2520297,-0.11031774,-0.43399602,-0.21802332,0.21830018,-0.573728,-0.16953927,0.018833261,0.02618355,0.045975197,0.040342104,0.09395789,0.16645676,0.16573057,0.3159647,-0.6584125,0.0009176149,-0.431356,-0.23175395,-0.21073876,0.6071995,-0.11135652,0.08882992,-0.25824824,-0.053513814,0.12502842,-0.7660656,0.031342447,0.36913258,0.05731335,-0.2380151,-0.13071853,-0.17793837,-0.034199845,-0.34795046,0.24164082,-0.10361872,-0.36788183,0.01317432,-0.5541259,0.33427608
sẽ,-0.14107294,-0.28160438,0.2045555,-0.026318036,0.31152612,0.12152769,0.039227933,-0.18015349,-0.597474,0.17657913,-0.1045021,-0.25192165,0.4619829,-0.5373704,-0.1302711,-0.42306754,-0.214135,0.44622484,0.027266085,0.12837806,0.416905,-0.18045236,-0.31766117,-0.4060891,-0.09340987,-0.32832026,-0.065117,-0.26083708,-0.3085328,0.6283513,0.19002344,0.094125435,-0.26411048,-0.24073905,0.25883818,0.27399093,0.261318,-0.39167255,-0.13936052,-0.5271728,-0.37193614,-0.25395933,-0.060973432,0.49071708,0.17081107,0.44498023,0.619765,-0.214767,-0.31019735,-0.5576771,0.34830335,0.13292526,-0.12569548,0.19813836,-0.28440583,0.31244332,-0.15362743,-0.48218438,-0.085116975,-0.04231969,0.09927082,0.0982556,-0.038835246,0.46773142
3.049 mét,-0.3875612,-0.33832482,-0.46241271,0.24382092,0.40906936,0.08876612,0.11810843,-0.06024042,-0.1260358,0.043955587,-0.19378541,0.05891966,0.4479705,-0.5287034,0.19952817,-0.096723795,-0.1150162,0.9224873,0.12563026,0.32776147,0.3002663,-0.30012703,-0.55708057,-0.100415185,0.15739456,-0.4294944,0.100358516,-0.3081232,-0.24047723,0.26009285,0.32800987,0.095404595,-0.36333007,-0.123548806,0.24046917,0.03077854,0.35972136,-0.5266523,-0.13800685,-0.27432433,0.13057575,-0.20266852,-0.32529217,-0.14162558,-0.10218656,0.47915238,0.43998018,-0.51471233,-0.15461248,-0.38184392,0.4170715,0.012138125,-0.30635524,-0.34318948,-0.47772607,0.044389263,0.23420516,-0.7682056,0.25885284,-0.3164509,-0.07578163,0.58869827,0.554656,0.25246048
thơ mộng,0.16848971,0.24894108,0.55368125,0.18927854,-0.26554418,-0.16665217,0.13875784,0.35902607,-0.19702815,0.16391614,-0.41919175,-0.47442317,0.41484213,-0.47491416,-0.45817545,-0.63460624,-0.14217268,0.76886195,0.086251594,0.73360115,0.1809929,-0.2792206,-0.114969745,-0.46235105,0.07130732,-0.23273772,0.1900497,0.2331178,0.056506872,0.327373,-0.08831708,-0.4932612,0.21667425,0.09398939,0.06502613,0.2506198,0.40768254,0.067618795,-0.6392866,-0.2590898,-0.37603247,-0.12014919,0.007630133,0.42082083,0.46334442,0.10570524,-0.21741724,-0.040886052,0.046366546,-0.47552225,0.10380393,0.28681794,0.104874544,0.018798778,-0.13487417,-0.26374304,0.5383135,-0.31840658,-0.36600843,-0.11696599,-0.10885872,0.1644505,-0.21316546,0.59136057
thơ,-0.08112888,0.0076613356,-0.27954623,0.027306871,-0.24162883,-0.00096969114,0.16923997,0.11538589,-0.07647385,-0.040077187,-0.486245,-0.13822755,0.66909164,-0.61833143,-0.5028407,-0.5701307,-0.1588572,0.7285148,-0.33321154,0.28579813,0.11058458,-0.6030302,-0.0116012115,-0.44435647,-0.070217915,-0.4046049,-0.13032375,-0.044228062,-0.61647093,0.0810548,-0.098969184,-0.33833018,-0.13434175,-0.32347253,0.6547241,0.08631659,0.2954751,-0.4691723,-0.6421617,-0.031785574,-0.23797788,-0.25596297,-0.1177794,0.7433715,0.26570824,-0.23896778,-0.094139665,-0.0893055,0.12748025,-0.8698449,0.14329508,0.19346489,0.016063143,-0.11355709,-0.28848502,-0.28153723,0.46849018,-0.5143525,0.016992815,-0.3136656,-0.034883417,0.3365719,-0.38552165,0.2632455
bình yên,0.19853637,0.42818612,0.45704812,0.38648635,0.053678434,0.21768634,-0.2585219,0.3881262,0.28783783,0.017704261,-0.36458072,0.21991146,-0.3282,-0.3474903,0.0708447,-0.7223796,0.17850654,0.7673269,0.028980937,0.02683579,-0.19513115,-0.29827842,-0.1782432,-0.46839336,0.31261638,-0.07001109,-0.102434725,-0.023274973,0.00083825854,-0.29572457,0.1410808,-0.4476639,-0.39213914,-0.28375348,0.1740994,-0.08753916,0.041782547,0.2578484,-0.45533082,-0.24748607,-0.42199543,0.32747182,0.26904795,0.17095684,0.56675315,0.53558964,-0.15634967,-0.18786831,-0.13349655,-1.0632646,0.06350009,-0.33513415,-0.17256486,-0.15788968,-0.62604994,-0.20912626,0.22826779,-0.08874441,-0.2763078,-0.517841,-0.08163314,0.10923396,-0.22664432,0.30410367
giữa,0.34638387,0.37167954,0.23829639,0.1988355,0.070704155,0.34127453,0.04816898,0.15768194,0.33099255,0.20263147,-0.6819782,0.20213363,-0.12541276,-0.44575655,-0.22821301,-0.4582841,0.14122628,0.6958383,-0.4050243,-0.119206764,-0.33701798,-0.43341935,-0.058367487,-0.32698983,0.237729,-0.095175564,-0.16621144,0.24014838,-0.3547056,-0.2833923,0.015745152,-0.3950981,-0.27111763,-0.10634732,0.48508874,0.0844083,0.12015891,-0.022685187,-0.42858526,-0.078026935,-0.17924373,0.14176741,0.30807766,0.4535009,0.51086277,0.028685525,-0.3534474,-0.071606,0.12984706,-1.2379184,0.24109034,-0.004839078,-0.008569548,-0.23841965,-0.69796234,-0.517591,0.38475487,-0.1460484,0.14462961,-0.5443709,-0.07102099,0.33974078,-0.25390473,0.10350222
khi,0.1935699,-0.0729968,0.39239314,0.11776108,0.2650171,0.6668011,-0.341126,0.21013112,-0.25559622,0.7250618,-0.08806986,-0.17993924,-0.11318067,-0.35548005,0.51235384,-0.27138674,0.1316234,0.5877356,-0.2579255,0.40796125,0.16290224,-0.026679082,-0.73827744,-0.16675042,0.14249285,-0.1410069,0.6769751,0.111100756,-0.33456108,0.45348066,0.44023916,-0.46812966,-0.740229,0.25302383,-0.22820187,-0.022102963,0.07978754,-0.15753472,-0.1806309,-0.52662367,-0.15992285,-0.20695564,0.12156576,0.13652226,0.31622127,1.0626982,0.49300307,-0.54002696,-0.7627993,-0.7468349,0.2898555,-0.066224,-0.46436435,-0.19219278,-0.796028,0.13216789,-0.12845047,-0.4700718,0.1724822,-0.1734012,-0.018834477,0.08670667,0.58931285,0.40001547
trekking,-0.12071366,-0.1350527,0.63933027,0.047510125,0.41340816,0.0006908039,0.1256884,-0.10461937,-0.42675695,0.13880543,-0.26802543,-0.34920344,0.10604832,-0.40733248,-0.034642573,-0.3519808,-0.10155772,0.47280756,0.27270356,0.46142593,0.32554644,-0.013660346,-0.22293578,-0.21987289,0.06302602,-0.18564449,0.001166205,-0.09217152,0.31425777,0.65198493,-0.093136534,0.08987838,-0.016179238,0.17452383,-0.027086502,0.14870365,0.51670015,-0.10343513,-0.016506687,-0.3792266,-0.16886532,-0.09266642,0.09460337,0.097936325,0.29207504,0.4775451,0.28110692,-0.23151575,-0.23931912,-0.091893144,0.4013811,0.26143447,-0.14886886,0.1282932,-0.20347781,0.0003655786,0.10346035,-0.3880809,-0.28102466,0.3223349,0.03737055,0.2849073,0.09143676,0.52431226
biểu tượng,0.017282173,-0.33539957,0.14654809,-0.1543818,-0.25310925,-0.14095975,-0.18153714,0.37889,-0.06373566,0.19661774,-0.54981285,-0.32912624,0.13775347,-0.40117303,-0.8433162,-0.115655966,-0.43195522,0.91212076,-0.2144818,0.13756318,0.26969635,-0.27361378,0.19779721,-0.34731287,-0.12070342,-0.48048085,-0.14682247,0.33341458,-0.6516651,-0.23020619,-0.03585365,-0.06961406,0.1234842,0.024165604,0.25179163,0.17047425,0.20848325,0.2837411,-0.7308081,0.1607618,-0.41297776,-0.3040333,-0.2346695,0.63808537,-0.08635754,-0.06234585,-0.4707678,-0.047111265,0.18107535,-0.89138865,-0.023691617,0.44953462,0.24847938,-0.28297663,-0.2181198,-0.36056426,0.12912638,-0.35783863,0.2084604,-0.22180317,-0.40016523,0.027942605,-0.49292144,0.31752434
thử thách,-0.050306607,-0.054477703,-0.3004105,0.030433219,-0.019430557,-0.0880821,0.36285678,0.08986281,0.056839213,0.049880587,-0.3438611,-0.050086554,0.36627555,-0.16827263,-0.29921654,-0.13002564,-0.2219937,0.6525565,-1.8289677e-05,0.27545574,0.18614958,-0.43566787,-0.24101079,-0.12073041,0.17624974,-0.27987614,-0.027464848,-0.0822588,-0.16066909,-0.10859449,0.02901167,-0.048829965,0.04465895,-0.1798841,0.4104601,-0.14776716,0.459335,-0.3038768,-0.29145443,0.121407844,-0.014196932,-0.17558083,-0.39333627,0.010258304,-0.10419818,-0.14063725,-0.2888597,-0.1788721,-0.12028099,-0.352967,0.27753457,0.25825593,-0.09642571,-0.22120981,-0.106347695,-0.2478396,0.6329846,-0.43796763,-0.22497413,-0.31141025,-0.078681685,0.4536042,0.09303321,0.22425972
mệnh danh,-0.31249386,-0.27425852,-0.3106246,-0.048877206,0.050899725,0.1083851,0.19616814,-0.08388091,-0.16811638,-0.011929531,-0.17327505,-0.23769322,0.6943059,-0.5603309,-0.19708233,-0.37419567,-0.11075163,0.5846067,-0.12922722,0.3588683,0.25431705,-0.4016153,-0.040913485,-0.19821951,-0.11722193,-0.35237846,0.054232933,-0.15660474,-0.5302205,0.33389896,-0.07004762,-0.17189951,-0.19538952,-0.2176137,0.5085638,0.15851961,0.27805808,-0.5608883,-0.37350902,-0.17660788,-0.09226497,-0.31341636,-0.19485593,0.50933874,0.0054267864,0.025994718,0.24047118,-0.2364509,-0.059677433,-0.49040058,0.21616328,0.19663337,-0.12920024,-0.06747817,-0.26095882,-0.06874056,0.25272387,-0.6520854,0.11918616,-0.1429395,-0.0054970207,0.33270147,0.06387441,0.29934704
nàng,-0.22932708,-0.19586454,-0.44506496,0.0001469588,-0.039306287,0.03489434,0.12075304,0.024983063,-0.12765715,-0.015098982,-0.32540566,-0.12222253,0.6781603,-0.61103004,-0.3293771,-0.43895867,-0.20738715,0.69555974,-0.22304703,0.31070778,0.18250713,-0.52007663,-0.023472672,-0.3657112,-0.106880814,-0.39596134,-0.05663281,-0.16798487,-0.63649964,0.15290953,0.017981622,-0.16308013,-0.19186057,-0.2915234,0.6233506,0.13961491,0.26782054,-0.5467301,-0.5609244,-0.09962541,-0.1448208,-0.30223602,-0.186383,0.5482662,0.053666297,-0.10124619,0.09555854,-0.12310287,0.09105165,-0.744867,0.14647107,0.14811169,-0.03789315,-0.16183738,-0.28489384,-0.16882697,0.3656619,-0.6458041,0.14018217,-0.31014928,-0.019410554,0.3114878,-0.15846182,0.23396751
điểm,-0.21046302,-0.37353295,-0.110692225,0.033806987,0.038485117,-0.22360747,-0.1733519,0.08888803,-0.20037849,-0.08132196,-0.29497707,-0.17650232,0.27831504,-0.4395441,-0.5023993,-0.13257156,-0.25476083,0.7404224,0.06438416,0.123078875,0.3616592,-0.1990869,0.019161386,-0.24475048,-0.06798795,-0.44723436,-0.25002915,-0.098253936,-0.39791954,0.0022386971,0.03762857,0.1397234,-0.07036631,-0.064710155,0.102219604,0.14396401,0.15558477,0.026300877,-0.4166635,-0.07092912,-0.27066764,-0.16890058,-0.23024938,0.35834154,-0.047948383,0.16824535,0.042573866,-0.11032181,0.18542649,-0.5048301,0.15624066,0.21050599,-0.0579892,-0.22374982,-0.13516659,-0.058640946,-0.018065931,-0.45243895,0.22969337,-0.114178844,-0.20111331,0.13730247,-0.27036706,0.21706417
từ,-0.20524345,-0.5139709,0.29869935,0.25157028,0.21591112,-0.021242045,-0.3899872,0.16439244,0.013529295,0.16993046,-0.22535193,-0.21580267,-0.4066067,-0.4248394,-0.3436361,0.021719117,-0.44451642,0.8247432,0.06988967,-0.21124588,0.2642918,-0.18357407,0.078472175,-0.25307846,0.12800616,-0.52661484,-0.37802935,0.15975097,-0.31998616,-0.30060324,-0.07999305,0.38981777,-0.07052416,0.18288349,-0.12655339,-0.002911291,0.33386207,0.51409566,-0.5380497,0.0007625651,-0.169405,-0.024214868,-0.08848399,0.25576037,-0.21335496,0.4515466,-0.36118236,-0.1704102,0.18376665,-0.543742,0.34447578,0.26823166,0.076321386,-0.21013899,-0.19107331,-0.11675444,-0.31486344,-0.3715077,0.049379207,-0.008498926,-0.45701036,0.11662228,-0.113002636,0.25769106
bốn,0.066100776,-0.35328674,0.4212153,-0.018846639,-0.009837244,0.16151267,-0.4499289,-0.037932508,0.013351618,0.18127055,-0.5708216,-0.13025576,-0.7213533,-0.36457437,-0.46193993,0.11680219,-0.6626059,0.9336258,-0.26260448,-0.44755635,0.35191628,-0.3163733,-0.0015386852,-0.23741114,0.02471197,-0.5055859,-0.51461136,0.24600923,-0.3343591,-0.4435585,-0.22966535,0.47744644,-0.0060393987,0.27718082,-0.08160761,-0.18103914,0.5027978,0.52781427,-0.3409029,0.43106222,-0.22423458,-0.095756285,-0.2508587,0.21439773,-0.11933289,0.26036587,-0.6493047,-0.19924545,0.22254914,-0.70368946,0.4084578,0.42551392,0.16532195,-0.18579562,-0.31066215,-0.37066507,-0.16282612,-0.11975871,0.056815527,-0.19528234,-0.4674214,0.06095819,-0.29271644,0.22380936
trập trùng,0.07590439,-0.1817707,-0.32531723,-0.007918495,0.29940552,0.1123282,0.02854286,-0.113097444,-0.086037435,0.2572009,-0.43995246,0.16095601,-0.18488592,-0.02113851,-0.21115075,0.010459265,-0.41309986,0.4840312,-0.17509764,-0.4111005,0.33307618,-0.39703488,-0.61698455,-0.1398982,0.22230043,-0.40161014,-0.38236508,-0.26256067,-0.1304432,-0.25867698,0.071605876,0.43614686,-0.345607,-0.3583244,0.24603933,-0.5509533,0.5424498,-0.37033042,-0.024504453,0.40903127,-0.014475397,-0.105789885,-0.3740162,-0.020866066,-0.20595632,0.13449283,0.035262246,-0.19630955,-0.34005636,-0.5072956,0.55580807,0.31640193,-0.1921484,-0.20942338,-0.22726996,0.023902463,0.0858508,-0.31658617,-0.25890887,-0.17202681,-0.07536504,0.4517031,-0.1477427,0.023174103
khám phá,-0.16086619,-0.10576106,0.43988782,0.13591936,0.32583153,-0.031831566,0.12352947,-0.0999092,-0.2558064,0.07223569,-0.2845185,-0.33448946,0.17853835,-0.41104624,-0.019270822,-0.2911989,-0.08439847,0.5705196,0.20552897,0.46076477,0.22072352,-0.059761517,-0.1518012,-0.18999304,0.078398295,-0.20042908,0.027861897,-0.037178986,0.23296556,0.49672562,-0.16453679,0.02799635,-0.000669762,0.1650523,0.075097814,0.18663205,0.45579702,-0.091326386,-0.08903995,-0.2395562,-0.04929404,-0.079535924,0.060269374,0.048584815,0.22623308,0.3072329,0.107280254,-0.2506876,-0.06114893,-0.04075768,0.36245593,0.2516794,-0.07173937,0.026048332,-0.20445251,-0.13508819,0.17386843,-0.43390474,-0.12604061,0.20059274,-0.09522537,0.30851942,0.21601446,0.4181167
hòa,0.46625444,0.4115633,0.52481127,0.1439224,-0.0064716144,0.41555923,-0.16920784,0.39065033,0.18658024,0.4463059,-0.41302508,0.07087768,-0.32340842,-0.33082333,0.25364724,-0.47979322,0.17858262,0.4806108,-0.240116,0.25886428,-0.14597519,-0.16559699,-0.3562393,-0.33116093,0.16473542,0.0723041,0.37736452,0.2929895,-0.06295157,0.0045319214,0.26703504,-0.56312245,-0.37075314,0.12961218,-0.009081578,0.04505403,0.03873115,0.119734794,-0.3530301,-0.25570145,-0.31313646,0.060472447,0.30776358,0.11017864,0.59674966,0.548428,-0.11711657,-0.18619454,-0.33995488,-0.9783288,0.003464867,-0.18065052,-0.09802342,-0.20663804,-0.7678284,-0.24047573,0.31443444,-0.042582657,-0.020705428,-0.43362826,0.013931308,-0.016311653,-0.021637086,0.2496372
đỉnh,-0.06509664,-0.2717868,0.13568074,0.21462172,0.3420901,0.37541595,-0.29707196,0.019184899,-0.22689772,0.38740635,-0.029639293,-0.26443928,-0.0034770858,-0.28256467,0.33403307,-0.17626962,0.11588073,0.5359517,-0.11046374,0.32271644,0.16821277,0.024704099,-0.54528826,-0.14438315,0.09788655,-0.25646326,0.41586512,-0.03258368,-0.30262458,0.3460276,0.19792977,-0.1180436,-0.649271,0.19757211,-0.15583743,-0.045777634,0.044989966,-0.23444392,-0.07789582,-0.29927805,0.096091695,-0.11000731,0.022333955,0.1784605,0.11959891,0.8550376,0.5495897,-0.507619,-0.3726555,-0.3304333,0.3601538,0.077998556,-0.46188056,-0.22228122,-0.48483905,0.18173826,-0.2960495,-0.59474206,0.26814923,0.11228194,-0.18109341,0.252095,0.52925897,0.16739488
đại ngàn,0.40510395,0.44667235,0.52287465,0.24553777,0.06456986,0.33664078,0.07964547,0.20776461,0.33349717,0.21649604,-0.77111304,0.106467634,-0.1622807,-0.47056526,-0.26585037,-0.5522742,0.28436294,0.8428433,-0.33645886,0.040362164,-0.42945233,-0.39252466,-0.021000113,-0.3429606,0.28075027,-0.047928095,-0.10534246,0.32211506,-0.2513094,-0.20996736,-0.085226156,-0.54826576,-0.26630408,-0.030260516,0.48517042,0.15828149,0.09914062,0.06557113,-0.3752653,-0.13325271,-0.2118394,0.1723536,0.43277174,0.5449168,0.6936984,0.083469875,-0.39261782,-0.15195157,0.16800822,-1.2389371,0.27724135,0.052592427,-0.067393005,-0.2278692,-0.75002474,-0.61314297,0.44524693,-0.14069082,0.16121906,-0.4755025,-0.16456844,0.42659536,-0.20232339,0.18531108
