node,0,1,2,3,4,5,6,7,8,9,10,11,12,13,14,15,16,17,18,19,20,21,22,23,24,25,26,27,28,29,30,31,32,33,34,35,36,37,38,39,40,41,42,43,44,45,46,47,48,49,50,51,52,53,54,55,56,57,58,59,60,61,62,63
với,-0.30756247,0.31796396,0.24386033,-0.05720651,-0.10111424,0.46626565,-0.49616194,0.10420598,-0.068465136,0.03959093,-0.44143304,0.06805597,0.057215787,-0.365894,-0.26567405,0.07785595,-0.055890594,0.45806235,0.117819734,-0.40852043,0.29966572,-0.17371155,-0.049660325,0.11930481,0.19117868,-0.033374667,0.05245803,-0.27720195,-0.185004,0.3339594,-0.038956087,-0.012692471,-0.10682372,0.016433805,0.14425096,-0.14920709,0.25378898,-0.14489989,-0.16881686,0.16712391,-0.30329126,0.29208055,0.33340552,0.1704774,0.3863124,0.37251604,-0.05064008,0.1060851,-0.60388803,-0.6081103,0.2613253,-0.11587649,-0.22589627,0.1336923,-0.46256858,-0.30770135,0.22365926,0.11648886,0.19863082,0.18081237,-0.13242258,0.105631486,0.15879469,0.1953562
đến,0.13118272,-0.18952405,0.21690767,0.11719115,-0.12651981,-0.054725002,0.014108826,-0.22635642,-0.09543114,-0.101009235,-0.15225148,0.048365254,0.07319531,0.12679733,-0.2129827,-0.7670086,-0.020397196,0.40625238,-0.3594154,0.7988418,0.10528013,-0.17453127,-0.47328037,0.17072654,0.02954047,-0.0070966566,-0.32526082,0.22608587,-0.24326289,-0.23750125,0.095210776,-0.15048464,0.09986279,0.08626063,0.35022697,-0.07979496,0.0895981,0.024720404,0.06028994,-0.059712525,-0.24535932,-0.1817935,-0.2554101,0.022218525,-0.14821567,0.2842448,-0.17580704,-0.5573785,0.19575234,-0.55556464,0.32221165,0.20762487,0.13198155,-0.6056387,-0.24974196,-0.23260498,0.084928595,-0.2533701,0.057129283,-0.73109025,-0.03644769,0.20445088,-0.11589861,0.18781158
liên sơn,0.053171314,-0.11268541,0.1748296,0.14059858,0.33402473,-0.007859163,-0.1087388,-0.18732649,0.2391863,0.0045629805,0.14619194,-0.0821849,0.044798963,-0.13700217,-0.09405113,-0.33189964,0.09182173,0.38224095,-0.49435893,0.5822366,0.5237748,-0.22795302,-0.05805,0.26160526,0.085510164,-0.26239282,0.0027667566,0.1385256,-0.28081834,-0.081672244,-0.06058894,-0.25416663,-0.17113769,-0.07012424,0.34488207,-0.20510386,0.22851975,0.22259542,-0.03243146,-0.07673002,-0.17324533,-0.15996268,0.002017446,-0.25211874,-0.25932086,0.17427416,-0.40463418,-0.42510357,-0.1489212,-0.33506796,0.2926863,0.29839665,-0.2795966,-0.15027687,-0.5511685,-0.09546222,0.15416539,-0.35047618,-0.06057803,-0.42677984,-0.23523712,0.31820938,0.65597826,0.18462346
và,0.27289143,0.02841516,0.24715747,0.048030198,-0.09069222,0.19312678,-0.4606139,0.5059863,-0.35207987,0.114382006,-0.19223587,-0.2287948,0.29147178,-0.2244684,-0.11346116,-0.29662874,-0.0074901087,0.5857144,-0.059605483,-0.11809478,0.25965333,-0.1641036,-0.0877182,-0.33903807,-0.08393093,-0.018608127,0.11050215,-0.0024016213,-0.1627294,-0.20911376,0.040028296,-0.30385804,0.375087,-0.43637946,-0.21603394,0.05230019,0.20451169,-0.14877947,-0.35095522,0.3171583,-0.15540768,-0.16683048,-0.014134848,0.37453315,0.3354781,0.3391289,0.13923001,-0.06634548,-0.6315328,-0.62198794,-0.018742083,-0.105903655,0.012907493,-0.21838354,-0.12747765,-0.09877832,0.2490654,0.13575943,-0.17326376,-0.3316879,-0.38047633,0.08639971,0.19661754,-0.029971052
được,-0.022021154,-0.19895767,0.03250704,0.102274925,0.22387628,-0.17369607,-0.052418306,0.42171192,-0.09215787,0.17169693,-0.186103,-0.027218346,-0.1638965,-0.37401438,-0.45212412,-0.33172566,-0.050297964,0.7327538,0.013534418,-0.084898606,0.4979884,0.22111772,-0.46669245,-0.0828708,-0.13628358,-0.016674297,0.07811658,-0.099276386,-0.15208595,0.3173841,0.114674285,0.08180769,0.28525957,0.19533116,0.22622715,-0.3504457,0.2421235,0.015955696,0.38366416,-0.41903773,-0.46318382,-0.23160115,0.03444137,-0.11463292,-0.27220118,0.111853376,0.016559148,-0.075064644,-0.4031653,-0.7814553,0.53551835,-0.050576054,-0.20237648,-0.22963455,-0.70907307,-0.16538316,-0.1208658,-0.2893863,-0.12427635,-0.18192197,-0.13705713,0.51041806,0.13688561,0.31584966
núi,0.068701155,0.32731995,0.44732946,0.14075641,0.086514935,0.32093742,-0.47836688,-0.23530279,0.41661793,0.21467324,-0.17565244,-0.07820386,0.2801993,-0.044830304,-0.10058766,-0.11727841,0.014873655,0.3088019,-0.16208553,0.4190727,0.14456804,-0.531158,-0.08995532,0.27976906,0.55875254,-0.22014208,0.043425474,-0.018532546,-0.31249386,0.2023708,0.15194279,-0.21147047,-0.34227765,-0.16393732,0.39846897,-0.013566403,0.034010846,-0.07757365,-0.36075923,0.15586531,0.0008679209,0.64733106,0.16846505,0.1987961,-0.062305834,0.25087386,-0.26938087,-0.39602545,-0.21085577,-0.5279234,0.08602593,0.32538253,-0.102655046,-0.10668803,-0.24509491,-0.30856165,0.5775386,0.02342052,-0.23559709,-0.20591,-0.2832331,0.29830387,0.47797754,0.44683245
tả,-0.14918415,-0.07883542,0.19989718,0.16209674,0.38347787,-0.06124299,-0.09191636,-0.12065268,0.112551704,0.13602947,0.12795994,0.06186151,-0.134206,-0.23836401,0.0074190465,-0.3138177,0.14056501,0.43136215,-0.4746921,0.45310134,0.57786703,-0.047905758,-0.15314151,0.18892448,-0.10464563,-0.27509576,0.037914056,0.0031386684,-0.19816989,0.086099364,-0.07452862,-0.07724796,-0.007441729,0.06994376,0.50599873,-0.2080028,0.4092229,-0.045094486,0.144476,0.07414263,-0.25034434,-0.24747759,0.11523084,-0.3445523,-0.09928296,0.40582955,-0.4906533,-0.3653575,-0.22308506,-0.22962075,0.37326676,0.3143317,-0.21406037,-0.060256507,-0.67275363,-0.009708584,0.14727443,-0.39228797,9.751131e-05,-0.40070388,-0.2213213,0.3049317,0.587952,0.27350435
cao,-0.11038502,0.41991207,0.2949186,0.1254455,0.24841739,0.29434636,-0.29931426,-0.16857156,0.1591408,0.19346236,-0.1335333,0.048807595,0.121300496,-0.44386896,0.0029979136,0.076403044,-0.22325666,0.5715854,-0.17816707,0.023681045,0.4698855,-0.15655692,-0.16831571,0.20852278,0.28323805,-0.16551538,0.07533055,-0.10699671,-0.20795272,0.42564133,0.044719182,0.057760872,-0.18085453,0.17986429,0.5482038,-0.27968845,0.31158087,-0.37248057,-0.20514852,0.2578535,0.022857912,0.44060764,0.41521338,-0.008886175,0.17556015,0.23368281,-0.50279474,-0.44883782,-0.47053674,-0.50775987,0.28244215,0.09522414,-0.02373516,0.060158946,-0.43776086,-0.15579233,0.5069884,-0.031668793,0.20608251,-0.16280481,-0.35133868,0.21877502,0.731135,0.38081753
vẻ,0.24655493,-0.01268226,-0.050709065,0.24545893,-0.006216824,-0.06221231,0.006669115,0.3308356,-0.35395566,0.1766776,-0.018923037,0.21013206,0.24140272,-0.48270884,-0.11191333,-0.3919799,-0.18683657,0.94280267,-0.051493254,0.13236192,0.48809692,0.11993765,-0.67562526,-0.29425296,0.17460345,-0.09181426,0.19555973,0.2139927,-0.2521606,0.22281279,0.24555488,-0.012011512,0.26748934,0.09347953,0.24105439,-0.22707239,0.24245402,-0.1349938,0.18732396,-0.026194425,0.024011562,-0.113714784,-0.0062214024,0.2812932,-0.103798,0.04601826,-0.06740231,-0.54413956,-0.51738244,-0.9453482,0.3547946,-0.14290813,0.5149825,-0.6836625,-0.16520011,-0.26203847,0.23782541,-0.08026123,0.16533698,-0.66234434,-0.45660958,0.30283192,0.3761003,0.14084087
ngọn,0.02772564,0.35007456,0.4154098,0.09415698,-0.022655193,0.42790774,-0.6572152,-0.11824875,0.3669159,0.321224,-0.21539775,-0.013461562,0.36146864,-0.20426473,-0.08693824,-0.009925786,0.089313805,0.3679802,-0.081444435,0.23117328,0.21151611,-0.48079652,-0.084132574,0.26487836,0.5560201,-0.2686643,0.191482,-0.10911356,-0.24681538,0.31333464,0.17142586,-0.16695862,-0.2742396,-0.1519011,0.24259919,-0.02410986,0.10026921,-0.13192226,-0.31794047,0.21975796,-0.068524905,0.66410315,0.1931944,0.2526861,0.10361314,0.2718004,-0.2337424,-0.17117219,-0.32900643,-0.56886595,0.1215247,0.24288322,-0.12991372,-0.10943946,-0.144939,-0.35422555,0.63575906,0.0655008,-0.22931036,-0.13782778,-0.29244104,0.25750956,0.50961614,0.4614174
những,0.4676058,0.09603133,0.3221802,-0.03772129,0.105960004,0.34840888,-0.4085206,0.2986711,-0.18344754,-0.23217647,-0.40567008,-0.4727733,0.08795595,-0.020226192,-0.20704028,-0.6764503,0.078064196,0.52072936,-0.3184971,0.14745021,0.13348839,-0.40858856,0.15904102,-0.34629405,-0.58686644,0.19343916,-0.41613322,-0.20879678,-0.1083373,-0.51719224,-0.038216688,-0.33477,0.58963484,-0.57231814,0.059381887,0.063348934,0.09279007,-0.3491355,-0.4864445,0.50887847,-0.14821652,-0.43427932,-0.09928808,0.2625776,0.40816224,0.7345633,0.24748471,0.032049343,-0.42253956,-0.70003647,0.08351173,0.07666177,-0.34848002,-0.013773143,-0.5427331,0.17412442,0.34129828,0.13120288,-0.011839258,-0.34615937,-0.27246863,-0.06544704,-0.056041326,0.085285686
đẹp,0.19319952,0.025050966,-0.07211035,0.17442426,-0.06650141,0.033507027,-0.09038564,0.38875675,-0.27892366,0.22016929,-0.08301428,0.14637055,0.2924513,-0.438278,-0.20597981,-0.2811801,-0.1239925,0.8082042,0.08938747,0.05772629,0.35859156,0.02864414,-0.55018824,-0.33270222,0.25782454,-0.064326815,0.22094509,0.12488684,-0.23651926,0.21485294,0.25203833,-0.0356809,0.18973504,-0.0019717298,0.117316715,-0.10089988,0.15268488,-0.0037311295,0.15509132,-0.08853108,-0.020936614,-0.02305559,0.0010537938,0.33999875,-0.12577723,-0.0019790088,0.10649158,-0.2832935,-0.51552105,-0.8403807,0.2821696,-0.16564964,0.35059142,-0.6270494,-0.124225326,-0.28347215,0.24796851,-0.033375878,0.046908412,-0.4609271,-0.4538047,0.2881428,0.28231093,0.10975339
trong,-0.35531685,0.13347761,0.35772002,-0.03757874,0.042416163,0.6417345,-0.34127197,-0.3732745,0.19542044,-0.07255732,-0.06847017,-0.031380363,0.1190131,-0.13953409,-0.39037532,-0.17858772,0.28522608,0.20525244,-0.37197843,0.21959525,0.4391877,-0.46156707,-0.041274786,0.48124725,0.662996,-0.30494356,0.18330865,-0.07896808,-0.45050418,0.06277725,-0.2096546,-0.22098856,-0.69411844,-0.28260386,0.19452783,-0.044555724,0.19072725,0.15913764,-0.07115517,-0.22629768,-0.25392395,0.5623504,0.01909661,0.2247863,-0.0061537838,0.27566215,-0.15737198,-0.10484267,-0.37973392,-0.52776754,0.38938424,0.2223309,-0.6420027,-0.23024471,-0.48746857,-0.42375728,-0.020564837,-0.22411744,0.22302246,-0.114149,-0.19036174,0.19011633,0.57512796,0.052454524
giữa,0.049766485,-0.20985824,0.31816417,0.16012213,0.39684412,-0.018067224,-0.34849527,0.43777665,-0.22219744,0.16211711,0.110538974,-0.2845903,-0.07422848,-0.43785176,0.061961383,-0.4897231,0.31331632,0.6007135,-0.3754957,0.05369324,0.56820476,-0.20595582,-0.0047832984,-0.11793592,-0.63693166,-0.17579754,0.10503894,-0.1600895,-0.021787068,-0.2168307,-0.13162355,-0.16737197,0.50750035,-0.25575203,0.14797084,-0.042559624,0.44947353,-0.22088662,-0.039379045,0.28337377,-0.4819179,-0.66299576,0.14131525,-0.1767751,0.24574007,0.7799181,-0.10352124,-0.046946168,-0.618463,-0.35392815,0.2293946,0.13026974,-0.39388442,0.060151454,-0.8818728,0.20370694,0.005504905,-0.24681297,-0.20575157,-0.42827186,-0.27781808,0.29088667,0.4802894,0.17559372
đầy,-0.15549602,-0.06580714,0.11727544,-0.16755272,-0.39409533,0.29767326,-0.16562913,0.30113813,-0.6918279,0.034452897,-0.54323,-0.31749508,0.27104235,-0.0061015207,-0.4842239,-0.24674298,-0.2286956,0.74650544,0.013187023,-0.035935443,0.16401021,0.08604264,-0.3966816,-0.29777646,0.54314834,0.15424363,0.14664063,-0.020297877,-0.47543812,-0.2594821,-0.29693532,-0.35527062,0.035449658,-0.28538662,-0.105710775,-0.027353093,0.19949314,0.06598287,-0.17935853,0.09543636,-0.1121697,-0.2978972,-0.15177684,0.30188113,0.5283318,0.01805618,0.08602231,-0.3423058,-0.56481403,-0.6005904,0.14446516,-0.3673534,0.11941345,-0.2502554,-0.18171547,-0.5536116,-0.0015030423,0.108408906,0.115346104,-0.2077553,-0.2370114,0.2616575,0.02728674,-0.34642598
là,-0.31108287,0.0022195429,0.19638799,0.050899804,-0.053782623,0.28415865,-0.25125942,-0.27056307,-0.10352631,0.06218359,0.050899018,0.3526939,0.058297914,-0.30152553,0.049937617,-0.3949158,0.33511758,0.20408477,-0.3743687,0.45274335,0.4523352,-0.08400287,-0.24011095,0.23989826,0.007822742,-0.36613694,0.0796522,0.0068129487,-0.26823384,0.15560456,-0.024420409,-0.026026359,-0.1857411,0.025047941,0.34383273,0.0895871,0.35853997,-0.19980872,0.23005292,0.23298539,-0.24329707,-0.08236099,-0.11613476,-0.0034292776,0.17978941,0.67368287,-0.24461965,-0.058638528,-0.12401175,-0.12277492,0.43584898,0.36228138,-0.12712781,-0.45379052,-0.1754068,-0.13622972,0.09470452,-0.33387104,0.323923,-0.51647407,-0.24612226,-0.08381575,0.35048333,0.10217622
độ,-0.112152524,0.44536537,0.12058088,0.078832105,0.2926801,0.40650925,-0.09415522,-0.20575143,0.026845543,-0.065506436,-0.17464817,0.064842604,0.04220152,-0.6395336,-0.07975108,0.13497843,-0.276504,0.7019657,-0.14949694,-0.22057794,0.53834003,-0.17760617,-0.12872511,0.045562502,0.1872069,-0.10683213,-0.013835021,-0.16065882,-0.27203134,0.38000625,-0.10650247,0.15968937,-0.18444712,0.14826842,0.56253743,-0.37324062,0.3607748,-0.4201686,-0.19310597,0.2500048,0.0502096,0.31311116,0.46018627,0.087287396,0.21749386,0.18767643,-0.43120095,-0.4916438,-0.6089654,-0.65406233,0.26887432,-0.11163986,-0.07796323,0.06466134,-0.65430903,-0.1233665,0.36140156,0.004657451,0.55115485,-0.09474882,-0.37882075,0.099335685,0.7610074,0.20175463
đỉnh,-0.073103935,-0.35535002,0.2113043,0.017893603,-0.10430792,-0.017824491,0.35167494,-0.27495265,-0.046502907,0.14811546,-0.32989436,0.0096279625,-0.107774265,-0.12949817,-0.23628262,-0.3942067,-0.43844277,0.58000696,-0.072253816,0.74651283,0.1255425,-0.27599362,-0.4001768,0.1284385,0.38847715,-0.10796149,-0.13527758,0.11237923,-0.19692273,-0.22930038,-0.20199835,-0.049531825,-0.4140487,-0.07838554,0.24875,-0.1421016,0.23845933,0.22949207,0.11395719,-0.2044145,-0.18842898,-0.3860485,-0.31583124,-0.06510076,-0.08135692,-0.0818665,-0.1358887,-0.7123424,0.16349626,-0.45446128,0.37023804,0.31122318,-0.12267268,-0.06468143,-0.42856464,-0.45926368,-0.07765925,-0.49893072,-0.18924132,-0.36710387,0.17643987,0.32399672,-0.17044584,0.3266675
khiến,-0.27697217,0.40111062,0.28214416,0.0065197083,-0.33023193,0.2529141,-0.006874959,-0.40316844,0.0032700247,0.35954967,-0.73237735,0.21535549,-0.20742874,-0.59650046,-0.46850175,-0.08218609,-0.1111168,0.67548406,0.37208527,0.18244898,-0.210685,-0.5562266,-0.4557968,-0.32296684,0.09946789,-0.71801937,-0.21463135,-0.37763885,-0.2875116,0.44728026,0.03485904,0.34143975,-0.31137893,-0.2532248,0.39152458,0.11049495,0.4522373,-1.0181081,-0.35627002,0.27018043,-0.18932946,-0.05037981,-0.23588508,0.46888134,0.7391899,0.66025823,0.1346656,-0.025987683,0.12651461,-0.5618242,0.6940013,0.71824574,-0.52575916,0.47840065,-0.4822215,-0.20842373,0.6298071,-0.24949047,-0.22363043,0.26168257,0.16571422,-0.01969239,-0.6545601,0.88425124
khu,-0.30104324,0.082346074,0.20179787,-0.04669063,0.1435095,0.16473977,-0.21539076,0.35814238,-0.05668443,0.2728337,-0.43939433,0.08769819,-0.20149095,-0.64128965,-0.46722263,-0.06790377,0.16603205,0.66705704,0.2579815,-0.33757156,0.31135866,-0.11738584,-0.3005595,-0.061551217,-0.034812365,-0.13393572,0.1417725,-0.44569588,-0.12312785,0.46678343,0.10179076,0.22591652,0.14161873,0.10232348,0.21158086,-0.16898976,0.21397638,-0.119790405,0.3507806,-0.262431,-0.64340895,-0.021786451,0.2120583,0.063519955,0.05643084,0.39982992,0.23985961,0.36515835,-0.51921654,-0.7819925,0.5522015,0.02121097,-0.5012395,0.03627833,-0.8982599,-0.28631157,0.12996425,-0.21067248,-0.11308825,0.1553029,-0.10876278,0.4306998,-0.07676009,0.5180792
nên,-0.20012896,0.18845631,0.26181948,0.030023621,-0.44118652,0.1670591,0.28767583,-0.4970828,-0.14500688,0.31722996,-0.7845235,0.21314856,-0.20291032,-0.6065062,-0.36989725,-0.2393659,-0.34323123,0.80190593,0.35359785,0.47143537,-0.277554,-0.64445204,-0.4409504,-0.34113255,0.13380337,-0.6636346,-0.30792165,-0.2431502,-0.29221138,0.18222782,-0.073980734,0.2993218,-0.41721106,-0.30493045,0.4055003,0.119808614,0.43577906,-0.8769868,-0.35386407,0.2687244,-0.13776433,-0.39586172,-0.44872686,0.54107416,0.753305,0.5793357,0.17733604,-0.27543873,0.27516258,-0.64406526,0.7021314,0.7918682,-0.5094553,0.45854563,-0.47269943,-0.24774957,0.54673207,-0.454376,-0.27555907,0.091435,0.2884247,-0.100481406,-0.83505845,0.9048052
so,-0.36436814,0.56819546,0.4243601,0.01571512,-0.1607468,0.55055696,-0.5975652,-0.38235053,0.17689629,0.30252093,-0.43426135,0.24986084,0.11606741,-0.4172321,-0.18265721,0.050779086,0.060804103,0.31625554,-0.013998102,0.0705986,0.2003761,-0.45498556,-0.2041086,0.16325903,0.38827857,-0.5240626,0.08216528,-0.288964,-0.32317778,0.504054,0.058084846,0.1001872,-0.35382938,-0.10676739,0.3392269,0.04509989,0.4211699,-0.64789253,-0.39094302,0.45555732,-0.107721075,0.5258141,0.10427497,0.24182282,0.5936312,0.59782946,-0.28095526,-0.019422991,-0.21776524,-0.30733597,0.37940094,0.45586234,-0.28392246,0.12556727,-0.20646599,-0.2823814,0.7062802,-0.03946566,0.09916163,0.027442534,-0.19388893,-0.031553093,0.20242995,0.5308777
bởi,0.14348708,0.27540255,-0.0015773707,0.28164124,0.21168913,0.1671,0.012039325,-0.042661328,0.004403236,0.07155393,0.049143434,0.16001098,0.23122656,-0.51529074,0.061081212,-0.09199354,-0.38349771,0.84243715,-0.18248759,0.2016027,0.5103458,-0.10602066,-0.39350203,-0.07164855,0.25989762,-0.04792381,0.02913661,0.11341476,-0.27268854,0.32837188,0.1067172,0.074728124,-0.051101405,0.20436163,0.6251021,-0.3597279,0.22828954,-0.28976297,-0.05836926,0.22171876,0.18191855,0.18430656,0.31517217,0.08819361,-0.09030026,0.039026987,-0.47709504,-0.8315817,-0.5073906,-0.7729645,0.19120272,-0.05400412,0.39330086,-0.28817752,-0.41251868,-0.18336032,0.44665807,-0.06954354,0.33379024,-0.4815535,-0.45686832,0.22427286,0.82214034,0.23640013
phủ,-0.24854581,-0.19266737,0.31754932,-0.3433898,-0.30605724,0.41780028,0.032928213,-0.071015544,-0.7323415,-0.11681442,-0.6076475,-0.4747231,0.20628041,0.18001506,-0.90630084,-0.61274076,-0.049233254,0.61502844,-0.17285292,0.37755758,0.07117638,-0.09861678,-0.5951024,-0.09657802,0.6891423,0.010621449,-0.0017352656,0.056624725,-0.70740765,-0.56592506,-0.4782265,-0.35823804,-0.120748445,-0.42293403,-0.028939184,-0.021689715,0.17770804,0.07650528,-0.11109178,-0.30333298,-0.31175044,-0.21970858,-0.4902495,0.41076532,0.3107997,-0.036153708,0.15812455,-0.3935843,-0.14657815,-0.67068756,0.3726693,-0.21358131,-0.38012996,-0.5981758,-0.30932984,-0.73292434,-0.23031606,-0.19421303,0.11757304,-0.51519614,-0.094419666,0.35194823,-0.09655588,-0.33905816
nhờ,0.1470537,-0.38059464,0.16286969,0.18275844,-0.084551156,-0.2609182,-0.05776979,0.057257447,-0.28597656,0.04007001,-0.27062255,0.07649895,-0.045981802,-0.10594515,-0.60525566,-0.80806816,-0.11482521,0.6705057,-0.22281395,0.39148062,0.3973042,0.2239161,-0.70396197,0.29617265,-0.21733361,-0.21321566,-0.115349285,0.39653978,-0.18349458,-0.031672794,0.2342582,-0.008004862,0.49811935,0.22612396,-0.07892658,-0.3976241,0.2030045,-0.05769429,0.06478825,-0.38925284,-0.5416466,-0.22751214,-0.4360916,0.18697263,-0.21018274,0.020153841,-0.04336939,-0.4405546,0.11315843,-1.0075992,0.6862996,0.061902195,-0.04430149,-0.6716293,-0.20175338,-0.3364222,-0.04112441,-0.37634566,-0.08280364,-0.842951,0.06850753,0.4079893,-0.16622669,0.39524293
hàng,-0.53329384,-0.09848659,0.45312256,-0.41795546,-0.3752119,0.78464365,-0.06474831,-0.33337495,-0.62313974,-0.10230584,-0.5551008,-0.40906337,0.2197617,0.014873908,-1.0336794,-0.5031042,0.16132642,0.5892883,-0.19968483,0.3237751,0.13284232,-0.35707337,-0.53311265,0.12931192,0.98434716,-0.19783838,0.12620676,-0.08773545,-0.8597228,-0.47124642,-0.6056758,-0.25504512,-0.5551233,-0.475185,-0.09600842,0.014201182,0.20183644,0.009213112,-0.09778862,-0.44443,-0.4432265,0.080817915,-0.48275688,0.5443975,0.34302983,0.12399231,0.16343582,-0.24381468,-0.17827787,-0.7436651,0.5538767,-0.06932749,-0.804939,-0.5362432,-0.4169625,-0.86159056,-0.32465583,-0.30859053,0.25984675,-0.36018232,-0.10044376,0.34780383,-0.018642493,-0.22808774
nhiều,-0.5411729,-0.05288144,0.4667945,-0.3602038,-0.2724451,0.8282299,-0.11225168,-0.40944114,-0.46913114,-0.082248405,-0.4054919,-0.30968505,0.19356766,-0.0054751467,-0.8570327,-0.42797092,0.26919097,0.40885064,-0.30653286,0.2891279,0.18938215,-0.37731567,-0.42431676,0.26795697,0.93853885,-0.27562755,0.17167638,-0.08894031,-0.7909157,-0.3724913,-0.6049034,-0.22777702,-0.56776196,-0.46355045,-0.075762905,0.05062716,0.19705677,-0.050066553,-0.075509526,-0.41309884,-0.3952435,0.2594686,-0.3648871,0.5018373,0.30773917,0.19241649,0.054856624,-0.21086176,-0.18024041,-0.60928655,0.5257229,0.0280746,-0.8020025,-0.5065963,-0.37416145,-0.74047333,-0.3478349,-0.3056763,0.310481,-0.30838865,-0.12107295,0.30353248,0.17034757,-0.21385218
cổ tích,-0.43908277,0.039857745,0.25080264,-0.13776703,0.07591906,0.44952095,-0.3703606,0.30580747,-0.0486256,0.12562475,-0.47059932,-0.047381084,-0.066631004,-0.5866456,-0.56501555,-0.020109974,0.24396491,0.6021196,0.25196907,-0.4299225,0.3601611,-0.2724377,-0.11741945,0.124908164,0.27006078,-0.16102543,0.25439802,-0.4823106,-0.24695942,0.28138754,-0.08206654,0.082972154,-0.12734531,-0.08903069,0.018505609,-0.11058857,0.17993842,0.12558341,0.21872231,-0.27968618,-0.6884713,0.14930764,0.25455225,0.18306933,0.13820831,0.3319599,0.30132294,0.46066317,-0.65200365,-0.8254594,0.46611175,-0.100466736,-0.7446764,0.036848944,-0.8942277,-0.4269321,0.0062527447,-0.16044095,-0.057801966,0.20780243,-0.11618405,0.4155997,0.07927423,0.31790066
bồng bềnh,0.013868308,-0.40258595,0.23674648,0.09642996,-0.18903239,-0.06580417,0.60217166,-0.3814279,-0.126572,0.1604517,-0.40867838,0.16919772,-0.29099217,-0.4200822,-0.17008068,-0.51414275,-0.6866761,0.85005057,0.015243574,0.9648577,0.06376226,-0.41619417,-0.42565182,-0.02031108,0.13623305,-0.22920892,-0.313227,0.09887836,-0.12741172,-0.22233592,-0.16960326,0.16292049,-0.418217,-0.037988916,0.39797756,-0.1105541,0.34982154,-0.024910422,0.03236589,0.0062758643,-0.15850931,-0.7831091,-0.4950213,-0.028490212,0.04217883,0.08726722,-0.09685391,-0.82178825,0.2841081,-0.66332966,0.5678155,0.625229,-0.19612515,0.1264581,-0.59478766,-0.39164853,0.057326607,-0.7416472,-0.25619572,-0.43963364,0.31898046,0.13478488,-0.5153308,0.694134
huyện,0.06788739,0.48328665,0.38620037,0.06884992,0.46934426,0.2608441,0.09876018,-0.07430553,0.16617735,-0.052630216,-0.31590745,-0.3494486,-0.48133442,-0.41761124,-0.54836744,0.043671314,-0.57684106,0.83811057,0.060906064,-0.52382636,0.49507865,-0.085529275,-0.10965494,-0.18777555,0.07783711,0.09067731,-0.23752867,-0.21954769,-0.32484385,0.40423092,-0.09465628,0.11855906,-0.26544714,-0.10135712,0.61507374,-0.49586278,0.45602968,-0.4739203,-0.27144176,-0.21520899,-0.13815792,0.21588533,0.43429655,0.0031614283,0.0021298043,0.16360685,-0.23480608,-0.675761,-0.7457941,-0.9715015,0.40102795,0.122244254,-0.39922544,0.53904265,-1.2529982,-0.06791834,-0.05414281,-0.023648845,0.13850051,0.29976177,-0.26645622,0.2835232,0.33296105,0.3866496
khung cảnh,-0.21315753,0.22484402,0.31225932,0.019411648,-0.43839705,0.2134239,0.20072125,-0.52161974,-0.11530932,0.3555902,-0.77132845,0.23237641,-0.17198223,-0.5812762,-0.34080672,-0.2194802,-0.33968833,0.7700307,0.35531518,0.47521517,-0.2637269,-0.6526465,-0.41846395,-0.34803885,0.13335513,-0.685294,-0.29740992,-0.23467961,-0.2908393,0.19863355,-0.056790855,0.3118379,-0.45034721,-0.29913193,0.41928282,0.13245319,0.46482694,-0.91483057,-0.39008835,0.34819466,-0.075093195,-0.3170942,-0.42617106,0.5000633,0.78714895,0.59867907,0.09033467,-0.28468555,0.25270122,-0.5931723,0.67965543,0.83134794,-0.46543005,0.44900566,-0.42820245,-0.28371802,0.62076145,-0.42056698,-0.26552942,0.09267401,0.27005145,-0.101515174,-0.7750914,0.9183811
cảm nhận,0.09559457,-0.12011478,-0.08952217,0.19337502,-0.25391206,0.0449014,0.10393343,0.052683845,-0.40435165,0.09326685,0.03147247,0.35712707,0.26027152,-0.29907897,-0.03969187,-0.60670894,0.017503824,0.67653847,-0.16669194,0.63769466,0.3020479,-0.040039197,-0.6727377,-0.2642747,0.21612388,-0.14307334,0.029825227,0.24508153,-0.34449694,0.04394714,0.18051147,-0.04242907,0.009687712,0.0742405,0.393859,0.025661504,0.17717361,-0.021994246,0.33956066,0.09259956,-0.03994432,-0.33901656,-0.24207492,0.25902998,-0.09696495,0.2825371,-0.047912255,-0.49537352,-0.197635,-0.63002974,0.3992895,0.12881632,0.46782896,-0.8830843,-0.017375626,-0.26988107,0.1552593,-0.2531015,0.25491992,-0.77410007,-0.35521528,0.14225061,0.14573917,0.055592097
xanh,-0.07312844,-0.25892562,0.18622477,-0.2245941,-0.305644,0.13036358,0.1648506,-0.057501942,-0.6341407,-0.054594554,-0.56602895,-0.34115115,0.19826342,0.24160059,-0.6968027,-0.61916494,-0.22804938,0.64366835,-0.16490549,0.6551935,0.052446064,0.0102690905,-0.65730935,-0.11277909,0.52647793,0.06751377,-0.15288353,0.16834871,-0.5841046,-0.5622855,-0.33853263,-0.38150007,-0.041278455,-0.26103738,0.09860368,-0.059571173,0.12839651,0.17827763,-0.044500418,-0.16644298,-0.23605421,-0.47030333,-0.4811653,0.15923487,0.20683718,-0.111069776,-0.009373475,-0.59793645,0.03675715,-0.53623694,0.3344854,-0.1404294,-0.029010696,-0.5464678,-0.24006288,-0.6509319,-0.07682672,-0.26504815,0.079048276,-0.6314004,-0.07269458,0.31614056,-0.1992918,-0.22952789
hành trình,0.45659724,0.3735748,0.4114302,0.25712404,0.021627886,0.3407375,-0.59426844,0.17472108,0.30538788,0.43406725,-0.07358335,-0.045822643,0.5918379,-0.2981977,0.05463051,-0.19852766,-0.09813742,0.5233169,0.010758067,0.4100203,0.19940579,-0.5986881,-0.22225732,-0.03853786,0.5877391,-0.2561459,0.21728092,0.09431297,-0.22259887,0.19100998,0.38454846,-0.27687815,-0.20245174,-0.39834112,0.11505387,0.08322581,0.104760095,-0.060577795,-0.48312476,0.3050179,0.1574399,0.5648618,0.1733219,0.48200175,-0.063151106,0.23124185,-0.06129345,-0.41992143,-0.44294718,-0.8033332,-0.033756692,0.2940034,0.19050126,-0.3180825,-0.006120463,-0.26467553,0.8283391,0.15438245,-0.47059453,-0.45316437,-0.49366957,0.31187007,0.56345797,0.5298828
tan,-0.39107132,0.50427175,0.30781153,-0.06638212,-0.1525014,0.31316423,-0.27860004,-0.2804735,0.060798734,0.32110503,-0.6736354,0.15102561,-0.12814423,-0.45742437,-0.46387196,0.08031953,0.012003494,0.45849264,0.27365893,-0.07579028,-0.025196066,-0.32694438,-0.3596633,-0.13786542,0.19475345,-0.55533797,-0.10081105,-0.41999963,-0.3265534,0.56247675,0.028537167,0.286498,-0.22545618,-0.09493978,0.42472008,0.033101022,0.40924525,-0.8441434,-0.30187702,0.23567268,-0.22849728,0.29658547,0.015457818,0.25672618,0.6467321,0.4840396,-0.08550405,0.08814613,-0.09975195,-0.39076966,0.55995214,0.45719576,-0.4444609,0.35198882,-0.42343026,-0.2815198,0.6346578,-0.11136278,-0.031424966,0.27914006,-0.0032428484,0.06185354,-0.25556296,0.6519336
tạo,-0.16912979,0.105449274,0.27807269,0.019386368,-0.45210594,0.20452908,0.38300565,-0.51683044,-0.16057187,0.309816,-0.72776175,0.197831,-0.20510477,-0.61070013,-0.27993673,-0.24922435,-0.43652683,0.84173644,0.32882106,0.644054,-0.3203039,-0.6720398,-0.42593285,-0.34755328,0.14846344,-0.6390728,-0.28748983,-0.18319033,-0.2371358,0.08714261,-0.1346018,0.28819108,-0.5045799,-0.34873882,0.3672198,0.12039504,0.39917344,-0.83174586,-0.3583376,0.32388315,-0.043648478,-0.501852,-0.51077056,0.53817636,0.73936814,0.5797423,0.1960648,-0.34828258,0.31658804,-0.6425854,0.64800704,0.8160722,-0.4689498,0.5006232,-0.4570746,-0.24995402,0.502198,-0.49757695,-0.34963128,0.07630306,0.31593168,-0.13030396,-0.83599544,0.9399301
cánh,0.723613,0.10375776,0.3663921,-0.084877275,0.007726992,0.38941443,-0.34389246,-0.020839011,-0.15694238,-0.45609877,-0.678857,-0.55539036,0.11817584,0.15391508,-0.38939932,-0.94223106,-0.13765332,0.5740279,-0.39671206,0.6273666,-0.04405783,-0.64684033,0.10675627,-0.36350507,-0.6007486,0.13046037,-0.84956074,-0.13065085,-0.24801803,-0.7301996,-0.060748216,-0.445115,0.46569124,-0.6848595,0.13043587,0.01579196,-0.025648221,-0.38462454,-0.6982611,0.52957845,-0.093840204,-0.48166034,-0.41595474,0.4130214,0.35533172,0.6807448,0.24546817,-0.18775107,-0.07270401,-0.882157,0.15845048,0.22036047,-0.48584768,-0.21110089,-0.4828045,0.09454511,0.5819001,0.07426206,0.06466561,-0.5515386,-0.18814954,-0.25788197,-0.29943666,0.20905848
buổi,-0.10291602,-0.06689024,0.26114696,0.08469858,-0.44481996,0.14372577,0.4795825,-0.43236023,-0.15989012,0.26326546,-0.6366871,0.21045417,-0.22135663,-0.6135101,-0.17541997,-0.34933192,-0.56097806,0.91135585,0.3201635,0.7607587,-0.21215232,-0.6690492,-0.3890984,-0.32002798,0.13390139,-0.52157694,-0.2991949,-0.1246297,-0.14286423,-0.055475254,-0.14465253,0.27593806,-0.50890565,-0.3091522,0.3818239,0.079909064,0.3872777,-0.6074686,-0.2707425,0.29151836,-0.06142664,-0.6700274,-0.52663356,0.41073647,0.6028107,0.47662216,0.1547895,-0.49477237,0.28705612,-0.6980372,0.6105301,0.79843783,-0.41350123,0.4337103,-0.5302679,-0.27211317,0.40637395,-0.5784271,-0.36919504,-0.08364154,0.35324293,-0.09182562,-0.818523,0.90979475
rực rỡ,-0.08680624,-0.14896409,0.30690196,0.05526554,-0.4134222,0.15317644,0.5385207,-0.46560124,-0.1962875,0.237341,-0.6792835,0.17136207,-0.22396654,-0.578406,-0.17497636,-0.3921419,-0.62018466,0.9257142,0.28355405,0.8435639,-0.21653582,-0.7026543,-0.37881348,-0.26937884,0.16855703,-0.4205681,-0.326218,-0.1264023,-0.15901273,-0.15981874,-0.19370517,0.24500473,-0.51736826,-0.3143457,0.38067663,0.06972673,0.38143125,-0.50568914,-0.22848824,0.2582742,-0.095446944,-0.75426584,-0.5554583,0.34953153,0.52848643,0.41093677,0.12420978,-0.59575915,0.2863002,-0.70213634,0.5902387,0.787911,-0.4046865,0.4073997,-0.58074045,-0.35214803,0.34328592,-0.64073867,-0.35784182,-0.15774284,0.37541023,-0.04664172,-0.81207657,0.88061047
để,0.19043964,-0.03783649,-0.110471874,0.20807303,-0.11661942,-0.00090090523,0.22173382,-0.052565627,-0.32326087,-0.005845248,-0.008921278,0.280808,0.18450606,-0.24660645,-0.09175484,-0.555798,-0.17254657,0.72180015,-0.21526739,0.6809298,0.2834457,-0.022444416,-0.67348653,-0.22140074,0.21106195,-0.02332986,-0.1300392,0.24262473,-0.36366832,0.011664205,0.14742778,0.0119796535,0.010235315,0.13419056,0.5763596,-0.06787134,0.17443325,-0.07411147,0.28270116,0.09312704,0.045137543,-0.28230667,-0.17808148,0.12353045,-0.20128146,0.17409897,-0.1530023,-0.7047569,-0.13505492,-0.6560489,0.33155927,0.07955701,0.519448,-0.789198,-0.13345219,-0.24599923,0.1758187,-0.24614896,0.31473377,-0.7805567,-0.34232172,0.15328252,0.18290628,0.06528848
nắng,-0.065608375,-0.22797124,0.27882272,0.07099863,-0.3988092,0.07431759,0.58456534,-0.4382981,-0.1921956,0.27477235,-0.6213789,0.22079784,-0.2595589,-0.5875929,-0.2070429,-0.43370843,-0.6568285,0.9370072,0.25458395,0.8612937,-0.15693903,-0.6069609,-0.46123543,-0.19754075,0.12693408,-0.42837092,-0.31706437,-0.065562084,-0.11898691,-0.14303601,-0.19827509,0.24393739,-0.48198575,-0.24782012,0.35374615,-0.012723175,0.413538,-0.42753556,-0.14719959,0.17445989,-0.11194037,-0.78622043,-0.5704113,0.28393996,0.43947083,0.34939802,0.11915161,-0.6289884,0.32773215,-0.6964397,0.6622058,0.78416437,-0.3792348,0.36478564,-0.5654857,-0.3530457,0.28350317,-0.69897175,-0.33607462,-0.17789744,0.39968193,-0.009049647,-0.8134325,0.8973542
sớm,-0.10621947,-0.023200646,0.29834992,0.031398654,-0.43601787,0.121273994,0.467553,-0.48423183,-0.15332663,0.2863274,-0.7057352,0.19793491,-0.23519301,-0.58343995,-0.24615367,-0.31856802,-0.52600664,0.85471785,0.28414944,0.72135925,-0.2569439,-0.66690236,-0.42483097,-0.27778053,0.14397421,-0.550739,-0.30103773,-0.119305804,-0.16156521,-0.016349943,-0.1258182,0.2946454,-0.48252442,-0.28407052,0.37907377,0.079569444,0.40737745,-0.675808,-0.29055005,0.28772813,-0.093855776,-0.6056779,-0.5452145,0.44443646,0.598657,0.50554293,0.15619913,-0.43724394,0.34226918,-0.6615084,0.65709865,0.8151855,-0.39228037,0.43645534,-0.47513065,-0.29080313,0.40552709,-0.5819342,-0.33214223,-0.055006895,0.3531515,-0.09381877,-0.8456605,0.9162662
tuổi,-0.44688725,-0.11821196,0.35669044,-0.37977007,-0.3529285,0.60113263,-0.016066654,-0.13105948,-0.7302075,-0.055782244,-0.62053996,-0.43201634,0.24644455,0.06441183,-0.93178254,-0.45169303,0.0018604699,0.64102376,-0.10801821,0.24875244,0.12547883,-0.16400066,-0.5803516,-0.026084645,0.9224846,-0.06691048,0.12201293,-0.057395134,-0.7826548,-0.46014246,-0.5643578,-0.32591793,-0.33492193,-0.41645092,-0.08771076,-0.0047487332,0.21673787,0.085166864,-0.08857866,-0.3590272,-0.38007432,-0.07519121,-0.3877001,0.44355178,0.4182333,0.028967086,0.1456942,-0.3315846,-0.26440412,-0.7090844,0.43655318,-0.20409493,-0.51636845,-0.52670056,-0.3666749,-0.815925,-0.30306175,-0.23155223,0.16754398,-0.33457848,-0.13381347,0.38476765,-0.046850313,-0.33801678
liên,-0.11251552,-0.0602739,0.21552992,-0.029578557,0.37060365,0.049431164,-0.15404494,0.53276694,-0.14281847,0.25906876,-0.32657233,-0.14994235,-0.20711206,-0.62896854,-0.4397885,-0.24700284,0.26739207,0.7060274,0.16837993,-0.20532161,0.34937426,-0.10782724,-0.30729246,-0.1953112,-0.31804776,-0.0250415,0.06607181,-0.5022296,-0.08868467,0.21620594,0.081019245,0.20838423,0.4615126,-0.029514095,0.2561888,-0.14309947,0.20174609,-0.13453256,0.39158148,-0.19872586,-0.6348869,-0.31449366,0.13934979,-0.03839414,-0.00379096,0.4769735,0.36340564,0.43428755,-0.49013865,-0.7300964,0.5592615,0.03433697,-0.62399244,0.030100996,-1.0310049,-0.099127024,0.09872946,-0.2938662,-0.26293805,-0.04437186,-0.17855516,0.51984245,-0.047399785,0.502201
của,0.57147974,0.16047151,0.08735684,0.2810096,-0.077997126,0.19002303,-0.36012474,0.5600446,-0.28505138,0.30420256,-0.047603823,0.048062455,0.47956502,-0.52920526,0.18525995,-0.34904227,-0.047476143,0.7107184,-0.0107440585,0.18140207,0.34109178,-0.214776,-0.28289366,-0.53928316,-0.04134024,-0.14784162,0.23137814,0.14889936,-0.11772048,-0.036088064,0.34535232,-0.24386291,0.34170505,-0.4387362,-0.07079529,0.10317871,0.21535607,-0.28152955,-0.25461802,0.51043063,0.18692346,-0.16985774,-0.04410506,0.51866305,0.16818771,0.38713145,0.18026063,-0.21020186,-0.66580325,-0.7828187,0.015219381,0.06311372,0.342077,-0.50279087,0.06447295,-0.014166915,0.659079,0.09406838,-0.14497101,-0.63975596,-0.5515301,0.094865,0.3811898,0.23505679
rêu,-0.23253474,-0.24706194,0.25711557,-0.29585707,-0.33623704,0.21978092,0.15381163,-0.13429517,-0.6762171,-0.10838108,-0.6635743,-0.3597142,0.115063675,0.2173506,-0.79248774,-0.55638,-0.24795692,0.6785172,-0.11833123,0.47327164,0.056917854,-0.016340755,-0.58888566,-0.06779347,0.60665214,0.10745727,-0.14027424,0.11961868,-0.64592147,-0.534167,-0.44446325,-0.3442583,-0.1402194,-0.2649973,0.06978801,-0.083731696,0.18658406,0.15193328,-0.06995157,-0.22232637,-0.29394075,-0.37547398,-0.45257702,0.2052058,0.2764209,-0.07992928,0.024207273,-0.5734216,-0.089497216,-0.6096042,0.34015584,-0.13923062,-0.17674969,-0.42471057,-0.32155287,-0.7205509,-0.1643278,-0.2121118,0.12769015,-0.48268145,-0.013857835,0.35180202,-0.21790263,-0.2656426
mệt mỏi,-0.33949792,0.45682308,0.2834288,-0.04112308,-0.24991421,0.29043955,-0.17717585,-0.3989689,0.02131631,0.3003518,-0.6826818,0.21135214,-0.18885846,-0.47560698,-0.43487293,0.01034276,-0.008559145,0.50460845,0.27600306,-0.0095852325,-0.08553239,-0.39430776,-0.3927615,-0.20994699,0.13693176,-0.6117634,-0.16379997,-0.3867473,-0.32497492,0.49043033,-0.028146038,0.28211552,-0.26001024,-0.14210787,0.39549568,0.064531215,0.45943475,-0.98155206,-0.32890776,0.2903364,-0.17213072,0.12989204,-0.10513259,0.3529103,0.74719846,0.5845132,-0.04781072,0.01769339,0.0075597456,-0.35855922,0.6008363,0.5608468,-0.45598945,0.3704408,-0.4030458,-0.19554044,0.60450155,-0.15074265,-0.016282076,0.2643289,0.078533344,-0.051431466,-0.39817157,0.6530199
vườn,-0.4330162,0.03165441,0.09425728,-0.021315409,-0.11211211,0.25908956,-0.3535675,0.07123073,0.008622622,0.093395635,-0.44612113,0.31385288,-0.18745434,-0.67783135,-0.508381,-0.0773355,0.10571559,0.5606699,0.23137622,-0.3376784,0.3692906,-0.08695,-0.22621319,0.29136056,0.025369706,-0.34111738,0.113184914,-0.2830588,-0.10437586,0.5242751,0.09939013,0.21071401,-0.07451853,0.19258219,0.032711856,-0.21429336,0.2366191,0.012857999,0.2879663,-0.26074606,-0.7285558,0.15579778,0.14738809,0.17085251,0.13921832,0.31168577,0.2012882,0.38942465,-0.36729163,-0.86897916,0.6655085,-0.008491938,-0.5224226,-0.029669996,-0.6494136,-0.4282723,0.061546292,-0.22122677,0.08637916,0.12882204,0.0299634,0.19211757,-0.110018365,0.4777076
2.996,-0.35291982,0.4753029,0.2306823,0.024465118,0.013639732,0.48923266,-0.39035252,-0.2282373,0.076412946,0.24404036,-0.3710828,0.2504882,0.07353662,-0.66329396,-0.055957805,0.16263911,-0.20824336,0.6111584,-0.038126912,-0.06304925,0.4699548,-0.20677827,-0.16189238,0.19006737,0.22751188,-0.2871385,0.055907805,-0.2932551,-0.24197346,0.5467566,-0.051582295,0.18865275,-0.23389086,0.21993282,0.5477937,-0.23682678,0.43540403,-0.5289966,-0.1426465,0.41710377,-0.11918623,0.38016954,0.33467856,0.025278008,0.47684652,0.36736718,-0.49241018,-0.1957335,-0.4491069,-0.42393345,0.3842679,0.14864568,-0.09306042,0.15980667,-0.4146002,-0.22805949,0.58969563,-0.077721186,0.35888925,-0.013126896,-0.23929508,0.025793908,0.54979587,0.37065157
còn,-0.020381639,-0.18557307,0.11984405,0.11622061,0.27615288,-0.1925496,0.27801707,0.027451662,0.043950904,0.1718893,-0.06518108,-0.061144643,-0.23491065,-0.3083081,-0.20019057,-0.18103407,-0.36739412,0.7443095,-0.16611877,0.30229327,0.46487322,0.075750135,-0.2901437,-0.019634714,0.028331418,-0.042283226,-0.041251183,0.0070664473,-0.23908621,0.09247252,-0.10946181,-0.01615469,-0.14543203,0.13988644,0.45008653,-0.33759186,0.31786847,0.080158755,0.2520258,-0.29705274,-0.21880955,-0.4371791,0.0056285057,-0.35969314,-0.2753923,-0.044726152,-0.3424083,-0.67650455,-0.23710865,-0.42412826,0.41208553,0.18345775,-0.20233652,0.10917437,-0.8630694,-0.17111261,-0.071183085,-0.47318408,-0.0671553,-0.19780411,-0.10939979,0.4639489,0.3142307,0.23920947
lai châu,0.052599877,0.5435739,0.41048548,0.03145674,0.35493612,0.49330962,-0.16501519,-0.13007076,0.2459396,-0.12028011,-0.23214722,-0.2994278,-0.18335804,-0.3374347,-0.38766816,0.086441554,-0.4394777,0.6504736,-0.03850935,-0.42065695,0.49348494,-0.25723508,0.030199364,0.118521966,0.32053906,0.124138564,-0.09840863,-0.1900897,-0.3152116,0.39351603,-0.0664631,-0.002700692,-0.29974183,-0.09073133,0.5364755,-0.4231468,0.2643809,-0.30873185,-0.31978709,-0.0843582,-0.07873906,0.5571605,0.52612776,0.12286459,0.054600623,0.15753962,-0.29247338,-0.6103994,-0.76915646,-0.9567506,0.22934666,-0.009230021,-0.28823522,0.31083655,-0.9635261,-0.21453303,0.11266873,0.096901506,0.25947055,0.16847235,-0.31296414,0.24690364,0.6008237,0.29205737
biển,0.011248556,-0.39363122,0.21392086,0.0641501,-0.19541594,0.017640175,0.430511,-0.2769957,-0.15601881,0.07580002,-0.2765201,0.087936625,-0.14966145,-0.21475647,-0.13805561,-0.49129373,-0.5184715,0.6561815,-0.054355614,0.810798,0.078130916,-0.31921655,-0.41605496,0.042652566,0.2132636,-0.09988637,-0.1967714,0.13643712,-0.1675006,-0.33007658,-0.21538159,0.0146088805,-0.3657714,-0.06224666,0.26698428,-0.09533175,0.24448456,0.1287338,0.06152546,-0.09780639,-0.18106669,-0.617505,-0.42056045,-0.047561623,-0.0698425,0.022406343,-0.08579072,-0.7282335,0.2086616,-0.5170001,0.37581772,0.40626982,-0.09475941,-0.06621826,-0.44029915,-0.41039857,-0.09282713,-0.58058906,-0.15207967,-0.46372825,0.19567469,0.1875162,-0.30870914,0.35651046
hơn,0.18976848,-0.30662325,0.22522296,0.21752504,0.045803983,-0.2598207,-0.062797375,-0.18853582,-0.10684911,-0.09084618,-0.15201285,0.055055287,-0.1068286,0.035296176,-0.51840115,-0.95233387,-0.09588628,0.6026638,-0.46394074,0.6837159,0.4035574,0.13479038,-0.6696947,0.4075161,-0.3715723,-0.17907709,-0.29426837,0.39113015,-0.2661843,-0.07594376,0.14729682,-0.06352923,0.4436685,0.26433182,0.20522912,-0.4039947,0.19372429,-0.11549009,0.04448761,-0.31573617,-0.54803175,-0.31824294,-0.32976037,-0.022376187,-0.27557182,0.19955197,-0.29199645,-0.64242536,0.22165483,-0.86513937,0.690871,0.24745624,-0.04303544,-0.59733754,-0.36524448,-0.1571013,0.013946662,-0.44917536,0.034991786,-0.9048823,0.04173713,0.37228912,-0.0631293,0.39590794
băng,0.56084204,0.13327233,0.41875473,-0.026991347,0.027695453,0.352657,-0.4072005,-0.108886436,0.036907453,-0.45387286,-0.5158702,-0.518968,0.16571812,0.37105966,-0.42250416,-0.9587649,-0.09431623,0.50998664,-0.4490841,0.5959981,-0.16733141,-0.6720449,0.020373667,-0.113097936,-0.37637743,0.3392674,-0.8910672,-0.17852017,-0.27924606,-0.6281839,-0.08415853,-0.38837704,0.40320638,-0.4459388,0.2513818,0.008014088,-0.10286698,-0.27599835,-0.6193678,0.26129797,-0.27390352,-0.15861733,-0.18267626,0.22862117,0.16913,0.65537405,0.06974562,-0.36608124,0.038176242,-0.8516082,0.04538208,0.1081892,-0.19017333,-0.22099438,-0.54086727,0.1208276,0.30510497,0.09410778,0.0042005526,-0.4799653,-0.21359944,-0.11462553,-0.20498985,0.14029983
cây cổ thụ,-0.50388294,-0.06560526,0.43028483,-0.39129466,-0.29786438,0.8532346,-0.106929384,-0.31445947,-0.54347074,-0.08208088,-0.45889065,-0.39834914,0.24562776,-0.038916312,-0.98798245,-0.43389916,0.25113845,0.5692528,-0.22166431,0.19175696,0.188366,-0.3863338,-0.47526804,0.1453699,0.98396444,-0.23761798,0.19304708,-0.13988146,-0.86246216,-0.39828205,-0.59298337,-0.24616234,-0.5489531,-0.5012233,-0.11987016,0.02813419,0.19304478,0.0014214261,-0.068141565,-0.4579105,-0.4490662,0.20599368,-0.3938598,0.5759652,0.2918002,0.1825382,0.16122587,-0.18367285,-0.31824952,-0.7586721,0.5452993,-0.047732938,-0.8424455,-0.5404636,-0.41477337,-0.7834987,-0.34955245,-0.294358,0.26530683,-0.27031213,-0.19063437,0.3578609,0.1388135,-0.22820985
đặt chân,0.13885382,-0.26161134,0.27658516,0.13356046,0.14769396,-0.2524788,-0.11409451,-0.18057847,-0.07262855,-0.12841246,-0.1390211,-0.07452275,-0.1358729,0.14163406,-0.4876223,-0.88539076,-0.026990173,0.45601615,-0.4917097,0.61481434,0.43038318,0.13065746,-0.5436748,0.44808885,-0.39418033,-0.11750726,-0.27749676,0.346724,-0.27398157,-0.10539695,0.09116445,-0.13042626,0.44912574,0.25965768,0.27327573,-0.40028346,0.18937285,-0.070983954,0.013586689,-0.28260782,-0.5825975,-0.26439658,-0.17365195,-0.08693811,-0.23216918,0.2222284,-0.35958642,-0.595425,0.12985267,-0.7652837,0.58390886,0.22219944,-0.12877154,-0.50768125,-0.48963156,-0.13521472,0.001703039,-0.36173937,0.07229173,-0.8170927,0.047558695,0.43498766,0.04333316,0.28326735
dãy,-0.08298817,-0.006410722,0.19782674,0.12481492,0.21971826,0.25355062,-0.30109155,-0.2263145,0.40705675,0.10080685,0.080021545,-0.02633976,0.079112954,-0.14050095,-0.18324721,-0.19646475,0.27466872,0.26830962,-0.37804458,0.46312118,0.47366625,-0.4201396,-0.039309114,0.3511581,0.40238583,-0.3721252,0.1923881,0.049846478,-0.3268166,0.07086353,0.018411042,-0.28244594,-0.52612644,-0.22951637,0.30132985,-0.13282101,0.18774185,0.23411767,-0.03255597,-0.14851895,-0.14352383,0.24778064,0.04165435,-0.018123452,-0.1796381,0.22163144,-0.24473646,-0.19177435,-0.27360538,-0.38590372,0.32877693,0.310505,-0.4295474,-0.14836201,-0.50189537,-0.2642244,0.17688237,-0.23861316,-0.111876994,-0.23555145,-0.16999581,0.3329476,0.6385089,0.21647047
mọi,-0.29243025,0.50908077,0.30697894,-0.018128017,-0.28831124,0.31371427,-0.17059892,-0.42165327,0.013927552,0.3941882,-0.741507,0.23401476,-0.16216137,-0.58520716,-0.39428708,-0.010080221,-0.059019588,0.6079209,0.29395714,0.06672045,-0.11392266,-0.52098,-0.4227014,-0.2944075,0.10343753,-0.7447717,-0.16794375,-0.40111938,-0.34023795,0.51525766,0.035753798,0.33289453,-0.25406674,-0.23039068,0.41399908,0.107614815,0.546208,-1.1029367,-0.442915,0.4203962,-0.1581252,0.04719691,-0.15924755,0.41869482,0.8074985,0.67856085,-0.03372428,-0.0146855,0.013923425,-0.46921176,0.6329026,0.694082,-0.50716263,0.4240917,-0.42945814,-0.18457218,0.7520548,-0.19889146,-0.11503754,0.2194463,0.06919789,-0.05064529,-0.4641049,0.84084904
lý tưởng,0.010658858,-0.08759741,0.056198493,0.13358833,-0.15700543,0.08177687,-0.010305912,-0.14555755,-0.21613728,0.11429856,0.035759855,0.41205153,0.19479965,-0.21142994,0.0228245,-0.53109515,0.119167194,0.45944902,-0.28474352,0.79000247,0.3650753,-0.049197465,-0.49994144,-0.040275622,0.18314654,-0.27876532,0.056844085,0.27278027,-0.35346672,0.009847253,0.1638855,-0.15246673,-0.15600763,0.042172395,0.4473722,0.099461906,0.28327218,0.03378383,0.26561353,0.22930047,-0.00314167,-0.26500735,-0.2402661,0.078276426,-0.04074267,0.38034618,-0.22671887,-0.39929897,-0.1314264,-0.38845664,0.401683,0.29934353,0.25201648,-0.76632774,-0.029742358,-0.25823542,0.29634136,-0.3362723,0.2727443,-0.787882,-0.3108788,0.052238554,0.27634415,0.057389677
tây bắc,0.38035163,0.23062047,0.2873347,0.3155783,-0.06134632,0.20979734,-0.54844075,0.35306385,0.1254326,0.4934722,-0.03541701,0.019075492,0.57992715,-0.48956084,0.010232409,-0.19292617,-0.10305446,0.71666163,0.08187828,0.24591635,0.3382206,-0.4342984,-0.40889126,-0.16552244,0.56831807,-0.29460275,0.3756372,0.11148293,-0.23034793,0.26668265,0.34998938,-0.22707678,-0.09491427,-0.29681975,-0.005786325,-0.013908182,0.18761803,-0.07390187,-0.31010953,0.16672462,0.06804452,0.40324593,0.10420366,0.51495594,-0.094708495,0.13830042,-0.018573212,-0.38071626,-0.535927,-0.8373999,0.075254045,0.17663534,0.24321318,-0.42576054,0.040979546,-0.30445805,0.68111664,0.08009884,-0.4829321,-0.4797478,-0.5444526,0.3521557,0.61210537,0.50140643
trâu,0.13430531,0.21533412,0.31391189,0.08802641,0.5303875,0.014469508,0.16007327,0.1678229,0.0918275,0.017088016,-0.23289932,-0.40578222,-0.4981032,-0.3891158,-0.58402383,-0.11459632,-0.48439878,0.88247335,-0.005464115,-0.37159967,0.5702594,0.07380327,-0.26232618,-0.20368007,-0.064368695,0.15919273,-0.16898865,-0.18331264,-0.30741453,0.35504347,-0.09136095,0.0703781,0.021278815,-0.006795993,0.5688068,-0.52044463,0.4188856,-0.31924012,-0.00073922396,-0.43751055,-0.29261085,-0.10432494,0.32403624,-0.14674214,-0.21260981,0.11121286,-0.22568911,-0.6622691,-0.71497256,-0.939497,0.4818596,0.1137161,-0.38555148,0.34815246,-1.3368461,-0.04157344,-0.15577385,-0.19788891,-0.009331268,0.16527429,-0.24488604,0.51812345,0.29738587,0.3475303
sơn,0.18156488,0.26730946,0.29041457,0.07856372,0.3609681,0.07262541,0.19415396,0.07014335,0.09180951,-0.01424608,-0.3061258,-0.39452463,-0.44180194,-0.25068,-0.6362988,-0.05740209,-0.6482637,0.89086485,0.059076503,-0.2610869,0.48247424,0.069618255,-0.263272,-0.22678508,0.17916453,0.20832074,-0.21857433,-0.12610424,-0.35612282,0.34864742,-0.081283785,0.036392573,-0.19096275,-0.018996764,0.5772368,-0.510833,0.32633477,-0.20336242,-0.039717488,-0.4275345,-0.17323928,0.013272344,0.22188102,-0.0782125,-0.21767184,-0.10816341,-0.2271453,-0.81037784,-0.5977211,-0.9704423,0.43292317,0.098719,-0.25803703,0.33420962,-1.1818355,-0.20187633,-0.093252584,-0.119057424,0.05236861,0.18251824,-0.23619387,0.46600202,0.24850181,0.29260486
thiên nhiên,-0.09579533,-0.19722973,0.3599671,0.24895771,0.24745235,-0.061687455,-0.3283738,0.12839815,-0.18450192,0.20355222,0.24860516,-0.1009637,-0.034598574,-0.24639945,0.22319807,-0.4474686,0.29169333,0.4852623,-0.5927735,0.24148802,0.5467728,-0.16658737,-0.05018447,0.08160204,-0.4321707,-0.29988828,0.15470895,0.021069398,-0.14944875,-0.20922197,-0.17923374,-0.23519059,0.19446798,-0.14715044,0.18623857,-0.061017923,0.5490011,-0.13050151,-0.034197453,0.32013512,-0.4331238,-0.6035711,0.10979699,-0.27525842,0.23902568,0.75545967,-0.46504226,-0.44156507,-0.47047463,-0.13266578,0.18871331,0.25339952,-0.2102809,-0.062329,-0.7140999,0.12610546,-0.039064404,-0.3105778,-0.10965786,-0.57768726,-0.24728946,0.20373331,0.5854989,0.066948734
đại ngàn,0.021803398,-0.2564449,0.30429366,-0.01931333,0.37734506,0.022705458,-0.26849407,0.6964909,-0.4344348,0.2287645,-0.097545184,-0.4441064,-0.091137744,-0.44839242,-0.25999436,-0.5823696,0.39126307,0.7317412,-0.1518342,-0.13625222,0.44029084,-0.14626852,-0.27765432,-0.31667227,-0.5879056,0.03360957,0.082880385,-0.36396864,-0.092471145,-0.28260672,-0.089926824,-0.03498359,0.81305605,-0.30823424,0.1044458,-0.03210455,0.38999817,-0.31128418,0.07243606,0.09754822,-0.61494553,-0.6701671,0.04532766,-0.07571998,0.27017376,0.772919,0.29948944,0.27894777,-0.6083144,-0.6192453,0.35039276,0.08478765,-0.48693386,0.002944609,-0.95206374,0.14959197,-0.08487328,-0.14782974,-0.377038,-0.36033395,-0.28049654,0.48700136,0.11054935,0.26695347
khám phá,-0.07957685,-0.067745835,0.29784843,0.123394445,-0.27313274,0.4212769,-0.6605419,0.51122034,-0.5806881,0.17390867,-0.13727714,-0.136535,0.29318994,-0.35383028,-0.0073986417,-0.2922248,0.09886365,0.7830098,-0.21468413,-0.3614738,0.39905295,-0.19249286,-0.071643695,-0.23149246,-0.07397469,-0.027222408,0.37728164,-0.13675082,-0.145688,-0.14194137,-0.17795745,-0.2845364,0.35828683,-0.33696476,-0.32490262,0.047860004,0.4103437,-0.22753389,-0.24955972,0.46402556,-0.28672582,-0.3356056,0.12633121,0.30092987,0.7019516,0.73146355,0.0040370896,-0.10822215,-0.9451997,-0.63514376,0.07132331,-0.15907517,0.060742497,-0.08719575,-0.30521843,-0.103145696,0.050604425,0.22578926,-0.078925334,-0.27842242,-0.35541064,0.10597605,0.30197406,-0.10436713
đó,-0.6099997,0.0072670784,0.40065318,-0.38551,-0.21535741,0.9227798,-0.22285943,-0.40401328,-0.3047696,-0.10544101,-0.45147225,-0.27404583,0.16924183,-0.21681303,-0.9029434,-0.27282903,0.25489932,0.4763858,-0.15999207,0.07712977,0.25853217,-0.5095446,-0.28499654,0.3332463,0.92014736,-0.30237132,0.18839788,-0.24025212,-0.7718724,-0.19349293,-0.57066983,-0.19202551,-0.68592525,-0.4548044,-0.084299885,-0.0052530095,0.200961,0.035744302,-0.0635643,-0.44839016,-0.47298205,0.38125363,-0.21926779,0.51393306,0.28656882,0.22463895,0.15398635,0.018870715,-0.36503297,-0.77044517,0.53490067,0.011518197,-0.97268796,-0.3165367,-0.52595717,-0.75333506,-0.31182334,-0.27666053,0.3096121,-0.08379917,-0.13714197,0.28153792,0.23222855,-0.11976309
chinh phục,0.47766522,0.26432976,0.34088477,0.267511,0.08048191,0.22103263,-0.54890335,0.20441933,0.34100202,0.415956,-0.059828848,-0.12166346,0.54209226,-0.31074342,-0.05491302,-0.18600325,-0.119321644,0.55884,0.015648887,0.38171327,0.29668283,-0.49740914,-0.28047442,-0.021937206,0.637476,-0.28203326,0.25899503,0.1408407,-0.23466764,0.19723545,0.361594,-0.32077566,-0.24073115,-0.389619,0.09294901,-0.06886593,0.0813376,0.007286176,-0.40944016,0.10403695,0.13251013,0.5651811,0.09396879,0.44886208,-0.23230116,0.05366853,-0.06789305,-0.4092737,-0.40313533,-0.82691866,0.039332,0.2787935,0.06819688,-0.32646745,-0.014758862,-0.28303578,0.73174584,0.07603542,-0.52057743,-0.44302922,-0.5108225,0.3941619,0.6530609,0.5381434
vẫn,0.28046623,-0.33554783,0.05794258,0.23889093,0.03221267,-0.29682747,-0.06731345,0.36306116,-0.21795674,0.13532318,-0.21436256,-0.017459078,-0.08191957,-0.22823523,-0.5413702,-0.78604907,-0.07339787,0.74238294,-0.082567886,0.21789669,0.39828208,0.15796994,-0.71580374,0.088854216,-0.35878253,-0.121356554,-0.071062155,0.16849582,-0.041099068,0.07415618,0.31581634,0.07942471,0.6736384,0.16368529,-0.028835826,-0.3724925,0.201604,-0.14276417,0.2125828,-0.43823248,-0.60041773,-0.23658603,-0.32647696,0.14513896,-0.2791353,0.116217785,0.1543942,-0.26025137,-0.017986255,-1.0268176,0.61046106,0.017448075,-0.026850281,-0.5694217,-0.3442959,-0.15673964,-0.061501868,-0.2727324,-0.28544647,-0.72258776,-0.03166299,0.42895386,-0.1708889,0.48472285
người,0.13462467,-0.19235337,0.2641659,0.16578999,0.27751285,-0.1785537,-0.120712884,-0.35132313,0.12393183,-0.14466135,-0.05623703,-0.009341148,-0.10390069,0.13243255,-0.33926737,-0.7589313,0.057827555,0.3698714,-0.6196059,0.74144757,0.41752803,-0.018210992,-0.295725,0.4671447,-0.36255762,-0.22888935,-0.3717602,0.31263894,-0.24333005,-0.15610802,0.060099244,-0.18960734,0.16383131,0.18683517,0.37105474,-0.3722324,0.16871218,-0.037526093,-0.1159596,-0.103489,-0.40919,-0.22817405,-0.16827781,-0.19284466,-0.247296,0.2852155,-0.5133825,-0.525796,0.1954497,-0.56168324,0.5225603,0.38552505,-0.27751553,-0.35097075,-0.50156397,-0.061434604,0.1306863,-0.436681,0.09057631,-0.7056213,-0.023685277,0.2714131,0.25484744,0.2967953
điểm,-0.057115827,-0.09908858,0.10171898,0.1474671,0.07578603,-0.0011080749,-0.0073225047,-0.2159784,-0.041770115,0.132789,0.06931875,0.26144204,0.07079656,-0.17929031,0.049581725,-0.4682232,0.070432305,0.42858025,-0.38253933,0.73635,0.45558828,-0.030522356,-0.42191714,0.122807905,0.07761352,-0.27943718,-0.0077004707,0.18226992,-0.2809887,0.08409294,0.07671006,-0.12385481,-0.17878038,0.15352325,0.58211416,-0.1147091,0.3054655,0.017873067,0.24371429,0.06633461,-0.13232067,-0.23895466,-0.09875284,-0.15313454,-0.15439585,0.3213309,-0.41997916,-0.49663576,-0.06848875,-0.3004763,0.42905378,0.3386298,0.12776086,-0.4888807,-0.29541355,-0.15007426,0.2057236,-0.41313326,0.1938223,-0.65941554,-0.21933652,0.16150194,0.440894,0.16306949
tỉnh,-0.021771306,0.47333798,0.323669,0.015953075,0.28894407,0.3288149,-0.06596247,-0.1054327,0.108722515,-0.019867068,-0.28675258,-0.19226016,-0.30477467,-0.42598706,-0.3663429,0.13875847,-0.41558856,0.62832165,0.034066245,-0.46800968,0.45090485,-0.07478744,-0.0457468,-0.08523769,0.04630376,-0.0056883236,-0.12681593,-0.22175945,-0.26487386,0.45706454,-0.07287526,0.119258426,-0.20644009,-0.02859296,0.4991702,-0.35530365,0.38772437,-0.5359822,-0.25334373,-0.00777586,-0.06345681,0.2630808,0.36968502,0.07069169,0.19942106,0.21651264,-0.28108245,-0.46201307,-0.64853525,-0.7232568,0.32171592,0.09771797,-0.27956694,0.43718228,-0.8915459,-0.07594032,0.106004626,0.027681569,0.2535966,0.26931563,-0.22638422,0.14583316,0.36429352,0.30718285
các,-0.044569157,0.43550763,0.38201746,0.06207753,-0.060213543,0.45931685,-0.59196043,-0.20598713,0.32619476,0.24464077,-0.31915587,0.017644562,0.14960559,-0.17792206,-0.14821063,0.047618747,0.014018164,0.27700606,-0.05477601,0.12070371,0.22566222,-0.4527726,-0.0026727759,0.15334414,0.43232387,-0.3476046,0.11521548,-0.17911045,-0.23654518,0.374406,0.16161817,-0.103511184,-0.3911723,-0.22406788,0.25398895,-0.022214616,0.19163232,-0.22709897,-0.4193605,0.3013856,0.01853573,0.56567436,0.09281009,0.21998586,0.28360143,0.3028844,-0.16412318,-0.084521756,-0.31467518,-0.44042546,0.21183078,0.31579807,-0.21234043,0.08029469,-0.16414042,-0.27941284,0.66564214,0.08994735,-0.1392282,0.06575783,-0.18758614,0.10933932,0.27259317,0.44814664
vậy,0.08204418,-0.304496,0.057254907,0.13671605,-0.056615017,-0.17838281,-0.07845744,0.11407987,-0.19345553,0.12061544,-0.20471147,0.17777357,-0.024787169,-0.23333567,-0.45419502,-0.65931445,-0.0061689,0.5683693,-0.09495225,0.27985036,0.3507125,0.102332555,-0.68684477,0.21894331,-0.18740116,-0.2588767,-0.028427133,0.19181544,-0.102073215,0.1343621,0.25592515,0.14503694,0.407541,0.2137998,0.015801134,-0.3007262,0.14310619,-0.089175835,0.24904273,-0.4149996,-0.5605352,-0.15075146,-0.3123795,0.19453266,-0.22488719,0.08699142,0.07381232,-0.17386235,0.05704358,-0.8538875,0.6272408,0.06708991,-0.05984267,-0.57384443,-0.22807434,-0.26678196,-0.035259183,-0.31759554,-0.13647045,-0.65184635,0.04877326,0.3396659,-0.196125,0.4494847
sự,0.031864204,-0.14719358,0.33944106,0.272189,0.0154606365,0.09539277,-0.46764424,0.48848456,-0.46411526,0.31852937,0.1687021,-0.11990361,0.20840323,-0.43804404,0.28409466,-0.40367195,0.19405584,0.733493,-0.3424017,-0.07832332,0.52787536,-0.18652281,-0.08577547,-0.24572855,-0.3326898,-0.28542012,0.3841685,-0.024719967,-0.05250531,-0.25564831,-0.083266065,-0.2451516,0.40119797,-0.4167879,-0.20353137,0.06910032,0.5729793,-0.22500849,-0.18503314,0.47225863,-0.3360436,-0.6107703,0.050294038,0.09255,0.48404664,0.8157279,-0.12800749,-0.27946794,-0.78143686,-0.37589076,0.117478326,0.068629,-0.03783537,-0.08652243,-0.46676326,0.1003951,0.04534066,-0.059746627,-0.24819247,-0.5298693,-0.39987662,0.1599446,0.4823928,0.07649866
qua,0.63786346,0.08623197,0.40281013,0.0026741126,0.01543303,0.29984903,-0.40761754,-0.088654034,-0.011340144,-0.4415292,-0.50807804,-0.5028063,0.20352817,0.2560335,-0.40970942,-1.1011738,-0.07273049,0.657845,-0.44735277,0.73958665,-0.14165519,-0.76685464,-0.034822877,-0.22468102,-0.5291153,0.22927397,-0.9585925,-0.19583656,-0.27380085,-0.7038304,-0.042211864,-0.4064701,0.45377055,-0.5585941,0.24619533,0.03937055,-0.07957716,-0.33240098,-0.6458004,0.3468598,-0.29415858,-0.36581925,-0.3052087,0.2583915,0.22912946,0.7920526,0.09358199,-0.32420394,0.07453228,-0.895258,0.13033411,0.23705451,-0.25320432,-0.25521827,-0.559405,0.20890118,0.44893053,0.0049611693,-0.07834249,-0.5866737,-0.2534642,-0.21534541,-0.27858594,0.25211748
rêu phong,0.6729215,0.17014325,0.25302395,-0.060434714,0.002956515,0.49950117,-0.2517908,0.17988424,-0.3267701,-0.29697117,-0.7098926,-0.46097127,0.14171931,-0.18730237,-0.23248738,-0.6640305,-0.13521762,0.6136419,-0.29786584,0.37718523,0.1839898,-0.47873262,0.2701087,-0.5322232,-0.5717106,-0.003917669,-0.49893427,-0.09865604,-0.16331327,-0.62433743,-0.05759051,-0.4710635,0.4347857,-0.7969966,0.050895717,0.06813155,0.108027354,-0.4779123,-0.68622786,0.79001236,0.18986404,-0.6083721,-0.4179213,0.527418,0.62597954,0.61578214,0.34876618,-0.06499487,-0.4313261,-0.8387085,0.20387338,0.1617475,-0.6045476,-0.08609509,-0.4301238,0.06131778,0.755242,0.106087185,0.20891131,-0.44433445,-0.24784552,-0.26855418,-0.09733863,0.18205003
rừng,0.7094997,0.17039362,0.34741518,-0.043808978,0.046288997,0.45226204,-0.38147277,0.065442495,-0.19469361,-0.38964307,-0.6357934,-0.49081564,0.15079573,0.006390395,-0.27000964,-0.80237347,-0.13224843,0.630004,-0.38277313,0.47113702,0.03697369,-0.6377759,0.21920969,-0.39982665,-0.6197879,0.102882415,-0.6980445,-0.14756885,-0.21794519,-0.69125634,-0.07017334,-0.45364884,0.4701687,-0.7126943,0.11785529,0.04089821,0.041623324,-0.4334473,-0.7216366,0.663177,-0.02231624,-0.49687916,-0.34314737,0.43016762,0.49474052,0.71341187,0.22760652,-0.17235345,-0.26120678,-0.8289379,0.14927338,0.17195168,-0.49368873,-0.12097248,-0.4686925,0.14539742,0.660666,0.122515045,0.10503147,-0.48809543,-0.25132135,-0.3154019,-0.15304539,0.20504946
yêu,-0.18285556,0.08840411,0.31920993,-0.05653277,-0.1583357,0.5652228,-0.52462935,0.27313715,-0.356797,-0.021417042,-0.3136159,-0.28830227,0.13534354,-0.13465163,-0.16313525,-0.11799956,-0.06710056,0.5741836,-0.18353096,-0.43584982,0.3656394,-0.107815325,0.119681425,-0.04436734,0.10138714,0.13335133,0.18378757,-0.20225051,-0.24129759,-0.09620363,-0.23825394,-0.22080226,0.12875368,-0.2731027,-0.10689905,-0.08286526,0.3020735,-0.19364001,-0.34271958,0.31445733,-0.21072026,-0.025842994,0.19134042,0.20669611,0.65873325,0.52297926,-0.020441713,-0.12039985,-0.82854885,-0.59676063,0.08019024,-0.18734688,-0.119939804,0.17215753,-0.39767385,-0.19556868,-0.042323846,0.2325934,0.16265988,0.05536489,-0.22418498,0.11361196,0.27788845,-0.15376583
thích,-0.16099082,0.10103445,0.31162763,0.090278774,-0.2875994,0.5033395,-0.60453475,0.37734932,-0.50323254,0.22639666,-0.16768022,0.010803683,0.2723171,-0.4093262,-0.004793855,-0.07946771,0.057962112,0.6643688,-0.057539307,-0.44990063,0.40814292,-0.11199246,-0.10064962,-0.1329188,0.09406961,-0.14673498,0.4408217,-0.11183494,-0.15554732,0.065586604,-0.09365184,-0.14716654,0.16847314,-0.2939254,-0.28645945,0.0010848432,0.45036528,-0.3388325,-0.2930251,0.45952693,-0.23701768,-0.09085243,0.103019826,0.36067382,0.74407905,0.59980595,-0.015079572,-0.09033371,-0.8760229,-0.5903983,0.13411562,-0.114470296,0.05043237,-0.034271546,-0.14389804,-0.2050161,0.12432698,0.21041135,0.00010405126,-0.1834939,-0.30929124,0.07234707,0.28081527,0.02271633
việt nam,0.027866676,0.19505927,0.21437478,0.1120673,0.3892387,0.10512794,-0.20506458,-0.13583666,0.26755872,0.21416025,-0.0045208586,-0.04693618,0.08701467,-0.25664946,0.04482295,-0.11993032,-0.054493543,0.47367293,-0.3511277,0.4003437,0.4949414,-0.18299387,-0.11804075,0.19469291,0.09756104,-0.22849748,-0.014935372,-0.018184787,-0.23799597,0.18811454,0.023462737,-0.13013431,-0.1676514,0.08557993,0.58242416,-0.24208733,0.24056897,-0.09859231,-0.08498457,0.14217557,-0.041434266,0.12949395,0.2564013,-0.20421569,-0.07206073,0.22199695,-0.52769023,-0.44665113,-0.26284713,-0.3059884,0.26570928,0.24658507,-0.16962223,-0.076584525,-0.513798,-0.07846074,0.45340702,-0.2576577,0.035120588,-0.37277636,-0.3227257,0.30727625,0.8047779,0.2786533
ánh,-0.0068100197,-0.33133182,0.2665605,0.0877807,-0.3641523,0.07163788,0.61876327,-0.40160447,-0.20986794,0.21143702,-0.52620554,0.20080858,-0.24555068,-0.55497134,-0.08753467,-0.4978454,-0.678625,0.915706,0.1480425,0.974764,-0.10349868,-0.6062366,-0.38540295,-0.16627142,0.14221719,-0.29522976,-0.29816154,0.018516658,-0.09729775,-0.25580987,-0.20910749,0.20494553,-0.49679172,-0.19144204,0.3894797,0.015003991,0.38640705,-0.23711823,-0.08919433,0.21670066,-0.10343577,-0.88439685,-0.5637976,0.20757899,0.30058315,0.2732019,0.08798423,-0.7036051,0.27462602,-0.69709563,0.562522,0.72035295,-0.25939772,0.25643328,-0.55711555,-0.36989883,0.168328,-0.7162135,-0.31483462,-0.3242637,0.3704965,0.0066924747,-0.69802845,0.80474234
ngày,0.35729545,-0.007010227,0.37877002,0.008764246,-0.042123936,0.07814063,-0.22337762,-0.19413063,0.037382897,-0.31374082,-0.3725666,-0.27184087,0.14345595,0.4079332,-0.40721858,-0.96855843,-0.052872404,0.46646085,-0.322691,0.7759613,-0.22959672,-0.51970655,-0.30623198,0.093401015,-0.21913977,0.20409119,-0.7902999,-0.07782721,-0.29446292,-0.4307691,0.018379036,-0.20830339,0.35057196,-0.135798,0.3233718,-0.03205155,-0.12147355,-0.15220845,-0.24786064,0.03430551,-0.4092413,-0.12617603,-0.2165467,0.08665574,-0.061943296,0.5314951,-0.05838793,-0.46763813,0.29081124,-0.7417373,0.1574238,0.21663347,0.051976964,-0.39639434,-0.38597798,0.010238564,0.1412587,-0.0854282,-0.082320176,-0.55264634,-0.09166545,0.017558208,-0.34770337,0.25857577
len lỏi,0.16048841,-0.13930771,0.29554668,-0.084374,0.39254028,0.17374143,-0.30847976,0.5691692,-0.3338076,0.042784,-0.22274674,-0.5400458,-0.018369572,-0.35056555,-0.25798824,-0.57513,0.3923936,0.61950666,-0.2042441,-0.026810925,0.39064965,-0.28362027,-0.0075081103,-0.3240442,-0.6546668,0.055462416,-0.0312963,-0.38970783,-0.12938662,-0.39130032,-0.14157273,-0.20261355,0.72411996,-0.47143036,0.09796099,0.03489365,0.29309174,-0.25566557,-0.1419586,0.27220708,-0.4585982,-0.6572096,0.015364254,0.039799422,0.33440238,0.7858548,0.37415075,0.35931084,-0.6236039,-0.5901363,0.22632608,0.103363805,-0.66766113,0.09550553,-0.8951553,0.14193623,0.06579991,-0.08589027,-0.26796916,-0.27395037,-0.28814134,0.32224452,0.12869711,0.20597145
ít,0.19133942,-0.07699969,0.23391442,0.26596212,0.3194162,-0.20362288,-0.074689776,-0.22608627,0.20962857,-0.031277075,0.08507577,-0.029352035,-0.012352849,0.03831316,-0.19986714,-0.6454903,-0.040045116,0.48634374,-0.5358434,0.6654482,0.42005062,-0.045394015,-0.33249444,0.30434516,-0.13009512,-0.11995357,-0.23228818,0.29875618,-0.31464118,-0.0018184631,0.12452156,-0.18867557,0.087244436,0.17633386,0.5210194,-0.34795663,0.15231945,0.017275877,-0.0314179,-0.1468511,-0.29216546,-0.08418914,0.08333981,-0.172725,-0.3858978,0.25108021,-0.5466421,-0.77463347,-0.04044654,-0.62031865,0.38931814,0.31098932,-0.02200948,-0.3892656,-0.62118137,-0.054865446,0.16852391,-0.3527362,0.05434031,-0.6577419,-0.17363459,0.42368662,0.4583907,0.3070596
những ai,-0.40624928,0.017300528,0.28474274,-0.14539002,-0.36520922,0.6023292,-0.5468373,0.27329838,-0.6261127,0.058714345,-0.40762016,-0.1550817,0.23741837,-0.13132976,-0.24353439,-0.15766679,0.026658675,0.6919147,-0.1491077,-0.3917387,0.35744396,-0.058136567,-0.07791481,-0.039853625,0.2235905,0.103293076,0.24765112,-0.24657981,-0.34202683,-0.120296165,-0.3437169,-0.1797656,0.16165619,-0.18645035,-0.17231391,-0.043346122,0.33718038,-0.20553277,-0.25160024,0.32901713,-0.2955744,-0.16647863,0.066589914,0.23304749,0.845064,0.55593204,-0.0747161,-0.08870974,-0.78203493,-0.48221028,0.15423623,-0.27690676,-0.07610507,0.044461377,-0.23130351,-0.3189949,-0.06681947,0.20398661,0.19410506,-0.0013372529,-0.2419,0.07593426,0.19145304,-0.24363549
cổ thụ,0.7323136,0.15980749,0.3256455,-0.04339582,-0.019436555,0.46081203,-0.31443214,0.12207801,-0.2645777,-0.3705452,-0.71214956,-0.47516057,0.1656182,-0.07497832,-0.29374486,-0.78071517,-0.13988903,0.5978957,-0.32289824,0.45748204,0.09157911,-0.61034364,0.25646535,-0.51913804,-0.63243365,0.036829818,-0.6496258,-0.13512315,-0.16986293,-0.69491816,-0.029471746,-0.45609438,0.49426767,-0.8127368,0.01239654,0.08839945,0.050209254,-0.46031117,-0.7651424,0.74155116,0.11707182,-0.57201576,-0.4389388,0.5494984,0.55868816,0.6526022,0.33581927,-0.044618458,-0.28492194,-0.8767973,0.16963908,0.20651291,-0.59363765,-0.123980336,-0.39433107,0.084050804,0.752063,0.118425556,0.14909472,-0.5057725,-0.20179035,-0.3192276,-0.22854184,0.24145369
nhất,0.05211424,0.2170348,0.27054498,0.10274894,0.40242723,0.12779461,-0.2987673,-0.20921935,0.47834086,0.20870872,-0.014988189,-0.045424607,0.112809666,-0.18637839,-0.0910006,-0.13492532,-0.010666015,0.40038252,-0.2926765,0.50000584,0.44845045,-0.3117386,-0.10268654,0.28989878,0.2107652,-0.3089063,0.0078102546,0.019953439,-0.28202337,0.2312541,0.0812164,-0.14840238,-0.2955204,0.04154446,0.5436161,-0.22769254,0.17199075,-0.0302426,-0.17360009,0.037875213,-0.088315986,0.32446676,0.22098325,-0.16116735,-0.22173809,0.17740393,-0.46791416,-0.40113422,-0.1683007,-0.4156779,0.27594584,0.34219202,-0.28120977,-0.05275076,-0.5120115,-0.14257354,0.5141946,-0.24410802,-0.09786685,-0.30715567,-0.29670033,0.37400228,0.7223549,0.42318574
giữ,0.30096167,-0.20670705,0.06605034,0.28564852,-0.040838145,-0.2173334,-0.14465414,0.38579774,-0.21701546,0.19217362,-0.16290209,0.00863054,0.03828078,-0.24293916,-0.44147906,-0.553922,-0.24674177,0.7832773,-0.05292133,0.028400648,0.47001848,0.27865645,-0.68563527,0.034784976,-0.12819755,-0.099408634,0.117401004,0.27932945,-0.089897685,0.22453003,0.34764016,0.05603313,0.5491745,0.19064343,-0.13901922,-0.4128908,0.19981077,-0.15742074,0.048570115,-0.3457107,-0.34758085,-0.08141817,-0.2136413,0.25296277,-0.22203101,-0.078841396,0.04415745,-0.40292203,-0.22879907,-1.0608741,0.5071157,-0.10687242,0.14263383,-0.5124403,-0.17079557,-0.19796553,0.03075873,-0.09343357,-0.21532287,-0.6234789,-0.1369093,0.4186311,0.03295189,0.39175567
núi rừng,0.5100527,0.20512787,0.33369473,0.26856238,-0.07626912,0.23751536,-0.5746706,0.3638955,0.092938945,0.4476709,-0.093477756,-0.092872374,0.6230334,-0.3255471,0.011247863,-0.25066027,-0.06245589,0.6792894,0.041986883,0.37717363,0.22998448,-0.46045035,-0.3332862,-0.23783505,0.5404542,-0.24427524,0.29960683,0.1782711,-0.26823312,0.05554512,0.3696949,-0.35872474,-0.04638605,-0.4727474,-0.047491696,0.07600955,0.15411901,-0.05911039,-0.45819035,0.27788746,0.16360195,0.34015438,0.0050091166,0.5342818,-0.019926133,0.1564359,0.022589162,-0.40213457,-0.5309695,-0.82797277,-0.0023269171,0.19680898,0.20849232,-0.42810413,0.115986295,-0.29941353,0.7606734,0.108975805,-0.51822126,-0.5421249,-0.5264105,0.30712855,0.5302188,0.39544818
trăm năm,-0.46930885,-0.12913406,0.38641065,-0.36066484,-0.35583928,0.56271327,-0.08228763,-0.15650427,-0.7072865,-0.03813353,-0.51820785,-0.39950845,0.21075422,0.10792282,-0.89223105,-0.46507072,0.10190326,0.55513924,-0.14602083,0.21078409,0.09891738,-0.1302752,-0.5678702,0.05113293,0.8158249,-0.10309749,0.15526532,-0.03652082,-0.7218364,-0.44255272,-0.51895094,-0.27354848,-0.27775142,-0.3697183,-0.11169666,-0.018098531,0.21565244,0.006583697,-0.052651275,-0.3448245,-0.4307569,-0.00966747,-0.43456244,0.41672203,0.3922239,0.090591274,0.1651455,-0.26891133,-0.21551299,-0.6500704,0.45017868,-0.19540785,-0.51475984,-0.56953394,-0.27750212,-0.7495762,-0.3404777,-0.22788045,0.15304956,-0.38644552,-0.09789111,0.33454868,-0.062459596,-0.30598846
loài,-0.57475436,0.024733733,0.2424298,-0.23766217,-0.11148831,0.709077,-0.46879205,-0.081350915,-0.106297575,-0.07210301,-0.41904038,-0.06108291,0.018407715,-0.5376094,-0.60123646,-0.05005145,0.27461857,0.48153242,0.05207056,-0.3357398,0.38951594,-0.4614072,0.026844604,0.36529773,0.4330901,-0.26062915,0.22591709,-0.34830195,-0.4099435,0.12380372,-0.28732568,-0.11218079,-0.4328243,-0.22512186,-0.07629322,-0.090789445,0.24565542,0.17712441,0.010186913,-0.22070597,-0.6400878,0.25585642,0.1435891,0.37167627,0.30449036,0.36721796,0.20370296,0.37635353,-0.64348924,-0.84999365,0.4766296,-0.07834668,-0.8266126,0.010441962,-0.72115767,-0.61522925,-0.18067932,-0.099567816,0.21473317,0.16027088,-0.09869972,0.21034887,0.2399133,0.051947005
thực vật,-0.5295418,0.06439381,0.23156334,-0.15762424,-0.065557934,0.6625766,-0.46273822,-0.20562875,0.094251305,-0.116034396,-0.36713812,0.04369141,0.0810606,-0.49842882,-0.52744013,-0.038893607,0.21147299,0.4709223,-0.014059019,-0.20761383,0.47516665,-0.444157,0.005939527,0.5418925,0.50900733,-0.26946935,0.15861742,-0.2463438,-0.40811282,0.18504019,-0.25167707,-0.12245636,-0.5458587,-0.10671801,0.021021275,-0.14444612,0.17781714,0.269132,0.011430026,-0.2563356,-0.5520671,0.41424304,0.22321734,0.3062925,0.1792302,0.29662737,0.049747087,0.20340925,-0.54970556,-0.84303117,0.4707937,-0.06794406,-0.7209343,-0.077481255,-0.6671002,-0.6376463,-0.12493702,-0.12874101,0.30070305,0.058141313,-0.12227894,0.2360549,0.3998281,0.08462031
ví như,-0.38753504,-0.11314092,0.16280325,-0.053154662,0.07868061,0.136898,-0.30981478,0.44420746,-0.22111525,0.30579972,-0.385236,0.09362315,-0.09263174,-0.68398243,-0.42879063,-0.15493074,0.311398,0.64734244,0.1749624,-0.26064205,0.38695264,-0.124586344,-0.3240444,-0.020909162,-0.12275808,-0.23720199,0.23171425,-0.46662065,-0.11469384,0.2959161,0.035860367,0.20110914,0.24723034,0.06936553,0.10461916,-0.09285535,0.30171144,-0.05780593,0.39290482,-0.16967092,-0.7602956,-0.23060934,0.18421297,0.042226713,0.1755546,0.4848909,0.29113507,0.4874996,-0.5389452,-0.69442475,0.6083172,-0.048388693,-0.58185375,-0.016474893,-0.8626919,-0.27030772,0.04726222,-0.27792898,-0.18495622,0.04374448,-0.059357278,0.43148288,-0.0553598,0.45441946
trọn vẹn,0.37472546,0.01951295,-0.08194957,0.23056394,-0.12277435,0.028525485,0.040395185,0.31455898,-0.31745112,0.13859905,-0.032821916,0.21167055,0.31972075,-0.36664176,-0.04570564,-0.5329289,-0.08751988,0.69865966,-0.030102737,0.4853618,0.2908422,-0.047857635,-0.5714425,-0.46816963,0.1428604,-0.042915322,0.0005408216,0.22457102,-0.27657637,0.07620546,0.34557605,-0.085872784,0.16790277,-0.056146853,0.36245444,0.03570686,0.13540176,-0.03488574,0.20067337,0.13799772,0.108056575,-0.24664447,-0.16384824,0.2983667,-0.1694861,0.22193001,0.10293071,-0.41530913,-0.33767146,-0.7633306,0.26595643,0.066458054,0.47833762,-0.83294415,-0.06560858,-0.18604845,0.3507439,-0.12604076,0.10960476,-0.7017777,-0.46461636,0.17865837,0.1808502,0.102054134
tìm kiếm,0.08746217,-0.15590939,0.32013682,0.342332,-0.041126907,0.10551808,-0.46672037,0.53134996,-0.4822613,0.3693891,0.15559839,-0.02321009,0.21470843,-0.50730026,0.37754503,-0.34050983,0.09331916,0.8377862,-0.33882028,-0.109239385,0.54843104,-0.19321828,-0.078556724,-0.3103462,-0.32400522,-0.26530325,0.3979925,0.05959185,-0.037611466,-0.20232408,-0.070608325,-0.24128094,0.3464085,-0.3861585,-0.1747868,0.019219615,0.6028334,-0.27938208,-0.2107793,0.589327,-0.27291736,-0.63343716,0.102244385,0.10994276,0.52928907,0.8023828,-0.20007561,-0.42676777,-0.876666,-0.45695353,0.07132341,0.062752485,0.08872816,-0.031371616,-0.42713684,0.099103585,0.12700906,-0.030106725,-0.19983354,-0.5678894,-0.416615,0.09903252,0.5105387,0.0856068
nguyên sơ,0.39882135,-0.06927466,0.04711762,0.4038169,-0.17077006,0.051575094,-0.3039346,0.5862053,-0.41527647,0.44994935,0.03153707,0.15865919,0.46152666,-0.5846396,0.036231026,-0.38138106,-0.13826442,1.0066423,0.0495648,0.14107907,0.4086603,-0.08955359,-0.61984134,-0.4633358,0.21978252,-0.20641555,0.38511205,0.26151574,-0.17867033,0.08867082,0.32258764,-0.14617771,0.29752672,-0.23337936,-0.15003759,-0.055800315,0.3500425,-0.17396976,-0.10935357,0.21482435,-0.054265022,-0.20622982,-0.05841816,0.48217547,0.05125866,0.21059704,0.02599617,-0.43681365,-0.6800491,-0.9325239,0.15261255,0.0025263892,0.52758646,-0.57359946,0.051874805,-0.23852338,0.3792985,0.004184163,-0.3377312,-0.7351536,-0.5507655,0.26458305,0.4041558,0.27600542
hai,0.27905574,0.166452,0.5163939,0.0952145,-0.029082337,0.18755782,-0.34429044,-0.24588907,0.3829548,-0.17056988,-0.34741756,-0.23106305,0.12095878,0.46565545,-0.38037574,-0.8433385,-0.06507713,0.25834328,-0.33057246,0.70338136,-0.21637069,-0.5782037,-0.266383,0.4041109,0.21589299,0.2484213,-0.5959535,-0.010965058,-0.25710085,-0.22658558,0.13357656,-0.19649917,0.07792167,-0.08737206,0.46857578,-0.025516625,-0.21403728,0.039370347,-0.263302,-0.10857636,-0.35895106,0.4595223,0.011991104,0.11912356,-0.30460864,0.37512383,-0.07380519,-0.6076877,0.19962206,-0.8200966,0.09425774,0.22332026,0.046964027,-0.43059066,-0.4693326,-0.22136505,0.23017384,0.0030407794,-0.21478127,-0.5331229,-0.07583662,0.3203442,-0.15801127,0.41759172
hùng vĩ,-0.19883046,-0.13141648,0.36213535,0.13193071,0.2680721,0.029406928,-0.26431096,-0.025873937,-0.0686744,0.16264044,0.15848282,0.008064784,-0.12099726,-0.26087895,0.18992628,-0.4354514,0.3966543,0.27548397,-0.5062949,0.36243805,0.44951758,-0.22532135,0.0030497191,0.17880565,-0.45319924,-0.37337485,0.09057411,-0.086114496,-0.09033393,-0.15421548,-0.15031339,-0.1444001,0.11941564,-0.20134202,0.27856815,0.04511751,0.49944958,-0.22256315,0.056155078,0.30395848,-0.4480688,-0.496822,0.025535531,-0.29181045,0.23208416,0.8328599,-0.33277157,-0.154444,-0.26438057,0.012695008,0.33179685,0.4517638,-0.45225388,0.020738157,-0.6688534,0.15714186,0.009006222,-0.40607077,-0.044435687,-0.46115336,-0.16204868,0.1327921,0.39838043,0.21178165
đưa,0.53074765,0.0050450712,0.34057826,0.02926383,0.0669978,0.13962771,-0.3533377,-0.05936595,0.001427531,-0.3815178,-0.2799787,-0.38340628,0.12781465,0.3124139,-0.3460415,-1.0823537,-0.022158762,0.57522076,-0.45456153,0.71013176,-0.10587101,-0.561607,-0.1613588,-0.09697936,-0.5327667,0.24623491,-0.8301219,-0.12806763,-0.25850114,-0.58150274,-0.015252535,-0.28357595,0.4682144,-0.33360445,0.31620058,-0.04381809,-0.050640292,-0.21831915,-0.3910204,0.15881528,-0.4009035,-0.3429495,-0.17821862,0.072241604,-0.012226194,0.7211675,0.001641505,-0.38321275,0.09844185,-0.75965333,0.111691214,0.23401491,-0.049300883,-0.35963726,-0.5376576,0.21573359,0.19054617,-0.06253397,-0.10376365,-0.59814095,-0.24974762,-0.07753576,-0.19646002,0.18196513
mây,0.025509048,-0.44036293,0.26755586,0.0733183,-0.32121956,0.031733997,0.4713686,-0.34713984,-0.23025264,0.08181366,-0.38259602,0.22156367,-0.1627121,-0.2415658,-0.15512304,-0.6990589,-0.5194081,0.72812474,-0.038578205,1.0045426,-0.0019452549,-0.41909277,-0.4946529,0.060548417,0.12090491,-0.116274886,-0.31155974,0.124692,-0.117668994,-0.34834096,-0.13071197,0.06954802,-0.3088486,-0.052015007,0.34535336,-0.049344733,0.27719575,0.03816036,0.065777056,0.051793937,-0.2438747,-0.72943294,-0.5292524,0.031070441,0.0178249,0.17177115,-0.009368988,-0.73309803,0.3152649,-0.63263756,0.48908377,0.52918136,-0.09545654,-0.15211987,-0.39728212,-0.41419137,0.003321384,-0.64206463,-0.142373,-0.6152842,0.2861326,0.07389766,-0.5539875,0.55466753
tam đường,0.0017003273,0.43904814,0.33733866,0.032684114,0.37868285,0.4061992,-0.0142777525,-0.082610756,0.2087045,-0.07826105,-0.2925452,-0.2755179,-0.34993085,-0.44108862,-0.5303365,0.08334556,-0.5286567,0.72164106,0.11028619,-0.48694414,0.50554407,-0.15576217,-0.063016586,0.010107381,0.30417278,0.10495133,-0.09898939,-0.19132285,-0.31339502,0.39706865,-0.08559538,0.0625267,-0.3963069,-0.085423216,0.504827,-0.4850767,0.3544882,-0.25162366,-0.24464904,-0.2581203,-0.12584907,0.3464436,0.440424,0.09454166,-0.063621014,0.076810345,-0.2133584,-0.5384566,-0.7725784,-1.0055542,0.3671808,0.05930749,-0.35787666,0.40921775,-1.0813615,-0.2474228,-0.043724872,0.0029158473,0.18709666,0.2899939,-0.2609469,0.27965587,0.40401685,0.29819667
vô vàn,-0.42725053,0.0803445,0.2154785,-0.13555607,-0.06626645,0.59956414,-0.61972135,0.12766458,0.010846026,0.067706786,-0.46392012,0.083302036,0.103882834,-0.6589638,-0.39133686,-0.0020289447,0.23196892,0.52780503,0.18592039,-0.34648287,0.42196742,-0.40418515,0.07852604,0.30182832,0.27277368,-0.2710468,0.26958498,-0.36008278,-0.21565282,0.25194678,-0.06969622,-0.05893832,-0.28528744,-0.13352422,-0.11881498,-0.078088835,0.1826695,0.24909118,0.015907977,-0.06124168,-0.61240894,0.27837095,0.2832531,0.33692974,0.2517278,0.37634686,0.22862212,0.5158731,-0.71869445,-0.90881705,0.4233803,-0.09957587,-0.70056844,-0.004208556,-0.64677936,-0.5367026,0.1071369,-0.09320163,0.08012971,0.14165428,-0.14419313,0.16942744,0.22029118,0.26065648
gọi là,0.14150228,-0.0052952194,0.198602,0.13665175,0.3706674,-0.14978504,0.17371933,0.06558435,0.19000198,0.1108145,-0.16091181,-0.27050248,-0.326562,-0.13631326,-0.46758202,-0.22476831,-0.46330827,0.774127,-0.12636691,0.062062163,0.5186393,0.10001312,-0.2659416,-0.04328985,0.03920812,0.06532524,-0.13921556,0.0062907515,-0.3081828,0.26129475,-0.007445348,-0.074050546,-0.11842425,0.071566,0.4827798,-0.4930652,0.29282895,-0.01935534,0.0843245,-0.50236785,-0.24286087,-0.16280161,0.14225318,-0.2481656,-0.39124086,-0.031198446,-0.3359946,-0.76121503,-0.43627223,-0.7691853,0.42557812,0.19039622,-0.21594913,0.15579183,-1.0189425,-0.1324583,-0.13462327,-0.27577922,-0.108280815,-0.011185976,-0.15285064,0.5189406,0.2696866,0.3412452
nằm,0.11533858,0.35463053,0.31911892,0.09359556,0.43045166,0.111659095,0.17573549,-0.0021165747,0.119109154,0.019230679,-0.30555153,-0.30028546,-0.46837977,-0.4163666,-0.5614654,0.004355543,-0.6469697,0.91216385,0.07551477,-0.37772375,0.54772806,0.011994751,-0.2550608,-0.2289372,0.08007427,0.11467994,-0.21108769,-0.17295936,-0.34608033,0.46600574,-0.0154468855,0.13506338,-0.19462632,0.0064693103,0.64094096,-0.52388483,0.3959236,-0.35684183,-0.082982875,-0.37884188,-0.18197685,0.06908177,0.33258042,-0.06802244,-0.16738804,0.0116289,-0.23276602,-0.75250834,-0.6751022,-1.0238835,0.50105727,0.12690271,-0.30371666,0.4056227,-1.2425002,-0.12729354,-0.03604666,-0.13900195,0.0839482,0.22760302,-0.21526726,0.39723265,0.25669447,0.4252366
thảm,0.61683035,0.21890032,0.37180507,-0.05015486,-0.071927,0.5696426,-0.42002332,0.26804882,-0.2796755,-0.2125766,-0.6071266,-0.47205743,0.21373756,-0.19011632,-0.15544902,-0.5558311,-0.11022646,0.56750166,-0.27022204,0.17196096,0.2458925,-0.48971158,0.34395978,-0.48397535,-0.4604268,-0.006635709,-0.24921426,-0.09076145,-0.14587072,-0.5277366,-0.037573077,-0.49155483,0.43305364,-0.8136626,-0.0853086,0.1234032,0.18740092,-0.413553,-0.77472234,0.8284531,0.19163525,-0.3832129,-0.257182,0.55543834,0.6984392,0.6415532,0.32369468,-0.057751022,-0.59199905,-0.8793934,0.048417065,0.11542961,-0.4894581,-0.0015226584,-0.33452025,0.029120952,0.6862571,0.19652139,0.13684787,-0.37450054,-0.26759574,-0.15825412,0.0014335086,0.14918374
lá,0.47515416,0.16198969,0.2953141,-0.064695366,-0.05304137,0.4859534,-0.3492958,0.34889293,-0.42910573,-0.16524173,-0.459063,-0.4334344,0.22864164,-0.17927954,-0.14229788,-0.5300403,-0.05681254,0.5808878,-0.2743658,0.09829118,0.2829198,-0.31997293,0.21984845,-0.52043587,-0.38113716,0.052695412,-0.18222447,-0.10857188,-0.19820495,-0.487653,-0.060004793,-0.43970394,0.456381,-0.7509736,-0.04411794,0.11765721,0.22900036,-0.36528763,-0.6288682,0.7580303,0.09813835,-0.46005964,-0.20508745,0.477723,0.6485177,0.6530792,0.2566544,-0.04808902,-0.6820156,-0.7821091,0.054271165,0.043706104,-0.32173866,-0.06537927,-0.29454955,0.029678136,0.5104665,0.1444474,0.15248382,-0.40117314,-0.3303118,-0.12077669,0.10795609,-0.0023405254
đặc biệt,-0.068293124,-0.24110752,0.2517301,0.0005233079,0.26604024,-0.015280931,-0.25115353,0.5664167,-0.2887448,0.15515652,-0.122984245,-0.25265065,-0.118931234,-0.3542535,-0.31153896,-0.5332905,0.40435305,0.58606505,-0.12708631,-0.074119136,0.38998672,-0.08219975,-0.26994866,-0.057073474,-0.53443223,-0.012545054,0.10782133,-0.27375692,-0.07200621,-0.12189615,-0.014184565,0.005461849,0.7031191,-0.09870869,0.052116074,-0.09943991,0.27522373,-0.10842442,0.24036625,-0.10403392,-0.6996499,-0.5153592,0.046727143,-0.0826804,0.08532052,0.61384857,0.27360186,0.2710065,-0.46015525,-0.6181662,0.38920882,0.025931029,-0.4491019,-0.14586067,-0.84947664,0.026409153,-0.13035673,-0.19913723,-0.29905456,-0.33726385,-0.17019877,0.47175607,-0.001929319,0.2932416
rừng tả,0.010072875,-0.13301644,0.28758925,0.063936636,0.45170882,-0.14069003,-0.08599332,0.60006833,-0.21241881,0.2786457,-0.14817144,-0.316682,-0.29414997,-0.46629655,-0.33714542,-0.3789665,0.2214428,0.7381883,-0.03581778,-0.30109906,0.42779484,-0.04727986,-0.27085635,-0.27849892,-0.57551974,-0.032686386,0.04512499,-0.37090716,-0.03957982,0.011096639,-0.01087244,0.11535409,0.6464689,-0.14966702,0.18399402,-0.17956157,0.3854962,-0.37931934,0.177368,-0.12110084,-0.6223464,-0.526297,0.11847317,-0.15150446,0.07496011,0.6132243,0.20250636,0.1342333,-0.5654729,-0.62202233,0.43541265,0.14330088,-0.5432361,0.19767642,-1.0715177,0.1554715,-0.10337041,-0.23378314,-0.38162133,-0.14172192,-0.19566199,0.51292574,0.026980659,0.44630948
yên bình,-0.008961817,-0.10768471,-0.066624485,0.032459363,-0.3327587,0.23583484,-0.16821495,0.48425767,-0.69263923,0.05607391,-0.2595432,-0.09903281,0.3409704,-0.27180672,-0.31149325,-0.3539086,-0.049774133,0.7864101,-0.048143122,-0.049877867,0.30898082,0.08286071,-0.42912394,-0.39317778,0.33450112,0.0612424,0.2993878,0.09319656,-0.33920315,-0.15033722,-0.075788856,-0.22367266,0.25673795,-0.21787554,-0.132117,-0.03985994,0.17471516,0.024064494,-0.00080080464,0.082523495,-0.03441367,-0.27747965,-0.17392674,0.44356185,0.30663916,0.12110702,0.19060636,-0.21298175,-0.6594943,-0.7475423,0.16451693,-0.33065894,0.1798118,-0.4926221,-0.034423187,-0.39178267,0.01973597,0.10206636,0.10224284,-0.38844308,-0.3625088,0.26919892,0.17607772,-0.23342893
cùng,0.01325683,-0.349886,0.3282454,0.046543416,-0.3503311,0.064555235,0.52622354,-0.44700724,-0.18433204,0.13000347,-0.4816737,0.11294909,-0.18395993,-0.2972409,-0.15421495,-0.5730655,-0.571514,0.73028266,0.03699724,0.990107,-0.1613039,-0.5623669,-0.40317038,-0.02314015,0.17589165,-0.20570406,-0.34084123,0.060475085,-0.13707213,-0.39888144,-0.22244786,0.104775906,-0.36507544,-0.17534024,0.29505545,0.032010533,0.2970301,-0.1336193,-0.11109906,0.14862768,-0.15504545,-0.7208932,-0.5395336,0.13546026,0.22201708,0.26350546,0.037586424,-0.7035234,0.35187843,-0.5649884,0.44374865,0.63656896,-0.21294634,0.116647966,-0.43291602,-0.36896262,0.10503112,-0.6164478,-0.25234592,-0.43134597,0.32306537,0.048101515,-0.65589434,0.6340545
du khách,0.56311685,0.009743545,0.44087663,0.083506666,0.10929779,0.13905998,-0.38730577,0.02633176,0.043315973,-0.309997,-0.23517424,-0.46191067,0.19639178,0.27498022,-0.26933074,-1.1350251,0.01089545,0.6081294,-0.398811,0.68911064,-0.14119041,-0.6970036,-0.12893285,-0.15469724,-0.5176841,0.30457178,-0.8065193,-0.17490308,-0.22974554,-0.59623826,-0.0063645025,-0.27514833,0.57292295,-0.4092309,0.29782522,0.046520136,-0.030452983,-0.2647452,-0.4786334,0.20278148,-0.42805436,-0.26032734,-0.10116551,0.13130772,0.022051916,0.82269156,0.05427156,-0.3930586,0.008342563,-0.8617818,0.031134088,0.2470029,-0.010389161,-0.30903506,-0.5392003,0.24092303,0.17452545,-0.046497878,-0.25052282,-0.5986237,-0.2838757,0.052253738,-0.17816204,0.22969241
cổ,0.11147168,0.040072,0.07324383,0.127236,0.35710287,-0.14016327,0.29669753,0.20341769,-0.007912579,0.10741823,-0.18692635,-0.18429457,-0.3394498,-0.356771,-0.50973547,-0.17625277,-0.51329887,0.9638624,0.017112533,-0.06335172,0.52367294,0.20887236,-0.43429127,-0.3237171,0.08740387,0.12999465,-0.105078004,-0.033022296,-0.32219994,0.3387381,-0.041482322,0.065947935,-0.043987133,0.12064476,0.56638116,-0.49165767,0.34125358,-0.09738948,0.25606334,-0.48908296,-0.20023525,-0.27304018,0.18440215,-0.17425787,-0.3554082,-0.070026435,-0.22261816,-0.7400848,-0.56668824,-0.84347576,0.49596256,0.06421119,-0.103395045,0.077338785,-1.0883164,-0.17958148,-0.14427617,-0.27228647,0.025867425,-0.0062804106,-0.2614608,0.5229069,0.2749843,0.28565565
kéo dài,0.29459992,0.15116067,0.4893781,0.18611756,0.03817947,0.17280477,-0.30639645,-0.31517792,0.42032456,-0.0879191,-0.15108064,-0.14143409,0.21554062,0.31171682,-0.2883625,-0.6718855,-0.07617925,0.30727655,-0.35312736,0.6739082,-0.03604223,-0.5500481,-0.20748723,0.51559067,0.34374952,0.1062846,-0.33573633,0.19799185,-0.32154408,-0.08042487,0.16068307,-0.22507499,-0.06923104,-0.039635275,0.38549834,-0.13213326,-0.21238929,0.075946935,-0.23108166,-0.11544301,-0.17900722,0.5286535,0.06998007,0.13832708,-0.347715,0.23240283,-0.22196037,-0.7263231,0.09108624,-0.8387675,0.10054035,0.2438004,0.062922195,-0.43527594,-0.34067395,-0.28769898,0.2425019,-0.03576991,-0.15339787,-0.53945875,-0.076610684,0.35867956,0.122814074,0.42455533
lên,-0.008887557,-0.29237399,0.23028667,-0.17160146,-0.2619465,0.13832586,0.26238087,-0.21912386,-0.3695589,-0.029925462,-0.49411452,-0.22664727,0.11831398,0.121175095,-0.55801994,-0.5418161,-0.36045155,0.5685763,-0.08270078,0.7173111,-0.07130272,-0.22413605,-0.5535021,0.037116814,0.5065039,0.039040044,-0.2690806,0.11364993,-0.4298267,-0.5264933,-0.28924564,-0.16961618,-0.22023962,-0.20474292,0.091620445,-0.0542727,0.06833628,0.15379532,-0.09289614,-0.24526207,-0.21408714,-0.32796612,-0.48371404,0.16176751,0.03498493,-0.12772164,0.016874162,-0.61978483,0.24158362,-0.5511869,0.3040879,0.058822002,-0.1188595,-0.3280033,-0.21528696,-0.5789621,-0.08963963,-0.36279917,-0.051855132,-0.49095902,0.073671594,0.23337099,-0.3349362,0.02903505
dày đặc,0.35792726,0.113555394,0.2668455,-0.08032325,-0.018681874,0.4335718,-0.31062505,0.3477231,-0.3430848,-0.15859786,-0.48379752,-0.4641315,0.19506893,-0.15025927,-0.21851768,-0.4882501,-0.009686703,0.49178675,-0.15429816,0.0068829227,0.2303753,-0.2648572,0.19356726,-0.45482492,-0.32422093,0.06907886,-0.10220436,-0.11271152,-0.17753226,-0.4377069,-0.09719272,-0.39716262,0.42231733,-0.6817851,-0.12436788,0.08814625,0.15079293,-0.27876526,-0.53311104,0.540021,0.062098052,-0.36628586,-0.18077786,0.42693442,0.5789326,0.5160576,0.35310256,0.069804154,-0.60199505,-0.7457656,0.018602364,-0.03609777,-0.3664768,-0.022210585,-0.3281057,-0.019505432,0.38086307,0.14667924,0.101119086,-0.27206343,-0.27574632,-0.03297035,0.04125849,-0.041883238
không chỉ,-0.06854707,0.14756447,0.06278684,0.15512496,0.40444028,0.13214885,-0.04091662,-0.2048132,0.058564767,-0.020639013,0.111648306,0.085114606,0.0414965,-0.47078815,0.07258137,-0.13709857,-0.054173216,0.5496569,-0.4445397,0.25943592,0.65822136,-0.103053,-0.16421133,0.18379201,-0.029457217,-0.25213814,0.03610731,0.042310257,-0.24028213,0.21885177,0.003786909,-0.016387332,-0.10952002,0.16173476,0.59349674,-0.36619204,0.32554415,-0.23416336,0.0020677552,0.16568044,-0.017978303,0.037025608,0.21301551,-0.15370427,-0.027434353,0.26471558,-0.5275278,-0.5139996,-0.3752948,-0.44689706,0.3195967,0.053259004,-0.075897776,-0.18191989,-0.5866223,-0.022517102,0.29969856,-0.26785845,0.42735487,-0.43275613,-0.32106522,0.18407664,0.8472089,0.18629335
đậm chất,0.5208673,0.2524171,0.25772017,0.2732283,-0.10138845,0.30892563,-0.52855974,0.48599344,-0.19065937,0.32806122,-0.100780085,-0.078109965,0.56499344,-0.37864158,0.13231947,-0.30938062,-0.11294762,0.7670572,0.015114746,0.116113655,0.20629565,-0.40724236,-0.21948382,-0.48989245,0.13879703,-0.112395875,0.19839807,0.05986363,-0.15671706,-0.03650318,0.23538888,-0.31235948,0.23286994,-0.51643956,-0.14716388,0.13121803,0.22616538,-0.28575686,-0.52233946,0.56151223,0.10354233,0.0025552837,0.06519631,0.5468209,0.3276995,0.43586394,0.07902599,-0.27845836,-0.6766831,-0.7950047,-0.08528796,0.09132205,0.34400475,-0.2797183,0.043392394,-0.07015902,0.6670895,0.19921222,-0.31815234,-0.5075236,-0.6040987,0.095249124,0.39709643,0.2401155
thách thức,-0.29956436,-0.12429993,0.21015677,-0.142047,-0.36785093,0.46487835,-0.39581108,0.37859657,-0.6625975,-0.013711428,-0.4192763,-0.27038738,0.2639351,-0.10083206,-0.29197717,-0.30266398,0.029883638,0.66204864,-0.15817228,-0.18249695,0.3055281,-0.04976181,-0.15754731,-0.1175113,0.24147508,0.15830123,0.2091201,-0.16407293,-0.35072964,-0.25480184,-0.3461234,-0.31778863,0.21503189,-0.2578742,-0.16461413,0.016239062,0.2425336,-0.049707465,-0.19688295,0.26393184,-0.214455,-0.31684375,-0.058567088,0.27866977,0.7316942,0.420561,0.08267971,-0.08959228,-0.7277515,-0.54501593,0.10430446,-0.2809412,-0.018291885,-0.09801248,-0.24472341,-0.37631324,-0.08243254,0.18682463,0.11756523,-0.1460418,-0.21455348,0.2127856,0.08304583,-0.28129387
khác,-0.12428926,0.3624089,0.41985628,0.06045519,0.121960446,0.47596586,-0.5032205,-0.45529172,0.58426356,0.11519822,-0.17275588,0.018771484,0.12961078,-0.08039624,-0.26058102,-0.088027135,0.11533977,0.23491348,-0.27566233,0.48408252,0.29729366,-0.6006042,-0.03003581,0.43278083,0.6542557,-0.46062434,0.083710745,-0.049909074,-0.41259646,0.269507,0.07017426,-0.21300752,-0.7056128,-0.27196047,0.45390043,-0.12756728,0.12926649,-0.06061587,-0.37128556,0.059808355,-0.029840583,0.70202434,0.074753866,0.15665539,0.020618757,0.25058937,-0.3612368,-0.29139316,-0.17047517,-0.4889617,0.2978777,0.44213584,-0.46051002,0.0017782227,-0.3745456,-0.35951915,0.5325276,-0.14395759,-0.12758286,-0.10988241,-0.15951692,0.27081603,0.5693673,0.45965004
thường,0.19363537,0.4444253,0.64757895,0.13025716,0.10280657,0.40834492,-0.53403,-0.39054754,0.6258884,0.014352668,-0.28819874,-0.24413915,0.30066574,0.28186715,-0.28691047,-0.53325623,0.15809165,0.14939302,-0.34212792,0.5907056,-0.14021237,-0.78507674,-0.07867657,0.54344386,0.48839772,-0.0054646623,-0.3132776,-0.055082258,-0.33735755,0.039410472,0.18243057,-0.20708495,-0.15256104,-0.15320219,0.49068844,0.019981626,-0.21469355,-0.15656196,-0.4294029,0.035489645,-0.15761305,0.9366835,0.20180501,0.2566245,-0.14601524,0.4516103,-0.17565607,-0.46420178,0.06343826,-0.7614889,0.07372818,0.32391733,-0.20071301,-0.31149787,-0.43219993,-0.27859074,0.5307773,0.0821311,-0.21728712,-0.38383493,-0.13833821,0.39271346,0.20403676,0.56221634
tĩnh lặng,0.05661184,-0.052577607,0.37443575,0.2843862,0.14149079,0.11725688,-0.43265393,0.30991945,-0.3114083,0.3581805,0.25250226,-0.037814103,0.14244808,-0.46158203,0.35883883,-0.3899867,0.27671346,0.53310406,-0.44468316,0.15289497,0.5835809,-0.22058357,-0.03298428,-0.21773961,-0.32876733,-0.36703634,0.34098655,0.018748876,-0.107844725,-0.14056495,-0.09442313,-0.28409964,0.23080157,-0.39195818,-0.004219736,0.12246422,0.6291176,-0.28291658,-0.14995706,0.5318697,-0.23253885,-0.5643441,0.081605226,-0.027317893,0.4202996,0.86615163,-0.26964188,-0.2721052,-0.7053088,-0.20616648,0.13162567,0.30648825,-0.10044869,-0.09739108,-0.48069623,0.12961735,0.17314096,-0.17782222,-0.15647508,-0.5871697,-0.46177518,0.08487702,0.62425804,0.11338538
mét,-0.39915055,0.43153822,0.35792252,-0.04175917,0.034735393,0.57428986,-0.49642462,-0.22601639,0.10480294,0.20410112,-0.32317942,0.24562383,0.081860274,-0.5421157,-0.09536213,0.11407303,0.028556481,0.44600406,-0.06520513,-0.04836841,0.43326557,-0.2164732,-0.12876922,0.30258426,0.30246735,-0.27611127,0.124237865,-0.30355182,-0.25949743,0.54464287,-0.027798265,0.1471474,-0.24082737,0.15038604,0.4116692,-0.1572181,0.34586614,-0.46733758,-0.102092296,0.31823346,-0.19762684,0.50538695,0.29385042,0.07696493,0.42900708,0.46847036,-0.35830262,-0.056544024,-0.4142384,-0.43012944,0.35908118,0.17227975,-0.21049227,0.022121461,-0.3668234,-0.30989403,0.48663005,-0.08501577,0.31081504,-0.032115307,-0.24621424,0.10243729,0.5015031,0.3632817
biến,-0.38433763,0.4536528,0.32056552,-0.026841674,-0.31306565,0.52423716,-0.5012815,-0.2633285,0.13806443,0.35853085,-0.5520948,0.28298277,0.049826656,-0.533727,-0.33796173,0.10364864,0.14765404,0.40486848,0.24345298,-0.021513455,0.053252723,-0.52278167,-0.2401587,0.0019235744,0.38109052,-0.6500394,0.13041353,-0.34971336,-0.30027086,0.53211373,0.09019518,0.13871765,-0.42221367,-0.2477322,0.20628221,0.14282145,0.35357797,-0.6212996,-0.34991768,0.33345807,-0.20770921,0.40780342,-0.030951472,0.43581283,0.6228347,0.5357154,0.026245354,0.25297233,-0.2031897,-0.45505783,0.46531895,0.49563047,-0.44852802,0.22167376,-0.187157,-0.36400893,0.6591889,-0.06264177,-0.08060326,0.19345993,-0.03302531,-0.006464086,-0.13597393,0.6083626
kỳ bí,0.22938763,0.10273603,0.0069944337,0.40319848,-0.15275654,0.15375929,-0.26829898,0.37646568,-0.34983203,0.34210485,0.08586662,0.20770696,0.44906232,-0.66641724,0.15470825,-0.17216335,-0.16291374,0.9340199,-0.027269457,0.030036217,0.43467113,-0.16359408,-0.49884644,-0.40673548,0.2717747,-0.21058397,0.4005305,0.16839622,-0.20230299,0.21206062,0.23488657,-0.019061303,0.18040007,-0.11266784,0.066395186,-0.07996363,0.33541042,-0.34974223,-0.19295797,0.381005,0.069833115,-0.023675963,0.07869076,0.46943724,0.22285877,0.24592145,-0.16974208,-0.5390185,-0.72745466,-0.81613564,0.13174367,-0.0692986,0.53034174,-0.40095514,0.018739955,-0.20396043,0.48240757,0.0673711,-0.07711276,-0.59763056,-0.5502939,0.18530676,0.564395,0.21278128
có,-0.5268833,0.006459336,0.43734407,-0.35547101,-0.2559542,0.8391534,-0.21489778,-0.43109453,-0.29471433,-0.11666222,-0.40441096,-0.31268507,0.20808947,-0.023970228,-0.830862,-0.39267227,0.28968585,0.34439108,-0.24119006,0.20169787,0.16347201,-0.46528134,-0.29502124,0.33503938,0.8781463,-0.27586588,0.121741146,-0.14043264,-0.75506335,-0.3022817,-0.53264153,-0.23552406,-0.5949242,-0.4461116,-0.094821654,0.020973021,0.14478843,-0.028114079,-0.16936503,-0.3716007,-0.43084487,0.3870362,-0.30466998,0.52756643,0.31943777,0.26232052,0.09574865,-0.121067,-0.18051541,-0.66780984,0.4850497,0.031698953,-0.83532465,-0.42737728,-0.37774283,-0.73128295,-0.2606154,-0.25558877,0.274333,-0.21843791,-0.084014244,0.25960687,0.10525183,-0.14858456
con,0.2522539,-0.058065448,0.30606577,-0.04137048,0.26542902,0.21787187,-0.37210324,0.40891847,-0.30504414,-0.057085946,-0.16619602,-0.50238985,0.05716998,-0.15727185,-0.109769784,-0.62646645,0.25519016,0.52906203,-0.3495345,0.10928788,0.2797574,-0.3485956,0.10310891,-0.33689287,-0.59031093,0.08871067,-0.15641664,-0.27278644,-0.14708544,-0.49713188,-0.16335945,-0.3099028,0.6001733,-0.53945374,0.07043929,0.060793694,0.28089157,-0.26233518,-0.30872,0.40781027,-0.30717674,-0.59897447,0.0032893624,0.038153585,0.37036338,0.7712035,0.16642135,0.12136348,-0.52264726,-0.49432418,0.06865029,0.1150744,-0.4137722,0.016632145,-0.6632848,0.20748538,0.13614374,-0.024783334,-0.1534811,-0.34211946,-0.32861584,0.1329417,0.15699427,0.040106576
quý hiếm,-0.56493056,0.05169368,0.27321425,-0.27725202,-0.16422188,0.8335968,-0.4627864,-0.21120727,-0.11087967,-0.09303471,-0.4135323,-0.06349715,0.14597403,-0.4845446,-0.68262047,-0.10588839,0.36822048,0.45137185,-0.017028885,-0.1496356,0.36164308,-0.5695243,-0.022568326,0.3836529,0.62480915,-0.360981,0.22813676,-0.3405344,-0.5187604,-0.023517625,-0.3931746,-0.16242458,-0.5846334,-0.37812552,-0.16180117,0.014451581,0.21161997,0.14124072,-0.08229852,-0.21833847,-0.5740008,0.35551664,-0.00035041504,0.48276928,0.34831104,0.3914927,0.21472105,0.3756643,-0.5458627,-0.80906886,0.4801461,0.021628784,-0.97597337,-0.12533344,-0.5824846,-0.6343643,-0.13128322,-0.15730084,0.27856535,0.077900164,-0.11829765,0.15064862,0.2565105,0.027993232
hoang dã,0.4445427,0.1177986,0.21442445,0.26075697,-0.08497403,0.19404067,-0.4639413,0.5276263,-0.1772543,0.4677714,-0.031964205,-0.08899489,0.58188576,-0.45402685,0.09324954,-0.26096278,-0.029914439,0.72526824,0.09877424,0.21163982,0.2349783,-0.37224722,-0.31198394,-0.47198153,0.2834457,-0.20368712,0.33198792,0.1116692,-0.2207605,-0.034971148,0.2863364,-0.31275532,0.11955063,-0.50917184,-0.12445303,0.1442189,0.23355475,-0.13162476,-0.36036336,0.38908106,0.087658346,-0.035858147,0.022855058,0.5304574,0.13454668,0.30941305,0.094078116,-0.25266096,-0.6517558,-0.7373292,-0.019270558,0.114048846,0.28032497,-0.40965846,0.053169087,-0.17691095,0.63991356,0.12204917,-0.43369138,-0.5602022,-0.60371524,0.20570816,0.42505,0.25716874
tinh khiết,-0.04160988,-0.02696007,-0.06032444,0.032373633,-0.19431408,0.111894615,0.012399126,0.43807927,-0.5912696,0.10520139,-0.24395443,-0.12385081,0.19544905,-0.22937147,-0.41255903,-0.20233579,-0.25926328,0.9010354,0.0390767,-0.16227594,0.37456328,0.23948735,-0.5519418,-0.42893264,0.42874378,0.13537496,0.243971,0.08186146,-0.43464375,0.030461844,-0.09433147,-0.14314064,0.14922455,-0.060154103,0.058583245,-0.18066782,0.20088561,0.004301155,0.07729563,-0.1510908,-0.036269065,-0.23993196,-0.04698961,0.27861086,0.17117073,-0.082204185,0.0049088206,-0.4755753,-0.6624718,-0.71202844,0.22693563,-0.33049572,0.25790447,-0.36423385,-0.279155,-0.41168043,-0.042961888,0.054927807,0.130297,-0.26466185,-0.4040183,0.38574296,0.2482132,-0.22287683
khi,-0.09133648,-0.2546206,0.17359127,-0.09625047,-0.30619645,0.058036763,0.19537103,-0.02231562,-0.5096257,0.0019339056,-0.4983993,-0.19286983,0.06798831,0.1389918,-0.48145208,-0.4800882,-0.3930836,0.6355885,-0.09004141,0.5020009,0.061186805,0.018008817,-0.5522965,-0.07383114,0.4684699,0.13485904,-0.14007418,0.15499182,-0.4203608,-0.39517695,-0.29105744,-0.2500732,-0.0895202,-0.09985198,0.13209239,-0.10165581,0.15671864,0.14652848,-0.027406907,-0.11709814,-0.15952754,-0.43770808,-0.34469903,0.06228328,0.17266715,-0.099916205,-0.066559926,-0.6518802,-0.05716612,-0.4960793,0.22794788,-0.063939385,0.13482381,-0.2917289,-0.2652819,-0.5807012,-0.11804412,-0.17317428,-0.032631274,-0.44356656,0.014538624,0.29812217,-0.23554061,-0.13151538
mực,-0.5690694,0.33523548,0.46288925,-0.0752282,-0.14226966,0.55756366,-0.4477861,-0.41049027,-0.1500056,0.21187305,-0.28836772,0.3221509,-0.10048756,-0.40703252,-0.048971258,-0.14075094,0.2263463,0.19561319,-0.23281543,0.10120442,0.44773203,-0.072155304,-0.24626175,0.32184148,0.045204677,-0.3945137,0.05541268,-0.26429793,-0.26261863,0.44098213,-0.13759401,0.14939968,-0.24961004,0.047068715,0.4389885,0.08608955,0.56985605,-0.6578662,0.026582235,0.40275764,-0.33203912,0.19748169,0.0039964127,-0.031520072,0.6689681,0.81767243,-0.3744074,0.023716202,-0.22782661,-0.048451524,0.6176153,0.46267414,-0.301161,-0.065142274,-0.27723822,-0.2181169,0.25428754,-0.28000066,0.44718412,-0.17075175,-0.14031486,-0.17209283,0.18666367,0.28997353
nổi bật,0.011769092,0.24423407,0.115162306,0.20797388,0.4707669,0.13993084,-0.07792512,-0.11237391,0.08605501,-0.026457626,0.07870652,0.04701636,0.06313509,-0.51584613,0.14655727,-0.14466427,-0.08345401,0.6240917,-0.41268638,0.128398,0.60935163,-0.17840962,-0.15334511,0.105189085,-0.12823035,-0.09876388,-0.020703534,-0.043713704,-0.19600601,0.18241465,-0.017976724,0.04076431,0.07725022,0.19783147,0.6688899,-0.3592891,0.34348708,-0.32568926,-0.084789045,0.28224972,-0.054284308,0.047516577,0.40902355,-0.16370413,0.059573825,0.3488369,-0.58428025,-0.5783075,-0.50589406,-0.48523417,0.21503787,-0.011136027,-0.008611518,-0.042992197,-0.7088492,0.06541878,0.327723,-0.14195633,0.36394852,-0.42081013,-0.3827288,0.19591941,0.8873302,0.18141966
ba,0.52091014,0.032268193,0.5169873,0.19165888,0.14509371,0.025973128,-0.26592293,-0.19376582,0.32513937,-0.19366261,-0.18030418,-0.34475902,0.18025039,0.4180286,-0.24582402,-1.0399055,-0.04768949,0.46705636,-0.44022837,0.8491907,-0.14947818,-0.6559907,-0.20625533,0.1667948,-0.20509142,0.25007278,-0.69479245,0.032480635,-0.2425527,-0.3899136,0.13928542,-0.23588075,0.34775382,-0.119453646,0.46218857,-0.022955012,-0.15528613,-0.10026279,-0.3460534,0.026609786,-0.3580534,0.05515657,-0.005150793,0.002913689,-0.26192683,0.5941575,-0.17368533,-0.6930908,0.21213333,-0.84302235,0.060810175,0.3380979,0.070864715,-0.37120453,-0.5746428,0.041460082,0.2009452,-0.11180583,-0.28541574,-0.6402181,-0.18119137,0.25050998,-0.10605239,0.38910067
năm,-0.130054,0.22740926,0.32831106,0.041303813,0.018085556,0.47903666,-0.24431027,-0.36944333,0.2425611,0.12479121,-0.051395968,0.09346487,0.18309219,-0.21054055,-0.088202044,-0.057406176,0.017382717,0.28825623,-0.18913189,0.30055586,0.28006658,-0.3954875,-0.11163575,0.3856174,0.57304,-0.22518699,0.0904542,0.014537861,-0.314932,0.23460558,-0.041140635,-0.0743998,-0.5380833,-0.06204075,0.346616,-0.06462908,0.12396497,-0.119530134,-0.13792251,0.034090336,-0.012341593,0.5293273,0.12667838,0.19631416,0.06040796,0.2118835,-0.2853406,-0.3619018,-0.1962815,-0.47589034,0.26305088,0.23376721,-0.20085572,-0.14161487,-0.2165573,-0.34498534,0.24501206,-0.09415669,0.12385433,-0.23144272,-0.17515558,0.16148682,0.5249918,0.26470518
một,-0.40399903,0.23206754,0.48212942,-0.025684148,-0.09283225,0.46735814,-0.42800912,-0.48150602,0.033746883,0.11019043,-0.08474558,0.20771986,0.08440971,-0.106172316,-0.12576726,-0.24297437,0.21509846,0.07904666,-0.36787364,0.3757355,0.402291,-0.17922524,-0.21035628,0.53064966,0.38771993,-0.39430377,0.121405855,1.0362419e-05,-0.34338167,0.24981868,-0.09681404,-0.07565099,-0.40188468,-0.066630565,0.25818327,0.008576795,0.29863915,-0.24664219,-0.042572312,0.12095397,-0.21118392,0.42425472,-0.0949265,0.09016656,0.24117795,0.5305424,-0.30050796,-0.15126297,-0.08870096,-0.18156251,0.47392303,0.398407,-0.3238614,-0.32086697,-0.13956016,-0.30920655,0.18458332,-0.23312135,0.27794644,-0.3421644,-0.18146253,0.042321958,0.38186315,0.20155083
