node,0,1,2,3,4,5,6,7,8,9,10,11,12,13,14,15,16,17,18,19,20,21,22,23,24,25,26,27,28,29,30,31,32,33,34,35,36,37,38,39,40,41,42,43,44,45,46,47,48,49,50,51,52,53,54,55,56,57,58,59,60,61,62,63
của,-0.1402637,0.03191717,0.33971962,-0.31651354,-0.085956514,0.249744,-0.06628142,-0.042561505,0.104599535,-0.24775799,-0.0425793,-0.32172632,0.28206354,-0.019501887,-0.1152017,-0.25791425,0.04472563,0.3723114,-0.4038819,0.068546586,0.06722841,0.04771746,-0.38497105,-0.11976323,0.15939137,0.3166383,-0.11930149,-0.06874853,-0.4249531,-0.036358953,-0.09266096,0.036421403,-0.14648224,0.1843772,0.38664743,-0.04430369,0.21798576,-0.2013939,-0.35066292,0.13686472,-0.17609964,-0.049778573,0.005209801,0.2137938,-0.04909138,0.48461074,0.01503298,0.063169405,-0.009191667,-0.33960727,0.32531667,-0.004516321,-0.21192212,0.043541446,-0.25811774,0.17799959,0.2830316,-0.23042233,0.32272828,-0.088729165,0.23022817,-0.09318914,-0.15311898,0.6416415
là,0.021197738,-0.24981837,0.30872807,-0.13088092,-0.068013564,0.07652134,0.18987031,0.008396134,-0.061718438,-0.14249584,-0.20152771,-0.25242156,0.13338886,0.068282746,-0.0095881075,-0.14764206,-0.33864668,0.484824,0.114192694,0.20863393,0.115162164,0.07524315,-0.29128405,-0.23739325,0.2470383,0.19673704,-0.20053583,-0.006627662,-0.16593814,-0.053466838,0.011906922,0.109677054,-0.13536954,-0.065001175,0.1924294,-0.18286064,0.07171038,-0.35906082,-0.087342024,-0.028817274,-0.19681665,0.2750261,0.14587173,0.05865426,0.14850967,0.104611985,-0.31193206,-0.1287932,0.14998683,-0.5987584,0.22956195,0.058230106,-0.30920637,-0.22681029,-0.25723076,-0.06360445,0.114393465,-0.25929788,-0.043624256,-0.10424163,0.16744763,0.24439305,-0.16633354,0.37339222
và,-0.008799569,0.062570065,0.25122383,-0.04181374,-0.053073153,0.40104315,-0.16848457,-0.0785767,-0.13345842,-0.10846702,0.12145294,-0.40988082,0.18483818,-0.42704266,-0.33184782,-0.22026534,0.4221291,0.43010733,-0.3960258,0.2835488,0.08540757,-0.08213171,0.11833363,0.335066,-0.08731192,0.15270188,-0.13353156,0.06754753,-0.4709448,0.08042607,0.026278295,-0.1474828,0.18485314,0.44889778,-0.11033903,0.13134474,-0.017856363,-0.012175809,-0.32190648,0.14506352,-0.48866498,-0.4352432,-0.30265793,-0.26932406,0.22041012,0.48897374,0.28323063,-0.07677462,-0.20012493,-0.45218354,0.1853213,0.008842309,-0.27567765,-0.23093677,-0.37038448,-0.2010079,0.2637542,-0.03347149,0.18404149,-0.51197773,-0.031233203,-0.01003217,0.14756714,0.33726186
những,-0.079037435,0.116555534,0.42273057,-0.034555007,-0.3205474,0.05228262,-0.10287972,0.0009969876,-0.023263924,0.04261317,0.18982962,0.16891041,0.05888804,-0.15262224,-0.21343137,-0.08649108,0.17349054,0.38556588,-0.09381239,0.42799082,0.1258599,-0.010103513,-0.17616984,0.19413102,-0.2518681,0.0009188885,-0.06012307,0.2990259,-0.20553973,0.18947452,-0.11831694,-0.4789604,0.058739185,-0.09917459,0.06568161,-0.12757327,0.11560768,-0.12078199,0.010134626,0.04193885,-0.5977521,-0.13886642,-0.10745272,-0.19815135,0.3085943,-0.05156398,-0.30615354,-0.12978563,-0.29084098,-0.57115394,0.09460641,0.25240755,-0.19075277,-0.3719157,-0.081552975,-0.27713817,-0.07389755,-0.26724476,-0.094287485,-0.16934836,0.10022136,0.22851877,0.122495286,-0.060748477
núi,-0.09889513,-0.24422933,0.12559186,-0.079020746,-0.11934893,0.068625726,-0.21446252,0.12530199,0.23681916,0.18358313,-0.106078684,0.011018614,0.07235433,0.055589575,-0.3125456,-0.31680763,-0.43430084,0.67779756,0.40933248,0.29880318,0.19521093,0.04259992,-0.043027785,-0.01713167,-0.22280289,-0.07701828,-0.11436796,-0.08596898,-0.1824312,0.39912608,0.06313961,-0.12970184,-0.30607024,-0.3464859,0.13843012,-0.24598686,0.3824689,-0.07425022,0.04331939,-0.25971183,-0.1334527,0.12856725,0.09154131,-0.05944916,0.21968518,0.14517424,-0.2545626,-0.35314828,-0.10613537,-0.44543353,0.28088012,-0.081368245,-0.3218636,-0.20266673,-0.1438727,-0.051946066,0.012761222,-0.38513368,-0.26347026,0.052474193,0.18876453,0.51131886,0.18735969,0.47085428
rừng,-0.17105143,-0.0997895,0.23794623,0.21886148,-0.018567894,0.147025,-0.21546927,-0.26128316,-0.24494831,0.061945673,-0.38539034,-0.10266052,-0.09381685,-0.38088363,-0.23233867,-0.2905208,0.17226659,0.62663156,-0.20277674,0.21948773,-0.02471644,0.11990498,-0.33394998,-0.20609654,0.12825891,-0.40393218,0.07187961,0.6329058,-0.26879004,-0.33098936,-0.013559727,-0.2642647,-0.29626164,-0.10515781,-0.07207265,-0.077578574,0.1654277,0.002222214,-0.115498655,0.18138412,0.19061126,0.35944596,-0.075681575,0.28661108,0.1799289,0.57724774,-0.12027758,-0.16310589,-0.17034175,-0.64675236,0.016118305,0.16576003,-0.20658338,-0.29080084,-0.16960266,-0.896211,0.158406,0.03213903,0.12556583,-0.49977878,-0.62553185,0.2751926,0.122275315,-0.15767863
đỉnh,-0.099471495,-0.2104889,0.02749925,-0.14708826,-0.009293278,0.13387124,0.021058239,-0.07840147,0.21111426,0.19275633,-0.20856102,-0.31736127,0.14265819,-0.21671169,-0.45238551,0.24185975,-0.14606863,0.62858814,-0.14664441,0.3918288,0.20605578,-0.467919,-0.047773484,-0.02232209,0.096935906,-0.3535279,-0.24848133,-0.3365579,-0.53619426,0.15847369,0.37351254,-0.2442062,-0.32684165,-0.03697376,0.21576613,-0.051536508,0.44263023,-0.02192968,-0.10505257,-0.37616372,0.06122597,-0.10469054,0.065181196,-0.033047047,0.28041565,0.054531854,-0.17545089,-0.39326158,-0.008763069,-0.2160082,0.20596401,-0.37761623,-0.027133675,-0.06866231,-0.52087986,-0.2063499,0.42129934,-0.0032297503,-0.3451578,0.009289543,0.40684658,0.3412228,0.24454336,0.15612647
hành trình,0.358941,-0.83548146,0.43252537,-0.17439045,0.13557783,0.035650857,0.3761035,-0.19006985,-0.17419434,-0.252405,-0.2933348,-0.5540193,0.21714051,-0.20359099,0.18626313,0.09383029,-0.34692785,0.4114922,-0.33336696,0.45675147,0.27657384,-0.037819944,-0.52558017,-0.094780385,0.21765551,-0.18681994,-0.3507068,0.045517482,-0.04303549,-0.18269764,0.08074804,0.23950678,0.032807793,0.53349906,-0.021137195,-0.1503817,0.0062935604,-0.79137784,-0.27288258,0.22073081,-0.20091738,-0.45632315,-0.05818442,0.15981734,0.2786035,0.09516617,-0.38589898,-0.20055191,0.32781538,-0.7855202,0.4531797,0.056323748,-0.17573671,-0.20761345,-0.40691975,0.019867439,0.065632306,0.023407273,-0.20679484,-0.4966241,0.4148198,0.06656289,0.0048368745,0.47279274
với,0.37702763,-0.26084772,0.37757707,-0.30017453,-0.0066467063,0.032413203,-0.06305815,-0.27349263,-0.21952632,-0.035235383,-0.53693074,-0.12457414,-0.031241896,-0.26414326,0.008569235,-0.24975292,0.071973406,0.3793507,-0.2936702,0.02572018,0.2179054,-0.38953662,-0.4251393,-0.16434388,0.28203228,-0.7775572,-0.041245475,0.22602281,0.15978047,-0.27445823,-0.090002745,-0.075676344,-0.2105294,-0.19518133,0.009376968,-0.24773443,0.23747078,-0.24779795,-0.16002525,0.18728392,0.07718717,-0.07907273,0.03533403,0.47107202,0.17258917,0.19062845,-0.273771,-0.15413442,0.12995395,-0.8323103,0.39247757,0.16472995,0.15505154,-0.32650498,-0.34870532,-0.3002245,-0.17137301,0.21469028,-0.06281222,-0.33493215,0.08415703,0.16287567,-0.2175703,0.093315326
trong,-0.049539115,0.422298,0.19484752,-0.09965119,-0.42442974,-0.061708946,-0.331051,-0.2875344,0.23201017,-0.2085731,0.03326677,-0.06922433,0.5243553,-0.22307016,-0.010399044,-0.16975258,0.08633262,0.6745272,-0.29732347,0.4243293,0.15138768,-0.008564774,0.0028886576,0.15828119,-0.09815481,0.31377512,-0.2784575,-0.08093063,-0.1375177,0.13532066,-0.075631596,0.04357806,-0.10867236,0.022100361,0.3780991,0.085606985,0.14172475,0.14942433,0.2316718,-0.37324366,-0.36722055,0.053580098,0.03214692,0.111183345,0.2340813,-0.001943833,-0.27293336,-0.18873799,-0.00819207,-0.4574018,0.39591223,0.20511784,-0.13334137,-0.3794587,-0.2229237,-0.24622466,0.07492224,-0.32868287,-0.0528833,0.15777174,0.20025748,0.17082079,-0.12153307,0.46964234
được,-0.031360157,-0.25760671,0.19789025,-0.11146136,-0.053112652,0.18549253,0.08649964,-0.15331654,0.26552007,0.07742237,-0.32768202,-0.2816905,0.08168045,-0.36288986,-0.44688165,0.26051787,-0.3149423,0.3789006,0.012039095,0.1530563,0.03190524,-0.6097291,-0.3890761,-0.28256187,0.54892164,0.10329219,-0.18937439,-0.35637,-0.46464887,0.046276383,0.23483686,-0.101171605,-0.3672154,0.16924495,0.39664114,0.09904229,0.40860206,-0.33523834,-0.118966706,-0.3295885,-0.118785314,-0.15802968,0.19308008,0.2922249,-0.020644896,-0.3044959,-0.42654637,-0.3415682,-0.11840897,-0.17497301,0.26133657,0.37232676,0.19895399,-0.20245935,-0.42007545,-0.37300208,0.15491654,-0.037839986,-0.32037866,0.14699651,0.34482172,0.39638275,0.2139404,-0.14588992
gần,-0.25369635,-0.30228102,0.16886513,-0.032292094,-0.29971424,0.5144282,0.001974034,0.00958337,-0.26265526,0.12253501,-0.28135407,0.034500677,0.0080042565,-0.1685898,-0.32188225,-0.5955,-0.5096982,0.48878244,0.53994244,0.031491343,0.09603172,-0.17837162,-0.097525135,-0.09816979,0.47157893,-0.028493486,-0.1408258,-0.2568843,-0.08665313,-0.07376011,-0.36218798,0.22345455,-0.33897865,-0.501497,-0.015874283,-0.28769666,0.2923217,-0.2706526,-0.11844863,0.012912325,-0.12415165,0.11902917,0.27119932,0.22078331,-0.124523416,0.5595941,-0.13575375,-0.33036345,-0.012946967,-0.35390234,0.27809733,0.2826682,-0.04965172,-0.26498616,-0.46579778,0.25987676,-0.1555578,-0.05391071,0.14530747,0.022460815,-0.06930421,0.2477033,-0.17820883,0.49460903
người,-0.26946247,0.39026922,0.39970398,0.19920468,-0.34461218,0.07366985,-0.14322503,0.026749471,-0.043555744,-0.514614,0.20786257,-0.17491598,0.35020113,-0.30534187,-0.09738961,-0.30626237,0.16345511,0.4291206,-0.41938248,0.537446,0.28777435,0.030938309,-0.18489164,0.3933132,-0.27707818,0.33508196,-0.29126865,0.022238314,-0.19450717,0.012505148,-0.24627724,-0.042150073,0.18112491,0.0101333475,0.27265167,0.18923925,-0.0394781,-0.07386652,0.024056772,-0.11412381,-0.7714083,-0.16698085,-0.4077515,-0.19765414,0.2355921,0.04564829,0.011382935,-0.12876928,-0.15365939,-0.66847706,0.32309893,0.2682451,-0.27211794,-0.43327436,-0.3472227,-0.18732691,0.12139568,-0.4136948,0.06719046,-0.30290675,0.16820958,0.042625014,0.058052152,0.28782508
nơi,-0.045475576,-0.22762506,0.6338469,-0.04345063,-0.17763624,0.3936746,-0.43345517,0.29588893,-0.14142463,-0.2852554,-0.028336901,-0.5145237,-0.058159847,-0.27664584,-0.37151003,-0.6800488,0.20935807,0.34215128,-0.21149194,0.11189038,0.6245736,-0.12722085,-0.3623817,0.52910876,-0.08736964,0.109391876,0.08111269,0.1025364,-0.098571904,0.20504974,-0.37467894,0.18109863,0.34820908,0.2791336,0.023110265,0.13137333,0.11831904,-0.26952338,-0.48092452,0.51562566,-0.6107912,-0.72377205,-0.4876153,-0.005471548,-0.09804734,0.46031967,0.5476785,-0.0018762273,-0.22694293,-0.6800185,0.37218666,0.02246533,-0.22087204,-0.21010007,-0.5378122,-0.09560333,-0.2589177,-0.019706845,0.20207743,-0.7922475,0.035493545,0.05365696,0.1452069,0.8007639
đến,-0.23204002,0.24697319,0.40030962,0.2633611,-0.1727504,-0.055737317,0.119154125,0.32489502,-0.37442303,-0.30788824,-0.112154186,-0.29248074,0.10418191,-0.11120293,0.13485092,-0.29318616,-0.30194908,0.58973646,0.32527044,0.21934241,0.13044809,0.17226416,-0.088561125,-0.05904532,0.084420234,0.3223805,-0.31966537,-0.10048937,-0.2653793,-0.048647758,-0.021531304,0.053780824,0.0119362995,-0.6676081,0.28434908,-0.053929172,-0.10417181,-0.18210223,0.13853605,-0.19639286,-0.57468975,0.54372,-0.2739898,-0.057765644,0.40514585,0.14694665,-0.14807512,-0.32519925,-0.2079774,-0.8503981,0.38672626,0.30092174,-0.3863303,-0.4254416,-0.2701486,-0.33891654,0.49743575,-0.68722725,0.15882197,-0.29542905,-0.10538068,0.43630752,0.05096284,0.29089102
lòng,-0.30708352,0.31576696,0.31569552,0.16815828,-0.22430104,0.13835633,-0.291282,-0.14988527,0.016275063,-0.6077636,-0.014984923,-0.36035532,0.39172745,-0.5695507,-0.09269585,-0.46540803,0.27288055,0.47934234,-0.5508213,0.34961343,0.28113517,0.12101515,-0.18897682,0.30671078,-0.09562456,0.3498921,-0.19604102,0.1117581,-0.27743897,-0.123575434,-0.29169226,0.22583155,0.14224151,0.27525136,0.18353549,0.28554785,-0.097630486,-0.042867154,-0.054812014,-0.03485317,-0.4188803,-0.19481549,-0.38840592,0.072000906,0.038862903,0.33978948,0.25197488,-0.05116356,-0.036966242,-0.5404008,0.30598408,0.26038796,-0.2762423,-0.32303637,-0.36816385,-0.32980925,0.10341527,-0.2168821,0.27109995,-0.4779991,-0.17933717,-0.1262619,0.013994351,0.41416413
nằm,-0.28326595,-0.27516633,0.13390027,0.12302202,-0.11289618,0.5292286,0.06006724,-0.31491265,-0.20981824,0.18184727,-0.46710187,0.13548805,-0.062017832,-0.72006357,-0.43008742,-0.26660517,-0.33903855,0.38996455,0.18587826,0.16727093,-0.17189603,-0.4596568,-0.5169272,-0.37916338,0.7265186,-0.29383278,-0.17154367,-0.054388944,-0.18436724,-0.3568814,-0.2806797,0.07257145,-0.6015689,-0.18350764,0.08772464,-0.20321676,0.33367273,-0.46897063,-0.08580731,-0.07199208,-0.030416647,-0.011176941,0.288233,0.47146404,-0.25165272,0.31159115,-0.5499324,-0.37719843,-0.11925523,-0.37296548,0.18915747,0.81301385,0.28522068,-0.36759493,-0.5446173,-0.38421583,-0.1302251,0.07980682,-0.033496484,0.03249027,-0.24788348,0.3103345,0.038048998,-0.24587573
cao,-0.085317224,-0.12959708,0.111329526,-0.037391856,-0.2593746,0.21898061,-0.062910244,-0.36460966,-0.16974221,0.100036494,-0.42897516,0.17184056,0.10325016,-0.41050875,-0.0817669,-0.43823025,-0.4215385,0.5875194,0.16776776,0.29747576,0.0044141253,-0.22364643,-0.20349471,-0.2884543,0.29554915,-0.42389727,-0.35661846,-0.13161099,0.07242319,-0.23447835,-0.20825668,0.0775728,-0.66496944,-0.6048319,0.10644548,-0.33140102,0.43153027,-0.1982853,0.15945902,-0.2891625,0.005514196,0.29385248,0.27143723,0.4851396,0.1924017,0.3884653,-0.5457067,-0.47723892,0.09301659,-0.5366629,0.48452482,0.5131798,0.14076267,-0.43217668,-0.33996305,-0.05556549,-0.041512158,-0.12101311,-0.010381259,0.17161103,0.090827234,0.35438848,-0.21228087,0.15021652
một,-0.04121089,0.20702021,0.2803841,-0.19945337,-0.4942191,-0.04999578,-0.14909767,-0.13256964,0.23723873,-0.13618845,-0.078505374,0.06856755,0.38038364,-0.04452862,-0.15109934,-0.23267615,-0.12535922,0.69613,0.011404368,0.47540268,0.15430142,-0.10600437,-0.23307766,-0.034040183,0.020610543,0.19775338,-0.28131342,-0.030793212,-0.13665916,0.10075347,-0.1397836,-0.13722384,-0.26968616,-0.14934252,0.36459303,-0.101244636,0.17637506,-0.11369638,0.14429766,-0.24842674,-0.46429873,0.262064,0.1860104,0.04356743,0.31165564,-0.21276775,-0.5301908,-0.20004754,0.17443794,-0.6192253,0.3827688,0.24500337,-0.20922507,-0.4401171,-0.19271646,-0.18597421,-0.091187075,-0.3121186,-0.16816567,0.21184829,0.37240914,0.2753716,-0.32379386,0.25033477
trên,0.27022597,0.05999337,0.40577227,-0.14335948,-0.1630842,0.21582484,-0.1069408,-0.19533552,-0.00502946,0.4523265,0.03075841,-0.038809676,0.22666545,-0.52072173,-0.07017513,0.3740864,0.46367836,0.80391145,-0.16417566,0.49206612,0.01974285,-0.41046688,0.18151765,0.32358882,-0.16875687,-0.1400618,-0.18291602,0.1551801,-0.32360917,0.5849065,0.3898886,-0.43780616,0.0047407886,0.2464207,-0.11648063,-0.13042319,0.133895,0.11319906,0.15585886,-0.17923759,-0.32698342,-0.40237555,-0.03517597,-0.2076217,0.5893348,0.26061457,-0.2640719,-0.35622776,-0.43304968,-0.46399194,0.1442373,0.078142084,-0.043627817,-0.4267276,-0.51557064,-0.58788836,0.23763008,0.10082441,-0.13630167,-0.26330465,0.21913141,0.48148957,0.510397,0.23466876
điểm,-0.08043624,0.24367072,0.4423773,-0.084012456,-0.52605724,0.12700392,0.02515999,0.015736695,-0.23145884,-0.21673365,-0.078598045,0.008061569,0.13330075,0.015578931,-0.103485234,-0.51453316,-0.21619228,0.48821655,0.1872268,0.18389003,0.1440069,-0.07011706,-0.15570721,-0.009134688,0.22869496,0.37344986,-0.21063744,-0.10114058,-0.17897317,-0.10097515,-0.36498526,-0.12386022,-0.11313421,-0.48517823,0.30710346,-0.17223255,0.1464686,-0.11805373,-0.011130549,-0.027504263,-0.57398015,0.3967683,0.15850693,0.078496546,0.23910865,0.046355966,-0.31474826,-0.19370325,0.055253413,-0.64358944,0.24861303,0.40091816,-0.24710649,-0.4906119,-0.19688725,0.057257157,-0.0024452058,-0.29245013,0.17433313,0.010425308,0.17769529,0.12438946,-0.46480602,0.25648075
qua,-0.0703488,-0.0861679,0.3266705,0.038127154,0.11044765,0.12068352,0.12018656,0.14139985,-0.35452083,0.015602428,-0.30583382,-0.33849138,0.0519625,0.047414996,0.10476175,-0.22362407,-0.21909772,0.60543305,-0.019586273,0.12603924,-0.059232194,0.38302147,-0.25581995,-0.31771898,0.16764987,0.10195974,-0.1257452,0.21321467,-0.26389822,-0.2697642,0.17774689,0.02672779,-0.1113701,-0.094908975,0.09294563,-0.16121534,0.06515235,-0.21631809,-0.204399,0.2856158,-0.06456506,0.5469882,0.018874131,0.12922055,0.31691048,0.76793694,-0.075040095,-0.11917517,0.03363233,-0.68954027,0.11536131,-0.04989726,-0.4260121,-0.10910772,-0.30070177,-0.3033265,0.5770514,-0.3969031,0.30614904,-0.38805214,-0.29719102,0.20628043,-0.1318796,0.4734901
văn,-0.15462656,-0.2908974,0.26336265,-0.07069615,0.043901887,0.0057845223,0.3428948,-0.09238138,0.11209983,-0.3271476,-0.16874874,-0.45782548,0.32909307,-0.22431557,-0.017614264,0.25928035,-0.34027064,0.37643078,-0.315568,0.5375755,0.1839657,-0.20573625,-0.56921875,-0.20557077,0.22932991,0.15400611,-0.363425,-0.22674163,-0.35623714,-0.15936108,0.09429668,0.13795486,-0.07112123,0.30796507,0.49903503,0.027227763,0.021463146,-0.6531342,-0.047942325,-0.21697326,-0.3379248,-0.20074517,-0.08182611,-0.011313996,0.1220996,-0.29726824,-0.45185995,-0.31181884,0.20254348,-0.5249323,0.29283887,0.14856595,-0.081807554,-0.26069698,-0.52352923,-0.27699047,0.2748044,-0.30495507,-0.28327173,-0.10722065,0.48791248,0.15254648,0.12586962,0.08281027
du khách,0.21176046,-0.2843564,0.2024937,-0.19646028,-0.0782036,0.0943336,-0.2558244,-0.1843993,0.28096488,0.25645405,-0.3703537,-0.36973798,-0.07382736,-0.27907738,-0.60671955,0.21395214,-0.09259947,0.6301152,-0.09766106,0.1751061,0.21230292,-0.6547202,-0.10875644,-0.10238343,0.08320909,-0.39483958,0.0018708886,-0.103875674,-0.530625,0.31574765,0.49117228,-0.5529315,-0.38291195,0.009628225,0.26540443,0.08731612,0.725195,0.14555135,-0.17794086,-0.382268,0.060636323,-0.07048402,0.06346813,0.23203276,0.3453911,-0.19161884,-0.18511651,-0.41019994,-0.25004014,-0.3869726,0.23693217,-0.12416981,0.060785025,-0.3165662,-0.27005062,-0.66058093,0.28605115,0.083095446,-0.4037495,-0.056185424,0.32745358,0.59459066,0.39953426,-0.10752494
đường,0.14206977,0.19869322,0.14235969,-0.080791995,-0.2225047,-0.009437421,-0.37750036,-0.08923501,0.19800186,0.29325062,-0.056181535,-0.0415742,0.2563689,-0.33311293,-0.17952347,0.09499953,0.06558538,0.8444541,0.035245497,0.33713526,0.16305399,-0.28339767,0.31739628,0.20700029,-0.29527703,-0.18367481,-0.23133166,-0.086946726,-0.25326216,0.5316539,0.4176561,-0.30684346,-0.18403324,-0.18872418,0.16588272,-0.03749518,0.42409584,0.3678569,0.19745867,-0.5037583,-0.20009087,0.05791717,0.02273966,-0.03075436,0.4840079,0.08247315,-0.19981788,-0.46286044,-0.3061043,-0.41641966,0.34753096,-0.07841598,-0.080540635,-0.38429198,-0.3161685,-0.44855902,0.3492661,-0.27587318,-0.23903318,0.06654677,0.23780318,0.58352315,0.33794346,0.39243883
nước,-0.48218936,-0.04148506,0.07350896,0.2681249,-0.14098191,0.26145405,-0.35432482,-0.051512342,0.08432998,-0.1766771,-0.08392876,-0.38398537,0.25992766,-0.70316964,-0.22682506,-0.34395885,0.22011065,0.67283624,-0.2434208,0.36277083,-0.006389029,0.3295616,-0.103577234,0.025448104,-0.16193886,0.29077658,-0.14123352,0.28109178,-0.5144442,-0.009132853,-0.04944243,0.18072641,-0.10836501,0.4721388,-0.031669438,0.15434797,0.040842887,-0.06641024,-0.13467576,0.0066881836,-0.015271523,-0.23017026,-0.279244,0.15181147,0.076831646,0.7040846,0.25857133,-0.12567353,-0.2785234,-0.12923267,0.08566626,0.14514184,-0.4001933,-0.034652527,-0.29072678,-0.62202084,0.27282673,-0.11962757,0.36097884,-0.48732105,-0.5348632,0.031084787,0.38959044,0.40408432
độ,-0.011339238,-0.22685665,0.300701,-0.0039633457,-0.23406091,0.45148733,-0.0063759573,-0.35776708,-0.40688002,0.15049122,-0.51428235,0.18134375,-0.11175043,-0.56599784,-0.16064017,-0.5765258,-0.29959038,0.47948986,0.14824393,0.088236436,-0.07844235,-0.31726277,-0.4752436,-0.39921254,0.6182766,-0.37227157,-0.090185925,0.09092261,0.04389883,-0.39341745,-0.3970045,0.06957889,-0.5334666,-0.42966303,0.018115079,-0.264535,0.33721954,-0.40429267,-0.07380077,0.02700109,-0.032167416,0.17505126,0.36651185,0.60574454,-0.09297852,0.50734866,-0.5256962,-0.32437196,0.020020586,-0.68310946,0.33189222,0.7942334,0.19973367,-0.5055265,-0.47698027,-0.2696988,-0.21123943,0.04414782,0.1010171,-0.07414788,-0.19810668,0.2953674,-0.2778598,0.0018987852
biên giới,-0.23759682,-0.12502715,0.3097736,-0.1463115,-0.5095945,0.69706,-0.011319384,0.055271067,-0.21019697,-0.15437831,-0.14189664,-0.27627838,0.13723712,0.04439368,-0.6305606,-0.7164171,-0.26900324,0.50888324,0.4916459,-0.012499102,0.11917922,-0.16147916,0.0992807,0.11953428,0.60287726,0.56505054,-0.05522397,-0.43897447,-0.59080267,0.043251395,-0.3481716,0.022173049,-0.18101844,-0.34631902,-0.07724579,-0.08961561,0.19664216,-0.037824146,-0.33614415,0.10778387,-0.370163,0.13295378,0.2165737,0.059356503,-0.06112373,0.54907674,0.16692567,-0.16782613,-0.084766135,-0.35444382,0.20059586,0.20742998,-0.33584026,-0.27490312,-0.3479215,0.41713837,0.06616319,-0.062423438,0.31455395,-0.08161106,-0.026729876,0.1293703,-0.36623985,0.68152124
hùng vĩ,0.016960792,-0.44673434,0.6015369,-0.25524834,-0.21754172,0.37053862,-0.2716272,0.26342225,0.08076917,-0.10070174,0.044928238,-0.32104057,-0.17501555,0.028196352,-0.506693,-0.44092444,-0.13969848,0.25406843,0.16664661,0.010495009,0.485207,-0.114450976,-0.3576586,0.2330795,-0.018687308,0.3266928,0.1682744,-0.09746034,-0.3385858,0.51861024,-0.20719664,-0.0598187,0.1899241,0.2123874,0.04440665,0.05267331,0.33504713,-0.25662693,-0.46072137,0.36708704,-0.4869983,-0.64846826,-0.19082019,0.010980413,-0.0556088,0.11082734,0.21898006,-0.045868263,-0.33626175,-0.4906561,0.3318882,0.15163168,-0.18278031,-0.12119519,-0.16684943,0.12713474,-0.24097067,-0.124519676,0.043420553,-0.4149212,0.21889761,0.21918733,0.1700115,0.6884674
không chỉ,-0.14765367,-0.0516609,0.22306488,-0.17059347,-0.13904618,0.08897334,-0.038582478,0.048020035,0.14586493,0.014962592,-0.27889213,-0.113129064,0.17487426,0.21485804,-0.28162283,-0.34226924,-0.33089188,0.7444149,0.051113978,0.33078137,0.09958354,0.10166253,-0.23027037,-0.22889943,0.101717904,0.041064702,-0.20748407,0.07333049,-0.24753648,-0.08121053,-0.01842504,-0.08926172,-0.3829267,-0.1793168,0.28430367,-0.2568433,0.2590426,-0.13139753,-0.1373286,-0.0101862205,-0.10355009,0.45893618,0.2494477,0.011660066,0.22957353,0.21823213,-0.30216745,-0.19920152,0.2377612,-0.58746624,0.15984574,-0.22927593,-0.39906842,-0.17673515,-0.36429256,-0.11070753,0.09158029,-0.28002253,-0.121277936,-0.022051053,0.19223583,0.23126446,-0.27022436,0.4187787
năm,-0.14131995,0.085878745,0.15334086,0.18985435,-0.09183168,-0.030487424,0.021430662,0.022519143,-0.23627283,-0.11512999,-0.22406948,-0.2011122,0.15470472,-0.15832971,0.06943786,-0.16426085,-0.38893932,0.5461749,0.3263083,0.20999426,-0.02072074,0.049577944,0.027818551,-0.16906147,0.13102414,0.092762284,-0.38149026,-0.18052313,-0.18728583,-0.07979489,0.09061064,0.16670921,-0.25078222,-0.5288759,0.2105073,-0.072527185,0.07046593,-0.12528698,0.20829271,-0.3302976,-0.23786674,0.48257488,-0.073921636,0.15123995,0.34935275,0.20707755,-0.26409262,-0.39156395,-0.07265255,-0.5596337,0.4158245,0.31842417,-0.17652315,-0.35234863,-0.21430394,-0.25860262,0.46680003,-0.48518878,0.01952683,-0.046206165,-0.029898712,0.43191376,0.018948441,0.30493143
tổ quốc,0.19454429,0.40220603,0.29039228,-0.4337885,-0.34299102,0.6316841,-0.10390394,-0.18453632,-0.21946442,-0.33601198,0.027237695,-0.5175317,0.34375873,-0.01617907,-0.47358683,-0.5107435,0.30530438,0.35199717,-0.30292827,-0.024070492,0.08419076,-0.52019435,0.23335052,0.2021553,0.52200913,0.3640996,-0.20380487,-0.5369103,-0.6394099,-0.042596344,-0.16451846,-0.093834884,-0.0067016585,-0.23327929,0.11504108,0.08606683,0.007915978,0.10730548,-0.4085838,0.049213175,-0.6168941,-0.033089474,0.01848278,0.020865368,0.1297435,0.44427276,0.15607479,-0.07186311,-0.057039227,-0.63883764,0.5732866,0.061904646,-0.16231818,-0.35805514,-0.36130267,0.51516306,0.36617824,-0.061068434,0.37273195,-0.10516756,0.31135723,-0.015092962,-0.61013657,0.7279572
dãy,-0.0076918616,-0.3853456,0.45397416,-0.23651583,-0.3435873,0.42645213,-0.30240536,0.31401867,0.046438627,0.074291974,-0.20131123,-0.03333835,-0.11360712,0.25844827,-0.5508659,-0.796696,-0.3714494,0.46149528,0.6647001,0.05225918,0.415779,-0.118087545,-0.19781314,0.20830221,0.1071981,0.11642682,0.16502242,-0.052504,-0.07157757,0.38616002,-0.39286226,-0.03645091,-0.0874779,-0.38650116,-0.09094409,-0.25317556,0.26474768,-0.19637142,-0.2813326,0.32213378,-0.42318478,-0.17869021,0.08449483,0.0020332055,-0.014007888,0.18534803,0.04042462,-0.17093053,-0.07096243,-0.66057634,0.3297511,0.0325943,-0.29823714,-0.2623847,-0.2686909,0.16411525,-0.4385305,-0.15701534,-0.049196057,-0.28689733,0.1244445,0.3644784,-0.16077101,0.7787321
lên,0.2846135,0.06462985,0.049907625,-0.14249007,0.15231311,0.1836866,-0.09381544,-0.15283844,0.06698463,0.2121906,-0.23604858,-0.49481526,0.19519119,-0.59959704,-0.33256403,0.34246537,0.15353155,0.5867098,-0.3367032,0.29760295,0.09247767,-0.732735,0.17176539,0.07560903,0.12543237,-0.41133514,-0.2835086,-0.3188111,-0.48262691,0.20106643,0.61074704,-0.25146434,-0.20497718,0.13451874,0.15661427,0.12967972,0.32694015,0.14765413,-0.11488612,-0.45213982,-0.07192517,-0.1840075,-0.10117391,-0.020692285,0.39059505,0.058686674,-0.052696247,-0.45471457,-0.16991656,-0.40880284,0.29709673,-0.13610157,0.08437537,-0.25751954,-0.6135573,-0.48563656,0.67171603,0.063346155,-0.2809093,-0.1324473,0.347331,0.37831914,0.28092307,0.08994425
từ,-0.1890333,-0.017709484,0.33702648,0.26378265,0.07056285,0.025586322,0.039282653,0.4127122,-0.23503973,-0.060678672,-0.22901551,-0.31745365,-0.049601734,-0.19301464,0.06612251,-0.2628178,-0.616975,0.6819832,0.705133,0.06128417,0.09081144,0.1396542,-0.012412433,-0.2196221,0.016590174,0.23202899,-0.297492,-0.27415168,-0.29039064,0.28684735,0.20839317,0.14234655,-0.1594565,-0.7572138,0.29782093,-0.05887451,0.1888362,-0.22765724,0.12721963,-0.40247452,-0.42568174,0.45771456,-0.21104522,0.07561056,0.35096046,0.26758465,-0.17285293,-0.5343683,-0.48482573,-0.7401311,0.55862933,0.42483437,-0.36822167,-0.28921458,-0.23638217,-0.370438,0.6140614,-0.8890254,0.05495028,-0.21177,-0.13364458,0.77961624,0.39819416,0.5423686
việt nam,-0.46828786,-0.25733215,-0.042779654,-0.17900346,-0.22528124,0.27074632,-0.10720622,-0.29103974,0.22744854,0.0053538363,-0.054690488,-0.022491332,0.29146326,-0.1948775,-0.2729315,-0.2628212,-0.3776031,0.6550972,-0.19060001,0.5664054,-0.020745827,0.30239347,-0.26789618,-0.21496536,-0.24376926,-0.14159843,-0.34452456,-0.21822755,-0.474254,0.06203757,-0.055669606,-0.014053341,-0.5989994,-0.04518442,0.20546615,-0.21220267,0.50969124,-0.25752252,-0.07957729,-0.2568404,0.12986705,-0.07826117,0.1674568,0.2873308,0.2617792,0.64702517,-0.26711148,-0.29598302,0.06595167,-0.09771276,0.3925365,-0.0417847,-0.13933071,0.07759379,-0.20942844,0.315492,0.24376217,-0.2669246,0.09281567,0.21425843,0.2544049,0.051972304,0.05683405,0.5544749
khí hậu,0.40313768,-0.8063896,0.5097006,-0.3071945,0.0053862967,0.23936956,0.022100173,-0.09399574,-0.0037583616,-0.33663657,-0.10855488,-0.7384659,0.03734598,-0.18327993,-0.16344589,-0.08648696,-0.11818151,0.25659078,-0.36826614,0.3526041,0.5106355,-0.13148648,-0.43133318,0.1622001,-0.043300055,0.039065093,-0.1754918,-0.060749285,-0.27880487,0.21870327,0.0310742,0.07090157,0.23979884,0.7047141,-0.06637689,0.04772474,0.16217345,-0.56757617,-0.50063723,0.3516532,-0.42472172,-0.84951776,-0.2824126,0.034760926,0.21564846,0.0681306,0.0763666,-0.066974156,0.11632813,-0.71230555,0.4393737,-0.022339031,-0.18690385,-0.21048737,-0.32135397,0.095488116,0.03986578,0.09191873,-0.065110885,-0.66105825,0.5238515,0.033065267,0.101402655,0.5983066
chinh phục,-0.08442703,-0.59939176,0.12797464,-0.24744686,-0.12669486,0.16539732,0.14922372,-0.17033975,0.15715963,-0.20185718,-0.04414303,-0.43934616,0.30751315,-0.15429923,-0.11316385,-0.03673562,-0.39816728,0.47049126,-0.24896033,0.55065346,0.21567392,0.050917886,-0.29339677,-0.06251037,0.021829363,0.032420993,-0.41686568,-0.28083524,-0.33785427,-0.0028568201,7.366961e-05,0.20121965,-0.21228062,0.395133,0.187944,-0.101696104,0.22996666,-0.5318715,-0.23241916,-0.07473581,-0.196424,-0.40910327,0.05555661,0.049883753,0.2160658,0.21066442,-0.2354476,-0.22138941,0.30139753,-0.33953527,0.4040804,-0.135879,-0.20129357,-0.024230305,-0.40949577,0.33121407,0.16199255,-0.081863545,-0.12758426,-0.09545278,0.58356524,-0.008851315,-0.01742371,0.5807515
còn,-0.179814,-0.22167076,0.15913369,-0.08877194,0.075447954,0.17093769,0.34749866,-0.16161332,0.042584952,-0.10386665,-0.2912218,-0.3337958,0.25612095,-0.3154022,-0.18468411,0.31851962,-0.19980747,0.3495154,-0.2666189,0.42389774,-0.009696417,-0.42316964,-0.4601904,-0.23572062,0.49870324,-0.041608162,-0.37627268,-0.28034732,-0.40480533,-0.23539768,0.13218254,0.024283536,-0.28535298,0.16943315,0.39416742,-0.049547426,0.0919088,-0.5422782,-0.06366821,-0.23518082,-0.16914612,-0.16287553,0.03478397,0.095077045,0.070974186,-0.11257691,-0.4938833,-0.32947233,0.121608816,-0.32615504,0.22396584,0.16562657,0.07839552,-0.16792871,-0.6072238,-0.24299388,0.24173564,-0.10605232,-0.25203487,-0.0050744256,0.38891292,0.16408224,0.099265546,-0.055002216
đất trời,-0.23507333,0.20379111,0.5221683,0.10975143,-0.20185813,0.2902222,-0.33340976,0.15267599,-0.16706516,-0.42542887,0.065325655,-0.4111382,0.11342643,-0.415591,-0.18526796,-0.5538567,0.32217628,0.3998885,-0.49320272,0.21014681,0.44437602,0.034035273,-0.34429106,0.46965525,-0.18478353,0.21486174,-0.094955176,0.070894405,-0.1799054,0.009220181,-0.34642658,0.19403934,0.2806572,0.23639297,0.21987286,0.22359881,0.0791325,-0.18050164,-0.2961955,0.34650993,-0.603271,-0.50676525,-0.52103555,-0.013256559,-0.05834128,0.5456242,0.4900991,-0.019304723,-0.1827378,-0.5620187,0.35341588,0.14807692,-0.17736435,-0.23251444,-0.5128945,-0.14888373,-0.05571802,-0.18641984,0.3766876,-0.69560546,-0.0133165205,-0.039341822,0.128522,0.632915
này,-0.21143492,-0.37503168,0.11037143,-0.17555623,-0.30113745,0.33560377,-0.031520847,-0.09360889,-0.064731695,0.089820445,-0.20614299,-0.08692506,0.14680246,-0.019714674,-0.3354382,-0.4285304,-0.47688547,0.58706635,0.29864648,0.31742552,0.1287252,0.0019460816,-0.060246807,-0.050962094,0.14866646,-0.0645606,-0.2585709,-0.31754726,-0.26060688,0.007071802,-0.1642347,0.04021622,-0.43052918,-0.28827074,0.007119084,-0.30085266,0.4226585,-0.16739193,-0.10309964,-0.104418986,0.022303374,0.11785456,0.26874766,0.13747849,0.20348696,0.49951658,-0.15947655,-0.35966274,0.16604139,-0.2604722,0.28480607,-0.044843066,-0.20833477,-0.17119958,-0.34382972,0.27966687,0.09517662,-0.08140782,0.04093709,0.09168372,0.24589549,0.15651688,-0.1966947,0.5410774
nguyên sơ,0.29989755,-1.2647306e-05,0.48423934,-0.54408187,0.08133538,0.1406857,0.046668593,-0.13215345,-0.19002874,-0.11544839,-0.29998636,-0.43676293,0.17297773,-0.20952332,0.15449075,-0.21147837,0.26437953,0.33988723,-0.8386778,-0.07306924,0.16708474,-0.34653607,-0.51854545,-0.12115023,0.35330972,-0.56210023,-0.11510914,0.108273216,-0.014054235,-0.3136016,-0.05701996,0.13150744,-0.0934761,-0.13553289,0.3374783,-0.2828044,0.13357835,-0.35541064,-0.42065483,0.30748314,-0.12182081,-0.24731782,-0.1663344,0.52764934,-0.08575857,0.6912848,-0.08499344,0.02734687,0.053648517,-0.84420514,0.5501472,0.028970597,0.14590132,0.02808241,-0.63306504,0.17033747,0.14960027,0.023829097,0.2392587,-0.35899237,0.25106445,-0.11667675,-0.26753268,0.6466371
khang su,-0.02573155,-0.13652073,0.22333732,-0.045307815,-0.048623413,-0.030992763,0.26729813,-0.17732127,0.021897092,-0.32025665,-0.12413314,-0.45068008,0.3998009,-0.24616796,0.01653784,0.21947485,-0.17052552,0.42767322,-0.40668422,0.59888023,0.2474083,-0.17692971,-0.32679856,-0.007872669,0.099664874,0.017961448,-0.41285324,-0.1701432,-0.28328842,-0.14492236,0.1067065,0.0549461,-0.013495253,0.26009852,0.297788,0.019494176,0.00041600416,-0.42334643,-0.01108853,-0.24859658,-0.3558345,-0.21504205,-0.096647136,-0.08425559,0.31423864,-0.20143363,-0.35301661,-0.29199693,0.2507311,-0.5689967,0.3416503,-0.00531128,-0.1286663,-0.31975457,-0.48221576,-0.17127101,0.25276724,-0.19188309,-0.26458082,-0.16117579,0.46917054,0.13328998,0.018170232,0.14217745
đầy,-0.11067717,-0.08227325,0.3973384,0.19470567,-0.0013469966,0.16406761,-0.20876952,0.49371934,-0.15219142,0.13993275,-0.13692659,-0.23385319,-0.13274468,-0.17419705,-0.11644174,-0.41588417,-0.6371035,0.83132,0.9683903,-0.087708764,0.17380475,0.052929845,0.13896404,-0.06753135,-0.14483306,0.27945393,-0.17343931,-0.37268075,-0.31172022,0.68549246,0.22696029,0.0646911,-0.12869859,-0.8641369,0.21156463,-0.14159669,0.3285014,-0.058915455,0.1363044,-0.4618277,-0.5162118,0.24292165,-0.19814244,0.08014407,0.3144403,0.36152682,-0.018771488,-0.6108091,-0.69880456,-0.7581903,0.63791734,0.35370064,-0.4059679,-0.3012047,-0.21049011,-0.2452965,0.48201317,-0.9484705,0.007396576,-0.19107501,-0.08906212,0.97484857,0.54286265,0.7696776
cuốn hút,-0.09414427,0.093798704,0.34938478,0.28437632,0.063424036,0.070468254,-0.16979018,0.46391815,-0.2050415,0.0951008,-0.18827122,-0.32619247,0.00798522,-0.39805844,0.04421431,-0.2985176,-0.5343694,0.96363246,0.7653908,0.04181322,0.16327631,0.030313471,0.18081032,-0.06704458,-0.16537884,0.1910774,-0.30942148,-0.31648123,-0.347551,0.578973,0.386286,0.061088905,-0.124163106,-0.8520839,0.3012701,-0.061432805,0.26255918,-0.05807524,0.21946071,-0.61750084,-0.55209297,0.34330955,-0.27015835,0.059276093,0.4260228,0.4022659,-0.07183586,-0.68021834,-0.7362786,-0.9139462,0.6758689,0.395399,-0.3923032,-0.4152309,-0.33253607,-0.4865363,0.714326,-1.0486568,-0.014442902,-0.25704518,-0.14682612,1.0387383,0.63826776,0.751527
ba,-0.25020105,0.17642915,0.35127917,0.38233036,-0.012335586,0.04044992,0.013713334,0.28965142,-0.47318763,-0.1502906,-0.22356886,-0.27322865,-0.039081737,-0.36448142,0.12898079,-0.36007732,-0.43954828,0.7475903,0.6554599,0.061871495,-0.005817369,0.20776816,0.07416992,-0.17576821,0.06864642,0.29321548,-0.3176624,-0.14917007,-0.29125687,0.089041054,0.09734769,0.10104387,-0.124317445,-0.8734114,0.18642387,-0.0351904,0.072766446,-0.105655074,0.23490189,-0.3916745,-0.50764364,0.5843402,-0.28994358,0.1186159,0.4072936,0.41805023,-0.13888647,-0.5565847,-0.55530375,-0.841387,0.527248,0.6119834,-0.4081766,-0.43485183,-0.22797625,-0.5326557,0.6872488,-0.8955601,0.24959701,-0.33593872,-0.34401715,0.77881163,0.3429742,0.4022599
cùng,-0.03327468,-0.5114036,0.69350463,-0.3198966,-0.28393075,0.4890266,-0.27414042,0.16483328,0.3673706,-0.16119216,-0.0018835838,-0.38845733,-0.21960507,-0.109378755,-0.7120917,-0.38620073,-0.27878058,0.29226652,0.16178067,-0.1549012,0.37572953,-0.22221759,-0.69596803,-0.13098668,0.21992715,0.77003103,0.2673717,-0.33018064,-0.70978993,0.552614,-0.16746394,-0.22132978,-0.030489689,0.4061879,0.395073,0.23490815,0.6650231,-0.40204403,-0.61802673,0.23189557,-0.45839942,-0.5852479,-0.061855074,0.33922303,-0.17054786,0.0035808121,0.060746714,-0.056938834,-0.5834225,-0.28868282,0.37773302,0.5601063,-0.12850602,-0.11313251,-0.0048966077,0.10518399,-0.0059466404,-0.21393281,0.1969853,-0.13432008,0.3051095,0.22263844,0.26210034,0.5249979
len lỏi,-0.32210657,0.119740546,0.21770625,0.2407253,-0.2162202,0.38648358,-0.3856471,-0.36334983,-0.22899777,0.18261339,-0.010350071,0.14774849,-0.05752026,-0.80062467,-0.63772905,-0.52330244,0.35993972,0.72480935,-0.18047233,0.42605743,-0.29137978,0.16516718,-0.20221144,-0.0857972,-0.045636225,-0.3579734,-0.0250419,0.805731,-0.3852908,-0.2764703,-0.19689709,-0.5795985,-0.3321271,-0.0100707635,-0.22212501,-0.16591303,0.22416139,0.03968134,-0.13548072,0.082521655,-0.4726101,0.11369814,-0.060324218,0.02093794,0.16288085,0.58407944,-0.35102117,-0.23649798,-0.4875643,-0.90848494,0.021512393,0.6263509,-0.3856512,-0.44467402,-0.17541595,-1.0688666,0.094644465,-0.24080668,0.06675645,-0.3959979,-0.75250995,0.32481933,0.15904395,-0.31253132
2.800,-0.10636468,-0.00013051137,0.28999767,-0.07685813,-0.40850794,0.4218315,0.06712054,-0.2347929,-0.4314258,-0.07275388,-0.35687143,0.021618163,0.09143383,-0.2806119,-0.11274725,-0.5872502,-0.3426719,0.46248752,0.076251805,0.119497396,0.016576897,-0.26257014,-0.25670463,-0.2034676,0.5385534,-0.12130722,-0.36019695,-0.26300508,-0.034286078,-0.43606752,-0.4690753,0.1598532,-0.3889268,-0.5952654,0.20655662,-0.3226175,0.29353172,-0.3409682,-0.066595785,0.018902143,-0.24882385,0.2898012,0.26630655,0.40877235,0.029543802,0.52448124,-0.42299932,-0.26543212,0.14975832,-0.50953084,0.3724628,0.550157,0.09949355,-0.42125192,-0.48326686,0.27574232,-0.04826434,0.019157,0.23192415,0.042689096,0.13407958,0.022602364,-0.4553425,0.2571843
kiên cường,-0.4414823,-0.20549531,0.07100805,-0.121883124,-0.16603445,0.28836122,-0.1836952,-0.13605045,0.22935967,-0.133109,0.040998757,-0.24271978,0.37154183,-0.35515612,-0.22644049,-0.3654138,-0.025729347,0.5903115,-0.4435414,0.4502955,0.021103792,0.38895154,-0.2915782,-0.028282765,-0.15271196,0.15778938,-0.24077731,0.03697622,-0.54201174,-0.036812782,-0.14120486,0.08579739,-0.24720773,0.39057633,0.135879,-0.022287518,0.22786592,-0.26649547,-0.23565532,0.06372841,0.018886015,-0.28004178,-0.064411834,0.17912336,0.032886166,0.7372889,0.053241152,-0.091520265,-0.010708145,-0.10341917,0.25653362,-0.03972307,-0.3235697,0.15696375,-0.32504064,0.09462843,0.20205563,-0.14002375,0.3465859,-0.1929537,-0.04400402,-0.13026284,0.123667575,0.57851446
kéo dài,-0.18581182,0.002260118,0.40489727,0.24167064,-0.04351115,0.1185224,-0.037374865,0.47806367,-0.23918556,-0.01799861,-0.14694926,-0.3185692,-0.05457907,-0.20566411,-0.035845228,-0.36827683,-0.6755607,0.81704664,0.8918441,0.026142055,0.15327117,0.07453895,0.07684071,-0.1186139,-0.04008245,0.35978293,-0.26548862,-0.37178552,-0.37117678,0.4855182,0.23421048,0.07315613,-0.13180082,-0.86528844,0.31159762,-0.065299295,0.27410957,-0.12586808,0.17103967,-0.504421,-0.56139743,0.36455047,-0.2075801,0.077300705,0.3792044,0.34377247,-0.090544276,-0.6443644,-0.64795196,-0.7929067,0.59690195,0.47551936,-0.41377205,-0.3830743,-0.25340855,-0.3580551,0.60418105,-0.9855934,0.057960812,-0.20973948,-0.10795636,0.9025424,0.5013324,0.6852518
cột,-0.2296323,-0.15317415,0.24105304,0.2510097,-0.15558492,0.5266587,-0.07536084,-0.31241092,-0.36171126,0.26801473,-0.35332358,0.26638898,-0.17170668,-0.76473165,-0.30120498,-0.36323875,-0.121523954,0.5097111,0.21589555,0.17435125,-0.2701544,-0.18194978,-0.42664996,-0.32228804,0.44511324,-0.32955638,-0.036153555,0.36273172,-0.15221138,-0.327494,-0.2660605,-0.116245694,-0.4796895,-0.18268174,-0.1665206,-0.20646165,0.24151473,-0.30715674,-0.041608475,0.07897699,-0.06864232,0.07726439,0.18263315,0.3537996,-0.105733745,0.60245746,-0.507141,-0.3125691,-0.2726889,-0.5715121,0.0699777,0.8682525,0.09486184,-0.4147505,-0.39674357,-0.678725,-0.11242883,0.016576786,0.11854654,-0.20450471,-0.5800606,0.3573685,0.08399745,-0.29728764
bản,0.043517854,0.5408095,0.3556689,-0.16290282,-0.38049647,0.22813453,-0.12316799,-0.19861493,-0.12116616,-0.54774034,0.16794689,-0.32218957,0.45456356,-0.11813407,-0.13056779,-0.34302625,0.21446711,0.45654058,-0.47192302,0.28407484,0.15233792,-0.16315036,0.04427432,0.2963926,0.08391327,0.34585047,-0.34045413,-0.3070259,-0.38923365,-0.047671165,-0.19158368,-0.0056477464,0.11320968,-0.24899437,0.27267984,0.12224277,-0.04177097,0.06013305,-0.082353525,-0.13730161,-0.686317,-0.008462486,-0.14289969,-0.03954768,0.25137705,0.2437955,-0.0610545,-0.12819596,0.010077669,-0.7434679,0.5825752,0.15221676,-0.14610888,-0.40352938,-0.31333768,0.31589335,0.38328177,-0.36494443,0.23878479,-0.117365055,0.336652,0.04268028,-0.41877487,0.64537156
hiểm trở,0.26912528,-0.75019115,0.61212856,-0.16272792,-0.049426615,0.37990752,-0.171363,0.039753873,-0.029099632,-0.27244675,-0.06278975,-0.62989974,-0.045413304,-0.23848645,-0.2547179,-0.29215917,-0.0070275688,0.29919374,-0.22486618,0.22691147,0.45175415,0.023855869,-0.44726318,0.22283697,-0.07307386,0.32218853,-0.032730762,0.050974935,-0.30733696,0.28843576,-0.10758968,0.081626564,0.32632408,0.76832664,-0.10917876,0.16052613,0.18580757,-0.5090819,-0.55344063,0.5368289,-0.5394539,-0.8777223,-0.3720071,0.045105938,0.11980101,0.26414344,0.27340898,0.0033605879,-0.0981466,-0.6805843,0.39620066,0.16206236,-0.24668895,-0.19261348,-0.21504198,-0.030309344,-0.06771281,0.020500192,0.120951265,-0.7892241,0.21120042,0.037838724,0.2299343,0.67972183
quanh năm,0.3269831,-0.75364965,0.2816431,-0.12788197,0.078196965,0.19196941,0.12354405,-0.2163899,-0.056989662,-0.23624384,-0.15735786,-0.6731753,0.17167494,-0.3180096,-0.06658068,0.043032974,-0.10175768,0.37186867,-0.34921154,0.4513846,0.30510876,-0.06704476,-0.2598627,0.10800579,-0.015331338,0.01444238,-0.30111873,-0.08300623,-0.23660949,-0.0058681034,0.11383212,0.19269373,0.13756052,0.77412695,-0.11279776,0.0874811,0.06798721,-0.49433812,-0.2974668,0.18854664,-0.3454562,-0.66082966,-0.2126372,-0.03032767,0.28603023,0.108515866,-0.037736733,-0.18408775,0.18756709,-0.52814496,0.38864547,0.014684221,-0.2119471,-0.23320052,-0.32366365,-0.076766625,0.15329811,0.075416364,-0.14105766,-0.5408923,0.37370953,0.05272224,0.124941714,0.4634564
khắc nghiệt,0.32139626,-0.62323993,0.37195116,-0.20713799,0.045492843,0.28867766,-0.06255437,-0.18371946,-0.13007271,-0.29254127,-0.009658508,-0.6898554,0.110899955,-0.31697193,-0.17923127,-0.19009137,0.04213406,0.3110661,-0.4039805,0.3419079,0.28173694,0.02057451,-0.23968267,0.2107938,-0.10071179,0.1385116,-0.21340676,0.021289088,-0.30501318,0.07514286,0.021746807,0.12227751,0.27119085,0.79312015,-0.2023365,0.08422556,0.06968113,-0.43731672,-0.4879617,0.3505323,-0.44641224,-0.7469981,-0.30702543,-0.030017147,0.24878001,0.30979773,0.16222647,-0.06479205,0.07492674,-0.6146904,0.38632783,0.063498944,-0.27590403,-0.18941669,-0.26412106,0.045344274,0.16669144,0.11213804,0.11714142,-0.68886274,0.27932677,-0.05109455,0.055514183,0.56403106
ngọn,-0.3366385,-0.1859107,-0.015846644,-0.084177144,-0.3588246,0.24530981,-0.2430945,-0.26377535,0.15366963,-0.004064048,-0.14405452,0.010263584,0.18861425,-0.14353801,-0.3504517,-0.4590031,-0.49722946,0.6796981,0.19631764,0.40845162,0.0652738,0.124989204,-0.035884164,-0.12269116,-0.07374957,-0.008592345,-0.32508042,-0.31035358,-0.33835423,0.040493008,-0.11218213,0.030440314,-0.6152103,-0.37103608,0.12843071,-0.22205193,0.548943,-0.08358856,0.030206671,-0.3694067,0.00041912388,0.19303697,0.23696889,0.25706446,0.29777166,0.4556185,-0.29379094,-0.39456835,-0.013658477,-0.20581557,0.48785466,0.1364277,-0.16845846,-0.16289902,-0.17008449,0.2419044,0.18667401,-0.2619081,0.108699255,0.23535256,0.24294418,0.23872305,-0.09486811,0.48665985
vẻ,0.4049782,-0.1502126,0.57621825,-0.4977142,0.060940422,0.085720904,0.06852244,-0.16270046,-0.33358073,-0.045790665,-0.33549193,-0.27494273,0.1704701,-0.21318759,0.39843047,-0.22265074,0.22057265,0.4479414,-0.723478,0.037326243,0.19797392,-0.18180314,-0.6541923,-0.18558724,0.21763258,-0.72770584,-0.17026372,0.36222786,0.15304151,-0.2622359,-0.12765805,0.1451221,-0.005935701,-0.19745192,0.21043791,-0.42341828,0.119605,-0.5230018,-0.2892058,0.39459142,-0.11540342,-0.24143127,-0.1449921,0.5315929,0.028145455,0.6460171,-0.2632082,-0.03960985,0.06807597,-1.0867618,0.52091944,0.12283471,0.016119016,-0.13920237,-0.64217144,0.022845991,0.057935946,0.041142564,0.17174987,-0.49170393,0.20042421,0.036394358,-0.19408852,0.6652534
trải,-0.07324966,-0.6153701,0.6701423,-0.39038083,-0.3419968,0.48152503,-0.31742853,-0.0048787394,0.572331,0.081273004,-0.11741176,-0.33999065,-0.26445517,-0.2928072,-0.9662807,-0.17320922,-0.3770823,0.47496423,0.1698082,-0.102376446,0.25456327,-0.45442706,-0.799561,-0.33560345,0.33617395,0.59773415,0.30183962,-0.26625508,-0.94118917,0.5930948,0.058514047,-0.4640202,-0.36490837,0.44918275,0.53452045,0.24078009,1.0032934,-0.34100562,-0.6137409,0.0035201202,-0.27934647,-0.5330498,0.086519085,0.5406209,-0.15911378,-0.10096115,-0.21531756,-0.19164525,-0.7541293,-0.22550763,0.3379759,0.6909129,0.0027443138,-0.12581265,-0.026391938,-0.20784292,0.03935147,-0.14573605,0.020316502,0.063885435,0.33329824,0.43492404,0.47292888,0.22089073
trắng,0.026647374,-0.6022459,0.647353,-0.37504935,-0.2696032,0.3828302,-0.3387464,-0.029966246,0.5969511,0.20290236,-0.29330054,-0.41116557,-0.24765407,-0.3911391,-0.97797215,0.012396772,-0.375859,0.54124194,0.14256991,-0.103213534,0.26219815,-0.70880216,-0.81354463,-0.4187536,0.40180328,0.30339882,0.28954524,-0.28746495,-0.9147868,0.59759796,0.22114018,-0.58318377,-0.43006715,0.35398063,0.56048113,0.21449856,1.0816519,-0.3303385,-0.5605558,-0.15185064,-0.23750414,-0.4389838,0.14425853,0.5946248,-0.09368173,-0.28572193,-0.28931,-0.31635818,-0.71714574,-0.29065835,0.34729773,0.614373,0.10357107,-0.21187998,-0.10085361,-0.49253136,0.11781972,-0.09128545,-0.18791384,0.09246271,0.36632487,0.6254212,0.58693475,0.06803212
dài,0.009817455,-0.49314895,0.67193264,-0.40179622,-0.24450864,0.49060392,-0.27255127,0.08998252,0.4736616,-0.05039223,-0.048122372,-0.45548275,-0.2339352,-0.1982242,-0.84005076,-0.25393572,-0.2914561,0.37577626,0.09626521,-0.15518336,0.288255,-0.37166718,-0.7072868,-0.24380426,0.30731344,0.74285865,0.26711148,-0.3088281,-0.8909363,0.57436997,-0.021809027,-0.38691077,-0.14837405,0.44200504,0.5107532,0.26202494,0.8039104,-0.35702994,-0.68014276,0.09029971,-0.4094917,-0.5389652,0.031801853,0.3955439,-0.16970095,-0.05623179,-0.07056346,-0.11059006,-0.66906303,-0.29641536,0.37352055,0.5960231,-0.09192603,-0.13306525,-0.030747412,-0.032178372,0.0880888,-0.23446535,0.1006033,-0.033792917,0.33686614,0.34193045,0.30598173,0.38420412
ngày,-0.13059969,0.068505704,0.30617708,0.34827867,0.07672716,-0.01322584,0.035126098,0.14387576,-0.48071647,-0.09076425,-0.361043,-0.3003744,-0.07219002,-0.20093426,0.17187566,-0.16976988,-0.13986275,0.65152454,0.14241041,0.10716987,-0.0020428,0.29586092,-0.1643989,-0.27016553,0.10050386,-0.109228924,-0.1872498,0.23661968,-0.16241787,-0.25458857,0.1502869,0.059737705,-0.1513073,-0.50824803,0.08786079,-0.102736205,0.041074287,-0.09906616,0.10337096,0.010652093,-0.01656882,0.65894395,-0.23417445,0.20205411,0.41862956,0.5734188,-0.09135193,-0.30877766,-0.1816671,-0.7070628,0.23157701,0.21164598,-0.29079178,-0.26482612,-0.24065006,-0.6800429,0.60055256,-0.39919788,0.26966792,-0.4697863,-0.51149976,0.43547657,0.16265458,0.15762585
dốc,0.17854889,0.16960907,0.2573324,-0.0028911068,-0.26938036,0.31803444,-0.4390404,-0.1854633,0.12963825,0.3614841,0.00903877,-0.26434654,0.34867334,-0.86560464,-0.16303805,0.12554383,0.6373665,0.8960239,-0.21550544,0.36113697,0.016813481,-0.35338295,0.35077375,0.43611357,-0.19499761,0.16955319,-0.17051546,0.07632364,-0.47993335,0.64186484,0.3226267,-0.26627737,0.037143502,0.45805606,-0.13987413,0.10570659,0.20418026,0.325368,0.08400354,-0.17392986,-0.32034662,-0.53836185,-0.1412594,-0.05067644,0.45258653,0.4891578,0.07647933,-0.36988676,-0.66572636,-0.23993647,0.18372135,0.25632533,-0.1491067,-0.408352,-0.5503507,-0.71848464,0.33148253,0.10501846,0.08915813,-0.33224273,-0.08023438,0.38741782,0.62376314,0.50953984
về,0.34782857,-0.42730558,0.5035254,-0.40674615,0.10596696,0.016129384,0.14466618,-0.22627674,-0.28081238,-0.2154196,-0.2840672,-0.4349543,0.18288198,-0.2723102,0.34712067,-0.18725719,0.019659255,0.3893041,-0.6755086,0.17749928,0.2694635,-0.10477536,-0.6227551,-0.13609481,0.20774935,-0.5465203,-0.24836443,0.2691519,0.119036205,-0.35539293,-0.12135182,0.2896961,0.047034163,0.07952234,0.19548742,-0.333553,0.021167997,-0.6503905,-0.29720086,0.33224362,-0.17338642,-0.28236598,-0.19401157,0.38424104,0.07172867,0.48065102,-0.278554,-0.066870965,0.25743666,-0.9984737,0.5094104,0.11396387,-0.04420864,-0.15524305,-0.56072354,0.040409207,0.05581318,0.068031356,0.06415963,-0.5364495,0.2617586,-0.036589403,-0.14202718,0.5677926
mốc,-0.23878565,-0.19557035,0.2775867,0.15197009,-0.25674057,0.5934621,-0.16112474,-0.44424447,-0.36162278,0.3176027,-0.38420597,0.39415908,-0.16664612,-0.800376,-0.42132226,-0.596564,-0.1956699,0.56604207,0.21935618,0.21366604,-0.24213864,-0.2424306,-0.49336177,-0.35618904,0.48955166,-0.38169658,0.024656266,0.36212304,-0.066873185,-0.31706083,-0.44094616,-0.17594267,-0.57351416,-0.32064608,-0.16185692,-0.26928067,0.3626274,-0.3324985,-0.03903986,0.08382444,-0.08184106,0.058916986,0.31915417,0.4547625,-0.14131348,0.6286632,-0.62512326,-0.34252748,-0.2600527,-0.7037766,0.15556751,0.9859244,0.1450949,-0.5221158,-0.43562388,-0.60348403,-0.25270218,0.036653265,0.05443715,-0.15726922,-0.50054306,0.37085354,-0.050671156,-0.27402937
sâu,-0.3507855,-0.019862786,0.21655013,0.32335398,-0.13492687,0.45612076,-0.3177009,-0.38471168,-0.28829858,0.2675198,-0.24835691,0.15036888,-0.124663346,-0.84817785,-0.52713656,-0.5232991,0.20084308,0.739345,-0.0064404304,0.3245809,-0.27475,0.07309947,-0.3380863,-0.18991312,0.156127,-0.32479405,0.039927892,0.73033994,-0.37306684,-0.30513006,-0.21435441,-0.38142464,-0.42418846,-0.10355047,-0.26108125,-0.14982384,0.21721825,-0.09148218,-0.093168125,0.12949665,-0.10834912,0.20494188,0.0011341574,0.2168922,0.05373146,0.7531261,-0.32784566,-0.23640293,-0.44794866,-0.7481668,-0.027385123,0.7225846,-0.2376166,-0.43132186,-0.27180225,-1.0629954,0.04683079,-0.062350012,0.14786777,-0.47111744,-0.88859373,0.3755781,0.2019597,-0.32876277
núi hoàng,-0.09762849,-0.39810437,0.5953354,-0.20021437,-0.46983778,0.5669091,-0.411862,0.39884174,-0.040916048,-0.16930406,-0.10965728,-0.3915319,-0.05001071,0.017155657,-0.6761638,-0.87256926,-0.15848619,0.35035402,0.3536443,0.00081745477,0.641618,-0.3127406,-0.2293074,0.51131076,0.22461797,0.22653188,0.1631592,-0.25077897,-0.24533424,0.37649417,-0.46749064,0.074567676,0.1398742,-0.15684809,-0.062846236,-0.06527036,0.2749798,-0.2383567,-0.52421296,0.456815,-0.56686527,-0.54527926,-0.2015625,0.014027147,-0.22328492,0.3358959,0.509069,-0.121796936,-0.16992222,-0.624234,0.34955716,0.00934066,-0.29453653,-0.24119899,-0.48514482,0.29911202,-0.40513518,0.037512556,0.07236792,-0.5304418,0.13440152,0.23754255,-0.013993346,0.9911671
bắt gặp,0.43114218,-0.19522357,0.16739924,-0.19348697,0.0800266,0.055227134,-0.20833066,-0.25026193,-0.054249518,0.12778316,-0.5755593,-0.48804832,-0.120267145,-0.3027198,-0.404274,0.061698433,0.15002754,0.5731118,-0.45636305,0.08347339,0.33217633,-0.6452863,-0.122182935,-0.06398302,0.1050401,-0.980489,0.000628844,0.035780244,-0.25577974,-0.041807234,0.47395143,-0.43972763,-0.29967505,-0.15460904,0.07804882,0.0068800217,0.57186043,0.16281001,-0.25844795,-0.13916248,0.2546932,0.037543558,-0.12069915,0.3125483,0.42560142,0.17438129,0.031544007,-0.3376213,-0.030400997,-0.67151886,0.34990183,-0.34123763,0.103019394,-0.2958218,-0.36209255,-0.59129626,0.35907367,0.25173917,-0.23790541,-0.36531803,0.18887396,0.37631133,0.12811007,-0.017552061
trong veo,-0.21986154,0.12762268,0.18839133,0.18610084,-0.047326844,0.29001695,-0.39982957,-0.2991962,-0.24581015,0.05030298,0.02824651,-0.02558011,-0.039161038,-0.7210013,-0.5806093,-0.5016639,0.5277299,0.518115,-0.40251297,0.26911578,-0.18397957,0.11782369,-0.20464234,0.033701085,-0.11326223,-0.40829682,-0.015638474,0.7316014,-0.31665888,-0.30092335,-0.17413989,-0.46348047,-0.14439388,0.1326957,-0.18924342,-0.07760471,0.121482134,0.02150628,-0.26497555,0.16147181,-0.46373016,-0.07946431,-0.24584399,0.01710831,0.05845501,0.51146156,-0.13333444,-0.09567864,-0.41827494,-0.8542161,0.06985095,0.46875578,-0.34395584,-0.29553032,-0.14476897,-0.88757706,0.056183364,-0.18182057,0.060030457,-0.5021341,-0.6599716,0.18147664,0.13633235,-0.25703317
vùng biên,0.1520027,0.07626582,0.5761819,-0.37338096,0.024771107,0.26490957,-0.1787439,0.11677455,-0.21092488,-0.21120973,-0.23049907,-0.45197576,0.04918792,-0.11084297,0.05386596,-0.5039603,0.29622942,0.26720825,-0.70267016,-0.1508169,0.34697425,-0.16729331,-0.59059703,0.018491372,0.14818582,-0.279503,-0.0021140934,0.10169171,-0.019336278,-0.18444666,-0.23661461,0.12028413,0.11393122,-0.059243504,0.40438998,-0.08651612,0.18063438,-0.28810588,-0.482167,0.46532428,-0.28787574,-0.3326647,-0.32874218,0.4069149,-0.21771896,0.6487436,0.27081594,0.07778472,-0.073799565,-0.801529,0.45813498,0.040553812,0.015214899,-0.027534751,-0.6184239,0.12429851,0.052754365,-0.051467218,0.37724665,-0.5535641,0.16981685,-0.10495165,-0.14911343,0.7292064
chiêm ngưỡng,0.05410644,-0.42219713,0.4024922,-0.25159976,-0.1505433,0.23930389,-0.2598643,-0.10152061,0.48638454,0.22619645,-0.2976783,-0.3673048,-0.20056166,-0.3603126,-0.8060241,0.16428436,-0.22820102,0.48163712,0.012777983,-0.03175491,0.19059049,-0.6357171,-0.5148664,-0.29666248,0.26869142,0.071657375,0.19427133,-0.17194714,-0.742565,0.44572818,0.3281838,-0.53777796,-0.41146016,0.2778751,0.46528292,0.22857817,0.8397358,-0.16981119,-0.36671904,-0.22144444,-0.072525695,-0.24134175,0.120537125,0.43428406,0.026155572,-0.25799674,-0.2622453,-0.285486,-0.5378153,-0.24917433,0.21452373,0.33787528,0.10907217,-0.18646929,-0.14140658,-0.58260876,0.15965049,-0.01563182,-0.25584662,0.082846634,0.25837713,0.57908344,0.5070157,-0.10512178
có thể,0.27315712,-0.3235898,0.22517918,-0.094865136,-0.0035893933,0.043727107,-0.30248162,-0.3821444,0.117570415,0.18067136,-0.5697009,-0.37095222,-0.14487135,-0.43960547,-0.50126046,0.17852418,0.056282323,0.6859975,-0.38267243,0.18143813,0.3059645,-0.60668284,-0.29555553,-0.16031529,0.074165806,-0.8797718,0.0368862,0.19037737,-0.37421653,0.07423785,0.47239447,-0.5220221,-0.43404886,-0.0058866637,0.11141919,0.02381976,0.6698021,0.11450389,-0.18622719,-0.21753845,0.27547833,-0.017596422,-0.045160078,0.39136413,0.41178295,-0.009807961,-0.1992193,-0.40975782,-0.20128547,-0.6077984,0.2833791,-0.112692095,0.13045643,-0.3655103,-0.25214285,-0.9020914,0.26462466,0.24758802,-0.35820174,-0.26879498,0.047294267,0.5519265,0.34637985,-0.2326935
đẹp,0.22396316,-0.108056106,0.34011805,-0.42054492,0.09820918,0.096871726,0.050538436,-0.17499006,-0.1656049,-0.13058676,-0.33217868,-0.36444357,0.2190819,-0.20686434,0.20685545,-0.18919076,0.16196464,0.4132519,-0.7832278,0.07203129,0.18170011,-0.21123227,-0.55474937,-0.22736837,0.25085044,-0.53946966,-0.21841235,0.15055391,-0.048553105,-0.31417918,-0.040229138,0.18763994,-0.09230579,-0.0541669,0.33864757,-0.2732864,0.0789648,-0.41991225,-0.2851181,0.2057584,-0.05271695,-0.16307335,-0.11864175,0.48904142,0.0022784027,0.53726184,-0.18216951,-0.059218876,0.1269293,-0.78750354,0.45582238,-0.0138085885,0.055411763,-0.040198345,-0.62126094,-0.0021763449,0.19337615,0.035798278,0.15718468,-0.37245873,0.22442397,-0.065625444,-0.2280458,0.5557552
viễn tây,-0.122008175,0.051877834,0.6931034,-0.21200316,-0.0689967,0.30277002,-0.33838743,0.21734092,-0.07127397,-0.34844217,-0.05778124,-0.4983107,0.019937523,-0.22922659,-0.093547076,-0.585225,0.22453764,0.3033993,-0.6824895,-0.06672324,0.51459795,-0.042130206,-0.6712701,0.23794776,-0.047172327,0.026606038,0.02984881,0.051985815,-0.09914312,-0.0313468,-0.32571286,0.21726465,0.21980995,0.17323127,0.45133656,0.115843095,0.24649188,-0.35067979,-0.5364633,0.5179886,-0.48188964,-0.5830487,-0.52882266,0.2992644,-0.2541836,0.64730793,0.4605325,0.06380927,-0.2209747,-0.6786346,0.49946144,0.107540905,-0.07015244,-0.029498827,-0.6138493,0.0636301,-0.077527545,-0.16335179,0.39497566,-0.6394317,0.15274048,-0.094842836,0.1152289,0.8109697
ý nghĩa,0.20763056,0.17905334,0.21091272,-0.29590672,-0.08085383,0.599183,-0.11616855,-0.15535817,-0.09826912,-0.12606223,0.025608338,-0.64658254,0.2054364,-0.38840505,-0.5046099,-0.24531408,0.40151685,0.3825482,-0.3811628,-0.065373674,-0.05666469,-0.4704696,0.14418837,0.13476713,0.4043273,0.47532827,-0.12540768,-0.41323686,-0.6749447,0.018404013,0.08882975,-0.19074342,0.052620713,0.35663489,0.01799072,0.25953627,0.085566774,0.071928546,-0.54463786,0.117559455,-0.46106258,-0.23944229,-0.08011399,-0.0899788,0.10146058,0.4778292,0.28434253,-0.020866867,-0.18152362,-0.3618102,0.2655003,0.117437094,-0.15823098,-0.2016494,-0.428605,0.14428739,0.51914763,0.020706259,0.37864918,-0.29002252,0.13939945,-0.0903777,-0.22096479,0.45561045
đá,0.071829334,0.10021409,0.11444127,0.10178941,-0.13708705,0.26600385,-0.35063833,-0.13499524,0.14597361,0.28971922,-0.0085382415,-0.34133598,0.37332174,-0.83980906,-0.12213,0.15402523,0.4613788,0.8629108,-0.1530615,0.41598633,-0.029619938,-0.2005339,0.34726954,0.31638828,-0.18930665,0.25345853,-0.24454808,0.035526365,-0.4865924,0.52147365,0.3787048,-0.14660639,0.015414229,0.4932284,-0.048656963,0.14415215,0.1366857,0.2249787,0.11509634,-0.25776806,-0.2573977,-0.42903075,-0.16853319,-0.10297534,0.39284888,0.4546182,0.072854124,-0.39192173,-0.5856239,-0.15887563,0.17108954,0.22376318,-0.20975386,-0.34262845,-0.52443,-0.7352321,0.47605085,-0.025967374,0.03746547,-0.28404,-0.17002869,0.38158077,0.6545147,0.46152657
chủ quyền,0.34584713,0.22617829,0.21332824,-0.33337063,0.12764679,0.6150418,-0.21397336,-0.13098489,-0.1444918,-0.06442156,-0.050476953,-0.8280688,0.20578694,-0.5992395,-0.54124993,-0.10627341,0.57342196,0.48343176,-0.6748674,0.009954557,0.027167035,-0.71746117,0.22093566,0.25210106,0.2860604,0.118876375,-0.14051335,-0.39824343,-0.7879213,-0.006251082,0.3043121,-0.2409385,0.13263746,0.4977014,0.052297976,0.31896523,0.1422224,0.11040911,-0.62522584,0.06600928,-0.48001257,-0.39546737,-0.2849845,-0.14124165,0.21003868,0.49297252,0.4344713,-0.119837984,-0.25992018,-0.49807292,0.3877871,-0.09898704,-0.17977507,-0.24374618,-0.6073137,-0.093194015,0.726206,0.13272029,0.29214263,-0.46502402,0.20993213,-0.04803921,-0.07047334,0.4175175
mây,0.018356366,-0.5399382,0.4764563,-0.2867231,-0.15676755,0.3523355,-0.27100074,-0.07526751,0.48916185,0.24289404,-0.32338235,-0.29484442,-0.28345048,-0.38822243,-0.85167634,0.067775145,-0.35159123,0.42764932,0.089918554,-0.090061806,0.18685322,-0.699907,-0.71382517,-0.3959383,0.41583952,0.06556815,0.2336403,-0.21031101,-0.72030413,0.42599303,0.22924481,-0.48704445,-0.45503816,0.2474719,0.51310194,0.16214295,0.9712201,-0.3045084,-0.4687885,-0.15832339,-0.14589249,-0.36034283,0.17211843,0.5452981,-0.102312975,-0.2457821,-0.3118255,-0.2635144,-0.58748,-0.29987723,0.3139634,0.5471399,0.20581056,-0.1719685,-0.17365003,-0.5063843,0.025482742,-0.04458728,-0.22434881,0.10515075,0.31468767,0.59708995,0.49888286,-0.09764606
địa hình,0.31779703,-0.68625337,0.5363224,-0.1929816,-0.117964424,0.39589527,-0.2275323,0.0914027,-0.06601181,-0.13160715,-0.014740022,-0.4596822,-0.11508377,-0.10212965,-0.3823752,-0.35613984,-0.022805536,0.23736386,0.060750008,0.15391731,0.47239965,-0.086772665,-0.2517539,0.3562271,-0.09929176,0.14523527,0.052879073,0.009101296,-0.16769369,0.37390232,-0.1450709,-0.0030290072,0.2896892,0.44728434,-0.24227773,0.028622929,0.22799714,-0.35344443,-0.4804851,0.5200153,-0.5328404,-0.83041775,-0.30330256,-0.05138619,0.13420968,0.19396545,0.2703672,-0.07061842,-0.16625886,-0.61241657,0.34411094,0.14186889,-0.19458844,-0.24624518,-0.18070321,0.072482154,-0.20846273,0.13184331,-0.010966662,-0.664477,0.23842126,0.16799444,0.15804045,0.6814323
khang su văn,0.13858742,-0.17875864,0.086036995,-0.13573717,0.14602599,0.14240581,0.023312999,-0.12860285,0.14324999,0.2578398,-0.32686698,-0.48389092,0.057198945,-0.4640865,-0.3723647,0.47601545,-0.1459295,0.5950658,-0.20045659,0.23170854,0.1131938,-0.7468566,-0.09828373,-0.15745363,0.27579758,-0.38967964,-0.2760277,-0.40555722,-0.5428123,0.18979894,0.61940116,-0.26651853,-0.38542104,0.05991308,0.3579637,0.07213565,0.46626693,-0.076957256,-0.111033514,-0.51183254,0.034731586,-0.16443148,0.0073029445,0.15269245,0.28363645,-0.07359964,-0.26697624,-0.47193885,-0.22019173,-0.31137246,0.3373233,-0.022934955,0.17149068,-0.18323666,-0.5606245,-0.470635,0.5776775,-0.04847829,-0.3849135,0.0032658603,0.39090067,0.5093372,0.45013744,-0.047099102
hòa quyện,0.037736326,0.4662893,0.17406629,-0.067249954,-0.25955448,0.21032529,-0.20362343,-0.23244609,-0.049817458,-0.39603335,0.21138732,-0.35094267,0.46672827,-0.33584067,-0.13139494,-0.27459463,0.34326184,0.47061577,-0.51995844,0.3721182,0.05795568,-0.10656187,0.18240434,0.33515736,-0.03947608,0.30902463,-0.3393072,-0.13790597,-0.37340704,-0.015863858,-0.0800208,0.025710752,0.11499499,0.06297273,0.14151411,0.1785148,-0.065544486,0.073460475,-0.10146946,-0.121351294,-0.6073166,-0.14026219,-0.24177521,-0.10001659,0.22956368,0.28140518,0.062481795,-0.11584471,-0.06937056,-0.608293,0.4405014,0.120779134,-0.23455141,-0.34418562,-0.2983013,0.033676196,0.35300058,-0.27834326,0.17568803,-0.20287813,0.17695025,0.02166704,-0.17906314,0.5525359
lai châu,0.24876074,-0.33300674,0.4408313,-0.10665506,0.030620452,0.3840752,0.1545654,-0.25392327,-0.43459588,0.051228486,-0.81468606,-0.01821634,-0.0009801525,-0.69459087,-0.04918353,-0.24943303,-0.2783881,0.4936641,-0.060909785,0.104991004,0.052923277,-0.70271,-0.6308257,-0.3705988,0.83653766,-0.8393507,-0.4156075,-0.029451076,0.18983693,-0.42381126,-0.16892073,0.22705726,-0.5045959,-0.29551315,0.13415278,-0.41064158,0.3172476,-0.6011262,-0.07488534,0.09964769,0.008206599,-0.12768695,0.15598603,0.78507024,-0.023918696,0.34564602,-0.677004,-0.45450914,0.01934035,-0.8271414,0.5346446,0.8038791,0.47887984,-0.46004027,-0.73139304,-0.2997705,-0.23103002,0.19849569,-0.02991404,-0.18768871,0.010319233,0.28909114,-0.08106845,0.11089056
gập ghềnh,0.2615633,0.10478696,0.13487668,-0.08234353,-0.08257583,0.3247049,-0.34080228,-0.23373887,0.13857773,0.4590522,-0.053785447,-0.35486767,0.3221511,-0.88172597,-0.30540884,0.310737,0.5454491,0.92354983,-0.2456613,0.40545654,-0.05935814,-0.547945,0.32442328,0.2603774,-0.08515676,-0.020021077,-0.19276257,-0.012870565,-0.58173543,0.54630727,0.53305256,-0.3992177,-0.085441075,0.50187933,-0.053212192,0.11274174,0.3093375,0.30061874,-0.001047421,-0.27816224,-0.2670256,-0.44241512,-0.057974476,-0.093162894,0.46330532,0.35498026,-0.048090965,-0.41526052,-0.62012595,-0.2531021,0.14577667,0.16891433,-0.12200184,-0.34673253,-0.62143666,-0.8463143,0.5255953,0.113700785,-0.103437014,-0.23375046,-0.009384338,0.44494513,0.63212985,0.30219913
79,-0.15443371,-0.21462625,0.24395254,0.14318965,-0.19251251,0.42811215,-0.05916898,-0.4074877,-0.3478287,0.3009864,-0.44493628,0.28733072,-0.11841956,-0.76604575,-0.21367009,-0.47618866,-0.35880977,0.53360814,0.31457746,0.17168981,-0.20050175,-0.24544348,-0.46000177,-0.44700053,0.5233756,-0.3148008,-0.06653813,0.20739871,-0.032660183,-0.29850042,-0.31194928,-0.020907452,-0.567107,-0.33202586,-0.02563396,-0.24893937,0.33422938,-0.39628342,0.017179497,-0.056993343,-0.08600633,0.14379655,0.35444182,0.53303164,-0.10027922,0.47115526,-0.7046315,-0.3821515,-0.19072522,-0.65293425,0.24105017,1.0177336,0.18937369,-0.5333702,-0.45314425,-0.5903426,-0.15540117,-0.06167017,0.026153272,-0.057111114,-0.39540264,0.41610566,-0.029577624,-0.21888901
thuộc,-0.19659768,-0.46678686,0.48561114,-0.18462221,-0.5989226,0.6863958,-0.31152624,0.3584025,-0.15203165,-0.061823994,-0.24449177,-0.2867946,-0.04254712,0.09046781,-0.73893374,-0.9676151,-0.3830228,0.49452022,0.77822644,-0.03162192,0.5997243,-0.3313915,-0.008298673,0.40668672,0.4594327,0.32733843,0.1271236,-0.39928383,-0.32915515,0.3482678,-0.45859897,0.22406465,-0.029520364,-0.41836166,-0.12870601,-0.12691945,0.3095374,-0.16621476,-0.3815533,0.23165005,-0.4828042,-0.2713061,0.030921625,0.087246835,-0.1427687,0.4113773,0.33549026,-0.27461964,-0.18403082,-0.57722586,0.43195033,0.047990914,-0.2953679,-0.32017627,-0.44434106,0.29372802,-0.37402254,-0.060548447,0.089470744,-0.29926786,0.052845288,0.3400162,-0.16871993,1.0204426
dành,-0.23597564,0.38014823,0.43708816,0.10566944,-0.47367018,0.0063400334,0.0024074852,0.015635662,-0.057540994,-0.5034692,0.15504634,-0.13614166,0.36803985,-0.08757149,-0.12900364,-0.3648935,-0.040539622,0.5328055,-0.10539558,0.6159703,0.22164328,0.07297634,-0.08884909,0.22656427,-0.10190979,0.52324784,-0.4033195,-0.0050131236,-0.3227799,-0.07873017,-0.2778071,-0.1268846,0.096042074,-0.21136296,0.28868893,0.0010636603,-0.07645303,-0.10948256,0.08193658,-0.16758741,-0.7818932,0.15984069,-0.16211036,-0.25668606,0.37008744,-0.1594082,-0.31415227,-0.19796954,0.016606554,-0.7251618,0.2576255,0.30996433,-0.43910244,-0.56036097,-0.21643625,-0.20580362,0.12665516,-0.46584094,0.016420137,-0.21362172,0.24355143,0.1402056,-0.20915377,0.2278889
nối tiếp,-0.037567124,-0.13239287,0.26134416,-0.28086928,-0.14985867,0.14712475,-0.20528759,0.24679872,0.2358312,0.13103747,-0.23919094,0.007533669,0.09968221,0.38022244,-0.4130028,-0.5449225,-0.39840674,0.71398914,0.4366986,0.32565948,0.21843328,-0.007817358,-0.15209617,-0.059482846,0.037597805,-0.022826513,-0.020653356,0.17734371,-0.15452996,0.17782691,-0.1282165,-0.08938799,-0.3331361,-0.31415966,0.11201068,-0.2912678,0.13566388,-0.17856309,-0.15212439,0.11065987,-0.2988207,0.37803277,0.18080108,-0.15101638,0.15170446,0.1094128,-0.27163008,-0.21559767,0.16585425,-0.792354,0.23865789,-0.22982047,-0.5699438,-0.282518,-0.26413253,-0.17275812,-0.18232617,-0.379142,-0.23984373,-0.1255227,0.13361962,0.4489014,-0.28144744,0.5768037
liên sơn,-0.06483479,-0.509978,0.61741143,-0.1095296,-0.39894536,0.5341245,-0.36546338,0.35631987,-0.06008537,-0.10316634,-0.0861817,-0.30144972,-0.14985026,0.014602414,-0.5152564,-0.78321755,-0.18314047,0.33273545,0.4169999,0.04499109,0.61193705,-0.10131173,-0.2535317,0.46012104,0.057521872,0.3293369,0.1749128,-0.13286275,-0.17503175,0.47214833,-0.41551867,0.13278702,0.18742858,0.010316528,-0.14349188,-0.025344715,0.26786706,-0.28383583,-0.41660812,0.46465617,-0.5431604,-0.6214305,-0.22545989,-0.0065831672,-0.09854695,0.3185442,0.43668893,-0.09738732,-0.24334955,-0.5729996,0.3673501,0.10450868,-0.26398873,-0.27600586,-0.32776186,0.18169692,-0.43071938,-0.022314318,0.111823976,-0.5775227,0.07106781,0.21574365,0.11274646,0.9004731
băng,-0.2513742,0.07513492,0.23631474,0.33116856,-0.030926751,0.06519698,0.032229632,0.08998633,-0.42985907,-0.21384712,-0.25912625,-0.32419705,0.051377162,-0.30818993,0.05922675,-0.3064078,-0.11939731,0.64856184,0.17651722,0.25843447,-0.109952055,0.35368106,-0.13018951,-0.2892775,0.16320379,0.16388944,-0.25407782,0.24782033,-0.342238,-0.40189382,0.038825426,0.0370509,-0.15636514,-0.3470778,0.012972427,-0.014124734,-0.03861993,-0.13427067,-0.024871951,0.029934037,-0.15689272,0.6998368,-0.18758714,0.060314972,0.39376202,0.51703966,-0.117938355,-0.2729537,-0.1009739,-0.70071673,0.16410187,0.27316108,-0.4416263,-0.34543154,-0.15400651,-0.6437107,0.597501,-0.45723107,0.31848088,-0.45419255,-0.4775692,0.26888347,-0.035428263,0.05389365
con,-0.22393946,0.30658108,0.24511126,0.09429367,-0.19811085,0.42914715,-0.32729003,-0.217358,-0.2603184,0.12588905,0.3036768,0.080560274,0.05590389,-0.5864142,-0.5574936,-0.47191754,0.5114369,0.5133172,-0.17012809,0.3367351,-0.25771698,0.10793302,0.071554154,0.22905363,-0.15039921,-0.016042646,-0.06183743,0.4828129,-0.42205685,-0.025007628,-0.20960785,-0.54243255,-0.023500996,0.055829402,-0.22484095,-0.091583475,0.049288817,0.08750039,-0.17364465,0.085677974,-0.7444063,-0.080695786,-0.16482678,-0.28167027,0.1789641,0.51961696,-0.090744756,-0.113307185,-0.49133497,-0.771817,0.0687753,0.45736966,-0.39685678,-0.3886023,-0.119197585,-0.536951,0.08851972,-0.2800973,0.14076267,-0.3669051,-0.437247,0.18991469,0.07799671,-0.09694022
biển,-0.0866361,-0.55068713,0.44070917,-0.32737017,-0.23694023,0.31142876,-0.1332317,-0.075335555,0.48925292,0.12979057,-0.3243268,-0.39054215,-0.123770125,-0.33264405,-0.7836097,0.13410693,-0.42130142,0.43060908,0.10980041,-0.04808311,0.18325509,-0.6666206,-0.6668242,-0.35918903,0.5271082,0.26522282,0.118236884,-0.31312737,-0.7657388,0.38593495,0.1956944,-0.355564,-0.4356836,0.3194891,0.5676604,0.15001729,0.8450246,-0.37693158,-0.40044433,-0.22765322,-0.17378147,-0.3173683,0.21652144,0.5363953,-0.13991886,-0.31455874,-0.34020314,-0.24399664,-0.42346466,-0.21840842,0.29357538,0.47426948,0.13193044,-0.12746549,-0.23262939,-0.39834267,0.035956264,-0.028955925,-0.23860994,0.17293921,0.3745491,0.531779,0.42852598,-0.0168333
phong phú,0.35373807,-0.12497905,0.310348,-0.1717799,-0.03350089,0.016981544,-0.30798787,-0.33348173,-0.03713941,0.18276909,-0.5707797,-0.18975894,-0.18955852,-0.3521724,-0.37132096,0.030042589,0.23290929,0.64735734,-0.42497286,0.025626931,0.27016196,-0.57435334,-0.33504665,-0.1493514,0.094062135,-1.0738391,0.079608254,0.37436712,-0.2043774,-0.05126133,0.3244281,-0.54876006,-0.37144032,-0.33281147,0.061284978,-0.09825463,0.59923214,0.1532197,-0.18997727,-0.054777928,0.3237567,0.11960423,-0.07759587,0.46784487,0.41479054,0.21173654,-0.16440512,-0.29957592,-0.16535324,-0.7824291,0.2974172,-0.11870608,0.14728498,-0.33098826,-0.25134492,-0.7987545,0.16320853,0.27987188,-0.14741278,-0.38046947,-0.035213564,0.5015626,0.20811903,-0.19852729
sẽ,0.03356943,-0.30826735,0.21778335,-0.165864,-0.11308039,0.08482101,-0.1270463,-0.07035238,0.35845563,0.26673627,-0.28573787,-0.34570944,0.006814245,-0.3019808,-0.55292714,0.33875492,-0.2880872,0.5489224,0.03548507,0.21049462,0.14332542,-0.53677475,-0.26098967,-0.24330902,0.208201,-0.08324904,-0.048090827,-0.27304038,-0.6253107,0.3127403,0.4643372,-0.37149477,-0.41808173,0.11571292,0.42383796,0.15180776,0.6569896,-0.11481842,-0.115927465,-0.41066772,-0.060816,-0.06118347,0.15194157,0.23454623,0.2042374,-0.2556719,-0.27946994,-0.40799204,-0.29205626,-0.22801088,0.25126022,0.05815063,0.038353764,-0.20895426,-0.29721054,-0.56389695,0.32924598,-0.114560984,-0.38438633,0.1372751,0.37276557,0.5880299,0.43554926,-0.04925521
huyện,-0.03273729,-0.38362026,0.27789918,-0.02945311,0.029611282,0.4733632,0.16196644,-0.29033476,-0.2272348,0.14776592,-0.7448181,-0.034021832,0.051096097,-0.85444534,-0.25987345,-0.09724329,-0.3754321,0.4716229,-0.012958296,0.18363619,-0.05818467,-0.77785116,-0.6856767,-0.45256636,0.96117944,-0.6624943,-0.4416371,-0.1494357,-0.031786326,-0.38183087,-0.086181074,0.2627788,-0.6856023,-0.12747638,0.28547218,-0.30681956,0.38044882,-0.6984558,-0.09179313,-0.117687054,0.042428557,-0.22829114,0.20746326,0.72810996,-0.11815287,0.24773277,-0.7252124,-0.53105175,-0.03406812,-0.5585386,0.4956266,0.8651596,0.52260995,-0.3877319,-0.8265583,-0.40999416,-0.18626118,0.112734556,-0.19841087,-0.01605422,0.05523003,0.3524896,0.08205971,-0.08030328
hùng tráng,0.24856667,0.011572738,0.61999494,-0.42512017,0.0071255965,0.24286164,-0.14047767,-0.013332168,-0.31500378,-0.17145476,-0.2771835,-0.39777708,0.082183994,-0.32916436,0.19565408,-0.42960957,0.35267952,0.2984361,-0.86256784,-0.15561554,0.29691753,-0.3538892,-0.61880434,0.015776953,0.23903474,-0.564881,-0.13357016,0.12545769,0.11246338,-0.27285698,-0.29415756,0.20966293,0.039804522,-0.1382325,0.36044747,-0.23158549,0.17259,-0.42940032,-0.4366698,0.48263773,-0.327457,-0.45194367,-0.2864826,0.5328064,-0.18657577,0.7654959,0.10669031,-0.0044691674,-0.04850637,-0.8947661,0.5604932,0.13178894,0.14557272,-0.04544153,-0.77964044,0.18638676,0.015213554,0.08219163,0.3549008,-0.5794316,0.24423616,-0.15297261,-0.16653529,0.7552739
tỉnh,0.09373116,-0.4130353,0.32493058,-0.027024899,-0.014863452,0.39316332,0.12239926,-0.30225307,-0.37189832,0.08265204,-0.7070574,0.03792935,-0.02926807,-0.6384305,-0.11043886,-0.33919975,-0.32706812,0.4957371,-0.0019998788,0.15150541,-0.019050777,-0.45111775,-0.63295525,-0.42212835,0.7539033,-0.63973355,-0.31063333,0.107966326,0.12031356,-0.44950378,-0.2250515,0.22757271,-0.52683145,-0.20649815,0.08058215,-0.38666624,0.26972067,-0.6471248,-0.109970555,0.07676016,0.010781951,-0.04746776,0.22867015,0.6769805,-0.06412079,0.37805843,-0.6491037,-0.373228,0.06256029,-0.74818075,0.41365293,0.7192402,0.31518373,-0.41429457,-0.6270612,-0.34290844,-0.25845224,0.12587883,-0.0745951,-0.18837748,-0.08861327,0.2481568,-0.12146062,0.06635351
bắc,-0.22905366,0.14602935,0.54599935,-0.0061993636,-0.1488512,0.3735356,-0.39682823,0.22692427,-0.08730181,-0.36385322,-0.04168385,-0.46661875,-0.028196143,-0.27924016,-0.31249964,-0.58974147,0.20816635,0.27045217,-0.52623326,-0.021351686,0.4169825,-0.077551596,-0.45113975,0.35960588,-0.02303363,0.17991927,0.0313992,-0.026709326,-0.18726368,-0.053627003,-0.3138595,0.080751,0.20566458,0.22037745,0.33943504,0.2532008,0.22363162,-0.16758329,-0.4957916,0.41953385,-0.54042405,-0.4020533,-0.44554088,0.10604324,-0.21517663,0.5197546,0.55171293,0.006750335,-0.19076903,-0.5589502,0.317702,0.060959212,-0.13524206,-0.1363298,-0.5354069,-0.046401005,0.006246392,-0.14085928,0.34849474,-0.59617203,0.012272468,-0.03945511,0.07675995,0.5999367
khó khăn,0.024927858,-0.04245818,0.30649468,0.10232241,0.09138187,0.032060817,-0.25087944,0.40486556,0.061776105,0.24642546,-0.09312236,-0.1889138,-0.055769563,-0.25775918,-0.10978327,-0.16857779,-0.42119846,0.8769138,0.6890001,0.06746341,0.18237725,-0.103111066,0.21714245,0.040819675,-0.39607936,0.029366046,-0.16257474,-0.23844564,-0.3040608,0.830849,0.48183963,-0.1573926,-0.06825821,-0.60537684,0.2708524,-0.085398845,0.44444507,0.04202786,0.1505818,-0.55704033,-0.47962576,0.022180583,-0.19020519,-0.07370296,0.40156406,0.2107876,-0.10270461,-0.64690274,-0.737931,-0.6741894,0.56355244,0.20131043,-0.36308998,-0.29847363,-0.23126006,-0.39784223,0.4883957,-0.8575602,-0.18499063,-0.19847585,0.04470166,0.9983561,0.74259406,0.6894028
mét,-0.09309651,-0.06094047,0.25851446,-0.06062217,-0.3663741,0.4589794,0.12861103,-0.14348176,-0.55286396,-0.014770859,-0.27698478,-0.06016346,0.06794296,-0.21055672,-0.11335063,-0.5528787,-0.37460014,0.50726,0.32253832,0.08095452,-0.094741344,-0.14012316,-0.08519802,-0.15542443,0.52114505,0.088651784,-0.3382364,-0.3189674,-0.12502266,-0.3468995,-0.38258517,0.18176769,-0.31511334,-0.533649,0.09514394,-0.3023285,0.1773123,-0.32865322,-0.057914305,-0.010141453,-0.31238154,0.30251452,0.3160763,0.243566,0.10113829,0.60311896,-0.27749768,-0.3325755,0.1140571,-0.44185865,0.27457777,0.49916327,-0.014434549,-0.4449706,-0.44730577,0.24645434,0.027437806,-0.079509795,0.23708986,0.011253921,-0.009886624,0.08943397,-0.4318217,0.31986144
vô tận,-0.035323318,-0.5971265,0.82345176,-0.3475463,-0.29557958,0.49604666,-0.35377836,0.15689133,0.470622,-0.048065875,-0.051499058,-0.36327133,-0.33701172,-0.22080155,-0.87467885,-0.37352628,-0.36777773,0.42124465,0.20701736,-0.2053504,0.36017147,-0.3362573,-0.89947414,-0.28093773,0.20985958,0.78378856,0.3733204,-0.2540926,-0.83202124,0.6583135,-0.06734406,-0.44363916,-0.17091887,0.40540022,0.54672,0.24438827,0.9388684,-0.39754194,-0.7044708,0.17881906,-0.48315328,-0.6118554,-0.041755676,0.47404426,-0.1956106,-0.09534307,-0.06735494,-0.13974401,-0.8156299,-0.3584642,0.39310408,0.7652623,-0.11250739,-0.14237833,0.07847916,-0.13535029,0.0076806718,-0.28029147,0.14124648,-0.12626602,0.30288318,0.3752073,0.44966036,0.40137288
đặc biệt,-0.22807822,-0.060965367,0.24534012,0.22236338,-0.25627005,0.58756095,-0.1854798,-0.48658544,-0.36559457,0.28964263,-0.25090593,0.34546813,-0.106839366,-0.8962117,-0.38530278,-0.61651057,0.02415425,0.5625747,0.110388964,0.25959808,-0.2614757,-0.14419359,-0.39790013,-0.22547947,0.4091322,-0.27132934,0.04952435,0.5281764,-0.11061633,-0.3515867,-0.4338107,-0.1934172,-0.45918566,-0.1658505,-0.24135113,-0.2330324,0.221433,-0.25100848,-0.06494207,0.12701075,-0.15958482,0.03263862,0.24411038,0.35203132,-0.14053635,0.67721057,-0.5489343,-0.24910738,-0.27557597,-0.7395138,0.0795804,0.98111355,0.034053322,-0.54192203,-0.41047707,-0.73185545,-0.22677594,0.062025618,0.13156696,-0.2605182,-0.65470886,0.30584723,-0.063294746,-0.29137757
so,0.1965318,0.010829279,0.17497586,-0.28049287,-0.36575615,-0.004833601,-0.39227557,-0.45839256,-0.04676165,0.049582087,-0.7009296,0.1202496,0.13887902,-0.3018523,-0.10859601,-0.6357611,-0.16585325,0.784246,0.06418714,0.15061438,0.2593851,-0.35110074,-0.12198645,-0.2134887,0.21716645,-0.670582,-0.1417702,0.04446446,0.1907756,-0.18298951,-0.1986693,0.012567156,-0.6118,-0.51920354,0.11531953,-0.29372695,0.42475605,0.09625953,0.13367738,-0.27963558,0.07274233,0.31792685,0.37758842,0.62126786,0.31300035,0.09618156,-0.4858621,-0.36264968,0.20325883,-0.82781255,0.6277283,0.26655763,0.0780349,-0.5456447,-0.35534647,-0.37419823,-0.29292715,-0.024584938,-0.13363414,0.06517031,0.15998611,0.33454043,-0.5205742,0.24558337
vượt,-0.07599082,-0.112116255,0.33509296,-0.18493444,-0.05864794,0.127217,0.06538989,0.12738088,-0.13582832,-0.07505618,-0.27430388,-0.19524905,0.2427011,0.2714417,0.03759609,-0.45602888,-0.31267637,0.68089265,0.028446512,0.23163348,0.06503915,0.47709888,-0.34126186,-0.26053584,0.100246675,0.21549647,-0.11967224,0.21573995,-0.20070373,-0.12270352,-0.027551003,0.050484505,-0.1730712,-0.08663933,0.20522247,-0.2644394,0.052316044,-0.25843906,-0.20335448,0.21661682,-0.15466106,0.4318361,0.18802658,0.18553995,0.18510611,0.647276,-0.20132981,-0.058981124,0.16714658,-0.82547474,0.21628442,-0.08305003,-0.4357424,-0.12733822,-0.24701783,-0.06477387,0.23904839,-0.48657972,0.22776662,-0.20010562,-0.10547179,0.18075049,-0.38733312,0.7535252
biểu tượng,-0.4236752,-0.10184418,0.12053058,-0.088248715,-0.05362598,0.13374363,0.06556665,-0.17546979,0.27882951,-0.3845802,-0.26455227,-0.4774394,0.51081854,-0.33989498,-0.18581258,-0.04732022,-0.20349145,0.5372971,-0.3542511,0.37362948,0.24679847,-0.15067004,-0.44274086,-0.1388634,0.3911776,0.3605354,-0.36211538,-0.29028246,-0.4781801,-0.16974433,-0.08430181,0.43755075,-0.19372478,0.38487145,0.5058381,0.09483234,-0.07256686,-0.47027594,-0.064950235,-0.30424893,-0.17073846,-0.14554282,-0.0043900223,0.10109841,-0.10562324,-0.031316984,-0.1379162,-0.18459736,0.28559676,-0.31207225,0.3499915,0.0042077987,-0.1463477,-0.0864412,-0.5891382,-0.1598299,0.06800789,-0.19202167,-0.12341816,-0.029925097,0.2500205,-0.0254176,-0.07212513,0.38538435
hệ sinh thái,0.13051037,-0.15557918,0.17955756,-0.0026113798,-0.07774797,0.10764869,-0.3506956,-0.30551663,-0.0072874385,0.099237055,-0.5847534,-0.3027908,-0.27407753,-0.35343367,-0.6796152,-0.091754794,0.039239306,0.62523085,-0.23650742,0.08705033,0.22080033,-0.45098296,-0.2579762,-0.2372764,0.120605186,-0.82252896,0.14767957,0.29582623,-0.43280685,-0.17173073,0.32231486,-0.643158,-0.4529813,-0.2671892,0.067971125,0.06333425,0.6955816,0.2454146,-0.2646548,-0.1316232,0.32379836,0.33908114,-0.041493483,0.3801629,0.36518198,0.11459758,-0.08809911,-0.34125185,-0.16303687,-0.65707374,0.13466765,-0.10238458,-0.0013029842,-0.34761572,-0.12554441,-0.9302157,0.296869,0.16098309,-0.158343,-0.30260286,-0.20828938,0.50622565,0.14676932,-0.38291627
thiêng liêng,0.13691789,0.28688926,0.27140442,-0.36693722,-0.4229812,0.51604265,-0.09522118,-0.14463842,-0.16144474,-0.11638934,-0.07195774,-0.23514886,0.18992108,-0.062179167,-0.3725478,-0.534555,0.17349543,0.4138022,-0.10726997,-0.06532702,-0.014851473,-0.30671078,0.10844364,0.045294665,0.3936041,0.3433439,-0.12660567,-0.3674055,-0.4320027,-0.0115474025,-0.20129992,-0.20314735,-0.14396547,-0.301336,0.12273581,-0.009081847,0.22455938,0.13423823,-0.3242717,0.10424029,-0.38871714,0.10420151,0.15052119,0.1581034,0.12451248,0.5333385,0.07587862,-0.049726196,-0.05826729,-0.42082343,0.28485453,0.22182813,-0.07453385,-0.28598076,-0.30253798,0.39403498,0.18548146,0.02049149,0.38076732,-0.0376897,0.24462168,-0.06923599,-0.50985706,0.51268554
cho,-0.31177348,0.37221467,0.38480437,0.1541928,-0.28445435,-0.049740355,0.07452092,0.06317765,-0.06456104,-0.4336574,0.19664156,-0.12379754,0.24096715,-0.28618348,-0.033933554,-0.16588365,0.05752236,0.41920882,-0.20826149,0.51707983,0.17756279,0.08853315,-0.2287635,0.15400274,-0.25255063,0.28555217,-0.30280513,0.06359481,-0.2709884,-0.012879204,-0.16409309,-0.20180546,0.126653,-0.17992623,0.36579168,0.011417351,-0.0051555084,-0.1633255,0.132309,-0.2742935,-0.7552279,0.036686074,-0.3072212,-0.25921986,0.3309244,-0.16014436,-0.27570444,-0.23457439,-0.20306505,-0.6768932,0.25363022,0.39169684,-0.2661371,-0.45111868,-0.22169065,-0.32549918,0.19234367,-0.5513906,-0.026968325,-0.19911489,0.122919045,0.1737498,0.08877773,0.01796329
gọi là,-0.22349758,-0.27152488,0.10624759,-0.0140433395,0.0669064,0.32051304,0.33693802,-0.2697663,0.062128298,0.033893168,-0.36874038,-0.15633374,0.20546883,-0.6614496,-0.33207595,0.23585103,-0.26068404,0.38717076,-0.20138536,0.3238669,-0.111899525,-0.60879743,-0.6160007,-0.38170415,0.79103005,-0.11422259,-0.44364125,-0.29829115,-0.36112526,-0.34364545,0.005199196,0.14227909,-0.48838085,0.21521197,0.41278273,-0.10866657,0.13980089,-0.7059789,-0.06492826,-0.26934367,-0.19427685,-0.23572442,0.16455601,0.31191793,-0.18516846,-0.07434088,-0.6790386,-0.33434787,-0.026266087,-0.30686244,0.3188576,0.6536641,0.2812587,-0.19716527,-0.6490037,-0.3015401,0.045538288,-0.048686426,-0.30841842,0.11975561,0.17977343,0.2488935,0.14489971,-0.18284544
giữa,-0.35381913,0.045107152,0.1787101,0.24830772,-0.16020985,0.43543375,-0.33840498,-0.363496,-0.23510896,0.25540724,-0.06789847,0.20084406,-0.07767151,-0.8328769,-0.6364592,-0.45914087,0.34990063,0.6569694,-0.1537362,0.39004627,-0.35370559,0.06125855,-0.29476646,-0.11590571,0.09993045,-0.37365904,0.0051795878,0.74732953,-0.36110136,-0.2863657,-0.23040591,-0.48182282,-0.36195165,0.06818821,-0.2480697,-0.18943946,0.17534378,-0.09248317,-0.15715103,0.14912687,-0.31337592,0.014216405,-0.024819776,0.10319574,0.028123463,0.6366429,-0.38304943,-0.21142432,-0.45136404,-0.75897455,-0.015941896,0.6812414,-0.27567437,-0.34387994,-0.22300147,-0.95062697,-0.024871727,-0.08493927,0.039038215,-0.3785293,-0.7360594,0.30768102,0.17297608,-0.3440866
nhiều,-0.088983715,-0.014639811,0.108924,0.17311351,-0.11534627,0.43711305,-0.36295697,-0.15780288,0.11869802,0.14357464,-0.05392227,-0.49018607,0.3339368,-0.9935554,-0.22856817,-0.076161064,0.528467,0.8081519,-0.27754974,0.30990744,-0.09411811,-0.05922894,0.1371081,0.25007322,-0.026575832,0.41149512,-0.10130351,0.15620829,-0.5965175,0.24092416,0.18209022,0.054960992,0.09242417,0.7694365,-0.20472181,0.24832584,0.06814457,0.11819634,-0.13831416,0.04474852,-0.22052932,-0.48233655,-0.25213218,0.011568806,0.13835792,0.7881285,0.33756572,-0.18324482,-0.5925104,-0.08863072,0.0675446,0.31585553,-0.2889847,-0.1857187,-0.5055875,-0.7653091,0.4467344,0.08187717,0.35636127,-0.55932146,-0.5134486,0.12134443,0.5761647,0.5450493
nhưng,-0.041036837,0.0860008,0.28363585,0.24444267,0.059016217,0.042481255,-0.27666846,0.31575704,-0.10868932,0.26598746,-0.090927,-0.1352182,-0.03381566,-0.47288927,-0.0612609,-0.29887256,-0.3423406,0.9420898,0.7210248,0.06455592,0.04678892,-0.024521839,0.28393146,-0.055641763,-0.3205991,0.0013562521,-0.23689307,-0.10839305,-0.2774261,0.64142835,0.36964342,-0.13144583,-0.13800697,-0.7088902,0.19024518,-0.10416644,0.3558128,0.07528636,0.20297015,-0.5697319,-0.5371328,0.23698947,-0.18245621,0.013954835,0.41668802,0.36195076,-0.15273441,-0.6545516,-0.79246366,-0.8280646,0.5541918,0.40788937,-0.37279376,-0.41242424,-0.20578054,-0.591511,0.52373475,-0.927329,-0.109754734,-0.20129915,-0.21683322,1.0210344,0.6620689,0.54196477
đèo,-0.04681375,0.08509563,0.14089487,0.11862291,-0.1804416,0.38069728,-0.4200473,-0.249542,0.12370956,0.24359602,0.013311132,-0.2911865,0.3434047,-1.0128416,-0.2710783,0.015458416,0.62748474,0.89616627,-0.29697922,0.4261242,-0.11756027,-0.15355451,0.22359811,0.28457883,-0.14223643,0.23110923,-0.18049926,0.2343802,-0.565283,0.39241293,0.20722494,-0.18879327,0.0021971746,0.63005036,-0.19597514,0.14180878,0.11079341,0.20617981,0.011049926,-0.12764518,-0.28873056,-0.5012127,-0.18531743,-0.051181737,0.29558396,0.63069063,0.10230554,-0.30221385,-0.65873283,-0.20745891,0.089953214,0.3423409,-0.22821656,-0.30630854,-0.5310339,-0.8729315,0.35477057,0.08263666,0.18634696,-0.42994124,-0.36173332,0.25675264,0.6257322,0.3711907
nhau,0.06234679,-0.04108703,0.34638613,-0.2935644,-0.122655965,-0.024281394,-0.20001934,0.1101166,0.217667,0.09320011,-0.26702398,0.02462123,0.24683686,0.3236473,-0.18783535,-0.49801382,-0.31835806,0.83712167,0.1960725,0.38298824,0.17384446,0.07165693,-0.2086304,-0.05691403,-0.040708423,-0.068715386,-0.11619152,0.30243498,-0.04936043,0.14657654,-0.096907616,-0.089548476,-0.29120547,-0.26064008,0.172287,-0.41561487,0.07674747,-0.15785074,-0.026757916,0.050797246,-0.22680078,0.39228326,0.24945334,-0.05279959,0.28348002,0.07984619,-0.45017266,-0.22449736,0.26482114,-0.9135851,0.24354908,-0.24159995,-0.53929967,-0.30499092,-0.3251871,-0.22417556,-0.14426172,-0.33852935,-0.25633398,-0.09832569,0.2478745,0.36227816,-0.33329168,0.63527715
tinh thần,-0.4661445,0.08964841,0.22512813,-0.03652271,-0.11534488,-0.008394488,-0.08059717,-0.13059078,0.27703646,-0.5493763,-0.22843936,-0.40137962,0.52271235,-0.46295506,-0.013996917,-0.21600896,0.011958904,0.5934658,-0.55274343,0.29346466,0.24214157,0.15347084,-0.60798806,-0.1506639,0.24786292,0.41131505,-0.2647104,0.056257907,-0.41597235,-0.2647112,-0.21659613,0.4458731,-0.0787082,0.39406198,0.5427104,0.14095065,-0.11378198,-0.3989247,-0.062080663,-0.20879003,-0.07891604,-0.063271165,-0.20045644,0.31310692,-0.150707,0.14735204,-0.07075713,-0.023483898,0.14600357,-0.40087792,0.29618886,0.18765911,-0.2338369,-0.052309874,-0.41555858,-0.4182866,0.031163782,-0.25073448,0.1718477,-0.17638952,-0.0739203,-0.13806012,-0.03220448,0.33548468
yêu,-0.77748626,-0.068581015,0.17009644,0.22853528,-0.12688373,0.40375164,-0.15699744,-0.20152806,0.20351665,-0.5673776,-0.09884931,-0.5591861,0.4919336,-0.8278203,-0.39849404,-0.4009138,0.15631114,0.6053673,-0.47481558,0.437238,0.16927202,0.19698016,-0.44646904,0.06878013,0.19304514,0.5653531,-0.23595539,0.09428082,-0.73586226,-0.16596957,-0.31282213,0.41101116,-0.06970775,0.71529657,0.18525986,0.2692318,-0.14668603,-0.3981432,-0.23551106,-0.10471504,-0.12793492,-0.4163935,-0.35175672,0.10283084,-0.1797683,0.489556,0.27499902,-0.049317185,-0.006199373,-0.24093509,0.123350136,0.23850769,-0.3220809,-0.0464149,-0.51831025,-0.4769648,0.04022107,-0.07945682,0.33022642,-0.4836757,-0.37503073,-0.20281437,0.26099023,0.28996772
khi,0.25136152,0.14010592,0.110707566,-0.23526907,0.16736375,0.2789217,-0.033677086,-0.12574847,-0.013059667,0.036916766,-0.025732927,-0.7161812,0.29260263,-0.5661438,-0.33016175,0.2682438,0.40603557,0.6113457,-0.5625792,0.3236172,0.09070497,-0.6027182,0.18840368,0.21957043,0.068675905,-0.058456987,-0.26976493,-0.27715373,-0.6469204,0.15992609,0.548608,-0.30841136,0.019012224,0.4562971,0.099408045,0.17015214,0.11470493,0.04885867,-0.34814608,-0.22693305,-0.29188532,-0.2735235,-0.2616311,-0.29571187,0.42323557,0.19981608,0.13238488,-0.26409552,-0.14780135,-0.4821014,0.23725362,-0.22608256,-0.1633229,-0.25994396,-0.6499037,-0.35770044,0.74921,0.00032691855,-0.012176156,-0.35428405,0.34747496,0.16470572,0.18018039,0.23111203
thử thách,-0.06581962,-0.12182961,0.51348996,-0.15513784,-0.059492268,0.26437524,0.2272015,0.13504899,-0.2297242,-0.12755097,-0.2089937,-0.23914939,0.30842504,0.27679178,0.09701972,-0.38408375,-0.29017717,0.74421775,-0.069562644,0.35609892,0.043721467,0.5214352,-0.41695708,-0.22637655,0.18957043,0.4038162,-0.19021872,0.26703045,-0.25130612,-0.13639973,-0.05023103,0.07687905,-0.06763495,0.13443227,0.15398724,-0.25985265,-0.023023456,-0.36671588,-0.26444772,0.39539754,-0.27349827,0.4174806,0.19480847,0.042841535,0.27978534,0.71812546,-0.21359894,0.00027185306,0.21563575,-0.884625,0.17227122,-0.06651504,-0.52640826,-0.16694783,-0.39192942,-0.05711824,0.30160052,-0.4705602,0.26642168,-0.32897824,-0.0632242,0.12637386,-0.34690416,0.8125995
con người,-0.44791886,-0.4199479,0.05412024,-0.23366262,-0.26178682,0.29000396,0.032959063,-0.14810298,0.27054265,-0.06291083,-0.017531347,-0.27250674,0.40504327,-0.14447811,-0.26529086,-0.14270887,-0.28210595,0.6324462,-0.31816795,0.5810917,0.09086716,0.23884709,-0.2912462,-0.10781446,-0.07139831,0.061049093,-0.34764156,-0.24585028,-0.6326128,0.088481046,-0.015825683,0.01782205,-0.41394478,0.29395792,0.21514536,-0.16257836,0.38382152,-0.35062712,-0.22942501,-0.11235185,0.104028724,-0.29018828,0.13623118,0.18238927,0.18643066,0.60454446,-0.16789159,-0.21651067,0.14084701,-0.062591195,0.26091674,-0.23611948,-0.19453123,0.18959302,-0.39918277,0.32836646,0.26077643,-0.119574994,0.12819476,0.05049986,0.33922663,-0.019216541,0.068203725,0.6391271
trập trùng,0.039525487,-0.053798143,0.40363207,-0.35688958,-0.19984345,0.12805407,-0.27111036,0.23002762,0.19264162,0.13492052,-0.13393301,0.12468465,0.057480294,0.4080582,-0.40020478,-0.6165008,-0.19165452,0.66147786,0.28418383,0.35041806,0.1742662,0.047145214,-0.22720489,0.01166324,-0.01319849,-0.08419901,0.03608646,0.39276582,-0.100076914,0.15772548,-0.2225344,-0.25433242,-0.2479265,-0.3318427,0.06531024,-0.4276784,0.07935293,-0.1583282,-0.19354527,0.27526847,-0.3854567,0.2757369,0.17311676,-0.16029207,0.16174634,0.090467475,-0.363674,-0.13059865,0.09765232,-0.9320246,0.15368767,-0.18697163,-0.59595686,-0.3028778,-0.26587594,-0.19171306,-0.31855485,-0.2824325,-0.2332485,-0.22516415,0.15618777,0.3680434,-0.31356773,0.5416873
lịch sử,0.3447384,0.27833703,0.25071812,-0.35320845,0.02755204,0.57312524,-0.17295215,-0.2670968,-0.17035837,-0.23478138,0.010518766,-0.7301681,0.21295376,-0.43298826,-0.53192264,-0.2940492,0.6472295,0.40000042,-0.7235081,0.015028627,-0.002035315,-0.50712353,0.15928589,0.24669829,0.2718275,0.107163675,-0.14012004,-0.22491534,-0.68608034,-0.0812714,0.11464624,-0.31857654,0.11531737,0.3249426,-0.040109098,0.2488668,0.056031033,0.08802721,-0.642923,0.17499042,-0.52732813,-0.30525577,-0.24800508,-0.097086646,0.21339963,0.5303797,0.32894936,0.010654794,-0.12945713,-0.72018415,0.42197794,-0.004146318,-0.1965423,-0.28035885,-0.4504798,0.055800166,0.5702916,0.05083805,0.37104896,-0.52931833,0.20157592,-0.07840356,-0.29261777,0.42037195
cây cổ thụ,0.1512099,0.0883306,0.5587687,-0.1687002,-0.19747968,0.3387069,-0.19486603,-0.14603153,-0.17808358,0.28372768,0.28722918,-0.008755366,0.023723477,-0.3661484,-0.32574943,0.059001464,0.57732064,0.4872919,-0.331069,0.3545281,0.042428795,-0.2084748,0.03397707,0.41577062,-0.23798773,-0.15552104,-0.0112201795,0.35213804,-0.36386728,0.42331684,0.088328406,-0.65037555,0.16520281,0.26061767,-0.221624,-0.108113915,0.15843065,0.055040065,-0.15673079,0.15996096,-0.6158625,-0.52169687,-0.1618523,-0.32934743,0.45499417,0.32174513,-0.11262041,-0.136863,-0.47851622,-0.6066032,0.101892605,0.14185572,-0.1803684,-0.3146884,-0.32281092,-0.39973772,0.023618054,0.046873108,0.026657704,-0.44825366,0.08852366,0.2776583,0.38737714,0.06936387
tự nhiên,0.13275453,-0.70112073,0.39156958,-0.15152067,0.1321923,0.12861747,0.33278564,-0.08135758,-0.29133853,-0.209055,-0.33505479,-0.4061165,0.123554714,-0.0026324282,0.25496963,-0.15902677,-0.42676952,0.50413805,-0.094752096,0.3538951,0.07359338,0.3965106,-0.5015324,-0.3747569,0.1979543,0.093508616,-0.2796254,0.18826358,-0.1298105,-0.24829316,0.0077971416,0.29882595,-0.04013316,0.32819203,0.030786162,-0.26570487,-0.011633847,-0.69331867,-0.23365231,0.3532042,-0.08587402,0.11098019,0.06716634,0.22271587,0.26245385,0.5141598,-0.30328548,-0.10363296,0.33015934,-0.78603905,0.23676944,0.07499714,-0.3379224,-0.17627253,-0.2672688,-0.09716246,0.2728869,-0.20762841,0.14239332,-0.42604885,0.048791457,0.09262018,-0.17459707,0.5477176
xóa,0.032084655,-0.71129394,0.6837403,-0.3441413,-0.25107285,0.42243502,-0.3085373,0.0780839,0.4902782,0.087820604,-0.22087638,-0.36703596,-0.3628035,-0.2638977,-0.90500736,-0.15630385,-0.3831494,0.37837204,0.18852006,-0.16932109,0.34633502,-0.52415216,-0.8328306,-0.3215024,0.3287246,0.39019623,0.34446418,-0.22141472,-0.7564159,0.5764831,0.063358426,-0.42897788,-0.28509545,0.36984533,0.47472084,0.22493987,0.929324,-0.4132549,-0.62209094,0.090652466,-0.28210318,-0.57888573,0.049511183,0.55608404,-0.17441754,-0.20771155,-0.15129846,-0.16997251,-0.6822786,-0.32766226,0.33221692,0.6360387,0.06813608,-0.14929192,-0.025568804,-0.27035847,-0.07577489,-0.08190086,-0.08008835,-0.06783842,0.3309981,0.4912387,0.4636087,0.1730011
tìm,0.20241359,-0.36708084,0.4370264,-0.25557768,0.10836667,-0.0064748917,0.3154496,-0.17220613,-0.332066,-0.19866161,-0.33817792,-0.3067893,0.20185764,-0.2392519,0.3651974,-0.07601857,-0.08852998,0.40479618,-0.4583718,0.25125125,0.15289444,-0.12224435,-0.5811541,-0.2584684,0.33363605,-0.4915023,-0.3096784,0.21140225,0.09054433,-0.36760822,-0.09643601,0.31575638,-0.05900249,-0.092441685,0.19818382,-0.40909147,-0.07649756,-0.69454974,-0.13733688,0.18409513,-0.107126966,-0.053190082,-0.10691276,0.38540658,0.120057285,0.3618559,-0.45703173,-0.16728497,0.21290754,-0.8905916,0.40942714,0.14741041,-0.048984464,-0.17473294,-0.5505217,-0.083512165,0.08763043,-0.015720587,0.016168619,-0.41862863,0.1916197,0.050560847,-0.10258226,0.3988039
suối,-0.15181714,0.07824948,0.22479399,0.08576109,-0.13640581,0.28320274,-0.32609728,-0.29154372,-0.16124935,0.13937484,0.09314593,0.09993433,-0.050908152,-0.532595,-0.50539017,-0.42621505,0.39901054,0.49943963,-0.1753717,0.34577656,-0.17195258,0.112060875,-0.087773226,0.07831413,-0.17322287,-0.30513638,0.0028093099,0.66097194,-0.2930123,-0.11219526,-0.16690843,-0.5629213,-0.16256674,0.041409623,-0.26479357,-0.15147649,0.11969652,0.019787656,-0.16764817,0.14386898,-0.49935177,0.016633544,-0.11926709,-0.10381324,0.22397372,0.39199826,-0.23263739,-0.1320088,-0.33714715,-0.8206817,0.047002323,0.3903051,-0.38372844,-0.37245634,-0.07198552,-0.76092917,0.00032174977,-0.19377422,0.024659134,-0.40993926,-0.45194173,0.24669698,0.076170586,-0.24596876
mang,0.19057508,0.24196243,0.26212868,-0.3612714,-0.14947909,0.65637654,-0.16154158,-0.216608,-0.09192939,-0.19838718,0.035878796,-0.63442004,0.24194019,-0.3737398,-0.4790635,-0.36337897,0.4796313,0.40256482,-0.4855937,-0.030052733,-0.020518847,-0.4531622,0.13933693,0.15044071,0.34990922,0.45550436,-0.11473181,-0.3704431,-0.75956416,0.03408943,-0.033220593,-0.18402103,0.06549471,0.267645,0.06431661,0.20521829,0.12010328,0.051895697,-0.5609076,0.15538472,-0.44794983,-0.31650567,-0.06710566,-0.0027136088,0.07791358,0.569885,0.2833706,0.005771245,-0.22236575,-0.40187404,0.33563468,0.15579575,-0.18068758,-0.21373872,-0.38791978,0.22181588,0.45452014,0.07586757,0.45831558,-0.29815924,0.14376052,-0.11637748,-0.26407304,0.5675038
hùng ca,0.021422196,0.44502413,0.16933385,-0.2425277,-0.39779097,0.3278099,-0.17722918,-0.32871974,0.062216625,-0.42219052,0.17100795,-0.31134686,0.54431343,-0.18007699,-0.30293402,-0.27631345,0.24645218,0.5003598,-0.43442342,0.32729533,0.06763469,-0.260005,0.19506122,0.29615554,0.16564956,0.44635966,-0.37039986,-0.47957408,-0.5125427,0.03240782,-0.13832378,-0.036246706,-0.043975476,-0.09499385,0.20643948,0.16393787,0.0696756,0.14765188,-0.111546606,-0.2095343,-0.6053894,-0.10846543,-0.021532815,0.008519856,0.24412642,0.328184,-0.04406279,-0.13118215,-0.055598956,-0.5053736,0.5501103,0.18195139,-0.15422107,-0.3632297,-0.33725837,0.40345463,0.3842003,-0.20652102,0.2280236,0.04276939,0.40646425,-0.01919934,-0.35083362,0.7038893
rậm,-0.110381365,0.0075160633,0.119355604,0.2982351,0.03601073,0.14656729,-0.08225035,-0.00451535,-0.2300738,-0.13271035,-0.1360116,-0.49838522,0.17063001,-0.40889552,-0.060841564,-0.22057493,0.13001372,0.6199702,-0.025190901,0.23754343,-0.13178416,0.26233983,0.074060336,-0.08910465,0.0061297426,0.34414044,-0.17460878,0.21925855,-0.48415464,-0.1902619,0.18097231,0.021168495,-0.012983747,0.19056714,-0.13791463,0.12404273,-0.09261168,0.032455854,-0.13121474,0.08500326,-0.14926787,0.29788184,-0.20739119,-0.018697325,0.3673108,0.5673462,0.11108652,-0.13073602,-0.16206688,-0.49375835,0.115745954,0.1054049,-0.46837226,-0.28299505,-0.14385766,-0.5834543,0.6331898,-0.21204641,0.35083756,-0.5591373,-0.5084527,0.124426685,0.06418969,0.22582592
khám phá,-0.46650377,-0.06949601,0.17213137,0.099395186,-0.16695063,0.22254397,-0.1190872,-0.05592922,0.15454602,-0.50706077,-0.13439986,-0.49562624,0.45466408,-0.50138074,-0.14127259,-0.35431468,0.004298534,0.6267375,-0.26409134,0.28544945,0.23771472,0.22385713,-0.3434495,0.0496214,0.17753263,0.63191056,-0.22670989,-0.010569021,-0.5044149,-0.07865159,-0.2193325,0.486633,0.056296512,0.5250807,0.22311659,0.1797357,-0.15006022,-0.30984926,-0.12740757,-0.08578453,-0.12447926,-0.26009157,-0.2233404,0.16733311,-0.071705006,0.35627803,0.18360335,-0.06710561,0.028182525,-0.23384954,0.2144342,0.20050818,-0.3461766,-0.055126697,-0.409884,-0.32282653,0.044088516,-0.10692065,0.2627733,-0.38005832,-0.24031593,-0.12216344,0.119487405,0.5521573
phong thổ,0.04109079,-0.36225343,0.32628244,-0.06630787,-0.009350482,0.43325004,0.13293444,-0.21801203,-0.18499681,0.12285784,-0.6768899,0.029519645,-0.009963404,-0.7294254,-0.2435641,-0.17846999,-0.3417876,0.42583752,-0.00811886,0.14113,0.005058747,-0.69106793,-0.6858513,-0.3752287,0.8256296,-0.5669132,-0.38677275,-0.1400646,0.017911157,-0.28199917,-0.16792542,0.20380647,-0.5838858,-0.13428631,0.24826132,-0.32709107,0.3537687,-0.68163395,-0.11389415,-0.05914625,-0.01481928,-0.2748528,0.16955781,0.7129947,-0.12258192,0.18392244,-0.66482025,-0.43613774,-0.11242987,-0.5316102,0.4665807,0.8481465,0.49838144,-0.3350773,-0.7138665,-0.3151068,-0.25289717,0.14478105,-0.16533588,-0.0413024,0.09588048,0.30885437,0.08200101,-0.0010712693
thác,-0.15911254,0.06404089,0.043698482,0.21599282,0.0003981413,0.36720183,-0.2212703,-0.15727696,-0.14753658,-0.05672091,-0.14771074,-0.55395436,0.30822757,-0.77863884,-0.17602603,-0.19379668,0.43897432,0.736028,-0.304195,0.3258835,-0.18057457,0.20586675,0.105144255,0.02064119,0.044490803,0.37936154,-0.20266064,0.24862595,-0.6111588,-0.14261046,0.13565855,0.0046705212,-0.019822381,0.5595246,-0.1843777,0.23403372,-0.058879584,0.07838251,-0.18013482,0.12449423,-0.15261653,0.017218113,-0.20844395,-0.06563329,0.2890153,0.7901826,0.22528186,-0.1432215,-0.2720496,-0.2895926,0.0688765,0.16162,-0.4375467,-0.22848041,-0.33443737,-0.7768338,0.5892582,-0.09673614,0.42289004,-0.5723327,-0.59810656,-0.0056996285,0.19328763,0.3028351
đam mê,-0.17630945,0.29072607,0.315933,0.15887578,-0.115871996,-0.055607386,0.21544765,-0.06937836,-0.026264677,-0.5308898,-0.009464432,-0.3011707,0.45704016,-0.43666735,0.09229039,-0.007918727,0.103108115,0.40876636,-0.5324322,0.64331114,0.3129945,-0.21895313,-0.27996972,0.2155124,-0.09161491,0.12235628,-0.38956875,-0.11012955,-0.23208416,-0.20221224,-0.06394394,0.012390837,0.12394534,0.012896045,0.36188737,0.09759963,-0.13023138,-0.2736776,0.08035535,-0.28470647,-0.62591714,-0.1809216,-0.36361608,-0.2385337,0.28405944,-0.18536572,-0.29604864,-0.29031628,0.011134138,-0.6551563,0.37846953,0.17316549,-0.15013315,-0.40209022,-0.5426933,-0.27531588,0.26678476,-0.39118916,-0.13571632,-0.30562624,0.34183276,0.065463066,0.041945715,0.09784891
mà còn,0.18242683,-0.3946629,0.4125739,-0.14181422,0.18509012,0.082251705,0.2714458,-0.020443816,-0.19990088,-0.14781827,-0.3353273,-0.40780935,0.17692079,0.046860926,0.20584784,-0.13167812,-0.19843814,0.5240312,-0.32199267,0.28904343,0.10787672,0.22952677,-0.51999384,-0.29562336,0.17698176,-0.086207725,-0.1565777,0.3297403,-0.11172005,-0.27088067,0.09324898,0.13988702,-0.01111769,0.2846945,0.12053193,-0.17428498,-0.056002043,-0.5157624,-0.28932104,0.37221965,-0.06416517,0.14950818,-0.0020892818,0.15606353,0.21160972,0.5004219,-0.23957175,-0.0528092,0.28209436,-0.84657466,0.20566012,-0.062288407,-0.32375777,-0.13881297,-0.38605908,-0.21661897,0.23650877,-0.19458872,0.09699832,-0.46448958,-0.026671905,0.09529166,-0.15630317,0.48410666
thân,0.26960215,0.042626224,0.58609253,-0.16537647,-0.10106004,0.28946364,-0.18547574,-0.11426009,-0.12242948,0.38562876,0.17173226,-0.0013923311,0.03580091,-0.41955724,-0.16727482,0.1417548,0.61166656,0.64544827,-0.25026768,0.38082445,0.09446268,-0.26667148,0.052719768,0.44579628,-0.30785334,-0.21613224,-0.06748131,0.3888161,-0.28320882,0.57921094,0.20403652,-0.57784605,0.12795602,0.2127538,-0.19486779,-0.12180845,0.097994424,0.040620163,-0.014276465,0.09337432,-0.43726635,-0.51506484,-0.17831902,-0.26255983,0.5544474,0.3509816,-0.070614725,-0.19219804,-0.46077698,-0.6712751,0.1657156,0.058229353,-0.17519419,-0.3538047,-0.375059,-0.51660925,0.0373238,0.099612206,0.016602144,-0.5374892,0.1398207,0.4284268,0.5238488,0.17119105
