node,0,1,2,3,4,5,6,7,8,9,10,11,12,13,14,15,16,17,18,19,20,21,22,23,24,25,26,27,28,29,30,31,32,33,34,35,36,37,38,39,40,41,42,43,44,45,46,47,48,49,50,51,52,53,54,55,56,57,58,59,60,61,62,63
và,-0.11064708,-0.07782303,0.38216364,-0.07025955,-0.15715587,0.4021957,-0.36453113,-0.20340623,-0.13669577,-0.17900313,-0.01500374,-0.049509294,-0.17843106,-0.23038265,-0.1271576,-0.19598907,-0.024721395,0.13625821,-0.0013727677,0.21918952,0.07195378,-0.12668388,-0.26921248,-0.12130325,0.43185535,0.02958774,-0.110322244,-0.170256,-0.24227904,-0.25588906,-0.108101994,0.16243863,0.019662704,0.033562273,-0.022771312,-0.15633571,0.23634297,-0.09409661,-0.1306908,0.15530664,-0.24990341,-0.036916237,-0.06620565,0.16936496,0.038667772,0.17308144,-0.14141986,0.074441664,-0.081101745,-0.13646188,0.26084268,0.29409426,-0.24203959,-0.16318674,0.027250124,-0.18102777,0.37802124,0.093359925,-0.024324853,-0.28930113,-0.14379513,0.16494435,0.056470778,0.17822547
của,0.08495627,-0.021792179,0.52891946,-0.18729402,-0.23786272,0.13972759,0.09956943,-0.11998885,0.0044747316,-0.10571192,-0.11583386,-0.4631503,-0.070890866,-0.14092925,-0.17267093,-0.23829187,0.26854303,0.06829538,-0.11425164,0.26956415,0.07630626,-0.123491466,-0.0137913255,-0.08839996,0.11710311,0.027767684,-0.010232284,-0.060476545,-0.25575542,-0.01090944,-0.093667164,0.033790633,0.11887686,-0.087638475,-0.0152149135,-0.33823672,0.22500145,-0.15191019,-0.08553929,0.18982576,0.22193508,-0.006460689,-0.3588581,0.2291678,0.5857663,0.2150145,-0.08632555,-0.15006725,-0.19242592,-0.23205961,0.12631953,0.45157433,-0.30450112,-0.24907975,-0.09215347,0.10087605,0.3514846,-0.016979273,0.060840663,-0.21516572,0.013625722,0.46640673,-0.33740377,-0.026227828
đại dương,-0.13797106,-0.023454644,0.26802263,0.11752613,-0.31854072,-0.092774905,-0.02362879,-0.063208014,0.23960485,-0.07488639,-0.0010297289,-0.45160225,-0.06790494,-0.18451548,-0.45947233,-0.33889717,0.07601913,0.17305584,-0.058809143,0.2671245,0.1153464,-0.054469638,-0.11557357,-0.1568506,0.38591716,-0.14175832,-0.1596351,0.2958106,-0.29779392,0.053159468,0.07485335,-0.15034762,0.026770491,0.04772054,0.06322403,-0.09453073,0.22440405,-0.033850964,-0.16315776,-0.16806854,0.05055202,0.1340223,-0.3998738,0.35853833,0.23351449,0.09995643,-0.22905616,0.020903569,-0.1611341,-0.4448575,0.0574344,0.5085633,-0.0709444,-0.11835232,0.29609686,-0.15769452,0.11361589,-0.03808668,-0.106499456,-0.2999139,-0.47539502,-0.13179114,0.46682093,-0.2797924
là,-0.1954733,0.042610064,0.6450543,-0.24242407,-0.24794984,-0.024087215,-0.1246089,-0.24356835,0.19865543,0.020700114,0.028161747,-0.4824664,-0.22837642,-0.3539816,-0.010181322,-0.226658,-0.034106437,0.25811338,-0.07664193,0.0049776533,0.39215907,-0.11782382,-0.017970236,-0.3025155,-0.22282144,-0.10620201,-0.1401633,0.097876884,-0.48353046,0.34201,-0.0493079,0.064359404,0.3022714,-0.28036743,-0.06655528,-0.2180814,-0.12313946,-0.1096757,-0.122282445,0.313626,-0.12975614,-0.033280388,-0.006102886,0.18584155,0.5331809,0.026308428,0.06300085,-0.10895387,-0.3561115,-0.36534548,0.11529637,0.39261726,0.16876575,-0.13508768,0.09289703,-0.031511962,0.07703343,-0.29278666,0.37297016,-0.40484402,-0.4119601,0.08485736,0.16525872,-0.061289035
khí hậu,0.3122949,-0.22911058,0.19812924,-0.13252403,-0.2386081,0.055007394,-0.0028922441,-0.2621159,0.07774803,-0.26145947,-0.33069795,-0.6023595,0.41139477,-0.03613641,-0.7159096,-0.45668685,0.13679513,0.22697015,-0.5174213,0.20892863,-0.014997566,-0.00028167074,-0.22720872,-0.18824162,0.10955434,0.004981201,-0.12357888,0.13601464,-0.02831369,0.3745149,-0.21671908,-0.08567953,-0.3544595,-0.21606202,0.2655537,0.1154885,0.10823962,0.07800004,-0.33167475,0.06940181,0.22680709,-0.11603927,-0.4688821,-0.0693178,0.18084876,0.55879825,-0.085756145,-0.049302857,0.14174345,-0.4203352,0.5421723,0.103347495,0.1922133,-0.36748075,-0.15322313,-0.24020159,0.23235129,-0.06562897,-0.18544634,-0.0033793864,-0.026724363,0.052362517,-0.2590053,0.105802186
nam,0.23855345,-0.37203577,0.04718483,0.2073752,-0.2990311,-0.0015778829,-0.043824345,-0.3712118,-0.1293215,-0.16048153,-0.014879154,-0.58545554,-0.089431204,-0.071971044,-0.26127252,-0.2834958,0.354394,0.32636288,-0.38685277,0.18747616,0.39201415,-0.15189904,-0.26961195,-0.11576758,0.17701939,-0.16647322,0.03383697,0.33825737,-0.20643263,0.37945378,0.097623006,-0.40568602,-0.21137673,-0.007769996,0.25418898,0.09235636,0.017814366,0.086475916,-0.1796534,-0.17873141,-0.081502184,-0.13289627,-0.07854436,0.483197,-0.038980145,-0.054501895,-0.30734974,-0.12427652,-0.19972937,-0.31699032,-0.05187247,0.58545786,-0.17294009,-0.11864316,-0.07332108,-0.2885579,0.1421963,0.258193,-0.057835408,-0.51895964,-0.41388556,0.3005635,0.36978388,-0.20440045
với,-0.154215,-0.14631668,0.14720248,0.07494654,-0.08384582,-0.018258475,-0.13663282,-0.19528086,-0.26598412,-0.30282784,-0.28424317,0.08768306,-0.15948097,-0.049365643,-0.486745,-0.15775211,-0.21140558,0.60211074,0.090640344,0.15499313,-0.05903729,0.17908214,0.060632695,0.24524535,0.41944817,-0.05875247,-0.41665292,0.03212744,-0.07695627,-0.14981115,-0.034962047,-0.052074984,0.16996321,0.11607699,0.1868077,0.13895741,0.35137108,-4.9978145e-05,0.38439536,-0.17208035,-0.5529027,0.17832513,0.0055056517,0.50790256,0.20427614,0.13766442,-0.6508659,-0.07975143,0.2317424,-0.4873498,0.022715103,0.2631132,-0.2521479,0.012273864,-0.0058458494,-0.2599246,0.39858264,0.07263593,0.24707976,-0.26806706,0.16770555,0.26572785,0.5541825,0.17843182
lớn,-0.28557867,0.03653258,0.72143763,0.0037893069,0.1159148,0.09277189,-0.28250545,-0.036935184,-0.07704672,0.21401298,0.038828257,-0.45716193,-0.08132236,-0.0067171296,-0.37743777,-0.21297882,-0.49821666,0.79348946,0.124569565,0.14116363,-0.005441865,0.35256016,-0.12655051,-0.17087643,0.16331884,-0.09119546,-0.32165074,0.080679454,-0.13185361,-0.20686026,0.08975283,0.11201648,-0.10860104,-0.03453247,0.15724401,0.27192965,0.2028211,-0.36455953,-0.10982189,0.002467976,-0.26325464,0.18037587,-0.07378554,0.3760647,-0.0008020528,0.05052247,-0.1685358,-0.18968314,-0.024469126,-0.5627333,0.3953188,0.24624045,0.12664342,-0.25222954,0.33008558,-0.1543846,0.022889819,0.25245,-0.20706202,-0.5785344,-0.113794886,-0.22141248,0.33217308,0.5327281
nhiều,0.11062341,-0.21050733,0.53261465,-0.12907284,-0.30013505,-0.29329228,-0.10622794,-0.5787551,-0.33739612,-0.29588315,-0.56813926,0.04062995,0.0173043,-0.21953183,-0.23836294,-0.39789695,-0.07102185,0.20256633,-0.44799823,0.00865168,0.075549245,-0.05718576,-0.061552774,-0.29624903,0.24660589,-0.19801208,-0.11643378,-0.2262773,-0.20660198,-0.25993785,-0.1981538,0.24300776,0.44302124,-0.017468328,-0.27914366,-0.04397944,0.3852188,0.4818894,-0.2194874,0.4166695,-0.27831388,-0.40698254,-0.44011807,-0.26196268,0.31047788,0.15879652,-0.115086295,-0.2036958,-0.18338923,-0.33153662,0.38724965,-0.28101978,-0.21883593,-0.15596606,-0.005365828,-0.46115863,0.2671009,-0.38088363,0.5693354,-0.10986785,-0.44977263,-0.08282312,0.22697172,-0.08787122
đây,-0.18010688,-0.16743754,0.57260114,-0.20501669,-0.42203593,0.15688376,-0.46577978,-0.6860716,0.30455172,-0.00073164224,-0.23132901,-0.56169885,0.22733809,-0.4414166,-0.07748076,-0.1492253,-0.8685638,0.8456475,-0.25766745,0.3233145,0.24468157,-0.06671449,0.0010146399,-0.24574167,-0.14716472,-0.22747989,0.15200952,-0.07083956,-0.017329756,0.25263733,-0.28599185,0.35358775,0.012346774,0.20334566,-0.010667078,0.25814682,0.8672375,-0.20212586,-0.25778314,0.41022292,0.24842335,-0.23801427,-0.41194898,-0.41081268,0.10613205,0.26760337,-0.11392232,-0.26553637,0.32462406,-0.14855,0.44098544,0.02425889,0.060957767,-0.13397418,-0.035869572,-0.24819556,0.3726102,-0.4804749,0.33902085,0.2531658,-0.36333328,-0.43101686,0.066504344,0.5278777
dòng,0.10332231,-0.16759606,0.3523402,-0.06284679,-0.14782614,-0.09652796,0.10738078,-0.27793255,-0.065305494,0.26698586,-0.04284597,-0.3884855,-0.07917124,-0.030375544,-0.008086626,-0.2732925,0.22578901,0.3276657,-0.07627312,0.14911242,0.6650959,0.07972087,-0.07701359,-0.19419587,-0.12891214,-0.2630573,0.0022622326,0.15019195,0.043013133,0.12774211,0.11096512,-0.062056333,-0.14791924,-0.33575296,-0.014962967,0.020900495,-0.10927765,0.014717889,-0.10255054,0.4433834,-0.3148837,-0.307668,0.24761173,0.25754878,0.4036889,0.18410516,0.1838244,-0.6338745,-0.56194603,-0.17768076,0.53136176,0.200727,0.06650738,-0.2766008,0.00076317386,-0.1810578,-0.09466636,0.118464924,0.024073293,-0.6035669,-0.20360298,0.26575366,0.28787318,0.22511967
đã,-0.2235818,-0.06370381,0.46899912,-0.15990543,-0.12770759,-0.38263583,-0.18846212,-0.48754403,-0.21905419,-0.002615863,-0.5534068,-0.1046616,0.06393953,-0.05374527,-0.374343,-0.16733293,-0.70066327,0.80329454,-0.08260947,-0.001744631,0.035464868,0.11745379,0.30559647,-0.020402195,-0.094840996,-0.23483525,-0.21411017,0.050595332,0.14418012,-0.21590574,-0.29649913,0.32201725,0.3768996,0.2438225,-0.0409894,0.21862738,0.58008164,0.2156956,0.0717379,0.22130342,-0.06328072,-0.099485315,-0.482024,-0.14748086,0.17871124,0.045791373,-0.26534733,-0.47874305,0.09322901,-0.31454688,0.33044606,-0.21598339,-0.11425869,-0.06333297,-0.033190273,-0.35094514,0.24258952,-0.4287896,0.60091317,0.021442551,-0.10251272,-0.09944318,0.33782202,0.33983883
đặc biệt,-0.080574185,-0.18888678,0.47690275,-0.045235936,-0.52286917,0.04103153,-0.24008027,-0.14732197,0.3112925,-0.40850535,-0.08625075,-0.46518213,0.3519426,-0.42093265,-0.28163874,-0.23393142,-0.09612583,0.37296623,-0.27199525,0.33579263,0.27785382,-0.6089021,-0.30538264,-0.29504025,0.24968188,-0.21373445,0.1783711,-0.23795937,-0.21696681,0.26998666,0.10643659,-0.13136935,-0.21489215,-0.14948936,-0.05890093,-0.056843564,0.570823,-0.04219757,-0.26331156,0.16976604,0.26339462,-0.055926748,-0.666448,-0.018562127,0.07214367,0.01836285,0.07340268,0.024746262,-0.034794305,-0.1275597,0.13154696,0.46962574,-0.2849106,0.06907094,-0.0066853776,-0.03858726,0.4109048,-0.26990563,0.04216221,0.049232088,-0.40963143,-0.12639996,-0.025951242,-0.19208446
cực,0.21092345,-0.2138489,-0.08205345,0.33824158,-0.23668276,0.05424986,-0.1388393,0.017705765,-0.03818892,-0.22879648,-0.23814057,-0.27465808,0.034105115,-0.19322634,-0.26337615,-0.19741383,0.009431412,0.5386047,-0.13918352,0.39250985,0.41932616,-0.2543007,-0.24487369,0.24213667,0.24452806,-0.3293748,-0.056607194,0.26995602,0.17605235,0.21889444,0.28145134,-0.378056,-0.31899038,-0.19219416,0.37804857,0.377444,-0.07706748,-0.16685429,0.19175708,-0.21905328,-0.532686,-0.090626344,0.18401588,0.2863172,-0.13262454,0.19057155,-0.18543999,-0.28727427,-0.10128608,-0.18654391,0.20051913,0.24508871,-0.14591512,-0.06292523,-0.34007958,-0.34889597,0.08885541,0.13582432,0.052388743,-0.3701253,-0.30353698,0.31559533,0.85225636,0.36428767
biển,0.24746604,-0.06993317,0.049212545,0.0064900457,-0.22742435,-0.05155159,-0.17416823,-0.3203475,-0.28609914,-0.39092958,-0.33063495,0.015259476,0.02989504,-0.069795124,-0.31601068,-0.11642683,0.1841573,0.31984138,-0.35776207,0.2630807,0.06344139,-0.14127105,-0.13536426,-0.059218965,0.0019620964,-0.14961672,-0.26795298,0.01774615,-0.03478327,0.06502552,-0.047710348,-0.1265546,0.10215691,-0.10524598,-0.08350886,-0.016165985,-0.058522563,0.010908344,0.10238753,0.27822927,-0.23738953,-0.2614586,-0.08542196,-0.19570686,0.0402311,0.19255377,0.034833446,-0.2633974,-0.033203717,-0.04717183,0.27789536,-0.08735544,-0.22791283,-0.22475015,-0.3893429,-0.34525886,0.32893944,-0.11998644,0.4774722,-0.1866356,-0.041355688,0.28468406,0.052152295,0.194385
toàn cầu,0.005522754,-0.102166,0.44884884,-0.53453827,0.358811,-0.31842428,0.0474766,-0.37588307,-0.40544683,-0.2976605,-0.5554463,-0.44987747,0.0934631,0.1849855,-0.39638665,-0.35616338,-0.16518387,0.27612388,-0.20399646,-0.035977904,0.22640656,0.28400669,-0.1794596,-0.2330658,-0.05687649,-0.05080413,-0.02898367,-0.077267334,0.09148866,-0.1050865,-0.13018063,0.13109456,0.10221573,-0.09592278,-0.0975016,-0.12877953,0.19549926,0.3123348,-0.1929649,0.16979799,0.1467234,0.060223904,-0.76345724,0.17417423,0.14859709,0.21232302,0.19526497,-0.18149418,-0.2877998,-0.5060876,0.23830868,0.105957136,-0.08198842,-0.066641636,0.10783141,0.0145992935,0.2864746,-0.31846425,0.05626911,-0.24814866,-0.23543459,0.05666915,0.19511954,-0.04825425
trong,0.16918227,-0.3631043,0.34779492,-0.15963694,-0.4962171,-0.12311943,-0.03952297,-0.4413745,0.4418031,-0.16210595,-0.49360222,-0.5872312,0.56650454,-0.35927668,-0.72997034,-0.36527234,-0.40497056,0.51764226,-0.32489294,0.06930343,0.14909151,-0.593793,-0.006725024,-0.18286803,0.39564562,-0.20870045,0.24394429,0.011969896,0.17913167,0.34612933,-0.055381935,0.01616831,-0.4891285,-0.1765325,0.23322506,0.18659031,0.668544,0.20210394,-0.41011178,0.014968719,0.45712858,0.022785483,-0.56329894,0.16244198,0.081762336,0.35409948,-0.16772379,-0.113725595,0.27750993,-0.4221062,0.49801514,0.1774805,0.2219939,-0.025826905,-0.20700675,-0.3243391,0.36355284,-0.2274975,-0.10517387,0.27631062,-0.29024324,-0.12952645,-0.07217163,0.22568105
ảnh hưởng,0.2545412,-0.27614662,0.7084148,-0.2843865,0.2671724,0.044232998,0.24547863,-0.15575813,-0.520747,-0.2053032,-0.37483653,-0.25333267,0.2399496,0.005781817,-0.14924787,-0.18704937,0.1617846,0.16142236,-0.12805633,0.19041932,0.15488876,0.008048751,-0.24927709,-0.1979984,0.37995663,-0.045067616,0.005322013,-0.46716547,-0.2837339,-0.21896903,0.3100607,0.1739487,0.034681376,-0.2682224,-0.05651665,-0.24717522,0.48891857,-0.06954249,-0.12043305,0.35066342,-0.377186,-0.020162357,-0.47914234,0.35656667,0.6412464,0.35824162,0.014691239,-0.37810618,-0.25386396,-0.45125368,0.31950504,0.11181088,-0.33682746,-0.33957294,0.24763626,0.2126556,0.40531844,0.16800193,-0.24705647,-0.3673325,0.16025925,0.5331292,-0.124089725,0.1006998
trên,0.056756735,0.099283405,0.4574433,0.14931163,0.03521254,0.2552029,-0.17255053,0.22820821,-0.20659992,-0.5796482,-0.19530037,-0.54370844,0.10963379,0.057509437,-0.3693899,-0.10003406,-0.03933586,0.65249443,-0.058161005,0.30116755,-0.12755628,-0.07389331,-0.33232382,0.09870388,0.17144358,0.014501302,-0.14608441,-0.35847482,-0.4186442,-0.016843291,0.34621873,-0.19304004,0.00053238124,-0.09991862,0.047308132,0.2045737,0.18593463,-0.3281099,0.16061741,-0.19513267,-0.46189967,-0.027562281,-0.1628328,0.13240078,-0.020919992,0.08210615,-0.19658098,-0.16668844,0.1837233,-0.3658989,-0.113189116,0.36794934,-0.34650522,-0.3163875,-0.35813895,0.023556883,0.28097808,0.32838127,3.3297154e-05,-0.3967719,-0.04486886,0.4852969,0.20666504,0.30942923
đến,0.28165436,-0.2066037,0.57654387,-0.2550326,0.36236265,-0.029295046,0.19341052,-0.38859305,-0.8472407,-0.5179426,-0.65297383,-0.012694872,0.21031345,-0.051434904,-0.13907677,-0.19203554,0.12462036,0.13649492,-0.27902436,-0.02041146,0.104864776,0.03112409,-0.44917348,-0.20987949,0.38182262,0.08744783,-0.052549925,-0.5036266,-0.30072957,-0.18787499,0.34038246,0.21485405,0.27099222,-0.09543139,-0.07883764,-0.20876484,0.4212501,0.264506,-0.106730334,0.15234867,-0.66897446,-0.1401576,-0.41838813,0.29759732,0.461595,0.40997842,-0.09555658,-0.28083393,-0.27090022,-0.61228704,0.12518017,-0.07294092,-0.3644249,-0.27958983,0.021347323,-0.08121673,0.4735663,0.07868077,0.0908005,-0.25188535,0.0033476886,0.57035685,0.10692704,0.049390994
băng giá,-0.19130549,0.18792012,0.40481165,-0.11430369,-0.07121784,-0.015309324,0.048025522,-0.055597566,0.11002797,0.11737125,-0.3760104,0.043971233,-0.28838024,-0.24485815,0.013807478,-0.14404368,-0.6076664,0.40986574,0.21614632,0.059062026,0.08196277,0.01837435,0.2730509,0.3637696,0.13590151,-0.011371517,-0.22346868,0.19061415,-0.15517718,-0.062148068,0.061625678,0.034938794,0.40490863,-0.17791551,0.23875517,-0.32382253,0.36341843,-0.3419574,0.39171726,0.018358096,-0.4345539,0.22240166,0.05708603,0.21565945,0.6800715,0.29629055,-0.36497766,-0.36451718,-0.20737821,-0.45130032,0.14354374,0.46159065,-0.09040728,-0.1145519,-0.05261599,0.14839534,0.2615414,-0.49515823,0.54963106,-0.11963993,0.050170906,0.28991565,0.38121635,0.52923465
nơi,-0.08292818,-0.06373722,0.69676906,-0.08138157,-0.63466454,0.29315925,-0.19375268,-0.44628364,0.4117102,0.069933385,-0.11718795,-0.33663896,0.037643116,-0.6663733,-0.043909714,-0.2743251,-0.2968119,0.21394445,-0.24082837,0.36721715,0.09343308,-0.4557271,0.14089864,-0.24400455,0.13761772,-0.05609489,0.11635042,-0.15746789,-0.4448345,0.08348792,-0.2145055,0.34657297,0.2975774,0.07192673,-0.08509851,-0.16377705,0.70367867,-0.24133545,-0.3131051,0.48151493,0.30073553,-0.2679992,-0.26014018,-0.24982649,0.6252114,0.39855283,-0.24639894,-0.18878752,0.059630968,-0.045981918,0.247204,0.22716145,-0.11486625,-0.22108664,-0.22098786,-0.120310664,0.47863352,-0.36268583,0.26870385,0.15406354,-0.26431653,-0.04441937,-0.38997236,0.20611377
các,-0.0020083475,-0.08469273,0.3361379,-0.3240083,-0.026590183,-0.25524247,-0.038109213,-0.43133813,-0.28320393,-0.062111482,-0.39077592,-0.47198173,0.008944343,0.22212186,-0.28233087,-0.34240928,-0.10028038,0.5166175,-0.30001587,0.143925,0.33832318,0.4638953,-0.0035019238,-0.114248455,-0.49664298,-0.24701229,-0.19764689,0.17700477,0.0790249,0.13789774,-0.35009107,0.16514662,0.22916427,-0.15425271,-0.09357745,-0.016867165,-0.013686424,0.20512667,-0.09727999,0.5832176,-0.034634057,-0.30277735,-0.42746297,-0.39847744,0.38116285,0.25009522,0.33162764,-0.586881,-0.22356918,-0.3045044,0.5381872,-0.07343832,0.10112277,-0.37325537,-0.07238326,-0.20123263,0.15738279,-0.39561686,0.4316758,-0.30449644,-0.18233833,0.09086711,0.124034114,0.25076935
nó,0.1591775,-0.18646128,0.8955859,-0.18112023,0.39113128,0.13180648,0.041576426,-0.08571642,-0.5345279,-0.101124905,-0.33736643,-0.37161025,0.32262176,0.056621354,-0.15857588,-0.18683347,-0.16620722,0.49549234,-0.1755901,0.12521158,0.08446292,0.05410555,-0.35592106,-0.27925077,0.22873718,-0.099270895,-0.07056545,-0.42360362,-0.27792734,-0.27723077,0.2630047,0.250799,-0.0612515,-0.3549899,0.09626036,-0.025495304,0.36780834,-0.20849678,-0.24900055,0.28137073,-0.3282105,-0.11380818,-0.41760394,0.16390078,0.28068247,0.19406761,0.17402424,-0.4709746,-0.16428056,-0.40041745,0.48384792,-0.07059031,-0.18663797,-0.40027928,0.14725822,0.09665415,0.2178059,0.3160062,-0.3541005,-0.49001563,0.12276511,0.25327814,-0.12562135,0.45871937
này,-0.03771817,-0.002566193,-0.077948146,0.115887195,-0.15443955,-0.23281072,-0.112894244,-0.25311416,-0.3072352,0.10424752,-0.43901318,0.21681668,-0.20874858,0.05261695,-0.31742197,-0.3529382,0.0032209042,0.5691501,-0.2033117,0.41174865,0.42054754,0.19178382,0.21837781,0.23441644,-0.14776656,-0.37169516,-0.4412988,0.5117991,0.44250017,-0.30453983,-0.22868636,-0.093063466,0.15937735,-0.06590723,0.051757146,0.04868592,-0.14665973,0.13600805,0.18175483,0.34992662,-0.25561577,-0.14246479,-0.15568207,-0.18512484,0.21214156,0.26480457,0.035602313,-0.66282696,-0.31810498,-0.12540635,0.5597167,-0.074467614,-0.211389,-0.24451822,-0.2009093,-0.50409263,0.23024397,-0.24397445,0.458138,-0.40560958,-0.08062024,0.2409182,0.5426605,0.35206935
thế giới,-0.0904254,0.21936512,0.47931528,0.213887,0.08664392,0.30998218,-0.47590438,0.008743278,-0.26173133,-0.40285596,-0.13823722,-0.33505616,-0.0012111485,-0.008400176,-0.4428506,-0.19504201,-0.36532694,0.80749893,-0.069119416,0.24661884,-0.026781918,-0.08425539,-0.4253495,-0.059727486,0.17480785,0.10579845,-0.36486465,-0.0641977,-0.27959964,-0.18316904,0.22702844,-0.07480463,-0.01227772,-0.07696113,0.24379906,0.21915375,0.03804326,-0.2090166,0.024776189,-0.30428705,-0.51753044,0.00060137245,0.06327426,0.25752908,-0.35673884,-0.034101408,-0.23245436,-0.14639573,0.1696864,-0.40627322,-0.0217494,0.24616976,-0.11989887,-0.23759228,-0.3157931,-0.3921993,0.2534795,0.38929945,0.06305832,-0.55599964,-0.18634082,0.18258934,0.4275245,0.5820032
mạnh,-0.113951586,-0.2879395,0.4932948,0.07720455,-0.33803493,0.5554326,-0.06683039,-0.33034715,0.11680068,0.3754438,0.12529749,-0.0044862186,-0.2995144,-0.47581238,0.1367005,-0.36571774,-0.046833247,0.34249976,-0.0006804153,0.36273423,0.41740802,0.07039845,0.11104735,-0.1591112,0.520386,-0.22141488,-0.06624857,-0.049626306,-0.14085136,-0.03027513,-0.2232417,0.2522791,-0.12604152,-0.07215509,0.16165718,0.28354102,0.19211133,-0.4858018,-0.004248935,0.33147454,-0.35598794,-0.09590153,0.56538844,0.37845954,0.52486634,0.17945388,-0.41268322,-0.23269513,-0.09257803,-0.14850025,0.69953793,0.36491477,-0.113776594,-0.28064883,0.047111772,-0.25816637,0.030616,0.28924683,0.033181444,-0.3209411,-0.007876179,0.047406327,0.36681023,0.45611015
nước biển,0.090378,-0.21603811,0.82658964,-0.03248717,0.32236123,0.4132772,0.0029945245,0.10426951,-0.5140092,-0.3908328,-0.22824216,-0.48595884,0.1638909,0.07990772,-0.11125982,-0.26458767,-0.012343341,0.5175335,-0.00072869845,0.16442102,0.1485575,0.0044517647,-0.3977674,-0.101759166,0.40398937,0.047766477,0.03450153,-0.60493183,-0.46150342,-0.21694578,0.41021824,0.11626211,-0.084956944,-0.27033532,0.005316073,-0.08675116,0.42593703,-0.15944394,-0.1400405,0.10125957,-0.5473917,-0.11182835,-0.3540016,0.26559103,0.27794424,0.16524893,0.0015793177,-0.3339089,-0.1624019,-0.5139223,0.06242264,0.331681,-0.43755114,-0.47298005,-0.04922604,0.15497547,0.39493337,0.49215397,-0.47563675,-0.5607459,0.039181706,0.5915201,-0.04058755,0.35835782
gió,-0.07194986,-0.13994084,0.57208186,-0.14844844,-0.39463606,0.41616884,-0.08639305,-0.36610007,0.13497402,0.08773999,0.022365624,-0.016016109,-0.41933438,-0.6278106,0.024047595,-0.18245009,-0.023456039,0.13657999,0.02764045,0.21359986,0.1676042,-0.102018274,0.2279513,-0.12395419,0.34478238,-0.122630745,-0.19835413,-0.18372749,-0.49993476,0.16955219,-0.14253144,0.24067903,0.3297428,-0.072934076,-0.018889887,-0.06756935,0.21520106,-0.49175018,0.18003917,0.38490754,-0.47947818,-0.04379446,0.54230744,0.40794018,0.87522244,0.20130135,-0.4844119,-0.114378884,-0.06679635,-0.22024727,0.4429305,0.36554548,-0.13064994,-0.19550268,-0.06805523,-0.049973708,0.19274615,-0.09751988,0.43101594,-0.29896942,0.029397435,0.24805132,0.1433689,0.27736482
nghiên cứu,-0.16085163,0.07893519,0.46293655,-0.31761777,-0.21829924,-0.15035732,-0.35990784,-0.7384163,0.013863248,-0.15877485,-0.30464506,-0.7883948,-0.21909939,-0.062070932,-0.22485206,-0.29811987,-0.31049585,0.66667104,-0.31184193,0.19835067,0.28144434,0.39796034,-0.0435172,-0.34506193,-0.7312784,-0.23349948,-0.21329814,0.395684,-0.17091824,0.36901814,-0.42532223,0.11938869,0.3474856,0.15993342,-0.20913391,-0.0076154894,0.17357014,-0.01372484,-0.17667466,0.4370324,0.20146912,-0.25865352,-0.40008605,-0.3455992,0.24635427,0.10064828,0.13798776,-0.3954991,-0.14654149,-0.31424046,0.2561458,0.16617061,0.08657715,-0.20935558,-0.049483363,-0.19052945,0.14691576,-0.53365415,0.7164297,-0.2702576,-0.561837,-0.1360073,0.20548303,0.12519535
những,0.15867262,-0.08888241,0.516963,-0.23804346,-0.51402634,0.023077184,-0.030910501,-0.47314918,0.39752707,0.008585026,-0.6089506,-0.3848615,0.39362654,-0.4402002,-0.5655692,-0.3229947,-0.5427735,0.36065152,-0.21542582,0.103681214,-0.1204187,-0.63198245,0.30776587,-0.12101716,0.14386821,-0.086917706,0.07391744,0.061080728,0.012122696,0.119759694,-0.18637042,0.22221215,-0.06727699,-0.14727421,0.22069804,-0.09652294,0.6942594,0.03464638,-0.27297744,0.16365708,0.5207139,0.016776187,-0.4749571,-0.0065430775,0.49617004,0.6171391,-0.23371123,-0.30264843,0.2695803,-0.32754013,0.5077236,0.06262136,0.19833718,-0.16041927,-0.41403008,-0.2901808,0.49971503,-0.46987182,0.14208607,0.421481,-0.048634507,0.061458457,-0.5101742,0.45815125
nam cực,-0.07056114,-0.093834676,0.3824938,-0.2229452,-0.37818918,-0.092442915,0.079610206,-0.2638619,0.47954902,0.18191817,-0.06233208,-0.6351181,0.14290096,-0.20993873,-0.56720734,-0.536247,0.03602825,0.2811865,-0.018843528,0.012046945,0.66173506,-0.263112,0.04752665,-0.19785374,0.15779856,-0.1257008,0.023646599,0.23805639,0.060276777,0.42648968,0.0948523,-0.10073941,-0.4334774,-0.57997555,0.22633317,0.039410032,-0.14076541,0.20354046,-0.26017702,0.21625833,-0.101802096,0.06389693,0.10766812,0.4833812,0.49010083,0.41081366,0.12969707,-0.31890878,-0.4185518,-0.5094952,0.63531643,0.38884252,0.56083417,-0.15729083,0.02609757,-0.31217152,-0.042654555,-0.026313044,-0.094578914,-0.33427292,-0.38819954,0.059696663,0.3130362,0.21713927
vùng,0.62222826,-0.019588368,-0.08541996,-0.06548264,-0.15513992,-0.06778697,-0.04605407,-0.38900825,-0.18649939,-0.665859,-0.52321064,-0.3351541,0.25019008,-0.08119861,-0.2915129,0.1892741,-0.0481252,0.41003442,-0.38277522,0.30003068,0.17046042,-0.36924016,-0.3663241,0.080779575,-0.08393874,-0.1542849,0.09446306,0.07920895,-0.13060261,0.43833765,0.542192,-0.473935,0.016376875,-0.2208555,0.15227272,0.002259532,0.3008141,-0.13089937,0.34205875,-0.16296288,-0.47723067,-0.24050301,0.17438683,0.05821861,-0.103723824,0.37055305,-0.18077531,-0.39585397,0.036531847,-0.084439486,-0.009099514,0.14572038,-0.2666725,-0.10287112,-0.6720326,-0.057022896,0.31518388,-0.3836261,0.56114745,-0.18547717,-0.19874287,0.41376966,0.4037195,0.4930425
vì,0.020591889,-0.18879616,0.82962483,-0.24495369,0.20174406,-0.06066907,-0.04125876,-0.20386855,-0.25724298,0.31534702,-0.18575916,-0.5510819,0.2525205,0.16010019,-0.3925523,-0.29120755,-0.27434778,0.71696526,-0.08075416,0.12951131,0.19554432,0.3390378,-0.13430724,-0.31914413,0.051163994,-0.24723166,-0.12169552,-0.14170845,0.013850057,-0.20608793,-0.019214755,0.30623773,-0.25452283,-0.2034537,0.035988785,0.26504388,0.28190738,-0.06829958,-0.35341784,0.37758005,-0.042773023,-0.09255143,-0.3399897,0.15107396,0.12816995,0.15097645,0.2187915,-0.51258945,-0.1395294,-0.415655,0.7330097,-0.046711262,0.13986132,-0.38252243,0.27980515,-0.10815936,0.088128254,0.26662692,-0.40143245,-0.5133466,0.042157732,-0.102165565,-0.08521551,0.55052346
việc,0.04632948,-0.24250641,0.47390613,-0.38814926,-0.3838019,-0.13726775,-0.027425125,-0.39274013,0.4800036,-0.13732708,-0.38012385,-0.6552856,0.38195142,-0.2663066,-0.74275815,-0.5913388,-0.17686087,0.28330687,-0.25677797,-0.04202823,0.34751093,-0.44654748,-0.058467288,-0.3455855,0.31934926,-0.14972542,0.16338916,0.00023297747,0.18452813,0.38006428,-0.099933356,0.027883854,-0.5115844,-0.4653258,0.15315624,0.035396602,0.25127712,0.29497018,-0.4855817,0.14830793,0.37934372,0.057191096,-0.54496694,0.2228404,0.16515931,0.33865875,0.031593025,-0.009333241,-0.10548245,-0.55356133,0.6394768,0.39511174,0.4149072,0.05900374,-0.1094254,-0.33928317,0.29394713,-0.31249595,-0.10662459,0.037934158,-0.4060275,-0.12069472,-0.077606685,0.12088776
sinh học,0.16356912,-0.16245541,-0.038638577,0.041839372,-0.16680099,0.01872815,-0.2031516,-0.42618075,0.18879412,-0.43751484,-0.245979,-0.7900404,0.29995567,-0.27027485,-0.33569786,-0.08464109,-0.24126439,0.58702075,-0.464439,0.28138533,0.2544484,-0.1615535,-0.33604202,-0.050618235,-0.23521575,-0.28186864,0.07547646,0.3684164,-0.05496261,0.80486643,0.15349598,-0.2881318,-0.23463912,-0.07209353,0.27048,0.22282384,0.15818623,-0.11528285,-0.050588507,-0.17697851,0.08664571,-0.0076466356,-0.42835626,0.07011903,-0.095142625,0.23109113,0.083074905,-0.0033548237,0.39005843,-0.32870445,0.07302822,0.28068402,0.01699344,0.035154518,-0.061413255,-0.170543,0.25759083,-0.31364265,0.14014992,-0.01765578,-0.5096074,-0.011207578,0.48061445,0.14677402
về,0.24151821,-0.046200063,0.092050105,-0.18734926,-0.14058502,0.3006949,-0.34591815,-0.48114762,0.030903384,-0.4152039,-0.39425066,-0.6323231,0.2726616,-0.19428249,-0.33949974,-0.17498198,-0.24730265,0.4425476,-0.49070677,0.49157965,0.009852305,-0.011153258,-0.3846408,-0.17990223,-0.34581217,-0.014352966,-0.13389237,0.2443638,-0.0049912063,0.38687503,-0.26903215,-0.013512006,-0.15413447,0.04609343,0.19040644,-0.038219202,0.33274063,-0.28680915,-0.22233908,0.108720936,0.3839984,-0.19225977,-0.45683998,-0.25126895,0.026459558,0.55660534,0.085395254,-0.1500037,0.27898574,-0.16656116,0.27137136,0.15438452,0.06921437,-0.29287016,-0.38606453,-0.14158969,0.5472749,-0.18604156,0.12711053,0.13016851,-0.050256364,0.06859571,-0.35732308,0.3680458
hải lưu,-0.030433707,-0.06623838,-0.0100372415,0.27045825,-0.39747027,0.19281918,-0.09267639,-0.017484652,0.19487762,0.26082495,-0.048738837,-0.20848566,-0.22111566,-0.19548202,-0.08521073,-0.38201678,0.030990018,0.5204091,-0.037509337,0.5931179,0.5564599,0.05109893,0.08927337,0.1415741,0.07673714,-0.28876054,-0.20705253,0.43427742,0.2800269,-0.058291003,-0.15749349,-0.22049145,-0.2452306,-0.16410863,0.30638787,0.27449426,-0.2288058,-0.24750523,0.08327006,0.2029341,-0.20330814,-0.17568651,0.31254345,0.17696975,0.24463053,0.25734547,-0.13484189,-0.5153346,-0.3369259,-0.069335416,0.5440984,0.36791423,-0.07540451,-0.28416088,-0.2678115,-0.33833984,0.0768097,0.16587578,0.035692114,-0.4678091,-0.17542356,0.23354524,0.55917305,0.45036098
nhiệt độ,0.2576042,-0.35022232,0.49571007,-0.20639962,0.12716955,0.3373441,0.24672548,-0.27876619,-0.53637123,-0.34941274,-0.4687615,-0.25639012,-0.03797937,-0.09735919,-0.107776135,-0.24133703,0.25642702,0.1408267,-0.1742719,0.12007667,-0.02189733,0.3094316,-2.7949238e-05,0.11050431,0.4184677,0.12635791,-0.21400647,-0.33717898,-0.2794195,-0.023419578,-0.31831262,0.12608925,0.17868909,-0.030787906,0.110858575,0.070650816,0.017911734,-0.18438603,0.2013159,0.11410893,-0.362337,-0.08629886,-0.28398642,0.497781,0.7460747,0.17511456,-0.45226085,-0.032577008,0.0033972873,-0.4358552,0.27915636,0.34461513,-0.33465102,-0.26634806,0.028367853,0.15495266,0.43361944,0.21018147,0.095773265,-0.256316,0.38899603,0.72685754,0.07637276,-0.039900206
sống,0.49180007,0.018970916,0.025536787,-0.10924435,0.0060482747,0.08767358,-0.14793472,-0.5147655,-0.44632936,-0.59304076,-0.30178702,-0.31673944,0.12611954,-0.13104093,-0.27226716,0.18703552,0.2207323,0.29976335,-0.43132928,0.42990583,-0.0600921,-0.00695721,-0.5210803,-0.11162988,-0.22372422,-0.09296158,-0.22163405,0.018076997,-0.29283062,0.35274547,0.09819514,-0.14622228,0.09838336,0.13210031,0.107529044,-0.10673911,0.3594158,-0.48996472,0.16938284,0.013630304,-0.17696661,-0.12592113,-0.064838216,0.11942727,0.072457634,0.40244928,-0.07287243,-0.20354968,0.16984941,-0.0720565,0.038414266,0.16131146,-0.33501962,-0.22111645,-0.31243718,0.06608264,0.41315562,-0.1377924,0.3946661,-0.13741763,0.10063467,0.39381805,-0.116684765,0.19428256
sự,0.21676551,0.13193312,0.04651775,-0.19140817,-0.058015056,0.2869963,-0.16980943,-0.176797,-0.07209312,-0.15881845,-0.3718792,-0.3685759,-0.029580932,-0.09995465,-0.36077204,-0.37480104,0.07840411,0.24232866,-0.25067282,0.7915109,-0.032903306,0.19685495,-0.29290363,0.009656557,-0.1365748,-0.03164652,-0.29562575,0.36820248,0.1743572,-0.052672148,-0.5106122,-0.12914182,-0.021601798,0.08470832,0.24671575,-0.32669795,0.25132278,-0.53698575,-0.0552342,0.044640977,0.51675886,0.02088528,-0.6147886,0.044625208,0.3082283,0.6038197,-0.035703167,-0.18711886,-0.118287385,-0.1678159,0.39340302,0.56811005,-0.319815,-0.24866247,-0.26403195,0.120087855,0.65209234,-0.23604219,0.054713327,-0.0012308831,0.094108485,0.3286933,-0.31428072,0.20401075
băng,0.112637274,-0.22706704,0.51718634,-0.37284943,-0.52973056,-0.022413004,0.037762523,-0.3775982,0.62712264,-0.048913315,-0.392114,-0.7715887,0.39529124,-0.26868382,-0.9489202,-0.68772215,-0.18981308,0.37946928,-0.31295386,-0.01118174,0.34483105,-0.5079585,0.0019081132,-0.24935822,0.37612808,-0.034760993,0.13668911,0.18369111,0.16706501,0.5113694,-0.053017363,-0.035469033,-0.69224507,-0.61626035,0.38112068,0.06682279,0.21934505,0.24668415,-0.47172412,0.097885974,0.2430397,0.0394226,-0.308547,0.30073175,0.30688858,0.63801736,-0.11451681,-0.09198253,-0.043572884,-0.7128899,0.77139753,0.44105592,0.6787321,-0.12139964,-0.28175285,-0.41886488,0.21379478,-0.24704179,-0.15661219,0.040890407,-0.2751029,-0.07342699,-0.21529897,0.31751502
triệu,0.51909596,-0.3551506,0.1895364,-0.3122146,0.11343632,-0.27551585,-0.0035460466,-0.48630503,-0.66072696,-0.59733564,-0.439672,-0.3462802,0.19261551,0.12141557,-0.40036276,0.13936323,0.13825832,0.367765,-0.17091729,0.07752019,0.22995311,-0.14312468,-0.4973259,-0.13588995,0.29860795,-0.1913814,0.09746597,-0.19849612,-0.11233518,0.1784501,0.7394399,-0.3249048,-0.17594658,-0.036917295,0.008839737,-0.24333441,0.71595687,0.039310116,0.12525377,-0.1982165,-0.58386964,0.035682615,-0.15147002,0.71328735,-0.06807401,0.21781781,-0.23808227,-0.3344701,-0.12285997,-0.44379553,-0.09344791,0.31787,-0.5285902,-0.022504678,-0.013704239,0.12954158,0.41209155,0.021310164,0.028870737,-0.46419722,-0.023478163,0.48647767,0.2978084,0.07872801
lạnh,-0.068814784,0.11230935,0.7689014,-0.33655664,-0.28153092,0.104827315,-0.040303975,-0.28849167,0.25538072,0.05878433,-0.20682657,-0.2997343,-0.21678607,-0.45465928,-0.099879205,-0.05491778,-0.4270443,0.23925667,0.15484862,-0.070403114,-0.056554824,-0.35682344,0.37315416,-0.054380536,0.026874265,0.025084581,-0.084468655,-0.13596007,-0.40974528,0.07076465,-0.051110193,0.27104336,0.5012262,-0.2358639,-0.05268585,-0.40030578,0.32233712,-0.198578,0.073808946,0.28629458,0.0368116,0.13455638,-0.038267918,0.31190893,0.7596613,0.23310189,-0.20391524,-0.21447426,-0.08029992,-0.29230928,0.15335701,0.30115435,0.07569063,-0.07779853,-0.13446702,0.10748604,0.3664507,-0.48338574,0.43562734,-0.11114375,-0.09165135,0.34411916,-0.18597412,0.29567862
chỉ,0.348143,0.022208808,-0.06436531,0.11581116,-0.306917,0.17385802,0.0008042039,-0.08606363,0.23785499,-0.32893565,-0.61037934,-0.22796343,0.017347794,-0.39010018,-0.027401282,-0.08609976,-0.47104046,0.56907874,-0.16244349,0.42427817,0.52907836,-0.30606288,-0.12723832,0.53452677,0.19924366,-0.15711278,0.056102127,0.37003082,0.07015186,0.40185857,0.5798087,-0.53194845,-0.11409129,-0.5253492,0.5549899,0.038798943,0.1065975,-0.39785242,0.58583415,-0.2824903,-0.7256285,0.03645427,0.43646818,0.24336524,0.28250098,0.6853865,-0.32997057,-0.5709826,-0.32367662,-0.36587384,0.2545699,0.5743686,-0.08789261,-0.14620772,-0.6777507,0.034946155,0.32208768,-0.4630768,0.60273015,-0.25701287,-0.27980387,0.6475805,1.0631304,0.86811423
sinh vật,0.028863905,-0.0862191,0.19990717,0.047415417,-0.32259372,-0.17887212,-0.095360994,-0.480992,-0.33439696,-0.08075453,-0.6082302,0.29762822,-0.15542966,-0.06641684,-0.2756161,-0.39075103,-0.1514278,0.34800252,-0.39179775,0.24412309,0.077843115,0.0061924467,0.19960834,0.098601855,0.15031277,-0.20238031,-0.31364346,0.19199002,0.10307816,-0.44554704,-0.37288612,0.11110475,0.40380937,0.028456727,-0.15301703,-0.043428883,0.20139511,0.33725443,0.028066918,0.41164345,-0.19167018,-0.34459835,-0.340403,-0.4750099,0.24483338,0.28725895,-0.17759031,-0.5132879,-0.18284336,-0.08839919,0.48075843,-0.19550163,-0.3530429,-0.2958869,-0.30983567,-0.56969213,0.35736617,-0.36434433,0.668506,-0.061359882,-0.14736393,0.19251655,0.23878403,0.21762516
° c,-0.15839809,-0.38021344,0.6365367,-0.000664598,-0.38049242,0.56955004,-0.1523051,-0.38232207,-0.027081443,0.03961182,0.075942464,0.111776635,-0.37775156,-0.5963519,-0.015974574,-0.30461752,0.08983347,0.3289219,0.039987743,0.3435037,0.2419649,0.12721609,0.04411944,-0.24094361,0.6200585,-0.20554847,-0.27253008,-0.3096878,-0.43246755,0.09728824,-0.29886007,0.2855518,0.10583064,0.054415237,0.020894416,0.20724992,0.26124242,-0.6350696,0.1904394,0.4009085,-0.6089659,-0.022486873,0.4794763,0.5371382,0.82970655,0.114044756,-0.5862809,-0.050058503,-0.0005262818,-0.24877247,0.594053,0.2782885,-0.28538096,-0.2218643,0.2009978,-0.18408781,0.1799608,0.2602833,0.26985648,-0.31912926,0.11600932,0.10191375,0.4001756,0.14272538
như,0.2475393,-0.35420936,0.30155048,0.19305411,-0.59497696,-0.059855454,-0.06954466,-0.61547196,-0.28256,-0.23865274,-0.58418775,0.3050757,0.028611809,-0.3608236,-0.32553992,-0.56989485,0.04957894,-0.104216635,-0.70260674,0.21161842,0.07544592,-0.21763752,-0.17162408,-0.18608823,0.7224937,-0.1772392,-0.1832391,-0.03527559,-0.15739372,-0.371381,-0.17896731,0.11721813,0.23855746,-0.057245225,-0.16536364,-0.1344074,0.28897527,0.54319113,-0.31882533,0.39531356,-0.35506696,-0.45476153,-0.46121627,-0.4032968,0.32816705,0.37283888,-0.20741916,-0.25607857,-0.23014414,-0.23373088,0.64287233,-0.21619932,-0.3632012,-0.32872918,-0.109799385,-0.6937756,0.37647185,-0.2682511,0.37401313,0.047892056,-0.52242434,0.050253622,0.28301904,-0.18200159
trung bình,0.060810745,-0.28521413,0.41499415,-0.12513773,-0.14717805,0.4005843,-0.0046016127,-0.40600553,-0.31349728,-0.15593742,-0.24309465,-0.065552704,-0.33027372,-0.33060974,-0.27732262,-0.22876014,0.2166887,0.3595388,-0.07024544,0.2786027,0.09381912,0.2939227,0.2196668,0.07939142,0.36021978,-0.13906872,-0.4776957,-0.09078407,-0.28731036,0.17720187,-0.46743342,0.07272049,0.2379363,0.076711185,0.18305282,0.21036656,0.034943465,-0.4980801,0.44374228,0.23384975,-0.5924945,0.0951464,0.22228338,0.7278057,0.88211095,0.10940799,-0.69517756,0.020088887,0.16053626,-0.35682493,0.4289459,0.38056707,-0.28607193,-0.11782269,0.1456162,-0.0194265,0.33871245,0.19787864,0.413305,-0.40013766,0.43342015,0.48173645,0.40185848,0.014837054
quan trọng,0.101038165,-0.16188209,0.045986407,0.098703764,-0.41973692,-0.06625726,-0.11916245,-0.18614477,0.3955679,-0.4454669,-0.26285762,-0.5266945,0.35882866,-0.4389364,-0.41689977,-0.20804472,-0.2579027,0.4233622,-0.29224315,0.2313444,0.29231232,-0.6340104,-0.11644872,0.034519754,0.22826648,-0.1631239,0.163277,0.0710921,-0.005233764,0.42230958,0.28672007,-0.32269606,-0.22623278,-0.15453848,0.23912849,0.1471995,0.32579967,0.1300968,-0.08292957,-0.2246102,0.15449542,0.09595966,-0.45716706,0.28024158,-0.08226757,0.13957357,-0.09607736,0.027956966,0.19935396,-0.25382695,0.010815938,0.43229792,-0.100570224,0.18521008,-0.26260146,-0.20001394,0.39800504,-0.26528877,0.035619408,0.025508791,-0.5227981,0.11103833,0.46791294,-0.05410272
bức,0.21507755,0.04990442,0.34710088,0.0064124074,-0.14217323,0.3084576,0.14427519,-0.113394864,0.09747266,-0.26082718,-0.64423186,-0.008186782,-0.16606748,-0.42832708,0.21232195,-0.08004339,-0.75448793,0.5522427,0.024099248,0.19264938,0.29692665,-0.24264506,0.06475225,0.5401201,0.36390066,-0.02438483,-0.07277929,0.15519236,-0.18791814,0.2572836,0.53014547,-0.22354326,0.27372348,-0.54617554,0.5647161,-0.17747624,0.31279045,-0.5401443,0.7411673,-0.22811614,-0.96993166,0.08146772,0.4728141,0.25555128,0.70608443,0.62180793,-0.5650613,-0.5509789,-0.2817747,-0.5158417,0.2222214,0.6251717,-0.24183743,-0.15582116,-0.49998227,0.1692562,0.32512102,-0.5631856,0.79222554,-0.16700077,-0.04442407,0.6910532,0.9278335,0.9696322
quanh,0.126102,-0.06288509,0.39282745,0.27394328,-0.016471429,0.50043553,-0.49017137,-0.11502393,-0.24044864,-0.22732398,-0.07629979,-0.32693812,-0.14991638,-0.12088543,0.02183985,-0.2588229,-0.25097653,0.7333804,-0.15879056,0.17564271,0.29743844,-0.35236913,-0.63768864,-0.14391755,0.2171988,-0.11473205,-0.14294776,-0.041116852,-0.1600031,-0.02820504,0.36009172,-0.19817932,-0.3634548,-0.21988703,0.29045805,0.06866745,0.055534087,-0.3334838,-0.14304176,-0.33539346,-0.54910874,-0.18899506,0.16210754,0.16318141,-0.56930524,-0.105094716,-0.14944741,-0.2376032,-0.14162925,-0.34039527,0.12834293,0.5697234,-0.27740785,-0.16140074,-0.40924016,-0.30964738,0.14448218,0.39293572,-0.06166907,-0.6181251,-0.32692695,0.31773025,0.32362455,0.5600088
để,0.02473739,-0.04343152,0.37586492,-0.3272557,-0.22496569,0.02076805,-0.39448074,-0.7272497,0.036868658,-0.37817526,-0.40909988,-0.7732191,0.2501078,-0.24404591,-0.36167473,-0.26897725,-0.41199568,0.68148667,-0.46851417,0.33104092,0.16259156,0.14839779,-0.27715793,-0.27231133,-0.5608681,-0.1902424,-0.02072251,0.18393932,-0.061227407,0.5510932,-0.41739947,0.13809669,0.073620275,0.093109496,-0.040654674,0.10446867,0.46924236,-0.080606,-0.26068535,0.3457584,0.3392379,-0.26071683,-0.5966563,-0.4428378,0.16199228,0.4120251,0.17866331,-0.26741803,0.18724476,-0.28399384,0.43993703,0.070226826,0.14798532,-0.17748278,-0.11253509,-0.1215266,0.41970503,-0.5672569,0.48744217,0.12960042,-0.3584353,-0.14170982,-0.10869206,0.25250077
loài,0.16125375,-0.2334608,0.31914923,-0.040882614,-0.48064008,-0.057001665,-0.24884057,-0.4741032,-0.16989441,-0.28498173,-0.3411735,0.15731627,-0.22206393,-0.32326573,-0.13049728,-0.22934283,0.07107935,-0.01957672,-0.47438392,0.17364539,0.0532047,-0.25114062,-0.05905683,-0.16298354,0.39506873,-0.1550629,-0.18523172,-0.13530341,-0.24705058,-0.13825852,-0.09341071,0.010426188,0.41474745,0.055853505,-0.31205574,-0.14119501,0.23230895,0.19366066,-0.095153734,0.38789606,-0.2955815,-0.28603894,-0.31162885,-0.10907796,0.14505696,0.08637374,-0.14910793,-0.029812368,-0.12680675,-0.1068114,0.29631904,0.05816541,-0.34977484,-0.13644315,-0.11833331,-0.3453994,0.38720015,-0.33904225,0.5699411,-0.20431046,-0.4033356,0.13773935,0.27512926,-0.1244887
chim,0.21609661,-0.18534583,0.212436,-0.051390853,-0.44194314,-0.026138198,-0.2990041,-0.57980794,-0.26379207,-0.14704932,-0.51655054,0.25342384,-0.20590591,-0.14100459,-0.33777696,-0.40740207,0.04062772,0.06192671,-0.4895198,0.17544307,0.13070858,-0.11700751,-0.017789971,-0.056054424,0.46016064,-0.24447875,-0.25718743,-0.026257364,0.18513757,-0.47267407,-0.4416785,0.08254861,0.14758794,-0.106493555,-0.25414178,-0.023314064,-0.09101367,0.38843384,-0.07981325,0.47145227,-0.2369001,-0.34245226,-0.31361914,-0.22560191,-0.050670292,0.16342424,-0.009738803,-0.22122753,-0.24632062,0.027367879,0.77099484,-0.06843455,-0.23754373,-0.2528662,-0.24242091,-0.58620894,0.36090553,-0.24175413,0.47528255,-0.15455319,-0.35589898,0.22986932,0.31212932,0.17021827
trạm,-0.17908293,-0.0687846,0.59566003,-0.34184062,-0.37942874,-0.34977174,-0.4101224,-0.93887323,0.028414376,-0.1421762,-0.53085905,-0.6499819,0.040693678,-0.15323308,-0.35395575,-0.30206925,-0.78578824,0.8552576,-0.35958728,0.09778893,0.32405838,0.1624834,0.0797782,-0.27240288,-0.54873353,-0.32949877,-0.067696765,0.21093564,-0.0038498333,0.29097,-0.37131307,0.29696485,0.35580134,0.1822512,-0.20818467,0.26312035,0.5736712,0.25435153,-0.21888147,0.5022234,0.06788974,-0.34761575,-0.50475305,-0.46501145,0.21251577,0.17117995,0.021252481,-0.5223173,0.1279873,-0.33558515,0.4934904,-0.15973596,0.23905067,-0.16282894,0.00056105107,-0.4297503,0.22704086,-0.708837,0.8524638,-0.03508615,-0.54175276,-0.40061998,0.33123356,0.30057737
góp phần,0.21306802,0.118013196,-0.036912385,-0.0084902905,-0.12216231,0.23887125,-0.12582695,-0.026275368,-0.06916261,-0.11968455,-0.5622375,-0.37181997,-0.278362,-0.13888419,-0.19037327,-0.54859596,0.22808947,0.30972806,-0.40524167,1.0248195,0.30011547,0.05408948,-0.2094954,0.23160397,-0.051791057,-0.21322426,-0.33349308,0.7023282,0.33323783,-0.32347423,-0.45992333,-0.39152676,0.07445625,0.021895103,0.32202762,-0.43487626,0.03866809,-0.52827185,-0.010236745,0.032032378,0.5686187,-0.0021108857,-0.89569986,0.025696013,0.31774035,0.4749035,-0.06104765,-0.3682058,-0.5665709,-0.14885098,0.3898646,0.9269382,-0.73022956,-0.18246016,-0.35092053,0.09744372,0.72135615,-0.2990269,0.24990688,-0.33857664,-0.1517505,0.60915965,0.17593327,0.025131581
hệ thống,0.13038312,0.050867774,0.27503785,-0.25070176,0.14136945,0.24737488,-0.14066535,-0.08528681,-0.15225324,-0.21615604,-0.32125854,-0.5223987,-0.05946041,-0.11559761,-0.052947503,-0.37181488,0.04724917,0.11733252,-0.18250945,0.4015054,0.21732311,-0.0646078,-0.49082437,-0.16367541,0.1287297,0.022427926,0.001865349,0.021124136,0.054007217,-0.24629529,-0.19985266,-0.08635556,0.00487757,-0.033941172,0.07557899,-0.35079533,0.16788723,-0.1971686,-0.34846583,-0.07894503,0.47194144,0.00306576,-0.7741242,0.266807,-0.07818127,0.1591099,0.065423384,0.0033447046,-0.42939937,-0.29101253,0.11631574,0.7924783,-0.39670414,-0.06518516,-0.20715058,0.18224229,0.59442806,-0.07676978,-0.14569628,-0.21768278,-0.30773944,0.447736,-0.0022100387,-0.00065851933
dương,-0.09788749,-0.21304376,0.20799363,-0.045394845,-0.4786975,-0.30106324,-0.31527665,-0.17731789,-0.23013686,-0.29517937,-0.15818197,0.13364463,-0.25843006,0.113061205,-0.85046995,-0.13125844,-0.09857991,0.52958304,0.2236796,0.4113209,-0.11289447,0.23205431,-0.14837393,0.02293316,0.71191144,-0.19082658,-0.3328955,0.08464071,-0.07114996,-0.37424585,0.2386824,-0.2465412,-0.078109235,0.30235273,-0.07371497,-0.010430839,0.80496556,-0.010362227,0.33272904,-0.08009755,-0.524785,0.22353068,-0.19429423,0.64372945,-0.029168958,0.181299,-0.6440953,-0.0829971,-0.048583653,-0.4067456,0.015953803,0.41466296,-0.42193583,-0.09275649,0.24529314,-0.27929607,0.39823025,0.033244416,0.09180226,-0.4157186,-0.049196452,-0.1199682,0.607537,-0.015648704
thái bình dương,-0.31503096,0.017114177,0.4626335,-0.064471155,-0.26002988,-0.13929395,-0.40202144,0.040704913,-0.0060218545,0.0039289286,-0.06415748,-0.22943617,-0.29216123,0.10171186,-0.6776042,-0.29105723,-0.24619116,0.5239678,0.30861506,0.35997772,-0.048795216,0.37301624,-0.14281283,-0.12739396,0.5506273,-0.1875323,-0.3347418,0.062324185,-0.08924744,-0.3816448,-0.033804562,-0.102283895,-0.07055404,0.18604524,-0.053489394,0.038224366,0.4385522,-0.1902543,0.10054245,-0.037865918,-0.30494013,0.33961648,-0.25122473,0.59158576,-0.07453008,-0.0037453119,-0.34618795,-0.076516606,-0.108742945,-0.4114007,0.17374048,0.4614752,-0.1435583,-0.22439423,0.39455062,-0.22475515,0.23347993,0.138749,-0.17140585,-0.5228804,-0.23145583,-0.21029946,0.5925102,0.13306059
ổn định,0.29503325,0.0784359,0.08913522,-0.15690844,-0.07464396,0.13523878,-0.016490925,-0.032915287,0.008454189,-0.23492046,-0.46815568,-0.5989864,-0.19110715,-0.1542357,-0.25087804,-0.44472423,0.21878906,0.04540125,-0.34359056,0.73366725,0.19715773,-0.053206403,-0.3157026,0.12305617,0.11386474,-0.063842356,-0.15153201,0.4806815,0.11468435,-0.13897493,-0.25881332,-0.44160682,0.054736067,-0.05238403,0.24562292,-0.4619477,0.11671068,-0.3656715,-0.14622198,-0.14331149,0.57918566,0.09150311,-0.89581364,0.32127628,0.19680335,0.38270074,-0.10731204,-0.1404533,-0.5287409,-0.25834215,0.22319072,1.042323,-0.5900145,-0.11436718,-0.20517483,0.25638297,0.6430946,-0.33871838,0.04003831,-0.2853088,-0.28094012,0.6105575,0.12474651,-0.17108648
hành tinh,0.29429004,0.0570816,0.60110855,0.19467272,-0.19715759,0.2953828,-0.065979466,0.2555871,-0.23233171,-0.34319618,-0.11242902,-0.9583531,-0.021158181,0.23720261,-0.3604834,-0.30818614,0.27564684,0.43355182,-0.23701286,0.461358,-0.019067151,0.038694326,-0.4344091,-0.0073887473,0.09528944,0.14419891,-0.039499916,-0.1769645,-0.53915983,-0.1346247,0.07179303,-0.25006816,-0.007189491,-0.033236705,0.09423008,-0.049689904,0.21515362,-0.26045942,-0.15018877,-0.07078877,-0.10765338,-0.35266837,-0.29529837,0.10862531,0.114361845,0.08659881,-0.2616832,-0.40500182,-0.2209303,-0.3070092,-0.09701221,0.7490897,-0.42048,-0.6490947,-0.5406902,0.059687015,0.3088692,0.46797308,-0.24045007,-0.5653591,-0.15104398,0.6815642,-0.20091504,0.19035184
đặc trưng,0.39525464,-0.14921609,0.4590634,0.098444656,-0.37469724,0.09420337,0.070975155,0.047808837,-0.11199584,-0.22410178,-0.06131034,-1.3148735,-0.0606515,0.18787172,-0.37524742,-0.3223255,0.46981987,0.39739847,-0.31164798,0.40787324,0.14962365,0.0403473,-0.26573828,0.0110020805,-0.13454519,0.01999993,0.04067776,0.07742879,-0.59364355,0.23608314,0.075196326,-0.41922352,-0.08235505,0.03810685,0.065949745,-0.08844258,0.18626878,-0.114839055,-0.18826963,-0.070666075,0.081111595,-0.35377276,-0.36525887,0.38023648,0.2973881,0.07649891,-0.30080202,-0.4138775,-0.28742662,-0.36799246,-0.19082242,0.93060374,-0.42138696,-0.5873759,-0.30912066,0.17768945,0.23741713,0.33380592,-0.24690454,-0.6764931,-0.23161219,0.6761061,-0.17065091,-0.1318524
trực tiếp,0.27144504,-0.270003,0.42110884,-0.23135337,0.4147049,0.18972257,0.20408928,-0.18063489,-0.6784609,-0.36692896,-0.409065,-0.22216801,0.27781323,-0.099977076,-0.049986795,-0.25310445,0.19314408,0.195555,-0.20710519,0.24073559,0.25512686,-0.019747784,-0.44638768,-0.16019845,0.2851139,0.026209215,-0.02844721,-0.34173584,-0.2184048,-0.14767659,0.35133943,0.12233673,-0.00992181,-0.24176426,0.15824644,-0.3535518,0.40335494,-0.115997724,-0.1897274,0.14217526,-0.34269583,0.00614093,-0.48442575,0.2916244,0.5841684,0.45170972,0.051591147,-0.33342803,-0.28378588,-0.52477455,0.17822365,0.16428073,-0.46153542,-0.2354019,0.062377643,0.19623245,0.50559926,0.22572087,-0.24273232,-0.28896564,0.11915175,0.61696154,-0.05240561,0.11103283
nhanh,0.060849193,-0.2550666,0.5191791,-0.41762623,-0.5987439,-0.06497818,-0.048306238,-0.64487654,0.4991477,0.043338984,-0.6678619,-0.382879,0.36096913,-0.37605932,-0.8675054,-0.6167664,-0.5859944,0.48906076,-0.22287875,-0.14527112,0.23082078,-0.5981821,0.23052199,-0.21801315,0.43233758,-0.06557212,0.20049173,0.07375245,0.37009233,0.23070659,-0.22850235,0.15606141,-0.53275806,-0.47134286,0.22998299,0.10166122,0.507775,0.359377,-0.34505036,0.25571236,0.2831247,-0.027639043,-0.29859957,0.14926572,0.35436574,0.61299205,-0.25538856,-0.2550989,-0.021866929,-0.61850035,0.8548089,0.15921307,0.6598275,-0.056546606,-0.3272523,-0.55865526,0.3017644,-0.388195,0.1048002,0.28196773,-0.21604232,-0.18666068,-0.18939574,0.42568278
còn,-0.11953438,0.072550446,0.2110028,-0.16456717,-0.07096564,-0.13999997,-0.2247931,-0.37600884,0.14308079,-0.15448466,-0.09819988,-1.0902243,-0.23819202,-0.10338766,-0.22645628,-0.26189762,-0.11196651,0.49933755,-0.19665317,0.2855838,0.5198205,0.24476597,-0.20549583,-0.1451765,-0.5856579,-0.23892114,-0.11564365,0.55253905,-0.20938325,0.6055061,0.009375917,-0.24461663,0.16329707,0.003399304,0.02445743,-0.036705084,-0.12852558,-0.06769348,-0.028968628,0.03291762,0.15751767,0.106536046,-0.4769079,0.17610095,0.21266378,0.08100286,0.28851348,-0.17041668,-0.2871661,-0.42157605,-0.046593767,0.58476883,0.035207193,-0.09385599,0.24607928,0.022268832,0.14222506,-0.4126398,0.28765425,-0.60176533,-0.8060291,0.026785858,0.7482237,-0.21968576
đóng,0.27327773,-0.32945418,0.25645283,0.03080942,-0.59962916,-0.20688963,-0.06777551,-0.18261145,0.37837753,-0.3637606,-0.16115102,-0.9553325,0.25724486,-0.34844324,-0.46582314,-0.22081448,0.077808626,0.27289653,-0.30023214,0.21743119,0.2630113,-0.63212603,-0.1983286,-0.10271857,0.3413427,-0.27693707,0.25425452,0.067706674,-0.1959487,0.46155757,0.29025277,-0.48040414,-0.30304638,-0.11765197,0.0772249,-0.051802684,0.39950618,0.065173104,-0.26246557,-0.17000462,0.29120365,0.059781086,-0.62324935,0.55799574,-0.02609978,-0.033697397,-0.15218067,0.03737727,0.06076258,-0.32434288,-0.030877206,0.7898788,-0.31948787,0.09736681,-0.009344801,-0.011927291,0.3183504,-0.10344282,-0.09454982,-0.22927333,-0.59062725,0.22528248,0.29893434,-0.31093857
vai trò,0.10806079,-0.24798396,0.29138,0.14066912,-0.45015574,-0.047405604,-0.08374588,-0.07056636,0.36685887,-0.22813241,-0.17734876,-0.7031317,0.32755342,-0.36167893,-0.45864683,-0.29720372,-0.20926237,0.3708989,-0.21758904,0.25917894,0.22151172,-0.60597736,-0.22182569,-0.1005181,0.41219008,-0.1975452,0.20730297,0.0026667311,-0.107232235,0.29588184,0.27038634,-0.29920566,-0.29525426,-0.08014401,0.1972719,0.0019277544,0.5773797,0.03739716,-0.2953749,-0.20130144,0.31143224,0.14473788,-0.684184,0.38314816,-0.014319296,0.07937333,-0.14950119,0.061313167,0.13846716,-0.35226706,0.041494556,0.5754701,-0.2187909,0.052234314,0.0051488103,-0.16283242,0.3295155,-0.09758826,-0.31104827,-0.011804545,-0.48061892,-0.021228513,0.22375754,-0.15316525
hoàn hảo,-0.31417757,0.1376262,0.23777992,0.018714705,0.0052416613,-0.18239364,-0.18307644,-0.24596828,-0.25650495,-0.09951186,-0.48362872,0.21859793,-0.20297198,-0.10428874,-0.2155597,-0.16060123,-0.6057234,0.81056017,0.13539012,0.14357689,0.06386428,0.0719034,0.32083055,0.39553303,-0.14095525,-0.13903235,-0.49105367,0.2863352,0.11007577,-0.2532913,-0.1643156,0.1753893,0.55047077,0.11789133,0.13521929,-0.1624227,0.37505418,-0.007828859,0.42982578,0.119598985,-0.4373902,0.061674148,-0.20203243,-0.008117719,0.47200143,0.16906066,-0.36637682,-0.44909334,0.08434625,-0.40273476,0.023650674,0.13925058,-0.3010103,0.0042633694,-0.12768644,-0.31442076,0.4611549,-0.42885494,0.7187281,-0.06397353,0.11248037,0.32898918,0.45262477,0.45490605
duy trì,0.20811525,0.15392473,0.016753364,-0.0376035,-0.08474202,0.33439288,-0.09779461,0.07331156,0.024279224,-0.07374426,-0.47309077,-0.39645955,-0.14410445,-0.12912141,-0.24018624,-0.51902354,0.23353854,0.28327292,-0.28470838,0.9408221,0.21539992,-0.047538843,-0.1461684,0.16383092,-0.030673798,-0.16006151,-0.27216825,0.5366938,0.33932433,-0.2415924,-0.38624465,-0.34806582,-0.054983698,-0.04905507,0.40584725,-0.29683113,-0.03520293,-0.550386,-0.014698184,-0.015718078,0.54694074,0.003540545,-0.72460747,0.11634383,0.23870409,0.43404862,-0.05691908,-0.3116181,-0.39158323,-0.1591465,0.39669195,0.83812034,-0.5132376,-0.14950061,-0.42511225,0.074773185,0.62185264,-0.1724148,0.10190922,-0.30932352,-0.06068758,0.5389985,0.036733992,0.14643149
độc đáo,0.46547988,0.051089004,0.115768366,-0.014426551,-0.06792075,-0.022026744,0.056588624,-0.28695604,-0.07555742,-0.5453242,-0.8447149,-0.20343596,0.1645693,-0.28308937,-0.062083382,0.08281927,-0.6911178,0.66672736,-0.24933794,0.19622262,0.3408629,-0.38260207,-0.18482515,0.4869119,0.088761866,-0.08788005,-0.0041680792,0.20998378,-0.08365662,0.41770005,0.74774265,-0.42543364,0.10521584,-0.49654692,0.5490358,-0.096374124,0.3647611,-0.31987867,0.6492015,-0.3001194,-0.9090752,-0.020164711,0.3053998,0.1391568,0.29822716,0.66902524,-0.37504077,-0.69095767,-0.19388899,-0.46048284,0.097362675,0.36688066,-0.17102091,-0.13736829,-0.71359146,0.05801382,0.36422092,-0.6380804,0.81860936,-0.14318974,-0.16409054,0.6706771,0.9220238,0.98090774
mực,0.108355425,-0.21353972,0.787724,-0.13913961,0.46030876,0.2726964,-0.10809201,-0.12814294,-0.63455063,-0.21204099,-0.27824885,-0.3205645,0.20383693,0.09362728,-0.12633643,-0.22690703,-0.11196139,0.4939104,-0.17432006,0.06437977,0.25929424,0.035092603,-0.43361917,-0.18091631,0.32385778,-0.10655907,-0.06692614,-0.49110922,-0.18051635,-0.29571933,0.41117412,0.2642826,-0.1586932,-0.48515344,0.031693146,-0.19186299,0.23230602,-0.096995056,-0.24714643,0.2940941,-0.49954483,-0.008440286,-0.51811904,0.15758216,0.20181546,0.25706932,0.3452551,-0.44137377,-0.25846165,-0.4557322,0.45672116,0.015052078,-0.18370837,-0.4315506,0.23282714,0.08555827,0.4334125,0.38791412,-0.48242176,-0.59129286,-0.04486354,0.46196893,5.958628e-05,0.4749753
chảy,-0.055526603,-0.11216686,0.5796459,0.23881869,0.036256045,0.45228812,-0.5023512,-0.38595277,-0.2696658,0.17479809,0.06009614,-0.30191574,-0.20269454,-0.18698259,0.17569502,-0.2991837,-0.5410864,0.91202766,-0.12952787,-0.049897518,0.4407761,-0.1925285,-0.5159717,-0.30617115,0.09751095,-0.08613812,-0.19555153,0.024397893,-0.1968223,-0.060943596,0.2444789,0.109174885,-0.19284292,-0.19696645,0.36325163,0.07335732,0.16239908,-0.2686207,-0.23352845,-0.18817376,-0.5875058,-0.27012414,0.38663122,0.27889743,-0.423146,-0.1834872,-0.24190336,-0.4043047,-0.19108014,-0.39676103,0.21304841,0.4497577,-0.0294716,-0.18167238,-0.219166,-0.4393777,0.05437126,0.4550368,-0.07027985,-0.67396307,-0.31011775,0.06295806,0.30549517,0.79059815
năm,-0.01596353,-0.16521487,0.46169475,-0.32447407,-0.36826316,-0.33480698,-0.11591118,-0.6489031,0.17858136,-0.14245628,-0.6988445,-0.288394,0.38017887,-0.22132388,-0.60887516,-0.2812542,-0.7984499,0.65775955,-0.24104537,-0.06774607,0.059164044,-0.34605315,0.26802245,-0.056991335,0.08990168,-0.2243567,0.09635605,-0.031665213,0.2975195,0.043606203,-0.17279957,0.24283157,-0.050101765,-0.043956097,0.0607311,0.13336937,0.8313095,0.30870733,-0.17852256,0.22620192,0.24944137,-0.08640814,-0.6110804,-0.11701422,0.1955459,0.37803394,-0.27030772,-0.34335163,0.2882939,-0.37444732,0.5307265,-0.15261003,0.18228807,0.056425467,-0.22199428,-0.38970074,0.3388212,-0.5791594,0.42638525,0.37198997,-0.116018154,-0.26778457,-0.019898241,0.36106518
lớp,0.032562584,-0.21371938,0.5670633,-0.38578516,-0.33580354,0.018242791,0.11748123,-0.26895034,0.44805053,-0.08884717,-0.20674941,-0.8307826,0.33916852,-0.14299518,-0.8976675,-0.7443703,0.12109805,0.2494868,-0.24828169,-0.069493204,0.33719727,-0.2584367,-0.07166348,-0.2559633,0.3843413,0.12110118,0.00015090837,0.099602014,-0.052931495,0.48106015,-0.016410835,-0.028198505,-0.5857011,-0.61976004,0.3520697,0.031707644,0.018601509,0.25388575,-0.47338483,0.04658097,0.084496595,0.09681807,-0.27506825,0.36494893,0.4844841,0.59049124,-0.12486385,-0.016035412,-0.16793719,-0.8241422,0.6314766,0.49310246,0.6142779,-0.2329083,-0.13603023,-0.23561674,0.20112473,-0.082666054,-0.2975066,-0.20780505,-0.18210211,0.06091147,-0.23804946,0.16934018
lượng,0.100790955,0.08009425,-0.08003957,0.16371384,-0.32653534,0.2834861,-0.23759173,-0.08317458,-0.12524664,0.1903157,-0.5416904,-0.033833254,-0.37301427,-0.14985563,-0.18361592,-0.71032566,0.21797562,0.42768607,-0.3559046,1.074285,0.42872363,0.12907581,0.04544261,0.2363453,-0.0030149948,-0.36808604,-0.5044731,0.7275356,0.5872184,-0.5330895,-0.62945795,-0.23118436,0.0029137419,-0.05455175,0.3376181,-0.161035,-0.22961682,-0.39533854,0.021328913,0.3947133,0.2525706,-0.22884925,-0.5524818,-0.17903829,0.3471359,0.5307693,0.016542284,-0.67271006,-0.61308724,-0.011965848,0.8046254,0.5481152,-0.56858027,-0.37364018,-0.421228,-0.36952117,0.59261584,-0.14211112,0.2601047,-0.44104096,-0.21559434,0.49951628,0.3174804,0.3434756
hải lưu lạnh,0.12077728,-0.20459187,0.7417984,-0.37414616,0.2444966,0.037875757,0.124405,-0.18148786,-0.29592392,0.2420739,-0.24304217,-0.45069999,0.19442423,-0.01691587,-0.1148263,-0.13698982,-0.08972839,0.52590936,-0.074719995,0.12602168,0.29494637,0.21308567,0.03591675,-0.1769347,-0.12883314,-0.25759995,-0.02851084,-0.19612864,-0.087961055,-0.0603329,-0.02306591,0.26336303,-0.016190104,-0.35932872,0.035594083,0.047946032,0.15623039,-0.21238568,-0.17056409,0.6084261,-0.11849102,-0.046960965,-0.26197684,0.1587958,0.6162388,0.30787775,0.34160978,-0.5749061,-0.27128282,-0.2626205,0.72100896,-0.10988927,0.0229861,-0.3700003,0.24169978,0.17059138,0.16125356,0.059036147,-0.14827386,-0.43507692,0.12523532,0.19142063,-0.11362132,0.48831376
nên,0.03037044,0.1607809,0.25717363,-0.011213499,-0.13827275,0.014611564,-0.037417278,-0.1751774,0.080233715,-0.22338247,-0.707659,0.12812673,-0.21763493,-0.3398215,0.011822433,-0.05560247,-0.85039437,0.6542578,0.054631867,0.1711818,0.1537146,-0.26730657,0.17492978,0.56744325,0.24638084,-0.111691706,-0.2368188,0.28249002,-0.06005755,0.033193726,0.3604115,-0.16435005,0.4022888,-0.36845765,0.42708474,-0.34298927,0.44837394,-0.3796662,0.7148405,-0.14262268,-0.8162605,0.15640858,0.19854951,0.12201707,0.5720063,0.5241829,-0.5208361,-0.5409667,-0.19791809,-0.49604774,0.16036819,0.55318046,-0.26525792,-0.042384177,-0.45263717,0.023056962,0.43493608,-0.7503679,0.961481,-0.06147117,-0.020153502,0.6062785,0.8077149,0.86941516
tăng,0.0784496,-0.22087385,0.7614922,-0.14703304,0.33041292,0.24053998,-0.089211285,-0.045976304,-0.54378426,-0.061075177,-0.15113765,-0.30327502,0.20300986,0.16183731,-0.17887992,-0.23655134,0.04436404,0.5473197,-0.057168193,0.23093878,0.26838818,0.19447964,-0.37147534,-0.21669005,0.22827491,-0.15639655,-0.08212686,-0.38877422,-0.059069406,-0.3345166,0.2215874,0.20229012,-0.20458098,-0.36428767,0.011304188,-0.083024204,0.30442482,-0.2545646,-0.2237547,0.41534373,-0.34922463,-0.07054097,-0.4418581,0.18508716,0.24805202,0.25284004,0.33374727,-0.49772334,-0.2528925,-0.35971707,0.53168076,0.099674985,-0.22405092,-0.4651749,0.21811871,0.033909347,0.35214168,0.46790951,-0.49412826,-0.6350391,0.10303826,0.3612558,-0.10584802,0.50154436
tầm,0.42729813,-0.25126576,-0.22043428,0.04307976,-0.27844626,-0.17269847,-0.09711787,-0.41341847,0.042010613,-0.47520927,-0.30713013,-0.8130881,0.1810547,-0.13982616,-0.3088474,0.059921063,-0.15757532,0.6217087,-0.35430402,0.27692613,0.4209663,-0.27342197,-0.26258576,0.11048409,-0.14928763,-0.30436397,0.12845024,0.35986245,0.044143237,0.68941736,0.5148674,-0.5447761,-0.25926152,-0.025733083,0.2939355,0.25751552,0.21296969,0.04918994,0.1517413,-0.33385742,-0.1960135,0.00014996795,-0.05849956,0.384368,-0.21836929,0.21542525,-0.1470309,-0.2286539,0.13308054,-0.25678733,-0.06899581,0.42926395,-0.14336959,0.013625368,-0.23566566,-0.1089172,0.29038203,-0.25701007,0.19124159,-0.31373805,-0.5152227,0.23005936,0.8327822,0.1352411
gần,-0.095370166,-0.05836535,0.6957292,-0.17281634,-0.32588986,-0.12914072,-0.3001022,-0.4408287,0.26183245,-0.0018435777,-0.51807344,-0.48851416,0.36001468,-0.29100102,-0.4771806,-0.21386814,-0.98222727,0.8193566,-0.13405332,-0.024563124,-0.05686589,-0.4148052,0.27938548,-0.09073006,0.04374995,-0.11317886,0.07265444,-0.11078661,0.08293343,-0.032708846,-0.10663657,0.3262654,0.028498257,0.052675977,0.08592319,0.28504896,0.8315923,0.13785304,-0.26801458,0.16623074,0.24633765,-0.049130213,-0.5415614,0.010115117,0.040870618,0.16461675,-0.21563664,-0.34100837,0.43201777,-0.40269563,0.34753305,-0.11418138,0.24251147,-0.08077912,-0.19525345,-0.38637796,0.30840206,-0.3231084,0.16174158,0.18579529,-0.17956373,-0.20161897,-0.038989715,0.5915522
tư,0.01201562,0.26351532,0.6356446,0.082332194,0.19652672,0.113421686,-0.3500515,0.31492972,-0.09539912,-0.28299096,-0.23055461,-0.6823367,0.02015352,0.23344949,-0.4648916,-0.17319708,-0.28785747,0.73272896,0.03499137,0.32940787,-0.114174075,0.07327222,-0.4147091,-0.014967504,0.20295963,-0.1495468,-0.3244023,-0.060556524,-0.19845466,-0.22232436,0.23012939,-0.282755,-0.16355015,-0.14582671,0.09920431,0.2609487,0.029322779,-0.3685574,0.019872874,-0.24586347,-0.34313083,0.080552064,-0.2833615,0.2163441,-0.44787914,-0.10947239,-0.17886278,-0.18085192,-0.038638573,-0.47913986,0.19348289,0.527723,-0.21384542,-0.27928507,-0.11046104,-0.05035641,0.08152461,0.298084,-0.092000686,-0.59652525,-0.21959913,0.14686501,0.41414717,0.5226891
hàng,0.7074996,-0.2955114,0.29842478,-0.44357067,0.29558587,-0.2042583,0.29670575,-0.55224675,-0.8174461,-0.5328509,-0.62490106,-0.20902868,0.35839403,0.005376612,-0.21163589,-0.037040766,0.38123274,-0.00643032,-0.36843362,0.0685838,0.32880616,-0.1209666,-0.47672802,-0.23145264,0.26891562,-0.09346491,0.105939075,-0.4032254,-0.16955693,0.07311994,0.52289563,-0.070548564,-0.008845334,-0.32713208,-0.033838794,-0.323825,0.40280223,0.16170608,-0.05360378,0.29440707,-0.66042256,-0.20266591,-0.20453203,0.4141026,0.43968,0.5114317,0.12979272,-0.44937104,-0.4480214,-0.38209692,0.33804855,0.01453373,-0.40691853,-0.21496035,-0.067044675,0.12669063,0.3567612,-0.07761925,0.08795552,-0.32670864,0.025149018,0.6505986,0.09003367,0.15779999
current,-0.10410531,-0.11299211,0.20162266,0.009438513,-0.5271713,0.21335185,-0.048927076,-0.32193834,0.39975998,0.4217506,-0.01839044,-0.2861816,-0.021403305,-0.33274505,-0.33179477,-0.6375286,-0.024655014,0.4678429,-0.0051981555,0.46623686,0.88502824,-0.009901835,0.09211033,-0.043414813,0.16228993,-0.14795636,-0.12527521,0.33840284,0.27407467,0.07639745,-0.17894562,-0.020071065,-0.44011593,-0.51533616,0.28882852,0.20336705,-0.23572756,0.02605286,-0.18049043,0.4696799,-0.32471475,-0.24889855,0.6394969,0.3042694,0.6117964,0.7032709,0.07707707,-0.7067328,-0.5750807,-0.23480658,0.9770311,0.27863082,0.45652026,-0.4593294,-0.33852527,-0.54897964,0.051230617,0.19769484,-0.029467525,-0.4082824,-0.23426454,0.2015697,0.4785937,0.7390911
khu vực,0.20826337,-0.36911517,0.46735296,0.24772587,-0.12196249,-0.045663938,0.29680154,-0.36021963,-0.61779124,-0.3128699,-0.7362384,0.4182287,0.3971543,-0.2459479,-0.3409079,-0.48885053,-0.018042475,0.22005737,-0.5110137,0.19608194,0.057642862,-0.18416278,-0.2456392,-0.12571792,0.702005,-0.09888317,-0.12890577,-0.2511184,-0.346533,-0.29147455,0.2575922,0.25669813,0.2503779,-0.055538885,0.06807107,-0.07614507,0.7229284,0.31442025,-0.24353798,0.15654185,-0.59237915,-0.31717625,-0.4645728,-0.28324488,0.6871085,0.5510737,-0.40359354,-0.461152,-0.1505095,-0.5642537,0.41618386,-0.4524126,-0.55032605,-0.258978,-0.022019811,-0.5090417,0.3146356,-0.1356447,0.1643992,0.1318805,-0.073624074,0.057172514,0.18583156,-0.03273684
thích nghi,-0.042372096,0.032508,0.137391,-0.014233384,-0.14675958,-0.31868795,-0.20959327,-0.42464063,-0.3696855,-0.09408096,-0.5525151,0.3253627,-0.15811789,-0.039542902,-0.20602167,-0.061985012,-0.51761633,0.7313399,-0.03806492,0.18203256,0.08864761,-0.10284703,0.268477,0.2703117,-0.061989456,-0.25971875,-0.3631523,0.19775762,0.22179651,-0.32468903,-0.04764797,0.04995595,0.41710165,0.19179016,0.04317111,-0.08295582,0.4954925,0.04138102,0.35282388,0.089194305,-0.3891395,-0.08668447,-0.1180018,-0.013433083,0.13787088,0.095533885,-0.42194405,-0.5118741,0.048265163,-0.20584676,0.12340534,0.0065575987,-0.46953696,-0.0056712693,-0.2651885,-0.39275286,0.37764606,-0.4328643,0.79063374,-0.08194577,0.11050643,0.194287,0.3796863,0.4962611
theo,0.060072493,0.1628787,-0.08271323,0.23809029,-0.1902817,0.3057453,-0.2742107,0.08067967,-0.096217945,0.22236632,-0.41641855,0.044994816,-0.37210104,-0.112484455,-0.13175622,-0.5433487,0.0044348836,0.61589015,-0.18788628,0.94794977,0.43487075,-0.00035680534,-0.025379784,0.31648737,0.06302669,-0.39538017,-0.4600669,0.6854619,0.53521764,-0.5260141,-0.32191432,-0.27847233,-0.15745707,-0.14277917,0.44253147,-0.05954763,-0.23107482,-0.5175963,0.13001695,0.17093071,-0.05781735,-0.03480948,-0.2509687,-0.04176021,0.104438685,0.41264805,-0.02716719,-0.6512321,-0.5287131,-0.07123806,0.6936732,0.5446412,-0.52570957,-0.30392691,-0.3870468,-0.33264643,0.41737783,-0.009254953,0.17160968,-0.5779477,-0.14272343,0.47575805,0.4637,0.58006805
băng tuyết,-0.29723623,-0.27084726,0.72957563,-0.027029721,-0.24613291,0.78072673,-0.29060593,-0.47639883,0.1906684,0.28773332,0.1041425,-0.02717788,-0.24373275,-0.6668529,0.38740543,-0.2551956,-0.51972955,0.55948335,0.056967866,0.3903522,0.25237775,-0.01823799,0.08187867,-0.23376438,0.40436223,-0.11053168,0.035587553,-0.31196034,-0.28856856,-0.048867498,-0.18566732,0.5297408,0.059831176,0.12748718,0.044324763,0.09329139,0.66331124,-0.7357991,-0.08024194,0.4238184,-0.212763,-0.11736199,0.26788336,0.077082574,0.5532418,0.23806916,-0.40529907,-0.14917065,0.1586571,-0.14537296,0.5191323,0.29598024,-0.295721,-0.2476081,0.032666318,-0.11357986,0.35163566,0.040389013,0.13843654,-0.0988121,0.002798305,-0.08864381,0.05314134,0.6393285
lại,-0.33323574,-0.26852486,0.7064759,-0.045927413,-0.648184,0.37833622,-0.46581027,-0.5156777,0.3202864,-0.15361351,0.0512579,-0.31901476,0.036309686,-0.762643,0.15391971,-0.23594937,-0.36074707,0.5426259,-0.11151188,0.48399165,0.26012105,-0.32648656,-0.10561761,-0.4387451,0.21099348,-0.19024144,0.12524873,-0.29550487,-0.4130926,0.058441333,-0.23402633,0.34872675,0.14954561,0.23700495,-0.194446,0.02499659,0.8547577,-0.26816317,-0.32757756,0.4779573,0.22390342,-0.27575725,-0.38412148,-0.23766172,0.3378713,0.0737646,-0.23453777,-0.0759791,0.05729795,0.002608316,0.20385852,0.3326197,-0.34413105,-0.023388017,0.09943528,-0.18303274,0.55536664,-0.29827964,0.28172466,0.12579376,-0.424978,-0.29467323,-0.02962393,-0.008313838
khác,-0.39894074,-0.067259476,0.44649833,0.0405257,-0.34514627,-0.25718275,-0.36017543,-0.037860647,-0.07789732,-0.100305624,-0.052502513,-0.23299652,-0.043754503,0.10670047,-1.0017289,-0.43420208,-0.15472424,0.54032725,0.26801616,0.34765035,0.028191809,0.40151545,-0.35075706,-0.26132122,0.76508325,-0.117614694,-0.3855286,0.055787403,-0.12598614,-0.4308576,0.13954704,-0.110267736,-0.23417144,0.11015394,-0.004567865,0.14885737,0.5263935,0.19062212,-0.1263454,-0.013229632,-0.44547862,0.30611962,-0.32925817,0.60572743,-0.026014768,0.22000791,-0.2506533,-0.07875552,-0.19741851,-0.65128314,0.2515447,0.2596404,0.06243056,-0.32434732,0.54266536,-0.55733305,0.20222732,0.28099114,-0.43933928,-0.5321635,-0.41580138,-0.41976207,0.73028004,-0.049419466
20,0.23708707,-0.38722816,-0.05821939,-0.06344727,-0.34675327,-0.24862368,-0.26360288,-0.47749472,-0.4309202,-0.36925322,-0.28456128,-0.1323786,-0.19740722,-0.018316103,-0.49586523,0.0074115866,0.084746554,0.5819327,-0.023359032,0.28034884,0.20581317,-0.11992567,-0.250259,0.105545565,0.35571525,-0.32395953,-0.13772266,0.24293548,0.064182214,0.061105344,0.5022233,-0.47273412,-0.20006952,0.27279362,0.12118081,-0.12577881,0.7366911,-0.05629925,0.2940965,-0.3527594,-0.58200526,0.08816551,-0.0392053,0.8722374,-0.18534742,0.047796015,-0.6444813,-0.23774596,-0.053268295,-0.39732772,-0.11327728,0.6162727,-0.66488177,0.14374068,0.02151425,-0.21602525,0.3913991,0.12887767,0.2475753,-0.5529866,-0.05634939,0.30561656,0.65634096,-0.038687833
circumpolar,0.02510324,-0.12271186,0.10715025,0.13934751,-0.5057706,0.12151508,0.019550584,-0.30143002,0.30344683,0.3719157,-0.04399933,-0.29226914,-0.10753221,-0.36533284,-0.22161728,-0.5742863,0.16825444,0.35045844,-0.088981055,0.40528423,0.94036305,-0.18570971,-0.05930742,-0.06787868,0.118005306,-0.27839562,-0.11055992,0.4905716,0.17460795,0.19694543,-0.0065872516,-0.18459752,-0.3686528,-0.5123718,0.29091698,0.022668824,-0.30787042,0.013031396,-0.1597873,0.31461415,-0.2741774,-0.21570398,0.46411875,0.37664425,0.56616116,0.5100085,0.15735134,-0.6586054,-0.686702,-0.26402864,0.7737624,0.3617484,0.27147514,-0.32630196,-0.18889017,-0.51974106,-0.04408623,0.14771137,-0.0022756914,-0.53247535,-0.42198563,0.2703292,0.61685425,0.38011625
thời tiết,0.12756497,-0.30084556,0.6185392,0.04596003,-0.06660876,-0.08709598,0.16711427,-0.30149376,-0.6928184,-0.26070637,-0.54354405,0.39458454,0.19211678,-0.21763222,-0.12137907,-0.26663437,-0.017452158,0.12326144,-0.28287643,0.20479764,0.080625534,-0.09122514,-0.2277185,-0.17392123,0.6244533,-0.11620235,-0.12556815,-0.4599615,-0.37986463,-0.41232914,0.20966351,0.3087621,0.34527344,0.0008204533,-0.1452027,-0.19907792,0.68058616,0.14660722,-0.09518464,0.3536073,-0.6799733,-0.2947334,-0.36907348,-0.11073545,0.649019,0.32089588,-0.26474127,-0.43697396,-0.30641097,-0.38001874,0.33742103,-0.30354205,-0.58428437,-0.2483714,0.06024818,-0.22599696,0.35629764,-0.09631098,0.20957811,-0.02753917,0.033702612,0.23631059,0.124084294,-0.020407181
nam mỹ,0.10223215,-0.36981103,0.34285414,0.49672282,-0.39343584,0.012681172,0.22529586,-0.1638205,-0.26269713,-0.19721454,-0.40147066,0.12387344,0.28996322,-0.30717108,-0.50938225,-0.7147944,0.117494665,-0.028364569,-0.549531,0.14412968,0.09744229,-0.2018643,-0.32089248,-0.18074653,0.868559,-0.06616465,-0.19588415,0.00045895146,-0.3790925,-0.1259444,0.22860003,0.09512163,0.011687293,-0.1890196,0.20566481,-0.022683466,0.3559507,0.48457634,-0.4934951,0.010630813,-0.4296342,-0.20719078,-0.4759358,-0.22208504,0.52212745,0.47857448,-0.28875875,-0.20683207,-0.19200808,-0.6081577,0.40152302,-0.19192858,-0.25008923,-0.35597908,0.069192916,-0.6756113,0.09973727,0.04640029,-0.17594498,-0.040010765,-0.44845358,-0.07964111,0.37525156,-0.36599258
diện tích,0.21782115,-0.52007216,0.13461956,-0.1847698,-0.42634854,-0.29956424,-0.25374538,-0.566667,-0.46544406,-0.4978384,-0.23115723,-0.16303676,-0.15062958,-0.047048423,-0.66545945,0.021195665,0.22193289,0.5676432,0.0042918725,0.24489963,0.14008512,0.02607343,-0.28956854,-0.08314629,0.56302965,-0.3109142,-0.16569456,0.008196121,-0.13737486,0.123809695,0.44342417,-0.35974336,-0.1874611,0.28288305,-0.016341064,-0.078687705,0.8563541,-0.061692692,0.34417996,-0.1953102,-0.74273235,0.17152134,0.009013359,1.0396205,0.00086659007,0.09913735,-0.75071263,-0.14371514,0.041920006,-0.5043097,-0.08641205,0.5301202,-0.6330299,0.11076902,0.1895164,-0.15779354,0.46610856,0.1400698,0.23609373,-0.61426693,-0.020483833,0.2395401,0.6466794,-0.13473004
nhất,-0.1660429,-0.14801148,0.47956234,0.22698244,-0.12791511,0.5889207,-0.528671,-0.33312103,-0.010027612,0.100168176,0.16145101,-0.1645655,-0.2133408,-0.3991208,-0.004599884,-0.2539406,-0.45776936,0.81838673,0.033022773,0.15196578,0.32496706,-0.1698753,-0.38379332,-0.31965083,0.39567104,-0.09824215,-0.19306087,-0.061773755,-0.18178186,0.0006140703,0.17056459,0.08338107,-0.30269378,-0.076287284,0.30305332,0.19333468,0.2804563,-0.47117215,-0.13244976,-0.13581243,-0.51133955,-0.04790405,0.4900203,0.45296857,-0.2768136,-0.09226029,-0.37482548,-0.12310318,0.05545147,-0.31966552,0.2796801,0.4629356,-0.038227197,-0.12793931,-0.085355654,-0.4503405,0.109472044,0.45917878,-0.15089734,-0.48255256,-0.25166747,-0.14037913,0.39270952,0.692853
đầy,-0.5107804,0.015454,0.13874058,0.23821458,-0.10497868,0.3843725,-0.40944147,-0.026357343,-0.2209005,-0.38020107,-0.031441264,-0.061655037,-0.18841308,-0.203298,-0.39511412,-0.5822736,-0.06580917,0.43675643,0.030579325,0.3185429,0.21742202,0.14540322,-0.32843173,0.05304931,0.34941074,0.25622988,-0.38390377,0.022495039,-0.071818076,-0.35641885,-0.027260743,0.12438143,0.16130881,0.09762709,0.22954795,-0.04569286,0.12455085,0.2925397,-0.19705082,-0.09410761,-0.23717558,0.17653283,-0.2857146,0.45898065,0.16565664,0.31037223,-0.14019065,0.004487586,-0.0643773,-0.55240595,-0.23576683,0.4271748,-0.123901926,-0.21500032,-0.05069098,-0.59050465,0.67007226,0.5372908,-0.33754653,-0.36729258,-0.38949594,0.29058507,0.46256676,-0.06358325
tranh sinh thái,0.29019582,0.048937175,0.06692866,0.050782483,-0.31805614,0.11808027,0.10230437,-0.0836864,0.27919382,-0.3191658,-0.82985115,-0.070497215,-0.009281304,-0.40923792,-0.06789308,-0.17595284,-0.72573876,0.61325365,-0.068665974,0.31904602,0.3654298,-0.41729462,0.07449701,0.6594787,0.33268064,-0.12357802,0.012120516,0.38380828,0.12611462,0.26985005,0.551261,-0.43625492,0.009710596,-0.625775,0.6679475,-0.13618942,0.29644936,-0.3650333,0.70263416,-0.27971423,-0.7948402,0.0902871,0.3183413,0.19506966,0.51088834,0.7806886,-0.4833069,-0.64244,-0.2958589,-0.4716049,0.30427498,0.6348918,-0.12614377,-0.10664018,-0.69869494,0.05108005,0.40682435,-0.6580307,0.73047936,-0.10620305,-0.18279034,0.69018227,0.9798126,0.98945814
tương lai,0.40783286,0.14486279,0.29628852,-0.13368434,-0.078554794,0.19945632,-0.23467664,-0.097435735,-0.50812227,-0.44228348,-0.34244448,-0.4063289,-0.086251356,0.14800575,-0.26988548,-0.06972829,0.18906856,0.2489853,-0.23888913,0.69087654,-0.19344851,0.12906587,-0.47662622,0.031745587,0.023634063,0.08362793,-0.21759337,-0.14379752,-0.2710264,-0.42530504,-0.10026733,-0.1599955,0.17486346,0.19538878,-0.018991359,-0.35112265,0.43170252,-0.45262474,0.052937135,0.042879876,-0.07304299,-0.3019333,-0.36294487,0.0761894,0.113274425,0.3358206,-0.23750804,-0.37103537,-0.22693035,0.007568826,0.009997016,0.5263472,-0.65283597,-0.43934295,-0.43967518,0.22249338,0.5512801,0.0713049,0.08021398,-0.27848935,0.10202521,0.5541199,-0.28678912,0.16223988
lục địa,0.15506984,-0.27470154,0.41138485,0.2652789,-0.21685399,0.2297363,-0.29289976,-0.3921163,-0.25319666,0.18438125,0.06810378,-0.41622666,-0.13235876,-0.12501365,-0.07783297,-0.4150097,-0.05598191,0.6783927,-0.2055167,-0.009675095,0.67137927,-0.27677843,-0.63169426,-0.3750275,0.17414293,-0.17300332,-0.08623154,0.2179398,-0.1545252,0.17802289,0.39124173,-0.22944564,-0.50316113,-0.38606405,0.36994192,-0.00046477964,-0.057068117,-0.019354649,-0.35899672,-0.14986235,-0.63793665,-0.32459104,0.4418324,0.41056356,-0.3448923,-0.12627837,-0.06615678,-0.4932665,-0.5313879,-0.44742334,0.34864154,0.48206365,0.019491676,-0.18372595,-0.11808072,-0.5133451,-0.15382694,0.47921008,-0.13465148,-0.85565823,-0.48930854,0.108539194,0.47726187,0.47384703
tan,0.025863944,-0.15178981,0.39914092,-0.34736893,-0.5843627,-0.05910073,-0.011314181,-0.4348493,0.6343664,0.09796114,-0.4537588,-0.47137004,0.29899585,-0.38937667,-0.8300232,-0.5490413,-0.4689961,0.42551962,-0.05471311,0.0026517774,0.19583283,-0.5430855,0.21011013,-0.13143677,0.3760904,-0.055479042,0.17326206,0.20679384,0.32515803,0.23412317,-0.15775564,0.031665236,-0.5392936,-0.38015747,0.2880852,-0.022779696,0.55320096,0.16735934,-0.32891303,0.1046976,0.45402136,0.10051083,-0.3221914,0.33178443,0.3164317,0.59303755,-0.2726935,-0.1821424,-0.04302199,-0.56443006,0.66369134,0.3851621,0.5599552,0.011596046,-0.23671205,-0.38256893,0.2896052,-0.34429246,-0.00753434,0.2510993,-0.18232264,-0.17226875,-0.21676539,0.31524175
khoa học,-0.15889473,-0.06017958,0.75826764,-0.5751128,0.13992643,-0.32439032,-0.1310534,-0.64351904,-0.42685124,-0.2378896,-0.40167767,-0.64076275,-0.15689439,-0.0045227073,-0.12339139,-0.33757398,-0.04849655,0.47622296,-0.17624527,-0.0131125,0.39250642,0.3667724,-0.1343471,-0.5117981,-0.41189542,-0.22548261,-0.09498515,-0.10861832,-0.29124615,0.10126141,-0.2541763,0.26336166,0.49090996,0.107350364,-0.3678527,-0.15199114,0.18760538,0.227961,-0.19821586,0.41711375,0.019542431,-0.1873301,-0.60515183,0.04517031,0.35606003,-0.12096926,0.12289999,-0.26724324,-0.4371963,-0.5197918,0.18103053,0.20879294,-0.23635961,-0.04577772,0.18254176,-0.018186847,0.18170714,-0.47059655,0.51926535,-0.45029908,-0.44976032,0.02626818,0.22149763,-0.18151
nổi bật,0.21940446,-0.21822393,0.39115122,0.15288903,-0.46883196,-0.063411295,-0.01704016,-0.11846184,-0.16519646,-0.04272636,0.020560412,-1.0253217,-0.16982804,0.17256317,-0.33828294,-0.4032411,0.37280712,0.31883115,-0.26228482,0.31580535,0.24621855,0.15847386,-0.24927898,-0.14159125,-0.0014193886,-0.006289125,-0.039796982,0.15527505,-0.49800107,-0.009033124,-0.077163436,-0.34051695,0.024237549,0.18081,-0.046872273,-0.007495447,0.09347558,0.17599657,-0.35006857,0.01587173,0.04217921,-0.38906896,-0.2724634,0.34137252,0.066969246,-0.10256075,-0.3241388,-0.336684,-0.41293126,-0.29843923,-0.106940426,0.74549407,-0.31092063,-0.49200818,-0.09372413,-0.12840767,0.15006956,0.34980792,-0.22337972,-0.68667054,-0.46715853,0.3689386,0.07606084,-0.2704204
liên tục,0.11702645,-0.22286485,0.44095367,0.28124622,-0.0345167,0.5089176,-0.4603769,-0.5153601,-0.3194148,0.08230959,0.07552095,-0.36172768,-0.17551342,-0.28349814,0.115434766,-0.23436156,-0.30810922,0.8413289,-0.22405908,0.017184163,0.5462512,-0.28396863,-0.5986185,-0.3224658,0.14238454,-0.1006173,-0.16264507,0.049193546,-0.24359035,0.19850379,0.3366788,-0.04421773,-0.34434837,-0.181636,0.4437641,0.14516902,0.08898307,-0.32569352,-0.2018874,-0.26389658,-0.6664122,-0.26406762,0.5728117,0.40368682,-0.38349137,-0.121918306,-0.24318545,-0.36743358,-0.16183947,-0.39750245,0.25796562,0.46725798,-0.060376044,-0.1720936,-0.26893535,-0.4473753,0.049598034,0.5309681,-0.10379224,-0.6998447,-0.27249908,0.1621311,0.38271803,0.70300734
trái đất,-0.010873201,0.1022877,0.73388714,-0.25922835,-0.52403456,0.21632832,-0.09309658,-0.1876148,0.53544307,0.03414099,-0.24877529,-0.60001385,0.058378857,-0.6186543,-0.30474356,-0.1019509,-0.45692587,0.43905318,0.10564168,0.29737303,-0.06595399,-0.6586066,0.4167248,-0.031174539,-0.07802524,-0.05325683,0.010869051,-0.029214013,-0.35607517,0.11473487,-0.15020542,0.1646005,0.34128925,-0.063304015,0.10532539,-0.31482112,0.66558224,-0.34643167,-0.11872656,0.22048184,0.55549794,0.15321967,-0.30296034,0.28746176,0.75587976,0.34294745,-0.23826762,-0.302295,0.15496445,-0.22905596,0.03312177,0.4101519,-0.056538492,-0.11380914,-0.32865858,0.0934808,0.5510747,-0.3804782,0.22359549,0.07242443,-0.025043134,0.33507544,-0.46963656,0.37085205
đại tây,-0.28686652,0.11565716,0.4555795,-0.13687809,-0.21080574,-0.07107952,-0.52802074,-0.049973972,-0.19566546,-0.15840322,0.024445739,-0.30232492,-0.39041686,0.19766857,-0.72064865,-0.23621382,-0.20682044,0.529751,0.25093004,0.4533477,-0.11443209,0.5641455,-0.31684592,-0.21862271,0.43001032,-0.04568315,-0.46783593,-0.021589203,-0.19306111,-0.5313774,-0.03993452,-0.07607632,0.048977084,0.18111545,-0.19370225,0.0096194735,0.38470536,-0.16406983,0.07396189,0.14071268,-0.37539998,0.16325343,-0.24335817,0.54331183,-0.14405091,0.116461225,-0.20084068,-0.09001429,-0.21593863,-0.3987524,0.16026622,0.4930953,-0.09845455,-0.3565394,0.2986647,-0.20082015,0.33224952,0.1897633,-0.1284291,-0.65509874,-0.27884817,-0.19459353,0.5119724,0.20266013
điểm,0.29766226,-0.023907347,0.5294426,0.06962431,-0.3263564,0.067770034,0.042961247,0.15740654,-0.038453124,-0.19319433,-0.089191444,-1.1078624,-0.031045908,0.2164293,-0.43477485,-0.2573173,0.3094109,0.43882528,-0.16483109,0.45525253,0.045776453,0.03886574,-0.17166615,-0.004257865,-0.06375238,0.024103215,0.024465846,0.020588944,-0.48624066,0.022058262,0.045961227,-0.35394368,-0.0066176346,0.034322698,0.03635615,0.010256788,0.26645538,-0.14053479,-0.107322104,-0.028489966,0.08427633,-0.2915127,-0.2527916,0.28213727,0.19800314,0.062367134,-0.27735034,-0.4658254,-0.24122037,-0.28155637,-0.107959956,0.7142619,-0.32768106,-0.61077595,-0.37635076,0.10432385,0.18419087,0.36575684,-0.23716564,-0.61741674,-0.1717818,0.54687864,-0.17225866,0.07359275
làm,-0.016782176,-0.2627131,1.0497699,-0.22727175,0.44097197,0.30898666,-0.017187806,-0.030980809,-0.44463056,0.052953977,-0.18239291,-0.5459638,0.24897033,0.09562902,-0.226286,-0.29631415,-0.20916316,0.7412332,0.014686451,0.06996347,0.33394322,0.11444917,-0.3242988,-0.21708523,0.31376863,-0.090894476,-0.06441414,-0.4527287,-0.24729256,-0.32365686,0.3499344,0.33881146,-0.2229725,-0.5382429,0.1523282,-0.11394875,0.3367608,-0.2771036,-0.2576441,0.36578694,-0.44067255,0.059728116,-0.42075545,0.3538428,0.39139023,0.33878353,0.27448964,-0.529053,-0.27010497,-0.58385193,0.58634573,0.21057719,-0.057429682,-0.5167767,0.31933463,0.15243843,0.37928662,0.47479537,-0.68642503,-0.7560904,0.055666286,0.4193726,-0.09070205,0.68900263
khổng lồ,0.25130153,0.18077183,-0.04259466,0.04649583,-0.21992104,0.20692661,-0.1980388,-0.09926883,-0.059231736,0.10939568,-0.6871871,-0.3119958,-0.23798735,-0.119459234,-0.21066266,-0.66992044,0.072643295,0.4379895,-0.51501656,1.0933272,0.32288116,0.14190319,-0.08957226,0.20283252,-0.16838744,-0.34042653,-0.36980668,0.81529176,0.5818002,-0.41336223,-0.6137166,-0.27742445,-0.021738738,-0.07638612,0.3706817,-0.22325994,-0.14287372,-0.46815318,-0.05595294,0.24256839,0.53831345,-0.1501083,-0.80761987,-0.24146028,0.24864809,0.62449086,0.0810832,-0.6330096,-0.5718008,-0.07355898,0.7913475,0.631269,-0.5332689,-0.35147727,-0.43850988,-0.14527054,0.60704744,-0.32351834,0.23790947,-0.34523454,-0.22314306,0.5063466,0.14058454,0.39283267
tuy nhiên,-0.30169386,-0.30272436,0.8129244,0.02796384,-0.61579776,0.5576757,-0.41210678,-0.7265258,0.37791774,0.2647161,-0.00042125798,-0.08443476,-0.068090886,-0.83888596,0.23527615,-0.26391128,-0.75211674,0.6591272,-0.0790061,0.40988547,0.21664551,-0.29452243,0.10638829,-0.3765103,0.42763063,-0.2366729,0.13718022,-0.27829787,-0.3066157,-0.12728773,-0.2545222,0.56953865,0.11717948,0.2608619,-0.087006494,0.17911148,1.0218086,-0.44022927,-0.29932082,0.51610744,-0.0031049226,-0.28268233,0.023959799,-0.24902792,0.35060295,0.26791525,-0.44898477,-0.19610071,0.17516012,0.00603982,0.5437736,0.2080557,-0.2568984,-0.1356783,0.022148687,-0.34166613,0.44188425,-0.25189146,0.3121515,0.13359137,-0.3278495,-0.40037975,0.018024312,0.5696576
lưu giữ,0.07254273,0.11224717,0.4280753,-0.091348395,-0.32927072,0.44859168,-0.22321643,-0.22671099,0.3440756,-0.008207876,-0.1843497,-0.51993495,0.12400499,-0.47320497,-0.16175394,-0.2818323,-0.26662502,0.4474821,-0.11227213,0.58948827,-0.10678517,-0.41594508,0.08978748,-0.11246088,-0.1427041,0.07467313,-0.05509857,0.049688306,-0.095051184,-0.037664935,-0.34567776,0.15997869,0.049589556,0.01135371,0.20644,-0.25142893,0.5711859,-0.4794772,-0.28508535,0.1688058,0.69347405,-0.054074448,-0.40098485,-0.066186704,0.40825817,0.6373103,-0.14389631,-0.33894545,0.04225184,-0.08308395,0.20388877,0.40516242,-0.12760894,-0.33016545,-0.45090923,0.06548063,0.6784047,-0.17239848,-0.054599367,0.19699061,0.01803565,0.35977632,-0.68027943,0.48035774
bí mật,0.12668741,-0.031348865,0.29033184,-0.1787146,-0.20275971,0.41885415,-0.21146269,-0.24389322,0.33632076,-0.04288188,-0.34677762,-0.5865387,0.2584419,-0.27565506,-0.4016938,-0.4263418,-0.24010919,0.47502503,-0.3043329,0.626977,-0.08375872,-0.068186976,-0.024421504,-0.16966207,-0.09769053,0.007904777,-0.12096843,0.29783943,0.14557283,0.15171699,-0.46575737,0.109698616,-0.23433323,-0.018493328,0.3478474,-0.069599904,0.38264647,-0.5024445,-0.27120897,0.09703164,0.69170624,-0.0073591648,-0.5255878,-0.10108112,0.30763292,0.6739559,-0.03575189,-0.23120531,0.13063334,-0.22543126,0.49816632,0.34361628,0.027808083,-0.30920562,-0.37452245,-0.064537816,0.5508152,-0.13932478,-0.13828188,0.18449324,0.059429903,0.12902401,-0.53000903,0.5192279
môi trường,-0.14110456,0.19573374,0.30757773,0.088287875,-0.02564409,-0.10825655,-0.10264952,-0.26993823,-0.12952787,-0.044238128,-0.6873767,0.32627296,-0.29666346,-0.2472095,-0.07232169,-0.21424378,-0.8094654,0.73425436,0.017623974,0.14828241,0.07544951,-0.14540389,0.31980243,0.5514221,0.16018467,-0.1442415,-0.46497482,0.3585979,0.036928646,-0.17433776,-0.050400466,0.020039419,0.5676782,-0.14141694,0.28022128,-0.2753993,0.33072022,-0.23104197,0.6313024,-0.010566294,-0.7095393,0.097972386,-0.026715025,-0.050867733,0.5808781,0.28170237,-0.5156996,-0.54918253,-0.05466588,-0.48426744,0.24911453,0.28810465,-0.37770224,-0.065050535,-0.25990722,-0.23909862,0.4235136,-0.6555101,0.95610064,-0.016997466,0.1028872,0.4845093,0.7166572,0.6941752
lo ngại,-0.15167968,-0.079645775,0.84533894,-0.09208833,0.19395094,0.1248942,-0.3230646,-0.1718649,-0.20606697,0.23902044,-0.270756,-0.42529875,0.25145063,0.018392794,-0.3397641,-0.18722022,-0.73836416,0.93170947,-0.07177391,0.21162984,-0.04500584,0.3128474,-0.13715167,-0.22440566,0.16110192,-0.14327209,-0.22790211,-0.21243224,0.006010674,-0.44635013,-0.08692952,0.4331639,-0.1531876,0.023532642,0.17051247,0.4120294,0.53105545,-0.29745585,-0.30625665,0.17597505,-0.09184547,-0.03904102,-0.36528805,0.079876915,-0.1106038,0.15007582,-0.10518446,-0.42619303,0.20538142,-0.3799408,0.67692494,-0.15456271,0.05485585,-0.3664283,0.1702161,-0.24720043,0.18842392,0.26800427,-0.28659743,-0.29224432,0.04626853,-0.233254,-0.016091665,0.8313396
trung tâm,-0.074826546,0.06175848,0.41088992,-0.36172265,0.008303559,-0.2584359,-0.32339215,-0.6733097,-0.17128266,-0.23804815,-0.3006787,-0.82270586,-0.3472378,-0.054250665,-0.11730915,-0.25609592,-0.118902706,0.38311723,-0.23678558,0.12390198,0.3268028,0.4114273,-0.2373154,-0.37887222,-0.5710074,-0.23137397,-0.1675858,0.36697903,-0.21370195,0.25021166,-0.23433267,-0.0006157176,0.41263306,0.1433363,-0.29047155,-0.15058818,-0.035661843,0.054859318,-0.12902312,0.2313099,0.081345096,-0.1229787,-0.5336067,0.08380351,0.081748046,-0.06397196,0.16273382,-0.17744446,-0.32895705,-0.40829423,0.06164691,0.4028694,-0.032126088,-0.05810805,0.2080461,-0.041463736,0.218854,-0.4951317,0.6269141,-0.56706315,-0.73371196,0.026991993,0.53070277,-0.20354351
tìm hiểu,0.15012832,-0.11086777,0.042809352,-0.18829504,-0.24800137,0.04160191,-0.35510728,-0.58381647,0.14485128,-0.50995165,-0.3300892,-0.94160795,0.31466702,-0.14922802,-0.3675724,-0.20836969,-0.34005335,0.611077,-0.6142237,0.39081186,0.24878937,0.056149494,-0.40615845,-0.16745612,-0.45757988,-0.21701406,0.005634279,0.30181944,-0.005326081,0.73541814,-0.20239465,-0.10756759,-0.18377309,-0.018955844,0.14086564,0.19019532,0.21058379,-0.05998177,-0.25560316,0.14530449,0.25940582,-0.20473115,-0.56311584,-0.41763026,-0.0757459,0.39531574,0.27697995,-0.14300188,0.290304,-0.2763285,0.31503603,0.16330668,0.17783324,-0.23149198,-0.2464099,-0.12474997,0.41357687,-0.46093422,0.32237828,0.080050536,-0.45910764,-0.022978436,0.12505367,0.26854283
cực kỳ,0.27925873,-0.32840943,0.034240052,0.012622742,-0.10681385,0.227168,0.27163243,-0.18488553,-0.13987191,-0.2548303,-0.37998685,-0.40298578,0.066885024,-0.055506345,-0.49222025,-0.45650253,0.31077054,0.18504551,-0.22159956,0.24179219,0.02908745,0.2404308,-0.03481562,0.15603113,0.42001915,0.06384504,-0.20918016,0.27506387,0.013532038,0.360569,-0.35191864,-0.23150286,-0.20279828,0.015414591,0.41656736,0.19870694,-0.035281286,-0.05957796,0.07723265,-0.21008824,-0.026556712,0.15561754,-0.29744312,0.6306496,0.52378356,0.23220615,-0.5514507,0.21079595,0.12491517,-0.5957885,0.19793521,0.5909639,-0.07865034,-0.07818517,0.036531635,-0.09268181,0.38732493,0.15748072,-0.08667502,-0.1577429,0.17400996,0.50738055,0.23767883,-0.24128804
một,-0.19700226,-0.33329162,0.5689288,-0.13187152,-0.5269202,0.16470514,-0.48935914,-0.5041622,0.1479386,-0.41558158,-0.02823786,-0.27629325,0.15818073,-0.51856554,-0.021150932,-0.16434179,-0.30862722,0.5184267,-0.16048916,0.23698676,0.2731467,-0.37912694,-0.3215875,-0.44477397,0.29644033,-0.2804171,0.15836252,-0.48263007,-0.24742149,0.19417536,-0.12825972,0.16506211,-0.14546467,0.12989902,-0.22941703,0.033551592,0.74915,-0.17514676,-0.21802431,0.2987401,0.0027625982,-0.30022642,-0.37140635,-0.069981605,-0.061945353,-0.1785708,-0.1640356,0.047131892,0.12350327,-0.035152845,0.21625538,0.32801872,-0.31627548,0.16833252,0.035611782,-0.11974789,0.40538982,-0.16031936,0.30875617,0.10663457,-0.35801876,-0.21527557,0.05785194,-0.0024458277
tuần hoàn,-0.029687509,-0.13789146,0.690132,-0.036714192,0.2636788,0.49514508,0.002773324,0.028595606,-0.5957038,-0.4824643,-0.3132109,-0.016573925,-0.09931949,-0.05295613,-0.009193508,-0.36003372,-0.009807167,0.34476525,-0.035789467,0.19391221,0.048127662,0.15377168,-0.25061643,-0.020256763,0.525116,0.15818773,-0.17442547,-0.56693435,-0.523266,-0.33467492,0.09303413,0.18450318,0.25214508,-0.13238738,0.032981213,-0.03618331,0.21683624,-0.14669874,0.08336314,0.07811461,-0.73037565,-0.13062759,-0.058148995,0.2238699,0.54508287,0.123266585,-0.40703547,-0.19689456,-0.12566347,-0.5195418,0.060585417,0.22049779,-0.53871,-0.34369543,-0.16408958,0.0018846776,0.3433429,0.3517135,0.045786932,-0.416983,0.15074508,0.6245326,0.24467565,0.20925938
bao,0.17997766,0.07670108,0.3759853,0.30783963,-0.026600182,0.14933434,-0.3160321,0.20024313,-0.10224643,-0.3280216,-0.20787428,-0.5029564,0.07638775,0.033140212,-0.3373763,-0.22625889,-0.056136284,0.68357605,-0.19950807,0.38523123,0.109465204,-0.24129836,-0.46786693,-0.0060266485,0.31576487,-0.23356472,-0.15561147,-0.028630678,-0.15158446,-0.049777992,0.42804292,-0.43725237,-0.36692682,-0.25302643,0.16949663,0.32407737,-0.017076349,-0.3756396,-0.039138414,-0.26724502,-0.49505967,-0.031051649,-0.03010444,0.13362467,-0.48899037,-0.13935834,-0.13159963,-0.24668555,-0.07518194,-0.30900475,0.2610607,0.3626716,-0.3387796,-0.24899264,-0.3398888,-0.23802772,0.07274957,0.33493197,0.0010370566,-0.69515014,-0.28343374,0.26409006,0.52224344,0.4462904
xây dựng,-0.19028175,-0.08225249,0.7147029,-0.39155328,-0.20437917,-0.40387857,-0.1822325,-0.68704146,-0.20429774,-0.12279,-0.44337782,-0.58786255,0.043726105,0.03964655,-0.45148602,-0.35185024,-0.39408788,0.63026243,-0.2886401,-0.09429392,0.26717162,0.27521858,0.065709546,-0.36772072,-0.38455728,-0.2060529,-0.08158142,-0.018108906,-0.16980068,0.22705673,-0.33638296,0.28275412,0.3757543,0.13943283,-0.28935555,0.1966529,0.42166525,0.4276858,-0.20391954,0.45110646,-0.065757126,-0.26364505,-0.40953767,-0.279146,0.38598648,0.10467954,-0.03830419,-0.46805134,-0.062557615,-0.44658104,0.3817771,-0.15922992,0.15287247,-0.2083466,-0.014441782,-0.36241564,0.03939458,-0.48588344,0.6212313,-0.17346743,-0.41578203,-0.25091282,0.20828906,0.06080691
hoang sơ,-0.40467575,-0.21037197,0.20268255,0.10778387,-0.036878653,0.45712975,-0.45467857,-0.19984627,-0.40933794,-0.655488,-0.100909986,-0.032592308,-0.14415231,-0.22195418,-0.43698874,-0.4607115,-0.113063656,0.6627525,0.01006588,0.17718358,0.21397771,0.083908595,-0.291247,0.09003972,0.37532833,0.22009373,-0.39899257,-0.19811109,-0.16062297,-0.13102952,-0.0080912635,0.17075206,0.12998888,0.1395636,0.20351869,0.032948215,0.17753667,0.23827368,0.04088423,-0.18651713,-0.47873443,0.13332644,-0.17627864,0.509317,0.14925386,0.19169508,-0.30316687,0.10473123,0.25004968,-0.5878618,-0.28616652,0.40219074,-0.17376426,-0.110404104,-0.10936828,-0.53266245,0.7051433,0.5625354,-0.13924105,-0.36080828,-0.16203153,0.40884936,0.46973488,-0.014365114
biến đổi,-0.043983947,-0.20412849,0.6424533,-0.37888947,-0.51470286,0.03016056,0.10021955,-0.25309813,0.47759143,-0.043186825,-0.03703756,-0.71134377,-0.024367452,-0.2802437,-0.594332,-0.5729006,0.22826114,0.0006986415,-0.26343653,-0.03207912,0.19230331,-0.15908432,0.09851686,-0.32127175,0.22370657,0.052135795,-0.031039787,0.050396997,-0.39617923,0.5148077,-0.20354523,0.037715543,-0.064189084,-0.3502094,0.10864063,-0.06311686,0.012949079,0.04864999,-0.35128775,0.25291422,0.13506249,0.024469282,-0.21483286,0.3358061,0.67247754,0.2889499,-0.24151234,0.129535,-0.20528856,-0.5965475,0.4104479,0.59118134,0.3556863,-0.16137223,0.053809203,-0.02073014,0.13159782,-0.24380569,0.07764001,-0.25966656,-0.21598527,0.08136255,-0.24927375,-0.17844488
người,0.7438111,-0.08520164,0.17146859,-0.38307205,0.2607021,-0.03733965,0.219959,-0.51255214,-0.7347271,-0.73776674,-0.6572618,-0.2352674,0.29338896,-0.10422212,-0.16650365,0.16101724,0.29037726,0.07387182,-0.42715228,0.34875527,0.083397694,-0.13809109,-0.48533222,-0.1338041,0.05698367,0.0069386386,0.002185912,-0.28884745,-0.30011263,0.15568623,0.4349046,-0.12940636,0.22060703,-0.148856,0.063385814,-0.30343884,0.3599076,-0.28681603,0.18756759,0.12803808,-0.52949363,-0.12696984,-0.1788895,0.3060216,0.4461916,0.5085023,-0.08242319,-0.39379883,-0.20708458,-0.28333822,0.14380553,0.039417055,-0.53807765,-0.16063848,-0.28509387,0.24830835,0.5345396,-0.28170127,0.44103938,-0.24153136,0.13354164,0.6972695,0.045947738,0.2103554
bao phủ,-0.19107142,-0.29115576,0.5954841,-0.022564799,-0.3629458,0.55542666,-0.13808003,-0.4761949,0.2571435,0.3424923,0.03611068,0.096189074,-0.19244933,-0.6046326,0.14557649,-0.32402417,-0.3769013,0.40384808,-0.0003042157,0.23514704,0.17820331,-0.091268316,0.2119642,-0.24285322,0.47095415,-0.16513324,-0.0071889088,-0.20442127,-0.26377684,-0.0389447,-0.19383451,0.40636933,-0.010344623,-0.0063116043,0.041266363,0.09577521,0.5667341,-0.49512866,-0.11495681,0.40658307,-0.27444538,-0.124633834,0.3565932,0.05502568,0.5768051,0.30231288,-0.46565476,-0.20072712,0.085970566,-0.17732847,0.6315539,0.15005448,-0.15153168,-0.2485252,-0.039060075,-0.2985521,0.19365889,-0.06756534,0.18597983,-0.022448333,0.026618328,-0.19241045,-0.035553027,0.5298199
quanh năm,-0.21625188,-0.36009732,0.7232176,-0.09462953,-0.33200395,0.38891286,-0.23256694,-0.60323477,0.14372241,0.13421936,-0.07340701,-0.025175624,-0.0011045429,-0.60064906,0.21347305,-0.209181,-0.59784955,0.48404592,-0.08013088,0.3224456,0.14245914,-0.1430315,0.14560978,-0.29777855,0.4774012,-0.18361337,0.16676697,-0.44224936,-0.28206223,-0.17802425,-0.07965593,0.52078205,0.115288466,0.1576245,-0.1122725,0.10295236,1.0711812,-0.36613962,-0.20037124,0.5080852,-0.11162441,-0.19492938,-0.089653574,-0.12974627,0.44365245,0.28897083,-0.39283988,-0.18138702,0.23505868,-0.056530505,0.47742012,0.10509416,-0.3399473,-0.19101997,0.18665265,-0.1626414,0.42130604,-0.22438887,0.15366924,0.14423558,-0.1277146,-0.2770242,-0.0073072594,0.42692617
vẻ,-0.41878787,0.093272895,0.37865993,0.24874438,0.09251331,0.49997538,-0.5423677,0.011011729,-0.33057433,-0.7293899,-0.1374742,-0.20548303,-0.053271934,-0.16724081,-0.44434777,-0.37310034,-0.31787354,0.8647396,0.057089433,0.22613527,0.10246546,-0.023221783,-0.31960553,0.20457503,0.25505835,0.27732015,-0.42955112,-0.22795747,-0.32502955,-0.16179992,0.12556848,0.06461459,0.23220731,-0.0067580575,0.24617046,0.18230042,0.12802836,0.13668613,0.09172263,-0.23986408,-0.64294016,0.086929984,-0.09873775,0.32120597,0.070555314,0.18341474,-0.33189428,0.009306878,0.2850648,-0.6450643,-0.36509225,0.40908405,-0.1862077,-0.22462524,-0.3382458,-0.4950991,0.6534185,0.5728852,-0.0051203985,-0.42053974,-0.16861564,0.45730752,0.5333147,0.32418835
không chỉ,-0.314563,0.13092087,0.27807033,-0.0032649369,-0.11535199,0.25632256,-0.3127057,-0.17187235,0.11693842,-0.08452346,-0.023597585,-0.37860444,-0.46801406,-0.38619596,0.15293472,-0.29469615,-0.2663999,0.23783515,0.03025181,0.031078503,0.23789579,-0.16716418,-0.06150381,0.009967186,-0.07822989,0.16248383,-0.17712212,0.2511714,-0.32023844,-0.057660855,0.05729237,0.017684568,0.4319465,-0.037026048,0.08222536,-0.46466428,-0.019354822,-0.012471888,-0.1099016,-0.08148306,0.014618467,0.117065765,-0.20517941,0.35632882,0.18463768,0.041140765,-0.09371204,0.014848315,-0.28888312,-0.38709912,-0.2828209,0.75037295,-0.13402258,-0.049374565,-0.054493964,-0.052769557,0.45412183,-0.1329754,0.24508339,-0.45924795,-0.6134553,0.3209064,0.30080938,0.005022464
hùng vĩ,-0.49364623,-0.03858349,0.09722998,0.33817956,0.07260484,0.56732595,-0.4175555,-0.09579794,-0.446629,-0.7846296,-0.17091201,-0.02464359,-0.05380965,-0.300724,-0.27013585,-0.57131267,-0.17317554,0.65782803,-0.0837442,0.24958551,0.372365,-0.013147751,-0.42006484,0.18412116,0.30736616,0.36320496,-0.34750253,-0.1712508,-0.22518106,-0.2517639,0.107779436,0.2074772,0.35694033,0.08865542,0.2922631,0.030193707,0.05670156,0.45566246,-0.08441786,-0.19847058,-0.48584792,0.026089886,-0.2866509,0.27866402,0.24418598,0.32157987,-0.1741793,0.0028906194,0.15997417,-0.57012105,-0.44134116,0.3506855,-0.22955692,-0.17522348,-0.31422156,-0.6776681,0.83181745,0.57830197,-0.14526798,-0.3286234,-0.45132956,0.5380796,0.6652088,0.016947806
nước,0.046949636,0.16095969,0.0414732,0.17387623,-0.3340076,0.41646737,-0.24652714,0.04363359,-0.0043435413,0.21948044,-0.46472427,-0.084585965,-0.40448615,-0.2973947,-0.14003924,-0.6882942,0.091148056,0.53169966,-0.3072641,1.2023555,0.4217893,-0.01875919,-0.006532198,0.23837012,0.046283275,-0.39446765,-0.47257102,0.727387,0.4999891,-0.53455585,-0.58666974,-0.23540163,-0.03420591,-0.07222929,0.42595834,-0.2493324,-0.08804436,-0.69643676,0.0091508515,0.31744084,0.3818357,-0.058972243,-0.58548355,-0.07676705,0.4260429,0.50649,-0.06326036,-0.6233543,-0.6000556,-0.03721262,0.73551303,0.73870295,-0.65133095,-0.29446584,-0.40611792,-0.21319562,0.6311421,-0.12402068,0.16175075,-0.4642712,-0.11944256,0.4970328,0.17913201,0.38830334
tại,-0.037425905,-0.04086573,0.51366067,-0.4743614,-0.20058028,-0.23093443,-0.41152644,-0.87354684,-0.06742133,-0.22011745,-0.6160593,-0.8551846,0.16673368,-0.09581505,-0.38660353,-0.3073642,-0.58904403,0.8117716,-0.49031803,0.1692571,0.31326818,0.37706724,-0.15253676,-0.26970008,-0.73551047,-0.27201775,-0.12940815,0.27443928,0.06088596,0.48330343,-0.49143386,0.200848,0.17390552,0.038679857,-0.11851076,0.21659529,0.41927585,0.15610743,-0.23008949,0.5522622,0.17847225,-0.28852955,-0.61363685,-0.5143582,0.22396103,0.37415734,0.24024493,-0.48491013,0.09857314,-0.32567477,0.65718037,-0.0547555,0.3277227,-0.31080776,-0.032063663,-0.27868596,0.27856058,-0.7132612,0.7044865,-0.06236067,-0.45893198,-0.22735286,0.09067913,0.40097454
xa xôi,0.23683365,-0.427897,0.55684495,0.29377043,-0.4386529,-0.12714845,0.28457952,-0.53116536,-0.46981612,-0.29593775,-0.6838191,0.40560734,0.32039475,-0.45962897,-0.3525533,-0.616372,0.15522084,0.03387347,-0.675425,0.2815543,0.15891208,-0.26736307,-0.27462363,-0.32584456,0.7313642,-0.18422249,-0.16912462,-0.1849602,-0.49974594,-0.20342033,0.16174002,0.21759968,0.30415034,-0.05988756,-0.019527936,-0.10774494,0.66637903,0.3896133,-0.36501,0.3404709,-0.65150225,-0.45502988,-0.412961,-0.37521303,0.85190076,0.56132644,-0.44327983,-0.482452,-0.3348107,-0.5132931,0.56329584,-0.49300084,-0.5054682,-0.27713045,0.043203913,-0.6314839,0.22850765,-0.24887179,0.33080634,0.0518273,-0.27899805,-0.08389882,0.2635709,-0.30600137
châu úc,0.18230522,-0.38219526,0.25369176,0.3362184,-0.4404382,-0.13973826,0.1989916,-0.18430601,0.088387504,-0.2093449,-0.24012448,-0.25459483,0.31002095,-0.19334552,-0.62868595,-0.5733763,0.18733424,0.034536045,-0.46970028,0.046793766,0.17381988,-0.27979228,-0.30760604,-0.22654265,0.6945401,-0.13081178,-0.07064817,0.14881566,-0.32767466,0.29529995,0.281167,-0.1748636,-0.21656717,-0.23690882,0.23994388,0.10247863,0.12921564,0.3931833,-0.36380866,-0.13195403,-0.2887169,-0.029101864,-0.33113107,0.104257755,0.28153017,0.2680748,-0.2466341,-0.026026431,-0.09184485,-0.6251013,0.32364407,0.09454414,0.007754265,-0.1896846,0.12926897,-0.5339886,0.0021592886,-0.0075371386,-0.23347868,-0.13603319,-0.5265046,-0.09618423,0.4091953,-0.38671875
luôn,0.033621334,-0.22388434,0.5406197,0.003036947,-0.3185766,0.35615826,0.03394655,-0.30433503,-0.1806548,-0.1466409,-0.23717666,0.072785184,-0.34431663,-0.45898655,-0.24801607,-0.2032293,0.09905705,0.3068234,-0.012166969,0.2306205,-0.082805805,0.1401978,0.23396203,0.12682971,0.5208271,-0.09060379,-0.5032089,-0.07667875,-0.4653013,0.14584291,-0.3186926,0.10219832,0.37167233,0.09559835,0.16302718,0.207032,0.079373375,-0.4983241,0.47846258,0.08592194,-0.67066264,0.07782892,0.33439174,0.63257486,0.9359412,0.069885,-0.7913029,-0.010283937,0.20643155,-0.47166324,0.3777138,0.2736167,-0.3341866,-0.16774046,0.07778033,-0.1529042,0.19330081,0.12088841,0.5928457,-0.32954004,0.31092757,0.45759863,0.511209,0.036887456
