node,0,1,2,3,4,5,6,7,8,9,10,11,12,13,14,15,16,17,18,19,20,21,22,23,24,25,26,27,28,29,30,31,32,33,34,35,36,37,38,39,40,41,42,43,44,45,46,47,48,49,50,51,52,53,54,55,56,57,58,59,60,61,62,63
và,0.03254722,-0.07664313,0.34226584,0.052618217,-0.10595216,0.010948156,-0.34598783,-0.16877651,-0.07116808,-0.17931871,-0.22102092,-0.060355417,-0.19855109,0.08421028,-0.34957775,-0.106253766,-0.0053748963,0.30925575,-0.025891727,0.24827506,0.12313004,0.03755901,-0.28892666,0.09100623,0.15487206,0.21349931,-0.0536288,-0.06240111,-0.09442861,-0.082338445,-0.011828565,-0.17757893,0.33855346,0.17135933,0.044064865,-0.32353866,0.43949103,-0.054841712,0.09258346,0.11321646,-0.14991277,0.07908891,0.032547705,0.349406,0.07562305,0.20589986,-0.2848182,-0.14492968,-0.07689378,-0.21423583,0.6252051,0.37009716,-0.16909641,-0.30710602,0.07398965,0.04785936,0.4439024,-0.0346532,0.3547766,-0.08746536,0.019883288,0.36760148,0.0077361753,-0.003710873
bắc,0.043007426,-0.2657917,0.014304302,-0.375586,0.0380767,0.17596297,-0.05184748,-0.20717841,0.25487578,0.14089555,-0.025095113,-0.19147928,-0.21867983,-0.513384,-0.26764455,0.005864406,0.014098635,0.4139488,-0.12133783,0.15701877,0.29912132,0.002582481,-0.1857182,-0.065208316,0.12848535,-0.12989703,0.23717944,-0.1239317,-0.22554536,-0.014302613,0.30259466,0.24810486,0.0090623805,-0.056290448,0.011244685,-0.042114265,0.545875,-0.34675157,-0.5464367,0.006280915,0.1209681,-0.0875345,-0.1876157,-0.10432325,0.27417624,0.49665102,0.0007780595,-0.15030463,-0.2586835,-0.42063773,0.13728751,-0.08858676,0.051626123,-0.12657203,-0.12944049,-0.31189126,0.009594326,-0.17522061,-0.16037841,-0.3546154,-0.033746414,-0.0025258563,0.19360167,0.29367772
của,-0.19103345,-0.28266072,0.59219843,0.14024955,-0.2168619,0.39178932,0.1470687,0.1802674,0.0022918177,0.1209629,-0.4025461,-0.2921516,0.24166033,-0.15376048,-0.3788855,-0.2132934,-0.15763792,0.52067167,-0.23981547,0.30565992,0.12886204,-0.29291168,-0.03111936,0.021469638,0.44547358,0.028153514,0.10396839,-0.051588804,-0.019589286,-0.063597985,0.33897546,-0.011087168,0.2989906,0.47911036,-0.015429847,-0.048389688,-0.19844194,0.06388031,0.2194639,-0.13514344,-0.23387532,-0.07397869,0.03221332,0.1403586,-0.26916316,0.18417959,-0.040517956,-0.032741845,0.17530577,-0.4404467,0.275337,-0.12982614,-0.085622475,-0.09294527,-0.22570606,-0.012688317,0.12198553,-0.016297119,0.22827,-0.586704,-0.47080842,0.15474236,0.1201577,0.32264307
băng dương,0.16020618,-0.21515425,0.11828703,-0.6558315,-0.13095458,0.21446083,-0.28758848,-0.12048566,0.033829093,0.16538529,-0.19951132,0.08886368,-0.41512057,-0.54984146,-0.08955703,0.24189964,-0.08467038,0.30373958,-0.21906933,0.24622405,-0.0029622647,-0.016838506,-0.13108867,-0.17176966,0.11465709,-0.107629426,0.20121427,-0.10798563,-0.342756,-0.13021588,0.503972,0.32592362,0.107890815,-0.08014943,-0.015464715,0.046071384,0.43927717,-0.35107934,-0.28455144,0.09022248,-0.0062143286,-0.19559693,0.00032502896,-0.2111847,0.27675873,0.4508746,-0.04910443,-0.19885162,-0.15757912,-0.3581632,0.2683519,0.17405006,0.040325545,-0.03830977,-0.017004788,-0.12372327,0.5883541,-0.38072053,0.016513404,-0.5752616,-0.056393072,-0.21359587,-0.07410178,0.20684919
cực,-0.22540836,-0.36790517,0.27525252,0.09463106,0.14460586,0.039035875,0.047516134,0.059215423,0.30819675,0.122606784,-0.09189359,-0.12510219,0.11952319,-0.59989643,-0.2111206,-0.21987687,-0.29978558,0.5383167,-0.31965932,0.012569257,0.2443533,-0.35577872,-0.09731354,-0.20872107,0.31081507,-0.3718407,0.15725847,-0.031910244,0.24550879,0.101178266,0.13245352,0.12614095,-0.076043226,0.21379295,0.33105317,-0.054441594,0.33743507,-0.15214533,-0.4377229,0.06093877,0.0058190073,-0.024906427,-0.3172364,-0.049917966,0.055092692,0.39573422,-0.05092505,0.09891628,0.038976926,-0.43103123,0.25980085,-0.2153834,0.0047607105,-0.05308617,-0.3834612,-0.2886519,-0.20602795,0.030494798,0.10278535,-0.22823153,-0.15813026,0.27033484,0.30284217,0.3206068
là,-0.11250323,-0.44823125,0.6441159,-0.27004978,-0.2088716,0.010940418,-0.06424265,-0.27650127,0.014867223,0.20247737,-0.28791583,-0.38794875,0.22765708,0.3372541,-0.30551872,0.3493433,-0.037729215,0.6663956,-0.37969008,0.3321404,0.1277061,-0.13319716,-0.007129083,-0.014215162,0.43736485,0.10663449,0.232416,-0.044979878,-0.21693225,-0.06630954,0.33315775,0.14394923,-0.026528282,0.39735946,0.38856483,-0.12728868,0.08158139,-0.32460818,0.031616706,0.13519782,-0.14350647,-0.15434298,-0.38445538,0.12713778,0.33462423,0.5865861,-0.27818266,-0.3554666,-0.1194005,-0.12375744,0.26444834,-0.07520499,0.095467776,-0.103210695,-0.29522696,-0.34868985,-0.031064166,-0.12321266,0.07334709,-0.16667776,0.1035979,-0.10352946,0.12879856,0.1515863
với,-0.46227464,-0.04941379,0.45383525,-0.082502834,-0.17021431,0.41822588,-0.39148763,-0.30262578,-0.24327919,0.09295457,0.12295228,-0.38611397,-0.5942206,-0.18484066,-0.4794877,-0.27546293,0.15533641,0.3033439,-0.18319565,0.7141296,-0.18483303,0.108734295,-0.04152829,-0.2283285,0.56758344,0.08941286,-0.21967594,-0.45683458,0.01979104,-0.42372,-0.12188593,-0.14467485,-0.4073771,-0.16089049,-0.013937485,-0.20053008,0.24712698,-0.11223882,-0.288977,0.16235286,-0.13087182,0.19294049,-0.09257322,0.26883155,0.42341822,0.37212172,-0.5038752,-0.1036666,0.21079339,-0.5425028,0.13969013,-0.3772449,0.15376231,-0.3463504,-0.45817754,-0.3695256,0.47055346,0.050687104,-0.0058097676,-0.55092824,-0.11393422,-0.07356882,0.04259092,-0.068330765
này,-0.35060072,-0.382727,0.29517013,0.07315796,0.048634555,0.20411143,-0.4611828,-0.3501167,-0.4000626,0.29314035,-0.26334068,-0.20621453,-0.03028687,-0.43003485,0.10531584,0.020936782,0.04843617,0.38285682,-0.34119835,0.31054553,-0.086211644,0.07990437,-0.06321977,-0.15101795,0.011061979,-0.1797121,0.07061731,-0.1446395,0.29083097,0.08586965,0.12508537,-0.029119795,-0.14049368,0.07838927,-0.11074764,-0.06798653,0.393167,-0.21423402,0.091609,0.15743549,-0.01800019,-0.11992904,-0.016772544,0.29965115,0.33896434,0.22108859,-0.056128003,-0.058491994,0.2281689,-0.41814336,0.5320209,-0.25935102,0.11441847,-0.08083736,-0.37632093,-0.26734897,0.08292247,0.30664113,0.43808493,-0.24915221,-0.015900671,-0.29545993,-0.079211414,0.04592425
các,-0.2590041,-0.071058355,0.08230555,-0.09170687,0.15886714,0.13876706,-0.3801391,-0.22387737,-0.18602277,-0.20014937,0.03952887,-0.38018844,0.017158762,-0.50307524,-0.10051112,-0.5072419,0.20398504,0.40291795,0.061613534,0.072003014,0.0871539,0.0039659105,-0.0016983644,-0.21766432,0.18671192,-0.16507497,-0.32198477,-0.6551831,0.14018987,-0.2278859,-0.23608054,-0.16648188,-0.3750849,-0.50780725,0.0142525155,-0.117000535,0.30823678,0.037667394,-0.17997876,-0.2501234,-0.031922,-0.05507412,-0.06681575,0.14066422,0.55649626,0.3773445,-0.07351809,-0.12567843,0.20316054,-0.39433706,0.38406345,-0.1269875,-0.011409349,-0.14838628,-0.4273089,-0.42268023,0.45092717,0.12642287,0.3004581,-0.3853909,-0.17707983,-0.11914266,0.055423703,-0.17217892
lớp,0.42778194,-0.03117486,0.35549772,-0.3545549,-0.44097394,-0.09650023,-0.08998593,0.033346742,-0.005837812,0.102094874,-0.23219267,-0.23879322,0.102560505,0.10207431,-0.23220438,-0.08462519,-0.31722352,0.86166817,0.07794481,0.24360912,0.44879654,0.16638829,-0.34027964,-0.007063545,0.04019271,0.35241753,0.11849222,-0.31086946,-0.35765588,0.0136002675,0.0062303673,0.1144401,0.1511357,0.16581859,-0.11016261,0.14479016,0.20483008,0.15186056,-0.06119231,0.102949835,-0.29234222,-0.699591,-0.21320115,-0.3519725,0.33437556,0.0810239,-0.060453657,-0.29177144,-0.28477374,-0.41765293,0.072083354,0.16221505,0.0378765,-0.13049127,-0.20782949,-0.18620197,0.03721897,-0.3774165,-0.44094223,-0.44814065,-0.0347957,-0.282747,-0.166174,0.31940725
băng,0.17664534,0.06910554,0.30798513,-0.30339333,-0.41266537,-0.045658313,-0.0027362104,0.14601697,0.0673202,0.1278963,-0.14327598,-0.28429705,0.1423423,0.039726608,-0.24401906,0.013480333,-0.26916638,0.7808731,-0.13215418,0.19414192,0.23258506,0.1067085,-0.5512866,0.0429638,0.28065285,0.31110552,0.09273938,-0.1858271,-0.20130612,-0.03609465,0.15111467,0.055174153,-0.02037331,0.038748138,-0.00053966977,0.020950688,-0.0056813583,-0.014515012,-0.10315455,-0.0764846,-0.34568036,-0.59056914,-0.2164035,-0.27828753,0.18143776,0.1571778,-0.102797575,-0.3163859,-0.13594288,-0.3307818,0.058432583,0.14798017,0.065986745,-0.0551971,-0.2221163,-0.15308703,0.034411088,-0.3164095,-0.46250182,-0.36068967,0.113134496,-0.13521786,-0.20141947,0.27971673
vùng,-0.21266513,-0.45654243,-0.16855393,-0.106644034,0.18782935,0.18262199,-0.013742714,-0.28122795,0.14317618,0.1276732,0.046600465,-0.47424558,0.34726462,-0.6104485,-0.29439586,-0.29309738,0.17557646,0.674777,-0.019283973,-0.14166951,0.45468646,-0.2708461,-0.0030493252,0.033087466,0.20184442,-0.4157046,-0.0066930754,-0.34983706,0.050251678,0.053185653,0.13893102,0.187946,-0.097399086,-0.21879485,0.3023262,-0.17642176,0.61178666,-0.37395343,-0.22721076,-0.23501998,0.048508633,-0.033578575,-0.2016298,0.19487208,0.32693425,0.6923764,0.23065251,-0.32136193,-0.090567656,-0.27660385,0.6297719,0.011991281,-0.09971949,-0.017392915,-0.18397251,-0.43159375,-0.0068286476,-0.005810533,0.502005,-0.099107035,-0.19744328,0.2697045,0.47052234,0.097251475
giữa,-0.39124447,-0.36203268,0.16405435,-0.06661947,-0.21882303,-0.29186714,-0.08974542,0.08833018,-0.47356358,0.22606084,-0.22358875,0.104269385,0.16687788,-0.072431415,-0.6165983,-0.44835514,-0.013803085,0.30840278,-0.46024898,0.44173107,0.009857,-0.26573536,-0.4337126,-0.27792034,0.27544242,-0.14888215,-0.10675487,0.4080366,0.439514,0.2720932,0.20567207,0.27604437,0.28525364,-0.035394024,0.11585616,-0.5027711,0.42892042,-0.2811002,0.21688409,0.42710274,-0.04026671,-0.12447814,-0.08763118,0.23888478,-0.12872747,-0.06722014,-0.22118706,0.024700208,-0.22527365,-0.5860493,0.22179404,0.58770275,-0.37728935,0.08313338,0.024011554,-0.20887601,-0.025219742,0.1549516,0.3431835,-0.03665334,0.05946441,0.35986653,-0.415437,0.39531824
nhiều,-0.22216395,-0.3648569,0.079375096,-0.049046375,0.08464867,0.14470771,0.04368623,-0.0031115592,0.04722695,0.17307504,0.075387046,-0.36324534,0.06064105,-0.39626965,-0.75455594,-0.53280634,0.17163524,0.39759615,0.100004904,0.24985962,0.30956748,-0.21286947,-0.26250374,0.13861738,0.24545719,0.089716844,-0.14386907,0.07229527,-0.013908469,0.12849244,0.0060854293,0.13774078,0.3665215,-0.06869406,-0.0059845797,-0.30868292,0.4483976,-0.44892493,-0.16344513,-0.106123015,0.23045415,-0.006042057,0.14645565,0.3069066,-0.13783225,0.27711976,0.04239249,-0.087042786,-0.2361361,-0.4233633,0.21868877,0.2537533,-0.23439111,-0.23529267,0.06927546,-0.27746722,-0.10607096,0.0009898838,0.2500252,-0.25361064,-0.22937763,0.48881903,0.299605,0.29047012
khí hậu,0.22929567,-0.4296188,0.44398877,-0.062225647,-0.6290919,-0.3030884,-0.21192524,0.010654187,-0.39917678,0.20338833,-0.48105994,-0.006724386,0.14956729,0.0056137606,0.18833332,-0.34014907,-0.28704956,0.7389386,0.08492099,0.4476723,0.24831738,0.32854736,-0.19880658,-0.50478786,0.12064381,0.109694906,0.10814087,0.07923816,-0.20415774,0.09685721,0.060619555,0.0009970632,-0.17073563,0.55728626,-0.19213824,0.2877434,-0.23837191,0.34812555,0.25688228,0.40983498,-0.25270325,-0.6985487,0.12541187,0.131513,0.42178208,-0.35788533,-0.12825654,-0.041271664,-0.2899692,-0.7670154,0.32783705,-0.024736954,-0.12094748,-0.2146961,-0.5261854,-0.20782426,0.19488093,-0.12017056,0.15411681,-0.5915167,0.004710519,-0.16115054,-0.06542962,0.07632431
phong phú,0.052870054,-0.49173787,0.5543428,-0.6241685,-0.18596715,0.069375746,-0.09506892,-0.1767274,-0.21403256,0.006427338,-0.11639884,-0.34531674,0.056798965,0.47009018,-0.8074504,-0.4862581,-0.2764113,0.6172548,0.09143736,0.39845335,0.43423638,-0.19016095,-0.17361672,0.07471161,0.23341253,0.51521254,-0.31193185,-0.13087553,-0.49193746,0.06807289,0.3348278,0.36012784,0.58715874,0.05594963,0.34017363,-0.18887551,0.33381444,-0.3653546,0.3137427,-0.22987886,0.13566154,-0.24689059,0.29021272,0.16487648,-0.03312345,0.40861276,-0.31496817,-0.45563167,-0.15000962,-0.26068118,0.4060167,0.46738213,-0.31494722,-0.26841837,0.37712872,-0.084256865,0.3647376,-0.102854624,0.14531888,-0.4081818,-0.1992629,-0.15963164,0.0016814242,0.41781196
đại dương,-0.13440141,-0.32956132,0.49957567,-0.14608514,0.07088034,0.33018917,-0.29658943,-0.25289136,0.02157291,0.11776877,-0.37870502,-0.37001342,-0.06963428,-0.073561534,-0.04079331,0.21547766,-0.14130042,0.454414,-0.2146043,0.26897013,0.03815391,0.045900512,-0.060985126,-0.03936854,0.24727204,0.1339966,0.1619544,-0.3223346,0.030193707,-0.15917203,0.21112463,0.016633186,0.05376727,0.21986061,0.020520568,0.07248244,0.1004828,-0.08627129,-0.15553369,-0.040869746,-0.069374815,0.04855558,-0.05890124,0.24528123,0.2488805,0.29936573,-0.20248708,-0.19226679,0.15967606,-0.2901493,0.4978441,-0.30001807,0.16900459,-0.22884493,-0.42265263,-0.15698522,0.23964752,0.012074204,0.19346154,-0.40347004,-0.1313052,-0.18751721,0.19203836,0.06716136
tuy nhiên,-0.1374594,-0.23941642,0.38538086,0.054779403,-0.3201513,-0.36332437,-0.40083975,-0.1625767,-0.53328025,0.17324772,-0.3080159,-0.008892567,0.09272415,0.10910564,-0.0626707,-0.50341755,-0.1778229,0.31699577,-0.206849,0.60703593,0.16091801,0.1408116,-0.32714754,-0.45996475,0.024678448,0.0023315733,-0.14365247,0.110546984,0.2705303,0.27108586,-0.13460977,-0.03845414,-0.09269033,0.1389481,-0.161157,-0.16049394,0.08233841,0.18984906,0.2694434,0.47558227,-0.1453476,-0.35204545,0.0386177,0.30906016,0.35752472,-0.36585408,-0.3442347,-0.03763168,-0.041451138,-0.590544,0.35480317,0.21157478,-0.16026032,-0.22355424,-0.24129246,-0.1935936,0.09615735,0.18137097,0.1921454,-0.102487445,0.13280599,0.069761366,-0.3867516,0.06414708
bắc mỹ,-0.31679425,-0.19481716,0.14879932,0.19108158,-0.22183554,-0.30984974,-0.50951636,-0.35324687,-0.25703236,-0.13637099,-0.18779038,-0.07818718,-0.16012916,-0.0022424646,-0.5325842,-0.41625407,0.15129472,0.29471335,-0.3187341,0.39839566,0.07073397,0.040227756,-0.37833157,-0.4747948,0.20365646,-0.20185758,-0.19421107,-0.31551972,0.44426724,0.062044796,-0.14613442,-0.13247511,-0.27755055,-0.090066686,-0.03199485,-0.38827243,0.49873242,0.08585871,0.0025816257,0.2940476,-0.39123896,0.15111588,-0.3413691,0.27013654,0.38329273,0.0108234985,-0.37949106,0.044821467,-0.02757978,-0.3751491,0.5873074,0.0891551,-0.036620777,0.06168574,0.06421942,-0.08480117,0.44352424,0.4544377,0.20645078,-0.080780216,0.10959715,0.20071848,-0.22519183,-0.24453828
phản chiếu,-0.022529667,-0.09796578,0.6765918,-0.13786544,-0.34002835,-0.027752122,0.1006581,-0.18563297,0.1264517,0.13507828,-0.18036649,-0.46234167,0.23004128,0.095825136,-0.29983193,-0.33592102,-0.47041994,0.5240949,0.033157315,0.4615041,0.32181406,-0.04170638,-0.02136177,-0.074741215,0.13083524,0.1698611,0.16864946,-0.19884393,-0.1724728,0.24023336,0.13530353,-0.012827162,-0.09054012,0.7693453,0.016459767,0.16109651,-0.36027575,0.3451982,-0.10338532,-0.08847695,-0.06425436,-0.5186039,0.21582778,0.28362417,0.30657893,0.06375826,-0.38889864,-0.41289377,-0.113034874,-0.28309843,0.39854938,-0.08600068,-0.0033445393,-0.27431908,-0.41141143,-0.12634714,0.065799564,-0.26194566,0.04565214,-0.19647247,-0.07565153,0.34263986,0.13821568,0.08367486
quan trọng,0.43334836,-0.03820547,0.1548683,-0.37428418,-0.39690652,-0.16087066,-0.12890685,0.22201876,-0.23762473,0.32774943,-0.32287607,0.1958778,-0.23602574,-0.4228111,0.35760534,0.31775877,-0.28567964,0.82823706,-0.05889833,0.18703878,0.31220827,0.18843515,-0.67752594,-0.12397855,0.16264606,0.23576257,0.18773888,0.08667306,-0.26514104,-0.052881625,0.26686627,0.099825144,0.33994648,0.18111503,-0.14320537,-0.005661997,0.41223842,-0.1657659,-0.0003592464,0.30169207,-0.17154413,-0.5631176,-0.19214717,-0.24938884,0.29537377,0.08005975,-0.00749383,-0.17831963,-0.33283687,-0.6258974,0.21833399,0.3060505,-0.099917315,-0.30684003,-0.32977,0.13304685,0.38227943,-0.41663057,-0.1544287,-0.42193496,0.20176809,-0.08899671,-0.3980567,0.29952842
biểu tượng,-0.30196854,-0.20582564,0.54180056,-0.24696428,-0.44362265,0.2975264,0.021312194,0.11912076,-0.12549804,0.3222999,-0.16775766,-0.03148953,-0.15537336,-0.15443178,-0.32705313,0.018926771,-9.132274e-05,0.28667006,-0.6321052,0.5077653,-0.30018985,-0.5614365,0.24399133,-0.25193903,0.7504336,-0.1101508,0.23512904,0.09482691,-0.066514276,-0.23844092,0.52381086,0.31899083,-0.09856969,0.33184558,0.28349108,-0.20777024,0.14309528,-0.44207504,0.09948643,0.31866372,-0.039945513,-0.2195518,-0.24374801,0.0023551187,0.0826806,0.62197715,-0.21572314,-0.06936299,0.08856932,-0.281948,0.012122732,0.0029100403,-0.05295639,0.095386215,-0.48389643,-0.32653788,0.1814243,-0.15845932,0.3418012,-0.45829976,-0.099953435,0.07517785,-0.21251741,0.24942388
tài nguyên,-0.10607921,-0.17217863,0.4359916,-0.32615167,-0.38850462,-0.13204324,-0.013185428,-0.0028625662,-0.1773041,0.12710473,-0.18556972,-0.2039883,0.23181255,0.45520335,-0.91110784,-0.11617097,-0.07766659,0.580506,-0.22047885,0.4613749,0.1205319,-0.10167702,-0.5025972,0.14715165,0.23021579,0.4172748,-0.19902864,0.0081645725,-0.0465143,0.27782634,0.1548237,0.24942495,0.43188453,0.033200122,0.22487196,-0.45232344,0.2716548,-0.4502314,0.36320195,0.1903076,-0.13023639,-0.35286042,-0.06964449,-0.037004456,-0.050312452,0.24527054,-0.26731038,-0.401255,-0.23482014,-0.13302381,0.15956855,0.5095536,-0.16635379,-0.16369203,0.1755992,-0.15872622,0.03253388,-0.14639993,-0.04129256,-0.046958327,0.11044947,-0.020539884,-0.2825113,0.4357483
toàn cầu,0.19161688,-0.34709796,0.3622418,-0.04668099,-0.50988674,-0.27897838,-0.18154792,-0.09702646,-0.31309158,0.12719089,-0.5388222,-0.14067921,0.424966,-0.003986106,0.15789944,-0.3086925,-0.23484436,0.78566563,0.035972454,0.28232267,0.26927993,0.30863097,-0.16391282,-0.3941422,0.05935464,-0.040340714,0.067102626,-0.036887392,-0.05601118,0.09957113,-0.010270589,-0.035324626,-0.2679613,0.36380577,-0.09080056,0.24893913,-0.21893832,0.2937392,0.18645705,0.31913647,-0.34016052,-0.6351201,-0.042088717,0.15384741,0.60045135,-0.20327333,0.02630453,-0.13282703,-0.16302316,-0.5958091,0.38998976,-0.11679944,-0.11666809,-0.16186614,-0.6306198,-0.2959014,0.070036836,-0.09626936,0.11375919,-0.3847341,0.0011978078,-0.30290014,-0.061688513,0.07106847
loài,-0.4038322,-0.5279101,0.25785425,0.14679112,0.2414359,0.29922345,-0.12392144,-0.3134266,-0.09668465,0.27262932,0.0076565123,-0.55789256,0.01787911,-0.60761523,-0.48360556,-0.4871208,0.123684675,0.40329412,-0.010092249,0.27571464,0.41780934,-0.22551028,0.13434811,0.08218066,0.040354744,-0.13259214,-0.10113863,-0.28898108,0.15731989,0.100883655,-0.027971508,0.07295667,0.19294432,0.14412807,-0.24077609,-0.19003733,0.6024981,-0.16239107,-0.17554606,-0.06665033,0.2546379,0.11884493,0.09355252,0.46964008,0.060525473,0.3076026,0.0070539964,-0.049730163,0.032871023,-0.4864234,0.5112722,-0.22444789,0.0013028841,-0.16354206,-0.13279772,-0.3236471,-0.11489154,0.22340602,0.5898186,-0.2924872,-0.29385197,0.32185164,0.3342622,0.09788577
khắc nghiệt,-0.41585344,-0.24601752,0.33062127,-0.22179715,-0.12547708,0.56075466,-0.16425914,-0.014749685,-0.09276793,0.30848876,-0.08852379,-0.14132006,-0.41720423,-0.5765573,-0.2141386,-0.11729239,0.16174008,0.22190765,-0.4328896,0.57433826,-0.35834935,-0.32537836,0.20680091,-0.36148623,0.61909366,-0.07278902,0.20527495,0.019564807,-0.04751571,-0.31587887,0.3811333,0.32809156,-0.21239775,0.16889848,0.012836438,-0.120403826,0.09766573,-0.48485208,-0.14657852,0.1474053,0.11260609,-0.08546123,0.0061996304,0.15714961,0.078178,0.37825128,-0.1818444,0.020540006,0.19989501,-0.56642276,0.17617212,-0.15104242,-0.082826965,-0.05387256,-0.5740895,-0.41885224,0.24402982,-0.19358045,0.4585883,-0.7319507,-0.15923561,0.23376122,0.088208206,0.1361787
nhưng,-0.24794655,-0.13274394,-0.011603417,-0.3089491,0.06641315,0.3649358,-0.4026776,-0.06365127,0.00044520368,0.14424574,0.021356419,-0.18577228,-0.4552299,-0.7061593,0.16033827,-0.13312042,0.12569143,0.24399106,-0.20720643,0.44613582,-0.21447432,0.07439497,-0.23868959,-0.45295346,0.54218924,0.026143461,0.0969769,-0.25194392,-0.068849266,-0.29068813,0.13448809,0.2276915,-0.4667055,-0.32007438,-0.015627678,0.09410255,0.0115612345,-0.44979405,-0.5180253,-0.15511814,0.10234022,-0.19067827,-0.06807289,0.041888874,0.39451757,0.1570913,-0.23142682,-0.05248719,0.24114032,-0.64105815,0.3085399,0.0020194885,-0.013091599,-0.2231704,-0.619188,-0.46622366,0.3853207,-0.26646936,0.087798156,-0.70971787,0.05643744,0.10186794,0.27944103,-0.03400821
đến,0.07673449,-0.10762807,0.4935451,-0.04899609,-0.40328813,0.29987133,0.27829432,0.49204457,-0.06626432,0.010012327,-0.21275775,-0.34697178,0.27975836,-0.042798974,-0.29558226,-0.2881428,-0.3173038,0.99517286,0.17580758,0.069810085,0.21796434,0.0809104,-0.3190122,0.04728662,0.7701533,0.12075507,-0.2678299,-0.27955964,-0.07078079,-0.57501066,-0.002163926,-0.13536374,-0.29387322,-0.1710294,0.057730757,-0.019488595,-0.34705308,0.097409874,-0.0211775,-0.12641865,-0.6325847,-0.05728833,-0.20629972,-0.13844165,0.10676799,0.25736883,0.011985565,-0.18693,0.07402241,-0.6895912,0.018053161,-0.121014535,-0.20786653,-0.1590613,-0.44353905,-0.17675942,0.23631287,-0.35388297,-0.32590008,-0.63745284,-0.337979,-0.12890773,0.20341478,0.5071751
trong,0.3730689,-0.17815696,0.025214931,-0.3921871,-0.34029245,-0.39625424,-0.37803617,0.0829903,-0.2248443,0.068873905,-0.5697456,0.2657181,-0.08177422,-0.58105457,0.1569769,-0.15074961,-0.30317003,0.7084549,-0.08547849,0.24111053,0.33325103,0.31502146,-0.49607047,-0.63114536,-0.041984316,-0.06342386,0.111911975,-0.18942094,-0.09267183,0.16112068,0.21458337,0.32239154,0.015376261,0.09742611,-0.4034508,0.28374705,0.19465372,0.29361263,-0.09433449,0.45121408,-0.26711047,-0.7488104,-0.16292492,-0.45367545,0.44281113,-0.3668951,-0.045470458,0.06296953,-0.36637655,-0.78407276,0.4057202,0.28701478,-0.1345981,0.08196552,-0.33242136,-0.024452541,0.5690862,-0.42698544,-0.15869245,-0.77578485,-0.019759526,-0.3025481,-0.31923681,0.31076595
như,-0.100401744,-0.3651879,0.30310458,0.21327536,0.2808218,0.16220127,0.11439368,-0.02957853,0.33916125,0.10918946,-0.005649041,-0.2810142,-0.12877952,-0.65403545,-0.5386932,-0.6318614,-0.26455727,0.49526888,0.01888361,0.21395645,0.4961711,-0.19686824,-0.11047237,-0.16304533,0.2813661,-0.165782,0.06677625,0.11874069,0.10146487,-0.050034642,-0.13473286,-0.016308103,0.20965406,0.14292079,-0.12030652,-0.14211203,0.50597286,-0.014726849,-0.8925988,0.30504864,0.22288296,0.26595762,-0.115783915,0.3283916,0.0444343,0.09622269,-0.112043366,0.086213745,-0.14767148,-0.91721743,0.20777558,-0.124764666,-0.102878734,-0.2964229,-0.2283003,-0.26101556,-0.21988995,0.08678849,0.0020316236,-0.30411804,-0.4177621,0.5601277,0.5286538,0.44182053
băng tan,0.29246083,-0.31067824,0.15599082,-0.087655865,-0.37058294,-0.094203636,-0.102490544,0.064270325,-0.26713818,-0.0547759,-0.4184673,-0.0560935,0.6437052,-0.35135725,0.17843881,-0.59664994,0.009692424,0.8638835,0.48026538,-0.13376586,0.2780402,0.2767688,0.0410994,-0.41187638,0.24673437,-0.296442,-0.3897328,-0.16114809,-0.26133606,-0.20385124,-0.12680882,-0.07431461,-0.5222819,-0.19527535,0.019769577,0.22405149,-0.41365293,0.26363683,0.21750157,0.1015207,-0.3327809,-0.26831868,0.06988017,0.19466689,0.6587125,0.03265499,0.21184553,-0.11684691,-0.11983491,-0.7969993,0.41328278,0.12323213,-0.41749358,-0.113507226,-0.5809072,-0.43247375,0.55105585,-0.3054379,0.28660414,-0.6079179,-0.46706435,-0.2444118,0.3366742,0.19260933
thiên nhiên,-0.22159953,-0.45958242,0.5545731,-0.37073746,-0.5636036,-0.23107675,0.07876366,0.1371585,-0.49563652,0.20285268,-0.07753078,-0.20399682,0.23627609,0.5297904,-0.59904325,-0.6360744,-0.09895972,0.50544316,-0.22164276,0.63185817,0.26348633,-0.35602424,-0.09840911,-0.3762158,0.46920457,0.2853882,-0.2514923,0.21981128,-0.12838088,0.09201549,0.26894662,0.38050595,0.2547324,0.3056608,0.32070628,-0.27634263,0.12270381,-0.29221463,0.4041461,0.24420394,0.082180545,-0.44240806,0.02819575,0.16329648,-0.01637453,0.10649878,-0.37151325,-0.13489231,-0.29422227,-0.38450497,0.0024105161,0.4421467,-0.3571012,-0.07492962,-0.012255039,-0.32537943,-0.09071247,0.081293575,0.32143837,-0.285721,0.07438395,0.1157501,-0.3109783,0.38614064
làm,-0.12888595,0.062148325,0.57853043,0.17977923,-0.21201614,0.29377636,-0.47265413,-0.15261391,-0.33187708,0.24075057,-0.73483086,0.063476846,0.16408528,-0.30982876,-0.18152717,0.18085134,-0.060987238,0.51351357,-0.39339656,0.32107812,-0.24523306,0.21008807,-0.36814696,0.18850356,0.042753827,-0.15582797,-0.04083666,0.03166618,0.19695029,0.30648112,0.23522444,-0.17621543,0.100317575,0.015058367,-0.2751733,-0.17713442,-0.118815005,0.035060517,0.61406326,0.5201482,-0.5198877,-0.046767894,0.20781979,0.21582226,0.09602834,-0.14698106,-0.08864628,-0.07207191,0.34773138,-0.5235781,0.62422854,0.13764837,-0.023222897,-0.24886407,-0.3364741,0.06764985,0.4226701,-0.039449356,0.33527106,-0.28580156,-0.2882527,-0.23968138,-0.20541288,0.50302804
bị,0.2675524,0.31964147,0.12907192,-0.2975699,-0.0972172,0.040046155,-0.5551086,-0.4703535,0.34055758,-0.039458662,-0.24715006,0.06363325,-0.11410395,-1.1131926,-0.5697418,0.040776964,-0.30202925,0.30229637,-0.29402038,0.20669578,-0.030169837,0.056901824,-0.48044607,0.1792643,-0.2638885,-0.43948695,0.32225582,-0.33378583,-0.13767353,0.7694428,0.3484904,0.15836228,-0.07125573,-0.107723884,-0.41623554,-0.02900179,0.36043313,0.20693077,-0.4623613,0.21085033,-0.095179096,-0.6696522,0.102555394,-0.22572263,0.4106971,0.12553765,-0.00035327653,-0.54770625,-0.0712753,-0.40541938,0.7297386,0.5192315,0.19843662,-0.0018590443,0.06500851,0.09049869,0.81411546,-0.3780847,-0.14473222,-0.30108285,-0.060659885,0.20674925,-0.12784907,0.32385817
bởi,-0.019997159,0.02759544,-0.17374659,-0.099483706,-0.06322907,-0.34545904,-0.27385655,-0.14957836,0.3294841,-0.21375492,-0.17416503,0.031339753,-0.070388876,-0.9009655,-0.38690832,-0.39381623,-0.102918275,0.20887668,-0.26763058,0.11232156,0.12600169,-0.18374518,-0.22407423,-0.47250274,-0.15102702,-0.52677584,0.19118388,-0.46719593,0.2984342,0.3804909,-0.12731242,0.2011027,-0.37208867,-0.14613824,-0.16159739,-0.024060016,0.53673023,0.18509433,-0.6363333,0.19774699,-0.14782406,-0.5428389,-0.37880087,-0.3328116,0.47412464,0.0723411,-0.036519844,-0.051435523,-0.23402074,-0.29958066,0.5100284,0.20021583,0.009819757,0.38697708,-0.18121602,-0.28433272,0.34199142,-0.10491383,0.010737457,-0.30796114,-0.07434266,0.25758952,-0.15921316,0.022229558
lên,-0.018409364,0.40674725,0.42233723,0.016865868,-0.19753549,0.04283989,-0.6379876,-0.4349224,-0.21701524,0.123727925,-0.50075763,-0.030031407,0.26839644,-0.71458286,-0.51583904,0.26061732,-0.12863968,0.58464146,-0.5758579,0.305975,-0.13254108,0.2552108,-0.76064587,0.47871795,-0.30947646,-0.35079545,0.16904475,-0.07934747,0.08838917,0.95373285,0.22996008,-0.14370415,0.053123888,-0.0969039,-0.3566531,-0.387511,0.23536293,0.10198857,0.25757888,0.51165324,-0.44072148,-0.6091122,0.049774602,0.015945373,0.346302,0.017082661,-0.037624493,-0.5712392,0.18445815,-0.46387962,0.6298588,0.48183146,0.115782596,-0.24556252,-0.13755576,0.022711527,0.44316036,-0.14250946,-0.035083897,0.037251037,-0.008498609,-0.0093173515,-0.41300738,0.53451395
điều,0.014249874,-0.20294125,0.1821383,0.051604,-0.32816836,-0.13870148,-0.43679547,-0.039208435,-0.47906315,0.21408351,-0.42817882,0.17353497,-0.19910678,-0.3534806,0.15648644,-0.093539186,-0.14442518,0.4734915,-0.17096567,0.33691755,0.19061822,0.29442087,-0.4910066,-0.43616492,0.023978906,-0.018911926,-0.083014,0.06587501,0.13656819,0.1309393,0.13266967,-0.029177185,0.094674595,0.12698008,-0.383365,-0.0008169068,0.27412602,0.086631216,0.15921006,0.5103595,-0.16974293,-0.18662705,-0.046465185,0.015131868,0.19486322,-0.3403477,-0.0811064,0.18453726,-0.049003832,-0.64492106,0.2694189,-0.032076716,-0.03978413,-0.19994757,-0.16774806,0.14047672,0.4319309,0.17184238,0.09124252,-0.4429211,0.03568085,-0.23149374,-0.30587217,0.14744608
biến đổi,-0.14478485,-0.6034061,0.6723619,-0.071536414,-0.6035042,-0.40530992,-0.0050483975,-0.09183173,-0.44960642,0.360865,-0.3259145,-0.24047416,0.39527345,0.3171465,-0.16714282,-0.62422323,-0.42203492,0.70865375,0.017243572,0.7269766,0.4478616,0.15048882,-0.080800414,-0.5321416,0.12710209,-0.04162821,0.011139362,0.24709669,0.07406787,0.24494176,0.048940208,0.12194559,-0.184068,0.7550028,0.0059044915,0.09516222,-0.22860718,0.3512987,0.17323022,0.48511782,-0.11113981,-0.62655795,0.15901372,0.38598225,0.44277605,-0.3110147,-0.3975229,-0.1324372,-0.35071722,-0.7841223,0.29133418,-0.074083574,-0.22103374,-0.12829788,-0.50289243,-0.35855386,-0.23706038,0.06828706,0.19773094,-0.2718227,0.07982065,0.04314483,-0.15058337,0.24924797
khi,0.37472633,-0.031940684,-0.06585606,-0.505023,-0.21273622,-0.17065609,-0.3132352,-0.014238182,-0.10103558,-0.2795251,-0.4259974,-0.1483309,0.38514015,-0.24437314,-0.03004394,-0.33950415,0.073159896,0.8579256,0.31886455,-0.069821686,0.4007549,0.28770837,-0.27486318,-0.16199271,-0.0058068167,0.15868653,-0.3300289,-0.66645956,-0.34429625,-0.066991165,-0.053574093,0.22536232,-0.16062813,-0.5975333,-0.11845974,0.1340081,0.11041212,-0.001395951,0.0958149,-0.05054758,-0.34911323,-0.60722256,-0.21764156,-0.4155517,0.6096162,0.117834605,0.092624746,-0.2766655,-0.18925157,-0.41879225,0.23479219,0.37625858,-0.2623258,-0.027441304,-0.3599299,-0.37052745,0.4798423,-0.4783399,-0.10069764,-0.6162362,-0.15903758,-0.57258844,-0.08021722,0.3107989
dưới,0.42018285,0.3189107,0.22571968,-0.25064367,-0.42335358,-0.15943007,-0.24175204,-0.027419401,-0.19642504,0.043266855,-0.18940912,-0.048399385,-0.028133698,-0.24213906,-0.054545484,0.39111796,-0.14571176,0.863129,-0.23212439,0.19940285,0.15663986,0.12216762,-0.62702304,0.32314408,-0.001550593,0.12170617,0.278282,-0.14255713,-0.3574582,0.17047264,0.08513255,-0.086443916,0.14348084,0.06682863,-0.044730786,-0.20669119,0.3923383,-0.041886494,0.14445274,0.20919828,-0.39493784,-0.85854846,-0.3160464,-0.2506817,0.3964708,0.35277152,-0.02732074,-0.57974714,-0.18697079,-0.32575256,0.20865358,0.4863821,0.084531225,-0.33657956,-0.3146808,-0.087099195,0.27322254,-0.37437358,-0.24359815,-0.13227226,0.27656144,0.02328182,-0.5319088,0.19879638
có,0.3470532,-0.23639566,0.036687944,-0.71407527,-0.16662005,0.20637728,-0.12982023,-0.19821459,0.016171284,0.22963923,0.009066273,0.1586497,-0.44875127,-0.59677094,0.08581127,0.21515629,-0.120801225,0.34481966,0.08581759,0.15880452,0.010820807,-0.13191672,-0.11754516,0.043974888,-0.088745125,-0.16635203,0.24687193,0.046009358,-0.38420185,-0.15556844,0.28107798,0.21222107,0.19418366,0.009731499,0.22631304,-0.11252972,0.69362295,-0.3962513,-0.17941853,-0.032166008,0.060176402,-0.32519254,0.12139127,0.06550225,0.4118109,0.8039337,0.0051634987,-0.5014102,-0.43145654,-0.3723919,0.5797194,0.3883223,-0.14798242,-0.23019493,-0.10826625,-0.09141388,0.56062406,-0.45618993,0.28570738,-0.23648989,-0.04370076,0.05053467,-0.2463564,0.1234017
lạnh,-0.08520182,-0.579247,0.40460244,-0.40241146,0.046251267,-0.12430718,0.12951393,-0.36553124,0.2757109,0.34407136,-0.2930707,-0.3876522,0.37841192,0.03163563,-0.29668754,0.2515713,-0.33054286,0.6988702,-0.48661593,0.06501376,0.33468127,-0.35461262,-0.006248927,0.08397389,0.2962085,-0.42494518,0.33925474,0.052266236,0.07528362,0.099026434,0.55278575,0.39800698,-0.02810884,0.3651651,0.58464885,-0.22280414,0.30675253,-0.35577908,-0.241495,0.10963896,-0.29954332,-0.031692628,-0.3169244,0.23128848,0.31129614,0.6800328,-0.21759751,-0.40472206,-0.17958947,-0.3216561,0.77485913,0.028323127,-0.033704422,0.10157801,-0.22360435,-0.3730458,-0.29032487,-0.29480442,0.31108397,0.1791764,0.13398178,0.22327657,0.25380105,0.3581965
mặt trời,0.20106052,0.14970024,0.5878724,-0.017126357,-0.33534747,-0.029286768,-0.02670441,-0.23797134,0.12719513,0.025825074,-0.33572006,-0.2967643,0.22567672,-0.022964908,-0.43171814,-0.20974298,-0.56057405,0.489315,-0.024373531,0.25590584,0.07942589,-0.03650987,-0.17312463,0.0041398765,0.18536164,0.18147773,0.23908512,-0.11320663,-0.2057346,0.3400701,0.21779938,-0.19236167,0.16263756,0.69478786,-0.07423292,0.037909374,-0.33086565,0.35992852,-0.01825091,-0.06474507,-0.08490153,-0.58341426,0.4498188,0.30418852,0.22382236,0.011122506,-0.263016,-0.6183559,-0.10014215,-0.1225779,0.7440646,0.34000924,-0.060073666,-0.39491984,-0.28140286,0.14190848,0.50673187,-0.41730487,0.18078324,-0.17037316,-0.21034068,0.62000054,0.092577726,-2.5889356e-05
sinh thái,-0.07433458,-0.3298756,0.7984007,0.15032378,-0.07039811,0.25677997,-0.31497967,-0.12160325,-0.19773245,0.090281315,-0.7599826,-0.25384638,0.17450222,-0.046659842,0.018350922,0.3186324,-0.10913402,0.6737869,-0.45178142,0.29088977,0.041093513,-0.046361506,-0.15700658,0.039148334,0.31808767,0.26196602,0.31030402,-0.15132698,-0.025457716,0.06156384,0.44077253,-0.08369969,0.5317118,0.54655564,-0.07533812,-0.108732775,-0.019625245,-0.014915429,0.5186662,0.009009589,-0.16587318,-0.16926761,-0.14527744,0.31573486,0.00920255,0.20870787,-0.13640109,-0.13235675,0.2931696,-0.2714355,0.59931517,0.04297029,0.012632328,-0.24390748,-0.4723505,0.033339318,0.41000766,0.010013528,0.50434697,-0.49444088,-0.23352264,0.010277037,-0.10035532,0.11041472
vô cùng,0.25567308,-0.08114154,0.041880917,-0.34082073,-0.37788293,-0.108602844,-0.4076086,0.22405538,-0.36855203,0.2948156,-0.4034786,0.32797694,-0.5125719,-0.6205998,0.11495718,0.141598,-0.1851667,0.6637558,-0.15786968,0.43074355,0.23201859,0.28001675,-0.81903607,-0.4511865,0.21940333,0.270762,0.13294125,-0.02297228,-0.15318908,-0.013310876,0.43410444,0.17978539,0.44716796,0.089545816,-0.45183054,0.0062555345,0.5206396,-0.14528096,-0.053924143,0.43806583,0.007982395,-0.4446942,-0.119830586,-0.3372795,0.068753235,-0.15367274,-0.11974609,0.09061845,-0.3780418,-0.7525451,0.16151609,0.2938514,-0.029820338,-0.27764338,-0.13059671,0.32087877,0.806974,-0.24002096,-0.18952793,-0.8022663,0.051261377,-0.08531442,-0.43525362,0.31534925
hóa,-0.44749555,-0.3190256,-0.029927615,-0.14181094,-0.23119466,-0.61288214,-0.26884797,-0.10769718,-0.702221,-0.05572005,-0.05660767,0.06759195,0.36117113,-0.012272497,-0.661388,-0.70292795,-0.046534628,0.54843736,-0.4930271,0.22822464,0.07042263,-0.17484225,-0.6788607,-0.39019302,0.46745595,-0.4624196,-0.34276083,0.3190245,0.63010895,0.22255985,0.09027357,0.10418392,-0.0769538,-0.47308418,0.48668906,-0.86766,0.48046458,-0.14048946,0.14105141,0.33881086,-0.44227296,-0.15744023,-0.351767,0.28378177,0.21572436,0.027792742,-0.40454495,-0.28429955,-0.12571801,-0.7156986,0.48087814,0.75070506,-0.44584295,0.08362035,0.11358276,-0.4036205,0.30433956,0.29284254,0.33898205,0.1449268,0.20285271,0.5586974,-0.4515371,0.26860034
na uy,-0.12648226,-0.007758022,0.3521882,0.24546401,0.13434394,0.13419318,-0.36241236,-0.031831782,0.35609847,-0.11945377,-0.07335072,-0.10686518,-0.3696361,-0.50396574,-0.29586896,-0.5058575,-0.1383234,0.34262878,-0.13736604,0.25442237,0.18935303,-0.05585523,-0.32627857,-0.22334966,0.6483055,0.025519174,-0.30996513,-0.17937332,0.14040428,-0.18845797,-0.24532828,-0.21912427,-0.16150118,-0.23029749,0.022518793,-0.21837686,0.30026558,-0.21690246,-0.69338167,0.3480092,-0.029038118,0.5434335,-0.2848617,0.43329537,0.3252745,0.06148076,-0.30525535,0.30379647,0.21306701,-0.6951673,0.49371883,0.027656857,-0.13607328,-0.6100838,-0.30925778,-0.1039595,0.3128674,0.008219493,0.12285962,-0.15519087,-0.13895269,0.44001794,0.5496505,0.21925563
nghiêm trọng,0.27759746,-0.30721274,0.4778917,0.064750105,-0.5989595,0.12955211,0.12969491,0.40557608,-0.29055113,-0.015345424,-0.58131754,-0.104347914,0.7781183,-0.31460172,-0.060130674,-0.41313356,-0.17753698,1.3549379,0.28547153,-0.143566,0.25600928,0.24992235,-0.18144521,-0.14531446,0.6924934,-0.35611907,-0.38988453,-0.08317933,-0.08368554,-0.48630968,-0.031341173,-0.26466465,-0.48990068,-0.169503,0.08833592,0.055728834,-0.5987486,0.32216054,0.40135017,0.2009859,-0.8898081,-0.11007072,-0.0886442,0.08342858,0.44812122,0.15639974,0.21625924,-0.21277246,0.008438958,-1.0638527,0.3503472,-0.04079944,-0.45021355,-0.113090776,-0.6629043,-0.31795618,0.56290054,-0.35070506,0.10651707,-0.73420334,-0.6526774,-0.29272234,0.37899542,0.5640879
đảo,-0.27968988,-0.0042967405,0.36857122,0.1215395,-0.38619965,0.19318159,-0.56438905,-0.4227791,-0.30774036,-0.055075455,-0.20585954,-0.23025759,-0.43514973,-0.023560945,-0.77309674,-0.40582335,0.14207867,0.26527834,-0.09509823,0.5542733,-0.045853905,0.21434925,-0.11520682,-0.2571307,0.17093216,-0.12662825,-0.21213612,-0.5400869,0.17036764,-0.12705876,-0.061363492,-0.24216023,-0.23638955,-0.010859691,-0.15717997,-0.284049,0.4241361,0.2961685,0.10191299,0.40858844,-0.3973081,0.33350602,-0.0133514535,0.2437732,0.3597322,0.059355073,-0.48140034,-0.11526074,-0.017346265,-0.43440858,0.43121657,-0.11944393,0.117585726,-0.1246992,0.096297435,0.11316092,0.86004066,0.29698032,0.12894328,-0.5240474,-0.27766457,-0.0956843,-0.116881646,-0.1774191
nó,0.1252872,0.0961239,0.6306303,0.045844436,-0.5395818,0.04853323,0.06943492,-0.028299123,0.12801512,0.074443,-0.2979321,-0.33485097,0.15961546,0.05173809,-0.6084278,-0.24530904,-0.46402606,0.64211625,-0.13887367,0.46787196,0.23943613,0.018067287,-0.3066864,0.12588875,0.20438504,0.35584307,0.25479487,-0.18128373,-0.23525596,0.28736913,0.22552864,-0.1435933,0.23232932,0.71455175,-0.1846782,0.028236952,-0.21528785,0.3625585,0.11416587,-0.003868186,-0.2602104,-0.6244244,0.16222635,-0.031916637,-0.043293547,-0.05220798,-0.23733625,-0.46751904,-0.11525209,-0.18165956,0.30076632,0.13966376,0.048398525,-0.24362026,-0.1726686,0.15884297,0.25835708,-0.3114291,-0.14089736,-0.40337732,-0.20165405,0.37896368,-0.07059093,0.17836152
mét,-0.14839332,0.008933113,0.6407598,-0.27872437,-0.2569985,0.4478989,0.05649148,0.22724234,-0.073980816,-0.1594687,0.12330995,-0.81954867,0.1467919,0.021314055,-0.6705443,-0.585268,-0.38039863,1.0052649,0.2519555,0.26902527,0.3650142,0.049152218,-0.32882267,0.15073796,0.7917445,0.37837297,-0.5533116,-0.8432265,0.003099352,-0.61532056,-0.13591576,-0.2086634,-0.34152356,-0.46133646,0.26314145,-0.10124631,-0.046126403,0.1416149,-0.37475318,-0.46150336,-0.46270922,-0.0016636779,-0.2720076,-0.043776162,0.39649633,0.6037945,-0.2535485,-0.4270556,0.20145492,-0.5988515,0.10332801,-0.29947662,-0.051162858,-0.32986897,-0.46201503,-0.4050934,0.3259926,-0.19070604,-0.4242405,-0.6585772,-0.3852818,-0.26233882,0.20374021,0.342718
còn,0.18704416,-0.15069705,0.14594476,-0.54927313,-0.16321567,0.30154642,-0.19948755,-0.080640815,-0.1193498,0.2640091,0.024191977,0.11720263,-0.52744484,-0.65308106,0.13634609,0.41817918,-0.030553013,0.4437487,-0.0688245,0.20637603,-0.1130578,-0.13467136,-0.22056794,0.10641043,-0.0315751,-0.1986196,0.29981706,0.030746952,-0.22894368,-0.22675963,0.12300925,0.09723633,0.099470526,-0.04601191,0.2175392,-0.20362528,0.83833486,-0.45407757,-0.18260172,0.033437736,-0.06096731,-0.32877034,-0.117255196,0.001686967,0.3758107,0.9004028,-0.005677208,-0.46489683,-0.32638526,-0.46723476,0.32729077,0.24028318,-0.016829846,-0.23443744,-0.3124662,-0.27884752,0.2943643,-0.284171,0.14719127,-0.19812202,0.048322447,0.003910961,-0.43381703,0.123547584
giữ,0.1766184,0.40022516,0.4940357,0.1121224,-0.15428254,0.08950073,-0.41627935,-0.43881685,0.30207002,-0.21481094,-0.28451803,-0.1707674,-0.032899704,-0.6817721,-0.7274111,-0.2790149,-0.5537499,0.39899468,-0.15931967,0.17928877,-0.025577134,-0.03319151,-0.42328694,0.21037,0.02256184,-0.076604284,0.2484848,-0.31890807,-0.030745625,0.5638461,0.12970299,-0.29991177,0.26299843,0.3354598,-0.2675367,-0.13546665,0.015404666,0.4957854,-0.3336537,0.07513592,-0.13168953,-0.45372558,0.40767276,0.29569608,0.24461243,0.049924035,-0.21742932,-0.6727338,-0.016456328,-0.22271158,1.1088996,0.6142995,0.058657523,-0.42247906,-0.05194527,0.28602654,1.0011208,-0.39962,0.18965389,-0.20295379,-0.3542537,0.8094906,0.09653261,0.08638663
nga,-0.0441014,-0.17580631,0.39087248,0.18587413,0.17181487,0.2818875,-0.20779718,-0.023701383,0.5947306,0.04380116,-0.1418363,-0.105898134,-0.26417673,-0.6314726,-0.32336643,-0.22175977,-0.24349779,0.4486505,-0.20460139,0.23858471,0.2557849,-0.14124937,-0.26398185,-0.0862758,0.5563535,-0.05406336,-0.20750968,-0.09352643,-0.037952468,-0.1303365,-0.07123605,-0.09344225,-0.03326695,-0.11991706,0.038148873,-0.031236148,0.34268224,-0.36064607,-0.9363044,0.31694013,-0.05258797,0.54846776,-0.37722844,0.26833203,0.23501992,0.2561579,-0.14131902,0.3176115,0.18731475,-0.76035213,0.3925703,-0.14400125,0.034053978,-0.4537633,-0.2262042,-0.16292936,0.103216395,-0.06710304,-0.07290393,-0.2444746,-0.23820618,0.21652456,0.72346085,0.46690026
quanh,-0.04671474,-0.42283937,-0.04668226,-0.22329329,0.10535153,-0.07844296,0.10606342,-0.23334312,0.469215,0.1971414,-0.19436795,-0.33800194,0.29815322,-0.43342808,-0.19802588,0.059624664,-0.08368924,0.651566,-0.3154719,-0.17554401,0.42553374,-0.25628546,-0.12617926,0.035707388,0.28785115,-0.48123217,0.21114117,-0.28177208,0.14103289,-0.075979814,0.31152403,0.37702078,-0.1787024,-0.020418365,0.22856225,-0.16118217,0.49779075,-0.29454547,-0.48463425,0.049614344,-0.31230772,-0.0063788504,-0.43127975,0.01042224,0.376048,0.6162491,0.0032990864,-0.21474428,-0.28181976,-0.26134047,0.81918234,0.08511238,-0.12988324,0.1872777,-0.19370095,-0.3573153,-0.18159574,-0.3762967,0.27508453,0.10046722,0.10661326,0.3251572,0.36710757,0.26368448
ẩn chứa,0.41028428,-0.5332578,0.056318972,-0.92696726,-0.14962372,0.16171038,-0.22993396,-0.19347711,-0.06581593,0.14045294,-0.13121048,-0.041218314,-0.2327603,-0.06427786,-0.43286562,-0.23044679,-0.267531,0.57565606,0.23176473,0.13381928,0.48204353,-0.04482944,-0.27613354,0.0064465473,-0.0117048845,0.25567076,-0.26036865,-0.03220255,-0.65907073,-0.033535935,0.44263273,0.629838,0.53664845,-0.28636277,0.14868209,0.06248547,0.59322166,-0.6212972,-0.1482724,-0.10717431,0.10607029,-0.30504367,0.202292,-0.19021378,0.1755769,0.44251186,0.061910223,-0.38911393,-0.17749995,-0.4803422,0.44782096,0.3573775,-0.21603237,-0.16328709,0.4992098,-0.09208481,0.467254,-0.3380676,0.039898515,-0.5520804,-0.10447952,-0.48080152,0.0768702,0.54689556
châu á,-0.3171387,-0.21685192,0.19587031,0.19516431,-0.2178237,-0.47462845,-0.5060255,-0.19280097,-0.4560935,-0.09820836,-0.34486467,-0.0056966715,0.07639642,0.12531835,-0.40613976,-0.50571054,0.13774112,0.27540976,-0.5271459,0.43509176,-0.05256315,0.017599033,-0.4516103,-0.48586386,0.31665173,-0.15655124,-0.19005491,0.03675239,0.58505243,0.094736084,-0.06628661,-0.067372255,-0.208615,-0.15320894,0.016888171,-0.58935255,0.292511,-0.009075211,0.18169741,0.42713523,-0.34290498,-0.04291914,-0.26651472,0.37151057,0.35406998,-0.16929267,-0.4594063,0.03801121,-0.038410172,-0.4718297,0.61503977,0.5205526,-0.29352653,0.05340089,-0.13474286,-0.2185997,0.3718941,0.34962046,0.4225129,0.026692225,0.24484211,0.34976888,-0.30695313,-0.061175514
vai trò,0.32932594,-0.08976725,0.015135201,-0.42131937,-0.23520999,0.053998068,-0.39956287,0.047897007,-0.068888545,0.36984295,-0.3878497,0.31979305,-0.51304376,-0.7731998,0.23628572,0.28108218,-0.2607777,0.5293052,-0.121981196,0.26284668,0.1170649,0.252212,-0.59421134,-0.36625567,0.21749948,0.04344762,0.17440775,0.04339134,-0.2483867,0.013583275,0.5336649,0.2799826,0.26602682,0.009430431,-0.38308412,0.16686258,0.38345408,-0.25890008,-0.3380165,0.4492701,0.08713992,-0.30617565,-0.010911458,-0.24692868,0.2226454,-0.071436174,-0.055288278,0.010075169,-0.21871734,-0.7067119,0.35942635,0.24560785,-0.03780822,-0.3067723,-0.18474072,0.25603753,0.784905,-0.3968065,-0.13025872,-0.64721936,0.032383807,-0.091080606,-0.08021866,0.39080903
greenland,-0.2883784,-0.10725954,0.3531721,-0.028074482,-0.38584778,0.29142362,-0.5863868,-0.53273666,-0.48677877,0.004414479,0.0018926333,-0.18883327,-0.7330606,-0.02229873,-0.83200955,-0.33826503,0.091796674,0.16903643,-0.1773648,0.6771786,-0.13004997,0.2634071,-0.26769212,-0.2797972,0.34094915,-0.03268632,-0.120721385,-0.39006892,0.12651026,-0.20065525,0.117701925,-0.20991652,-0.2330913,-0.06162442,-0.12639411,-0.37639892,0.5712547,0.23205459,-0.051277142,0.38216442,-0.25663275,0.2990658,-0.06536871,0.24847911,0.28912997,0.1404409,-0.49349087,-0.2401103,-0.065705664,-0.52274895,0.32577825,-0.09591021,0.20203483,-0.25222078,0.23185131,0.07041497,0.96586704,0.3235342,0.0031074295,-0.65562993,-0.20986162,-0.10036383,-0.20030575,-0.17816904
dày,0.05276004,0.22601567,0.6532052,-0.31404898,-0.4818798,0.21728095,-0.02936558,0.29707643,0.022047112,-0.10255522,-0.1154865,-0.6668457,0.30665407,0.1371621,-0.59508723,-0.30817035,-0.3868775,1.1207564,0.092316195,0.2777037,0.34147632,0.097479165,-0.5964221,0.20853414,0.63526744,0.52588165,-0.2846767,-0.666498,-0.2674739,-0.30441573,-0.08372514,-0.13979687,-0.21457165,-0.27763805,0.10141113,-0.059304778,-0.16920504,0.060780127,-0.15758193,-0.28135818,-0.55313617,-0.42645392,-0.3492802,-0.30306455,0.32128432,0.33326948,-0.20666501,-0.4761113,0.1473488,-0.44135013,-0.053328276,-0.017442422,0.031928316,-0.31958953,-0.43152118,-0.3350714,0.20465197,-0.36631644,-0.67587656,-0.5815655,-0.17258276,-0.34977782,-0.023604516,0.48205298
giá trị,0.25987983,-0.19878232,0.22761357,-0.6621704,-0.17517395,0.14502826,-0.27196914,-0.14144625,-0.22001147,0.19677728,-0.0015729365,0.14462098,-0.64220154,-0.36081114,0.022886403,0.3413843,-0.0181794,0.37413284,-0.125627,0.40713137,-0.069928564,-0.068272874,-0.26683313,0.04991069,0.05824921,0.08508387,0.22072597,0.16638689,-0.32843763,-0.21688876,0.12941363,0.13589378,0.34100434,0.061965175,0.20853217,-0.2886971,0.8493656,-0.5142575,-0.08601852,0.17305472,0.013981735,-0.32113442,-0.044235494,0.13998497,0.32591626,0.72521216,-0.2628169,-0.438919,-0.42351517,-0.44434857,0.3657446,0.43015322,-0.118461475,-0.37262526,-0.16414537,-0.1854029,0.4332716,-0.3551748,0.22109023,-0.1816328,0.15558131,0.06507277,-0.4589009,0.10321215
lục địa á-âu,-0.22161676,0.096531674,0.105683215,0.23783211,-0.1437525,-0.23385745,-0.46749225,-0.3259155,0.013513902,-0.26536322,-0.04576403,-0.22560252,-0.09071682,-0.2853415,-0.58672327,-0.53460526,-0.0021682614,0.21431564,-0.15390992,0.21130326,0.050654545,0.016845066,-0.17887992,-0.43450475,0.084107675,-0.3047673,-0.11957008,-0.6437913,0.48661238,0.1421503,-0.2863405,-0.14813478,-0.4962798,-0.13004242,-0.008931366,-0.177358,0.35682333,0.3741396,-0.26652256,0.18772772,-0.29409006,-0.042937208,-0.25916636,0.101600364,0.5497144,0.029380828,-0.32463974,-0.14878467,0.030869626,-0.16263422,0.6406835,0.020939298,0.054754008,0.1112177,-0.17024377,-0.13051008,0.57677144,0.2632001,0.12451972,-0.13752802,-0.14048317,0.26931223,-0.02924801,-0.29236102
quá,0.22128856,0.4768381,0.22833687,-0.24974395,-0.34187376,-0.10111565,-0.46480682,-0.43739805,0.048912648,0.00042939896,-0.08961137,-0.19658233,0.16425443,-0.67238194,-0.5358149,0.25024587,-0.10092912,0.67293185,-0.3324218,0.15145844,0.020362599,0.1544774,-0.5125842,0.48826686,-0.286099,-0.43064532,0.28499678,-0.33434302,-0.25884572,0.70831543,0.18682602,-0.012551247,-0.292602,-0.17414884,-0.15593106,-0.31811816,0.37960276,0.21409959,-0.15913332,0.2880723,-0.50007635,-0.8900589,-0.23017977,-0.23459628,0.65511346,0.35474336,-0.11359181,-0.86349237,-0.09949189,-0.40258086,0.35346243,0.49391067,0.2070472,-0.09566184,-0.1474334,-0.23791397,0.34615314,-0.33700907,-0.387233,0.0035262643,0.18324798,0.027071413,-0.3403394,0.36846086
lại,0.0041603334,-0.20903786,-0.1710997,-0.38210532,-0.11178876,0.045936923,-0.38188753,0.18061858,-0.22832537,0.34913844,-0.23935841,0.22369666,-0.43658888,-0.83046705,0.25320134,0.17923394,-0.025471268,0.5420448,-0.2389102,0.31477883,0.1103743,0.19119394,-0.74461824,-0.51892906,0.4050096,0.13779332,0.10545908,0.08267721,-0.15097173,-0.07221028,0.5280934,0.31785515,0.2610164,-0.11498242,-0.21096335,0.026738422,0.4301506,-0.48272726,-0.33896825,0.30761093,0.20290312,-0.28009593,-0.26078442,-0.33200017,0.12613066,-0.095414534,-0.072946995,0.16998646,-0.10316125,-0.7976895,0.06074554,0.21881528,-0.022372331,-0.19831422,-0.24238445,0.10020983,0.6540737,-0.1860114,-0.09746789,-0.81848377,0.090653054,-0.105026655,-0.09889421,0.27062455
sự,-0.087727554,-0.47372338,0.6677982,-0.116800316,-0.07760881,0.10428129,-0.40207604,-0.41078082,-0.30843064,-0.046181433,-0.50756586,-0.21871974,0.15957174,0.19451568,-0.12786867,0.29094622,0.04652388,0.5668296,-0.41359124,0.2483018,-0.039041508,-0.16978475,0.039932147,-0.12560973,0.3051233,0.22661248,0.24121304,-0.16485016,-0.11858148,-0.013754505,0.27556854,-0.095245995,0.38308,0.47734693,0.14691295,-0.2161447,0.23505878,-0.23721892,0.44754854,0.05617263,0.022705149,-0.15664428,-0.13167623,0.4080873,0.27518016,0.5606249,-0.31156975,-0.33571726,0.06146897,-0.051543318,0.56316507,0.18938711,0.07531462,-0.27210933,-0.31335464,-0.19005251,0.50122243,0.13402063,0.60301083,-0.28148034,-0.030676315,-0.0009462875,-0.043178253,-0.19916788
nơi,-0.07320424,-0.4636881,0.52338564,-0.15412824,-0.1667864,0.34744203,0.041840173,-0.16024621,-0.050693467,0.24389476,-0.14379358,-0.37138733,-0.08531935,-0.0660379,-0.8970255,-0.42539483,-0.22407395,0.4995204,-0.0077584325,0.48716828,0.4142337,-0.25211066,-0.19287425,0.20949377,0.1188108,0.25165322,-0.025083141,-0.057721995,-0.32886013,0.24027199,0.40174317,0.21218796,0.6593631,0.38853276,-0.076016046,-0.13846476,0.32866758,-0.13445227,0.20064151,-0.13633576,0.15443562,-0.057552256,0.28918085,0.18166028,-0.39320442,0.21159048,-0.10495038,-0.1657688,-0.11737674,-0.44822484,0.273699,0.0905952,-0.07846843,-0.17054024,0.4327458,0.13820024,0.20084473,0.107488476,0.15559834,-0.60992044,-0.41728246,0.19544293,0.12919894,0.41873005
châu âu,-0.16274762,-0.1779987,0.09576194,-0.04852135,-0.33450446,-0.4813706,-0.38931373,-0.062189467,-0.52166253,-0.20122747,-0.22734773,0.0780882,0.05785066,0.12528947,-0.5805454,-0.39400625,0.02089066,0.41174552,-0.3830689,0.18028042,-0.043224145,-0.08461352,-0.538906,-0.3331081,0.3399204,-0.24985267,-0.1633855,-0.015965572,0.48360854,-0.013831926,0.05812191,-0.021581206,0.022641292,-0.30785558,0.20853771,-0.71236527,0.46573818,0.03389958,0.29078865,0.28820634,-0.48696744,-0.038063273,-0.3077776,0.15180045,0.14229856,0.07547178,-0.4087224,-0.26997966,-0.1119895,-0.41716716,0.41152033,0.65475863,-0.31967095,0.18966751,0.20637761,-0.03203543,0.61154854,0.29042292,0.17981817,-0.026294392,0.07946354,0.32239187,-0.4922146,0.09768484
nhất,0.09189303,-0.26025835,0.17254853,-0.34311482,-0.013987308,-0.103062935,0.0388981,-0.17724903,0.34122646,0.21285275,-0.35410663,-0.35306597,0.20415848,-0.054908555,-0.17599678,0.36733064,-0.09829688,0.6966207,-0.43361726,0.015843019,0.27824783,-0.23316494,-0.16756749,0.28551,0.30518174,-0.20531721,0.28453884,-0.2575372,-0.006879737,-0.11710114,0.43880183,0.2726218,0.06763728,0.061745096,0.3213962,-0.31427675,0.4629525,-0.4556363,-0.07102726,0.026428828,-0.40246513,-0.031234816,-0.39602757,0.032573614,0.40735406,0.8065145,-0.097737476,-0.41424555,-0.17799602,-0.08449743,0.8564372,0.32761878,-0.14472573,0.02075319,-0.2455078,-0.2481659,-0.017387595,-0.5177667,0.33437547,0.16996622,0.27972135,0.26202813,0.12991066,0.2099458
hàng,-0.31957793,-0.21542162,-0.04162966,-0.025658108,-0.19170961,-0.5618588,-0.14613579,0.029776556,-0.7133718,-0.04733201,0.03797233,0.09799759,0.50100803,-0.18437959,-0.68565357,-0.72868806,-0.13656648,0.7156259,-0.4486862,0.11759163,0.21457651,-0.19434893,-0.7991531,-0.19864032,0.43138546,-0.6181161,-0.2977218,0.4257345,0.6065937,0.2791471,0.16496521,0.04683499,0.082603864,-0.40560254,0.47509935,-0.94208777,0.46669838,0.0010360451,0.074701406,0.32299805,-0.49176317,-0.29605505,-0.33447367,0.24155656,0.08340018,0.012426332,-0.37675527,-0.3906606,-0.15914914,-0.86272705,0.39209145,0.81392306,-0.44543988,0.06384013,0.12637931,-0.31666037,0.30544692,0.26300544,0.1666549,0.18221638,0.07552133,0.6703484,-0.47011393,0.45769405
bảo vệ,-0.14589486,-0.67158353,0.7782109,0.11306262,0.018701406,0.054059304,-0.41632345,-0.36906734,-0.23696947,0.17216408,-0.6940979,-0.30928925,0.1741804,0.1215777,0.17602424,0.053388048,-0.12158044,0.54086316,-0.36944443,0.46753895,0.2073547,0.055987816,0.013812902,-0.31865326,0.14907144,0.1544253,0.30792028,-0.13074625,0.03869033,0.08863628,0.19803396,-0.064485565,0.24839461,0.7014926,-0.056807812,0.041934147,0.07425354,0.017201826,0.2268624,0.16278873,-0.016776083,-0.23757185,-0.15844968,0.4525981,0.31059653,0.098545976,-0.26564634,0.0022402285,0.16604805,-0.42264742,0.6940696,-0.16013968,0.10044985,-0.25070736,-0.5495667,-0.25574088,0.113139026,0.15953635,0.55104464,-0.41047361,-0.033726603,-0.14439745,0.12408278,-0.047684427
gương,-0.22211929,-0.42800575,0.79067236,-0.15035862,-0.33036178,-0.16536686,0.12707412,-0.30062887,0.1266808,0.2694096,-0.20133846,-0.4251738,0.32391042,0.109421656,-0.3093338,-0.14816454,-0.45936,0.6307904,-0.23987608,0.5405533,0.30266446,-0.09795183,0.13382858,-0.23528963,0.27309862,-0.23762728,0.26832297,0.18707481,-0.0061338167,0.18015848,0.24106306,0.08312651,-0.30558747,0.94765925,0.31119934,0.037141185,-0.2716076,0.16227174,-0.29583928,0.30953285,-0.11836047,-0.24546295,-0.09019406,0.5014825,0.44325224,0.11253896,-0.6052429,-0.34238464,-0.18739092,-0.57905346,0.32185888,-0.2620708,0.019075483,-0.113511175,-0.57605183,-0.32390368,-0.2604195,-0.09546529,0.16027862,-0.04885903,0.0695497,0.41637242,0.29183716,0.21159603
khoảng,-0.2627557,-0.14175132,0.27696174,-0.29796404,-0.37204945,0.5265924,-0.66963977,-0.6462757,-0.43695343,0.12993583,0.16394821,-0.24735734,-0.9860118,-0.3622071,-0.86880684,-0.19509573,0.14069301,0.16920887,-0.17564544,0.7260472,-0.14774872,0.2756137,-0.23336425,-0.23215197,0.33758423,-0.18914433,-0.054832436,-0.49945405,-9.574869e-06,-0.25216767,0.24370648,-0.03668963,-0.34505957,-0.24932392,-0.15229739,-0.39260647,0.8258594,0.06830116,-0.42713362,0.4082663,-0.23831102,0.3507334,-0.102549896,0.18882309,0.4495768,0.42997354,-0.447719,-0.4068532,-0.23114002,-0.72916365,0.30873883,-0.20516984,0.32718137,-0.29646394,0.30959123,-0.05833267,1.0401684,0.18447024,-0.15473317,-0.76638144,-0.21791573,-0.18629345,-0.19992556,-0.08926302
rút,-0.55793494,-0.4050783,-0.31030294,-0.23223078,-0.0062360833,-0.3360182,-0.044397656,-0.037757855,-0.5944716,0.047306247,0.4212867,0.014511939,0.47788507,-0.6630186,-0.5916701,-0.8568139,-0.32913065,0.8888468,-0.48526224,-0.08315898,0.2518938,-0.4688297,-0.76095164,-0.4902699,0.75084853,-1.0230736,-0.2569068,0.41633633,0.620512,0.18935025,0.33812326,0.20798512,-0.32104948,-0.64935195,1.0351841,-0.8993463,0.54400253,-0.24982375,-0.49192518,0.081015736,-0.41588172,-0.28495613,-0.5346019,0.14224502,0.25842112,0.3432664,-0.2922943,-0.47598168,-0.06906294,-1.1752944,0.40108782,0.45181283,-0.31913787,0.012666545,-0.1032457,-0.6921211,0.24499443,0.2253726,0.07253262,-0.051784918,-0.002926586,0.7163129,-0.12479373,0.5070767
thế giới,-0.0444578,-0.29803857,0.028415004,-0.3447097,0.0758866,-0.093271464,0.076780066,-0.39039743,0.30865794,0.2425195,-0.17043711,-0.46750218,0.46494827,-0.29591727,-0.25281027,0.13743228,-0.05434229,0.7337815,-0.3948787,-0.17049924,0.41980088,-0.26721928,-0.027764186,0.3035949,0.14177838,-0.6126851,0.23767439,-0.23965679,0.05699287,0.073292844,0.41866937,0.39548564,-0.14773442,-0.083308086,0.3232865,-0.3421988,0.5335574,-0.3705785,-0.2337958,0.11158062,-0.3276575,-0.11145077,-0.34993607,0.09837194,0.5191483,0.808451,0.03629373,-0.5379742,-0.24040592,-0.21847554,0.8927505,0.22898857,-0.12420181,0.18395524,-0.220639,-0.41373268,-0.22419652,-0.39829615,0.42800343,0.2817186,0.23004568,0.33617482,0.26403588,0.30740452
vài,-0.09682534,0.118834086,0.6241781,-0.32382992,-0.48701707,0.37041804,-0.08726297,0.33697984,-0.089450315,-0.23067255,-0.10494212,-0.69130707,0.14606586,0.055732474,-0.64233536,-0.486902,-0.31063506,1.1173989,0.05822065,0.35174996,0.26442164,0.10255506,-0.521609,0.043647353,0.88929915,0.48311082,-0.4306391,-0.8674876,-0.10333264,-0.65928215,-0.04742533,-0.18082735,-0.34801358,-0.4483029,0.1313285,-0.07463337,-0.16796927,0.17753868,-0.20656809,-0.3606919,-0.67273813,-0.21471557,-0.42235622,-0.3386188,0.36332086,0.43404815,-0.3168994,-0.3714039,0.22874743,-0.59604657,-0.0074850176,-0.15572129,-0.031360913,-0.2471406,-0.5316323,-0.3114111,0.51876533,-0.3439439,-0.56926095,-0.87960446,-0.33326012,-0.40930724,-0.04812616,0.38086042
hàng hải,0.030902715,-0.3241264,-0.29622388,-0.07029707,-0.048902273,0.058176704,-0.06744564,-0.1111065,0.034908574,0.10316858,-0.16698797,-0.14564154,0.59316665,-0.87234545,0.21004553,-0.4685335,0.22434348,0.80724466,0.22058326,-0.17560484,0.2609566,0.060777012,-0.008732502,-0.31846553,0.24045031,-0.75133336,-0.16507788,-0.071105875,0.008581422,-0.03810597,-0.16391356,-0.08269461,-0.69934857,-0.4220429,0.3084807,0.022572486,0.009877886,-0.2175092,-0.2603239,0.14061885,-0.20449796,-0.20657524,-0.23600292,0.265356,0.808104,0.42321646,0.40183982,-0.20499001,-0.11377832,-0.81342393,0.5275625,-0.06573938,-0.30098855,-0.15525348,-0.7127539,-0.5981488,0.24381712,-0.14035942,0.35723707,-0.25883162,-0.40311798,0.05297102,0.5247861,0.15816075
chiến lược,0.4292925,-0.19640094,0.1948526,-0.55632365,-0.17699051,0.021018598,-0.18325342,0.0640937,-0.14392626,0.17958322,-0.24725312,0.22620983,-0.54468715,-0.4919259,0.2313802,0.2867288,-0.12846743,0.51366997,-0.07867654,0.32895157,0.1291804,-0.14148045,-0.29868215,-0.04095633,-0.09666204,0.089395225,0.4242685,0.15407832,-0.3351274,-0.18206692,0.12618136,0.14751522,0.52505463,0.31922424,0.021405075,-0.16439718,0.798474,-0.31939963,0.0068423343,0.213832,-0.0064050993,-0.48669708,-0.060946956,0.09674377,0.27344203,0.5340804,-0.100665376,-0.27803466,-0.5268132,-0.4829182,0.49539855,0.437837,-0.24409029,-0.36756554,-0.28677833,-0.06295217,0.39023548,-0.4024343,0.2975991,-0.262079,0.05707016,0.22397028,-0.51564646,0.099839546
nằm,0.09690777,-0.4196694,-0.018904092,-0.4295845,0.08880715,0.12982121,0.014328182,-0.28753468,0.43732017,0.28879252,-0.2786451,-0.42151174,0.23308375,-0.39766854,-0.16480058,0.13686024,0.034882978,0.72685826,-0.20849767,-0.08537526,0.39269108,-0.23211862,-0.015973633,0.17829938,0.22417083,-0.33601332,0.18658084,-0.33046767,-0.117169276,-0.16812481,0.3560134,0.4515986,-0.042368844,-0.14024147,0.17096524,-0.18094173,0.6232678,-0.55743283,-0.32212773,0.015056365,-0.23684171,-0.0058143744,-0.24893355,0.08762047,0.54385114,0.8722295,0.14695348,-0.37061402,-0.2566596,-0.29446188,0.93473685,0.2035236,-0.16075398,0.09529097,-0.24641924,-0.4184951,-0.092149444,-0.5542995,0.49422926,0.046281308,0.12148486,0.18602858,0.34985405,0.254913
bên,0.22894327,0.44159913,0.42644602,-0.17443782,-0.3620012,0.015888711,-0.38458213,-0.123074844,-0.10979904,0.01961406,-0.38228527,-0.18996938,0.27532032,-0.35718027,-0.32660237,0.28644854,-0.024281472,0.8237241,-0.23701859,0.27924255,0.116973385,0.33933827,-0.6605315,0.47482613,-0.13322484,0.06800984,0.13821846,-0.30642197,-0.16956194,0.5087102,0.07412628,-0.10277305,-0.027400022,-0.15715319,-0.31203872,-0.2409717,0.13390812,0.0796009,0.22653198,0.31908745,-0.49495366,-0.7811792,-0.2869872,-0.29212123,0.48587185,0.082752876,-0.052440573,-0.55136955,0.05842755,-0.43301228,0.12911193,0.34379247,0.13591836,-0.23682988,-0.36443612,-0.11699032,0.20336361,-0.2686971,-0.36247122,-0.18401596,0.123671986,-0.21416003,-0.44385344,0.4594674
góp phần,0.3173057,0.3426044,0.4569111,-0.013532211,-0.19417137,0.04706039,-0.23687482,-0.23850825,0.15295663,-0.2107598,-0.24768597,-0.22245656,0.0336252,-0.4664177,-0.51256555,-0.3482859,-0.56982994,0.5234558,0.08055026,0.059000067,0.07342717,-0.09727652,-0.29848155,0.203292,0.05404611,0.10863659,0.040636577,-0.31198832,-0.19658193,0.3148488,0.14742298,-0.3122502,0.36343905,0.31112432,-0.09382062,-0.10337303,-0.03919448,0.4513692,-0.1128958,-0.14522056,-0.039288677,-0.4944313,0.5385242,0.3044363,0.21644774,0.13433771,-0.20327392,-0.6874966,-0.13093181,-0.1535268,0.99079007,0.7225429,-0.11198389,-0.5242648,-0.12159881,0.30770648,1.0293261,-0.45342878,0.2532655,-0.2781132,-0.41563615,0.6972407,0.10497759,0.030304465
đã,-0.33225334,-0.05231311,0.34560028,0.08528821,-0.104405425,0.4157817,-0.45190373,-0.34978285,-0.3263414,0.11496277,0.008294479,-0.37100986,-0.24479271,-0.5866834,-0.20077811,-0.39590856,0.29896617,0.25976357,-0.056189653,0.44974515,-0.101718575,0.005996416,0.29576555,-0.13175936,0.17328194,-0.15582094,-0.21637514,-0.47024983,0.09014059,-0.12768038,-0.25544557,-0.15153144,-0.5220922,-0.12707126,-0.21344204,-0.08359051,0.33957052,0.006226012,-0.059002526,0.24011947,-0.011271894,-0.018504411,0.011436635,0.36112297,0.50674486,0.30643567,-0.1280532,-0.13977252,0.1916475,-0.5247839,0.26869398,-0.28569004,0.09953091,-0.22343692,-0.52654076,-0.45585564,0.32061413,0.14752664,0.38929406,-0.44275153,-0.22656232,-0.043235317,0.06810232,-0.09975841
sống,0.008065591,-0.21305738,0.640764,0.103224814,-0.32628635,0.36459497,0.07448789,0.39079595,-0.18217203,-0.005757016,-0.56389695,-0.17221211,0.44170657,-0.12914518,0.021657966,-0.11337738,-0.108176604,0.93657666,0.011282979,0.004265967,0.016983407,0.013071839,-0.013332896,0.030679563,0.7129501,-0.19872352,-0.22989519,-0.12605117,-0.017158449,-0.559474,0.14295587,-0.23152386,-0.20914859,-0.0014365265,0.0832844,-0.050628252,-0.52099776,0.13137569,0.46837702,0.1229431,-0.7311632,0.19808641,-0.08285999,0.2275512,0.07294712,0.23273958,-0.029706877,-0.08746751,0.24373056,-0.7856297,0.31212613,-0.07738595,-0.31351084,-0.13453579,-0.6066309,-0.12659447,0.42425138,-0.22483385,0.25812456,-0.5978413,-0.5743269,-0.13986573,0.31693298,0.5112292
mới,0.06026886,-0.41253477,-0.165463,-0.013722155,0.069748536,0.26603943,-0.09183967,-0.2632769,0.21918117,0.116349936,-0.25179127,-0.4127601,0.50862986,-0.8752265,0.0658679,-0.4646096,0.3938291,0.8230511,0.36610195,-0.075065516,0.40609014,0.11137534,0.07491716,-0.1830232,0.17327502,-0.50442374,-0.13770789,-0.30194056,-0.14763513,-0.106183074,-0.2595103,-0.15900412,-0.48562813,-0.2842914,0.08512127,0.08759505,0.21270749,-0.288805,-0.34341162,0.07629124,-0.005059811,0.012857992,-0.14383106,0.543151,0.8472596,0.6058673,0.45884502,-0.15646806,-0.14606743,-0.73595357,0.65931046,-0.1476036,-0.2606406,-0.27152225,-0.7049027,-0.6036926,0.20195109,-0.096077986,0.5298286,-0.3199198,-0.53032035,0.06995095,0.75701684,0.038298707
ánh sáng,0.09251148,0.037086338,0.64079064,0.0057299873,-0.22540525,-0.037589416,-0.16973014,-0.32898986,0.09107662,-0.040809598,-0.3279512,-0.339472,0.065260634,-0.046280716,-0.38374108,-0.22338815,-0.5331116,0.42379618,-0.050293587,0.3445813,0.13732615,-0.00492302,-0.109564155,-0.026018245,0.13199176,0.20957638,0.25031698,-0.21449928,-0.17235391,0.24290363,0.25645682,-0.18398061,0.34548232,0.74181706,-0.07084372,0.026685774,-0.16019411,0.43566665,-0.040720996,-0.0046182317,-0.036008697,-0.40780616,0.39722908,0.40432993,0.16215505,0.020248035,-0.43439338,-0.53714716,-0.083854645,-0.0875278,0.81940883,0.37807876,-0.030939942,-0.41034383,-0.25530863,0.23197296,0.6617038,-0.29496247,0.30374038,-0.25109082,-0.2456356,0.56975996,0.09410349,-0.027320588
giá lạnh,0.4707949,-0.3624722,0.07269917,-0.60281444,-0.29471883,0.16982345,-0.124194026,-0.14813702,0.06556108,0.33777854,-0.13798401,0.03192421,-0.1590765,-0.17290173,-0.21605171,0.05838901,-0.16960652,0.7500703,0.13917969,0.051382758,0.5004548,0.055538367,-0.23407944,0.08751793,0.057668556,0.1975906,0.06358158,-0.0121669015,-0.6329129,-0.030338679,0.31848767,0.4263468,0.29880178,-0.06865018,-0.05993554,0.13724443,0.5343933,-0.39065516,-0.29943514,0.10585866,0.006084139,-0.3791672,-0.02913856,-0.2738228,0.38370794,0.40490934,0.094207235,-0.33413625,-0.32218033,-0.53617674,0.26341367,0.08208588,-0.06075325,-0.18400921,0.17767996,-0.1771828,0.13383612,-0.381316,-0.27069706,-0.3051112,0.012977882,-0.47236794,0.13794197,0.47696653
băng giá,-0.20390253,-0.35400796,0.5343328,-0.01347221,-0.67339706,-0.38179842,-0.1632145,0.03330143,-0.63945556,0.33519903,-0.32351246,-0.017681982,0.33823675,0.22650746,-0.15276806,-0.5619732,-0.23744185,0.50671273,-0.29506055,0.70228964,0.18684149,-0.044918835,-0.21091193,-0.52070785,0.19529794,-0.084049225,-0.08180395,0.26076952,0.16876034,0.28270546,0.07936223,0.15335564,-0.19296177,0.32088864,-0.026934022,-0.102116294,-0.055552837,0.10824093,0.3872747,0.56632197,-0.14435285,-0.6795683,-0.018173985,0.17528008,0.34864557,-0.27796885,-0.21810304,-0.023355957,-0.1698421,-0.6296534,0.16290942,0.19436665,-0.24275182,-0.09758845,-0.40931454,-0.37816268,-0.150889,0.11734618,0.23401608,-0.25085977,0.21591352,-0.0989787,-0.4944309,0.26038575
không chỉ,-0.04567629,-0.31248707,0.33454078,-0.48622388,-0.36327437,0.4421837,0.037008975,-0.0624926,0.05965595,0.37830004,-0.13167766,-0.0638766,-0.1561468,-0.3420361,-0.10024984,0.26914245,0.034833048,0.4931731,-0.28640866,0.3707377,-0.13189915,-0.26868013,0.2800277,-0.121658824,0.446893,-0.17270018,0.26720682,-0.019252457,-0.28058735,-0.23153576,0.43382183,0.3277078,-0.22294313,0.27975032,0.21907336,0.055004757,0.10332274,-0.46975312,-0.11172463,0.21516949,-0.080853485,-0.21439916,-0.2170079,-0.09470603,0.30737448,0.74487686,-0.013921919,-0.25343445,-0.023058722,-0.35320443,0.081148654,-0.21409379,0.09217478,0.029232092,-0.4254118,-0.35288778,0.17948374,-0.33938155,0.21676514,-0.53129625,-0.09946993,-0.13233311,0.047117215,0.21442433
hòa,0.32706895,-0.28829876,0.2390576,-0.055916116,-0.37751335,-0.3193113,-0.24060644,0.06378627,-0.17679003,0.2851951,-0.56065017,0.15230033,-0.13045055,-0.33544314,0.2745327,-0.2522233,-0.35307407,0.59527606,-0.1468243,0.49509388,0.48538107,0.25947395,-0.49900347,-0.52758795,-0.07235837,0.07831691,0.29067028,-0.024596388,0.009581102,0.19384822,0.1095084,0.15317135,0.1520731,0.42872635,-0.5097903,0.21317601,0.28922552,0.26010922,-0.07271854,0.53030866,-0.13680196,-0.6811826,-0.15511094,-0.17523976,0.3278433,-0.40551046,-0.03366329,0.18377799,-0.3087932,-0.78542304,0.43051106,0.06477391,-0.12314793,-0.17033498,-0.3850832,0.020925345,0.1678426,-0.18217537,-0.043647673,-0.59881616,0.03384454,-0.11317186,-0.330512,0.16596891
đóng,0.26515207,-0.09658295,-0.069875374,-0.429703,-0.23187684,-0.09792928,-0.38622165,0.048780534,-0.070218116,0.38947412,-0.28695726,0.23188862,-0.34695137,-0.90269417,0.023617305,0.23831862,-0.2330199,0.68415564,-0.17997159,0.27414045,0.24625814,0.1920322,-0.7695147,-0.30071318,0.10259533,0.023136579,0.22738776,0.05112967,-0.2646732,0.27660653,0.62065524,0.3821338,0.39252937,0.0009907028,-0.4030652,0.10924916,0.5549059,-0.24719527,-0.39847457,0.4166055,0.18380244,-0.5344797,-0.09929873,-0.43133646,0.19066225,-0.06951468,0.011271299,-0.10226011,-0.3231644,-0.6939182,0.25067452,0.34638453,0.057847545,-0.16185598,-0.024648208,0.20645732,0.64119685,-0.32181844,-0.26307878,-0.63513356,0.12518421,-0.06021984,-0.18662159,0.44480845
diện tích,-0.38361287,-0.058924,0.43773553,-0.18670431,-0.36361232,0.5391159,-0.5958294,-0.66034764,-0.34671724,0.109353796,0.060523484,-0.35485736,-0.7166605,-0.114244886,-0.97857714,-0.092412494,0.14165665,0.20835087,-0.25544658,0.713353,-0.25273922,0.18811499,-0.130787,-0.12974086,0.3458348,-0.116400495,0.02602522,-0.539164,-0.014175585,-0.14535718,0.28706115,-0.08425138,-0.32425463,-0.033156887,-0.051386625,-0.37431473,0.5805866,0.07935792,-0.1348892,0.2942759,-0.28628886,0.304736,-0.076689936,0.15501924,0.36869287,0.43284225,-0.44535482,-0.4305602,-0.038563758,-0.49689454,0.3016477,-0.24491392,0.3855767,-0.16293342,0.23303145,-0.04591701,0.8792708,0.20488703,-0.051695086,-0.70805585,-0.22783779,-0.15937369,-0.15650304,-0.16015099
cá,-0.31696454,-0.39575532,0.17940488,0.06765607,0.3178491,0.28024772,0.030275574,-0.18212344,0.038290545,-0.0042262394,0.11013486,-0.674834,0.42654535,-0.48661238,-0.39560828,-0.42876154,-0.10062337,0.6696996,0.06828288,-0.1810971,0.545975,-0.41554335,-0.084728695,0.26666895,0.23608597,-0.10005231,-0.19151969,-0.4007296,0.045861915,0.06063295,0.06325161,-0.09132008,0.23565854,-0.057440422,0.23994878,-0.26742405,0.5260412,-0.116718404,-0.24429865,-0.47021142,0.08796731,0.044350956,-0.07504824,0.34071183,0.025881846,0.58444047,0.042001657,-0.25715116,0.12862976,-0.29731128,0.53814036,-0.024173552,-0.059714578,-0.21421994,-0.083779104,-0.34316412,-0.017919412,0.20989521,0.37348777,-0.12867045,-0.34083042,0.3277758,0.42888632,0.14454132
theo,-0.024268856,-0.4289877,-0.22491203,-0.1566397,-0.04461659,0.18757007,0.102063306,-0.088237464,0.19259894,0.14616905,0.012358215,-0.105555266,0.45782563,-0.88972455,0.02426691,-0.28015065,0.1593869,0.7771493,0.13677846,-0.22059295,0.30887964,-0.24848385,0.01278241,-0.19154659,0.27679798,-0.7079839,0.00027820322,0.06421007,-0.15161018,-0.04304747,-0.012532036,0.026197152,-0.39933258,-0.19887905,0.40693754,-0.03198817,0.29493988,-0.37039766,-0.4297128,-0.014435262,-0.006801725,-0.13293836,-0.29642266,0.22638889,0.5639176,0.67665577,0.36793604,-0.21600878,-0.10819402,-0.69458175,0.27436006,-0.21474104,-0.13884085,-0.106672086,-0.45419347,-0.58930725,0.028558318,-0.02128397,0.27643457,-0.23181473,-0.39574546,0.12371989,0.4798818,0.18531342
đang,0.2836852,-0.5166638,0.56289625,-0.029596832,-0.7178574,-0.29305223,0.07743041,0.14373316,-0.41013184,0.21539228,-0.51601976,-0.0726578,0.6722285,0.012910347,0.08012257,-0.48004955,-0.4112923,1.0487081,0.27934393,0.22736216,0.45628187,0.33170652,-0.109949395,-0.51570046,0.33149984,-0.18904603,-0.098849535,0.06436462,-0.13822055,-0.10367614,0.019787299,-0.031244174,-0.42338526,0.483955,-0.024450902,0.3341905,-0.53923583,0.52387166,0.25353757,0.34902433,-0.53099775,-0.5670845,0.08589877,0.17803118,0.56315184,-0.23993188,-0.012947804,-0.16191043,-0.32709807,-0.9149248,0.3755143,-0.11399699,-0.32344717,-0.10504281,-0.6523937,-0.3247531,0.20402317,-0.27698788,0.074041404,-0.5683545,-0.23854832,-0.20444177,0.15211555,0.29331335
mở,-0.524637,-0.38069832,-0.14817272,-0.016119707,0.13312551,-0.20917124,0.048490986,-0.042063132,-0.19916125,0.027677147,0.36929584,-0.16044348,0.48957732,-0.69450307,-0.55848277,-0.7127961,-0.37931097,0.7783765,-0.3502033,-0.15525563,0.3942182,-0.49856856,-0.52646184,-0.3339599,0.63738555,-0.90762866,-0.22545548,0.1992244,0.57634664,0.18972972,0.19395152,0.1102793,-0.35922223,-0.46399763,0.9107083,-0.645572,0.5761132,-0.16303395,-0.7171681,0.06500718,-0.29599527,-0.013523964,-0.5906773,0.09649907,0.26681298,0.4230379,-0.17479883,-0.29612637,-0.0060019162,-0.9370146,0.40255988,0.13108683,-0.19558103,-0.025124524,-0.1471687,-0.58789504,-0.0052232677,0.20985757,0.018156042,0.052740876,-0.10079641,0.61153716,0.18524863,0.44650084
đe dọa,0.1860564,-0.29066795,0.61109066,0.11220376,-0.6217633,0.16833855,0.23478654,0.41611356,-0.2278661,0.12704094,-0.39179373,-0.17438127,0.59056926,-0.26427642,-0.16501355,-0.40902883,-0.26205665,1.2020544,0.24013144,-0.04718465,0.19561236,0.13823116,-0.08824251,-0.16504726,0.7417952,-0.21457988,-0.33845073,-0.07824524,-0.08278728,-0.4537727,-0.05780483,-0.20482615,-0.5434243,-0.00074456993,0.044490885,0.07009049,-0.5982703,0.2893364,0.22912398,0.20050152,-0.7441067,-0.10051294,-0.02742948,0.088149086,0.33541116,0.17984729,0.1354332,-0.18754764,-0.025734685,-0.96921885,0.21278729,-0.1681625,-0.33937004,-0.07680015,-0.62405014,-0.29865083,0.3791622,-0.32951698,0.02129492,-0.7261551,-0.5702083,-0.1706968,0.38261762,0.50721174
nguồn,0.050450742,-0.2917899,0.61256814,-0.4697359,-0.5146821,-0.17047131,-0.014494891,0.008627713,-0.22813481,0.07446332,-0.27597225,-0.29630655,0.22286771,0.6422616,-0.5440772,-0.19821404,-0.25877228,0.7498554,-0.12729317,0.48296234,0.21290341,-0.09541256,-0.19066128,-0.15965651,0.36228007,0.5054159,-0.09521626,-0.11299994,-0.33977327,0.041013833,0.26428777,0.25607327,0.19330302,0.31088465,0.2773022,-0.0938832,-0.0105799325,-0.22321193,0.35491866,0.017339628,-0.16403289,-0.58613926,-0.061478894,-0.12009225,0.12985732,0.21625642,-0.37347892,-0.3532498,-0.22817652,-0.1456732,0.06860492,0.30064604,-0.109584905,-0.14533465,-0.11391268,-0.24709561,0.04459107,-0.23387678,-0.091007866,-0.3910725,0.068946235,-0.23080555,-0.23232144,0.31866595
thay đổi,-0.20384192,-0.021256892,0.71526235,0.21258245,-0.04011759,0.39864743,-0.40162766,0.03226965,-0.13406108,0.09785903,-0.8919059,-0.06902193,0.04557674,-0.26203763,-0.15585092,0.1486353,-0.14631212,0.5217658,-0.46653292,0.25833556,-0.2164439,-0.010137754,-0.20947292,0.119441025,0.23438282,0.051089328,0.09172585,-0.12791279,0.25861394,0.06608947,0.32768252,-0.12292149,0.39284167,0.27687627,-0.19984524,-0.0998616,-0.14671409,0.037332762,0.5249604,0.35378078,-0.4284312,0.12031611,0.12239997,0.3344383,-0.15360382,-0.03193945,-0.12245335,-0.0036983876,0.34065098,-0.5229404,0.7011774,0.07847287,-0.08958671,-0.26533097,-0.51702017,0.12576585,0.44795874,-0.05309929,0.4471698,-0.4992651,-0.50916547,-0.021929096,-0.014507918,0.44118825
chúng,-0.06775409,0.022625104,0.585406,0.16329664,-0.22383536,0.32580715,-0.1865025,0.27521238,-0.20841677,-0.02008226,-0.85140127,0.14062329,0.17859153,-0.28774944,-0.08743558,0.037803385,-0.098802164,0.63113016,-0.24927397,0.04412469,-0.37426865,-0.0669411,-0.02198271,0.11228313,0.42875338,-0.2276831,-0.07867213,0.00772045,0.15244378,-0.23620388,0.40936342,-0.13618183,0.14563257,0.07666829,-0.045311473,-0.17849074,-0.4217483,0.06807289,0.78409255,0.32620832,-0.65918833,0.1280532,0.26222578,0.24805935,-0.14834808,0.028384646,-0.11141412,-0.057635628,0.35434246,-0.5366444,0.68166775,0.33886194,-0.39429197,-0.12944429,-0.5101895,0.20817587,0.71404797,-0.29201815,0.6013168,-0.5549183,-0.5750505,0.07935654,0.079295516,0.570217
có thể,0.17438579,0.2110765,0.3160096,-0.35193735,-0.418983,0.09278754,-0.14345215,0.3548681,-0.14731029,-0.15040071,-0.20521998,-0.4227698,0.16490395,-0.008711768,-0.26601896,-0.24514805,-0.26530805,1.0693383,0.04776265,0.16912723,0.3384642,0.25331146,-0.6843028,0.07817162,0.43371695,0.48717666,-0.28232256,-0.6698135,-0.18438908,-0.37388957,-0.061230317,-0.039868843,-0.14722228,-0.4448178,-0.08204381,-0.01797443,-0.031128732,0.086710684,-0.091829516,-0.16972084,-0.592755,-0.5246936,-0.40848675,-0.52938294,0.34205016,0.18701483,-0.084223464,-0.2727094,0.08013833,-0.49074936,-0.086490825,0.09983995,-0.0091523705,-0.2172252,-0.45174524,-0.21534875,0.2520064,-0.3758776,-0.6244057,-0.65978837,-0.09424193,-0.49482107,-0.23607533,0.405919
được,-0.2866441,-0.35842192,-0.19906712,-0.31383082,0.075327516,0.012198267,0.06223845,-0.032382987,-0.05376162,0.107949205,0.45966077,0.004644274,0.04572258,-0.6441454,-0.28301328,-0.39055663,-0.43616778,0.62185496,-0.23404834,-0.09237233,0.27668446,-0.407279,-0.42867932,-0.3873481,0.5529916,-0.6606549,0.05787212,0.21834789,0.20426011,0.021321336,0.3329877,0.2207607,-0.3620376,-0.32675374,0.8273452,-0.3526063,0.5066808,-0.24021935,-0.9181078,0.012105084,-0.17761831,-0.11936542,-0.5031681,-0.13032843,0.23850572,0.3810441,-0.1600416,-0.26951948,-0.08038818,-0.87952805,0.1207107,-0.032070834,-0.018190568,-0.041908868,-0.09387791,-0.51745045,-0.008482379,0.018539062,-0.22639488,-0.19585437,-0.010464042,0.32887173,0.18672039,0.40180892
sinh vật,-0.13810161,-0.43020067,0.33516443,0.21020095,0.037213694,0.26557547,0.3099645,0.09417513,0.051151723,0.17189154,0.045639206,-0.45265263,0.024923444,-0.40717244,-0.77775365,-0.84272707,-0.1827384,0.48363763,0.15698196,0.2781716,0.50272137,-0.34560665,-0.017877005,-0.008808882,0.33285552,0.04040785,0.020435844,0.009670871,0.0017919,-0.07290376,0.04783684,0.06249418,0.43957406,0.27126327,-0.12914442,-0.21283403,0.40933558,0.056023367,-0.3407495,-0.022880428,0.26652786,0.04790613,0.16219258,0.35254207,-0.3255477,0.14928742,-0.09617797,-0.0075962367,-0.20779398,-0.7395444,0.14510314,0.1080616,-0.16717593,-0.13449062,0.025785048,-0.19553635,-0.11788934,0.14412232,0.2024182,-0.50763595,-0.55261445,0.6062519,0.31183738,0.3686445
tình trạng,-0.07733836,-0.4298905,0.74851644,-0.1432361,-0.53129524,-0.18037963,0.1652764,-0.16482492,-0.08915241,0.39464042,-0.29540536,-0.39631507,0.4946667,0.12033136,-0.06608154,-0.31704897,-0.46283582,0.8084985,-0.0038465473,0.5190371,0.3372905,0.06571825,0.20053041,-0.3622695,0.26907295,-0.20128734,0.24040073,0.11570788,-0.11979674,0.070516914,0.149044,0.07407162,-0.41606185,0.9088622,0.14706789,0.23045757,-0.53737205,0.36658454,-0.07142858,0.30017838,-0.23215108,-0.58395195,0.061682004,0.36104366,0.5726103,0.022421468,-0.36523256,-0.330865,-0.25172552,-0.6772508,0.32598677,-0.2744516,-0.11778059,-0.10989934,-0.80816066,-0.46910757,-0.22248602,-0.32087067,0.094608255,-0.26985717,-0.06794494,0.16106558,0.19143757,0.20258126
độc đáo,0.015037808,-0.4818773,0.43592885,-0.25260356,-0.20701152,0.22920007,-0.01807365,-0.10917156,-0.22750475,0.19572137,-0.17193668,-0.29148266,-0.05372942,0.08372401,-0.7059121,-0.25635898,-0.20066011,0.49848256,0.046564374,0.4360047,0.38331744,-0.10337998,-0.2281888,0.14387025,0.099203095,0.2601599,-0.0946266,-0.101852775,-0.32171217,0.094001606,0.44575304,0.1618154,0.6030435,0.29957718,-0.02630383,-0.12339292,0.29337683,-0.099733554,0.25100803,-0.18208292,0.02511159,-0.08965193,0.25459304,0.15068534,-0.30541936,0.21796328,-0.17249893,-0.20966567,-0.1634194,-0.43053317,0.2517082,0.060101986,-0.08836625,-0.17941424,0.428308,0.17720385,0.35995027,0.14322697,0.09695875,-0.5590211,-0.31483227,-0.08627621,-0.070291884,0.3465117
cũng,-0.41548088,0.17847106,0.43940848,0.21115845,-0.06410617,0.094232686,-0.6398917,-0.4096462,-0.48468018,0.31952533,-0.36017466,-0.1225972,0.27295694,-0.6338416,-0.13368447,-0.1434453,-0.07790155,0.331039,-0.50889164,0.37651455,-0.17385975,0.10751444,-0.3741921,0.010473324,-0.14198734,-0.34362525,-0.07537563,-0.011949182,0.33136687,0.8157271,0.07152541,-0.07189404,-0.2629708,-0.07494585,-0.30239937,-0.2013355,-0.010188224,0.03729415,0.2535086,0.46019235,-0.18597381,-0.37816465,0.21633933,0.2659505,0.28783336,-0.29222015,-0.017387576,-0.18710062,0.37996665,-0.6497584,0.49024653,0.11362633,0.07903492,-0.22685896,-0.49201307,-0.21077412,0.050838657,0.18566123,0.26328287,0.009215348,0.03268998,-0.038605817,-0.32702735,0.38247064
trắng,0.02294847,-0.2755603,0.5147192,0.11889056,0.14162433,0.21347058,-0.05096321,-0.30821753,0.222492,0.15498728,-0.054409217,-0.53369915,-0.25938264,-0.573249,-1.0283735,-0.77213037,-0.18531638,0.44764757,0.14553322,0.6460214,0.72063696,-0.13509999,-0.12921043,0.16269943,-0.06521461,0.09404671,0.12381231,-0.04379477,-0.046125483,0.1984001,-0.23138346,-0.0046404786,0.69226265,0.3676472,-0.52781355,-0.29732502,0.85278225,0.14419912,-0.7340999,0.4502547,0.37734422,0.090765394,0.15224501,0.5710989,0.048202105,0.038165856,-0.3039982,-0.20647633,-0.34736806,-0.9138473,0.40078,0.16184697,-0.076309144,-0.43577954,0.053290363,-0.15310585,-0.056697253,0.042019293,0.1753496,-0.2615567,-0.4408727,0.7899408,0.27821422,0.4306467
km²,0.04229669,-0.107957944,0.1627346,-0.5244246,-0.16693264,0.4884627,-0.36751515,-0.57714456,-0.012333718,0.29738536,0.17548098,-0.2061344,-0.7382026,-0.64733374,-0.5787771,0.30507195,-0.12826215,0.18816276,-0.15980764,0.45370206,-0.11228953,0.23745857,-0.28436342,0.08830004,0.06980167,-0.2836327,0.3245996,-0.26994064,-0.17797057,-0.02831902,0.44423786,0.114744104,-0.16659608,-0.102426164,-0.12619852,-0.17375001,0.7608452,-0.07360765,-0.78696305,0.26722264,-0.14673123,-0.0040798485,-0.074177556,0.024524925,0.46062097,0.608638,-0.23057206,-0.5852584,-0.3165358,-0.6046597,0.3373966,-0.11053466,0.43475786,-0.1908881,0.1959896,-0.10482248,0.58600813,-0.2065999,-0.35651055,-0.4651433,0.015314502,-0.107793905,-0.104718454,0.14081709
kinh tế,0.33971047,0.11315974,0.4566574,-0.3064685,-0.44242594,-0.03771336,-0.2991198,0.07182659,-0.35770378,0.09114018,-0.11543741,0.04595826,-0.50724906,-0.120399386,0.15159966,0.23916042,0.016432533,0.5847699,-0.026643649,0.51336503,0.08712613,0.12216944,-0.347287,0.07951677,-0.040042784,0.3425033,0.2852048,-0.0059781587,-0.3832323,-0.17175972,-0.14915346,-0.17355625,0.28380287,0.23004265,-0.097570695,-0.25637758,0.6222336,-0.01982817,0.2937774,0.29512507,-0.13963307,-0.6095187,-0.1717967,-0.028999245,0.4249357,0.32765785,-0.26406282,-0.35115004,-0.3665561,-0.49741298,0.10572681,0.42442414,-0.056806803,-0.49017155,-0.46506765,-0.11999289,0.3574959,-0.2540835,0.005103145,-0.30315524,0.16490813,0.015827982,-0.6233861,-0.003313245
môi trường,0.040427893,-0.09714311,0.682368,0.19164722,-0.45490575,0.3583973,0.16631313,0.41601062,-0.1295437,0.033490367,-0.61887115,-0.051482175,0.5165094,-0.19863454,-0.35224238,-0.12933409,-0.22565025,0.9606758,-0.0061814524,-0.10816307,-0.14587967,-0.063934855,-0.048099656,0.15641575,0.7219132,-0.2630242,-0.21380109,-0.044061396,0.03387089,-0.3754794,0.22304675,-0.21534178,-0.20466994,0.05257606,0.084889814,-0.1026381,-0.7114366,0.22971232,0.60210633,0.14996737,-0.84199804,0.13512164,0.13293712,0.15966894,-0.08332543,0.16809298,0.070892096,-0.19618519,0.20595898,-0.69490504,0.47258765,0.09204929,-0.35234973,-0.03193459,-0.42783663,0.0031139795,0.58520406,-0.37261236,0.23374607,-0.6526979,-0.71187365,0.06537171,0.3347567,0.63145953
vận chuyển,-0.3789221,-0.39721453,-0.20143747,-0.22540762,-0.17714684,-0.481913,-0.074248254,0.019283704,-0.6878272,0.111392446,0.2678056,0.106028385,0.2264737,-0.33700308,-0.6467835,-0.74629843,-0.20051292,0.6342495,-0.3488911,0.17412587,0.21134843,-0.31774405,-0.70497423,-0.38308895,0.4780723,-0.58866405,-0.19767845,0.52474695,0.5184685,0.17850173,0.23018081,0.21357755,0.11222021,-0.38812456,0.6078289,-0.8184163,0.66807413,-0.20306605,-0.20595297,0.2232211,-0.20076033,-0.27017885,-0.27930498,0.22113551,0.048832983,0.17196952,-0.32253495,-0.36014506,-0.29693812,-0.9346655,0.28464577,0.6733886,-0.42442146,0.049986824,0.20881373,-0.41599765,0.20607096,0.25398934,0.11552968,0.06785444,0.092395894,0.6804313,-0.39058906,0.43430054
ven,-0.15748024,-0.48357633,0.16111869,-0.03828628,0.10210985,-0.13305874,0.13785398,0.06269114,0.22926581,0.23628631,-0.010789352,-0.0100248195,-0.09190472,-0.4862667,-0.43320242,-0.40642634,-0.33333164,0.3548672,-0.16271965,0.31056428,0.31929383,-0.32199478,-0.31754425,-0.32704988,0.29934505,-0.1512638,0.12539695,0.34809026,0.124209225,0.123917565,0.23469622,0.29827532,0.33017406,0.25339708,0.08353457,-0.13592139,0.44032338,-0.23216626,-0.70895845,0.24345376,0.28987104,-0.001358466,-0.15081866,0.12730002,-0.15902857,0.013722858,-0.23590654,0.20891453,-0.30384043,-0.71250856,0.09086982,0.18099432,-0.1420684,-0.032683752,-0.020675994,-0.14314394,-0.1843294,0.05422871,0.002506728,-0.29663548,-0.13204435,0.50385517,0.26807913,0.49192044
hải cẩu,0.04051463,-0.22182332,0.31030163,-0.045323234,0.16909336,0.1446543,-0.0037938966,-0.35202175,0.09723794,0.1689352,-0.031096922,-0.45815074,-0.15532075,-0.42841393,-0.645997,-0.5171408,-0.021082282,0.36544445,0.197772,0.4129494,0.49833515,-0.11830092,0.06414844,0.17745553,-0.2085616,0.0644482,0.0813888,-0.12027879,-0.050382998,0.11778482,-0.14648624,0.06277497,0.5785727,0.28059348,-0.36459753,-0.28994682,0.7526028,0.03130142,-0.38661128,0.33970603,0.29173553,0.041859645,0.21390605,0.52929276,0.107391015,0.23453405,-0.2172328,-0.31400877,-0.37477496,-0.60040593,0.4673024,0.2503855,-0.1263562,-0.3184386,0.021173833,-0.12646957,0.0035222569,-0.10011829,0.34523365,-0.11375949,-0.32011366,0.65664375,0.13851884,0.22382887
đông,0.41650668,-0.015338249,0.019229127,-0.3269255,-0.44975635,-0.46484536,-0.268978,0.13785636,-0.0078075635,-0.22240497,-0.5880154,0.07521033,0.23867731,-0.37400103,-0.3071322,-0.29068968,-0.20190762,0.8865979,-0.0669503,0.100505255,0.3777227,0.25077114,-0.6039818,-0.3127067,-0.05584391,0.07794364,0.13883036,-0.39498758,-0.048145108,0.2552602,-0.0059371255,0.2305213,-0.011917866,-0.08505373,-0.3466029,0.0566631,0.1646745,0.3622511,-0.009146783,0.24441853,-0.5785608,-0.9601084,-0.35110384,-0.60108346,0.36144504,-0.22149971,0.03545798,-0.19712454,-0.42598507,-0.5635973,0.27378887,0.44997582,-0.15816297,0.20661248,-0.24860002,-0.23101577,0.3476344,-0.4442782,-0.3141897,-0.66933084,-0.07494452,-0.22777264,-0.37668565,0.37731436
mức,0.27388215,0.46956646,0.4203625,-0.12615062,-0.27648187,-0.04035006,-0.39543653,-0.2854459,0.09529357,0.001763887,-0.3585308,-0.32531852,0.31547374,-0.37294054,-0.5078471,0.21479243,-0.21718146,0.889183,-0.27135998,0.120616004,0.17854586,0.16874357,-0.5794836,0.6127344,-0.23141868,-0.04479621,0.26228473,-0.39664558,-0.22325136,0.6373498,0.066023655,-0.0794337,-0.004285306,-0.06315375,-0.26411122,-0.2042791,0.22422056,0.21906848,0.088716686,0.22927509,-0.52797353,-0.80545723,-0.17862798,-0.27754983,0.50339985,0.19632643,-0.013001343,-0.7330336,-0.03650326,-0.3316589,0.4233224,0.42149672,0.16774857,-0.20102409,-0.2660721,-0.15811197,0.16491458,-0.38195384,-0.35356912,-0.03573811,0.092191614,-0.082082994,-0.29691717,0.4392861
so,-0.22722544,-0.1251894,0.4157884,-0.2502301,-0.06992373,0.3940716,-0.17934853,-0.018899934,-0.045427643,-0.12926796,0.09625561,-0.6407931,0.05192207,-0.15378757,-0.43593398,-0.38969874,-0.13082394,0.65962285,0.15232937,0.27366585,0.20551066,0.14581917,-0.13922785,-0.061544932,0.62530047,0.11588607,-0.45597705,-0.7523034,0.0009264647,-0.57754195,-0.094278656,-0.13970944,-0.50525033,-0.4120885,0.29454336,-0.034008406,0.06617629,0.04856828,-0.52554566,-0.32866025,-0.23911712,0.19993372,-0.32558578,0.1277652,0.5680785,0.6323809,-0.24335967,-0.28283975,0.19280452,-0.50901115,0.2396229,-0.39312583,0.0110098235,-0.22956455,-0.44971827,-0.44922084,0.42860475,-0.056731995,-0.17846851,-0.5244352,-0.3134375,-0.305803,0.22493938,0.049179714
tuyến,0.14915863,-0.26629573,-0.21853918,-0.0026264193,-0.096588045,0.021675285,-0.15793446,-0.19185802,-0.01544699,-0.055706907,-0.21418412,-0.17257835,0.53491855,-0.69392973,0.097540155,-0.5654566,0.25084457,0.77900517,0.40400943,-0.19771047,0.32458794,0.276139,-0.03859893,-0.2978932,0.11749631,-0.53293747,-0.3142224,-0.207508,-0.10614439,-0.076098986,-0.31854275,-0.15428604,-0.6083676,-0.5299454,0.031188805,0.061648462,-0.008507897,-0.03630283,-0.1960377,0.1302481,-0.23861761,-0.12955536,-0.15815443,0.2797864,0.8377178,0.2588676,0.39532408,-0.16053371,-0.09171472,-0.7908494,0.44681993,-0.02555674,-0.25473857,-0.15396854,-0.5160335,-0.5057559,0.36518168,-0.1109073,0.28714535,-0.3502637,-0.46380952,-0.17126629,0.50828874,0.09358028
ra,-0.5217281,-0.4204766,-0.41680214,-0.21428917,0.120807074,-0.1940889,0.062328957,-0.065266624,-0.40403497,0.07556984,0.44973373,-0.11640241,0.54160815,-0.7988072,-0.4028238,-0.73111355,-0.26854673,0.8846536,-0.3222723,-0.23806919,0.32673183,-0.4829701,-0.5902925,-0.37241638,0.68833643,-1.0679091,-0.13983296,0.35179213,0.457846,0.14107603,0.3147051,0.17213973,-0.43690377,-0.6264261,0.9986204,-0.7425647,0.51278234,-0.29859653,-0.6005266,-0.014540189,-0.32662123,-0.18270637,-0.52191925,0.12273072,0.3160921,0.45322022,-0.057001233,-0.44333237,-0.032304727,-1.1226968,0.40201387,0.27269417,-0.2834432,-0.012593296,-0.19451416,-0.7344924,0.10745302,0.12218888,0.15323791,-0.018811462,-0.046652,0.6971172,0.1296972,0.44552264
khiến,0.5035477,-0.46201867,0.5434746,-0.07342258,-0.78783095,-0.2133675,0.115894146,0.29372537,-0.4538807,0.23483528,-0.5494158,0.07663184,0.66418314,-0.013981983,0.16980109,-0.34422302,-0.3451769,1.2787457,0.30116957,0.077131055,0.4201188,0.35388818,-0.19035305,-0.4195352,0.48060387,-0.18832435,-0.1315388,0.19668666,-0.26711586,-0.23187914,0.050506637,-0.06336427,-0.41878194,0.28556246,-0.002682808,0.23342931,-0.49616796,0.39938086,0.355374,0.4663092,-0.6775247,-0.5010969,-0.038829572,0.073742084,0.622667,-0.10615691,0.10993224,-0.14741208,-0.3636139,-1.1041541,0.2952624,0.05165745,-0.38071766,-0.11054289,-0.60817564,-0.3745292,0.33993727,-0.42597026,0.042056855,-0.672584,-0.29513043,-0.27551964,0.18641621,0.41137084
vùng đất,-0.22392017,-0.35220623,0.59732497,-0.037711136,-0.108967714,0.1649414,0.24780343,0.05096209,0.36175644,0.09719144,-0.19428463,-0.37407947,0.16601485,-0.050792087,-0.45464608,-0.02640321,-0.2692057,0.579238,-0.42803437,0.23655838,0.19578032,-0.5334285,0.16136147,-0.033138294,0.5756014,-0.10725831,0.22131531,-0.09266651,-0.05330552,-0.13994649,0.3648041,0.14180653,0.10824847,0.5344816,0.4229106,-0.1669581,0.11321935,-0.24052109,-0.24640292,0.028671168,-0.112123586,0.100523666,-0.3410919,0.15001503,0.006359943,0.5911753,-0.2964399,-0.12235195,-0.024382977,-0.22541605,0.28394696,-0.13480866,-0.0026320848,-0.0021078228,-0.33622867,-0.15277344,-0.06834114,-0.10729342,0.22740169,-0.217709,-0.23561294,0.3963811,0.2764245,0.31548366
hùng vĩ,-0.34670183,-0.082455695,0.17203808,-0.26831982,0.029407684,0.6212539,-0.51569283,-0.20754658,-0.02269316,0.09046504,0.05977375,-0.2627322,-0.7685271,-0.5982915,-0.20529965,-0.2171485,0.12616712,0.1833606,-0.17080839,0.6635101,-0.36334532,0.20110145,-0.25684968,-0.4236253,0.63951623,0.1028806,0.092247516,-0.24874115,-0.13536088,-0.40393075,0.16238412,0.024813883,-0.5182806,-0.27548677,-0.049005203,-0.117634535,0.075232275,-0.37228525,-0.5901529,-0.025314895,0.015659513,0.10653958,-0.030371362,0.24143305,0.37293187,0.16754973,-0.40643018,-0.076184146,0.23465995,-0.88086367,0.2810409,-0.13783018,0.049941327,-0.4224725,-0.4555536,-0.43339682,0.5783744,-0.21843629,0.017780889,-0.93189085,-0.09219794,0.1230119,0.31082848,-0.0789379
huyền bí,-0.44781038,-0.0918334,0.014284919,-0.25268438,0.10826864,0.49722362,-0.40681317,-0.007938134,0.013774701,0.16554527,0.061024264,-0.14277096,-0.60699654,-0.8239122,-0.077930175,-0.31312996,0.19586039,0.21114103,-0.3482769,0.57893515,-0.40658823,-0.048049428,-0.317839,-0.51769984,0.8094611,0.064792834,-0.009488804,-0.053249564,-0.05408152,-0.3000895,0.21585682,0.16477029,-0.45061207,-0.40930855,0.045471642,-0.16719684,0.037636835,-0.6928084,-0.5995679,-0.04874927,0.16907825,-0.00946475,-0.093451,0.14575623,0.23962438,0.14153609,-0.3234383,0.12186738,0.36720237,-0.9446822,0.21594387,0.08459437,-0.121150196,-0.3719804,-0.61397624,-0.5435277,0.45067367,-0.23253085,0.18755779,-0.8781683,0.020026227,0.33137926,0.3220113,0.075015806
việc,-0.1824949,-0.4330515,0.650408,0.032629553,-0.1749253,-0.040514104,-0.529986,-0.3440707,-0.36439577,0.32936037,-0.45204133,-0.15169677,-0.1258038,-0.028045792,0.27566063,0.0065437276,-0.22510839,0.40935972,-0.32530463,0.6128494,0.07945771,0.22409825,-0.07880463,-0.50525635,0.06572154,0.05324784,0.28807056,-0.06326358,0.12361479,0.11317593,0.04187992,-0.044706345,-0.16567115,0.58579254,-0.21551272,0.1700968,0.07738407,0.1401815,0.022158474,0.30988577,-0.10382178,-0.38528287,-0.009992195,0.298074,0.5690436,-0.13873646,-0.364202,-0.016387893,0.041744422,-0.54993033,0.5152148,-0.29053104,0.080166705,-0.2811614,-0.7166962,-0.38254976,-0.009664927,0.09434713,0.26520267,-0.3773151,0.1401271,-0.19932915,-0.098024935,-0.12958568
điều kiện,-0.6225152,-0.2373844,0.4662755,-0.1388231,-0.37545213,0.55276644,-0.2409922,-0.11360623,-0.4125263,0.26098213,-0.05377553,-0.14685422,-0.4177102,-0.43458635,-0.43714976,-0.26368725,0.23348123,0.23934151,-0.42720953,0.6941542,-0.467385,-0.24877743,0.39533645,-0.3835965,0.62561214,-0.17295088,-0.08363874,-0.25574258,0.16785148,-0.2980908,0.25430226,0.15272984,-0.4205126,0.12337971,0.028886046,-0.23441209,0.1581855,-0.2755034,0.09260756,0.33340913,-0.07900334,0.036621742,-0.048695758,0.16254199,0.21986973,0.49386674,-0.23737867,-0.041304644,0.19616155,-0.5329303,0.0687034,-0.28602037,0.09424358,0.009677878,-0.47078624,-0.4309125,0.43124905,0.0070136217,0.48627302,-0.763912,-0.25168088,0.004632544,-0.09708973,0.027734168
mùa,0.40862435,-0.14308263,-0.01455157,-0.550935,-0.36681172,-0.34301353,-0.2661348,0.20812432,-0.043493215,-0.21399082,-0.48636243,0.16236645,-0.01801253,-0.43596038,-0.07882237,-0.31879243,-0.25030565,0.7837187,0.061423298,0.09832641,0.41854265,0.20901655,-0.53940094,-0.55466187,0.037071582,0.12989955,0.052506216,-0.4389148,-0.16230212,-0.05304964,0.10649008,0.3579882,0.0036153046,-0.21029712,-0.22232483,0.22351143,0.24430911,0.23173095,-0.20959336,0.14361641,-0.41749007,-0.8052562,-0.3147109,-0.6496632,0.39720368,-0.12563528,-0.039483815,-0.04722213,-0.43358588,-0.6161382,0.22055946,0.34001637,-0.20213388,0.17447603,-0.26069295,-0.20843099,0.53134555,-0.5214215,-0.29756993,-0.904812,-0.12306373,-0.39707938,-0.3523651,0.31007594
mà còn,-0.24167292,-0.59633875,0.5602383,-0.20144035,-0.032307643,-0.15073067,0.21966062,-0.3508564,0.25156826,0.31527558,-0.27295208,-0.37367192,0.5655043,-0.09336484,-0.2018003,0.22504693,-0.3448183,0.7814769,-0.5009056,0.18421601,0.27489668,-0.34998375,0.10463022,-0.16606912,0.34493062,-0.4555644,0.4828984,0.19869088,0.048848566,0.18374515,0.45674536,0.28823766,-0.14474444,0.75693613,0.57837117,-0.0921354,-0.037266176,-0.20026138,-0.37452173,0.2703281,-0.24934162,-0.1809642,-0.41257212,0.30905408,0.4120581,0.4911782,-0.34764835,-0.3621145,-0.18719013,-0.4873872,0.4812816,-0.25787908,0.010200867,0.055982243,-0.56327504,-0.5241271,-0.37496832,-0.18444894,0.17540218,0.047211077,0.035866003,0.29389068,0.34898126,0.34801942
dọc,0.10439179,-0.44824708,-0.35556552,-0.33130622,0.034429677,0.12924378,-0.012012455,-0.24225315,0.22986329,0.14635672,-0.02264779,-0.2300031,0.3946595,-0.81630945,0.031556156,-0.40388468,0.1872483,0.7815716,0.25769997,-0.24232404,0.43798944,-0.07114518,-0.026389,-0.2105371,0.13928889,-0.59369236,-0.053550087,-0.08271642,-0.23559426,-0.053534266,-0.045485914,0.12631375,-0.43386558,-0.3876102,0.29583478,-0.019472504,0.38572165,-0.4322862,-0.51343495,-0.0044939974,-0.054224007,-0.15728793,-0.23034443,0.23512389,0.7653171,0.647393,0.3967072,-0.27550313,-0.20928288,-0.7592506,0.5448391,-0.028176181,-0.2531497,-0.1409385,-0.41304275,-0.65336454,0.07812683,-0.20985763,0.3227374,-0.24280594,-0.27241609,0.03442071,0.51923406,0.15110412
dầu mỏ,0.11153088,-0.38119134,0.36429805,-0.5356574,-0.1834566,-0.24489579,-0.16989347,-1.7674e-05,-0.37141874,-0.23656896,-0.29134542,-0.105178654,0.22969194,0.41698292,-0.4774025,-0.7080841,-0.17714235,0.47171214,0.018056447,0.23648697,0.3347174,-0.3153602,0.06995202,-0.2613959,0.27022833,0.25909337,-0.3780761,-0.1546541,-0.31978425,-0.097706065,0.3596476,0.42313623,0.58969045,-0.052461505,0.3604667,-0.2611505,0.2704121,-0.147381,0.41413784,0.018645978,0.10337012,-0.24613504,0.23750347,0.116559096,0.056281812,0.22989173,-0.42366296,-0.2362348,-0.21042362,-0.20914145,0.45292997,0.93813854,-0.5683135,-0.03501727,0.13392642,-0.057689454,0.64266497,-0.2261893,0.56568426,-0.34746537,-0.22589496,0.07858578,-0.1838528,0.35166255
ngoài ra,0.30336738,0.016637424,0.2685332,-0.26256302,-0.17455092,-0.21366625,-0.40552396,-0.08737519,-0.25104043,-0.4211995,-0.2600029,-0.261654,0.43041342,-0.012879464,-0.009034806,-0.50283736,-0.011777471,0.6561002,0.35284516,0.012581194,0.3038254,0.23534082,-0.016230559,-0.16911055,0.16223243,0.1995666,-0.50534254,-0.6847444,-0.26417875,-0.20783785,-0.16359165,-0.083794676,-0.15669891,-0.32924497,0.046451367,0.11252908,-0.14807193,0.32245755,0.18520516,-0.14313908,-0.24613728,-0.32826266,0.06284788,0.08858308,0.64422554,0.16840051,-0.19875652,-0.29746166,-0.07244093,-0.26863486,0.47260743,0.48780143,-0.33605555,-0.23622683,-0.44225895,-0.2301211,0.80853593,-0.32705125,0.29487234,-0.41732576,-0.2529687,-0.27348858,0.02817771,-0.008186334
bao bọc,-0.22733025,-0.21850325,-0.09206176,-0.11816575,0.11566748,0.0446561,-0.21843861,-0.25628993,0.25045747,-0.07285102,0.09570878,-0.2911473,-0.111867234,-0.7337385,-0.38666448,-0.29350746,-0.012017309,0.35566694,-0.07589688,0.0139508825,0.20185646,-0.27347836,-0.07331537,-0.29081756,0.032938596,-0.39597437,0.03622814,-0.6044448,0.19114979,-0.012382479,0.00089563825,0.10821008,-0.32951167,-0.18881257,0.0686961,-0.08001268,0.6819333,0.024271263,-0.67426986,-0.11654065,-0.093077205,-0.09058083,-0.31681874,-0.08665141,0.39877027,0.49051565,-0.07043959,-0.12662607,-0.13421735,-0.33050475,0.48527992,-0.21115044,0.1465437,0.14339052,-0.11464132,-0.28032404,0.26863885,0.14451626,0.036118798,-0.34444374,-0.17434199,0.08638937,0.06718632,-0.078701355
khoáng sản,0.20627879,-0.18711992,0.2293079,-0.35345066,-0.11067048,-0.24653718,-0.31976992,-0.07287333,-0.2930572,-0.43092388,-0.2793953,-0.29460385,0.50342494,0.17427196,-0.32956713,-0.81409276,-0.061053272,0.67795676,0.43625256,-0.09506789,0.5505691,0.065972164,-0.04719675,-0.1335719,0.0013232469,0.2841394,-0.5704623,-0.53562325,-0.35390487,0.010554571,-0.0036544378,0.17882128,0.31718162,-0.27300468,0.07989718,-0.022662811,0.08059518,0.22039671,0.37378594,-0.20985691,0.03355341,-0.27478102,0.22583838,0.15002379,0.35730934,0.06730508,-0.13687165,-0.2872416,-0.15214163,-0.15188067,0.49749205,0.7108249,-0.45444024,-0.11785839,-0.052755382,-0.17099184,0.6256917,-0.17821763,0.44747862,-0.46523777,-0.40582705,-0.14887007,0.10236159,0.18850276
tuy,-0.28698608,0.05875015,0.5699858,-0.241858,-0.24381515,0.61973155,-0.04123017,0.2497164,-0.11802233,-0.0838758,0.11932075,-0.76194996,-0.09882895,-0.111564085,-0.5673721,-0.43166208,-0.2577692,0.8460502,0.02603485,0.41976956,0.15819861,0.06994171,-0.4477029,0.1260729,0.9272884,0.3553972,-0.42083415,-0.7515701,0.013384924,-0.73099583,-0.063858695,-0.19437654,-0.40521908,-0.46346116,0.21421868,-0.18542777,-0.050633386,-0.054087896,-0.40832892,-0.42508084,-0.45116657,0.05962338,-0.35318482,-0.070873626,0.30768934,0.56323934,-0.31798333,-0.371389,0.33522406,-0.6327007,0.03127153,-0.33155194,0.04598683,-0.33924547,-0.47814322,-0.38577235,0.40372264,-0.16510133,-0.4477584,-0.7696335,-0.27109137,-0.22837748,0.10669444,0.2569895
dấy,-0.35647097,0.20912147,0.47800428,0.12472281,0.031705737,0.20951112,-0.7140468,-0.49453527,-0.39313164,0.25690234,-0.62210625,-0.15042101,0.35776612,-0.68631583,-0.24804708,0.081487015,0.07245387,0.4123679,-0.5785322,0.33906102,-0.21686679,0.22072853,-0.41159514,0.31043196,-0.24886808,-0.2696243,-0.099488296,-0.12928775,0.3854159,0.8438552,0.12650093,-0.09608668,-0.07592847,-0.17738451,-0.2960394,-0.31666434,0.18330327,-0.08780005,0.45034298,0.5873933,-0.29671955,-0.25874126,0.16385074,0.25520614,0.39034894,-0.03646953,-0.05631971,-0.2791328,0.4098259,-0.42372742,0.7079252,0.2766861,0.05232909,-0.33595836,-0.39599738,-0.22668166,0.18335563,0.009616269,0.47384986,-0.015616884,-0.118033685,-0.16589126,-0.29987887,0.45070162
đặc biệt,0.36030555,-0.09471902,-0.17031677,-0.3141907,-0.31236267,-0.6301751,-0.24688533,0.0142823765,0.055246525,-0.31661123,-0.46924317,0.21777104,0.21608464,-0.6501562,-0.33146065,-0.51676077,-0.22862564,0.69567496,-0.09481135,0.054776765,0.4459787,0.13997419,-0.6341795,-0.53156096,-0.16087532,-0.28361058,0.13269588,-0.3532778,0.11769554,0.32817686,-0.012446187,0.2807206,-0.20338413,-0.21825859,-0.24031676,-0.0017727909,0.33540678,0.4412217,-0.31498772,0.27300882,-0.54021794,-0.90466744,-0.41631055,-0.5960432,0.47632635,-0.23264623,-0.031747594,-0.13813029,-0.4999872,-0.64304364,0.38527784,0.3919285,-0.2130435,0.3941147,-0.14370935,-0.27046713,0.4351788,-0.35087204,-0.28224483,-0.62616557,-0.04821596,-0.074714705,-0.3418776,0.27130044
vì,0.19068049,-0.22037831,0.5707702,0.21778083,-0.37132016,-0.04823737,-0.00077885255,0.221685,-0.057075273,0.23136623,-0.5854173,-0.22665672,0.2858492,-0.03763636,0.023461033,-0.25758764,-0.35805485,0.8048231,-0.17332639,0.46168613,0.5198037,0.13837712,-0.40551728,-0.0507402,0.105920374,0.19703619,0.27952927,-0.043595858,-0.07282954,0.15913086,0.10126493,-0.022675863,0.2535982,0.53817016,-0.36212,0.15571094,-0.09562142,0.341117,0.17268865,0.2822682,-0.32214767,-0.56165636,-0.19071677,-0.1125381,0.04473594,-0.3157326,-0.01560379,0.036724936,0.013067265,-0.7305331,0.17613344,-0.068846464,-0.053202063,-0.22741297,-0.4623418,-0.10562624,-0.23168609,-0.12959017,-0.15889986,-0.5233147,-0.15436262,-0.10588873,-0.13141905,0.36569294
sinh sống,-0.051856834,-0.45925373,0.39290997,-0.104421295,-0.07922529,0.33767045,0.10655254,-0.16606525,0.0307501,0.1875565,-0.13180594,-0.3863316,0.115387745,-0.288377,-0.8673355,-0.34248385,-0.029361442,0.52207327,0.00076050207,0.30356157,0.52371496,-0.2912487,-0.22021559,0.38478205,0.02585702,0.108708784,-0.02084342,-0.1544894,-0.24134366,0.36252403,0.35100275,0.18954583,0.62638605,0.32381865,-0.07249606,-0.21602967,0.52788335,-0.14624067,0.25661466,-0.22682022,0.08253329,-0.09277759,0.24806963,0.21473312,-0.33731297,0.31045023,0.024843277,-0.2230041,-0.16534778,-0.39150417,0.43096417,0.1858412,-0.1721266,-0.09685157,0.46409512,0.060424116,0.069544844,0.15394512,0.3216386,-0.4444503,-0.3674689,0.28538904,0.112054504,0.3803951
