node,0,1,2,3,4,5,6,7,8,9,10,11,12,13,14,15,16,17,18,19,20,21,22,23,24,25,26,27,28,29,30,31,32,33,34,35,36,37,38,39,40,41,42,43,44,45,46,47,48,49,50,51,52,53,54,55,56,57,58,59,60,61,62,63
và,-0.038940202,0.14800319,0.08634782,0.0025326973,-0.0129788015,0.048676748,-0.2004464,-0.2704433,-0.384897,-0.062251236,0.010701566,-0.16622254,0.05859122,-0.14427468,0.00051912555,-0.026554396,-0.14620265,0.12195288,0.24658513,0.17660578,0.28925848,-0.07058502,-0.2809234,0.022471895,0.25743115,-0.2839452,-0.05399644,0.016090717,-0.19931482,0.12653948,0.064692505,0.092560545,-0.15395428,-0.1047617,0.2646516,-0.3717767,0.07136361,-0.29230115,-0.22383209,0.093495674,-0.22575766,-0.0904558,0.12117366,0.22054785,0.102060996,0.22933453,-0.088326864,-0.12173989,0.1154687,-0.05861737,0.22942592,0.38168794,-0.39560542,0.09980148,-0.0810887,-0.42675093,0.11176083,-0.1382452,0.27835268,-0.2292817,0.0037862463,0.1398488,-0.11809806,0.27379957
của,0.08234748,-0.2063772,0.44027662,-0.13217716,-0.15425664,0.09651822,-0.07265554,-0.08214012,0.078415535,-0.21010572,-0.47692084,-0.36458352,0.08274524,-0.2846695,-0.1204912,-0.011511573,0.36241108,0.4264131,-0.15865462,0.23976873,-0.024437306,-0.035838827,-0.054361522,-0.31457135,0.039709266,0.15737544,-0.2151661,-0.2822529,-0.007180625,0.08269603,0.113434166,0.17191271,-0.15961574,0.08688503,0.22086203,0.057615098,0.59401256,-0.38383442,0.18936092,-0.051506273,-0.16829798,0.34173706,-0.4605223,0.18847151,0.18090944,0.15879457,-0.18295039,-0.45274892,-0.065375865,-0.4240618,0.03984845,-0.005927938,-0.09584534,-0.3444221,-0.29433936,-0.12435992,0.07561601,-0.4266534,0.021838665,-0.20787893,0.004488053,0.3393088,0.115072794,-0.08742458
là,0.35118207,-0.21750349,0.3169921,-0.26485038,-0.32795042,0.38175103,-0.2168248,-0.021039706,-0.19326437,-0.15935954,-0.14784667,-0.09234989,0.2267478,-0.3735282,-0.013968859,0.23919465,-0.35258088,0.5987058,-0.10564916,0.06662273,0.079194754,-0.13279766,0.07983845,-0.01752407,0.33947715,-0.052154012,-0.069151156,0.018703159,-0.2300912,0.24945222,0.1437139,-0.0028023636,-0.10033951,0.3197034,0.20177594,0.16497903,0.40004793,0.1055534,-0.183785,-0.1472785,-0.23761345,-0.260319,-0.052923933,-0.18968129,0.26300398,0.2774715,0.05700481,-0.41695434,-0.17836122,-0.18876246,0.46810636,-0.049327206,0.10683528,-0.7597858,-0.37396523,0.020661606,0.055484626,0.03790448,0.21859242,0.29242554,-0.11271228,0.0659316,-0.021292875,0.024959406
biển,-0.07447943,0.09632241,0.4785071,-0.20205422,0.050424624,0.074037135,-0.3027443,0.29122517,-0.4512742,0.161635,-0.044530194,-0.23733963,-0.03677079,-0.11376492,-0.19127168,0.25523347,0.1493309,0.24026856,-0.04504044,0.25886127,0.1000392,-0.32830092,-0.03202381,-0.41219264,-0.008720708,-0.20221518,-0.1832518,0.11245359,-0.18236673,-0.04527759,0.28966987,0.13649705,0.07395039,-0.13040999,0.2737486,-0.29062632,0.2654928,-0.55501,-0.16696928,0.5039075,-0.39023662,0.2833749,-0.090706326,-0.018895699,0.31281823,0.08388216,-0.18260223,-0.28509563,-0.3251791,-0.2667561,-0.06294341,0.20554386,-0.29035145,-0.1509975,0.006772319,-0.5967796,0.36989054,-0.4866625,0.015401412,-0.13898915,-0.096067406,-0.024147764,-0.36019063,0.2753124
ấn độ,0.09025146,0.19109127,0.40233523,-0.22231275,0.059273664,-0.18196213,-0.18939154,-0.014782029,0.17780353,-0.39912784,-0.23340857,-0.17165759,-0.24261943,-0.32638234,-0.23780583,-0.54761493,-0.25112036,0.38968197,-0.035698075,0.48465112,0.27091756,-0.07346181,-0.10370564,-0.21230927,0.14292924,-0.030791642,0.1216099,-0.3293451,-0.06418172,0.015988285,-0.30131224,0.35223043,-0.16236779,0.0573244,0.11931405,-0.24892949,0.4364061,-0.030568074,0.0003156789,-0.0754271,-0.13599087,-0.24461925,0.31516564,-0.37711608,-0.0825983,0.106510386,-0.33303815,-0.19945535,-0.06766021,-0.34962022,0.11535354,-0.08004187,-0.1186257,-0.38141096,-0.4853148,-0.19940513,-0.038751043,-0.11678003,0.17925401,-0.19804145,0.051296115,0.21960966,-0.025678288,0.5978044
khu vực,-0.21114202,-0.19532524,-0.15642248,0.09063993,-0.124269515,0.6482694,-0.06211157,-0.37703714,-0.27524388,0.1721424,-0.17828467,-0.011876442,0.103911206,-0.0062748673,-0.029639598,-0.09475467,0.22383739,0.21805955,-0.25784,0.4420238,0.026159348,-0.0038842529,-0.64233124,-0.060757466,0.5547539,-0.20426464,0.01344142,-0.18015651,0.02753157,-0.017394176,-0.219577,-0.067311026,-0.24272074,-0.078283794,0.27308112,0.123852916,0.10687902,-0.26396897,-0.15999995,0.17440072,0.032203194,0.2855172,-0.45995006,0.0779516,0.26687875,-0.01592427,-0.370175,0.020476306,0.120988175,-0.36968976,0.23357128,0.5051973,0.26049712,-0.011464158,-0.25518477,-0.36256695,0.5752877,0.12966537,0.39613816,-0.60760665,-0.24129786,0.217199,0.3069629,-0.16868158
với,-0.21623014,-0.5215914,-0.016754277,-0.16152999,0.09295167,0.31205538,0.1102089,0.123565815,-0.51484793,0.20597519,-0.24572611,0.18353085,0.08051357,-0.2566738,-0.3450489,0.06892401,0.0037928172,0.48780456,-0.37553674,0.15804115,-0.29306892,-0.2423306,-0.17892222,-0.1888789,0.8070802,0.109956905,-0.33933425,-0.15707043,-0.1358721,-0.30033225,0.0930352,-0.0072885663,0.32650214,-0.24897471,0.367271,0.2093846,0.39220813,-0.38923824,0.14176705,0.31427577,-0.01330116,0.13696702,-0.049721643,-0.07107532,-0.39888966,0.017365627,-0.10459282,-0.16862325,-0.2605865,-0.7082966,-0.07279965,0.10473368,-0.13702522,0.015578006,-0.32812464,-0.31214985,0.515328,-0.098473676,0.02861554,-0.23758405,-0.33743975,0.02149146,0.003582872,0.14919339
nhiều,0.20593879,0.049885035,-0.15409452,0.12319888,-0.031855352,0.072302334,0.3267091,0.08359777,-0.51023525,0.5307958,0.011517852,0.16524003,0.070937514,-0.32163015,-0.16861747,-0.23752643,-0.3914917,0.5105949,-0.25438607,0.14423598,0.06345272,0.015144317,-0.18146741,0.1632725,0.72444534,0.13158476,-0.1372633,-0.1635087,0.20098595,-0.108287424,0.418896,0.068600476,-0.10886275,0.21061835,0.11436598,-0.021061704,0.2460805,-0.012971488,-0.19210018,-0.21864434,-0.22663203,-0.21707092,0.5237042,0.035781804,-0.1230879,0.10129627,-0.0501246,-0.072905794,-0.24909182,-0.6106947,0.66975266,0.35884544,-0.12579791,-0.1758328,0.00479367,-0.29854882,0.22195783,-0.2877671,0.120637424,0.065988645,-0.3356432,0.32761395,-0.021687679,0.17246744
dương,0.18720154,0.10276064,0.4447757,-0.117532596,0.32750958,0.07044315,0.019037874,-0.09648282,0.04254744,-0.23599271,-0.36435518,0.011645331,-0.170877,-0.25413182,-0.0019946503,-0.408223,-0.41320857,0.58013296,-0.159642,0.19184919,0.17665134,-0.15059681,-0.055887047,0.0052813035,0.50195354,0.062037602,0.11236028,-0.36516124,-0.103122115,-0.117413156,0.005379797,0.29817337,0.13073573,-0.07098065,0.2519455,-0.1273213,0.4638041,-0.0045716544,0.2693591,-0.21373247,-0.017240314,-0.24662594,0.21833988,-0.48450148,-0.2442542,0.1846171,-0.062191892,-0.20618898,-0.15772986,-0.38546327,0.35252103,-0.0035882653,-0.06184802,-0.3014102,-0.28622815,-0.07609862,0.18245226,-0.21081501,0.23961842,-0.06254056,-0.13891327,0.33393148,0.13675924,0.31678176
lớn,0.3931765,0.100498535,0.38272917,-0.3787492,-0.09278606,0.024157204,0.20320354,0.02217343,-0.13734092,0.36422896,-0.060800932,-0.21716644,0.19217485,0.047633216,-0.13247529,0.07714249,-0.23864968,0.6461044,0.011553589,0.46207866,0.109074935,0.2932909,-0.102599815,0.04416976,0.6726083,-0.1007933,0.21319677,0.2991255,0.19740582,0.029789763,0.2784963,-0.09464069,0.010538181,0.14158918,0.1649909,-0.0022045907,0.3175931,0.13659173,-0.1936757,0.050614413,-0.1546005,-0.33358344,0.029568072,-0.122384235,0.2841768,0.07836045,-0.26374137,-0.27648547,-0.2878188,-0.5754456,0.51773775,0.11925503,-0.008173907,-0.37230918,0.060342047,-0.19337904,0.27571332,-0.11407918,-0.15123175,0.15924744,-0.39847544,0.15557614,-0.16975299,0.22798574
cho,0.48914266,0.17789192,0.3545572,-0.36994213,0.01256147,-0.057429,-0.040942214,0.038707726,0.05624919,0.26785946,-0.37696266,-0.4405587,0.12985054,-0.23356064,2.67352e-05,0.18009964,0.45652497,0.31931365,-0.066232346,0.06044421,-0.043755103,-0.19128694,-0.11502383,-0.3447908,0.2555384,-0.2819637,-0.23056057,0.37472627,0.12991041,0.22745283,0.5652264,-0.020371156,-0.14447215,-0.20122088,0.42656493,-0.26227593,0.32939178,-0.6595375,0.18770666,0.35699564,-0.16081731,0.049512103,-0.06806501,0.64497226,0.06364154,0.22502707,0.0027924348,-0.48225653,-0.33842748,-0.48490205,0.49398476,0.4596176,-0.5464507,-0.37722376,-0.16549435,-0.70949024,0.32999626,-0.38138422,-0.26281172,-0.36937785,-0.028634641,0.3046181,-0.2745979,-0.084951445
đại dương,0.08571915,-0.34025064,0.046423867,-0.05454912,-0.12633602,0.21258688,0.16739357,0.049485013,-0.23412843,0.12661901,-0.06319218,-0.31332874,0.32421842,-0.43462357,-0.112583235,0.082069725,-0.43518254,0.6178255,-0.09347389,0.1376082,0.21821459,-0.13098134,-0.046836697,0.049477465,0.5804295,-0.036289737,0.10461331,-0.10778282,-0.072646506,0.28696322,0.25671366,-0.030941533,-0.16316125,0.16570008,0.40571272,0.21003354,0.65314037,0.19765382,-0.25524786,-0.31551254,-0.05844191,-0.29004985,-0.0995366,0.14883086,0.10920356,-0.16478479,0.27852437,-0.42508376,-0.35727993,-0.37203822,0.6522383,0.27672318,-0.27382648,-0.15876526,-0.22933362,0.049425963,-0.05864106,-0.34376153,0.015011308,0.21100172,-0.007572741,0.39985082,0.42567316,-0.116140775
này,-0.20562813,-0.3761378,-0.20420656,0.23864484,-0.29816103,0.59709686,0.2633006,0.09426626,-0.3312403,0.19624978,0.008302701,0.07845209,0.32266328,-0.28860107,-0.14163166,-0.31446636,-0.07636942,0.49705613,-0.40809512,0.37214842,0.13671426,-0.26221943,-0.42822367,0.037043534,0.81345934,0.06015183,-0.055852834,-0.22092791,0.0686809,0.059195437,0.06262162,-0.046332873,-0.2791307,0.011179481,0.4519814,0.33612832,0.5446377,-0.10518928,-0.13432729,-0.17719261,0.07258703,-0.032016456,-0.24186532,0.103330016,-0.004237199,-0.15560764,0.17471239,-0.013966372,-0.05025696,-0.6244829,0.39403155,0.47698605,0.070790574,0.055793606,-0.38728178,-0.042296983,0.048956394,-0.32428053,0.29297373,-0.09660682,-0.052884523,0.23288451,0.46320742,-0.25963658
quan trọng,0.08094093,-0.3578918,0.39775535,0.08972529,-0.33471486,0.40593404,-0.43080094,0.15407966,-0.08660114,-0.09955397,-0.17248866,-0.26538074,0.361636,-0.59260595,-0.027642485,-0.100665666,-0.039575797,0.56208295,-0.11210567,0.25822628,0.15125836,-0.247254,-0.100022726,-0.008716947,0.1854225,-0.15608059,-0.055974357,-0.0528616,-0.23311736,0.39278027,0.0020825432,0.0075284545,-0.15878521,0.1503408,0.45182258,0.37466872,0.81405854,-0.36149704,0.04319679,-0.092526175,-0.20796314,0.053513058,-0.342056,0.16352372,0.2098896,0.12204675,0.20893006,-0.48500618,-0.10329733,-0.21454482,0.13704048,0.08218542,0.04466036,-0.21187565,-0.31127092,0.0457239,-0.30925125,-0.32220063,0.0211239,0.1404736,0.26174852,0.40611047,0.49980944,-0.06125422
có,0.18737273,0.18374448,0.114547655,0.13219796,-0.15393843,0.058864206,0.22144455,-0.044328846,-0.112506405,0.18873574,-0.017720452,0.018257456,0.089818835,-0.27574092,0.09012202,-0.5802095,-0.41713604,0.70237434,-0.2002187,0.46490514,0.62288344,0.09406544,-0.45181483,0.20014586,0.36880785,0.01976571,0.28928432,-0.26463106,0.070867695,0.266603,0.13825895,-0.059375755,-0.39524725,0.36293483,-0.039126836,-0.0926539,0.41700983,0.2554975,-0.2162796,-0.3516314,-0.30412775,-0.334379,0.31640998,-0.12795231,0.20573224,-0.018059773,0.15986554,0.13419321,-0.0023373633,-0.5750606,0.79467136,0.27047232,0.0039690873,-0.2614915,-0.08381878,0.0098419245,-0.03861993,-0.34837586,0.4901233,0.0034833879,-0.21093461,0.3064268,0.30946165,0.20472232
ảnh hưởng,0.0405008,0.060693726,0.43469098,-0.36843607,0.26492244,-0.04575803,-0.1053371,-0.39313662,-0.22930777,-0.40794855,-0.25802702,-0.39595136,0.090630084,-0.26968804,-0.11679352,-0.08492371,-0.3348788,0.48082447,0.07026168,0.13106745,0.25543544,0.02361774,-0.0044412776,0.108295694,0.44021168,0.039056133,-0.30047798,-0.36444417,-0.4902202,0.081455596,0.101986215,0.01594845,0.1278807,-0.30866107,0.4538444,-0.3023167,0.07781702,-0.29785737,0.21306495,-0.09615573,-0.04651844,-0.01997278,-0.21744865,0.32858375,-0.20173876,0.18218099,0.101898946,-0.3657438,0.036589473,-0.2334272,0.1160479,0.3586346,-0.854908,0.13224058,-0.18931633,-0.09108761,0.18780085,-0.14871478,0.21555312,-0.5563047,-0.1844271,0.15068798,0.17572233,0.10296641
thế giới,0.10159511,-0.7021229,0.044315703,0.026870232,-0.3167551,0.33668923,-0.019187815,-0.035946976,-0.047465764,0.16768469,-0.56704503,0.02030534,0.14845262,-0.4643505,-0.27236518,0.036165264,0.31873634,0.47168025,-0.15597057,0.22744462,-0.32819614,-0.10500997,-0.30449945,-0.40413296,0.57260424,0.09524754,-0.16806144,-0.08588711,0.225256,0.051078837,0.03182429,0.11420972,-0.08702482,0.11266073,0.28435782,0.48701277,0.8151916,-0.43752268,0.021764603,0.17671245,0.04068769,0.15079002,-0.14855622,0.1949523,0.026558863,0.11417084,-0.19034903,-0.4103972,-0.11687457,-0.7071796,0.09475967,-0.0710929,0.28693837,-0.3697195,-0.3534737,-0.089292526,0.13753182,-0.046872735,-0.11124418,-0.07134304,-0.08193858,0.34827644,0.32779166,-0.10840868
trung tâm,0.2192729,-0.19402705,0.5475844,-0.304916,-0.24083723,-0.014820543,-0.19219129,-0.1929588,0.10478421,-0.34996042,-0.25153968,-0.35192844,0.036301076,-0.5381859,0.0047202874,-0.3262317,-0.027626913,0.34163967,-0.28196174,0.20894976,0.33156198,-0.23200002,0.026552847,-0.086996295,0.04253399,-0.039175015,0.14959073,0.0020148105,-0.09096716,0.41714832,-0.038433794,0.16833495,-0.14102225,0.16492657,0.15366358,-0.09097223,0.687576,0.062161062,-0.1171975,-0.27023125,-0.20446697,-0.022865336,-0.071220234,-0.00996805,0.3610634,0.03184322,-0.15305874,-0.6530246,-0.29020166,-0.39531383,0.18423267,-0.16362277,0.17420815,-0.5398663,-0.32179323,-0.043969143,-0.17782144,-0.12237368,0.037500035,0.11483866,0.08246544,0.5181503,0.11776984,0.14323242
thương mại,0.45264038,-0.13906693,-0.007109234,0.09574897,-0.39779833,0.4222592,-0.08043413,-0.14844024,-0.15540485,0.09671472,-0.2779314,-0.0772408,0.049236365,-0.49328795,-0.049137842,-0.031443264,0.060497396,0.34778893,-0.13981582,-0.099399336,-0.039591756,-0.2478148,0.007857133,-0.07472955,0.14947207,0.09101072,-0.2383711,-0.29772982,0.032862682,0.21269442,0.37694716,0.18389829,-0.34944183,0.26298323,0.09142632,0.07980562,0.43856722,-0.29796806,-0.08942838,-0.25527272,-0.33945,0.1356962,0.055545747,0.15269676,0.20896672,0.44913888,0.079219356,-0.34644064,-0.10217829,-0.2881841,0.49355474,0.07762829,0.105167024,-0.7130571,-0.31167424,-0.18856192,0.032149475,-0.14716941,0.14535062,0.14124261,-0.100002155,0.36052048,0.025733227,-0.1758224
từ,0.24948458,0.0033531834,0.58481956,-0.17291628,-0.44001734,-0.2998958,-0.110618524,-0.3493859,-0.21597803,-0.37916124,-0.33152434,-0.04180398,-0.060482763,-0.47671893,-0.09424816,-0.3604479,-0.11733102,0.5872843,-0.33924082,0.05507891,0.20144565,-0.13913454,-0.014864185,-0.04046464,0.010425003,0.32437834,-0.25252414,-0.26736456,-0.23130229,0.4401516,-0.0873298,-0.06178312,-0.17847343,0.29065388,0.0038420632,-0.24240227,0.177856,0.19228712,-0.12276369,-0.35017988,-0.3946942,-0.07350241,-0.063501544,0.0046295896,0.12223601,0.40852922,-0.113020904,-0.4611718,-0.16877633,-0.39549577,0.025310932,-0.084342234,0.010342076,-0.7663536,-0.5516696,0.18803419,0.014184081,-0.1378661,0.5178623,0.0948922,-0.34647804,0.2585331,-0.03929706,0.09094849
đến,0.0351484,0.14533469,0.4135133,-0.20944153,-0.12882465,-0.10265848,-0.07603945,-0.7578854,-0.5493466,-0.493119,-0.36423787,-0.21927471,0.048751906,-0.26891845,0.00713227,-0.030567167,-0.28856927,0.61744994,-0.16701481,-0.13357331,0.12790886,0.06650337,-0.19407849,0.19438232,0.31613412,0.27735117,-0.58042103,-0.51676357,-0.49597648,0.26020434,-0.08760901,-0.15311028,0.11087475,-0.16716616,0.34626204,-0.5406999,-0.24664009,-0.19989653,-0.05669039,-0.19628143,-0.3314933,0.1565308,-0.45334572,0.31636426,0.10584889,0.39481795,0.005349684,-0.45333874,-0.036725156,-0.30227402,0.026849454,0.39843434,-0.57119435,-0.15943477,-0.31194517,0.103010505,0.47703704,-0.06934087,0.71748143,-0.4984665,-0.53794366,0.20903562,-0.022514027,-0.11035183
như,0.017129922,0.15841168,0.20313486,0.060596216,0.04369783,0.18692586,0.20895283,0.2761745,-0.2211097,0.23501353,0.02891756,0.08779097,-0.42754856,-0.3639167,-0.25088054,-0.5369221,-0.07022185,0.056355774,-0.14659278,0.22464833,0.05702834,-0.60931516,-0.11517761,-0.16402365,0.78570753,0.080451295,-0.060214538,-0.049764924,0.15952188,-0.45045137,0.29681972,0.50056654,0.22061169,-0.34029895,0.5427232,-0.33257753,0.45486057,-0.69800633,0.0014185141,0.34822965,0.0034289851,0.08638267,0.47201067,-0.17509457,-0.23334128,0.2288886,-0.15007123,-0.26215008,-0.25389892,-0.46533167,-0.08699527,0.4049628,-0.18495288,-0.039822403,-0.3190469,-0.43430904,0.10282118,-0.24986456,0.03235306,-0.19443297,-0.26259926,0.19382392,-0.26086196,0.39803734
còn,-0.27859476,-0.48391017,-0.08794154,-0.0805696,-0.15504767,0.5763509,0.1154357,-0.107835785,-0.22631405,-0.25367928,-0.05867808,-0.017509405,0.24209583,-0.19018395,-0.22077489,-0.33509594,-0.17778623,0.4561915,-0.34631637,0.50987226,0.012796896,-0.07255676,-0.2613898,-0.062074814,0.69728553,0.08826455,-0.1324093,-0.62138253,-0.19359063,-0.1462681,-0.31873235,0.31864858,-0.002293244,0.015054493,0.32755244,0.28514192,0.41321522,-0.102974735,0.11750754,-0.18540113,0.14349326,0.017472101,-0.2176776,-0.3378586,-0.35367548,-0.21910651,-0.21792586,-0.20001087,0.12245602,-0.39247692,0.09541412,0.29353282,0.15498653,-0.083478004,-0.61291236,-0.13121296,0.27639583,0.0046637724,0.4997149,-0.22146365,-0.09384159,0.17817728,0.50069904,0.13536985
tự nhiên,0.3378401,-0.15315686,0.5653446,-0.4911722,-0.17247859,0.049370978,-0.056681532,-0.061053135,0.03281744,-0.35487235,-0.3182407,-0.45858228,0.2652449,-0.34043005,-0.08202063,-0.24218045,0.04659054,0.4540332,-0.08007282,0.26575935,0.05397673,-0.18299776,0.008123215,0.12257291,0.5455601,-0.06430078,-0.19516954,0.15412724,-0.28634515,0.054863054,0.12551616,-0.19712496,0.120639026,-0.48695186,0.6692441,-0.044383213,0.449927,-0.47430652,0.4750631,0.13295293,0.17207041,0.09571292,-0.30354792,0.45243907,-0.36638615,0.093789235,0.23510371,-0.51231503,-0.11714738,-0.15709217,-0.06954124,0.43566445,-0.59563553,-0.08832067,-0.35435793,-0.089340866,0.0053184777,0.114292055,-0.011249694,-0.44408226,-0.12136252,0.24602194,0.39257032,0.06595137
nơi,-0.10485681,-0.1786085,0.5811344,-0.43805724,-0.63004667,-0.47622305,-0.48936954,-0.17543522,-0.40977523,-0.5148026,0.09971336,-0.3568655,0.006216465,-0.66170734,-0.4167984,-0.5626328,-0.17811388,0.49828646,-0.03374116,0.5055497,0.7153925,-0.066071086,-0.084880136,-0.2198636,-0.21395041,-0.107759364,-0.07927703,-0.07728743,-0.3969376,0.386653,-0.47730425,0.028351482,-0.19903965,0.39973623,-0.070433594,-0.3198093,0.35108888,0.14786226,-0.5582832,-0.04459319,-0.5993596,-0.13994353,0.35382947,0.13877338,0.17389736,-0.031088658,-0.23813573,-0.40225106,-0.07334907,-0.43168774,-0.08244697,0.09365997,-0.3050848,-0.44179472,-0.5916695,-0.2072174,-0.36650613,0.01674842,0.6139903,-0.20252919,-0.089020334,-0.12088665,-0.036597073,0.7405448
vai trò,0.15548624,-0.08863461,0.15176019,-0.40327922,0.056012344,0.5867636,-0.24346788,-0.027306788,-0.13987763,-0.2794331,-0.39401144,-0.05470966,-0.0075754523,-0.08380778,-0.24484777,0.035497233,-0.40312323,0.5302794,-0.027616052,0.385942,-0.13807635,0.12161986,0.05325868,-0.14482723,0.6340318,0.15046881,-0.15492228,-0.6687289,-0.30662522,-0.31842822,-0.2540179,0.30975428,-0.15725629,0.2591333,0.20007521,0.32020524,0.25290802,0.050972525,0.27673548,-0.16033432,-0.11195876,-0.17505452,-0.0032328,-0.42776656,-0.34031984,0.14323118,-0.46142176,-0.08427741,0.16460277,-0.11903556,0.4236916,0.0509603,-0.12156642,-0.49965253,-0.51655173,-0.3062104,0.46004984,0.15746969,0.37776405,-0.30179158,-0.18808968,0.0021730731,0.07065268,0.23955643
nổi tiếng,-0.08038842,-0.17456193,0.0024993832,0.08462714,-0.3832617,0.6212067,0.2822524,-0.044804975,-0.4250022,0.08007284,0.23289081,0.18886721,-0.12864596,-0.26604074,-0.039882995,-0.50784236,-0.07910026,0.15298297,-0.300934,0.5135451,0.22206752,-0.5186158,-0.47762594,0.058722623,1.0250542,-0.046679527,0.04720136,0.011051305,0.015955675,-0.33662033,0.06592678,0.11489127,-0.027680919,-0.3750419,0.5226973,-0.105294384,0.27858415,-0.5854483,-0.0973888,0.19267713,0.26454422,0.14407636,0.265705,0.015661089,-0.28641534,0.10157697,0.052651513,0.11293995,0.12166775,-0.2533989,0.064828984,0.81114346,-0.07793002,0.082216375,-0.36172923,-0.2015469,0.062267523,0.27763116,0.6289518,-0.2979574,-0.343679,-0.04761943,0.20057507,0.17891775
ven,-0.019081937,-0.118986756,0.41436183,-0.3109055,0.33106017,-0.058055926,0.24908608,0.08223186,-0.117295675,-0.25870323,-0.38862827,-0.15027808,-0.11956359,-0.111658946,-0.22813249,-0.06239571,-0.09547526,0.52766466,-0.16939,0.2852371,-0.036759015,-0.072057076,0.06598042,-0.23487349,0.27475378,0.12021856,-0.1084873,-0.16673362,-0.062187206,-0.27142194,0.20339191,0.2293279,0.22680499,-0.2173981,0.13580683,-0.17015232,0.35244367,-0.22272055,0.05793374,0.24339625,-0.08147254,0.054643493,-0.13060586,-0.2892486,-0.09980419,0.03268069,-0.13572688,-0.31363887,-0.28719005,-0.6494827,-0.08402124,-0.17207012,-0.3154844,-0.20470066,-0.26848614,-0.2560774,0.43556908,-0.37894398,-0.031600542,-0.259805,-0.33438775,0.15859611,-0.31333476,0.34463984
chiến lược,-0.29087585,-0.28145292,-0.20047115,-0.23902576,0.43827057,0.42637578,-0.40069026,-0.09082156,-0.5052747,-0.09339126,-0.24143125,0.047603887,0.087126836,-0.26067984,-0.35348022,0.17277038,-0.44259784,0.52225065,-0.13000701,0.22575408,-0.045247693,-0.12573582,-0.036054906,-0.21787126,0.4492207,-0.0921253,-0.41298294,-0.77992207,-0.5455547,-0.1425713,-0.1993642,0.3386971,-0.032119665,0.16948916,0.15050521,0.2338388,0.17309985,-0.09212909,0.17238218,-0.05579549,-0.24753053,-0.16471395,0.09456272,-0.29196942,-0.48021677,0.006162081,-0.29347426,-0.017353924,0.115168355,-0.3314262,0.4026976,0.015411908,-0.3278969,-0.017197758,-0.45727572,-0.4801519,0.5147333,-0.21353543,0.37368846,-0.4333071,0.0316161,-0.05851102,0.048829287,0.3547997
nằm,0.13386597,0.27510685,0.74382836,-0.47490144,-0.1704877,-0.069277704,0.120424435,0.07701317,0.28990662,-0.34458742,-0.34300065,-0.5406507,-0.18306156,-0.028911635,-0.09245722,-0.3772747,0.05424529,0.49088705,-0.022083215,0.446992,0.3307095,0.14908683,-0.01815667,-0.19516416,-0.012315745,0.03863084,0.34923947,-0.068588935,0.06693517,-0.12310443,-0.13200049,0.21968988,-0.015268053,-0.0057638916,0.10130334,-0.3018516,0.4844494,-0.046652175,-0.042435586,0.10166275,-0.2994633,0.27910355,-0.12938082,-0.30485317,0.35632822,-0.1950617,-0.30099496,-0.2861766,-0.3212046,-0.44124025,0.15696202,0.08470608,-0.14804682,-0.34687638,-0.12759514,-0.198219,0.16656123,-0.21727553,0.10054546,-0.27847642,-0.40823525,0.24099672,-0.12010815,0.43757957
trong,0.018698465,0.20090279,0.1582476,0.4030238,-0.16860999,0.2703125,-0.34694383,-0.073727146,-0.21523239,0.4397239,-0.4014323,-0.32859576,0.12006176,-0.150718,-0.08997117,-0.1775891,0.48893198,0.3094841,-0.032472823,0.20365076,0.03508362,0.05315068,-0.2345482,-0.17968889,-0.028594183,-0.14044373,-0.3732505,-0.31612757,-0.071866095,0.09964124,0.21900332,0.1507653,-0.3515112,0.035265543,0.2182275,-0.13213629,0.24255721,-0.664164,0.19002537,0.09871464,-0.35113743,0.6150192,-0.5751827,0.32139102,0.48162392,0.32217878,-0.21719974,-0.23757891,0.12785533,-0.335476,0.22431709,0.5641061,0.024653975,-0.2230549,-0.14433393,-0.487222,0.32667768,-0.47414467,0.10881279,-0.40371364,-0.031844858,0.3868791,0.21992663,-0.1658054
môi trường,0.21666428,0.29277846,0.45513526,0.0036382577,0.011466215,0.22708233,-0.043056037,0.40143126,-0.25057706,0.59661376,-0.07353977,-0.3237766,-0.073476195,-0.023103232,-0.16431145,-0.05746032,0.4908591,0.19161485,-0.046214893,0.10523498,-0.02138513,-0.36826503,-0.06965636,-0.40554714,0.439609,-0.093515895,-0.28111073,0.09392572,0.10796178,-0.11646492,0.5630462,0.24925105,0.04587807,-0.24589822,0.5367181,-0.2900776,0.27782738,-0.80754286,0.14802542,0.44882172,-0.32272246,0.41239524,-0.1565774,0.22782363,0.17001373,0.2223989,-0.16607858,-0.392054,-0.3701016,-0.48372063,0.2054518,0.67345643,-0.30215365,-0.20710577,0.008162886,-0.68209636,0.34620842,-0.61219025,-0.12536928,-0.21855265,-0.22549064,0.29478768,-0.23365292,-0.02057222
châu phi,-0.035056207,0.108313166,0.15641402,-0.30390128,0.104449324,0.34651884,-0.27098128,-0.63891876,-0.22033124,0.10834372,-0.5009332,-0.26126555,-0.10131259,-0.020257078,0.010350208,0.28748694,-0.1363343,0.28543586,-0.060082752,0.010439947,-0.105988756,0.16970195,-0.42555878,-0.052603222,0.24591523,-0.22123952,0.0090502575,-0.15969744,-0.09546898,0.10169055,-0.19565107,-0.07069901,0.15571104,-0.14490367,0.11103054,-0.3651232,-0.2374061,-0.15278068,-0.2748546,0.27392533,-0.33563945,0.19235957,-0.24306172,-0.12416461,0.42321637,-0.011863657,-0.48526344,-0.2777878,-0.30039158,-0.23046666,0.42507607,0.2343049,-0.13770773,-0.25024205,-0.20004624,-0.5545862,1.081959,0.26135272,0.2548873,-0.6804736,-0.5453409,0.20232095,-0.10704831,0.1781253
đều,0.19916803,0.1953063,0.42529935,-0.36966607,-0.045078456,0.09399197,0.04309452,-0.019072345,-0.23069933,0.32191482,0.27661598,-0.0086641405,0.4353709,-0.1260362,0.006077502,-0.38415363,-0.3537851,0.7450443,-0.18881446,0.7276715,0.58608806,0.2293011,-0.36702037,0.25449726,0.50365657,-0.3503601,0.21457359,0.36306235,-0.00753188,0.4166173,0.13975,-0.21391977,-0.2136766,0.21771076,0.125572,-0.04679313,0.35410094,0.23460159,-0.3172238,-0.15863404,-0.192825,-0.5191688,0.06250611,-0.118190475,0.50154084,-0.06744194,-0.14192256,-0.2147526,-0.124293536,-0.7991332,0.41718605,0.09000296,0.22777271,-0.1628752,-0.0053117666,-0.1433958,-0.022098666,-0.1171973,0.09865432,0.109399825,-0.09589222,0.22184134,-0.10397497,0.27823475
các,0.19118834,0.17048807,0.36333746,-0.48291302,-0.10149541,0.37815467,-0.13269672,-0.2181739,-0.36573273,0.061466344,-0.15049304,-0.16471829,0.027870689,0.19717203,0.056616645,0.49588674,-0.2650184,0.40654016,0.06914296,0.11727992,-0.050760478,0.10839742,-0.14102432,-0.08919653,0.29754433,-0.23980704,-0.07142723,0.0935865,-0.21779706,0.10486252,0.06078236,-0.06540975,0.0023231385,0.07857654,0.19650643,-0.27438536,-0.14080048,-0.12894544,-0.31470785,0.24084498,-0.30745766,-0.01579056,-0.2001889,-0.27491874,0.51806587,0.20708476,-0.31350553,-0.2749302,-0.25202972,-0.14227034,0.43184093,0.2951172,-0.13143128,-0.5361793,-0.084660776,-0.39966613,0.70820665,0.15807098,0.43316734,-0.05516532,-0.5128918,-0.15260233,-0.5098278,0.07605441
andaman,-0.09257329,-0.009322665,0.31093463,-0.3883408,-0.24507944,-0.24592425,-0.3938493,0.026322767,-0.65520597,-0.23265126,0.35577402,-0.19577084,-0.068955675,-0.5232775,-0.31104705,-0.13782223,-0.17169389,0.18398678,-0.079385154,0.62716275,0.53562963,-0.5033518,-0.3147743,-0.29581767,-0.07496021,-0.5071877,-0.064935446,0.29457384,-0.30605668,0.29130214,0.016048297,0.044274546,-0.17460784,0.08904624,0.12949388,-0.5738219,0.30444285,-0.42429334,-0.6597863,0.4415121,-0.2914241,-0.24689464,0.5816141,0.16983446,0.15560785,0.12995373,-0.069034256,-0.20714612,-0.10847535,-0.22333157,-0.06263904,0.3073573,-0.6101608,-0.21198916,-0.4002131,-0.60178936,-0.17890427,0.025405774,0.51106805,-0.117342636,0.07246964,-0.26990744,-0.3841742,0.7715728
đông,0.2701003,-0.0018019567,0.35632655,-0.5208178,-0.12762614,0.65471876,-0.43619698,0.06831815,-0.4228987,0.031941734,0.026749676,-0.16809317,-0.058301594,-0.12735142,0.25088224,0.53497565,-0.18149447,0.12892933,-0.055808946,0.06870368,0.11473664,-0.5391574,-0.20474623,-0.20235556,0.19274586,-0.5731149,0.07900522,0.53047854,-0.32835758,0.17241716,0.34687024,0.07282958,0.027601302,0.08527331,0.30672264,-0.50722396,0.20664398,-0.5946433,-0.35825324,0.48538652,-0.28295475,-0.072213225,0.10082072,-0.18572532,0.47635505,0.29211727,-0.035736836,-0.26024422,-0.28226623,-0.083586864,0.30070856,0.24720764,-0.20305896,-0.6626273,-0.25897494,-0.8043211,0.36816075,0.19234797,0.44128552,-0.050719507,-0.040845867,-0.25566557,-0.69283307,0.10166993
lanka,-0.062332686,0.17130345,0.37510523,-0.27609742,-0.3351313,-0.07248942,-0.047563825,0.093783244,-0.30833617,-0.2177338,0.5503734,-0.21691105,-0.21953109,-0.32517612,-0.29928014,-0.56883174,-0.23837577,0.21067862,0.157181,0.83272773,0.62054116,-0.19904321,-0.2074361,-0.15499067,0.45347434,-0.34209555,0.11626151,0.2202245,-0.07051088,-0.048864756,-0.13532284,0.22976717,-0.17310861,-0.12838599,0.39572212,-0.45367232,0.24914312,-0.280512,-0.58085454,0.32307968,-0.06209519,-0.31536815,0.45860305,-0.023065591,0.2603363,0.08280214,-0.21927446,-0.24387036,-0.05130603,-0.36178914,-0.12941122,0.3887778,-0.3399596,-0.04612619,-0.43660936,-0.2968049,-0.30952907,0.12446068,0.26936668,-0.1964189,-0.020698005,-0.1890011,-0.3296801,0.7214861
đời sống,-0.30107257,-0.115176484,0.33089393,-0.29784578,0.15053853,-0.05403937,0.11681455,-0.506064,-0.38383493,-0.40030402,-0.35733688,-0.4014748,0.22975507,-0.059939977,-0.06418567,0.056856465,0.17343546,0.5120614,-0.050168026,0.33619604,0.14659357,0.07942707,-0.27835616,-0.1359983,0.07320047,0.1037561,-0.3592767,-0.3398031,-0.282585,0.006488342,0.12431803,0.049479652,0.010438847,-0.27269396,0.16925669,-0.3877348,0.1316394,-0.43601215,-0.030357722,0.03603778,-0.09473015,0.26310933,-0.64638174,0.31119055,0.27311605,0.04395289,-0.1607019,-0.30504823,0.07444891,-0.57744634,-0.19886728,0.1373409,-0.4968166,0.16218568,-0.15664996,-0.20631045,0.3512858,-0.44799402,0.35599035,-0.63693964,-0.16414276,0.11362191,-0.10513789,-0.077479936
về,-0.094525926,-0.015790004,-0.104876325,-0.26509607,0.22485612,-0.016758654,-0.06400806,-0.14438011,-0.35050258,-0.1414517,-0.24948159,0.12992,0.084663294,-0.13881493,-0.34158728,-0.09707648,-0.35831186,0.643846,0.07797113,0.5556058,0.1493921,0.24549416,-0.20252438,0.08442237,0.3668605,-0.06614427,-0.3156784,-0.48937148,-0.3291356,-0.30306748,-0.21471716,0.21951716,-0.29691765,0.3291578,0.0432516,0.08646662,0.26443854,0.0003358396,0.22492306,-0.09937169,-0.18607754,-0.3540828,0.2569973,-0.26690677,-0.3729315,0.22486927,-0.35973337,0.077843726,0.28021976,-0.36867455,0.35048503,-0.0074418723,-0.2477435,-0.1413284,-0.29190442,-0.23203267,0.15595444,-0.19399887,0.56743604,-0.42526197,-0.07194713,0.004478642,-0.075103156,0.46216384
giữa,0.0033532262,-0.20220444,0.16883631,-0.3026262,-0.24701001,0.86492753,-0.49740922,-0.33245412,-0.33194855,0.16818438,-0.2656686,0.035970826,0.006941806,-0.02449775,0.026236119,0.32690495,-0.18854441,0.30830064,-0.04511979,0.26039603,-0.14858708,0.1114622,-0.48217797,-0.09602757,0.4037815,-0.27113163,0.080762506,-0.042105842,-0.18351799,0.03726283,-0.3993183,-0.1025763,-0.021990119,0.1470582,0.12955849,0.08360965,0.004151011,-0.11376727,-0.24338728,0.32089856,-0.21195877,0.11019458,-0.23331548,-0.41740108,0.46886846,0.11566702,-0.5253682,-0.12316124,-0.09531043,-0.045043565,0.31703082,0.27231196,0.3475123,-0.5790494,-0.44109356,-0.44599396,0.7832206,0.5858189,0.46570572,-0.35870782,-0.35334963,-0.14651184,-0.032995194,0.10107076
lục địa,0.7535001,-0.036579266,0.6618227,-0.50441414,-0.0785571,-0.26278707,0.29003656,-0.037561532,0.12899058,0.28169203,-0.47816738,-0.37495816,0.13010941,-0.047197398,-0.22419661,0.34685892,0.2071674,0.7463024,0.011863193,0.45611614,-0.023601027,-0.035295893,-0.041672755,-0.2969586,0.6462905,-0.14812097,0.019478654,0.5485574,0.21670969,0.20269553,0.6501276,-0.17353234,-0.32674614,0.05208163,0.2798472,-0.006664158,0.48580053,-0.018520791,-0.040858082,0.19991799,0.027659627,-0.3619019,-0.20341703,0.21971235,0.16944228,0.49001256,-0.17820494,-0.5103031,-0.38043803,-0.7279155,0.65207297,0.08260433,-0.23097718,-0.77596694,-0.29122633,-0.14275052,0.31821686,-0.33067143,-0.20196863,0.04044822,-0.36902434,0.13148288,-0.2593779,0.00090791663
ba,0.47458082,-0.27306136,0.2635318,-0.27012458,0.040326156,0.023052167,0.25846085,-0.09295022,-0.140451,0.35027137,-0.42501745,-0.15015379,0.16026734,-0.13785136,-0.28681973,0.4089812,-0.05370736,0.6156653,-0.0013181801,0.24130438,-0.21875207,-0.009126122,-0.016648563,-0.24571358,0.8456873,-0.015553103,-0.094350204,0.23056549,0.11346492,0.0883173,0.49091122,-0.045552414,-0.16436286,0.13609324,0.28033376,0.2276601,0.4910794,-0.009120475,-0.099263124,0.03926159,0.07087963,-0.3566493,-0.051445547,0.06744425,0.05186126,0.3627049,-0.18709739,-0.4930441,-0.36537346,-0.6795039,0.5877859,-0.03950545,-0.10929924,-0.5961502,-0.2750934,-0.092961356,0.34358403,-0.21012671,-0.2305113,0.16568357,-0.29496247,0.25488693,-0.11542855,-0.10040428
khí hậu,0.005584798,0.08542363,0.40224877,-0.14554612,0.02534789,-0.04949948,0.04415878,-0.5128818,-0.4001653,-0.40295404,-0.22274639,-0.44409207,0.013563775,-0.29997262,0.056713622,-0.013315453,-0.09945372,0.47801515,-0.05113888,-0.08044236,0.252689,-0.14512855,-0.13800941,0.035051532,0.13046196,0.12109148,-0.37901863,-0.3867349,-0.3732056,0.24764903,0.22606455,0.0039392756,0.040858686,-0.26430514,0.3788778,-0.5731205,0.051519044,-0.36557484,-0.049554914,-0.15948978,-0.16280589,0.16349009,-0.44444045,0.49600568,0.19187376,0.31231,0.16939612,-0.40376619,-0.021220183,-0.33487725,0.071099326,0.38246804,-0.76738435,0.0013578546,-0.17712678,0.011246407,0.1670108,-0.35567662,0.47517312,-0.48595005,-0.24211772,0.28547466,0.007789392,-0.22281621
quốc tế,0.4518977,0.24992691,0.28087026,0.22633411,-0.4225045,0.5512043,-0.4266349,0.22365244,-0.14863421,0.15221936,-0.37349197,-0.2152745,0.036282327,-0.49588305,0.017497461,-0.106755994,0.01609507,0.5282132,-0.018537095,-0.0139535805,0.114736326,-0.006210059,0.06665307,-0.08494694,-0.051016577,0.12035671,-0.32967708,-0.5504943,-0.09353708,0.18442588,0.2937765,0.26208887,-0.37157026,0.32213143,0.22481793,0.08274838,0.4965887,-0.51118183,0.21710694,-0.21088089,-0.6265984,0.3785324,-0.17940642,0.13183579,0.39313704,0.5004345,0.09396421,-0.35727105,0.012196868,-0.19752692,0.45626238,0.29614455,0.012403012,-0.7361209,-0.23560543,-0.25349915,-0.039794967,-0.5236499,0.14376293,0.025430806,0.02557858,0.41006655,0.10720641,-0.13518353
ấn,0.09959518,-0.41949376,0.32811588,-0.29199165,-0.04734677,0.2986662,0.085164264,-0.066889085,-0.16169934,-0.37178904,-0.33118278,-0.03170251,0.17389882,-0.38258225,-0.059314888,-0.3663087,-0.35879862,0.55956304,-0.2880562,0.19639184,0.044209786,-0.34542024,-0.10667189,0.27809653,0.758656,0.098303616,-0.061981045,-0.021013224,-0.362156,-0.1416469,-0.04220576,-0.124752186,0.2746496,-0.3064428,0.56827456,0.072793566,0.5469997,-0.28958285,0.44248304,0.043485504,0.16677912,-0.010531646,-0.06508387,-0.15029317,-0.6585863,0.048133582,0.2773029,-0.31532976,-0.1979729,-0.23078896,-0.05124943,0.3549152,-0.39044458,-0.1119884,-0.3900275,-0.022870537,0.1368042,0.24274518,0.40939012,-0.25245827,-0.29230213,0.31656146,0.49494112,0.1645112
vị trí,0.12865987,-0.30197692,0.34995335,-0.11064422,-0.04088061,0.06433699,-0.34217766,-0.047556587,0.11542265,-0.35009652,-0.63877064,-0.01691127,-0.18343756,-0.53249073,-0.21157317,-0.15568334,-0.069359474,0.5233077,-0.1240772,0.25016287,0.061274815,-0.18968564,-0.10850583,-0.40968975,0.019892821,0.13189344,0.03640203,-0.53162163,-0.0651116,0.17798944,-0.23312658,0.34274998,-0.29816163,0.48073912,-0.05516275,0.193667,0.8619513,-0.04376923,0.0420998,-0.18657528,-0.26658544,-0.093259804,0.16568469,-0.24558274,0.0989886,0.12713453,-0.351585,-0.3352783,-0.08680585,-0.4181093,0.33753628,-0.4021886,0.14518595,-0.6564244,-0.4822575,-0.071963415,0.033544928,-0.2914498,0.210881,-0.030842435,0.13900332,0.36422688,0.15815908,0.23261207
tuyến,0.3494373,0.23225106,0.13769796,0.21810448,-0.46237296,0.43081647,-0.18082656,-0.011998684,-0.26224956,0.1466552,-0.3025174,0.17883787,0.1286794,-0.39481467,0.008371102,-0.23997942,-0.20784938,0.7390343,-0.2527382,0.05706168,0.13451463,0.11129129,-0.16709921,0.08537576,0.13520844,0.20676368,-0.33458918,-0.47131926,-0.09866529,0.25499037,0.12433821,-0.035542134,-0.4413701,0.439293,0.038095247,0.10654387,0.25236234,-0.053877134,0.058464214,-0.31552863,-0.5984187,0.041532677,-0.038987592,-0.08896318,0.26631066,0.4720572,0.13132332,-0.10176005,0.088000864,-0.3795332,0.5235526,0.156931,0.23718952,-0.74467254,-0.32380816,-0.04641918,0.099542186,-0.3760058,0.4732612,0.08523628,-0.26876163,0.22682743,0.05749576,-0.11486152
tầm,0.04455241,-0.032385927,0.24613172,-0.16657865,0.05264187,0.24316546,-0.534768,-0.09135043,-0.16197102,-0.17222382,-0.2158468,-0.5193579,0.2095678,-0.4727224,-0.23098549,0.03739468,-0.28097337,0.48466697,0.22864005,0.1409868,0.19688244,0.15319437,0.22185376,-0.00758055,0.22922245,-0.14587249,-0.30698913,-0.54702944,-0.5568118,0.20637956,-0.098235756,0.15426627,-0.11557633,-0.008368461,0.4199388,0.19247371,0.3577232,-0.24240348,0.18470033,-0.21545424,-0.32397285,0.039133213,-0.26905718,0.33252835,0.06733977,0.08618502,-0.10346161,-0.42474687,0.09378855,-0.14580794,0.3163927,0.15482132,-0.5413907,0.030574488,-0.1332093,-0.12827088,-0.06543351,-0.25334844,-0.17696661,-0.27565384,0.27331394,0.2612659,0.34971222,0.06847693
độ dương,-0.066755645,-0.49871296,0.30782136,-0.34819105,-0.049342044,0.18987004,0.15019122,-0.124204464,-0.2208743,-0.30818692,-0.30643708,-0.112053886,0.35049075,-0.37491697,-0.08102808,-0.46489164,-0.12977268,0.6060267,-0.40021592,0.38581803,0.14111947,-0.20105515,-0.31759998,0.28567514,0.6600303,0.039047625,-0.2310893,-0.075463705,-0.35526183,-0.10219428,-0.027798997,-0.25459194,0.3312118,-0.4453544,0.53348505,-0.021594536,0.47150433,-0.477265,0.4688627,0.161395,0.22505751,0.15753847,-0.32466513,0.08624927,-0.57641697,-0.1408534,0.26408017,-0.27093297,-0.09974753,-0.44698632,-0.25334567,0.4376407,-0.54019654,0.21647368,-0.42950228,-0.012691403,0.26019856,0.16844052,0.44845515,-0.61445457,-0.384728,0.2556298,0.5915284,0.14248127
sri,-0.0663105,0.33487275,0.26766902,-0.25761816,-0.25808775,0.1546105,-0.014821622,0.1851597,-0.24363606,-0.3048326,0.34133786,-0.17042935,-0.5137326,-0.4055199,-0.2149763,-0.6937057,-0.33479124,0.0081792865,0.09578317,0.54127187,0.4840002,-0.5466114,-0.1839957,-0.14419773,0.48900726,-0.13819318,0.14380127,-0.14335637,-0.0038331815,-0.2625562,-0.15881838,0.4811474,-0.07934907,-0.22437406,0.49268368,-0.5959958,0.3591878,-0.50820124,-0.38188407,0.25582555,-0.1628762,-0.1486085,0.6844519,-0.15319413,0.07926092,0.08848043,-0.22858459,-0.19712912,-0.11397079,-0.2553,-0.05276746,0.52290696,-0.3796475,-0.11161593,-0.5425834,-0.50253874,-0.21794857,-0.00023451622,0.4145992,-0.3741092,-0.05158472,0.025224643,-0.3607148,0.72943646
địa lý,0.13256128,0.040506877,0.34646273,0.2647409,0.023722667,0.37127748,-0.22012147,-0.09659258,0.15180944,-0.047987986,-0.45519808,0.3451966,-0.22759403,-0.16678587,0.090644,-0.373084,-0.10169612,0.65156466,0.07545559,0.5439067,0.26813957,-0.13002716,-0.64192593,-0.26999363,0.14151269,-0.13415128,0.13326615,-0.33860272,-0.04389024,-0.03474262,-0.19089474,0.25255406,-0.48572254,0.37578195,-0.012064293,0.037559487,0.58872736,-0.35430306,0.17244262,0.045519423,-0.16479908,-0.18333042,0.16760083,-0.45671684,-0.020645026,0.5782569,-0.2076076,0.21405172,0.41916695,-0.3684754,0.3198746,-0.0580668,0.2871703,-0.4805619,-0.2903635,0.00044553477,-0.025224114,-0.2733423,0.72394395,-0.22542357,-0.058347795,0.10361089,0.16750138,0.26591265
những,0.17547245,-0.078862354,0.35048607,-0.011745781,-0.32233417,0.74146,-0.41899118,0.4199473,-0.23392744,-0.009976527,0.25598082,-0.116476856,0.23220555,-0.60030156,0.0901419,-0.07727012,-0.3170896,0.4127159,-0.15812886,0.20564619,0.28276387,-0.47960463,0.04001951,0.03720937,0.26293045,-0.32465625,0.12643097,0.1482371,-0.26641306,0.37712097,0.28875172,0.18512197,-0.17060782,0.19092293,0.5004723,0.1593415,0.7964705,-0.36154094,-0.24830815,-0.07293837,-0.29790214,-0.12251312,0.03943205,-0.12526137,0.53897655,0.10629722,0.21551563,-0.5098624,-0.23378927,-0.23717195,0.34254584,0.058352105,0.13971962,-0.4045029,-0.23838697,-0.20045644,-0.38594666,-0.3044037,-0.016658003,0.42857242,0.376349,0.34759694,-0.011958893,0.045532316
đặc biệt,0.43611127,0.06953969,0.4171549,-0.11691502,-0.19080804,0.46958837,-0.43613288,0.08830519,0.021845482,-0.20525539,-0.60151327,0.018046655,-0.17585126,-0.36387113,-0.11058618,0.019015722,-0.17092809,0.6524009,0.025618823,0.19830948,-0.040983938,-0.005652162,0.08179507,-0.2994149,0.09172819,0.25111374,-0.28138435,-0.71726626,-0.2221364,-0.008660609,-0.04770873,0.34306115,-0.38096806,0.5503812,0.06918227,0.22710454,0.51750124,-0.22933772,0.25714767,-0.1501938,-0.5419935,-0.016832646,0.043899886,-0.35043716,0.07076635,0.6062058,-0.22770266,-0.219731,0.13686371,-0.22928825,0.45935318,-0.18899621,0.07369817,-0.9911055,-0.51469535,-0.14240357,0.10381595,-0.3111296,0.37309203,-0.08544324,-0.09011909,0.11103472,-0.07001493,0.16777584
kinh tế,0.06312111,-0.3105505,0.2162218,-0.03973634,-0.17319393,0.3835029,-0.029677607,-0.15797204,-0.043795284,-0.2504379,-0.16266531,-0.12539673,-0.04583988,-0.45411438,-0.11883534,-0.40804192,-0.21571164,0.37745458,-0.37305412,0.13833371,0.089032374,-0.20789117,-0.07360164,0.023228576,0.4086193,0.12127999,0.09035858,-0.3852751,-0.09017385,0.049455114,-0.2080044,0.27667016,-0.010848233,0.1745079,0.1773253,0.16071378,0.52596444,0.063735425,-0.011380516,-0.27525318,-0.17291284,-0.031396832,0.031919073,-0.28029233,-0.12272034,-0.011175125,-0.16410801,-0.44410667,-0.26523405,-0.30377936,0.16997214,0.019247124,0.19371782,-0.44643563,-0.44276488,-0.04562408,-0.0131773865,0.005451471,0.19479969,0.052221533,-0.051326096,0.45907706,0.3510883,0.17780042
vẻ,-0.17785047,-0.33107853,0.53127426,-0.49256203,-0.48513034,-0.66262746,-0.6670101,-0.4485948,-0.5581874,-0.14731437,-0.113247655,-0.6421787,0.20592844,-0.52731246,-0.54430723,-0.37465113,0.039071456,0.55790603,0.24291635,0.54867774,0.7128622,0.10510101,-0.39014953,-0.39394203,-0.29157865,-0.37138078,-0.045796648,0.12681545,-0.42299536,0.5206713,-0.45813015,-0.1324494,-0.13854429,0.34035853,-0.16151011,-0.42794046,0.34000492,-0.05239275,-0.56451166,0.2400549,-0.75977474,-0.08487329,0.4002361,0.5573106,0.15990883,-0.1947639,-0.29284325,-0.4090931,-0.090110585,-0.6124035,0.096794665,0.31271762,-0.6846053,-0.099320196,-0.28246084,-0.59397525,-0.05172837,0.102235496,0.565984,-0.57311136,-0.11949815,-0.22635052,0.020833954,0.80318075
phía,-0.015615394,-0.27978364,0.22484158,-0.17471534,-0.093362786,0.57290274,-0.50510204,0.18825534,-0.4722132,-0.15517004,0.09065799,-0.0050077746,0.07449964,-0.49119908,0.12862708,0.319412,-0.23838891,0.2115849,-0.34860283,0.12856184,0.16463956,-0.84196454,-0.18799447,-0.055895746,0.078580424,-0.49359468,-0.009576653,0.40180203,-0.44117624,0.19915652,0.3179901,0.025744652,-0.034530155,0.020622572,0.36533806,-0.28749025,0.5577193,-0.64966047,-0.33765504,0.35537964,-0.121937975,-0.016288053,0.06355495,-0.21596259,0.2902601,0.26489428,0.2740211,-0.33974302,-0.25777835,-0.04048474,-0.0055767503,-0.0022309204,-0.113983765,-0.41059902,-0.46409246,-0.49513966,0.027544802,0.040694073,0.3976798,0.14693469,0.25839338,-0.040082436,-0.33716142,0.14430371
văn hóa,0.49591,-0.21534346,-0.26320928,-0.35386935,-0.25981766,0.14668992,0.07172555,-0.21087973,-0.19834322,0.20404352,-0.2284611,-0.30492306,0.18710159,-0.4595636,-0.025886757,0.3310819,-0.07156916,0.23160201,0.084984824,-0.0971242,0.07187346,-0.23481561,0.01566684,-0.06511109,0.1701995,-0.2190848,-0.22953244,-0.03778643,-0.11109586,0.38787338,0.45870867,-0.07312218,-0.5121058,0.28599033,0.16856481,-0.017585784,0.34244063,-0.14411116,-0.21598649,-0.20941551,-0.2383766,-0.2722708,0.23835917,0.6569095,0.011877971,0.16970482,0.10733436,-0.30743992,-0.19571787,-0.2885723,0.7846869,0.24926205,-0.5539428,-0.5419049,-0.3505396,-0.33768627,0.081438325,-0.13928941,0.0055781584,-0.16073139,0.028728386,0.27320874,-0.0054537817,-0.111096695
kết nối,0.7227506,-0.20534292,0.5586711,-0.47546333,-0.0705498,-0.037374653,0.21471773,-0.186716,-0.033225305,0.20396192,-0.43197665,-0.35262403,0.11305858,-0.05032834,-0.25716028,0.4716776,-0.1198167,0.812241,0.18426572,0.36716136,-0.04153237,0.026942985,0.12313433,-0.20886536,0.71768826,-0.073570885,-0.034743145,0.23287685,-0.09736901,0.1643814,0.56862295,-0.08978356,-0.31947175,0.20393261,0.28014496,0.15603834,0.47196132,0.12873422,-0.086762235,0.03065,0.011796947,-0.43867666,-0.19680655,0.0163995,0.1895152,0.5083903,-0.18092889,-0.53990144,-0.40941256,-0.56918955,0.76118594,0.017982015,-0.30230325,-0.8466685,-0.3193099,0.04956454,0.39463452,-0.14306454,-0.050769843,0.13901654,-0.41806158,0.096046336,-0.09726856,-0.012300961
thiên nhiên,-0.16866866,-0.19497073,0.41379207,-0.4179391,-0.36468345,-0.5527285,-0.64109236,-0.434224,-0.53313833,0.028930187,-0.16959098,-0.5595224,0.14345387,-0.44711563,-0.45447508,-0.22078583,0.025958972,0.44997755,0.23089848,0.3881821,0.5851109,0.026972694,-0.4172796,-0.4480469,-0.2928434,-0.37107673,-0.010822717,0.020558888,-0.3772162,0.47142804,-0.37001368,-0.15728894,-0.1452157,0.31950396,-0.22745454,-0.45495957,0.19621536,-0.030263936,-0.5600175,0.27721557,-0.7246169,0.00081788615,0.4625541,0.47866064,0.1006824,-0.23878576,-0.30553454,-0.26091638,-0.17915213,-0.44641542,0.19916497,0.34819642,-0.7041566,-0.1209587,-0.1456502,-0.7114617,0.19666491,0.12712891,0.5175604,-0.5872963,-0.24827343,-0.23774666,0.05569351,0.7666815
không chỉ,0.07715952,0.1828266,0.33090705,0.05873237,0.27454832,0.20823184,-0.013578132,-0.20555538,0.0028692798,-0.20469488,-0.05222663,-0.40414864,0.021614077,-0.38478094,0.15393616,-0.26342094,-0.5474969,0.5772206,-0.1977897,0.07162101,0.4233706,-0.15719506,-0.113573514,0.16440642,0.36575735,-0.06796953,0.28960907,-0.25584266,-0.20028017,0.39477795,0.09801398,0.22123514,-0.015331282,0.06783969,0.3786197,-0.227458,0.49343213,0.11557445,-0.1508031,-0.48741695,-0.16754264,-0.37091964,-0.08804705,-0.14840429,0.15767792,-0.034905024,0.16821912,-0.46736434,-0.34498975,-0.3068495,0.5981687,0.21861917,-0.2856437,-0.18181114,-0.110034786,-0.0075766654,-0.039058615,-0.52040505,0.13471963,0.10748834,0.16840582,0.61575466,0.32339832,-0.018252896
hợp tác,0.17309758,0.06662872,0.3389405,0.3705986,-0.053557903,0.3024414,-0.5322019,-0.017688468,-0.112257026,0.18536417,-0.51939565,-0.6404107,0.077054046,-0.36691102,-0.15597178,-0.041643575,0.2678324,0.49521282,0.042057797,0.07964978,0.17823526,0.047741808,-0.025645655,-0.2158861,-0.022459555,-0.035193797,-0.2103145,-0.62828237,-0.23810054,0.3369767,0.13374119,0.25395983,-0.29575333,0.1275576,0.28467593,0.076910615,0.5513638,-0.4353835,0.31271014,-0.104198806,-0.5221592,0.4804221,-0.625505,0.31438342,0.422411,0.21547215,-0.039907597,-0.5211862,-0.007415068,-0.27157238,0.4286231,0.35359952,-0.19615905,-0.26291013,-0.13707526,-0.3150521,0.17691498,-0.5963572,-0.07835361,-0.26697657,0.13869005,0.6175993,0.55609965,-0.19064654
việc,0.19079694,0.32396317,0.30150688,0.55139923,0.031978007,0.43645942,-0.45435792,0.22971989,-0.15525413,0.6284506,-0.45334777,-0.386479,0.005312845,-0.31911662,-0.050569024,-0.11210571,0.45475325,0.3533247,-0.16514944,0.07412943,0.008642711,-0.16907024,-0.113341205,-0.1766595,0.105068326,-0.120306075,-0.32128033,-0.44138974,-0.052079294,0.07535843,0.4449055,0.3025232,-0.17622839,-0.040314928,0.3602301,-0.057337895,0.49931908,-0.7845856,0.38343585,0.19991295,-0.5121605,0.63388366,-0.55661285,0.18212858,0.3774386,0.36385188,-0.123118654,-0.43530264,-0.10371551,-0.34014505,0.37805375,0.58413625,-0.13386986,-0.27974024,-0.04585209,-0.6512676,0.45370758,-0.7661785,-0.16584863,-0.32540038,0.005495387,0.5891478,0.26082188,-0.14605367
70,-0.41413802,-0.8080179,-0.34127364,-0.028493144,-0.20669225,0.8510189,-0.41821456,-0.21987298,-0.768759,0.6225734,-0.48691365,0.29960313,-0.0783533,-0.53786814,-0.5109636,0.0017868363,-0.034668144,0.47579703,-0.42647573,0.27248508,-0.46117258,-0.06280814,-0.85721725,-0.3708411,1.0166808,0.0067667053,-0.19057858,-0.1735297,0.08479406,-0.27440807,-0.34750736,-0.091019005,0.22361663,0.030630153,0.3110205,0.45055157,0.4654296,-0.56139916,-0.34982088,0.62721246,-0.19917932,0.39149103,0.13630097,-0.17036848,-0.07582113,-0.03755114,-0.5706266,-0.118546985,-0.3099535,-0.93853664,0.0850687,0.33822894,0.32274908,-0.23996332,-0.56439996,-0.7950724,0.9293242,0.6007473,0.19215909,-0.7096659,-0.5463205,0.09999671,0.22018611,0.23986612
khoảng,-0.2118791,-0.78470033,-0.19017908,0.00789855,-0.34899983,0.7636998,-0.26919317,-0.10727363,-0.58334595,0.38728422,-0.46158284,0.2547273,-0.07735413,-0.544603,-0.38342807,0.04890188,0.015780455,0.35885215,-0.3785033,0.11543437,-0.52772,-0.210741,-0.5529141,-0.3343362,0.8734648,0.11917179,-0.12806721,-0.029343149,0.17220524,-0.20415194,-0.1685317,-0.0213852,0.2726062,-0.054061413,0.34890857,0.44381106,0.5864467,-0.6087261,-0.16885003,0.5481687,-0.039435256,0.35764545,0.083791815,-0.07892348,-0.05503686,0.09152695,-0.30412057,-0.2777306,-0.35426515,-0.7165447,-0.09231306,0.23811866,0.36011797,-0.342493,-0.46234235,-0.54456764,0.5487331,0.50339913,0.0037661465,-0.34616572,-0.3620429,0.12656412,0.13357997,0.03213276
hiện tượng,0.011986634,-0.35473868,0.50805086,-0.42773178,-0.07051483,0.0256688,-0.15912607,-0.26345542,-0.23059131,-0.5603483,-0.34066838,-0.30751672,0.19520546,-0.524804,-0.17879187,-0.4462458,-0.3628491,0.5960832,-0.15781146,0.29507175,0.20604835,-0.18432902,-0.13583933,0.22786896,0.53048736,0.039788034,-0.20577359,-0.22802012,-0.54248565,-0.0073097586,-0.21944258,-0.1330857,0.3687067,-0.42451477,0.56661123,-0.11174585,0.4298014,-0.36405802,0.41404653,0.08926138,0.060825046,0.054177098,-0.09817802,0.08374295,-0.63005054,-0.03146547,0.24905497,-0.43622494,-0.15634498,-0.1606367,-0.21956925,0.41137823,-0.73172945,0.072306275,-0.4497394,-0.0024553195,0.12530069,0.28220403,0.41547146,-0.5588263,-0.29847625,0.21205263,0.5934008,0.3894249
đặc trưng,0.07439662,-0.16844103,0.40499026,-0.3046975,-0.09882344,0.072206296,0.026583796,-0.31528953,-0.35446677,-0.48034778,-0.41948557,-0.37061048,0.20824356,-0.47399542,-0.11787086,-0.43921834,-0.32164007,0.62011063,-0.10628683,0.15366437,0.17215002,-0.08263542,-0.11401285,0.34300634,0.70424414,0.20061903,-0.457825,-0.50102097,-0.48342896,-0.109434426,-0.01398805,-0.10235668,0.2425614,-0.5032912,0.68643767,-0.2548566,0.25929874,-0.5225726,0.47486266,-0.0674701,0.030414691,0.24439926,-0.34966612,0.37896603,-0.5204992,0.14936346,0.24620515,-0.42320296,0.023027059,-0.24650729,-0.11185159,0.69548434,-0.8755252,0.16447483,-0.39966917,0.061308112,0.20020333,0.05727141,0.4776094,-0.696908,-0.447048,0.36453035,0.5632955,0.11688306
bảo vệ,0.36058944,0.22764112,0.08307614,0.30281863,-0.081149384,0.44200593,-0.25251815,0.31538466,-0.26846242,0.71645284,-0.35736924,-0.29751772,0.04217816,-0.2913522,-0.01612804,0.092253484,0.35192132,0.3172976,-0.08600382,-0.075613886,-0.026998123,-0.20517349,-0.0675066,-0.21075597,0.082945205,-0.1936903,-0.33816412,-0.1594032,0.14395384,0.14784501,0.5884573,0.14662065,-0.1958797,0.0983029,0.34998208,-0.06749344,0.43734106,-0.7303626,0.20641036,0.21178597,-0.5574167,0.41964403,-0.24247283,0.2673531,0.4086276,0.32454222,0.023643274,-0.3764767,-0.20145147,-0.40724224,0.5383909,0.53889155,-0.20086975,-0.4495775,-0.07491922,-0.72552454,0.3666654,-0.62769747,-0.1755425,-0.17246,0.025440596,0.41910598,-0.020127043,-0.19122049
thách thức,-0.13911068,-0.18033785,-0.047078803,0.14612852,0.07335911,0.07036013,0.26921514,0.27397156,-0.4524656,0.71262795,0.042633772,0.18438922,0.07016763,-0.1430388,-0.31503388,-0.47357923,0.22736081,0.3145833,-0.31939757,0.1391283,-0.004462948,-0.2484059,-0.32561558,-0.16743027,0.6601965,0.03223016,-0.35456076,-0.07338317,0.22672713,-0.19844641,0.2213257,0.06970934,0.05259839,-0.11630512,0.27851906,-0.08139661,0.2105981,-0.41644394,-0.10264497,0.18937115,-0.23719259,0.12842695,0.191683,0.111880556,-0.22606826,-0.1241996,-0.20129097,-0.06460694,-0.30000025,-0.94066066,0.11642765,0.46619573,-0.14761578,0.22199258,-0.13724768,-0.4347569,0.33016077,-0.42436782,0.05636933,-0.28108332,-0.35133198,0.30818346,0.09916229,0.16167547
hiện diện,-0.06419981,-0.1589747,0.14150012,-0.038144078,-0.39837578,0.5751263,0.13069627,-0.07260496,-0.37104204,0.53221375,0.084352605,0.25106162,0.51606375,-0.121730894,0.025331916,-0.7024329,-0.06318993,0.98278147,-0.43903124,1.0117836,0.73213005,0.09910289,-0.9768463,0.17492257,0.68915254,-0.27528,0.20275679,0.12707925,-0.01209511,0.35833767,-0.046661366,-0.48718974,-0.5683119,0.30441108,0.1446879,0.15549853,0.50746197,0.08874106,-0.20677468,-0.05131207,-0.12531312,-0.29464155,-0.18538137,-0.10148215,0.37441373,-0.034377243,0.006415906,0.31983468,0.20254871,-1.0570711,0.5192929,0.42021972,0.41477454,-0.17010659,-0.3237898,-0.062362988,0.15490343,-0.16978921,0.78035426,-0.3994986,-0.4090705,-0.018827347,0.49685165,0.08754242
đã,0.11006799,-0.43669105,0.58962065,-0.3121434,-0.6229655,-0.2654738,-0.37058818,-0.20336571,-0.3124368,-0.26318797,-0.087881304,-0.25806627,0.17350818,-0.5238885,-0.36999393,-0.21399581,-0.07548373,0.5134239,-0.21193077,0.31363213,0.30679893,-0.09865512,0.036594097,-0.17411749,-0.040236697,0.033371814,-0.0618753,0.05431407,-0.27942446,0.47858128,-0.24947795,-0.08639082,-0.200893,0.41405958,-0.0164429,0.12707973,0.44989818,0.26296288,-0.41615567,-0.113147415,-0.32584456,-0.10926385,0.055724222,0.084247194,0.24166189,0.10905365,-0.24415408,-0.55718374,-0.25678074,-0.34946758,-0.08376209,-0.091891326,0.116411515,-0.5872724,-0.58007586,0.0638536,-0.2648414,0.11592017,0.35072148,0.26494887,-0.14512825,-0.014094732,0.14130127,0.30534434
châu úc,-0.08089279,0.19377345,0.07926874,0.052979387,0.32771972,0.29256505,-0.5797273,-0.7574523,-0.2521878,0.11683004,-0.5067139,-0.18593255,-0.3750334,-0.24435048,0.05836304,0.10451977,-0.30465877,0.112439536,-0.157305,-0.011808484,0.0031880673,-0.14877217,-0.5150945,-0.06982175,0.08189241,-0.3837422,0.17140295,-0.2417278,-0.08317943,0.26626313,-0.17934006,0.09628014,0.017970782,-0.14714168,0.04168948,-0.54439795,-0.15737079,-0.22272938,-0.37915435,0.29096904,-0.3167813,0.1086435,0.050173122,-0.22301215,0.3620612,0.0050232457,-0.41878858,-0.33933833,-0.35656136,-0.07461294,0.500586,0.14752471,-0.15908273,-0.32024148,-0.15454072,-0.7229702,1.0706298,0.41660446,0.19207668,-0.7010202,-0.30138633,0.40475607,-0.010218032,0.33733
điều kiện,0.25797242,0.1778598,0.1888145,-0.49799812,-0.0031861053,0.16850953,-0.19729151,-0.37918445,0.057377443,-0.04089289,-0.20521443,-0.49901855,0.1305458,-0.27472162,0.30293316,-0.008154414,0.25441217,0.116553634,-0.060222514,-0.15743431,0.25590163,-0.33333483,-0.17060427,-0.18496591,0.10558856,-0.52238303,-0.12565961,0.432768,-0.1462343,0.46329197,0.21357915,0.0045658797,-0.19958673,-0.2696084,0.50281554,-0.6433221,-0.06913091,-0.608436,-0.07478829,0.12713256,-0.29419392,-0.05835138,-0.059225503,0.6667056,0.24020565,0.079271026,0.06005484,-0.45044154,-0.22126566,-0.44251963,0.4682727,0.38528875,-0.5394695,-0.25545058,-0.34588215,-0.816474,0.18534651,-0.10116856,0.07530741,-0.6577101,0.15004884,0.22486886,-0.3906655,-0.07430838
đa dạng sinh học,-0.15482908,0.008354857,0.284772,-0.44089162,0.03507162,-0.053702366,0.104110725,-0.4132784,-0.36146966,-0.50959116,-0.15902698,-0.52589554,0.15873995,-0.23573509,-0.024573704,0.03375013,-0.15194027,0.450351,-0.01810238,0.1400446,0.29614025,0.09019523,-0.09845255,0.053209554,0.1542421,0.020779701,-0.25522867,-0.34000406,-0.30789867,0.10337299,0.11658442,0.028937798,0.039643295,-0.24649459,0.2972635,-0.42783046,0.14567493,-0.27283248,-0.115630314,-0.11460451,-0.06595207,0.054688144,-0.40638483,0.45390773,0.21431248,0.012672579,0.05602589,-0.3588349,0.036583386,-0.3849081,0.056529034,0.22035968,-0.7930327,0.16867732,-0.18359701,-0.095780805,0.0771671,-0.26690578,0.31432942,-0.52092206,-0.105541706,0.12820525,-0.082141966,-0.06469806
đây,-0.24972567,-0.024174154,-0.00016625074,0.22205588,-0.3688001,0.7628174,0.07625608,-0.15577984,-0.294963,0.31319198,0.09492965,0.14861354,0.33932078,-0.09277536,0.03779407,-0.6521591,0.03134677,0.73980343,-0.38378048,0.9289816,0.58561486,-0.04931255,-0.9599328,0.18333554,0.7735192,-0.19689666,0.07332967,-0.14981581,-0.07143318,0.13116762,-0.13428253,-0.31554523,-0.5962994,-0.024527317,0.32533655,0.1156161,0.33223453,-0.1827915,-0.13519672,0.009390727,-0.002399716,0.013530311,-0.4367037,-0.071759306,0.36675593,0.04379582,-0.025223758,0.33888015,0.3986378,-0.72389764,0.34927064,0.5941763,0.3025897,0.037527304,-0.40243217,-0.05049701,0.24486403,-0.15703465,0.7919481,-0.61672086,-0.3214365,0.042459987,0.53753096,-0.06719254
trái tim,0.7205288,-0.21566817,0.42431048,-0.40698785,-0.14010073,-0.0208992,0.2030539,-0.1679037,0.0062698596,0.27283087,-0.44500625,-0.37281767,0.12613675,-0.18436867,-0.1964691,0.45173055,-0.041538067,0.7128228,0.103679545,0.35816485,-0.03539929,-0.016475605,0.10027257,-0.1668642,0.67524594,-0.15519875,-0.0014996137,0.3715541,0.04406659,0.26813293,0.5905982,-0.18109493,-0.3968204,0.21724176,0.29201356,0.15088192,0.4905986,0.118043415,-0.23466659,0.029570106,0.011217021,-0.4867554,-0.1198404,0.090817735,0.31993338,0.48892435,-0.14857514,-0.6037156,-0.47090545,-0.56858504,0.8293128,-0.030662958,-0.1948082,-0.9351382,-0.4218804,-0.032677006,0.36231166,-0.12457174,-0.19456743,0.1822158,-0.3634743,0.20640197,-0.10455649,-0.022267979
ả rập,0.025239153,-0.3436917,0.34638497,-0.3005729,-0.1744724,0.63327587,-0.5245047,0.3147506,-0.58767474,-0.03455437,0.049359035,-0.04807015,0.1030712,-0.41813403,0.11055732,0.51478356,-0.27771574,0.37551972,-0.23539531,-0.012073628,0.012201983,-0.67455006,-0.024302473,-0.24200748,0.024552219,-0.3312692,0.0069866353,0.31236106,-0.41653284,0.23420982,0.28818768,0.08584276,0.09042311,0.27787155,0.3196672,-0.1034077,0.5796761,-0.46230206,-0.46156004,0.3424539,-0.382788,-0.005112768,-0.018033741,-0.2888478,0.47736254,0.18735799,0.17921919,-0.4355766,-0.41971126,-0.17840515,0.074426025,-0.105700515,-0.078995556,-0.6073435,-0.33118248,-0.47867727,0.097813874,-0.089116946,0.31553042,0.33838746,0.107529394,-0.12568305,-0.4490619,0.084607586
hệ thống,-0.13556206,-0.2647935,0.03540295,0.2667257,-0.26049018,0.7575305,-0.06904219,0.18777329,-0.21305127,0.07112265,0.034721594,-0.123743355,0.43661827,-0.47939497,0.12704676,-0.16928922,-0.3505897,0.68330777,-0.33996287,0.22998472,0.27295306,-0.37403786,-0.2624236,0.11539561,0.6362999,-0.092932075,0.07707042,-0.18034898,-0.25014776,0.32980284,0.13112879,0.049957294,-0.32686827,0.14131768,0.6163793,0.27927426,0.7640553,-0.1373837,-0.17761216,-0.3348008,-0.16752583,-0.14546023,-0.29759318,-0.024193613,0.23467797,-0.048772905,0.44115293,-0.25888804,-0.121462956,-0.42164028,0.53729725,0.33640683,0.09100123,-0.046104234,-0.37358892,0.059886694,-0.25203714,-0.5327819,0.30833095,0.17968582,0.25264955,0.4479377,0.5453906,-0.24713296
cảng,0.1362494,0.22313866,0.4393886,-0.5059249,-0.046502464,-0.047833674,0.021890199,-0.17895417,-0.21401845,0.1351605,-0.2163604,-0.37266967,0.11256179,0.18141508,-0.114896655,0.107008666,-0.044439703,0.42584023,0.11736214,0.34640822,0.14985162,0.48808315,-0.20960823,-0.0931629,0.055371977,-0.117547736,0.13682292,0.022807363,0.17419781,0.01233473,-0.081567235,-0.037846938,0.13163914,0.02482383,-0.07144238,-0.29107118,0.023937462,0.026502317,-0.18651468,0.27159905,-0.40824294,0.1256728,-0.14850523,-0.108647525,0.4817669,-0.21630394,-0.3907958,-0.26019627,-0.27321082,-0.42700452,0.32040995,0.2715879,-0.18059388,-0.18262896,0.186821,-0.43862134,0.6321091,0.026863232,0.10564026,-0.34103078,-0.49991214,0.05882698,-0.27968183,0.37223175
hàng hải,0.1437838,-0.20564088,-0.5270018,-0.33079112,-0.13845956,-0.056379396,0.1555109,-0.12493984,-0.56233984,0.23742864,-0.06646761,-0.32736894,0.11034602,-0.6677003,-0.09398825,0.12443626,-0.29926467,0.18701388,-0.06837877,-0.059905585,0.350867,-0.37348226,-0.2522597,-0.009571408,0.21595672,-0.28040907,-0.21526244,-0.11618408,-0.04585413,0.3595501,0.4300908,-0.20173621,-0.38922614,0.19725274,0.27977088,-0.29898766,0.3546621,-0.13942882,-0.4284858,-0.15051962,-0.30308342,-0.2785262,0.6271044,0.8562882,-0.116521366,-0.30104592,0.2661158,-0.11686347,-0.26951295,-0.41798067,0.9042696,0.67803884,-1.07111,-0.023314033,-0.22067036,-0.67584634,0.15041515,-0.2628892,0.1482201,-0.5223685,0.02621226,0.2843748,0.121237986,0.036950655
thuộc,-0.007882633,-0.3412909,0.18458925,0.12780942,-0.40213308,0.8554728,-0.26897016,0.37107036,-0.33450273,0.038827788,0.10974995,-0.14229482,0.45811027,-0.6322503,0.11084036,-0.08077728,-0.43485084,0.65822583,-0.32961223,0.2440729,0.26230896,-0.5376394,-0.089546844,0.13304068,0.5380276,-0.17530777,0.0860599,0.0195515,-0.3359462,0.38384208,0.15949216,0.044506624,-0.24749538,0.2024782,0.6483872,0.35581115,0.9246862,-0.23527466,-0.2377031,-0.17527124,-0.21246426,-0.19010948,-0.24348961,-0.06525632,0.26294634,-0.07092279,0.48618007,-0.42896158,-0.23665671,-0.31378454,0.40526104,0.23500435,0.07566233,-0.2314666,-0.41765204,-0.034411408,-0.34723428,-0.38600078,0.1840599,0.36548004,0.3224592,0.37486926,0.4328473,-0.10980381
gió mùa,-0.12528774,-0.5783065,0.34156325,-0.20746721,-0.08627391,0.34610507,0.18284145,-0.027383087,-0.23467058,-0.41806793,-0.291396,-0.07632736,0.12776634,-0.47248235,-0.25156215,-0.6945253,-0.24784023,0.53225344,-0.4452402,0.49898398,0.06358438,-0.32293743,-0.29082948,0.16185543,0.96395004,0.13374838,-0.11527984,-0.3287548,-0.21312967,-0.30349687,-0.23522459,0.020406753,0.421885,-0.4546929,0.612453,0.109012924,0.6821056,-0.41036212,0.36914265,0.16587773,0.24444245,0.21124442,-0.16699715,-0.13958535,-0.6786585,-0.21064624,0.0316511,-0.34729964,-0.19051567,-0.50193954,-0.3298671,0.47493988,-0.28320462,0.1631954,-0.5239284,0.0061296346,0.2370369,0.2901347,0.40716577,-0.47946578,-0.38617444,0.35244983,0.708064,0.35784483
hệ sinh thái,-0.11530445,-0.09934259,0.30027312,-0.48076504,-0.15334064,-0.51316684,-0.32506734,-0.030559076,-0.55349046,0.012475418,-0.0023833131,-0.46432012,0.115915984,-0.3597931,-0.5140005,-0.0752735,0.2266218,0.30364528,0.103594676,0.54624885,0.36939955,-0.07430899,-0.27191824,-0.55341303,-0.2115389,-0.32231003,-0.13307303,0.11531555,-0.10954004,0.20371708,-0.052751467,-0.0429172,0.0057643997,0.05052989,-0.008023103,-0.33317086,0.3406268,-0.29509997,-0.49219906,0.5760914,-0.49400273,0.08691599,0.3677328,0.41858697,0.08921617,-0.20404135,-0.25333598,-0.23811917,-0.2797083,-0.53461176,-0.07304976,0.31711233,-0.74288493,0.046299797,-0.15773457,-0.77864873,0.18288657,-0.120738134,0.1006327,-0.41915843,-0.17494945,-0.1886596,-0.24528815,0.7756228
mỗi,-0.28538793,-0.20893373,0.3712784,-0.2721487,-0.4584116,-0.40685537,-0.602234,-0.34438038,-0.6201503,-0.13662528,0.21729721,-0.30051303,0.16428421,-0.5165993,-0.26738042,-0.3295851,-0.017131988,0.33944908,0.010733419,0.5359925,0.70139974,-0.23293482,-0.4955482,-0.2754616,-0.22874637,-0.4982585,-0.031019935,0.26681608,-0.4340768,0.5174498,-0.32043532,-0.1912574,-0.20180085,0.17256328,-0.06217064,-0.5530313,0.13941468,-0.21519637,-0.6685891,0.3429128,-0.50365174,-0.09323106,0.36534533,0.39443058,0.26868185,-0.0003725376,-0.12027759,-0.20241624,-0.013056934,-0.3378364,-0.103938386,0.34335685,-0.50134516,-0.08453331,-0.3924645,-0.48907173,-0.10972939,0.1639521,0.7523703,-0.39114383,-0.05422958,-0.32548258,-0.03380844,0.66247606
quốc gia,0.096608065,0.12738512,0.10327776,-0.15906046,-0.0054428377,0.13414295,0.27003065,-0.027813273,-0.41298294,0.4196911,0.11571783,0.1191822,0.25497997,-0.117964916,-0.23494077,-0.5399853,-0.5303073,0.9245988,-0.07018657,0.5766212,0.50929636,0.33805698,-0.27321547,0.2970235,0.79186076,-0.026998993,0.20076838,-0.05462545,0.0024240094,0.012691313,0.14201485,0.067251235,-0.20555387,0.33045438,0.05450341,0.009616346,0.40670004,0.33293584,-0.24371526,-0.35510504,-0.32678628,-0.5624787,0.413529,-0.21354003,0.12376167,0.03945087,-0.2578108,-0.033224843,-0.113867015,-0.88568324,0.70808154,0.1687754,-0.0037190826,-0.073284924,0.09409738,-0.19767943,-0.0077203023,-0.31679472,0.26295888,0.14895087,-0.33196804,0.23312087,0.0012492315,0.42434233
đa dạng,-0.10104792,-0.1697888,0.2420756,-0.35801047,-0.23129736,-0.47765982,-0.23451042,0.1397441,-0.58233196,0.2007876,0.111207284,-0.3209126,0.26393646,-0.292647,-0.55835265,-0.080226354,0.23038976,0.27541217,0.06858731,0.67640406,0.33888543,-0.12226784,-0.26204404,-0.53524595,-0.11249585,-0.3788833,-0.23056874,0.28532034,0.0074257897,0.17613322,0.116828114,-0.074332856,-0.10970598,0.07992664,-0.040933516,-0.19071549,0.36374962,-0.33810237,-0.50156546,0.5569469,-0.33760288,-0.03801952,0.3575182,0.46805403,0.078104794,-0.20095223,-0.22562753,-0.18745686,-0.175034,-0.58650404,-0.040990084,0.32729355,-0.5756855,0.012127999,-0.049427666,-0.7367403,0.07895962,-0.18716611,0.078731656,-0.26941806,-0.031240439,-0.235737,-0.28284222,0.68843275
bao phủ,-0.28611124,-0.37043953,-0.18963504,-0.1256754,-0.15334019,0.8964175,-0.43794388,-0.42235312,-0.4680982,0.3573355,-0.48334023,0.11371468,-0.033163548,-0.17332837,-0.1340444,0.20726174,-0.119654246,0.38921216,-0.21635848,0.19681281,-0.29276708,0.10865123,-0.73451,-0.12181893,0.60657555,-0.12350657,-0.053975556,-0.21914208,-0.06450419,-0.07008897,-0.42910185,-0.16743714,0.05806702,0.027878337,0.23072252,0.2181087,0.03830998,-0.3734387,-0.26341352,0.4427251,-0.21678703,0.38391575,-0.25963628,-0.19133429,0.20634,-0.006887295,-0.47601852,-0.09259107,-0.16276403,-0.41447544,0.21329741,0.3724407,0.21849436,-0.27259466,-0.3837234,-0.58174664,0.9596124,0.5912305,0.37887716,-0.75976115,-0.56103253,0.072181165,0.20453434,0.028310718
tại,-0.23020379,-0.1734786,0.08518726,0.061087944,-0.29630092,0.6302711,-0.08117841,-0.29796037,-0.21548787,0.36605626,-0.116929844,0.23396964,0.3004098,-0.020021357,0.030696053,-0.5645588,0.049327675,0.7970299,-0.35131863,0.9625016,0.52839845,0.1896376,-1.0966326,0.0615265,0.56897503,-0.25504535,0.21401806,-0.037454266,-0.032668382,0.23107179,-0.2971757,-0.40497512,-0.521546,0.18264754,0.037939593,0.18726821,0.35748217,-0.063135445,-0.12439008,0.13653867,-0.018740444,-0.07346473,-0.34455746,-0.1924466,0.38389853,-0.0033493654,-0.2033618,0.38892972,0.3753212,-0.8159273,0.3123186,0.2933011,0.45434874,-0.14164945,-0.37275708,-0.08936553,0.33946398,0.09299216,0.75810426,-0.6927474,-0.3926985,-0.09524662,0.53443587,0.05334824
minh chứng,0.5977471,0.14191829,0.76581764,-0.35195488,-0.01662914,-0.26241633,0.1533669,0.1679245,0.21448085,0.12885791,-0.4496296,-0.5043044,0.15550815,-0.105195455,-0.19317077,0.052088007,0.35580721,0.7322006,-0.056062575,0.53952205,-0.04937135,0.10979719,-0.024442855,-0.26273307,0.6872058,-0.0043983897,0.013368553,0.36997747,0.20763338,0.010977059,0.5416575,-0.045653358,-0.061960652,-0.20608658,0.39134333,0.014730039,0.5976109,-0.23967296,0.29204428,0.22394127,0.14053431,-0.031282667,-0.37902105,0.21443239,0.09292255,0.31733552,-0.12517354,-0.62273115,-0.36027542,-0.5840524,0.34699827,0.25035056,-0.27397007,-0.45427498,-0.10256514,-0.19720864,0.28558436,-0.4681368,-0.40182406,-0.080185026,-0.22202331,0.28180805,-0.0252046,-0.032434687
tạo,0.35841152,0.25486624,0.3661223,-0.61110944,-0.034650788,0.1977405,-0.25769147,-0.3569556,0.09263619,-0.06770617,-0.28795347,-0.5490136,0.07621746,-0.19551933,0.33456406,0.20480265,0.21559821,0.16179495,0.016757244,-0.06810604,0.2079854,-0.32317674,-0.22008447,-0.1610099,0.04681739,-0.58666867,0.062010184,0.5483124,-0.20284975,0.49497584,0.28141055,-0.13616922,-0.20783712,-0.1842263,0.40612277,-0.71375865,0.048267998,-0.5812346,-0.094469026,0.26250494,-0.28062108,-0.05129188,-0.08494135,0.45066938,0.3686382,0.19728021,0.13046092,-0.41260684,-0.32457134,-0.33235404,0.5003718,0.3430783,-0.5530034,-0.5344532,-0.30048445,-0.84175164,0.25514027,0.00026968576,0.15514547,-0.5608542,0.008372919,0.13792424,-0.46728367,-0.10824929
phát triển,0.025489656,-0.13311413,-0.58479077,-0.10667304,-0.051573813,0.10486978,0.20419239,-0.24609664,-0.6257355,0.32538068,-0.13032207,-0.15065208,-0.005805612,-0.53091526,-0.1650262,0.10460333,-0.42235538,0.23139599,-0.0065142615,-0.0052820407,0.22595228,-0.13119599,-0.34475577,0.194417,0.47427076,-0.0607811,-0.1503341,-0.38518125,-0.0131051075,0.122497134,0.36856982,-0.06303947,-0.2961557,0.19605371,0.17536867,-0.25819916,0.25994673,-0.094889715,-0.31475782,-0.24437523,-0.24052952,-0.218572,0.5306858,0.5826687,-0.15748261,-0.14757016,0.112182744,0.040077984,-0.120015025,-0.34676993,0.8846917,0.6654362,-0.82650554,0.06875371,-0.13806777,-0.52372974,0.26448613,-0.12702474,0.292983,-0.48435184,-0.14519733,0.3231824,0.22908252,0.039173014
hải quân,-0.08307345,-0.18736891,0.057300445,0.047135446,-0.4422595,0.68889344,0.10661551,-0.14748323,-0.2929008,0.48233962,0.07079604,0.2451899,0.43341023,-0.15233481,-0.01809763,-0.5756945,-0.095638834,0.9173705,-0.40551028,1.0090616,0.63918823,-0.026604813,-1.0166571,0.15659684,0.9561988,-0.29875568,0.30645782,0.20491365,0.028533444,0.30075482,-0.07325648,-0.4644341,-0.57772785,0.14056994,0.25923344,0.26043046,0.5177188,0.09290667,-0.2635928,0.013114049,0.06336603,-0.31212118,-0.16426396,-0.1020816,0.3576662,-0.022278946,-0.01309396,0.30780673,0.21292336,-0.9306943,0.5870118,0.46733692,0.43221125,-0.1536413,-0.37232196,-0.099354915,0.19624767,0.036410563,0.6971704,-0.41469967,-0.39766905,-0.027561314,0.55051863,0.012078679
qua,0.05014937,-0.31504357,-0.525554,-0.07292249,-0.19627143,0.15504238,0.2837248,0.035438728,-0.5751314,0.28086394,-0.008000012,-0.14764929,0.12797071,-0.74005103,-0.18285434,-0.005397197,-0.50315833,0.2807985,-0.16211748,0.012312233,0.29670414,-0.3263242,-0.23771794,0.11836662,0.5693171,-0.029524142,-0.1296602,-0.3992254,-0.026268203,0.24048927,0.3772449,0.012616414,-0.39140758,0.2980386,0.38311282,-0.0004198992,0.6076406,-0.02262855,-0.36811402,-0.37768534,-0.2380222,-0.34451222,0.5407059,0.56156504,-0.16426507,-0.30553982,0.3186,-0.1514179,-0.29329765,-0.4362734,0.92922044,0.5784274,-0.7574591,-0.0042017926,-0.31077892,-0.3792951,-0.022995187,-0.37690535,0.13785402,-0.1773753,0.08242531,0.4769869,0.35094708,-0.004719932
vùng biển,-0.07723939,-0.2374508,0.25346872,0.11450251,-0.35684916,0.83124846,-0.30843836,0.34650013,-0.38342023,0.15400219,0.2102624,-0.0734428,0.3573762,-0.5426819,0.06695911,-0.0132592395,-0.38134924,0.5323572,-0.28228796,0.23828925,0.16606799,-0.4953155,-0.11960177,4.1516614e-06,0.57223225,-0.23680298,0.088209316,0.09212958,-0.18490548,0.3419525,0.17100914,0.15287063,-0.1969986,0.18218672,0.61773896,0.2895183,0.832867,-0.22779153,-0.42712876,-0.09123039,-0.19303259,-0.1655729,-0.20532295,-0.2077555,0.5221961,0.028003993,0.2063611,-0.50817347,-0.2811708,-0.35720146,0.3384784,0.13956688,0.2896246,-0.3113405,-0.38399282,-0.097499385,-0.27329805,-0.38101426,0.09580156,0.4215681,0.3098153,0.33756304,0.16455671,-0.117922746
mang,-0.20378974,-0.28413087,0.6337005,-0.47039208,-0.5527456,-0.6769108,-0.7248949,-0.30360544,-0.6193548,-0.25354144,0.009712532,-0.50981975,0.083620906,-0.63035405,-0.5437,-0.4210556,-0.08616538,0.5917415,0.18498716,0.6074796,0.7744281,-0.07726429,-0.35451484,-0.44886792,-0.32334977,-0.35539368,0.0013686696,0.101664245,-0.47532752,0.48232204,-0.5192592,-0.06191413,-0.18423502,0.3938116,-0.16101377,-0.49340895,0.38531774,-0.00071197795,-0.68465567,0.31146842,-0.78032565,-0.15040782,0.5774624,0.2906976,0.15442199,-0.09977044,-0.2951567,-0.4117363,-0.18506163,-0.5241039,-0.039299913,0.2358537,-0.6587658,-0.22952725,-0.46006054,-0.53912735,-0.13874851,0.115042895,0.70065725,-0.4245465,-0.15855218,-0.33747405,-0.048019394,0.9975752
triệu,-0.37120044,-0.5979008,-0.28565562,-0.010893101,-0.226245,0.8821127,-0.40657154,-0.28043526,-0.66429365,0.5787887,-0.4718748,0.39327827,-0.10054121,-0.37796122,-0.4027954,-0.1104309,-0.0749843,0.556562,-0.35098022,0.45789212,-0.31117722,0.08344058,-0.94298285,-0.26557362,0.9612777,-0.056320712,-0.07887128,-0.14955418,0.110192984,-0.2373154,-0.42779446,-0.1374712,0.024173051,0.12380394,0.18841578,0.39426225,0.38894323,-0.41959572,-0.30311155,0.5422543,-0.20955841,0.26362088,0.11272705,-0.28360376,0.043472853,0.039967734,-0.6802541,0.026669756,-0.15404095,-0.90356535,0.08873689,0.27346903,0.5219982,-0.3247367,-0.5390511,-0.7014739,0.84743506,0.5978162,0.316513,-0.7411418,-0.56205034,0.025752168,0.18131572,0.29080817
km²,-0.2958286,-0.57669806,-0.23156092,-0.044081066,-0.26268783,1.0758655,-0.49542654,-0.24990435,-0.61326694,0.4816727,-0.491763,0.26741964,-0.12841426,-0.3497936,-0.24273127,0.11466307,-0.10089113,0.38815737,-0.3742467,0.2200648,-0.4247162,-0.09857943,-0.8084397,-0.27143914,0.96311885,-0.094595134,-0.065817595,-0.1361158,0.023238061,-0.22516586,-0.33681613,-0.08335426,0.16538915,0.030518696,0.32872355,0.34110138,0.29224214,-0.49361897,-0.30655572,0.6101187,-0.17423901,0.34403157,-0.003269793,-0.27496824,0.07184826,0.04238554,-0.51600146,-0.10659108,-0.24342157,-0.64718515,0.14653209,0.36071652,0.38271895,-0.43722662,-0.5944251,-0.7910502,0.98829484,0.74324185,0.31709182,-0.6858357,-0.5514269,0.0020297337,0.14054973,0.13150835
đông phi,-0.17953625,0.04278433,0.111279264,-0.06741545,0.06662343,0.22025166,-0.1729417,-0.06437434,-0.07146155,-0.043847956,-0.27604005,0.13786042,0.06050704,0.009663014,-0.09504071,-0.17588523,0.08491937,0.5444299,0.12358156,0.72041744,0.16738574,0.12826121,-0.51025933,-0.10394049,0.061622214,-0.30614212,-0.073165335,-0.14869161,-0.14221421,-0.17066553,-0.17584088,0.07672591,-0.3873515,0.21855704,0.0066195847,-0.0051202863,0.32418203,-0.37468114,0.12426187,0.18874346,-0.12372824,-0.05959103,-0.100804634,-0.22653314,0.16644531,0.33043852,-0.4408102,0.14440511,0.39000905,-0.40218562,0.06910796,-0.012446292,0.19035017,-0.18840061,-0.24345435,-0.10984345,0.09310851,-0.2225424,0.5802102,-0.4847281,-0.015846524,-0.043522064,-0.06762643,0.29023978
dầu mỏ,0.34571078,0.024103044,0.36542597,-0.17132494,-0.54254323,0.104157075,-0.21180782,-0.5480817,-0.5631117,-0.34941882,-0.38080135,-0.02828056,0.18752599,-0.4204531,-0.006816666,-0.006157067,-0.4270254,0.7816462,-0.28958577,-0.17377646,0.013737443,0.08413316,-0.11065722,0.27422142,0.20348057,0.38576683,-0.58851963,-0.4495767,-0.4033452,0.41500524,0.014095528,-0.26407793,-0.12899992,0.2316973,0.23486492,-0.17698643,-0.014819759,0.007149565,-0.06523191,-0.38758302,-0.44980434,-0.059513453,-0.309309,0.14740369,0.18183398,0.6034716,0.16572736,-0.49913654,-0.08090343,-0.15211295,0.19158056,0.2257177,-0.12083649,-0.7626488,-0.479768,0.27613938,0.17958586,0.018840717,0.6503721,0.041033003,-0.5083711,0.21961688,0.03425638,-0.2628596
tây,0.06475882,-0.21608509,0.37694743,-0.037952337,-0.18814798,0.85955215,-0.37141752,0.42322263,-0.30680794,0.06727679,0.07054731,-0.09760238,0.18526472,-0.41680565,0.17931437,0.28639236,-0.2593754,0.42133063,-0.21707495,-0.039155386,0.06674054,-0.7419718,0.023654176,-0.19399531,0.24051215,-0.25752503,0.026649123,0.14173953,-0.2610695,0.24136588,0.39189172,0.24138272,-0.102653325,0.12300281,0.5872297,0.05385021,0.7533016,-0.45847934,-0.30177096,0.13623491,-0.32408056,-0.0423653,-0.18370648,-0.25438467,0.46805868,0.13107915,0.2670248,-0.56959563,-0.39675412,-0.21930382,0.27773848,0.060952995,0.03711511,-0.4688604,-0.35803837,-0.3457538,-0.12262033,-0.46659636,0.107693404,0.3375758,0.30459845,0.12630488,-0.21704993,-0.10623443
madagascar,-0.07472862,0.14110975,-0.08187421,0.10670148,-0.15645355,0.36402175,0.29383954,0.062110875,-0.4085104,0.1146415,0.32396823,-0.01440807,-0.38055634,-0.43626595,-0.22499171,-0.7582817,-0.32774097,0.021848086,-0.0104247555,0.4609684,0.41213754,-0.5735861,-0.33787832,0.073659584,0.9505482,-0.041531783,0.07528923,-0.14253463,0.08663906,-0.42680883,0.15066886,0.42880535,-0.08542443,-0.3703226,0.6422993,-0.46008882,0.3889906,-0.60384256,-0.28970882,0.12083706,0.13169478,-0.06419549,0.61306924,0.040722612,-0.2599788,0.085264064,-0.0847369,-0.014571001,-0.016763981,-0.3517818,0.16763774,0.8334099,-0.36648706,0.23572086,-0.3535608,-0.4612287,-0.0850212,0.009382683,0.39894715,-0.40727025,-0.21344054,0.15802848,-0.032812152,0.40363416
đẹp,-0.22325669,-0.25236464,0.51672745,-0.44620118,-0.4068978,-0.6323839,-0.7412851,-0.40102062,-0.48280337,-0.13016698,-0.15570213,-0.64052665,0.1443628,-0.55630064,-0.49364585,-0.3858023,0.107991934,0.5041844,0.2456981,0.40719727,0.63424987,0.08056262,-0.25130332,-0.46332002,-0.3203584,-0.32406837,-0.059050534,-0.0061999345,-0.46949375,0.46191305,-0.46453565,-0.02805997,-0.11907004,0.3110496,-0.149122,-0.43126985,0.26398292,-0.056428246,-0.4524915,0.21506864,-0.7883762,0.021091163,0.4020331,0.49975374,0.11326789,-0.20500493,-0.32707524,-0.3919331,-0.16113445,-0.5837657,0.055305827,0.25493947,-0.7040074,-0.092092104,-0.2905566,-0.6772766,-0.055162776,0.016389787,0.44861677,-0.5736701,-0.113931745,-0.2071697,0.0136052715,0.756521
quân sự,-0.032778118,-0.10786998,-0.32596084,-0.32110485,0.10005219,-0.1830974,0.0973756,-0.17636095,-0.7344254,0.37453163,-0.11412349,0.16666716,0.3445424,-0.15021485,-0.47052252,-0.15483959,-0.5691492,0.8434019,0.069568165,0.4033423,0.1585606,0.45612445,-0.29729322,0.1890638,0.51964915,0.042879026,-0.35934174,-0.37653276,-0.16251911,-0.090270825,-0.006728579,-0.049434848,-0.1323206,0.44247165,-0.1501239,-0.011334175,0.083341934,0.19096018,-0.1593103,-0.29105875,-0.43826798,-0.51557386,0.5915565,0.019082092,-0.4150536,0.05100295,-0.3454703,0.10003513,-0.0017002582,-0.80185366,0.4702768,0.10187742,-0.29173276,0.0065035503,-0.06864276,-0.2759531,0.28321886,-0.13570282,0.43347687,-0.22331353,-0.37154362,0.03387182,-0.13783422,0.5389386
vị thế,-0.24840192,-0.28357843,0.13224134,-0.28470874,0.5259678,0.23835513,-0.4237222,0.10583837,-0.38104758,0.083683684,-0.46370268,-0.015841454,-0.12505034,-0.33552417,-0.39459538,0.38630828,-0.17653154,0.3756054,-0.19302888,-0.0040304847,-0.28487238,-0.36492434,0.07194003,-0.5705737,0.35343498,0.041148145,-0.41969338,-0.51843643,-0.30112696,-0.26724717,0.05565519,0.40464303,0.2839844,-0.07122575,0.27959776,0.18670824,0.3337258,-0.42367762,0.12285946,0.32231686,-0.27002642,0.17049614,0.10628183,-0.361364,-0.38983992,-0.012999863,-0.31728908,-0.3307395,-0.26865447,-0.5157865,0.13646536,-0.20768052,-0.33887488,-0.080007136,-0.37610647,-0.6246882,0.67910844,-0.33596206,-0.12064079,-0.340399,-0.059318487,0.024161343,-0.25023326,0.4128831
cư dân,-0.107385986,-0.28944498,0.31905624,-0.23516747,0.10516459,-0.021384269,0.14496195,-0.027381701,-0.36694908,-0.19255948,-0.14289145,-0.16689889,0.07631573,-0.14896744,-0.25596806,0.19096242,0.03601999,0.41116068,-0.18258584,0.27120093,-0.052812926,-0.24768282,0.008006673,-0.27703714,0.32178247,-0.028943911,-0.30012193,0.01638306,-0.1754001,-0.09030109,0.26546317,0.055518415,0.17467533,-0.26049337,0.25775126,-0.15740506,0.29853424,-0.3615921,-0.17494482,0.2845447,0.03916186,0.064309284,-0.28435856,-0.030905558,0.09875423,0.11119246,-0.04248146,-0.40942156,-0.15385611,-0.6250733,-0.2364174,-0.076875076,-0.35470244,-0.035370164,-0.33736667,-0.19158606,0.2721877,-0.2662774,0.09775925,-0.09622039,-0.15807901,-0.007017059,-0.37331688,0.1084257
ngoài ra,-0.06495027,-0.58498925,-0.041125156,0.121473365,-0.1407601,0.4645265,0.061390806,-0.2860061,-0.08983887,-0.13738343,-0.4086506,-0.21704692,0.07228411,-0.31993255,-0.2745911,-0.13162673,0.29628894,0.24073187,-0.29069886,0.3089816,-0.30149463,-0.14705333,-0.29593316,-0.4032362,0.6842746,0.09661374,-0.13198821,-0.46458566,0.104329415,-0.048138466,-0.12569813,0.37021232,-0.07933206,-0.0862138,0.2688883,0.32107958,0.6277812,-0.35155112,0.0049335524,0.009310853,0.08231845,0.264281,-0.34495226,0.10797637,-0.068175584,0.06970551,-0.367361,-0.39887404,-0.017752191,-0.52977735,0.11630722,0.19758533,0.29053473,-0.16856977,-0.4027251,-0.20400012,0.2943094,-0.05816506,0.08305011,-0.24237755,0.03782938,0.44360337,0.41815212,-0.088428274
cạnh,-0.03279639,0.21196885,0.7511079,-0.6687769,-0.46652064,-0.2558579,0.010464828,0.10454223,0.18236382,-0.7156401,-0.18866155,-0.65621626,-0.21298195,-0.37055576,-0.24737056,-0.58384514,0.06322903,0.44439608,-0.03149602,0.49305648,0.48575935,0.04693593,0.086235374,-0.28289235,-0.14588648,0.14605771,0.17475186,-0.1848773,-0.09721968,0.042900816,-0.40181962,0.2975296,-0.10078158,0.12646689,0.21011204,-0.428383,0.56697303,-0.13536891,-0.20762578,-0.05376692,-0.5081734,0.19760558,0.04672104,-0.075165175,0.3860133,-0.2397987,-0.29379636,-0.47815183,-0.31957328,-0.6363657,-0.048492674,0.033677775,-0.24753934,-0.43720764,-0.4239796,-0.21427503,-0.22520329,-0.26216048,0.23053838,-0.3202421,-0.18358636,0.24456388,-0.3304348,0.52324283
ô nhiễm,-0.15183446,-0.0036371674,0.066529624,0.15859976,0.025382206,-0.021370603,0.19036394,0.21443063,-0.58892506,0.7647096,0.18371297,0.14313014,-0.085454464,-0.07017081,-0.33317003,-0.22499575,0.24470718,0.2666924,-0.17839095,0.08552992,0.027902246,-0.34181777,-0.32516062,-0.30352154,0.57764554,-0.0057805367,-0.280759,0.04304853,0.17101347,-0.17786993,0.3290744,0.14329386,0.15674374,-0.12528005,0.30060518,-0.3079039,0.08649929,-0.555224,-0.28445074,0.3493317,-0.34570667,0.2370136,0.23394689,0.077227235,0.011401803,0.08189712,-0.21278042,-0.09855984,-0.39410526,-0.7927119,0.071772,0.5337456,-0.21438733,0.15493658,0.086466655,-0.46815506,0.37650073,-0.47973976,0.10174978,-0.14221779,-0.4483947,0.17909291,-0.20382974,0.22585158
sức mạnh,0.45820746,0.08235378,0.59290326,-0.54463196,-0.03995695,-0.14153041,-0.00044999013,0.107979,0.10411715,-0.025430223,-0.35238612,-0.38024312,0.27709338,-0.18660487,-0.04329542,0.066295214,0.14492825,0.554396,-0.08795175,0.39706302,-0.03616848,0.050415393,-0.1428561,-0.07440232,0.64553267,-0.20176892,0.035347197,0.5324448,0.09726804,0.06895299,0.3452308,-0.17486468,0.11209578,-0.28839368,0.4690963,-0.06995725,0.43991438,-0.36557794,0.3536872,0.2592175,0.17674743,-0.0789269,-0.19056761,0.38062423,-0.15363984,0.18946862,0.032956503,-0.45578474,-0.26217842,-0.3535653,0.25027975,0.35800382,-0.45187566,-0.17766897,-0.026295645,-0.27702773,0.15367056,-0.10173251,-0.25163236,-0.19245087,-0.12419029,0.21015105,-0.045807675,0.040578954
mạnh,0.08394407,0.023133174,0.519388,-0.29093388,-0.1482729,0.012132217,-0.083686545,-0.44340375,-0.27822912,-0.42822447,-0.384311,-0.43343008,0.12935899,-0.27454925,-0.022944469,-0.08936681,-0.09842911,0.55829656,-0.025611762,0.12219751,0.11867557,0.039968118,-0.13174228,0.22186427,0.3409436,0.10409838,-0.3905717,-0.29357022,-0.4687641,0.016738473,0.020725895,-0.1144254,0.15180281,-0.34532797,0.4566505,-0.36950743,0.07202596,-0.46043327,0.24243592,0.042454354,-0.11671496,0.27632794,-0.576352,0.3272749,-0.019525945,0.33247912,0.08522797,-0.45098153,-0.016241705,-0.15658851,-0.13892996,0.4985578,-0.6610828,-0.022303076,-0.2870102,0.023148272,0.255533,-0.05349362,0.44318244,-0.6237954,-0.38358435,0.20255776,0.18242507,-0.06191581
quá,0.065218344,0.42467532,0.60294783,-0.0341005,0.007489711,0.01378656,-0.13952948,-0.09974012,-0.3575825,0.12868896,0.06334172,-0.3447598,-0.19632621,-0.075236306,-0.04167453,-0.10759421,0.21749654,0.30857545,0.05015956,-0.10454533,0.18081306,-0.36326116,-0.047297616,-0.40871805,-0.0026968864,-0.0065002204,-0.38744336,-0.22553319,-0.13278534,0.041021436,0.25712883,0.2498638,0.17314965,-0.22855146,0.41969702,-0.6261474,-0.0989999,-0.71979254,-0.20633999,0.30618605,-0.585903,0.48475632,-0.15541999,0.19711615,0.3321986,0.3442089,-0.15766723,-0.39763385,-0.32575917,-0.4463848,0.057911053,0.59032255,-0.59437925,-0.117567725,0.12741777,-0.372749,0.36522228,-0.5594998,0.34244135,-0.3085596,-0.41394335,0.14641374,-0.37042308,0.07537828
khi,0.2419253,-0.019393438,0.07203414,-0.47025904,0.20182897,-0.10865543,0.16472487,-0.065202795,-0.44696802,0.41909182,-0.040551893,0.0775791,0.3295629,-0.036945976,-0.36176264,-0.05302146,-0.4727357,0.8402804,0.02961764,0.5089447,0.11918844,0.42809418,-0.14525905,0.11513817,0.8740815,-0.092894055,-0.036598165,0.12540491,0.008178951,-0.022977697,0.16240226,-0.061385974,0.0342798,0.24267957,0.025933824,0.018280132,0.20725933,0.24292086,-0.07783472,-0.095864564,-0.20825623,-0.6028863,0.4933088,-0.09742903,-0.1542709,0.01886406,-0.2753427,-0.1275553,-0.20161505,-0.7772274,0.6406274,0.09435143,-0.22717148,-0.0990308,0.070573665,-0.40607154,0.30154642,-0.0017532115,0.06513618,0.02821616,-0.35580283,0.08777197,-0.1988012,0.46572146
gọi,0.06650808,0.29608858,0.55527633,0.19063684,0.5419379,0.08884085,-0.5451011,-0.60107696,0.24765754,-0.23550752,-0.66440284,-0.0984702,-0.42204866,-0.38657004,0.12198717,-0.6035096,-0.40512845,0.49279666,-0.24085154,0.2478584,0.32731783,-0.2804884,-0.4941524,-0.019882973,0.15785086,-0.2036625,0.46270972,-0.3615826,-0.18338388,0.3013844,-0.308764,0.32663584,-0.023502838,-0.026605664,0.0125613455,-0.5246524,0.35598007,-0.043863904,0.09838867,-0.07500206,-0.23709466,-0.21737088,0.26746026,-0.68216664,0.005382834,0.12527217,-0.31239417,-0.29836383,-0.17757368,-0.29299495,0.49250305,-0.1302415,-0.041832786,-0.43389764,-0.39959088,-0.41587478,0.5390924,0.06736469,0.35334718,-0.5272778,-0.011200132,0.5910197,0.334642,0.566345
hàng,-0.09122932,-0.19977427,0.22946377,-0.1301617,-0.15952164,0.068225004,-0.03847361,-0.35655025,-0.2618321,0.00846509,-0.40123776,-0.50882244,0.449591,-0.11265353,-0.048238304,-0.0043661143,0.62856007,0.4406597,0.016407216,0.37511712,0.19249941,0.18006971,-0.42396262,-0.25096107,-0.0964808,-0.14117241,-0.34743112,-0.07161739,-0.097961806,0.15661535,0.18959387,0.004872811,-0.22612062,-0.04879029,0.13371867,-0.18373884,0.32135952,-0.6308899,-0.0069410717,0.16344453,-0.1582838,0.58938146,-0.7603641,0.57903415,0.45992923,0.12229626,-0.108647265,-0.2404877,0.19105744,-0.56802595,-0.05510883,0.35940257,-0.25106943,0.028548902,-0.051008787,-0.34482664,0.19530775,-0.4360463,0.37984353,-0.573378,-0.17902441,0.15224415,0.15520184,-0.22719774
tỷ,-0.15082225,-0.08716143,0.15775108,0.058970958,-0.062442493,0.14590573,0.088146016,-0.27267706,-0.09575595,0.115295075,-0.5031522,-0.44403824,0.25107485,-0.0035064928,-0.11808998,-0.15567574,0.6608351,0.4037768,-0.10839557,0.44861987,0.05349397,0.21499449,-0.43366227,-0.3035154,0.05993705,-0.06090396,-0.2712216,-0.30118003,0.050672546,0.029737137,0.07664562,0.12099436,-0.29480556,-0.05764805,0.102678016,-0.13053964,0.3021074,-0.5592084,0.09147072,0.09027957,-0.10330351,0.62511843,-0.8388122,0.35263544,0.43086857,0.028363558,-0.35010266,-0.21073255,0.14283727,-0.66360146,0.035549868,0.39735997,-0.04451287,-0.04656206,-0.15497479,-0.34091508,0.4532828,-0.497884,0.2974193,-0.6672791,-0.27015066,0.33626053,0.25090384,-0.23705801
bengal,-0.003538481,-0.0006640841,0.16876853,-0.29755673,-0.061592095,0.23571447,-0.5109946,-0.024341376,-0.7071314,-0.103285804,0.27166533,-0.13599633,0.07805827,-0.39157003,0.08169758,0.21721487,-0.22852905,0.19237554,-0.19742212,0.17516965,0.45878264,-0.68668896,-0.34071055,-0.0633835,-0.032785214,-0.62583625,0.0007345637,0.40829116,-0.53042537,0.40971592,0.3178954,-0.080885775,-0.11254307,0.076015174,0.19590822,-0.69836926,0.20650029,-0.54498106,-0.5386149,0.34473762,-0.3240078,-0.120843366,0.28962955,0.0064802053,0.31351283,0.22672473,0.22618774,-0.13626796,-0.18363225,-0.12734377,0.13723612,0.27516428,-0.4914538,-0.32914418,-0.27011603,-0.72621244,0.112731464,0.084119,0.6576597,-0.052795403,0.113294676,-0.1938191,-0.43372652,0.32006344
hoặc,0.09109139,-0.008859843,0.25816506,-0.07325357,-0.22127855,0.34661824,0.03725711,-0.17328662,-0.20850223,0.6105954,-0.049768716,0.18770798,0.47767806,-0.026958698,0.0018459363,-0.57461315,-0.0036951187,0.99362284,-0.30671874,0.96023995,0.64711374,0.29783225,-0.9362143,0.079420246,0.6008744,-0.31887087,0.29593658,0.2848344,0.102096446,0.46573573,0.0058538183,-0.5141964,-0.53692424,0.3062799,-0.023685498,0.14851974,0.45935002,0.20614202,-0.21738327,0.04308799,-0.1742103,-0.33316734,-0.16210943,-0.08273738,0.5509159,0.010975572,-0.15311366,0.22399272,0.12086283,-1.0916512,0.5714308,0.20032889,0.47011068,-0.2621477,-0.1520351,-0.14613482,0.26536158,-0.13846877,0.46715608,-0.3716453,-0.43824828,0.07133029,0.38128945,0.14115277
châu á,-0.15417388,0.1841487,0.072793335,0.05025577,-0.25904152,0.33398554,-0.32165712,-0.7030148,-0.23784927,-0.19449428,-0.2658677,-0.11468866,-0.07299983,-0.24975742,0.18712829,-0.10176097,-0.09068719,0.20550305,-0.2792396,-0.018831156,0.07786072,-0.01722884,-0.5256275,0.12040096,0.1321197,-0.1340848,-0.15662809,-0.253548,-0.25948435,0.34893724,-0.34630373,-0.18556967,-0.10563508,-0.13570794,0.21302041,-0.4762715,-0.31381226,-0.2947895,-0.30346817,0.03675102,-0.26634023,0.20787106,-0.37256914,0.10302957,0.46559232,0.2104353,-0.17635356,-0.27629772,-0.047046218,-0.09673755,0.10976342,0.3497595,0.025079079,-0.2559593,-0.38951802,-0.19956297,0.57859045,0.33963928,0.5261203,-0.58097935,-0.33252856,0.25297293,0.002322492,-0.097632155
phong phú,-0.20243636,0.021209104,0.28583992,-0.41406834,0.3719042,0.18566228,-0.528091,-0.058817547,-0.36470655,-0.20004626,-0.22445372,-0.30273536,-0.053872462,-0.2820256,-0.40458617,0.0980208,-0.25745308,0.45248753,0.13241264,0.058383897,0.043779768,0.008529489,0.23448864,-0.3263445,0.36757252,0.11430666,-0.48952922,-0.78670293,-0.6478366,-0.1410683,-0.11813863,0.34779674,0.08907212,-0.13547963,0.40720645,0.033906847,0.019770065,-0.2734762,0.1802501,-0.032572705,-0.4364176,0.17036767,-0.07310746,0.08227842,-0.27355656,0.067295685,-0.33809587,-0.3113991,-0.024506971,-0.35054353,0.19701658,0.094687246,-0.7260352,0.099006526,-0.26161292,-0.43844822,0.3287428,-0.44558978,0.025511133,-0.5711782,-0.07089548,0.045172364,0.008117033,0.30255383
đối mặt,-0.1821443,-0.3142168,-0.33291835,0.1472577,-0.049425982,0.19957425,0.26241463,-0.05771847,-0.37022647,0.64465946,-0.14279647,0.10478892,0.20300095,-0.19709998,-0.28433335,-0.25856188,0.16204071,0.34532127,-0.32858923,0.15137859,-0.12294442,-0.04557044,-0.48799148,-0.027948732,0.67673165,0.010178119,-0.23728149,-0.15562165,0.15291809,-0.045171943,0.056184016,-0.14774995,-0.037373696,0.0022888174,0.17729963,0.08033087,0.1792157,-0.27803174,-0.14688663,0.08501495,-0.117309384,0.116942845,0.08926384,0.23271747,-0.19641145,-0.18060121,-0.18305308,0.009577376,-0.20469736,-0.7699815,0.31044927,0.4550392,-0.051810343,0.16688605,-0.18556678,-0.33942264,0.4860571,-0.116233155,0.17944218,-0.411122,-0.3139917,0.2948009,0.31538984,0.0534955
cầu nối,0.33542696,-0.06589295,0.4836979,-0.5072215,-0.19821353,1.0175878,-0.56758094,0.006190008,-0.18047313,-0.09864024,-0.29893562,-0.10744178,-0.108782,-0.059918016,0.036049016,0.47259566,-0.40792885,0.39608002,0.13040002,0.14324623,-0.19654685,0.0786601,-0.03495533,-0.18872388,0.5923457,-0.047433376,0.061542567,-0.30093622,-0.3142842,-0.089276716,-0.22508308,0.17155145,-0.018652303,0.3300505,0.31747606,0.25964707,0.29802677,-0.17006657,0.027812015,0.09825859,-0.30324793,-0.0266037,-0.12009502,-0.52685845,0.3195099,0.3147047,-0.4712523,-0.3005765,-0.06552769,0.09723766,0.3787998,0.12975292,0.105828516,-0.8614469,-0.45487946,-0.32048252,0.36971152,0.45137295,0.31833228,-0.061797522,-0.21092004,-0.11205285,-0.08560185,0.030737432
thứ,0.21701486,-0.6175849,-0.056160334,-0.29581156,-0.20119496,0.22675504,0.14563116,-0.09916801,-0.3351851,0.30212557,-0.3621754,0.05155738,0.23647732,-0.36972374,-0.18783109,0.35934347,-0.20603444,0.5584477,-0.09074902,0.20898913,-0.14707786,0.102737665,-0.1895164,-0.19771424,0.64969873,0.03780823,-0.073009595,0.0008345411,0.12570982,0.27633172,0.17541866,-0.2003263,-0.13570821,0.34509856,0.15332007,0.42127687,0.5789862,0.09422758,-0.16847405,-0.040931202,7.1570335e-05,-0.3580659,0.092435285,0.22814664,0.11724924,-0.024496611,-0.020405198,-0.24922024,-0.21386537,-0.5965829,0.54163253,0.010771212,-0.03330891,-0.4237296,-0.22899842,-0.0902563,0.22323349,-0.0055832393,-0.09041819,0.09967329,-0.16127263,0.14850935,0.19899224,-0.15741004
biến đổi,0.13556367,0.42812043,0.55196387,-0.2681849,0.100158446,-0.044780422,-0.02593963,-0.52351105,-0.426876,-0.3588249,-0.0666695,-0.3582277,-0.1895045,-0.19014733,0.0042551165,0.03994113,-0.28265044,0.50803256,0.02412649,-0.31844527,0.23087144,-0.236986,0.026400551,-0.009934024,0.23613317,0.16322783,-0.46310025,-0.44822752,-0.46122944,0.21022765,0.31947637,0.08498833,0.1427551,-0.31920698,0.554616,-0.7145391,-0.29248214,-0.40399325,-0.14091362,-0.115479685,-0.41766244,0.013975592,-0.23436336,0.29960442,0.09665932,0.50216895,0.09308212,-0.49269345,-0.26789144,-0.3270454,0.15948611,0.48951226,-0.94951344,-0.16099504,-0.11031116,-0.04237556,0.27861068,-0.41258648,0.516151,-0.39377934,-0.38371623,0.22469155,-0.3020265,-0.12748791
bên,0.08682157,0.12495703,0.614457,-0.5130144,-0.522248,-0.07763229,0.06789937,0.1326136,0.3023183,-0.48432696,-0.21917441,-0.52406764,-0.06140263,-0.21664156,-0.15234154,-0.50173247,0.3786177,0.3530139,-0.08886169,0.5509768,0.317758,0.045926128,0.0029714778,-0.40978912,-0.09356639,0.11701301,0.19609189,-0.057337902,0.09584065,0.024780799,-0.30090743,0.253143,-0.26112205,0.19625826,0.11753506,-0.13571775,0.5411504,-0.1871165,-0.106968075,0.046249453,-0.3329443,0.26661113,-0.16840917,0.037040092,0.4435946,-0.16313693,-0.35754398,-0.29031596,-0.14178792,-0.6041445,-0.023484167,0.008625255,0.072437495,-0.4956261,-0.34009704,-0.21212344,-0.17727894,-0.28566694,0.119260535,-0.29899544,-0.12290186,0.14129621,-0.19181421,0.24898776
buôn bán,0.26656383,-0.16921768,-0.2348594,-0.46938244,-0.11626585,0.136022,-0.09514654,-0.32659924,-0.16534856,0.33000553,-0.23561376,-0.40102622,0.38260147,-0.43441048,0.06863466,0.22385468,0.30082726,0.1894024,-0.022718536,-0.21715236,0.10473507,-0.21051165,-0.10724101,-0.13364285,0.15878238,-0.49931473,-0.30982253,0.32206556,-0.16111852,0.5149705,0.3920065,-0.24362013,-0.33676797,0.0041846386,0.28032956,-0.30131862,0.07770039,-0.49963173,-0.11543301,0.05304407,-0.38949496,-0.04315089,0.104769275,0.92596984,0.10084947,0.06689408,0.14743878,-0.32667232,-0.20189552,-0.62216157,0.6951835,0.42058113,-0.6742997,-0.2718252,-0.2528318,-0.8568388,0.24774688,-0.17396988,0.007866481,-0.5084664,0.08924824,0.22634983,-0.18659896,-0.19253112
maldives,-0.2014099,0.23147626,0.14342849,0.058310557,-0.22348154,0.3433484,0.28862518,0.080194734,-0.299903,-0.0053433497,0.39722544,0.005038881,-0.47439653,-0.3286175,-0.24723394,-1.0441458,-0.21402231,0.10727684,-0.14305095,0.762508,0.52043766,-0.51701725,-0.4520933,-0.07421696,0.94002527,-0.0042132814,0.19173434,-0.1598965,0.16911283,-0.40945476,-0.13302913,0.40490717,-0.11673532,-0.39412716,0.63532335,-0.42933953,0.4202606,-0.5040187,-0.37660807,0.19106051,0.16110004,-0.088306636,0.50205255,-0.18163383,-0.023980288,-0.0016272092,-0.2807929,0.016058626,0.03573511,-0.5306756,-0.030253984,0.7691078,-0.10130912,0.18013607,-0.48216474,-0.3318369,-0.1185287,-0.017377049,0.47099227,-0.43932635,-0.25492284,0.098957695,-0.06124594,0.49471617
nicobar,-0.15033294,-0.11441968,0.33896175,-0.41796985,-0.48286805,-0.3986847,-0.4863768,-0.22484113,-0.6511523,-0.2889982,0.37515074,-0.39899912,-0.021915559,-0.6160529,-0.42180014,-0.3918611,-0.15426442,0.2110097,0.13047278,0.5891642,0.74630994,-0.37152383,-0.29808244,-0.18825263,-0.0050067445,-0.4522299,-0.033758678,0.20343047,-0.39107603,0.33576456,-0.27593884,-0.07582227,-0.17533278,0.048642445,0.1382304,-0.5971383,0.21411328,-0.24269582,-0.7411687,0.3459645,-0.4533974,-0.19998743,0.58205223,0.4044212,0.1734193,-0.006111216,-0.12604746,-0.27831694,-0.10697196,-0.31358492,-0.10395062,0.5554675,-0.76659745,-0.07230382,-0.5200757,-0.55161715,-0.25560576,0.23009937,0.63357866,-0.38604608,-0.009983062,-0.30001992,-0.18010205,0.78994906
mà còn,0.7800099,-0.20400327,0.47534958,-0.26964006,-0.18047328,-0.07779934,0.037679188,-0.4632479,0.09161978,0.03923586,-0.4331321,-0.39505813,0.04669229,-0.27909982,-0.068155564,0.35886684,-0.14826286,0.6053889,0.23264335,0.07468178,0.07600675,-0.26789004,0.11692009,-0.1204231,0.32910413,-0.23843844,-0.0024693876,0.29916847,-0.2307297,0.40252218,0.5470838,-0.12437295,-0.47353983,0.2242271,0.16826737,-0.12570636,0.34619647,0.08106586,-0.2458483,-0.10477114,-0.12080172,-0.46434692,0.037729956,0.19138308,0.19307952,0.663685,-0.014222598,-0.5485751,-0.32214358,-0.3126483,0.8055112,-0.05466914,-0.35672405,-0.9713745,-0.3845424,0.078364655,0.19600117,0.07406891,0.16930772,0.08463375,-0.2816588,0.11326502,-0.06803681,-0.003795082
thế kỷ,0.016289916,-0.29146805,-0.43548954,0.03446051,-0.26080573,0.398732,0.40620106,0.07352963,-0.5025183,0.27990878,0.02027502,0.01981707,0.2122822,-0.5019279,0.0021240253,-0.17588533,-0.48006853,0.523488,-0.2847444,0.22183694,0.4322689,-0.21169953,-0.5054545,0.17999928,0.62535506,0.05014989,0.0356771,-0.30744317,0.05463689,0.18977234,0.3804265,-0.11871142,-0.41693577,0.33419833,0.29510432,0.084371485,0.6204768,0.11375869,-0.35540903,-0.38264668,-0.070225954,-0.28289467,0.25976777,0.32019493,0.023800092,-0.28705934,0.36732426,0.11655403,-0.07155485,-0.50345904,0.8515291,0.6008428,-0.3517317,-0.02463445,-0.23644753,-0.14629291,0.008353916,-0.35389605,0.40503109,-0.17234467,-0.13583624,0.31853753,0.4946829,-0.166131
singapore,-0.04712568,0.6662508,0.5271591,-0.34950602,-0.20884813,0.19004317,-0.13103534,0.14399272,-0.2856255,-0.26572287,0.5949063,-0.28498265,-0.33446306,-0.35741693,-0.17029469,-0.75625676,-0.5491137,0.20326748,0.16489348,0.9011545,0.7144391,-0.10334652,-0.23484169,0.0294827,0.48957768,-0.46937984,0.16953681,0.049376577,-0.046886377,-0.06937047,-0.19805706,0.33918005,-0.10468999,-0.26575005,0.6115186,-0.6631372,0.22974896,-0.4882052,-0.6442719,0.2893045,-0.19748625,-0.28484932,0.39884108,-0.1721237,0.73751247,-0.033077184,-0.37208945,-0.36145338,-0.08443152,-0.35718757,-0.0034686201,0.47189,-0.24261853,-0.036823153,-0.3144692,-0.49019358,-0.2580157,0.0667581,0.10789463,-0.31748584,0.06775784,0.14392963,-0.529375,0.75688475
đường,0.6150402,0.24982652,-0.05385881,0.37326223,-0.48827606,0.38120395,0.121114515,0.17927065,-0.34577438,0.5068373,-0.23718491,0.10190597,-0.12168565,-0.58190674,-0.079153605,-0.4120605,-0.12159326,0.50175893,-0.12987185,-0.10010283,0.14597704,-0.04867848,-0.021354014,0.05485592,0.3025626,0.4020596,-0.2519332,-0.46073306,0.30764452,0.026124798,0.5352789,0.32991344,-0.37756273,0.4748548,0.0628789,0.01916588,0.45461118,-0.219758,-0.04023238,-0.35094893,-0.6773065,0.12110137,0.57818997,0.06962456,0.12191462,0.55803347,0.122841,-0.1431421,-0.15288535,-0.43048662,0.80885476,0.41925377,0.12388661,-0.7952229,-0.083712116,-0.32671162,-0.086357564,-0.5309116,0.24691194,0.24824691,-0.34427604,0.4129359,-0.051227156,0.026892314
bắt nguồn,0.22213165,-0.030895103,0.6706226,-0.050396457,0.19849336,-0.3651979,-0.31837034,-0.44538835,0.21510182,-0.43667394,-0.6489128,-0.083451964,-0.21560104,-0.5590924,-0.06547922,-0.5383267,-0.38346258,0.5671599,-0.29633728,0.30390176,0.31544232,-0.21163319,-0.17028451,-0.06832533,0.076590694,0.027935961,0.2769682,-0.2305435,-0.25517184,0.28172427,-0.24934499,0.14710535,-0.022071037,0.2121671,-0.02071957,-0.24223737,0.5239627,0.29017064,0.01879575,-0.25390536,-0.2214162,-0.39231405,0.25849873,-0.49528852,-0.16783674,0.16203055,-0.2861549,-0.4861627,-0.30452773,-0.2915074,0.26902202,-0.36114886,-0.02933987,-0.5722586,-0.50093675,-0.027658671,0.20439486,0.020403748,0.273284,-0.16620809,-0.130505,0.4338848,0.30942193,0.4811703
đảo,0.28640652,0.17250288,0.036371864,0.26819298,-0.06674767,0.6191667,0.37872922,-0.15376765,-0.22640859,0.20286849,0.11363521,0.1236078,-0.16034412,-0.03685137,0.10772881,-0.52135694,-0.35008126,0.35557687,-0.089292265,0.36839697,0.42471555,-0.38117048,-0.34434772,0.10488783,0.9121098,0.020307887,0.29197755,-0.14700547,0.03380635,-0.27308896,0.34287557,0.33972102,-0.25541863,0.057525996,0.37814954,-0.16711372,0.256625,-0.15988322,-0.089093685,-0.19717127,0.01031002,-0.15852381,0.382443,-0.24028368,-0.21336585,0.42007694,-0.009117936,0.17899017,0.22233275,-0.24799144,0.6957489,0.7203164,-0.04491842,-0.22881491,-0.10753649,-0.26905477,0.030079486,-0.11251473,0.6858182,-0.024110442,-0.41015163,0.13309027,0.11181777,0.054851133
giao lưu,0.38407815,-0.010410931,-0.24798103,-0.4530447,-0.1834778,-0.0011269797,-0.030978609,-0.28119302,-0.2221088,0.31706488,-0.10354154,-0.2898455,0.17432605,-0.5373664,0.010556643,0.13241535,0.057989355,0.11296704,0.0056124483,-0.12010754,0.22057545,-0.25262722,-0.14163351,-0.06242523,0.09022594,-0.4530836,-0.2679277,0.27926856,-0.03517249,0.5475676,0.37204194,-0.23981795,-0.42181724,0.08889417,0.25292516,-0.34530345,0.030985855,-0.35252526,-0.25891992,0.007404561,-0.38283294,-0.2764404,0.49081013,0.8950491,0.06719966,-0.022004286,0.16771479,-0.22457135,-0.19487521,-0.46905017,0.8311815,0.44354475,-0.7982189,-0.32895738,-0.24918266,-0.8170741,0.15436399,-0.041128844,0.006554037,-0.5243022,0.09825281,0.24206868,-0.17494304,0.037652038
