node,0,1,2,3,4,5,6,7,8,9,10,11,12,13,14,15,16,17,18,19,20,21,22,23,24,25,26,27,28,29,30,31,32,33,34,35,36,37,38,39,40,41,42,43,44,45,46,47,48,49,50,51,52,53,54,55,56,57,58,59,60,61,62,63
và,-0.030394072,-0.042564575,0.35527357,-0.16095111,0.022284443,0.40951616,-0.283147,0.22426137,-0.08827818,0.066442154,-0.08354168,-0.25244144,0.30554637,-0.4128445,0.05109367,0.21057653,-0.0373915,-0.11861812,-0.012670832,0.21960254,0.25966778,-0.4160612,-0.69223344,-0.22766864,0.568928,0.054490678,-0.157583,-0.2905574,-0.11658812,0.28231704,-0.16579211,0.067944214,-0.08166393,-0.1659134,0.4077118,-0.43629146,0.28544188,-0.44618484,0.041709185,-0.15737116,-0.3290427,0.297982,0.16682218,0.094271734,0.04992109,0.30926374,-0.17498758,-0.09090381,0.2408255,-0.35539454,0.083126545,0.13501497,0.19658238,-0.18661073,-0.4209966,-0.2300781,0.35933045,-0.17908013,0.12528138,-0.039582543,0.2962943,0.26670006,-0.084553234,0.35369062
là,0.13886772,0.38944203,0.72167975,-0.5988834,-0.09535138,-0.036219552,-0.04867272,-0.044216063,-0.29362902,-0.08715961,0.1582929,-0.06982522,-0.04858205,-0.13602066,-0.11458409,0.12743315,-0.017304732,0.08941816,-0.20867154,0.30162573,0.2968074,0.0043979753,-0.22842562,-0.350243,0.120045274,-0.08740972,-0.13045357,0.18460838,-0.15308139,0.12598859,-0.0048684115,-0.08708679,0.113143,-0.040749587,-0.11691276,-0.14455575,0.18798958,0.0065996377,0.080461025,-0.27737182,0.253007,0.08295629,-0.064695895,-0.022002961,0.24462011,0.16576807,-0.09920368,-0.27439043,-0.06306584,-0.25644693,0.35902992,0.41935435,-0.13184287,-0.4052767,0.08062048,-0.14852937,0.089316905,-0.32663393,0.40699363,0.32944053,-0.088250645,0.20144752,-0.027213307,0.11198499
của,0.07239761,-0.022692878,0.19427001,-0.32300407,-0.11882889,-0.19620454,0.022649385,-0.012328322,-0.23239675,-0.45120186,0.26824945,-0.43546847,0.108080946,-0.056957413,0.018582903,-0.12310684,-0.1335919,0.094673745,-0.2115857,0.34280458,0.06222602,0.10028133,-0.21017602,-0.6171117,0.55992585,-0.38852617,-0.3086392,0.20127703,0.26693344,0.13793086,0.0031571572,-0.21746059,-0.14533332,-0.48796588,0.10584693,-0.5370885,0.15597722,0.042261723,-0.10371819,0.19163515,0.019910194,-0.018091882,-0.19704767,0.12993793,0.4149234,0.19463389,0.031674206,-0.13440867,-0.18945509,-0.58758473,-0.06684423,0.5656221,-0.084994584,-0.18204582,-0.2953244,0.041969843,0.31337377,0.23234455,0.026730195,-0.08758354,-0.0461344,-0.01041762,0.0082005365,0.22316293
đại dương,0.22263907,-0.004596436,0.36757103,-0.45005572,0.17876805,-0.18835893,-0.17828272,-0.3078823,-0.15589309,0.25426963,-0.016974552,0.09326097,0.16571707,-0.34594074,-0.09399216,0.21866402,0.018674655,0.2617634,0.31875965,-0.0065193377,0.30457062,-0.27985603,-0.130147,-0.19810542,-0.119846076,-0.30633077,-0.063075684,-0.2044735,-0.08367536,0.32488856,0.36253038,0.12161164,-0.14436837,-0.45227557,0.1363237,-0.008552939,0.5957225,0.16723081,-0.06353216,0.25293592,-0.24029465,0.29122627,-0.060649086,-0.07904227,0.33131754,0.1995679,0.010633333,0.0077383886,-0.38947147,-0.48338127,-0.14234237,0.30067563,-0.5067715,0.015834618,0.01756391,0.0777159,0.27929124,-0.36223844,-0.117638096,-0.26748043,0.021427106,0.2689787,0.05279908,0.14089292
thái bình dương,0.43488872,0.102253325,0.3371726,-0.3266521,-0.19932315,-0.2921057,0.03574353,0.15747052,0.24795274,-0.20214875,-0.48087886,-0.26445198,-0.24426813,0.117857665,-0.06677839,0.038231187,-0.20910755,0.33603862,-0.2308106,0.12955989,0.11512834,-0.014823261,-0.5060801,0.17254247,0.23898976,-0.28920513,0.47140938,0.20821948,0.2824502,-0.10763343,0.22450252,0.0057258043,-0.15741937,0.025196852,-0.103891805,-0.323553,0.27690527,-0.1359653,0.064037815,0.39088696,0.13845907,-0.063978024,-0.44874507,0.0384327,-0.07091152,0.3309736,-0.27733976,0.06669109,-0.19915777,-0.3843926,0.35946772,0.44309166,-0.33946386,-0.30164278,-0.26912108,0.38907802,0.2118196,-0.068414725,0.47681865,-0.039062563,0.046983626,0.036844667,-0.12067935,0.16562866
nhất,0.09586543,0.025294969,0.4894847,-0.08230957,-0.081068695,-0.19947883,-0.0799227,-0.36439362,-0.31336564,-0.17402382,-0.453146,-0.25573397,-0.15926756,-0.3749819,-0.26062936,0.2331431,-0.24745753,0.1656992,-0.27939966,0.5197849,0.19370835,-0.21286497,-0.23902728,-0.12209362,0.48321232,-0.04717749,0.08642324,0.052183226,0.04035055,0.06819176,-0.10574282,-0.47736645,-0.20231543,-0.3197223,-0.010745462,-0.07496913,0.45524952,-0.07198668,-0.026293501,0.21550575,0.20807348,0.20499009,-0.13367598,0.048180703,0.39223614,0.109346725,-0.32363927,0.061169945,-0.09186363,-0.493623,-0.41217783,0.3985966,-0.27634618,-0.44487217,-0.16434424,0.14247958,0.3210331,0.3474236,0.1373049,-0.009661749,-0.10215577,-0.037650965,-0.13923892,0.052478053
hàng,-0.45219988,-0.35599738,0.37012756,-0.52023035,0.33252287,0.59604007,-0.21866256,-0.44659418,-0.2813511,0.1753134,0.30065745,-0.11448055,-0.14498132,-0.29392642,0.24322668,0.02118055,0.36962757,0.43006003,0.019161945,0.19229594,0.37238276,0.31158578,-0.21530405,0.08672606,-0.027907044,-0.47784334,0.16836958,-0.23320863,-0.38676035,0.037350584,-0.22500996,-0.15252413,0.2757569,-0.17383692,-0.33327344,-0.41558492,0.37573135,0.24253398,-0.047430687,0.4158208,-0.41732198,-0.2613742,0.18828861,-0.16981034,0.43794483,0.215847,-0.18835464,-0.3364091,-0.25232863,-0.43038264,0.21889703,-0.2171637,-0.099007346,-0.09076574,-0.275329,-0.30201825,0.62440723,-0.16004509,-0.042138003,-0.08816497,0.12166936,0.29242438,-0.06702829,-0.03711605
với,-0.32037866,-0.38161358,0.5256463,-0.15948325,0.03343621,0.28360096,-0.1472547,-0.23710531,-0.45828322,0.108055726,-0.22837915,-0.61602265,-0.0031801916,-0.60212505,0.08584126,-0.30149728,-0.18539311,0.15653922,0.032908287,0.7849365,0.18337882,0.09267943,-0.009663677,-0.09692191,0.1711725,-0.1442497,0.18516058,0.0741511,0.20825164,0.18391502,-0.43297195,-0.50559306,-0.23270738,0.108716935,0.06521979,-0.2799922,0.2774691,0.050367128,-0.4545929,-0.16390909,-0.018823545,-0.37819687,0.078119606,-0.010338633,0.34363446,0.2995302,-0.0894831,-0.4575945,-0.16587093,-0.24777825,-0.31584916,0.013871433,-0.7172457,-0.3580303,-0.3699704,-0.372025,-0.007976671,-0.111342944,0.25975144,-0.38075837,-0.30427843,-0.17478383,0.3283479,0.302171
trái đất,-0.3865071,-0.1779383,0.3848547,-0.17924207,-0.3429703,0.07244797,-0.16680324,0.11582146,-0.34383723,-0.36786804,0.07523497,-0.5902499,-0.05176098,-0.18800671,-0.07512574,-0.52539355,-0.11421363,0.34136492,-0.22484802,0.46511173,0.04856447,0.0690899,-0.4356298,-0.25908342,0.61153907,-0.32415542,0.03217201,0.13533227,0.04931859,-0.02578572,-0.3140642,-0.6018133,0.059022535,-0.10632704,-0.058523986,-0.14336145,0.26236263,0.30140248,-0.3589926,-0.045454536,0.29851115,0.049571723,-0.13269204,-0.25767526,0.2588927,0.040696602,0.3467788,-0.260142,-0.06703435,-0.575472,-0.282605,0.21079798,-0.15810633,-0.35536495,-0.3892743,-0.12221585,0.5268215,0.53173167,0.5833152,-0.34024268,-0.3893331,-0.033811007,-0.11126086,0.023664426
nhiều,-0.26638508,0.03880712,0.58718646,-0.22519036,0.03903292,0.5443841,-0.28088722,-0.16245863,0.07556137,0.31009993,-0.3669835,-0.36384162,0.18365566,-0.4165861,0.2629565,0.26100206,-0.22038135,0.101502635,0.05533563,0.40871888,0.20938413,-0.11230146,-0.18694063,0.0055569336,0.20488055,0.2441463,0.3241025,-0.06091987,0.016265376,0.2868534,0.11107923,-0.39692283,-0.42642176,-0.10247825,-0.05380491,-0.67133594,0.2759507,-0.49526685,-0.11927026,-0.12811328,-0.0150812,-0.017586175,-0.18405694,-0.1395416,0.08237718,0.47927472,-0.1764952,-0.6882939,0.10940034,-0.11034016,0.11584895,-0.1447803,-0.5794554,-0.2924889,-0.6338584,-0.37048513,0.08975497,-0.2289731,-0.28758693,-0.24890947,0.024616297,-0.20560864,0.036368523,0.36008057
trên,0.52890825,0.28539723,0.5855106,-0.40833628,-0.22752081,-0.09731062,-0.23088132,0.15324023,0.16451465,0.4070098,-0.08641179,-0.14341709,0.020597652,-0.34167713,0.13546361,-0.38964385,-0.24255566,0.28592074,-0.22446677,0.050790783,0.018351847,-0.23955578,-0.66593206,0.16579033,-0.053170767,-0.06277778,0.32924283,0.16702895,0.31995386,0.1015794,0.2009025,0.07280119,-0.05496918,-0.031014252,0.31676808,-0.13366467,0.5124294,-0.38251078,-0.27051213,-0.055260237,0.3347282,-0.33429682,0.011553301,-0.07366754,-0.2346734,0.44583267,-0.0032346377,-0.41513574,-0.26473156,-0.40073875,0.9716704,0.40571445,-0.34847185,-0.2678924,-0.6166988,-0.13831288,0.5540857,-0.88057977,-0.10367273,-0.2931438,0.08405404,0.41889054,-0.150878,0.07125436
này,0.19943593,-0.013703886,0.09741802,-0.3211115,0.31637165,-0.20875794,-0.32880718,-0.078679174,-0.20892659,0.39376563,0.079399705,-0.08125181,0.44797066,-0.43154046,-0.09408952,0.27689543,-0.25002763,0.23041967,-0.11690238,-0.1169149,0.3255635,-0.3411861,0.02660962,-0.4394507,-0.043467373,-0.2899058,-0.3724678,-0.24858901,-0.12512428,0.6703482,0.15312272,-0.24781936,-0.15474302,-0.39905035,0.21148545,-0.35183665,0.8753634,-0.034062486,0.013190589,-0.3078237,-0.18974724,0.20600091,-0.07456088,-0.15106884,0.26172006,0.29147512,0.18072966,-0.692473,-0.5400741,-0.24771677,0.13001417,0.038708635,-0.6349696,-0.40711993,-0.14974624,-0.12616713,0.17891936,-0.5206787,-0.23772478,-0.047254723,-0.32434687,0.39032304,0.53915423,0.27259535
các,-0.04729773,-0.24902163,0.024243163,0.19314253,-0.23437382,-0.092695385,0.24519625,0.23273566,0.23352024,0.05750333,0.10432161,-0.20656931,0.35397682,0.19394408,-0.6037648,-0.40998775,0.13620257,0.48223552,0.03844235,0.20471264,0.07521622,-0.48941612,-0.5413745,-0.19013698,0.47300857,-0.034169678,-0.063101165,-0.037908606,0.015430294,0.20823796,0.4619681,-0.011111363,-0.5809786,-0.38471997,-0.035416923,-0.21994297,0.3087673,0.038902156,-0.26584095,-0.18613306,-0.08651185,0.8450512,-0.34137225,-0.1427162,0.18716027,0.22451735,0.3587183,-0.21052174,-0.3002767,-0.6364091,0.16331804,0.14506544,-0.51798564,0.15079361,-0.3955421,0.019811634,0.64775485,-0.32461584,-0.03583597,-0.59820294,-0.03134378,-0.0986839,-0.2827565,-0.019564435
châu mỹ,-0.35563672,-0.57222056,0.47826114,-0.27249375,0.3044652,0.4491205,0.14849657,-0.46580276,-0.3165248,0.3195442,0.06488284,-0.4790307,0.11024262,-0.53105086,-0.34098434,-0.44854608,0.420341,0.5101837,7.8045035e-05,0.7803961,0.42876264,-0.20322001,-0.31773424,0.2100515,-0.03561697,-0.34986606,0.22209124,-0.115347825,-0.26508963,0.28227577,-0.5285202,-0.038080886,0.056454774,0.21347453,0.009403926,-0.09219202,-0.093100026,-0.095895685,-0.37633735,-0.18640384,-0.39582297,-0.3214539,0.21981962,0.048054766,0.44179648,0.29474187,-0.1483725,-0.15875988,-0.044585064,-0.53076863,0.084969215,-0.24003524,-0.38712344,-0.20720018,-0.2716651,-0.5276043,0.3832435,-0.53548074,0.26839852,-0.46324888,0.03300218,0.18789323,0.19122075,0.067598835
biển,0.2921153,0.12120237,0.46424237,-0.7113842,-0.11264502,-0.17300594,-0.2740801,-0.34019044,-0.22409636,-0.20407511,0.62929916,-0.19543163,-0.21987629,-0.27065948,0.050965857,-0.46647784,-0.04998632,0.8476361,-0.24652797,-0.21561061,0.15508518,0.2406997,-0.4102341,-0.033554718,-0.13821681,-0.48459667,-0.09149642,0.08514401,-0.027617093,0.014392649,0.20323063,0.030910492,0.32090974,-0.4781586,0.18306194,-0.15007143,0.21384074,0.31820777,0.055641755,0.17100483,0.13225211,-0.32124868,-0.024862556,-0.27566236,0.20305716,0.10338248,0.2573609,-0.19718486,-0.39533538,-0.61518985,0.90868086,0.41965798,-0.25635612,-0.31107467,0.006826608,-0.09450217,0.69089675,-0.50787574,0.046611503,-0.18645918,-0.016004434,0.7047745,0.106912315,-0.27852747
núi,-0.3551741,-0.06939476,0.48840058,-0.29826906,0.5735783,0.47049418,-0.18900262,-0.46573845,0.1817727,-0.013196938,-0.1908302,-0.2166666,-0.10636321,-0.35213137,0.11700211,0.28349686,0.087201715,0.4018262,-0.022620978,0.28359213,0.1910501,0.024514783,-0.5061138,0.013043206,0.17501253,0.0734485,0.4044608,-0.1721755,-0.28746676,0.31268075,0.0124005405,-0.47847146,-0.17191993,-0.44032803,-0.5244457,-0.9072069,0.40611932,-0.30258873,0.16118063,0.12996519,-0.02801568,0.020224156,0.099151894,-0.080343194,0.27898198,0.40406072,-0.22488157,-0.38449576,0.08193586,-0.22302048,-0.05609635,-0.12015694,-0.27511328,-0.2437962,-0.48058885,-0.42840794,0.47836494,-0.10098969,-0.41573274,-0.33420184,0.19095196,-0.07725573,0.017223746,0.09713637
châu á,0.047077812,-0.6442101,0.30245999,-0.4773257,0.17386179,0.2915421,-0.18807858,-0.13351882,-0.30701014,0.24629179,0.1459447,-0.4502677,0.39378273,-0.6685113,-0.12586524,-0.27222192,0.18294413,0.18146773,0.05040514,0.40850124,0.46122846,-0.24767524,-0.20352688,-0.34136334,0.06826836,-0.48500487,0.116434775,-0.33064732,-0.20216729,0.58711106,-0.45138612,0.3198672,0.065540805,0.28186092,0.4701994,-0.035099704,0.43475503,0.019299947,-0.3437482,-0.39698803,-0.69495094,-0.33582628,0.33747682,0.13282913,0.38907242,0.43400246,-0.002436456,-0.38408342,-0.26663998,-0.4727625,0.008852484,-0.21366546,-0.37108138,-0.118938416,-0.37199253,-0.31269222,0.17588605,-0.5963732,0.5341015,-0.38323694,-0.011270279,0.18489192,0.39183414,0.37898275
vô cùng,0.034730405,0.09974175,0.41306803,-0.11402151,0.35563734,-0.06902461,-0.027875189,-0.23677087,-0.1961128,0.50217384,-0.41121706,0.19287099,0.07859045,0.19090375,-0.33625504,0.008113229,0.22741872,0.4616598,-0.41821656,0.26525432,0.47449395,-0.057073146,-0.30918884,0.25780052,0.2935376,-0.11602183,-0.56464964,0.11846959,-0.15642734,0.19590698,-0.38256586,-0.4078188,-0.0688649,-0.045754477,-0.46863258,-0.44993478,0.16299741,-0.1160276,0.14391388,0.07144352,-0.16640559,0.46872124,-0.08697547,0.19422854,0.30788133,-0.095933005,-0.27649066,-0.5011754,-0.32380036,-0.5703701,0.1686293,0.24648336,0.057325006,-0.6980859,0.41412538,-0.06813422,0.4454374,-0.20061223,0.12244173,0.0893294,-0.36445415,0.61922646,0.36085883,0.21979931
nơi,0.105390064,0.013156442,0.14860982,-0.5914048,0.4994419,-0.098456085,0.19566157,-0.20386612,-0.16195603,0.23149449,-0.064637765,-0.03633488,0.13132854,-0.062431253,-0.2013819,0.43034557,0.38157794,0.26451373,-0.06663532,0.45038566,0.4336829,0.02065629,-0.121064134,0.010983981,0.07740859,-0.6299689,-0.20140688,-0.018755108,-0.16555558,0.4290699,-0.16879687,-0.39211738,-0.17540686,-0.2640999,-0.62257224,-0.58975136,0.3247637,-0.076855056,-0.020574305,0.45885512,-0.31771973,0.2206348,-0.11478515,0.29252023,0.42958435,0.34998488,-0.27054858,-0.16053534,-0.38747975,-0.58031493,-0.13516477,0.23495102,-0.28626376,-0.1369643,-0.06846263,-0.007878065,0.1964354,-0.05839064,-0.047152054,0.08685916,-0.13265884,0.27691475,0.22019558,0.31140035
không chỉ,0.11403442,0.2616783,0.6203538,0.10219197,-0.14688787,-0.04048767,0.09805535,-0.021750435,0.1194668,-0.39073843,-0.21225718,-0.39554214,0.055104915,0.032604244,-0.4636734,0.08972214,-0.25087157,0.868414,-0.19020967,0.15582973,0.05645953,-0.20198676,-0.3703333,-0.29588082,0.23926498,-0.21689512,-0.08981535,-0.03518313,-0.19781032,-0.000897176,0.27157933,-0.10671742,0.069479086,-0.33190146,-0.2852517,-0.5139179,-0.41653603,-0.2846716,0.3022334,-0.3680202,0.07782291,0.25345176,-0.3190942,0.2316948,0.0035673,0.008847882,-0.21319698,-0.12143254,0.09411583,-0.44673294,0.06865901,0.43635434,-0.15662682,-0.5373049,0.065586746,-0.046301957,0.3805924,0.193441,0.3177134,0.13453685,0.033122953,0.11068856,0.27540854,0.14473957
trong,0.28379506,0.040724866,0.38483304,0.0585433,-0.045973286,-0.27772558,-0.102002524,-0.30602676,-0.20586441,0.34072122,-0.68908536,-0.11139658,0.051326238,-0.35000387,-0.16802175,0.05403676,-0.03274363,0.10806023,-0.7014071,0.2545061,0.43671846,-0.44089484,-0.62847716,0.24258015,0.7397999,0.1368889,-0.30707398,0.06478779,0.050190408,0.2724438,-0.37824327,-0.4450662,-0.20299007,-0.15920681,0.22959407,-0.087072894,0.5071068,-0.4225053,0.029269898,0.024195768,-0.046463598,0.2845422,-0.08743418,0.2023528,0.3468346,0.025369639,-0.3183552,-0.28358516,-0.13860017,-0.7197255,0.11583985,0.21515189,0.14585662,-0.6641496,0.16596119,0.16819201,0.513544,0.18022674,0.09743817,-0.020634083,-0.17328463,0.33379894,-0.09043855,0.18507066
động đất,-0.08822406,-0.025338084,0.5801713,-0.04309597,0.2997792,0.24496236,-0.13822937,-0.44279408,0.19077499,0.12915911,-0.33543408,-0.05956251,0.2778804,-0.40115914,-0.05811762,0.08848435,-0.121800244,0.27536187,0.29487,0.15811828,-0.019100685,-0.3911913,-0.6940618,-0.30119333,0.15634872,0.29657862,0.2792195,-0.17776515,-0.20518105,0.28020394,0.58792657,-0.03347791,-0.370762,-0.53736985,0.06562753,-0.6368397,0.44338858,-0.4654048,-0.1877399,-0.28901964,-0.12714195,0.2238712,-0.21368232,0.11348322,0.19732897,0.49281126,-0.134972,-0.41094664,0.13150565,-0.26223534,0.0013299108,-0.05673958,-0.43808928,0.1722267,-0.25188497,-0.47794047,0.35022998,-0.3883556,-0.32054466,-0.5771659,0.34061125,-0.3152496,0.016867733,0.26194838
khí hậu,-0.18368438,-0.19745985,-0.014652023,0.08812782,-0.22571002,0.34541255,-0.033402715,0.6637377,-0.16225044,-0.284207,-0.11894842,-0.60385513,0.49743205,0.088539734,-0.21868046,-0.2754151,-0.594686,0.5220498,-0.050254546,0.43670064,-0.076827556,-0.2000399,-0.84798247,-0.13116014,0.4398217,-0.20652758,-0.10179686,-0.15109417,-0.13931017,-0.03350428,0.11129922,-0.5862191,0.019867055,0.06921426,0.13581233,-0.38880745,-0.016941296,-0.2913379,-0.36860767,-0.2527755,0.128196,0.041648794,-0.5208509,0.033426568,-0.23067673,0.06005429,0.10817266,-0.34099692,0.3205636,-0.46387517,0.021778995,0.2788507,-0.014746727,-0.5628339,-0.69601375,-0.42572546,0.6446541,0.34537512,0.36461484,-0.25958872,-0.101077765,0.21711999,0.283521,0.16253884
như,0.34736595,0.12403177,0.33056885,-0.39002705,-0.22145793,0.050072283,-0.32876772,0.52153844,-0.11936174,0.17132528,-0.36042044,-0.3542385,0.09850004,-0.20679113,0.023068232,-0.12039926,-0.7313934,0.2195137,-0.13989806,0.35040617,-0.24881272,-0.1479707,-0.71023095,0.21638744,0.1936678,0.033647794,0.31866556,0.13267161,0.32842577,0.008470802,0.15114005,-0.3214923,-0.19764665,0.057371385,0.2514314,-0.6081776,0.4820022,-0.6141384,-0.17412446,-0.08719345,0.22849119,-0.43608576,-0.2849416,0.058768142,-0.3823794,0.47068286,-0.16811407,-0.46397364,0.03754958,-0.23486155,0.50491965,0.43863937,-0.39924657,-0.5664978,-0.9988449,-0.2969618,0.33162433,-0.35967425,-0.06835604,-0.25227588,0.025719285,0.23045301,0.080786325,0.16410145
năm,-0.2383263,-0.1767191,0.6369249,-0.13512154,-0.061997063,0.31300142,-0.26201802,-0.33031228,-0.51364976,0.1667115,-0.119492084,0.0467028,-0.24467726,0.17242959,-0.37049407,-0.23898762,0.03659718,0.8920088,-0.4132227,0.080458164,0.22736973,0.44990093,-0.10029548,0.5206187,0.17985699,-0.16843753,-0.19185619,0.16511528,-0.32015657,-0.3595105,-0.21405426,-0.24858204,0.34383526,0.1917942,-0.5412725,-0.32671723,0.028576965,0.22068466,0.17987458,0.04253642,-0.30495444,0.15556191,-0.23723534,-0.12708077,0.3076006,-0.091735125,-0.17743841,-0.7225491,-0.3364535,-0.4078719,0.4950297,-0.019159015,-0.32277521,-0.58691746,0.3723027,-0.044579726,0.434883,-0.2020108,0.46209773,-0.0802027,-0.43754774,0.3556479,0.33522648,-0.06822884
sâu,-0.24748036,-0.11415194,0.62233114,-0.35243118,-0.4257455,0.003092419,-0.025094308,-0.08522993,-0.6915014,-0.34681714,0.10306753,-0.62608606,0.09286367,-0.4546694,-0.18492468,-0.23376441,-0.2606071,0.02123229,-0.062594995,0.9032452,0.1690903,-0.13473342,-0.0771727,-0.54246163,0.56203693,-0.16345474,-0.08383434,0.071486406,0.14393528,0.047174804,-0.15166365,-0.26094854,-0.28670284,-0.21702713,0.25444558,-0.10847259,0.14910991,0.2011195,-0.44179544,0.043254785,0.089099064,-0.093915395,-0.15157479,0.020544678,0.5654688,0.20177534,-0.09601841,-0.038986318,-0.01853194,-0.5112649,-0.44723395,0.46786228,-0.4199398,-0.24510424,-0.5045619,-0.022522286,0.18578078,0.3401225,0.35676453,-0.18698815,-0.021599326,-0.2475053,-0.23805147,0.22381428
ý nghĩa,0.18699344,0.2919193,0.7067501,-0.22255118,-0.11363928,-0.13818264,0.044450093,-0.30716097,0.030735033,-0.1985107,0.1396299,-0.15650328,-0.18341047,-0.045599937,-0.48027238,-0.27482134,-0.037954155,1.050415,-0.3576992,0.028988305,0.04757299,-0.04728563,-0.4410302,0.18185887,0.060427904,-0.0979549,0.12082032,0.26427415,-0.2060916,-0.13469449,0.30433527,-0.016310401,0.09971425,-0.30987635,-0.28718713,-0.34228247,-0.4007546,-0.19035834,0.30804682,-0.35154414,0.25890222,0.01814933,-0.26837608,-0.07042525,-0.08949705,0.13694519,-0.011348751,-0.26671782,0.081423186,-0.3689868,0.769602,0.23423445,-0.40243328,-0.4698134,0.1580574,-0.16087133,0.27618682,-0.39709258,0.10462412,-0.16971052,-0.06868061,0.25316402,0.32749435,-0.17443754
lớn,0.054725453,-0.25665376,0.31195137,-0.09294883,-0.29562,0.31710967,0.17069738,-0.006049937,0.010863357,-0.091083325,-0.17984796,-0.35013783,-0.27749684,0.23539501,-0.2037988,-0.2861657,0.17295882,0.51328564,0.33557948,0.23455283,0.3478324,0.15050386,-0.05665276,0.10557878,0.30161294,-0.21312301,0.07246616,-0.08957444,0.21111767,-0.15382627,0.23377587,0.007823518,-0.3311283,-0.23994648,-0.2157953,-0.054250065,0.21113497,0.49833298,-0.13284059,0.3197493,-0.27985933,0.5916159,-0.30658507,-0.19697618,0.2100133,0.020265158,0.22541852,0.09728445,-0.30817717,-0.77389514,-0.06746024,0.49582544,-0.5964783,0.034178626,-0.13324237,0.30581126,0.5149952,-0.111601785,0.33882207,-0.40210095,-0.13759749,0.22707662,-0.29178777,-0.12814824
điểm,-0.12064187,-0.08447701,0.4986234,-0.51044637,0.04240595,0.079897776,-0.20487228,-0.10989106,-0.8313766,-0.009902394,0.051520836,-0.22011395,-0.2772061,-0.78838587,-0.53579617,0.19109471,-0.13823092,0.28351322,-0.042758204,0.7302267,0.08315956,-0.109140255,-0.1790127,-0.18448573,0.22275732,-0.034920834,0.13377649,-0.37835708,-0.30680454,0.07687741,-0.19918418,0.09944265,0.18881464,-0.20837018,-0.071484335,-0.10676055,0.2750232,0.14842375,0.1211929,0.07403725,-0.06136302,-0.14639856,0.2120122,-0.33279744,0.5421724,0.16129796,-0.31814724,0.3719044,0.28349605,-0.58279574,-0.32664725,0.417949,-0.291721,-0.3103218,-0.42700547,-0.0014535302,0.28701085,-0.20825951,0.1706668,-0.12528576,0.112424605,0.11611052,-0.49919432,-0.023528202
diện tích,-0.09860598,-0.24736384,0.36399898,-0.09018513,-0.43281418,0.06608511,-0.16153827,0.047833394,0.10276438,-0.34430102,0.035073895,-0.62520814,-0.23892936,0.16065444,-0.123039044,-0.5600574,0.0025414957,0.66061085,0.19050874,0.14127892,0.13884328,0.25879198,-0.2569017,-0.46847948,0.4746994,-0.30230948,-0.1974816,0.06441945,0.25361198,0.020989222,0.14788702,-0.24710196,-0.34130764,-0.58732945,-0.056550495,-0.4073358,0.37339464,0.5016759,-0.16629678,0.150183,-0.1108288,0.614602,-0.12636782,-0.18631737,0.23675866,-0.042172737,0.5036233,-0.1967144,-0.5404791,-0.7675108,-0.30064878,0.5008936,-0.45751587,-0.104124464,-0.23805296,0.015885264,0.6774423,0.3310112,0.24722241,-0.48702762,-0.300359,0.103252016,-0.14208876,-0.07874156
giữa,-0.10443346,-0.2539027,0.47413078,-0.059325267,-0.118216485,-0.004384656,0.044181846,-0.43863305,-0.2089694,0.27181366,-0.20523073,0.1348062,0.26882368,-0.26133856,-0.6934397,-0.19948812,0.15601432,0.46296552,0.57056904,0.28498796,0.0027285952,-0.56356984,-0.43055,-0.15519236,0.14203478,0.20223923,0.12823877,-0.1693064,-0.30322158,0.12885813,0.68170244,0.23265652,-0.46986607,-0.4327776,0.111036114,0.04230143,0.46723482,0.18475574,-0.31810248,-0.1718929,-0.24526957,0.6717732,-0.25966254,-0.13357246,0.45396036,0.23840988,0.053032916,0.04798486,-0.00048083445,-0.6949553,-0.21443763,0.10385645,-0.64619553,0.21733657,-0.045623336,-0.17979524,0.47688183,-0.46157587,-0.022006009,-0.8015547,0.21684079,-0.19295074,-0.39095753,-0.030541403
được,-0.45159504,0.13676181,0.7008023,-0.55603164,-0.50936675,0.7968904,-0.011545292,0.018275298,-0.35281956,-0.0054964884,0.15616067,-0.41241094,0.18645029,-0.12417123,0.3346056,0.21134335,0.12132455,-0.21671669,-0.15944259,0.46350566,0.68838006,-0.15665017,-0.17715475,-0.27508005,0.49837667,0.13611965,-0.049029164,-0.030116128,-0.26715112,-0.027267817,0.21050176,-0.21435839,-0.35755473,0.011361749,0.09555029,-0.11430382,-0.14383085,0.071808144,-0.27802706,0.120141886,-0.03700746,0.3253994,-0.61128354,-0.24252228,0.38401166,0.25941235,-0.060571223,-0.59731513,0.23185241,-0.28216115,0.59783137,-0.043877013,-0.18720388,-0.18464108,-0.18669227,0.053618018,0.08900491,0.13103788,0.286357,0.21882427,0.14842735,0.050927408,-0.44453534,0.061817724
đến,-0.36940855,-0.34115022,0.5652181,-0.5424785,0.02469744,0.34039542,-0.119706616,-0.35182133,-0.7759816,0.14422326,0.31157947,-0.118752696,-0.12290548,-0.59813225,-0.8796231,-0.03396112,0.250922,0.76124793,-0.29867354,0.62303895,0.17254515,-0.087519884,-0.28875232,0.20784494,0.15001929,-0.2227946,0.06838942,-0.33470336,-0.6392407,0.02939444,-0.5027098,0.32508475,0.49533606,0.07768033,-0.14713109,0.003174606,-0.09658627,0.064321816,0.24375047,-0.020616401,-0.40225652,-0.24035507,0.368108,-0.2889396,0.6382074,0.045084525,-0.36692685,0.15870523,0.18742713,-0.50292337,0.17701657,-0.07463719,-0.17926084,-0.39510256,-0.21570258,-0.1348322,0.50868154,-0.47368255,0.5516377,-0.1597952,0.037638474,0.32687506,-0.20268686,-0.1103642
sự,-0.3629886,-0.30837226,-0.16441825,0.013213971,-0.1226424,0.28975555,0.018146105,0.7105305,0.15262033,-0.05109078,0.35261548,-0.4437156,0.554366,0.086701125,-0.40653628,-0.2927688,0.05825569,0.3276357,-0.11129843,0.31924686,0.120273225,-0.52875245,-1.0394326,-0.14330058,0.7577263,-0.2995134,0.10201032,-0.18631256,-0.25271937,0.32756084,0.3006654,-0.25923946,-0.28451702,-0.11078224,-0.069776244,-0.2968491,0.31510198,-0.09035958,-0.40313622,-0.17074306,-0.0019124635,0.5631248,-0.30041945,-0.31451726,0.10710256,0.29636982,0.35607585,-0.26178604,0.08823746,-0.6672539,0.10606965,-0.009630897,0.020140037,-0.09322652,-0.8784467,-0.13909511,0.8542641,0.14868517,0.17941092,-0.46040362,0.030256614,0.09887197,-0.3106198,0.116050705
đây,0.38271153,0.37541458,0.90037477,-0.24306081,-0.056193188,-0.15154487,-0.0098589985,-0.03633333,0.13685204,0.15350524,-0.09903675,-0.26162726,0.1160986,-0.32138342,-0.06768203,-0.4850677,-0.012189293,0.1576957,-0.31875336,0.41629955,0.15025634,-0.24668816,-0.6888249,-0.5727621,0.12244625,-0.000420498,-0.12943277,0.21279177,0.033779774,0.39832705,-0.30271745,-0.062855594,0.011008849,-0.08384976,0.1843399,0.0035489462,0.25116205,-0.3690917,-0.33239847,-0.66132593,0.46194673,0.1321318,0.11547076,0.28462955,0.038331445,0.25899395,-0.027836822,-0.49989742,-0.16094682,-0.42179492,0.5146577,0.49531415,-0.041680034,-0.14431775,0.005317185,-0.27179858,0.49992666,-0.678586,0.38645527,-0.003059288,-0.09080235,0.08577644,0.0851212,0.30706576
đang,-0.20101072,-0.2001285,0.30471927,-0.26090863,0.5297673,0.350205,-0.23283944,-0.3933609,-0.2125142,0.04340258,-0.38095775,-0.21132877,0.11977205,-0.5405872,0.13522626,0.435734,-0.10154857,0.059475616,0.0055153165,0.3880805,0.2606141,-0.029302174,-0.17614995,-0.18186,0.1662242,-0.06899618,0.14562155,-0.26748323,-0.23620534,0.34655276,-0.023038512,-0.43762,-0.24250498,-0.22730953,-0.14441343,-0.64402443,0.59863204,-0.2717129,-0.09483547,-0.017054608,-0.29394594,-0.051301792,-0.1251256,0.12186946,0.3736772,0.49399152,-0.24632037,-0.51015353,-0.028625052,-0.0695157,-0.32613927,-0.19992925,-0.57912624,-0.18541065,-0.25147852,-0.31576255,0.03259773,-0.12431661,-0.11811858,-0.22140981,-0.045635898,-0.15953201,0.38601613,0.36309373
thế giới,0.16493659,0.21287729,0.6301147,-0.1242541,-0.2609054,-0.14238465,-0.08923342,-0.037396733,0.14325713,-0.28319132,-0.53360426,-0.51127493,-0.32431725,-0.09292428,-0.282133,0.04279033,-0.1618317,0.55045015,0.15329967,0.35654745,0.08951892,-0.083092555,-0.4306772,-0.33048078,0.2961213,0.037287552,0.06440646,0.054894954,0.10443191,0.16135724,0.23674034,-0.21930446,-0.2978598,-0.50486666,-0.31185588,-0.5061657,0.080762625,-0.007104258,0.16209523,-0.11349165,0.24560012,0.41395062,-0.27539396,-0.005946024,-0.0966345,0.0817114,0.13644308,0.16803333,0.038417216,-0.54810023,-0.37889203,0.6154936,-0.5428854,-0.35467678,-0.03047426,-0.04718008,0.26429084,0.19761585,0.3489256,-0.27133778,-0.15766644,-0.0012326015,-0.066441566,-0.0071532866
hơn,-0.47607806,-0.38262975,0.49288496,-0.219082,-0.60135555,0.37187353,0.10660026,-0.08881077,-0.40428472,-0.4158147,0.14873825,-0.65207046,-0.1047763,0.05329397,0.08293879,-0.512772,-0.08076803,0.2103927,0.0069343518,0.7201487,0.48353097,0.18297184,0.09071545,-0.4292828,0.6334703,-0.1412135,-0.136715,0.18398356,0.29387507,-0.21555984,-0.010808073,-0.30779496,-0.5576312,-0.13342969,0.12037229,-0.25706702,0.076454304,0.5481851,-0.4973544,0.22007352,-0.1126156,0.13085896,-0.4829737,-0.21506643,0.6094276,0.24089798,0.17918253,-0.4380738,-0.24984892,-0.47433075,-0.0009173604,0.26839653,-0.6323458,-0.1492694,-0.40768814,0.0099264905,0.26962385,0.21928409,0.34537187,-0.36264864,-0.10039723,-0.2558383,-0.21867116,0.038483847
lửa,-0.21924701,-0.120229796,0.33294347,-0.14203466,0.44804636,0.3959085,-0.20412059,-0.44950953,0.11628987,0.13261151,-0.48076832,-0.032553766,0.10473817,-0.40876332,0.0043924144,0.49007684,-0.059061915,0.30366814,-0.043122794,0.290347,0.08674435,-0.14154363,-0.50127673,0.14668936,0.28496903,0.146862,0.31134945,-0.22957157,-0.25680047,0.27948633,0.1543442,-0.46570647,-0.21886747,-0.3977097,-0.4069465,-0.8112329,0.55650055,-0.613596,0.097380504,0.1291261,-0.2115516,0.0008819456,-0.058868922,0.05780104,0.3031762,0.4148142,-0.4527455,-0.4596666,0.05417878,-0.22891086,-0.14146045,-0.16957724,-0.31048998,-0.25781125,-0.49003726,-0.38306051,0.4219756,-0.053831175,-0.40973693,-0.309759,0.21331222,-0.081536114,0.06716324,0.1655875
tự nhiên,0.045111977,-0.12353958,0.32750863,0.19776645,0.0062266537,-0.17678523,0.36423168,-0.2347765,-0.0074903485,0.25795636,-0.16580832,-0.15446907,0.1888322,0.01797644,-0.97111183,-0.300648,0.4112887,0.9156518,-0.12947227,0.2182951,0.25971803,-0.60726124,-0.6287682,0.28874245,0.3836413,0.014391874,-0.0971792,-0.0665958,-0.3112926,0.122261055,0.37193143,0.25816756,-0.35105696,-0.29894653,-0.077667646,-0.1664995,-0.2871465,-0.23045515,0.07751234,-0.30821785,-0.29467365,0.78687817,-0.36896107,-0.07031951,0.1202061,0.18001506,0.093254074,-0.073503055,0.016532442,-0.8262848,0.3917242,-0.0079450095,-0.54559004,-0.1331682,0.26182017,-0.0008876038,0.38019896,-0.52580035,0.08217745,-0.65324676,-0.054700248,0.2634115,-0.08388162,-0.023602232
lại,0.36390477,0.32438383,0.5074427,-0.1270536,-0.19783218,-0.3747792,0.007099389,0.035700828,0.40875176,0.29932842,0.00043520323,-0.10048339,0.19635984,-0.220781,-0.28111255,-0.24739955,0.021496909,0.2991919,0.00430798,0.059377354,0.030774191,-0.48696175,-0.38189262,-0.42892468,0.0075935875,-0.05988269,-0.0010611322,0.13883552,0.11863962,0.48184738,0.33499402,0.024129966,-0.3630014,-0.38897184,-0.06267,-0.21128021,0.48332167,-0.16889213,-0.12558477,-0.374364,0.34722567,0.49598154,0.008550515,-0.08026938,0.06437071,0.40074894,0.27249694,-0.4556683,-0.38791952,-0.39560592,0.42846167,0.33593503,-0.66868097,0.008431743,-0.3093754,-0.055615768,0.49010763,-0.7653987,-0.10998379,-0.28175777,-0.07470094,-0.053704936,-0.18696415,0.22316708
pacific,0.83962744,-0.0025111963,0.3859864,-0.6609763,-0.07982477,-0.23854665,0.105389774,0.20245685,-0.02280138,-0.17265357,-0.40704945,-0.111481,-0.19953923,0.36959338,-0.2995487,0.23440924,-0.33110207,0.49463022,-0.040246744,0.075628646,0.23760402,0.026353287,-0.34738147,0.17024624,0.099731594,-0.60968715,0.52204984,-0.04569253,0.23159528,-0.2857489,0.6363378,0.37559268,-0.16424301,-0.0438878,-0.2362385,-0.27177444,0.59911585,0.18058415,-0.024021372,0.4643047,-0.36198398,0.15849446,-0.8458965,0.100572824,0.05806045,0.5138529,-0.15954132,-0.06267755,-0.48352584,-0.55938995,0.5891131,0.53460836,-0.7674298,0.09057072,-0.1283398,0.6500751,0.22760633,-0.48026347,0.6076077,-0.14649987,0.020242244,0.05774205,-0.061536036,0.25368243
hành tinh,0.17774042,0.1840224,0.67360204,0.02436968,-0.03136043,-0.07423121,-0.16842727,-0.46479428,0.1746496,-0.16987906,-0.8180977,-0.14654116,-0.12587638,-0.21289673,-0.18267944,0.43696272,-0.19757757,0.19572917,-0.42445996,0.2647727,0.4875901,-0.3624399,-0.5121236,0.04883708,0.64364433,0.22416212,0.21150178,-0.008252304,0.006879989,0.1386184,-0.09631943,-0.45085338,-0.29771835,-0.21572348,-0.14210944,-0.28474513,0.7085948,-0.33215076,0.23615189,0.056960475,0.09844844,0.3168826,-0.085889876,0.04816059,0.479879,0.12625153,-0.5496905,-0.2547075,-0.073096804,-0.37014824,-0.14187929,0.16911401,0.06658712,-0.7253789,-0.10347207,0.2947569,0.4404563,0.35208493,0.16243611,0.15523279,0.11667405,-0.082452066,-0.16469955,0.08515872
có,-0.13758644,0.28032005,0.68428195,0.0371715,0.25175366,0.011354863,-0.010287632,-0.22660151,0.24516773,-0.015245752,-0.33479455,-0.2841315,-0.25647232,-0.04625439,-0.21909249,0.0689932,0.20690918,0.58679587,-0.013809347,0.109167315,0.07802631,-0.111227214,-0.46600103,-0.11006833,0.21970269,0.21588984,0.23788929,-0.0089204395,-0.13785021,0.10390379,0.24001892,-0.042710666,-0.1685445,-0.46171707,-0.48437756,-0.8096638,-0.16360416,-0.24961355,0.2789504,-0.26925084,0.19200632,0.40688798,-0.2588495,0.040773813,-0.048872612,0.20781443,-0.013184494,-0.30393717,0.056030054,-0.20483276,0.1589541,0.057742696,-0.4528732,-0.037318602,0.039563328,-0.20717888,0.28516337,-0.19228734,-0.044289775,-0.35240042,-0.036404364,-0.038385548,-0.042139657,0.08536934
new,0.26824155,0.100145616,0.19250423,-0.4634359,0.035940774,0.23906922,-0.27531943,0.58851385,-0.5956962,0.36379954,-0.15960456,-0.015540414,-0.097911924,-0.5195667,-0.34379113,0.32894617,-0.36644462,0.055194385,-0.21632382,0.5620654,-0.08875332,-0.14881206,-0.5224225,0.22424637,0.14550251,0.040371675,0.5218255,-0.28181136,-0.24407887,0.059385102,-0.021388194,-0.063482076,0.14886889,0.17158838,-0.22751339,-0.21569784,0.5450124,-0.27216202,0.031152792,-0.19157864,0.008054255,-0.15269065,-0.021392468,-0.25807804,0.011466408,0.42088836,-0.22088867,0.0038407845,0.26553562,-0.40194187,0.19464575,0.19483948,-0.21771151,-0.36725944,-0.7015601,0.0266468,0.27585387,-0.5320583,0.20697042,-0.0011283632,-0.02183914,0.2536406,-0.371054,0.002406219
cũng,-0.30078143,-0.21691561,0.2090718,-0.22583334,0.48040727,0.12561035,-0.14810228,-0.3816427,-0.5759007,0.45957437,-0.19974048,0.04608282,0.13899925,-0.0139621375,-0.08100667,0.018134598,0.014806206,0.4713382,0.11802237,0.052897904,0.28119457,0.19978578,0.08062671,0.20916823,0.096923314,-0.09761379,-0.49181247,-0.06644207,-0.1418815,0.09192958,0.0070610656,-0.39601114,-0.15016042,-0.27856436,-0.13002998,-0.65129936,0.2072459,0.19875485,-0.025020737,0.11413442,-0.394859,0.19787507,-0.29830876,-0.07186372,0.25881714,-0.032960907,-0.00022014917,-0.6079232,-0.36065292,-0.3152104,-0.03582552,0.06794354,-0.62011474,-0.42094955,0.20901664,-0.31171653,0.21597749,-0.26600236,-0.22771664,-0.3719829,-0.3937765,0.5671228,0.57904625,0.12650265
triệu,-0.6350028,-0.39667177,0.49918258,-0.11155503,-0.057664093,0.6509637,-0.17942636,-0.13072306,-0.5411539,0.08711207,-0.01177774,-0.32906142,-0.47200894,0.059612602,-0.20955645,-0.3158065,0.30417925,0.6278924,-0.031203419,0.42468214,0.28633422,0.43700165,-0.16513534,0.27469563,0.429627,-0.23951621,0.035389997,-0.114484265,-0.14371292,-0.29556912,-0.39492095,-0.3452636,0.115389556,0.0474097,-0.53726923,-0.33356205,0.108741455,0.53133816,0.014045906,0.41092822,-0.26317257,0.30426526,0.016364008,-0.40274125,0.51422197,-0.079863146,-0.0661592,-0.27786237,-0.24097213,-0.55819464,-0.12863766,0.16099261,-0.42561167,-0.4259074,-0.2021561,-0.04023061,0.69662696,0.15254366,0.47505924,-0.24140996,-0.3601025,0.24826795,-0.20334804,-0.14769702
vào,0.061883714,-0.084522456,0.91234004,-0.4842276,-0.23370719,0.34446102,-0.27473673,-0.4209661,-0.6889728,0.044006687,0.09205087,0.10669944,-0.30084878,0.13534628,-0.30543306,-0.3825197,-0.21251003,1.0923465,-0.5486,-0.0217184,0.15283884,0.52595264,-0.24805997,0.3765384,0.010399584,-0.42799112,0.023210345,0.1982873,-0.4489778,-0.67960674,0.07594898,-0.0022032552,0.57382154,0.08971965,-0.38152644,-0.06139082,0.20458132,0.38436872,0.11856365,0.13810839,-0.29813206,-0.02993886,-0.47597992,-0.26137766,0.43928832,0.08209911,-0.11854476,-0.9266958,-0.506087,-0.4484026,1.0849441,0.03347399,-0.5965936,-0.40465656,0.41307482,0.12127558,0.6311352,-0.46857452,0.6158273,-0.051628552,-0.38251346,0.3022218,0.2233278,-0.13545352
phía,-0.30788636,-0.61500365,0.29282728,-0.043423466,-0.12970664,0.38233036,0.06922026,-0.11326358,-0.27874535,0.23251888,0.14022568,-0.43379018,0.24126783,-0.4171012,-0.89159006,-0.38086563,0.35834235,0.7472905,-0.294659,0.5232321,0.37818652,-0.4581726,-0.40889883,0.16265969,0.3212046,-0.22084513,0.012313157,-0.34865347,-0.5156688,0.22158751,-0.3636967,0.32639417,0.08880835,0.24482843,0.17068721,0.12922233,-0.1857698,-0.17047301,-0.074380346,-0.39050013,-0.6703851,0.15100355,0.1083872,-0.09817151,0.44333437,0.20391007,-0.12755145,-0.040419515,0.08432255,-0.6207255,0.26619652,-0.34357905,-0.26995945,-0.2370175,-0.23263814,-0.18454653,0.47675544,-0.44395012,0.51882046,-0.418937,0.021601578,0.1734954,-0.0074864626,-0.05851719
magellan,0.14281164,-0.30262563,0.8733588,-0.5128707,-0.061793454,0.35999286,-0.2359075,-0.45592654,-0.8462694,0.14184278,-0.23097639,0.21887533,-0.18472897,0.23988986,-0.3809921,-0.14385103,-0.33844218,1.0657862,-0.57464516,-0.014179507,0.21745546,0.4850138,-0.25368255,0.5119488,0.043117885,-0.45120835,0.14725904,0.025951013,-0.5772128,-0.8004793,0.25673133,0.12735857,0.5345772,0.1962911,-0.4090157,-0.10291168,0.43448138,0.28013712,0.13943553,0.22884147,-0.6376202,-0.0021324307,-0.81448966,-0.14178033,0.5370347,0.26464877,-0.3040814,-1.07111,-0.6045353,-0.3759571,1.1097356,-0.13390598,-0.83191633,-0.25388563,0.45907316,0.32487866,0.5023718,-0.4778504,0.70939845,-0.14789827,-0.35127845,0.15586635,0.31373742,0.044261444
nối liền,0.08856312,-0.463883,0.6788015,-0.4158613,0.14043987,0.39830244,0.15831962,-0.19992943,-0.23256552,0.15277837,-0.20440258,-0.58354306,0.2579368,-0.42915726,-0.06976313,-0.6802847,0.123298965,0.25204426,0.117506646,0.8876194,0.4599804,-0.09609529,-0.3846354,-0.22205795,0.031636804,-0.40412715,0.20159252,-0.051651496,-0.028061543,0.4241904,-0.6667192,-0.058101464,0.06275181,0.40472874,0.27723852,0.048365958,0.13940878,-0.04226134,-0.5621123,-0.58595455,-0.31900728,-0.3902185,0.21874984,0.39426044,0.27001056,0.3897338,0.0022120255,-0.3877063,-0.20744574,-0.5716545,0.0050386284,0.13441716,-0.3141004,-0.18559293,-0.20221329,-0.45468524,0.23159324,-0.59726644,0.86406183,-0.42899323,-0.105102755,0.06611513,0.4663392,0.47466272
nhựa,0.16833618,-0.2210893,0.15088713,-0.16323468,-0.31510907,0.32708102,-0.23822539,0.6091863,-0.36245224,0.065667525,-0.32313135,-0.49183628,0.38799918,-0.025522064,0.085770495,-0.23432662,-0.84996635,0.20943096,0.10126942,0.49555144,-0.2615928,-0.02719065,-0.71933675,-0.04572881,0.22286312,0.00400367,0.04514068,-0.081119634,0.13875923,-0.12486789,0.15735224,-0.33252013,-0.18365225,0.19651468,0.49763617,-0.39659685,0.32786375,-0.48642716,-0.4271111,-0.21760654,-0.1523828,-0.4266157,-0.5027323,0.16319893,-0.31926647,0.42472422,-0.11403453,-0.5473584,0.093448214,-0.26723045,0.27392855,0.35345048,-0.2711532,-0.42532092,-0.92686826,-0.39891568,0.37955368,-0.113869004,0.11482652,-0.25549823,0.026692083,0.13269688,0.18433788,0.14446194
mang,0.14120422,0.14483392,0.6799549,-0.5312095,-0.19621947,-0.056976635,-0.19828397,-0.34412682,-0.39675686,-0.1866928,0.43523493,-0.07332181,-0.10653059,-0.06435322,-0.27682897,-0.47414383,-0.09012986,0.92489004,-0.5239113,-0.06995016,0.19867812,0.23827271,-0.29231632,0.13077472,-0.09297655,-0.38361084,-0.07729848,0.2759491,-0.27982223,-0.16189107,0.011078898,-0.07837551,0.43116948,-0.01678149,-0.10344272,-0.009150631,0.03515391,0.2991971,0.07077792,-0.19430754,0.11452048,-0.23627214,-0.25046262,-0.23431776,0.20533815,0.15213382,0.1705381,-0.5963218,-0.33629492,-0.3973703,1.0396488,0.12360609,-0.32726297,-0.4462055,0.32457256,-0.015429381,0.43723753,-0.51182723,0.48047283,-0.03416733,-0.29884583,0.4323011,0.332627,-0.16290139
giao thương,0.30621934,-0.005758896,0.33532304,0.008071787,0.16429119,0.10241889,-0.031708386,0.06182352,-0.23334427,0.57325315,-0.5659905,-0.022712152,0.269283,-0.1386658,-0.09291435,-0.14566854,0.12848766,-0.0088756345,-0.55152696,0.46337235,0.3802453,-0.27891397,-0.79290605,0.065851085,0.5167582,0.0014334101,-0.4276407,-0.025776241,-0.11521867,0.36085784,-0.5941892,-0.36070588,0.036576454,0.18925972,0.08487757,0.04016022,0.3059425,-0.4646234,-0.21191627,-0.16346876,-0.11067057,0.31346565,-0.018163804,0.43596756,0.14401013,0.045562584,-0.2067693,-0.34649256,-0.09847725,-0.7278041,0.21724272,0.2994519,0.3643083,-0.45915118,0.20644628,-0.048540257,0.53824586,-0.11833532,0.37936717,0.00048459644,-0.26447296,0.46754205,0.14166772,0.41655728
đào nha,0.27239764,-0.3414145,0.8649814,-0.54368466,-0.008579153,0.25576678,-0.1554526,-0.43450606,-0.8154263,-0.020627227,-0.44434708,0.14287972,-0.22090812,0.4129143,-0.34434763,-0.08338652,-0.5620521,1.0909277,-0.4920193,-0.070336595,0.19469945,0.4067072,-0.31427586,0.42650005,-0.007928478,-0.54790515,0.30783707,-0.05031422,-0.47103935,-0.95566237,0.5732348,0.24785669,0.3733226,0.053540286,-0.36564016,-0.25137374,0.61757475,0.2702388,0.08255694,0.2843058,-0.7158915,0.04968561,-1.1514577,-0.06813649,0.49533764,0.41118017,-0.35983077,-1.113686,-0.70943385,-0.25995344,1.1817583,-0.07002272,-1.0906192,-0.19610864,0.42098352,0.48105356,0.49815336,-0.5052083,0.6529681,-0.3139448,-0.24658346,0.061613213,0.34887782,0.18056704
ferdinand,0.19525033,-0.2047737,0.9479136,-0.5938125,-0.07905481,0.26386786,-0.27090123,-0.4378235,-0.8299424,-0.09812047,-0.23830883,0.13555498,-0.17529605,0.2938218,-0.28234088,-0.15472007,-0.61437565,0.99729234,-0.46715555,-0.035128288,0.1431976,0.44274947,-0.27566585,0.29083815,-0.09821589,-0.46855453,0.23807445,0.072338365,-0.51003534,-0.8334997,0.5057324,0.12579137,0.45500973,0.09650592,-0.3234252,-0.21242608,0.52416074,0.27829906,0.010790945,0.116516285,-0.505834,-0.10979924,-1.0099448,-0.08878113,0.48086596,0.35905257,-0.30024594,-1.1803352,-0.57316417,-0.18197809,1.175983,-0.07385113,-0.9730968,-0.24370727,0.4119813,0.30794963,0.42177176,-0.4755925,0.6777459,-0.21407409,-0.24569155,0.014740368,0.39982685,0.12655006
sóng thần,-0.12345061,-0.07773791,0.38600767,0.018363979,0.28682876,0.18122576,-0.37387726,-0.42667562,0.0094806515,0.07043833,-0.62442046,-0.14883105,-0.04211063,-0.6152263,-0.2186528,0.59384495,-0.17133775,0.24367964,-0.30200604,0.33356276,0.23927596,-0.43189824,-0.6331241,0.2409919,0.55154324,0.18538545,0.31883433,-0.27159947,-0.2773258,0.24039619,-0.06314486,-0.5607012,-0.19014059,-0.36959538,-0.22431071,-0.56385505,0.75621015,-0.5913284,0.2360885,0.10511477,-0.07868916,0.16136797,0.1309161,-0.07689153,0.43337587,0.31770054,-0.5767421,-0.11031422,0.16600846,-0.39067605,-0.35133377,-0.05329335,-0.021238087,-0.5387782,-0.5047057,-0.11533376,0.554525,0.3296754,-0.20573273,-0.07537312,0.24348612,-0.07397947,-0.17090504,0.12088372
quanh,0.46835545,0.009440893,0.16859761,-0.77320933,0.4875895,-0.23251094,0.24273497,0.0127236005,-0.046063736,0.23641826,-0.27285376,0.061847817,0.18175654,0.13752937,-0.319063,0.63001007,0.27608803,0.35965356,0.2135654,0.3594957,0.35928026,-0.123730235,-0.3797634,0.048884153,-0.027433403,-0.79723895,0.1473576,-0.17041543,-0.14415468,0.37361214,0.30495873,0.020069743,-0.2158615,-0.27656797,-0.68627137,-0.5482946,0.5288378,-0.034310687,-0.08034477,0.691339,-0.47903892,0.30435845,-0.41694307,0.37426186,0.2806217,0.47377393,-0.3524701,0.09387471,-0.51714325,-0.71837234,-0.16442667,0.39450487,-0.55310994,0.09453459,-0.16992189,0.25740603,0.27641103,-0.25323838,0.17713575,-0.09307496,0.03547308,0.16116512,0.080956385,0.4424093
thám hiểm,0.45814905,-0.30532646,0.6891154,-0.5809674,-0.0709031,0.02389751,-0.10620674,-0.16771565,-0.64395064,-0.30097163,-0.6264708,0.048770096,-0.3685703,0.5065047,-0.28195262,-0.004145085,-0.75695306,0.75595623,-0.49878192,0.09836211,0.110556975,0.3040837,-0.4419074,0.23290408,0.088621624,-0.58001703,0.56660753,-0.009138841,-0.20689237,-0.91988933,0.6174075,0.15993066,0.17590883,0.09264364,-0.2990341,-0.22949593,0.9732575,0.27588844,-0.05059999,0.39699313,-0.46416843,-0.058858853,-1.2628057,0.0028428114,0.45398423,0.5477508,-0.4106587,-0.81962764,-0.6365155,-0.199372,0.94715834,0.09792856,-0.98537,-0.1375078,0.06823239,0.67518914,0.54241633,-0.26678425,0.81749314,-0.31441534,-0.10612684,-0.21917324,0.11672642,0.22398692
nguồn,-0.051673573,0.2832408,0.39282197,-0.053277276,-0.20936555,0.26970223,-0.0019102064,0.45640194,0.11452887,-0.2819194,-0.082907096,-0.37667137,0.4673534,0.076599576,-0.35765767,0.049185555,-0.34104052,0.7396072,-0.07398362,0.24174751,0.16535679,-0.28833193,-0.6628175,-0.24306644,0.2586774,-0.17869678,-0.17062157,-0.14844033,-0.43046454,0.05675216,0.19582036,-0.34597975,0.10852637,-0.029344086,-0.25131446,-0.43604487,-0.34976748,-0.35711277,-0.07300504,-0.39513758,0.15055701,0.28272414,-0.45012772,0.18370709,-0.20088762,-0.024524651,-0.030907692,-0.3725384,0.3630286,-0.32410368,0.22137325,0.2497565,0.06690578,-0.52625966,-0.21404353,-0.375756,0.47644463,0.1636125,0.3246764,0.090335265,-0.035953462,0.27273476,0.36928013,0.22946113
dù,0.5478977,0.40760836,0.74479836,-0.39962646,-0.21855338,-0.060804214,-0.244033,0.02287402,0.025402933,0.18462369,-0.03698059,-0.14359802,-0.13508548,-0.25555688,0.15295355,-0.51020604,-0.32005635,0.46023932,-0.41272736,0.10946695,-0.06926111,0.093601,-0.69775623,0.0023469764,-0.016164526,-0.057906277,-0.0078046983,0.33256048,0.19633222,-0.003905542,-0.12380871,-0.23481642,0.23964223,-0.11942492,0.13144518,-0.18634665,0.34067097,-0.32127148,-0.18229023,-0.16489297,0.49538296,-0.27384776,0.037257034,0.04755723,-0.19007027,0.20798732,-0.04041263,-0.6170396,-0.32824686,-0.41769016,0.9483047,0.6271409,-0.1459321,-0.43601564,-0.17554942,-0.20148036,0.7075708,-0.717189,0.057724155,-0.03401583,-0.14483592,0.5411639,0.062168837,0.007586451
khám phá,0.51021886,-0.22374834,0.46375543,-0.16956654,0.20953238,0.28555682,-0.38699841,-0.0010583887,-0.4290807,-0.06171017,-0.07287773,-0.33316547,0.39538413,-0.40866965,0.20014441,0.26865786,-0.55518675,0.30100918,0.01286427,-0.14611436,0.14189109,-0.002115994,-0.58553034,-0.77825916,0.47159517,-0.13768756,-0.44603834,-0.6433495,-0.19875725,0.02886113,0.40262657,0.4838548,0.18032038,-0.7044717,0.8155411,-0.58684206,0.24920966,-0.6272804,0.25293067,-0.06980858,-0.87867725,0.32381517,-0.26801705,0.3417092,0.29898733,0.19175868,-0.23419318,-0.3911504,0.01264344,-0.72508204,0.12849593,0.44478753,-0.0451121,0.09431094,0.022587014,0.030960975,0.32579497,-0.091836244,-0.15240021,-0.22440468,0.3257738,0.5591149,0.3605211,0.41910464
trải,0.16752225,-0.37736365,0.17908475,-0.4334403,0.1611948,-0.04271598,-0.3058274,-0.03409016,-0.2247422,0.4918017,0.21534123,-0.29878488,0.5078104,-0.5512769,-0.11039971,-0.04217139,0.17957832,0.12835619,-0.0104436055,-0.016258914,0.49103218,-0.4239506,-0.055639226,-0.29974717,-0.10167184,-0.5721892,-0.08578518,-0.34369874,-0.22581549,0.7079379,-0.003302645,0.24881805,-0.050378807,0.12933281,0.35851708,0.0063476376,0.7177663,0.17172524,-0.28108606,-0.2925791,-0.56553674,-0.06735546,0.098523006,-0.053034406,0.3518933,0.4685025,0.11485785,-0.5278945,-0.53129995,-0.4277828,0.13933274,-0.17824657,-0.6948421,-0.16856104,-0.28247267,-0.13342679,0.1474909,-0.72201645,0.2320745,-0.28224176,-0.13358438,0.2626831,0.42100668,0.3342013
trái tim,-0.16133896,0.11570632,0.24242736,-0.6207653,-0.08335072,-0.2963964,-0.01700999,0.07990434,-0.29555726,-0.73583186,0.30540338,-0.27909994,0.04783497,0.010128205,-0.27815774,-0.03949527,-0.26004568,0.2742329,-0.3706296,0.2939096,0.018497424,-0.06873347,-0.6293987,-0.38853493,0.47429824,-0.4056812,0.124531515,0.29375607,-0.13079302,-0.13261987,0.3223403,-0.33059013,-0.04024978,-0.23075292,-0.1660751,-0.27441454,0.34383953,0.24784067,-0.33977467,0.28436375,0.6181189,0.0510527,-0.740095,-0.24303928,0.2608295,0.29220665,0.072895885,-0.07698868,0.13694684,-0.25922838,0.1129268,0.28514317,-0.16888462,-0.18942302,-0.30630648,0.20633128,0.25667754,0.4870414,0.58305055,-0.14131773,-0.08454446,-0.1148003,0.04086044,0.09052591
một,0.12216381,-0.2804964,0.3741716,0.09201775,0.14149141,-0.16085252,-0.21453919,-0.6674,-0.20631345,0.05017411,-0.880404,-0.018963918,-0.06312587,-0.3697242,-0.18107638,0.21455118,-0.11399098,0.053650778,-0.5398161,0.3428634,0.30676258,-0.39883518,-0.5725411,0.041026734,0.7534622,0.17582506,0.023552965,0.015453061,0.06627316,0.23561145,-0.34605837,-0.66267663,-0.33689535,-0.3193498,-0.027440695,-0.16455406,1.009897,-0.2268261,0.00066410226,0.15222786,-0.08863501,0.22952309,-0.06718698,0.18335953,0.590362,0.21735476,-0.43716773,-0.29590935,-0.31734324,-0.5328162,-0.38219428,0.047738988,0.015297763,-0.5407447,0.08995737,0.0962948,0.49215853,0.41853818,0.037306234,-0.16284941,-0.08833485,-0.077361025,-0.028156307,0.15793318
vĩ đại,0.37600496,0.05697317,0.4758301,-0.54985183,0.21327539,-0.213196,-0.2539015,-0.29598135,-0.32626778,0.16611484,0.13535313,-0.05054126,0.34152696,-0.38812783,-0.049999464,0.30627504,-0.15169343,0.24381454,-0.026788138,-0.1625067,0.38869873,-0.14398518,-0.091573805,-0.5789972,0.027494086,-0.28051427,-0.5893851,-0.33009785,-0.26683393,0.38963434,0.2721799,0.32574975,0.049201496,-0.6325413,0.48015636,-0.20684542,0.42639568,-0.11521538,0.27442217,-0.07948135,-0.46611777,0.3816986,-0.1528969,0.0667131,0.36325565,0.2583496,0.032937776,-0.38257614,-0.515509,-0.39042106,0.17649071,0.32073152,-0.43301773,-0.028560312,0.38350564,0.23944189,0.062183928,-0.4685277,-0.06635424,-0.026815366,-0.083867006,0.49943432,0.44867727,0.3572461
con người,0.3225763,-0.41279083,0.36956534,-0.27663815,-0.06913678,0.2706757,-0.35199633,0.076589756,-0.4798676,-0.45484892,0.2031407,-0.6365329,0.24283355,-0.3275347,0.30433843,-0.13138926,-0.53211874,0.2287323,-0.14846613,0.01856852,0.063524835,0.25450176,-0.4856783,-1.0075011,0.7060157,-0.31900623,-0.47641495,-0.36309057,0.05003698,-0.10056207,0.18435284,0.3237936,0.120432526,-0.71476287,0.7903101,-0.67307097,0.17448863,-0.30610472,0.050344646,-0.059649605,-0.71533674,0.16888441,-0.25615612,0.33500737,0.3788404,0.18425283,-0.011271787,-0.3740543,-0.09332741,-0.7380301,0.053901352,0.5239998,-0.0023142654,0.11189234,-0.071330436,0.056947354,0.33454138,0.16454372,0.10667048,-0.23753448,0.18271011,0.37065852,0.30538225,0.32782647
tập trung,-0.09569495,-0.17896017,0.22141103,-0.864052,0.6538486,0.19975787,0.13139635,-0.33828872,-0.08917982,0.26659322,0.05312627,-0.059593193,0.12044053,-0.118924305,-0.119659364,0.57479644,0.5176434,0.29764903,0.24305063,0.44366944,0.49954966,0.03151275,-0.15910277,0.16900216,-0.20723972,-0.75198615,0.27453184,-0.2629597,-0.35620886,0.46530667,0.12154013,-0.23011085,-0.13751982,-0.23756059,-0.7180449,-0.55755985,0.5505852,0.06069203,-0.021575434,0.72626936,-0.55778354,0.08645933,-0.07268299,0.10165416,0.5769922,0.59871954,-0.33281112,-0.06465021,-0.36617562,-0.5604781,-0.103059426,-0.0104685975,-0.5640357,0.08943091,-0.41856313,-0.117216,0.32761994,-0.25752518,-0.12159766,-0.13650574,0.21463835,0.03763184,-0.006181977,0.265567
hệ sinh thái thái bình dương,-0.1429514,-0.19166829,0.3858551,-0.2376368,0.49812672,0.10680363,-0.07812179,-0.423696,-0.62261844,0.38855398,-0.26108208,0.31874663,-0.08928092,0.40314525,-0.37095124,0.039151102,0.14383231,0.7533445,-0.12501073,0.06493412,0.31317115,0.3526999,-0.101043515,0.37672314,0.17941351,-0.29836747,-0.48828173,0.001068241,-0.23535816,-0.2617708,-0.022973185,-0.19550194,0.047593206,-0.20237371,-0.5591132,-0.68975586,0.21849893,0.24954353,0.15482946,0.42546362,-0.5889053,0.35248706,-0.37132984,0.043082897,0.47139853,-0.12436597,-0.3544167,-0.50482213,-0.50497085,-0.5457422,0.09422154,0.26554883,-0.3680456,-0.44335982,0.44656217,-0.0018191002,0.48052415,-0.19586462,0.044387527,-0.14535522,-0.34485132,0.5929464,0.42443687,0.069006264
nhộn nhịp,0.19700675,-0.2142508,0.7267876,-0.6451229,0.008416884,0.082072735,-0.062410142,-0.12495863,-0.128846,0.1604803,-0.22822888,-0.47086847,0.24972922,-0.35987607,-0.11045129,-0.4647033,-0.04949328,0.19248635,0.1706084,0.80495113,0.41016844,-0.1286015,-0.20427729,-0.22432803,-0.15488529,-0.3082146,0.2778802,0.09486953,0.10954778,0.5281847,-0.4870551,-0.07604507,-0.13701455,0.4579492,0.2663887,-0.09384368,0.36575288,-0.00895164,-0.4046224,-0.6430213,-0.13156267,-0.50245947,0.10029122,0.31297287,0.09037662,0.4790672,-0.019622795,-0.45428032,-0.3184291,-0.29775006,0.07084057,0.24536519,-0.45970526,-0.37423587,-0.38989854,-0.37880227,0.07256005,-0.7186472,0.79949874,-0.26957443,-0.10590158,-0.026180761,0.52732044,0.40509927
of fire,0.86758214,0.10903337,0.35391387,-0.85888916,0.15630129,-0.31250948,0.18985341,0.17372714,0.17165017,0.06354946,-0.5800027,-0.08522085,0.001103638,0.25481904,-0.18206057,0.59034896,-0.12555142,0.40085623,0.049016275,0.23997302,0.3173658,-0.013117333,-0.40275428,0.33539507,-0.032262865,-0.83990824,0.48727137,-0.006312292,0.2469662,0.068838626,0.50511086,0.100500256,-0.29598334,-0.07930487,-0.49328452,-0.51084316,0.6256145,-0.19872959,-0.0029077618,0.8727564,-0.33176446,0.1374848,-0.7531526,0.41258013,0.07669826,0.6206948,-0.497169,-0.07575113,-0.64358205,-0.6594516,0.32437992,0.59414047,-0.76560736,0.092236675,-0.40636462,0.5690044,0.28195786,-0.35151336,0.40126672,-0.018717151,0.08782153,0.08954058,0.03464838,0.48719564
du khách,-0.5929734,-0.359172,0.63006634,-0.31872952,0.3410304,0.58688265,-0.19375272,-0.6607521,-0.8126471,0.28511888,0.01305031,0.0784965,-0.29792494,0.038673393,-0.28438148,-0.058109656,0.22217181,0.8140433,-0.25526497,0.3242193,0.33979446,0.4192717,0.01514985,0.4304864,0.09899967,-0.2721111,-0.12422983,-0.08712813,-0.44250992,-0.33247945,-0.22958408,-0.20485868,0.24231832,-0.022472627,-0.6415736,-0.588662,0.07253109,0.35323027,0.04109988,0.3975366,-0.47545332,-0.0073915566,-0.19024032,-0.23209056,0.68106794,-0.039188225,-0.37659052,-0.614522,-0.296796,-0.40611917,0.24575186,-0.12563282,-0.4484648,-0.50445354,0.23942457,-0.15908496,0.554264,-0.23801605,0.1988041,-0.15037712,-0.24925777,0.36975268,0.21899201,-0.11497514
không,0.4734411,-0.5419996,0.18554398,-0.29186362,0.17499906,0.36603802,-0.24439947,-0.004418275,-0.4615947,-0.20963939,-0.05519979,-0.5134575,0.40101343,-0.34025538,0.37389562,0.22314925,-0.49955475,0.086939864,-0.25933534,0.011663238,0.11467774,0.177131,-0.5943427,-0.7849803,0.7078334,-0.46277168,-0.35860014,-0.4530158,-0.013835259,-0.056724794,0.24968392,0.3514818,0.13613151,-0.6351977,0.76323617,-0.7120918,0.286266,-0.6103101,0.06621368,0.18675429,-1.0025457,0.09432179,-0.38332734,0.52255666,0.43692562,0.35170713,-0.3381925,-0.41020507,-0.14728317,-0.8436173,0.09469295,0.34497997,0.020781724,0.18084031,-0.11750655,0.17428012,0.2754101,0.2090222,0.0034312445,-0.18353027,0.3213142,0.35877353,0.2896427,0.5147073
người,0.43278584,-0.30398223,0.8701334,-0.6418377,-0.09438213,0.17817938,-0.14468195,-0.2880404,-0.69757664,-0.28341734,-0.6125464,-0.017701905,-0.3548887,0.45187467,-0.17792276,-0.06807799,-0.7933077,0.89216954,-0.49898374,0.03424742,0.21947145,0.36724222,-0.35871017,0.28560847,-0.017141227,-0.6221933,0.5831207,-0.11116735,-0.21701315,-1.01245,0.63132536,0.2956494,0.25451708,0.08063306,-0.21968326,-0.23006895,0.9196178,0.2721838,-0.044696245,0.38652954,-0.59105194,-0.11360391,-1.2691355,-0.00877138,0.5050425,0.5890442,-0.4342025,-0.97907305,-0.69521743,-0.16463768,1.1419294,0.05800269,-1.1263633,-0.14255655,0.07395933,0.6841729,0.5387097,-0.4302748,0.86204726,-0.32305667,-0.06873628,-0.16574791,0.19687285,0.24189274
bao la,0.020690087,-0.2804136,0.28004453,0.06910579,-0.117482126,-0.034009438,0.47820738,-0.12801161,0.025835114,0.20310861,-0.09692912,-0.11567069,0.32797965,0.10895381,-1.036148,-0.28858706,0.32715228,0.87166667,0.16261981,0.37823883,0.22706571,-0.634895,-0.42518774,0.20430127,0.2059073,-0.11671947,0.0143284835,-0.15570208,-0.27850962,0.028549636,0.50166965,0.2972512,-0.40511054,-0.14796524,-0.14924996,0.037804607,-0.20482047,-0.036984842,-0.17872831,-0.18298791,-0.35740292,0.75018686,-0.4712179,-0.054925445,0.2400401,0.2188347,0.01050103,0.098215565,0.0032642125,-0.8012854,0.30076528,0.041257247,-0.745197,0.095515214,-0.0857868,0.034670528,0.5275477,-0.6416499,0.21659808,-0.6392611,0.098254204,0.05056165,-0.16757566,-0.012586296
ô nhiễm,0.092872694,-0.15028343,0.118236855,-0.3239402,-0.29117993,0.28186563,-0.46575823,0.7942576,-0.31969756,0.06926371,-0.26369062,-0.50887007,0.35527635,-0.058087617,0.11157035,-0.15459226,-0.92547184,0.28813833,0.117220186,0.33339056,-0.25457138,-0.018777035,-0.69519705,0.05661359,0.31230325,0.0011035388,0.113611735,-0.074205525,0.2203346,-0.060744267,0.33874133,-0.40056112,-0.22216953,0.080997296,0.45431522,-0.6798214,0.4669308,-0.43533534,-0.3013961,-0.1314963,-0.04125384,-0.38333523,-0.550736,-0.079906546,-0.36347297,0.4256356,0.03435041,-0.65908587,0.024273382,-0.19774017,0.33921275,0.34331617,-0.43446156,-0.56196874,-1.1583893,-0.4074816,0.41696817,-0.09196106,0.034014717,-0.3784379,-0.05843664,0.24977095,0.23926705,0.23376167
bồ,0.38881183,-0.33197382,0.8419079,-0.6668843,0.010967488,0.22507265,-0.21195297,-0.33934543,-0.8274437,-0.087444335,-0.50658315,0.13635935,-0.24887532,0.38553032,-0.24252343,0.0012579482,-0.64758444,0.98593163,-0.44694918,-0.018254159,0.17809786,0.4185574,-0.30252415,0.3377691,-0.034565467,-0.62012124,0.41603497,-0.06731284,-0.3879304,-0.9346155,0.58745056,0.2460683,0.35261112,0.07601928,-0.30435097,-0.24218065,0.7762611,0.2997448,0.025554366,0.40029746,-0.7283028,-0.054283865,-1.1866096,-0.008567389,0.55126077,0.50946766,-0.3874617,-1.043365,-0.77550685,-0.25091222,1.1101271,-0.016706552,-1.1448,-0.13308755,0.29999676,0.564572,0.50722516,-0.44520977,0.76096904,-0.27855816,-0.19978905,-0.0636974,0.30251372,0.23814815
ngừng,0.39620787,-0.3988373,0.32236955,-0.100638635,0.21455278,0.46458906,-0.2559907,0.003796243,-0.25499457,-0.24857387,-0.09070171,-0.49673575,0.475947,-0.35478568,0.3883312,0.08680471,-0.5811821,0.20602956,-0.104362905,-0.028001586,-0.0001026853,0.06512328,-0.7557427,-0.85772127,0.60384834,-0.28230956,-0.30419272,-0.4713969,-0.10823299,-0.060917873,0.3682814,0.33147028,0.15830652,-0.5984446,0.79710454,-0.6804362,0.17691383,-0.6903881,-0.041749567,-0.099447414,-0.7832629,0.14889151,-0.3590839,0.49284667,0.2356385,0.29488277,-0.19213785,-0.43931106,0.078350335,-0.72021186,0.2086091,0.36577067,0.052995697,0.23427898,-0.06466277,-0.05282386,0.3592976,0.0023640716,0.05493233,-0.2442541,0.37245864,0.34939465,0.4149169,0.49209464
loài,-0.035348147,-0.26921648,0.1418677,-0.41294813,0.1419091,0.11712616,-0.29473856,-0.4880249,-0.17486419,-0.27717406,0.69425946,-0.24097817,-0.004564544,-0.2179151,0.21181192,-0.51450926,0.052130383,0.7213397,-0.20314261,-0.309867,0.1615583,0.15238628,-0.62979317,-0.14101377,0.17603526,-0.27120227,-0.2507002,-0.06091444,-0.07009372,0.07745313,0.21793042,-0.16644512,0.15649162,-0.8279169,0.3475271,-0.4511754,0.36029616,0.23651195,-0.0069294577,0.12284209,-0.1497254,-0.1510316,0.002636326,-0.32181197,0.41644612,0.026318839,0.3675806,-0.23766746,-0.25908285,-0.74102753,0.5965441,0.15003759,0.11443979,-0.25979668,0.041319698,-0.3410672,0.8801273,-0.08000981,-0.39100394,-0.49294758,0.14332281,0.7081975,0.03957243,-0.33074498
sinh vật,0.0076213437,0.011296758,0.37575608,-0.56356055,0.29123628,0.0748883,-0.2505055,-0.59192544,-0.056648303,-0.005128287,0.5006467,-0.289339,-0.21424569,-0.29779503,0.25529706,-0.46480405,0.1796367,0.7602465,-0.18151462,-0.08803224,0.36779737,0.114174366,-0.37680635,-0.0026272724,-0.13330701,-0.3733294,-0.20798612,0.016784387,0.012462812,0.25796798,-0.025541166,-0.35692042,0.092094675,-0.633491,0.069771715,-0.47669932,0.32953858,0.31838366,-0.0538725,0.10851565,0.12617806,-0.27162126,0.226499,-0.28441864,0.320045,-0.0007635666,0.24539112,-0.2402389,-0.37737966,-0.6246901,0.5679344,0.3417032,-0.11839311,-0.51838255,0.012931337,-0.39989448,0.8732399,-0.3932526,-0.3579325,-0.32493126,-0.046944693,0.8075496,0.22786392,-0.3030932
nổi bật,0.34292066,-0.122988254,0.13842788,-0.0007020135,-0.1788618,-0.45737773,-0.105280206,-0.19312842,-0.15016027,-0.28832147,-0.30684492,-0.2624337,-0.18237862,-0.11930833,-0.09662601,-0.23904835,-0.23415878,0.15618627,-0.795746,0.25062668,0.0682621,-0.2142283,-0.6517567,-0.12902705,0.86321604,-0.06269633,-0.14814052,0.24837248,0.35394314,0.014399751,-0.18107991,-0.44776693,-0.25414777,-0.46661296,0.20003715,-0.20819074,0.701216,-0.13134235,-0.033262767,0.2544437,0.18248913,0.09012528,-0.2667726,0.09881895,0.35413823,0.11995034,-0.08775372,-0.1589954,-0.33705446,-0.662154,0.07712726,0.39066955,0.1509761,-0.46725324,0.024267426,0.2743901,0.52087605,0.44832346,0.066096425,-0.1822896,-0.1719873,0.14177756,-0.13294195,0.08131132
khu vực,0.73156846,0.15932062,0.42627144,-0.822673,0.29647163,-0.28176513,0.04838746,0.18300186,-0.03395514,0.07949679,-0.39811558,0.021360321,0.17060898,0.12855771,-0.23953678,0.7199853,-0.11886217,0.38920146,0.3097798,0.19829221,0.35426113,-0.10275629,-0.35830057,0.063657016,-0.04507331,-0.7348918,0.18256475,-0.23235379,-0.0059675556,0.22810556,0.5794453,0.116398364,-0.1695355,-0.24471596,-0.4349609,-0.4923974,0.59177315,-0.018104224,0.052812666,0.64206225,-0.44763774,0.3117192,-0.6323333,0.33979237,0.11646718,0.4100686,-0.36733678,-0.009758638,-0.55465305,-0.6792363,-0.030017,0.6122879,-0.66482055,0.08387645,-0.08447661,0.43893066,0.15122873,-0.25581014,0.3335594,0.035491537,0.044232305,0.2072148,0.14826947,0.46998549
toàn cầu,0.47859204,0.23284295,0.5361721,-0.20773499,0.07359524,0.064471185,0.15175739,0.18892641,-0.12509027,0.20797236,-0.37890768,-0.17185058,0.27287972,-0.18203662,-0.16405582,-0.2712593,0.025577124,0.08002007,-0.23034887,0.6201655,0.24959898,-0.27049923,-0.82681435,-0.32253164,0.08368457,-0.13559885,-0.085910216,-0.010797513,-0.20514083,0.38403258,-0.37305897,-0.21007197,0.10798509,0.20880258,0.03550642,0.16312967,0.24413429,-0.33791518,-0.38083658,-0.48079744,0.2039569,0.14894569,-0.041309252,0.5185824,-0.008560117,0.24219576,-0.09693917,-0.1839688,-0.0060849446,-0.5259665,0.23921226,0.5236744,0.114682145,-0.17129774,0.04825287,-0.12840588,0.4361175,-0.42500123,0.6748917,0.08538193,-0.120345965,0.16738212,0.14640439,0.38670492
thách thức,-0.13870177,-0.20328234,0.25804228,-0.30192775,-0.027945822,0.16730784,-0.2553019,0.14760901,-0.36639902,0.1642125,-0.24487288,-0.42936227,0.21521944,-0.23854813,0.05918545,-0.25601804,-0.6403692,0.25403345,0.1549164,0.5164218,-0.13306259,0.14075816,-0.18753983,0.014465513,0.12401536,0.07058298,0.07744904,0.077414624,0.20880194,0.069774196,0.0055247,-0.47698084,-0.3559907,0.07002647,0.21911208,-0.6957055,0.27693233,-0.2379611,-0.34648377,-0.18409202,-0.058838446,-0.49831936,-0.22688217,0.076517366,-0.12770765,0.46658143,-0.04827972,-0.6643768,-0.08102977,-0.04196566,0.09273156,0.19075634,-0.6828412,-0.46492073,-0.823545,-0.5219396,0.091843285,-0.30833805,-0.07667818,-0.42711896,-0.17852463,-0.009828628,0.4188953,0.25354603
đặt,0.00976846,-0.12846193,0.95376295,-0.40823,-0.26420227,0.45791984,-0.2828691,-0.30864292,-0.6869935,0.03756358,-0.03463833,0.14715111,-0.101914056,0.23165546,-0.3633905,-0.2295782,-0.34123585,1.1405268,-0.33663765,-0.061849978,0.14568791,0.46657616,-0.23168582,0.36046606,0.03000459,-0.38444456,0.09328614,0.12404437,-0.57688785,-0.7226269,0.3448058,0.039948404,0.52421534,0.17105465,-0.48283416,-0.19102927,0.16572475,0.32829297,0.060652073,0.0099399,-0.41374505,0.035798777,-0.6904968,-0.18216677,0.35251483,0.18353553,-0.20450939,-1.0742729,-0.4516181,-0.39271832,1.0249197,-0.025185812,-0.75401163,-0.31853068,0.41145775,0.06796462,0.4681479,-0.4418899,0.6528564,-0.04172766,-0.33293605,0.13929956,0.3455421,-0.0016474156
cá,0.096563086,0.37927508,0.74786234,-0.04511663,-0.03634831,0.19600677,-0.09607948,0.031252567,-0.001369661,-0.50216407,-0.08194164,-0.26914707,0.30823654,-0.21380909,-0.19379951,0.041742757,-0.41868073,0.71862304,-0.30544674,0.25269908,0.3467277,-0.27505124,-0.579676,-0.45199376,0.18641151,-0.20608358,-0.2605302,-0.17826891,-0.40108517,0.10804327,-0.07947834,-0.27855435,0.37451652,-0.11607109,-0.14747055,-0.43974638,-0.21554695,-0.3656745,0.041084386,-0.57321995,0.25103703,-0.07318381,-0.117441185,0.2965386,0.066666774,-0.06826962,-0.35817856,-0.3350298,0.39705014,-0.33164787,0.16981512,0.4171127,0.31557152,-0.8033948,-0.03350273,-0.3990595,0.5629936,0.05874006,0.51143044,0.28632593,0.1391766,0.33698848,0.5139722,0.2501563
tuyến,0.30892697,0.039702106,0.8428207,-0.30363044,0.11790602,0.10760452,0.1508148,-0.145816,-0.056262095,0.15712035,-0.49293095,-0.37921154,0.1545576,-0.33061737,-0.15875764,-0.54063404,0.040123787,0.2690927,0.02925381,0.8875548,0.40388215,-0.18837425,-0.4903996,-0.2717444,-0.10133392,-0.2898852,0.15391712,0.15909392,-0.004525142,0.43093836,-0.6738401,-0.2674705,0.03853925,0.40260127,0.00545264,0.16647142,0.19213504,-0.094484076,-0.52058905,-0.6262127,0.14512952,-0.067543976,0.09005826,0.45154747,0.057133194,0.29263625,-0.053572614,-0.32392955,-0.15989968,-0.48401734,-0.016991299,0.44124413,-0.30416122,-0.32408962,0.056365967,-0.33250496,0.3006426,-0.58058715,0.94505024,-0.16603637,-0.2620281,0.033305053,0.38074276,0.4232978
rải rác,0.33008778,0.25422177,0.65944874,-0.3335702,-0.43119156,0.20786445,-0.2716514,0.080030285,0.52185565,0.4763334,-0.38957343,-0.21741174,0.043365005,-0.08331792,0.43472406,0.0031177627,-0.18992822,0.28914592,-0.27325636,-0.12262765,0.31088167,-0.1598222,-0.6066595,0.5375785,0.31511217,-0.10333095,0.44567195,0.124434166,0.36569136,-0.01339014,0.31900063,0.24214374,-0.23617004,0.029933644,0.17137161,-0.44118184,0.101619855,-0.7439456,0.053115923,0.4978724,-0.025941197,-0.21465795,-0.1801292,-0.05857572,-0.23137657,0.389973,-0.24446577,-0.48662722,-0.26407525,-0.45180297,0.9915217,0.21957846,-0.22097093,-0.2921122,-0.7197183,0.2373268,0.45633852,-0.34067875,-0.16879715,-0.21668448,0.23607156,0.29093203,-0.2726235,0.42615107
xảy,-0.1771256,-0.2240401,0.69769466,-0.12883364,0.23369768,0.54169714,-0.49063313,-0.24980558,-0.19576275,0.10843857,-0.19428393,0.25060394,0.29846618,-0.45239252,0.02379656,0.1407362,-0.203781,0.28791508,0.31703544,0.14187954,-0.09282254,-0.29477602,-1.0143063,-0.3445767,0.4218234,0.53578687,0.26159355,-0.3400266,-0.53069437,0.06517008,0.6263002,0.2011325,-0.100777835,-0.44454667,0.1329247,-0.6906189,0.64276385,-0.34786844,-0.12235272,-0.30116528,-0.40564615,0.16978644,-0.12657705,0.004887653,0.34784257,0.3180037,-0.32194644,-0.5170226,0.23784982,-0.34229076,-0.04121039,-0.09647475,0.100990266,0.011584189,-0.1702258,-0.4950368,0.5112852,-0.35150892,-0.23160216,-0.56854177,0.5660272,-0.12583716,-0.13136706,0.14308937
1520,0.0806641,0.15008453,0.913434,-0.40146226,-0.39619303,0.14597201,-0.27846295,-0.19742532,-0.44954723,0.036961544,0.18578191,-0.01915108,-0.016136205,0.0643914,-0.34984592,-0.31933713,-0.23506236,0.9527064,-0.3848744,-0.0449886,0.11423999,0.34590212,-0.19198573,0.14515367,0.032368753,-0.23460141,-0.09565937,0.26673806,-0.4372004,-0.37142938,0.103193775,-0.005810502,0.4327881,0.13062112,-0.19859794,-0.06542378,-0.07874184,0.16301782,0.1800851,-0.30202872,-0.10653988,0.05098262,-0.389685,-0.1791858,0.13796431,0.13589892,0.07798272,-0.948395,-0.4004586,-0.30573827,0.9956216,0.012980275,-0.46920758,-0.39955574,0.40881896,-0.04406655,0.22476144,-0.5093808,0.5444946,0.036388066,-0.39930865,0.21883728,0.38445535,-0.026736505
nghiêm trọng,-0.09591689,-0.19846548,0.3936338,-0.44957796,-0.28194022,0.43627164,-0.36467588,0.2642656,-0.36532402,0.23169273,-0.4638521,-0.70413977,0.24040437,-0.47032073,0.24538668,-0.073834874,-0.7217455,0.0634716,0.05773041,0.5619731,-0.036018033,-0.0506432,-0.31288964,0.19642167,0.17977795,0.003472726,0.37190613,-0.024866223,0.22954096,0.047169767,-0.00071846164,-0.4883166,-0.24817793,0.26882258,0.41627914,-0.50257164,0.3587498,-0.39850184,-0.43167982,-0.11379882,-0.06261839,-0.6050133,-0.3414149,0.025111109,-0.18317081,0.45909095,-0.13374682,-0.63244224,0.07492451,-0.15627486,0.25437108,0.11995092,-0.66474307,-0.49267018,-1.0445439,-0.44843426,0.19416812,-0.12306789,0.10240182,-0.32362413,-0.05315359,0.03805374,0.17080945,0.2828237
suy giảm,0.17138611,0.14394091,0.48515138,0.19300973,-0.23336236,0.23519029,-0.03456852,0.20062865,0.067662716,-0.3592167,-0.3276945,-0.3936422,0.56465226,-0.13972686,-0.34903628,0.058242623,-0.61176145,0.7853797,-0.07299693,0.18504386,0.11060476,-0.38908142,-0.6303321,-0.28365988,0.21433978,-0.20885849,-0.2278939,-0.21444987,-0.33178434,0.01152051,0.21762046,-0.16048717,0.16036972,-0.09749479,0.17343636,-0.3646147,-0.30145133,-0.62780154,0.008254589,-0.5559514,-0.06335939,0.07504777,-0.34016168,0.38577062,-0.10303067,0.063380145,-0.25025693,-0.34888056,0.35502195,-0.38580516,0.16374612,0.3055828,0.058006212,-0.62870234,-0.20872426,-0.34155163,0.39318553,0.14830273,0.34796473,0.060603075,0.13578147,0.24851058,0.57723695,0.30169934
bảo vệ,0.33584535,-0.010255291,0.47685343,-0.33894342,-0.027878206,-0.03558012,-0.24161148,0.066263705,-0.39553234,0.204766,-0.07195122,-0.21527949,0.55123717,-0.26694492,0.059994016,0.37009805,-0.5007804,0.269003,0.34311935,-0.093541,0.33607247,-0.16560057,-0.18748917,-0.43989453,0.18237004,-0.28636295,-0.55253583,-0.49631512,-0.11702975,0.11511977,0.55088437,0.37949634,-0.099299915,-0.5381812,0.7234714,-0.21966048,0.1431028,-0.3408753,0.1830281,0.13097665,-0.6403615,0.45274723,-0.3217663,0.13201033,0.121602334,0.104820244,-0.021118384,-0.29880816,-0.24615209,-0.56786895,0.05477867,0.44097835,-0.45092186,-0.0041703493,-0.040522672,0.15691847,0.10027187,-0.13896236,-0.21676499,-0.11230965,0.18155582,0.522864,0.28836432,0.49092108
11.000,-0.5696714,-0.35699585,0.7081784,-0.5170133,-0.5524798,0.6998295,0.08853235,-0.09524927,-0.63098836,-0.45413676,0.23761134,-0.9035705,0.15647826,-0.29155254,0.39816052,-0.2866968,-0.15080127,-0.09771988,-0.26984546,0.94535714,0.6617255,0.08952817,0.012402359,-0.6517849,0.8561482,-0.22953455,-0.14505117,0.124627985,0.14986987,-0.05505427,-0.12219778,-0.4053157,-0.56488913,-0.11705265,0.35247537,-0.38066405,0.059167106,0.21476537,-0.65322775,0.20885345,-0.15305051,-0.11046923,-0.598882,-8.371641e-05,0.7889477,0.55199784,-0.028800778,-0.73510027,-0.09484426,-0.44689268,0.18954277,0.115596116,-0.4741784,-0.27061328,-0.5325835,-0.017327156,0.07216754,0.3253239,0.41855296,-0.11635664,0.032957003,-0.26047933,-0.08331742,0.26348037
ngọn,-0.27002063,-0.085635506,0.3188919,-0.5037748,0.53525466,0.3901946,-0.054999713,-0.3750582,0.23826717,0.1970128,-0.22839203,-0.09404139,0.121241555,-0.29205766,0.10376261,0.67422646,0.29402453,0.2877336,0.065454766,0.37608692,0.38167837,-0.13182324,-0.3516424,0.15058179,0.017573971,-0.33914086,0.48153165,-0.16036701,-0.3107854,0.44480535,0.116983436,-0.5248506,-0.35134107,-0.31392515,-0.74954706,-0.85596913,0.5674205,-0.38471374,-0.010518271,0.5081343,-0.26641205,0.04178748,-0.10133805,0.044970118,0.40956566,0.6743564,-0.43785548,-0.3704408,-0.1271899,-0.3347406,-0.120914705,-0.23114382,-0.49551994,-0.05778297,-0.70559156,-0.25151443,0.39584658,-0.056347582,-0.2794203,-0.18113229,0.24243039,-0.23899566,-0.03445097,0.29282084
hoạt động,-0.1728892,-0.13630982,0.5443676,-0.025457744,0.4094216,0.49970117,-0.518335,-0.28607488,-0.01902058,0.12219976,-0.37393224,0.0869392,-0.08764465,-0.40769497,0.17656161,0.21630305,-0.19023143,0.3183104,-0.060768582,0.13475409,-0.014645872,0.051058143,-0.73292375,-0.16087227,0.47024375,0.4384484,0.2013486,-0.18908474,-0.20703463,0.108701415,0.14264178,-0.18155642,-0.09812127,-0.3584876,-0.19923027,-0.9563746,0.6145015,-0.53897417,0.08882638,-0.07859741,-0.24000508,-0.0040451665,0.076592155,0.027178269,0.17524737,0.29762757,-0.37734425,-0.5908891,0.042728446,-0.18296099,-0.0779715,-0.105382994,-0.026846522,-0.23975986,-0.296768,-0.4557273,0.3864488,-0.17020293,-0.33657828,-0.40647754,0.20898195,-0.04925349,0.05170553,0.2282065
bề mặt,-0.3770137,-0.3955119,0.45336097,0.011686354,-0.37541875,0.4147615,-0.2629284,0.1543514,-0.024848437,-0.21158135,-0.4449503,-0.7834637,-0.48384732,0.0395883,-0.016286002,-0.5169801,-0.008069004,0.572411,0.10809532,0.45456046,0.12234131,0.31311437,-0.58939517,-0.030208787,0.69786215,-0.2529127,0.2294304,-0.020037347,0.27690244,-0.14598377,-0.18385957,-0.5797252,-0.19029035,-0.30529746,-0.30093935,-0.48290116,0.5153933,0.39271232,-0.2327725,0.33877513,-0.10804745,0.4916898,-0.12938716,-0.21225728,0.19668485,-0.028135305,0.28396848,-0.17741431,-0.39710352,-0.86905074,-0.56493205,0.47425467,-0.42662537,-0.34722045,-0.47765112,-0.059131123,0.8916636,0.639974,0.47417673,-0.57695526,-0.41404736,0.11113681,-0.29914775,-0.0666724
nhà,0.511341,-0.24726872,0.6875964,-0.5597211,-0.080382355,-0.1055142,-0.11611033,-0.28341976,-0.6291323,-0.41925547,-0.76708066,0.014319979,-0.39745635,0.41520938,-0.17740388,0.006141785,-0.7546939,0.7078149,-0.5590481,0.09528638,0.15444134,0.27105036,-0.4499798,0.17013936,0.13543361,-0.59455156,0.50147504,-0.02878521,-0.054394297,-0.8748135,0.52916324,0.12329043,0.16022931,-0.03768959,-0.1658336,-0.23332207,1.0277807,0.25665942,-0.0161187,0.45595923,-0.44990426,-0.07653067,-1.2406416,0.07849755,0.47487214,0.5046276,-0.4309361,-0.7711768,-0.69412524,-0.19402535,0.8759823,0.22432725,-0.94241697,-0.17113547,0.14843132,0.77468294,0.5652465,-0.16792701,0.8985427,-0.2902409,-0.1304848,-0.18123071,0.154834,0.292257
hòa bình,-0.11859957,0.04810749,0.56785023,-0.6844842,-0.47849643,-0.09672131,-0.49267757,0.20599574,0.05558657,-0.3294837,0.4876076,-0.326578,0.16921666,0.07772511,-0.1530011,-0.30343646,-0.08203865,0.32721317,-0.2535641,0.3495402,0.22487141,0.03811161,-0.5340442,-0.6832371,0.5329599,0.090586245,-0.374083,0.18133397,-0.060464676,0.40475616,-0.30223903,-8.7861554e-05,-0.27760094,-0.1552873,0.21100934,-0.5986598,0.32380316,-0.152195,0.14092949,-0.31387964,-0.09190179,-0.048645876,0.21647002,0.055756554,0.28871033,0.3180223,0.08717175,-0.5425818,-0.28401113,-0.2100522,0.1975442,0.28951314,0.4419835,-0.47887534,-0.65224016,-0.28121132,0.41775742,0.018789114,0.24143699,-0.0073511903,0.14174981,-0.018451236,0.0039280215,0.1838792
mạnh,-0.07440783,-0.061544783,0.73350704,-0.3489212,0.08066257,0.20812784,-0.30489472,-0.59432405,-0.2504842,0.11609938,-0.046486255,0.401873,0.35239515,-0.3067449,-0.060790107,-0.070662215,-0.17633459,0.3709663,0.5438932,-0.0049505006,-0.023923352,-0.34112683,-0.7005415,-0.27899727,0.011356352,0.3974764,0.05321432,-0.15333727,-0.35588902,0.10904647,0.84033036,0.1293712,-0.27098343,-0.61204,0.2949694,-0.34182099,0.6510116,0.08047183,-0.31690633,-0.12507312,-0.24636161,0.15238923,-0.22540642,-0.050776675,0.35115838,0.2116877,-0.07045626,-0.39764118,-0.033397373,-0.34951347,0.04732225,0.07410722,-0.2652576,0.11275158,0.104882054,-0.419854,0.40185326,-0.44318873,-0.27444267,-0.63868594,0.43626153,-0.092822224,-0.051289,0.069423206
hawaii,0.6825167,0.04046752,0.09555811,-0.54854697,-0.0024085836,0.050865706,-0.184466,0.74848425,-0.28874412,0.3003687,-0.0763802,-0.13212146,-0.007408554,-0.21202768,-0.15201993,-0.04267907,-0.4746574,0.100111574,-0.14930713,0.1988988,-0.04347733,-0.16406442,-0.6032209,0.26400524,0.0236168,-0.24443209,0.6939848,-0.08223663,0.1320651,0.015155756,0.3008368,0.12759818,-0.0027769518,0.38450658,0.044329967,-0.29272956,0.7731904,-0.2190987,-0.2660301,-0.2596127,-0.0052628033,-0.36880168,-0.3556921,-0.0918611,-0.31961742,0.6589305,-0.074026376,-0.33053738,-0.13996506,-0.3183718,0.77185154,0.26076004,-0.5426374,-0.23985729,-0.77209437,0.020078318,0.17808384,-0.9067828,0.33163205,-0.15593575,-0.07091566,0.25697067,-0.040650614,0.07157565
qua,-0.46432945,-0.50588477,0.46904013,-0.49154672,0.2666689,0.5792907,-0.07732241,-0.46581596,-0.3336985,0.37825093,0.2155335,-0.507406,0.10143648,-0.6058542,0.3033912,-0.20563276,0.437732,0.19891669,-0.008877322,0.5109701,0.5902302,-0.016824406,-0.18650924,-0.057343032,0.06383828,-0.37012056,0.14933503,-0.22546023,-0.25524417,0.28621915,-0.39817128,-0.06758491,0.0038549989,0.02215252,0.12542464,-0.25054967,0.20816533,0.06505367,-0.3528772,0.12200486,-0.46178517,-0.32147604,0.2673146,-0.06901957,0.5375356,0.33408996,-0.13783377,-0.34957287,-0.18593717,-0.5584172,0.20366709,-0.33638674,-0.22985582,-0.17323259,-0.37855914,-0.45093814,0.3720224,-0.3149776,-0.084141016,-0.25711116,0.18444362,0.25469744,-0.012714944,0.07978806
biến đổi,0.07356487,-0.11341843,0.19480178,-0.06604104,-0.22199322,0.37414902,-0.16224754,0.6109936,-0.17579094,0.050226066,-0.19639434,-0.5501611,0.5351434,-0.157586,-0.018270327,-0.11558116,-0.75425565,0.33016017,0.09191762,0.36778805,-0.13838598,-0.23354007,-0.7489973,-0.14615114,0.22083843,-0.01957885,0.014175785,-0.2110157,-0.12425881,0.008435036,0.30439007,-0.3037059,-0.013429139,0.04292116,0.42176762,-0.4858261,0.08275071,-0.61277,-0.31498092,-0.3949933,-0.09127617,-0.21452986,-0.35362625,0.12574908,-0.34518158,0.29394406,-0.1068564,-0.463971,0.1947134,-0.32966694,0.23465449,0.28734905,-0.15350619,-0.45935887,-0.75212187,-0.4156371,0.43954614,-0.08727796,0.078087196,-0.15980712,0.08609413,0.24341664,0.22686565,0.253684
đảo quốc,-0.06682892,0.2925231,0.8690045,-0.32182974,-0.37056324,0.5154743,-0.4387152,-0.07241706,0.38399932,0.2813195,-0.28629512,-0.31454042,0.33838302,-0.5901625,0.4423396,0.35602978,-0.18470469,0.0044370196,-0.08435476,0.07294976,0.5609343,-0.5499317,-0.44355986,-0.043927718,0.31261402,0.18717505,0.41555,-0.12213043,-0.0580691,0.3768475,0.24111831,-0.14317104,-0.37380627,-0.056178685,0.23726985,-0.28400883,0.43839997,-0.5209806,-0.15115777,-0.18660177,0.057620533,0.11132079,-0.052836493,-0.24700357,0.11984873,0.39001906,-0.22253725,-0.7612511,0.07357533,-0.26138863,0.5477427,-0.16450518,-0.15523738,-0.34745649,-0.75214386,-0.13589579,0.40421,-0.21091738,-0.09295716,-0.027301373,0.36056897,-0.092447884,-0.3365341,0.41790643
lưu thông,-0.37758204,0.19648871,0.93705624,-0.42925653,-0.44180548,0.8485155,-0.41695127,-0.12463457,-0.0033515866,0.022514468,-0.27827582,-0.45684406,0.33278286,-0.5321454,0.30985942,0.42112595,-0.3044091,0.043296654,0.008232222,0.4134629,0.57892853,-0.3184895,-0.22787875,-0.16193768,0.3650247,0.3520134,0.23638919,-0.16611588,-0.29248816,0.18794893,0.1434489,-0.35804003,-0.3483099,-0.06364254,0.19828749,-0.35547286,0.14927466,-0.36452484,-0.100028776,-0.29327393,-0.029778074,0.15537973,-0.27251697,-0.28577814,0.34574917,0.21549244,-0.2673146,-0.8257065,0.42026356,-0.1858403,0.28330418,-0.22489265,-0.14827594,-0.4907324,-0.6041978,-0.2970051,0.28719,0.06207274,0.055258933,0.06742929,0.30653024,-0.1249058,-0.2588355,0.2949327
khiến,0.25383505,-0.60770935,0.18480164,-0.16233939,-0.18274803,0.38241434,-0.055193324,0.12206413,-0.32151166,-0.4953548,0.17757274,-0.88241553,0.37419087,-0.25496548,0.20202304,-0.1170198,-0.36251652,0.16774286,-0.2924714,0.2207416,0.054528326,0.17012265,-0.52524376,-1.0153384,0.8476019,-0.52781147,-0.36246312,-0.3476019,0.058240198,-0.018095171,0.15440688,0.26331127,0.04386602,-0.60062534,0.735723,-0.5777057,0.034533575,-0.3990931,-0.14066923,0.047041483,-0.82461935,0.11147978,-0.3866657,0.45654118,0.48658416,0.29890558,-0.10910654,-0.3257088,-0.14502817,-0.91073143,0.036632977,0.40824518,-0.0025812702,0.18958202,-0.1663118,0.2010949,0.3786062,0.36585626,0.2667074,-0.21683626,0.22824554,0.12386566,0.16234416,0.4140499
tương đương,-0.48158652,-0.3434451,0.49078342,-0.087698564,-0.36520314,0.51604915,-0.18785419,0.16832578,-0.15304863,-0.20831783,-0.14193353,-0.79158854,-0.46664378,0.06774531,-0.057506707,-0.5141712,0.10273478,0.6688673,0.0832728,0.48816785,0.23729154,0.3956224,-0.42679384,0.06878009,0.55946195,-0.3498144,0.12801337,-0.043048058,0.1415682,-0.15458038,-0.36306667,-0.56440496,-0.014115015,-0.18561582,-0.3670019,-0.45146123,0.28969136,0.5352482,-0.097034626,0.29941282,-0.103654176,0.37010592,0.012418414,-0.33661014,0.29197872,-0.15018076,0.19890258,-0.19175994,-0.3755805,-0.8173479,-0.41544822,0.49594417,-0.3102803,-0.51694936,-0.47031423,-0.020412065,0.9034299,0.52958995,0.5281633,-0.38728294,-0.4145902,0.2338855,-0.3188349,-0.08597715
mà còn,-0.01612402,0.025090484,0.48499045,0.13635999,0.39284098,-0.104947135,0.19453461,-0.19077037,-0.004564196,0.5465895,-0.56496686,-0.19088094,0.045838017,0.13680045,-0.6281181,0.048535217,0.4050833,0.9175293,-0.2093694,0.09131085,0.46143034,-0.36709443,-0.6324156,0.3842715,0.53271186,0.073256485,-0.38563552,-0.18249772,-0.27474892,0.14617486,0.08520906,-0.03825413,-0.31838685,-0.4881745,-0.30319884,-0.6804224,-0.36810437,-0.42680666,0.43958062,-0.100938454,-0.3977342,0.9434854,-0.3628594,0.067221925,0.035234004,0.019086998,-0.10030985,-0.27458757,-0.10851592,-0.83161616,0.26495913,0.14573564,-0.45051605,-0.4013084,0.451948,-0.0071896524,0.44137067,-0.2776632,-0.21275063,-0.45649433,-0.26346955,0.64141643,0.19348656,0.20806086
yên bình,0.58625555,0.37456495,0.6334401,-0.47964203,-0.22055328,-0.25329387,-0.059853785,-0.08502541,0.11738681,0.129775,0.20022364,-0.16130553,-0.09491032,-0.24671146,-0.24243651,-0.5329185,-0.09159157,0.8567773,-0.39196977,0.024341742,0.11222603,-0.09817985,-0.47865623,0.18573953,-0.23109749,-0.27266595,0.15721114,0.2631109,0.14593308,0.055722136,0.1239418,0.13158387,0.13805388,-0.092596576,0.1361231,-0.12359399,0.053857803,-0.21405414,0.013037066,-0.2731334,0.3083429,-0.25360563,-0.058037885,-0.06874858,-0.14849086,0.33520576,0.06044612,-0.37998593,-0.31926537,-0.4974008,1.2201018,0.4183154,-0.47619274,-0.40638632,-0.124389805,-0.07785493,0.52777725,-1.0049745,0.099842705,-0.15392028,-0.07491097,0.5815667,0.12445561,-0.09314359
sinh sống,-0.05169855,0.268145,0.44068962,-0.7232121,0.23001319,0.18719523,0.018537587,-0.2697298,-0.3302016,0.13449286,0.26459724,-0.0018728285,0.04020914,-0.27014023,0.07263899,0.3606459,0.13676946,0.39240953,-0.05756463,0.21905304,0.28690886,0.15318426,-0.178981,0.0053838436,0.021709738,-0.3857329,-0.29433578,-0.0067870216,-0.24905622,0.10731544,0.026782209,-0.3101668,0.18323238,-0.36848235,-0.43156835,-0.5001326,-0.041389618,0.06728376,0.035941117,0.37254375,0.06015809,-0.0046063275,-0.058323335,-0.078283675,0.29267162,0.04438641,-0.15215184,-0.15010037,-0.07738628,-0.49908692,0.2041618,0.38874355,-0.09611164,-0.34653613,0.085249625,-0.17468348,0.3377569,-0.14263695,-0.043013602,0.16782331,-0.07562056,0.66981435,0.116042234,0.073105894
để,0.43832386,-0.014972833,0.44107264,-0.40704903,0.07552058,-0.22231667,-0.43567213,-0.13309638,-0.35289198,0.2788989,0.05487416,-0.064031385,0.4952404,-0.59661347,-0.013013173,0.28383875,-0.4622668,0.23468217,0.16470033,-0.13502966,0.21205921,-0.32754996,-0.21752138,-0.5148717,0.018589834,-0.2440687,-0.4196103,-0.4609863,-0.18435116,0.4104904,0.37279737,0.3295015,0.021162007,-0.5337418,0.71943414,-0.1390722,0.6832846,-0.32689828,0.15445244,-0.070093475,-0.5143826,0.1855955,0.008439215,0.05452241,0.27797443,0.33401537,-0.08508846,-0.36949277,-0.39379346,-0.4897098,0.08295238,0.3483655,-0.43736756,-0.11482388,-0.13771525,0.075252734,0.17494024,-0.43955088,-0.24761036,-0.12936714,0.12992457,0.4471512,0.31539607,0.40925363
sức sống,-0.4146094,-0.10728996,0.6265461,-0.6831789,-0.36297107,-0.12648398,-0.49681914,0.2579447,-0.12799142,-0.26876357,0.512315,-0.16708733,0.29672012,0.24360292,-0.34767365,-0.1751709,0.04499788,0.40339068,0.03217129,0.48154408,0.34054783,0.08997647,-0.43597227,-0.79264224,0.6594369,0.12199615,-0.6108144,0.09115631,-0.2856825,0.48981395,-0.30128506,0.070165224,-0.32975033,-0.22128382,0.025128199,-0.79161,0.26109728,-0.015272178,0.27746317,-0.23764056,-0.46179098,0.2166694,0.23203646,0.20223309,0.44721758,0.24823716,-0.017878748,-0.53672636,-0.4564511,-0.29156312,-0.23004913,0.26195052,0.4992583,-0.46940207,-0.58199143,-0.35464153,0.3398929,0.189473,0.20884709,-0.03218191,0.19672401,-0.03226578,0.1085383,0.2887512
mặt,0.16103719,0.24288505,0.7555977,0.079609476,0.14630689,-0.08562371,0.20511816,-0.14939259,0.014574619,0.3421874,-0.50949705,-0.22441493,0.09824905,0.17728567,-0.6427766,0.08263695,0.18682571,0.95876163,-0.4221054,0.037651,0.43131727,-0.41388512,-0.7164982,0.3869437,0.49266666,0.06887174,-0.2418081,-0.039291333,-0.4158773,-0.005112154,0.2127018,0.1151632,-0.1348737,-0.33457196,-0.28926018,-0.5199617,-0.55191344,-0.5338616,0.5385532,-0.19795601,-0.22894569,0.91693914,-0.57278395,0.04206162,-0.033314016,0.110456206,-0.18229048,-0.4538283,0.06293636,-0.70962304,0.62328047,0.07023097,-0.42012554,-0.40435922,0.4858504,0.15102944,0.34681404,-0.2854172,0.06412338,-0.24323566,-0.1466807,0.4687644,0.16718552,0.2693599
châu úc,-0.3275079,-0.61533237,0.2268408,-0.24909706,0.17809734,0.40224892,-0.09452475,-0.10353557,-0.17730659,0.19952884,0.13962719,-0.47918203,0.44919088,-0.64478034,-0.60667056,0.013124394,0.32293412,0.36436233,-0.3475166,0.5317939,0.39603326,-0.4232444,-0.457805,-0.13704158,0.45404583,-0.17206994,-0.015302743,-0.40069294,-0.5458038,0.5791884,-0.51430976,0.20485713,0.037810083,0.19026496,0.2112233,-0.14881298,0.018687803,-0.39990264,-0.012941727,-0.5161384,-0.6408486,-0.05452468,0.30579534,0.04689318,0.4883988,0.39997923,-0.19154625,-0.25907996,0.074375845,-0.42991707,0.038632534,-0.46611524,-0.119141676,-0.2100277,-0.35160983,-0.31872913,0.26045594,-0.38412485,0.4922751,-0.24377348,0.0316697,0.014766108,0.15745272,0.2568478
hàng hải,0.29270738,-0.16343363,0.8157239,-0.3782277,0.08535684,0.09914475,0.12534437,-0.3302911,-0.07662979,0.1333507,-0.1810431,-0.47013292,0.20426935,-0.480439,-0.06170883,-0.53200847,0.14905362,0.19822884,-0.24943766,0.66315645,0.48111483,-0.16437279,-0.40869662,-0.3327376,0.039156497,-0.3775353,0.1304191,0.122749224,-0.011768347,0.41563278,-0.7148713,0.081012584,0.11519457,0.30806255,0.29777735,0.1287208,0.08591944,-0.25210062,-0.34770802,-0.5628565,-0.06738311,-0.2642359,0.19698401,0.41252515,0.28182623,0.35183588,-0.10720518,-0.41706067,-0.19176036,-0.52990335,0.32357597,0.18197863,-0.12788315,-0.17367546,0.03328256,-0.17569901,0.23378359,-0.62534696,0.81578964,-0.11085885,-0.084811084,0.093221396,0.36484778,0.43450308
điều hòa,-0.2202691,-0.08176316,-0.03091631,-0.3062693,-0.24361715,-0.04522291,-0.087669596,0.5828244,-0.29598403,-0.77325064,0.31293467,-0.5667137,0.22196092,0.15272507,-0.1382416,-0.2681302,-0.51774776,0.31639683,-0.3990539,0.24593842,-0.0153098395,-0.13967408,-0.869207,-0.44631726,0.71656907,-0.5510386,0.03133476,0.09053879,-0.060061447,-0.16178593,0.2954332,-0.5729631,0.0273573,-0.17759751,-0.018831842,-0.32984537,0.4523204,0.1573935,-0.46989247,0.13382275,0.4615966,0.18192777,-0.72682273,-0.29324317,0.12679872,0.18054879,0.32891247,-0.27436468,0.08346613,-0.47152042,0.064092375,0.33091158,-0.038736586,-0.33023465,-0.67330456,0.07615382,0.67491883,0.6529054,0.6108485,-0.22682059,-0.1591436,0.15197095,-0.033529878,0.14076668
bao,0.5728015,0.03496886,0.22351094,-0.72754097,0.46827352,-0.24037628,0.22352989,-0.052860778,-0.03216005,0.17158405,-0.20901617,-0.05463568,0.13030875,0.08836646,-0.2907093,0.66081303,0.1475946,0.4847748,0.15825444,0.20674182,0.4251871,0.059062712,-0.19108081,0.044573065,-0.063810095,-0.7935243,0.032629363,-0.22376601,-0.10901247,0.3062468,0.32688728,0.081437655,-0.118772425,-0.35815063,-0.50554997,-0.41507494,0.3711852,-0.035489008,0.13610753,0.7481792,-0.6007625,0.394925,-0.39000314,0.317197,0.33107674,0.41299647,-0.28288922,0.09484879,-0.6081377,-0.7282446,-0.020808034,0.39038378,-0.6625827,0.16825841,0.0070195715,0.35255334,0.1712197,-0.2860756,0.09085276,-0.048825763,-0.045844402,0.266117,0.19449417,0.38999334
bí ẩn,-0.132768,-0.21854892,-0.109261625,-0.116942674,-0.007675523,0.031694487,0.19230485,0.47392866,-0.03616154,-0.09506208,0.54457283,-0.37758237,0.6674823,-0.022591064,-0.37028566,-0.09452212,0.10357631,0.14737265,-0.3158999,0.3981978,0.15446214,-0.42426035,-0.7177043,-0.58593935,0.62887514,-0.3297123,-0.32531232,-0.12534739,-0.3331185,0.50029045,0.14058353,-0.23988426,-0.24588102,-0.34023157,0.0009637463,-0.44065246,0.15128033,-0.2216737,-0.26932245,-0.32566062,-0.15687804,0.43586662,-0.2102063,0.085834734,0.37214875,0.29394788,0.119526766,-0.28271753,-0.11775219,-0.67292166,0.16274121,0.10805382,0.16748817,-0.055948816,-0.4062598,-0.1295492,0.5341524,0.028979206,-0.0095458925,-0.09164616,0.056390695,0.07422066,-0.14727524,0.19672711
đa dạng,0.07457698,0.18155943,0.3928507,-0.5664211,0.6505292,0.033178,-0.07129063,-0.31924355,-0.36553636,0.5406085,-0.20588584,0.39649135,0.08288305,0.03147007,-0.069894314,0.3285226,0.22787735,0.2679443,-0.16460383,0.21493505,0.36235213,0.1255226,-0.21001436,0.09929506,0.06718404,-0.290633,-0.44063625,0.07724144,-0.24864712,0.20919868,-0.032889113,-0.30797625,-0.033780687,-0.2933706,-0.49678808,-0.655,0.33535567,-0.034222882,-0.0033253755,0.34835485,-0.20339106,0.32348996,-0.20056665,0.14413619,0.39337328,0.076146774,-0.34155282,-0.4841901,-0.3824207,-0.5464416,0.18862371,0.2630966,-0.19022024,-0.40259942,0.41407502,-0.113068715,0.29399282,-0.45708948,-0.16302173,0.018553533,-0.261636,0.6636456,0.38004524,0.3059335
kinh tế,0.35119116,0.2647962,0.5823999,-0.18420087,0.15949576,-0.027923282,-0.06780008,-0.024978524,-0.24124742,0.4302606,-0.36005276,0.0036399013,0.18225136,-0.28478444,0.0011509944,-0.22494753,0.13581531,-0.11760342,-0.49864528,0.32699904,0.294687,-0.28278288,-0.7234874,-0.28249097,0.26213613,0.06921191,-0.29228282,0.039725628,-0.22270001,0.3432453,-0.43582997,-0.17967989,0.14861597,0.09597842,0.14150399,0.13939579,0.44716823,-0.27138647,-0.26198456,-0.38964826,0.22008581,0.33980933,0.00816294,0.27843052,0.13127291,0.16524664,-0.07402262,-0.45759994,-0.0796258,-0.44989857,0.35922045,0.28059492,0.1683649,-0.23855387,0.26584554,-0.048159,0.4434423,-0.393672,0.48121896,-0.0040292433,-0.19702704,0.3421609,0.035893004,0.341823
từ,0.20218451,-0.32051328,0.12644385,-0.44240877,0.173109,-0.0026349789,-0.5483388,0.1675448,-0.11370834,0.3792147,0.17575073,-0.30408093,0.4921051,-0.60916513,-0.17204954,0.08406948,0.037334796,0.14261611,-0.28095952,-0.085358605,0.49618682,-0.5095981,-0.33147183,-0.31781408,0.18371285,-0.4908729,-0.057684906,-0.4482614,-0.30946591,0.8427958,-0.2203502,0.18671183,0.10209736,0.18337232,0.41174468,-0.057992943,0.8179733,-0.10807463,-0.018133113,-0.50345546,-0.5464378,-0.04796638,0.30773407,-0.14751789,0.30614996,0.40668818,0.08729006,-0.5153134,-0.3640912,-0.37672552,0.16599114,-0.21291298,-0.31303614,-0.41672647,-0.43669096,-0.12152561,0.28014588,-0.5441137,0.4149237,-0.17860246,-0.17640072,0.4082892,0.4499333,0.39417148
tây,-0.37257284,-0.42230716,0.41511562,-0.1292086,-0.06354032,0.4253271,-0.013725137,-0.14598294,-0.18748161,0.07677679,0.01535713,-0.49755573,0.27897564,-0.69351184,-0.4635809,0.0066145407,0.10974516,0.49369392,-0.3409625,0.5244407,0.37622517,-0.5181011,-0.30049956,0.027707027,0.35930032,-0.15633416,0.07126598,-0.40266365,-0.381453,0.37311623,-0.4061531,0.20883924,0.11349094,0.19571903,0.2557975,-0.14156343,-0.22971101,-0.5156643,0.04333949,-0.25663817,-0.3994848,-0.20206967,0.2368048,-0.02266455,0.39488086,0.26589105,-0.2892211,-0.08800876,0.25325522,-0.41290563,0.10035507,-0.28732365,-0.12107043,-0.45512602,-0.4680918,-0.21331257,0.2886948,-0.2136017,0.32711744,-0.13511635,0.19516556,0.16111374,0.042539086,0.1866378
đông,-0.35808784,-0.6068139,0.4023385,-0.12255019,-0.17668943,0.45526743,0.22464055,-0.20977892,-0.50659513,0.22419198,0.10977739,-0.3473957,0.11985797,-0.41105404,-1.1367869,-0.3507344,0.34454718,1.0129166,-0.1870461,0.7080436,0.2844664,-0.42799237,-0.47500452,0.35471252,0.25458914,-0.19004212,0.09525546,-0.37430632,-0.5936306,0.00549476,-0.22818005,0.3222306,0.12865056,0.17834224,0.056445573,0.18267876,-0.32009012,-0.15016194,-0.082180336,-0.15952726,-0.6044729,0.179184,-0.008282005,-0.1757804,0.49054244,0.1300289,-0.17998016,0.14524662,0.24247219,-0.84248227,0.24969415,-0.17372726,-0.41717002,-0.2557934,-0.2527614,-0.16079986,0.5872193,-0.47729996,0.54725915,-0.53535366,0.076960854,0.2850637,-0.2201151,-0.1848517
nên,-0.0027198843,-0.50738055,0.37475494,-0.037799582,-0.1508269,0.2342854,0.39656937,-0.31108204,-0.19121926,0.33066484,-0.09950263,-0.28665403,0.17935015,-0.27035764,-1.0247025,-0.31707758,0.4708965,0.93801534,-0.198075,0.50958616,0.466704,-0.55387473,-0.42205223,0.45995754,0.2833536,-0.14711404,0.10698029,-0.2950944,-0.41334853,0.037819054,-0.030360494,0.49560496,-0.1027103,0.16243604,0.08756452,0.2395206,-0.32538873,-0.20941402,-0.03329698,-0.1807224,-0.6447166,0.44484696,-0.17617899,-0.032821395,0.3987927,0.21616079,-0.15865877,0.08879614,0.048711553,-0.91615784,0.5308574,-0.21170655,-0.5704929,-0.13427049,0.007167503,0.034688354,0.539374,-0.6886581,0.4656072,-0.5770915,0.07718116,0.30914626,-0.14199129,-0.08811626
trăm,-0.14809439,-0.20770906,0.07905637,-0.51824665,0.7531541,0.4344404,-0.14725202,-0.27483577,0.05148138,0.25065088,-0.06871633,-0.08568732,0.04359674,-0.3047266,0.24857178,0.6566481,0.2965117,0.085816056,-0.037116606,0.21267727,0.3584028,0.113042235,-0.3158049,-0.002857219,0.18954329,-0.4782958,0.17640035,-0.2828525,-0.2980535,0.39040965,-0.029256163,-0.45822248,-0.14743751,-0.46052587,-0.61632353,-0.9358371,0.70601976,-0.2824836,0.09801928,0.5978072,-0.50092804,0.21029897,0.08831098,0.06499012,0.52456856,0.5539717,-0.36621615,-0.28300303,-0.2766101,-0.52804774,-0.18596336,-0.038445126,-0.2558214,-0.058768604,-0.5050683,-0.18033846,0.47203326,-0.043723997,-0.39994538,-0.08566292,0.13638334,0.18933722,-0.0012117398,0.25523087
thu hút,-0.7164861,-0.37877923,0.6617912,-0.57281435,0.15321708,0.74137795,-0.21509223,-0.47005323,-0.82023877,0.21679117,0.27432212,-0.12913516,-0.35435185,-0.2584981,-0.33804578,-0.14421862,0.3238452,0.7956753,-0.07740303,0.49900964,0.25668055,0.37335527,-0.105029896,0.31681517,0.078619905,-0.21261242,0.04098687,-0.24195015,-0.54820913,-0.24022911,-0.31943372,-0.056115203,0.36926448,-0.0139511805,-0.477147,-0.38205042,0.05899761,0.39001837,0.06546636,0.37055343,-0.4024513,-0.096907295,0.11729795,-0.44802696,0.67338485,-0.00095464534,-0.2097083,-0.2833177,-0.089390285,-0.5036668,0.15888084,-0.032907862,-0.37343046,-0.37074342,-0.120275386,-0.21185388,0.63078177,-0.25501528,0.3105405,-0.2309765,-0.11330339,0.386672,-0.17601694,-0.20918463
ring,0.8783276,0.28055945,0.4752307,-1.0337772,0.04881989,-0.31428877,0.05716421,0.38191456,-0.032569144,-0.010290167,-0.29045394,-0.12339298,0.0050912336,0.089821965,-0.38530394,0.6732146,-0.09235755,0.38439506,0.17095983,0.39517364,0.37667796,-0.06748815,-0.41067106,0.11970217,0.13618252,-0.8111753,0.41957352,-0.08882046,0.21226747,0.13422053,0.48467398,0.21649261,-0.20643294,-0.07230341,-0.54547274,-0.47121686,0.49850336,0.0708956,-0.0765122,0.6927139,-0.25606674,0.16601752,-0.7016072,0.25599036,0.06738664,0.5351213,-0.36369032,0.15694839,-0.493971,-0.8340579,0.15759161,0.8476624,-0.7496402,-0.0055766893,-0.36368808,0.59239846,0.14403625,-0.35026038,0.6361179,0.12088907,0.019364493,0.16746236,-0.110977955,0.44926447
hùng vĩ,-0.21486536,-0.3598511,-0.120621115,-0.10058312,-0.09371458,0.23054934,0.09085404,0.3799327,0.22624314,0.04806992,0.43103075,-0.38917956,0.63998497,-0.0003253542,-0.19163392,-0.08799547,0.17920803,0.11310423,-0.08994493,0.20902266,0.06683811,-0.47066036,-0.81041276,-0.3189923,0.6957177,-0.2355449,-0.022906272,-0.122392416,-0.20559873,0.39987066,0.35573846,-0.046845127,-0.40242144,-0.3689764,0.0829338,-0.5178987,0.14990844,-0.33326674,-0.28860995,-0.04766599,-0.3257294,0.40651545,-0.14540815,0.077229835,0.2456909,0.3897614,0.05107533,-0.24413317,-0.10746477,-0.7144522,0.24750443,-0.043177567,0.09463983,0.06577509,-0.6774026,-0.11727622,0.644971,0.014539701,-0.16829179,-0.37604156,0.25237018,-0.06332666,-0.40255806,0.26271498
sống,0.17339827,-0.22343954,-0.22266798,0.10210358,-0.18837819,-0.044349536,-0.00026455638,0.7833834,-0.13759331,0.015296753,0.0803697,-0.231932,0.52317184,0.056421287,-0.6078354,-0.17673552,-0.35840905,0.36411858,-0.13436112,0.23537242,0.0026481228,-0.54304814,-1.002168,-0.11078901,0.64937526,-0.09887457,-0.1040286,-0.2955896,-0.20090358,0.14804623,0.27469885,-0.086746514,-0.10598609,-0.04422569,0.22194834,-0.03501206,0.39751792,-0.29177552,-0.21916766,-0.21093744,-0.08800345,0.60630596,-0.36110207,-0.077870846,0.022014357,0.17204699,0.2036171,-0.058160212,0.13275115,-0.7059817,0.13985805,0.30015317,0.0030134248,-0.14354518,-0.722151,-0.0075613856,0.78951925,-0.02990427,0.18972972,-0.3880755,-0.021947552,0.27727932,-0.1989995,0.074011184
độ,-0.5362376,-0.45869294,0.608374,-0.35946444,-0.26541665,0.22441839,0.045762125,-0.31718537,-0.7107199,-0.3755637,0.1364546,-0.7465774,0.005751344,-0.38203084,0.08557462,-0.56026757,-0.020237504,0.013774277,-0.3659841,1.0220599,0.47980425,0.13242768,-0.06501305,-0.6046068,0.70736945,-0.2840013,-0.22795643,0.22804435,0.16059941,0.05377239,-0.62884665,-0.5247978,-0.3399794,-0.07405601,0.20871505,-0.32375818,0.22913928,0.293796,-0.59338933,0.08633832,-0.061386254,-0.2239741,-0.17144547,0.08127142,0.82512945,0.3578044,-0.014577254,-0.57872087,-0.29973716,-0.44884866,-0.243598,0.13484438,-0.36252564,-0.29857624,-0.413421,-0.21227898,0.16319062,0.34189066,0.43642026,-0.3087071,-0.18425408,-0.2938141,0.056174483,0.29851383
165,-0.48016542,-0.44257754,0.4311083,-0.10749968,-0.24202326,0.55745,-0.14790073,-0.029610373,-0.35689288,-0.08920224,-0.19460054,-0.5683715,-0.42310792,0.1002984,-0.15323457,-0.46407077,0.18645528,0.66764444,0.06830719,0.46010944,0.2618332,0.5115683,-0.29525706,0.11586041,0.56002146,-0.30065274,-0.016465213,-0.0358796,0.08164082,-0.23896338,-0.31253377,-0.50245005,-0.08559264,-0.16626091,-0.41856718,-0.32547423,0.3233761,0.6292427,-0.13098648,0.46270296,-0.25802055,0.53874266,-0.093409285,-0.3504296,0.48418942,-0.07860365,0.13792093,-0.259575,-0.4246371,-0.78596103,-0.34347185,0.38152573,-0.4861607,-0.36205,-0.21196438,0.026271626,0.74166596,0.38255998,0.5779162,-0.44734892,-0.51457304,0.17227006,-0.24157596,-0.073569514
thường xuyên,-0.19411476,-0.32023162,0.4985819,-0.008171652,0.67916834,0.56106496,-0.24091023,-0.2926442,-0.12799439,0.1842529,-0.3614898,0.15685555,0.2382752,-0.33354893,0.13715383,0.024025472,-0.055825964,0.2643602,0.24445713,0.2556001,-0.025959162,-0.10263278,-0.8866071,-0.19030683,0.267864,0.36809924,0.25971815,-0.23747317,-0.38108227,0.099504486,0.35462114,-0.070451625,-0.14533494,-0.33437872,-0.06973288,-0.96521986,0.4823821,-0.3839225,-0.22570583,-0.22968394,-0.476912,0.06600526,-0.15492226,0.1693249,0.17976303,0.37272906,-0.30210474,-0.6154267,0.10361253,-0.24093616,-0.14184335,-0.19163959,-0.17833316,0.052188594,-0.07315765,-0.598453,0.27811226,-0.40999505,-0.3164197,-0.66625303,0.3037553,-0.03603965,0.26847312,0.23235783
lục địa,0.21466507,-0.37885717,0.15010506,0.16478102,-0.38549036,0.099804975,0.4523759,0.06327788,0.19153732,-0.039209943,-0.19977558,-0.25841376,0.1666548,0.27063584,-0.609,-0.38105217,0.10521184,0.44830948,0.16087711,0.37082112,0.31531033,-0.4887855,-0.30785248,0.038639557,0.37276444,-0.06990786,0.26845336,-0.05436337,0.16408631,-0.1367079,0.49511793,0.37780637,-0.573989,0.055779304,0.17034736,0.121664286,0.098555155,0.1123948,-0.3563844,0.03018747,-0.3207817,0.6355239,-0.5427383,-0.10368382,0.25944212,0.31514692,0.023395004,0.067376696,-0.069394894,-0.68602574,0.33508652,0.21931212,-0.6137752,0.17630024,-0.33072644,0.25409096,0.43891382,-0.50225693,0.39897576,-0.53798234,0.17008488,-0.11509207,-0.37074763,-0.07537164
tạo,-0.29002097,-0.68589973,0.33143684,-0.11940487,-0.017042222,0.44528785,0.42172816,-0.39990726,-0.1963366,0.21751893,0.07449052,-0.37744087,0.3459854,-0.3553772,-0.801509,-0.30922154,0.47552222,0.78235924,0.0066872793,0.6257562,0.4554396,-0.51582986,-0.34387153,0.18603995,0.18902788,-0.25342092,0.09078811,-0.3032348,-0.45619375,0.17413925,-0.05899847,0.31678712,-0.14171767,0.110728584,0.12266574,0.12769896,-0.32626104,-0.135077,-0.24592033,-0.22094928,-0.64826715,0.17812872,-0.08410236,0.022491317,0.52120215,0.24754725,-0.13728459,0.09295181,0.13447261,-0.80020285,0.2779802,-0.32251927,-0.48903605,-0.068049796,-0.15332796,-0.21748036,0.44897142,-0.48665288,0.40479589,-0.57020247,0.2329353,0.15876965,-0.013845068,-0.016626408
rãnh,-0.100600064,-0.001206355,0.81742585,-0.3529246,-0.21782489,-0.10721387,-0.051373165,-0.3339373,-0.9322801,0.03620573,0.009768537,-0.038485806,0.025826734,-0.61231667,-0.60850334,-0.0063839816,-0.19615445,0.2520265,0.4677104,0.7323272,0.095365584,-0.31912902,-0.07962134,-0.37210092,0.17143025,0.09691701,-0.03981821,-0.30315226,-0.21078172,0.039392047,0.24934807,0.24861777,-0.13428433,-0.4911212,0.16916947,0.07496044,0.27638668,0.33627275,-0.19307767,-0.034605622,-0.09875947,0.29743338,-0.027109338,-0.18253867,0.56296694,0.12920342,-0.15096614,0.34828702,0.09612918,-0.6661482,-0.54224557,0.61889184,-0.70593405,0.002528942,-0.2952479,0.042154245,0.26356155,-0.3215651,0.12160986,-0.4345923,0.17815743,-0.108158775,-0.5064338,0.09208319
